svm_type one_against_all
kernel_type rbf
trainOnlyClass -1
gamma 0.07
nr_class 3
nr_hyp 3
total_sv 311
rho 0.802041 -0.243682 0.454534
omegaNorm 12.7105 14.0765 14.2988
avgDistP 0.0793128 0.0714529 0.0710702
avgDistN 0.0816221 0.0735306 0.0716313
avgFP 1.0081 1.00581 1.01622
avgFN 1.03746 1.03505 1.02424
label 1 2 3
nr_sv 99 119 93
SV
0.7964548996116121 -0.4153518279430521 -0.3301866641246837 1:-0.170827 2:0.10985 3:-0.250144 4:-0.160302 5:-0.739681 6:-0.0115322 7:0.199599 8:-0.136668 9:-0.345249 10:-0.2 12:-0.111111 13:-0.555556 14:-0.5 15:-0.333333 16:-0.2 17:-0.2 18:-0.2 19:-0.2 20:-0.6 21:-0.6 22:-0.5 23:-0.333333 24:-1 25:-1 26:-1 27:-1 28:-1 29:-1 32:-0.92322 33:-0.14327 34:-0.388007 35:-0.085449 36:-0.603536 37:-0.768394 38:-0.677466 39:0.0401206 40:-0.646202 41:-0.353479 42:-0.521547 43:0.0544427 44:0.056944 45:-0.799206 46:0.0630705 47:-0.438852 48:-0.242274 49:-0.683857 50:-0.18084 51:-0.416799 52:-0.602949 53:-0.669855 54:-0.727803 55:-0.569004 56:-0.749796 57:0.146195 58:-0.864861 59:-0.385788 60:-0.654136 61:-0.54858 62:-0.197725 63:-0.941109 64:-0.481242 65:0.812541 66:-0.124517 67:-0.485234 68:-0.371553 69:-0.525041 70:0.447614 71:-0.817691 72:-0.0813726 73:-0.16785 74:-0.578392 75:-0.444669 76:-0.460249 77:-0.781102 78:-0.887536 79:-0.1314 80:-0.618412 81:-0.415205 82:-0.410066 83:-0.415411 84:-0.104669 85:-0.698077 86:-0.199903 87:-0.110912 88:-0.562622 89:-0.51246 90:-0.285571 91:-0.742448 92:-0.1931 93:-0.453494 94:-0.0348293 95:-0.462583 96:-0.50329 97:-0.230143 98:0.127178 99:-0.593851 100:-0.787856 101:-0.326319 102:-0.715261 103:-0.984728 104:-0.847942 105:-0.0820906 106:-0.625298 107:-0.434951 108:-0.691472 109:-0.541536 110:-0.691951 111:-0.638533 112:-0.0549285 113:-0.238394 114:-0.398555 115:-0.244808 116:-0.213749 117:-0.426864 118:-0.649583 119:-0.63463 120:0.206408 121:0.144946 122:-0.145 123:-0.565953 124:-0.624382 125:-0.691806 126:-0.306366 127:-0.615381 128:-0.917559 129:0.036808 130:-0.346804 131:0.0529708 132:-0.0833606 133:-0.135343 134:-0.11802 135:0.118041 136:-0.135343 137:0.171467 138:0.275563 139:-0.600128 140:-0.144034 141:-0.106986 142:-0.0778461 143:-1 144:-1 145:-1 146:-0.5 147:-0.666667 148:-0.25 149:0.25 150:0.111111 151:0.2 152:-0.392868 153:-0.480958 154:-0.2 155:2.61201e-06 156:-0.111109 157:-0.555554 158:-0.499998 159:-0.333333 160:-0.199999 161:-0.199999 162:-0.199999 163:-0.199999 164:-0.600001 165:-0.600001 166:-0.500001 167:-0.333335 168:-1 169:-1 170:-1 171:-1 172:-1 173:-1 176:-1 177:-1 178:-1 179:-0.500001 180:-0.666667 181:-0.249997 182:0.250005 183:0.111115 184:0.199997 
0.7391423980554697 -0.01251716056512139 -0.6041941850689136 1:-0.202415 2:0.113407 3:-0.25119 4:-0.182869 5:-0.757226 6:-0.0123415 7:0.198489 8:-0.134437 9:-0.329408 10:-0.2 11:-0.2 12:-0.333333 13:-0.555556 14:-0.5 15:-0.333333 16:-0.2 17:-0.2 18:-0.2 19:-0.2 20:-0.6 21:-0.6 22:-0.5 23:-0.333333 24:-1 25:-1 26:-1 27:-1 28:-1 29:-1 32:-0.835586 33:-0.20403 34:-0.32771 35:-0.136957 36:-0.729064 37:-0.726481 38:-0.497918 39:-0.182855 40:-0.628335 41:-0.103884 42:-0.76734 43:-0.144372 44:-0.0272033 45:-0.387157 46:-0.410462 47:-0.589971 48:-0.216416 49:-0.465348 50:-0.0243966 51:-0.0731917 52:-0.448457 53:-0.306153 54:-0.516533 55:-0.578054 56:0.185859 57:-0.355201 58:-0.534877 59:-1 60:-0.512994 61:-0.331624 62:-0.59461 63:-0.755021 64:-0.173844 65:0.231483 66:-0.397906 67:-0.61319 68:-0.879981 69:-0.290375 70:0.172048 71:-0.421394 72:-0.462072 73:0.159337 74:-0.341865 75:-0.354962 76:-0.41653 77:-0.641276 78:0.277483 79:-0.777157 80:-0.581738 81:-0.571201 82:-0.00507062 83:-0.444691 84:-0.423063 85:-0.747725 86:-0.89708 87:-0.879641 88:0.25041 89:-0.46663 90:-0.259797 91:-0.331156 92:0.0409087 93:-0.413485 94:-0.751325 95:-0.980487 96:-0.74327 97:-0.325254 98:-0.674557 99:-0.79284 100:-0.433631 101:-0.545811 102:-0.952803 103:-0.518473 104:-0.260886 105:-0.669976 106:-0.539038 107:0.0174494 108:-0.791207 109:-0.240796 110:-0.565835 111:-0.23786 112:0.136796 113:-0.501709 114:-0.946269 115:-0.625855 116:-0.324855 117:-0.550357 118:-0.205721 119:-0.240107 120:-0.16955 121:0.00498212 122:-0.579388 123:-0.360179 124:-0.790873 125:-0.439112 126:-0.208789 127:-0.542646 128:-0.552873 129:-0.156853 130:-0.731724 131:0.0743572 132:-0.126151 133:-0.188321 134:-0.0640869 135:0.0640858 136:-0.188321 137:0.228473 138:0.218158 139:-0.600675 140:-0.145324 141:-0.0996747 142:-0.0434504 143:-1 144:-1 145:-1 146:-0.5 147:-0.666667 148:-0.25 149:0.25 150:0.111111 151:-0.2 152:-0.356408 153:-0.461354 154:-0.2 155:-0.199999 156:-0.333331 157:-0.555554 158:-0.499998 159:-0.333333 160:-0.199999 161:-0.199999 162:-0.199999 163:-0.199999 164:-0.600001 165:-0.600001 166:-0.500001 167:-0.333335 168:-1 169:-1 170:-1 171:-1 172:-1 173:-1 176:-1 177:-1 178:-1 179:-0.500001 180:-0.666667 181:-0.249997 182:0.250005 183:0.111115 184:-0.2 
0.6752834294317108 -0.3473433182100809 -0.2909387507288105 1:0.0307476 2:0.254439 3:-0.223815 4:0.0374818 5:-0.608175 6:0.0154063 7:0.217583 8:-0.121401 9:-0.242304 10:-0.0666667 11:0.2 12:0.333333 13:0.111111 16:0.2 17:0.2 18:0.2 19:-0.2 20:-0.2 21:-0.6 22:-1 23:-1 24:-1 25:-1 26:-1 27:-1 28:-1 29:-1 32:0.0798118 33:-0.367927 34:-0.632432 35:0.551475 36:-0.454249 37:-0.410446 38:-0.875582 39:-0.0959605 40:-0.400367 41:-0.819666 42:0.0993162 43:-0.538288 44:-0.445392 45:-0.412416 46:-0.873735 47:-0.733187 48:-0.250893 49:-0.0951341 50:-0.562446 51:-0.476565 52:-0.775528 53:-0.123377 54:-0.194806 55:-0.335179 56:0.209602 57:-0.160155 58:-0.745224 59:-0.369094 60:-0.709563 61:0.303778 62:-0.685689 63:-0.707055 64:-0.661831 65:0.483071 66:-0.634649 67:-0.496614 68:-0.697446 69:-0.307041 70:-0.278536 71:-0.207618 72:-0.351419 73:-0.287171 74:-0.471759 75:-0.657789 76:-0.0781875 77:-0.20199 78:0.0387666 79:0.018286 80:-0.650337 81:0.163154 82:-0.438649 83:0.0209855 84:0.0945217 85:-0.599339 86:-0.592759 87:-0.00312414 88:-0.691944 89:0.025967 90:-0.749147 91:0.790304 92:-0.748742 93:-0.0629401 94:-0.53078 95:-0.437296 96:-0.220808 97:-0.451095 98:0.0333231 99:-0.802778 100:0.163406 101:0.491895 102:-0.930421 103:-0.503691 104:-0.740769 105:0.122425 106:-0.256581 107:-0.174558 108:0.802524 109:-0.594121 110:-0.595977 111:-0.308626 112:0.0479318 113:-0.301635 114:-0.20551 115:0.0470349 116:0.0142361 117:-0.568066 118:-0.402698 119:0.0950775 120:-0.426113 121:-0.470429 122:-0.0761441 123:-0.766317 124:-0.344048 125:-0.555556 126:-0.369612 127:-0.578482 128:-0.433496 129:-0.526412 130:-0.362553 131:0.117198 132:-0.0736194 133:-0.171646 134:-0.0812151 135:0.0812278 136:-0.171646 137:0.160666 138:0.349533 139:-0.581806 140:-0.123257 141:-0.179309 142:0.00387451 143:-1 144:-1 145:-0.333333 146:-0.5 147:-0.333333 148:-0.25 149:0.25 150:0.333333 151:0.2 152:-0.625294 153:-0.438701 154:-0.0666626 155:0.200003 156:0.333337 157:0.111115 158:3.26501e-06 160:0.199999 161:0.199999 162:0.199999 163:-0.199999 164:-0.199999 165:-0.600001 166:-1 167:-1 168:-1 169:-1 170:-1 171:-1 172:-1 173:-1 176:-1 177:-1 178:-0.333335 179:-0.500001 180:-0.333333 181:-0.249997 182:0.250005 183:0.333337 184:0.199997 
0.6253001094411434 -0.2739091788594589 -0.2656419860615738 1:0.0229895 2:0.248111 3:-0.194948 4:0.041074 5:-0.638289 6:0.0410441 7:0.241083 8:-0.13418 9:-0.169737 10:-0.0666667 11:0.2 12:0.333333 13:0.111111 16:0.2 17:0.2 18:0.2 19:-0.2 20:-0.2 21:-0.6 22:-1 23:-1 24:-1 25:-1 26:-1 27:-1 28:-1 29:-1 32:0.0811145 33:-0.322344 34:-0.608848 35:0.547388 36:-0.518543 37:-0.400016 38:-0.808066 39:0.0970819 40:-0.495587 41:-0.642712 42:0.104387 43:-0.507549 44:-0.484551 45:-0.3902 46:-0.831996 47:-0.621087 48:-0.145719 49:-0.0612445 50:-0.584077 51:-0.400562 52:-0.816355 53:-0.404507 54:0.00457798 55:-0.141726 56:0.560796 57:-0.759597 58:-0.63804 59:-0.386619 60:-0.741866 61:0.425686 62:-0.228932 63:-0.639372 64:-0.632834 65:0.0935475 66:-0.802984 67:-0.596209 68:-0.654588 69:0.0286285 70:-0.486824 71:-0.829113 72:-0.623219 73:-0.214282 74:-0.472807 75:-0.581819 76:-0.777716 77:-0.135343 78:-0.111966 79:-0.380769 80:-0.875254 81:0.271218 82:-0.472531 83:-0.438674 84:-0.0179362 85:-0.407211 86:-0.553899 87:-0.555709 88:-0.540064 89:-0.0325854 90:-0.943661 91:0.671733 92:-0.089729 93:-0.173604 94:-0.55665 95:-0.328051 96:-0.257416 97:-0.903398 98:-0.0499219 99:-0.488732 100:-0.548109 101:0.168788 102:-0.510429 103:-0.177556 104:-0.821093 105:0.502706 106:-0.869937 107:0.0819905 108:-0.110728 109:0.0972291 110:-0.302118 111:-0.135326 112:0.0776199 113:-0.702184 114:-0.806104 115:-0.298673 116:-0.647389 117:-0.176883 118:-0.31214 119:0.549861 120:-0.450121 121:-0.506102 122:-0.25998 123:-0.367008 124:-0.0391405 125:-0.442314 126:0.257189 127:-0.211975 128:-0.505629 129:-0.174226 130:-0.424982 131:0.160121 132:-0.120474 133:-0.238939 134:-0.0111128 135:0.0111197 136:-0.238939 137:0.172967 138:0.36661 139:-0.564368 140:-0.0961134 141:-0.191361 142:0.127398 143:-1 144:-1 145:-0.333333 146:-0.5 147:-0.333333 148:-0.25 149:0.5 150:0.333333 151:0.0666667 152:-0.607305 153:-0.476586 154:-0.0666626 155:0.200003 156:0.333337 157:0.111115 158:3.26501e-06 160:0.199999 161:0.199999 162:0.199999 163:-0.199999 164:-0.199999 165:-0.600001 166:-1 167:-1 168:-1 169:-1 170:-1 171:-1 172:-1 173:-1 176:-1 177:-1 178:-0.333335 179:-0.500001 180:-0.333333 181:-0.249997 182:0.500006 183:0.333337 184:0.0666626 
0.06499727225536636 -0.1250692667529341 -0 1:0.0984511 2:0.2233 3:-0.174514 4:0.110505 5:-0.607609 6:0.100471 7:0.171215 8:0.0240087 9:0.0461207 10:0.0666667 11:0.2 12:0.333333 13:0.111111 16:0.2 17:0.2 18:0.2 19:-0.2 20:-0.2 21:-0.6 22:-1 23:-1 24:-1 25:-1 26:-1 27:-1 28:-1 29:-1 32:0.122838 33:-0.595807 34:-0.672385 35:0.714287 36:-0.216563 37:-0.216159 38:-0.766114 39:-0.911654 40:0.464495 41:-0.636988 42:-0.495981 43:-0.369277 44:-0.670669 45:-0.267644 46:-0.169873 47:-0.81441 48:-0.535819 49:-0.0508706 50:-0.196371 51:-0.798248 52:-0.852494 53:-0.296117 54:-0.632958 55:-0.874854 56:-0.157826 57:-0.0497517 58:0.157922 59:-0.715329 60:-0.463398 61:-0.750414 62:-0.322441 63:-0.524409 64:-0.578054 65:0.453935 66:-0.715955 67:0.191736 68:-0.229595 69:-0.860433 70:-0.271321 71:-0.762203 72:0.0181236 73:0.147452 74:-0.312286 75:-0.817533 76:-0.537112 77:-0.369023 78:-0.133355 79:-0.251437 80:-0.151332 81:0.0974652 82:-0.285677 83:-0.882848 84:-0.333957 85:-0.399933 86:-0.131658 87:0.214768 88:-0.48726 89:-0.307355 90:-0.530118 91:-0.510681 92:-0.637284 93:-0.588716 94:0.257853 95:-0.0191762 96:-0.668853 97:-0.509258 98:-0.168401 99:-0.484977 100:-0.417869 101:-0.434881 102:-0.0885405 103:-0.0187622 104:-0.651916 105:-0.844104 106:-0.255768 107:-0.720951 108:-0.350612 109:-0.400831 110:-0.549643 111:-0.540685 112:0.139799 113:-0.435969 114:-0.752449 115:-0.629203 116:-0.662894 117:-0.149303 118:-0.976248 119:-0.191101 120:0.0160946 121:-0.860058 122:-0.77298 123:-0.44265 124:-0.560971 125:-0.741159 126:-0.0309887 127:-0.0171192 128:-0.911548 129:-0.483224 130:-0.79237 131:0.207464 132:-0.101444 133:-0.251785 134:0.00256238 135:-0.00255006 136:-0.251785 137:0.00780078 138:0.378315 139:-0.52395 140:-0.176833 141:-0.0401099 142:0.50034 143:-1 144:-1 145:-0.333333 146:-0.5 147:-0.333333 148:-0.25 149:0.5 150:0.555556 151:0.0666667 152:-0.661295 153:-0.42515 154:0.0666626 155:0.200003 156:0.333337 157:0.111115 158:3.26501e-06 160:0.199999 161:0.199999 162:0.199999 163:-0.199999 164:-0.199999 165:-0.600001 166:-1 167:-1 168:-1 169:-1 170:-1 171:-1 172:-1 173:-1 176:-1 177:-1 178:-0.333335 179:-0.500001 180:-0.333333 181:-0.249997 182:0.500006 183:0.555567 184:0.0666626 
0.8481865654824485 -0 -1.536599810641102 1:-0.57834 2:-0.58795 3:-0.6559 4:-0.551709 5:-0.540792 6:-0.299656 7:-0.60057 8:-0.533542 9:-0.462315 10:-0.6 11:-0.6 12:-0.777778 13:-0.777778 14:-0.75 15:-0.666667 16:-1 17:-1 18:-1 19:-1 20:-1 21:-1 22:-1 23:-1 24:-1 25:-1 26:-1 27:-1 28:-1 29:-1 32:-0.125934 33:-0.336715 34:-0.469159 35:-0.640216 36:-0.51267 37:-0.731168 38:-0.515085 39:-0.216955 40:-0.0492685 41:-0.483377 42:-0.763263 43:-0.430852 44:-0.735762 45:-0.469425 46:-0.456741 47:-0.872079 48:-0.890634 49:-0.754184 50:-0.877955 51:-0.987161 52:-0.572466 53:-0.697814 54:-0.283501 55:-0.411306 56:-0.553108 57:-0.0428404 58:-0.581282 59:-0.267359 60:-0.519108 61:-0.00239628 62:-0.564273 63:-0.589133 64:-0.739132 65:-0.776951 66:-0.526541 67:-0.797299 68:-0.436967 69:-0.745392 70:-0.470929 71:-0.600718 72:-0.910153 73:-0.625094 74:-0.787674 75:-0.096405 76:-0.0166418 77:-0.887598 78:-0.619316 79:-0.851939 80:-0.464345 81:-0.412108 82:-0.621004 83:-0.616455 84:-0.926456 85:-0.686895 86:-0.622604 87:-0.722051 88:-0.622401 89:-0.573486 90:-0.305248 91:-0.836695 92:-0.405686 93:-0.568363 94:-0.538244 95:-0.759916 96:-0.038705 97:-0.0566641 98:-0.468984 99:-0.642476 100:-0.470416 101:-0.262297 102:-0.746493 103:-0.39919 104:-0.761178 105:-0.585242 106:-0.499847 107:-0.439461 108:-0.691783 109:-0.705802 110:-0.506563 111:-0.51944 112:-0.788791 113:-0.859792 114:-0.977303 115:-0.801629 116:-0.822849 117:-0.949303 118:-0.348353 119:-0.773289 120:-0.514077 121:-0.788777 122:-0.908612 123:-0.0628184 124:-0.836788 125:-0.218084 126:-0.224664 127:-0.382086 128:-0.552097 129:-0.578443 130:-0.635026 131:-0.352709 132:-0.597097 133:-0.358896 134:0.120267 135:-0.120264 136:-0.358896 137:0.452445 138:-0.210685 139:0.0894956 140:-0.528878 141:-0.177377 142:0.130168 143:-1 144:-1 145:-1 146:-1 147:-0.666667 148:-0.5 149:-0.5 150:-0.555556 151:-0.733333 152:-0.155707 153:-0.661546 154:-0.6 155:-0.599999 156:-0.777778 157:-0.777778 158:-0.75 159:-0.666667 160:-1 161:-1 162:-1 163:-1 164:-1 165:-1 166:-1 167:-1 168:-1 169:-1 170:-1 171:-1 172:-1 173:-1 176:-1 177:-1 178:-1 179:-1 180:-0.666667 181:-0.499998 182:-0.499998 183:-0.555554 184:-0.733333 
1.057336879300051 -0 -0.8832661930070775 1:-0.577319 2:-0.577552 3:-0.671878 4:-0.555947 5:-0.508234 6:-0.319089 7:-0.627677 8:-0.553895 9:-0.508655 10:-0.6 11:-0.6 12:-0.777778 13:-0.777778 14:-0.75 15:-0.666667 16:-1 17:-1 18:-1 19:-1 20:-1 21:-1 22:-1 23:-1 24:-1 25:-1 26:-1 27:-1 28:-1 29:-1 32:-0.131475 33:-0.360313 34:-0.493258 35:-0.653126 36:-0.500735 37:-0.852675 38:-0.566164 39:-0.234574 40:0.0987297 41:-0.692315 42:-0.839808 43:-0.418121 44:-0.56592 45:-0.346318 46:-0.631521 47:-0.744578 48:-0.850253 49:-0.654003 50:-0.652132 51:-0.955106 52:-0.459854 53:-0.635171 54:-0.44751 55:-0.545917 56:-0.323487 57:-0.184964 58:-0.61765 59:-0.362321 60:-0.252278 61:-0.0455163 62:-0.90057 63:-0.684521 64:-0.834682 65:-0.62178 66:-0.679271 67:-0.791565 68:-0.75046 69:-0.808074 70:-0.53555 71:-0.756319 72:-0.57558 73:-0.814159 74:-0.626174 75:-0.017728 76:-0.53871 77:-0.520918 78:-0.598296 79:-0.837092 80:-0.27265 81:-0.545463 82:-0.62137 83:-0.916826 84:-0.688155 85:-0.584643 86:-0.729836 87:-0.459836 88:-0.807916 89:-0.704762 90:-0.606398 91:-0.631203 92:-0.637087 93:-0.316297 94:-0.933057 95:-0.328058 96:-0.213444 97:-0.872574 98:-0.479233 99:-0.936458 100:-0.636458 101:-0.677733 102:-0.919385 103:-0.870688 104:-0.720689 105:-0.897391 106:-0.929892 107:-0.487277 108:-0.701219 109:-0.719522 110:-0.705858 111:-0.106987 112:-0.268671 113:0.0569021 114:-0.855454 115:-0.653283 116:-0.259566 117:-0.847165 118:-0.21087 119:-0.696628 120:-0.666786 121:-0.804592 122:-0.662956 123:-0.715531 124:-0.83622 125:-0.44096 126:-0.560186 127:-0.84497 128:-0.610499 129:-0.798349 130:0.135862 131:-0.360908 132:-0.603588 133:-0.360316 134:0.121884 135:-0.121873 136:-0.360316 137:0.451095 138:-0.203233 139:0.0601273 140:-0.591293 141:-0.238066 142:-0.0230967 143:-1 144:-1 145:-1 146:-1 147:-0.666667 148:-0.5 149:-0.5 150:-0.555556 151:-0.6 152:-0.181439 153:-0.632219 154:-0.6 155:-0.599999 156:-0.777778 157:-0.777778 158:-0.75 159:-0.666667 160:-1 161:-1 162:-1 163:-1 164:-1 165:-1 166:-1 167:-1 168:-1 169:-1 170:-1 171:-1 172:-1 173:-1 176:-1 177:-1 178:-1 179:-1 180:-0.666667 181:-0.499998 182:-0.499998 183:-0.555554 184:-0.6 
0.7909711629665954 -0 -0.7226092669621392 1:-0.581539 2:-0.561173 3:-0.685909 4:-0.564388 5:-0.4854 6:-0.332915 7:-0.669181 8:-0.570931 9:-0.574905 10:-0.6 11:-0.6 12:-0.777778 13:-0.777778 14:-0.75 15:-0.666667 16:-1 17:-1 18:-1 19:-1 20:-1 21:-1 22:-1 23:-1 24:-1 25:-1 26:-1 27:-1 28:-1 29:-1 32:-0.135773 33:-0.393576 34:-0.527257 35:-0.636126 36:-0.485246 37:-0.90068 38:-0.571151 39:-0.344863 40:0.0804898 41:-0.678029 42:-0.787183 43:-0.42552 44:-0.434398 45:-0.348903 46:-0.784284 47:-0.686278 48:-0.849157 49:-0.552895 50:-0.464628 51:-0.890604 52:-0.29214 53:-0.504212 54:-0.585995 55:-0.586518 56:-0.0777561 57:-0.256681 58:-0.623587 59:-0.815921 60:-0.151635 61:0.309982 62:-0.822181 63:-0.843003 64:-0.828233 65:-0.321112 66:-0.695618 67:-0.572324 68:-0.453482 69:-0.83566 70:-0.503113 71:-0.740972 72:-0.531732 73:-0.403441 74:-0.302613 75:-0.278822 76:-0.555707 77:-0.411197 78:-0.642387 79:-0.482356 80:-0.462492 81:-0.535129 82:-0.612178 83:-0.771549 84:-0.894467 85:-0.635674 86:-0.586546 87:-0.947382 88:-0.791316 89:-0.642516 90:-0.433581 91:-0.596797 92:-0.753172 93:-0.813074 94:-0.742537 95:-0.295338 96:-0.211534 97:-0.59652 98:-1 99:-0.757842 100:-0.566788 101:-0.272661 102:-0.936673 103:-0.414761 104:-0.716798 105:-0.776695 106:-0.530532 107:-0.872259 108:-0.893833 109:-0.502488 110:-0.506796 111:0.142627 112:-0.666134 113:-0.503587 114:-0.870203 115:-0.422042 116:-0.491798 117:-0.879674 118:-0.840176 119:-0.869364 120:-0.587651 121:-0.422491 122:-0.556019 123:-0.805906 124:-0.495588 125:-0.761802 126:-0.88447 127:-0.349781 128:-0.686515 129:-0.454402 130:-0.532021 131:-0.37167 132:-0.610685 133:-0.360464 134:0.122049 135:-0.12204 136:-0.360464 137:0.465497 138:-0.190802 139:0.0454671 140:-0.681254 141:-0.291279 142:-0.213722 143:-1 144:-1 145:-1 146:-0.5 147:-0.666667 148:-0.5 149:-0.5 150:-0.555556 151:-0.733333 152:-0.190318 153:-0.627863 154:-0.6 155:-0.599999 156:-0.777778 157:-0.777778 158:-0.75 159:-0.666667 160:-1 161:-1 162:-1 163:-1 164:-1 165:-1 166:-1 167:-1 168:-1 169:-1 170:-1 171:-1 172:-1 173:-1 176:-1 177:-1 178:-1 179:-0.500001 180:-0.666667 181:-0.499998 182:-0.499998 183:-0.555554 184:-0.733333 
0.5976091811943848 -0.2256905589777331 -0.1702812720050271 1:-0.613163 2:-0.674868 3:-0.51157 4:-0.476101 5:-0.715701 6:-0.136359 7:-0.393488 8:-0.337964 9:-0.273074 10:-0.6 11:-0.6 12:-0.555556 13:-0.777778 14:-1 15:-1 16:-1 17:-1 18:-1 19:-1 20:-1 21:-1 22:-1 23:-1 24:-1 25:-1 26:-1 27:-1 28:-1 29:-1 32:-0.171791 33:-0.189094 34:-0.475149 35:-0.716474 36:-0.855083 37:-0.306748 38:-0.769396 39:-0.798634 40:0.262058 41:-0.251803 42:-0.784224 43:-0.643936 44:-0.732061 45:-0.817096 46:-0.406039 47:-0.981485 48:-0.533079 49:-0.784501 50:-0.48442 51:-0.629423 52:-0.778746 53:-0.617441 54:-0.746371 55:-0.334876 56:-0.0594815 57:-0.284913 58:-0.036642 59:-0.0578126 60:-0.429961 61:-0.713886 62:-0.475806 63:-0.792355 64:-0.700503 65:-0.307379 66:-0.785856 67:-0.274446 68:-0.542511 69:-0.818286 70:-0.80544 71:-0.249356 72:-0.193695 73:-0.258245 74:-0.67306 75:-0.635479 76:-0.812507 77:-0.127869 78:-0.214282 79:-0.739144 80:-0.723902 81:-0.641418 82:-0.672185 83:-0.906476 84:-0.54066 85:-0.57192 86:-0.889619 87:0.266051 88:-0.379773 89:-1 90:-0.698337 91:-0.738945 92:-0.23219 93:-0.133631 94:-0.7842 95:-0.574984 96:-0.774959 97:-0.515541 98:-0.703256 99:-0.904468 100:-0.835138 101:-0.926314 102:-0.430748 103:-0.63914 104:-0.634902 105:-0.709442 106:-0.869418 107:-0.577953 108:-0.475437 109:-0.397335 110:-0.288073 111:-0.646534 112:-0.342682 113:-0.761954 114:-0.742643 115:-0.764454 116:-0.564319 117:-0.558906 118:-0.339913 119:-0.26447 120:-0.268657 121:-0.736381 122:-0.723177 123:-0.30108 124:-0.438064 125:-0.195455 126:-0.393366 127:-0.350014 128:-0.944663 129:-0.377335 130:-0.333647 131:-0.265804 132:-0.453433 133:-0.260827 134:0.0122364 135:-0.0122269 136:-0.260827 137:0.515302 138:-0.335907 139:0.335388 140:-0.0447163 141:0.209347 142:0.762254 143:-1 144:-1 145:-1 146:-1 147:-1 148:-0.75 149:-0.5 150:-0.555556 151:-0.6 152:-0.0714106 153:-0.914094 154:-0.6 155:-0.599999 156:-0.555554 157:-0.777778 158:-1 159:-1 160:-1 161:-1 162:-1 163:-1 164:-1 165:-1 166:-1 167:-1 168:-1 169:-1 170:-1 171:-1 172:-1 173:-1 176:-1 177:-1 178:-1 179:-1 180:-1 181:-0.75 182:-0.499998 183:-0.555554 184:-0.6 
0.7280891373817211 -0.526951084929543 -0.178309560502589 1:0.0671161 2:0.219755 3:-0.181775 4:0.12638 5:-0.587267 6:0.0963855 7:0.160718 8:0.140073 9:0.0715821 10:-0.0666667 11:0.2 12:0.333333 13:0.111111 16:0.2 17:0.2 18:0.2 19:-0.2 20:-0.2 21:-0.6 22:-1 23:-1 24:-1 25:-1 26:-1 27:-1 28:-1 29:-1 32:0.148126 33:-0.603809 34:-0.661446 35:0.69963 36:-0.180587 37:-0.0611282 38:-0.755522 39:-0.923188 40:0.137518 41:-0.599135 42:-0.387012 43:-0.348397 44:-0.637456 45:-0.536202 46:-0.441597 47:-0.701966 48:-0.90539 49:-0.274843 50:-0.166693 51:-0.667378 52:-0.356958 53:-0.964425 54:0.255107 55:-0.711574 56:-0.130626 57:-0.502517 58:-0.0610017 59:-0.103394 60:-0.10281 61:-0.387266 62:-0.725708 63:-0.406479 64:-0.731551 65:0.00296149 66:-0.710713 67:0.247494 68:-0.366946 69:-0.19384 70:-0.769496 71:-0.749428 72:-0.377573 73:-0.0731494 74:-0.660226 75:-0.459003 76:-0.0353116 77:-0.671981 78:-0.521636 79:-0.522601 80:0.216967 81:-0.200781 82:-0.0958523 83:-0.590239 84:-0.427287 85:-0.689376 86:-0.441839 87:-0.633484 88:0.354877 89:-0.69696 90:-0.320715 91:-0.65401 92:-0.46593 93:-0.724752 94:-0.396626 95:0.265459 96:-0.446372 97:-0.797504 98:-0.153986 99:-0.259437 100:-0.599272 101:-0.337616 102:-0.666006 103:0.332506 104:-0.216668 105:-0.64917 106:-0.796256 107:-0.73395 108:0.117513 109:-0.319941 110:-0.684474 111:-0.802323 112:-0.39249 113:0.415224 114:-0.496663 115:-0.717922 116:-0.850859 117:-0.687171 118:-0.0645754 119:-0.141677 120:-0.164403 121:-0.514747 122:-0.640729 123:-0.297195 124:-0.652445 125:-0.831652 126:-0.68776 127:0.349055 128:-0.58066 129:-0.805843 130:-0.797984 131:0.191365 132:-0.0642496 133:-0.211684 134:-0.039806 135:0.0398157 136:-0.211684 137:0.070357 138:0.343117 139:-0.526728 140:-0.188964 141:0.0507408 142:0.519734 143:-1 144:-1 145:-0.333333 146:-0.5 147:-0.666667 148:-0.25 149:0.5 150:0.333333 151:-0.0666667 152:-0.680563 153:-0.405586 154:-0.0666626 155:0.200003 156:0.333337 157:0.111115 158:3.26501e-06 160:0.199999 161:0.199999 162:0.199999 163:-0.199999 164:-0.199999 165:-0.600001 166:-1 167:-1 168:-1 169:-1 170:-1 171:-1 172:-1 173:-1 176:-1 177:-1 178:-0.333335 179:-0.500001 180:-0.666667 181:-0.249997 182:0.500006 183:0.333337 184:-0.0666626 
0.0767590751871443 -0.1119368379579014 -0 1:0.034656 2:0.24345 3:-0.204108 4:0.0444528 5:-0.62539 6:0.0357836 7:0.227876 8:-0.139138 9:-0.163592 10:-0.0666667 11:0.2 12:0.333333 13:0.111111 16:0.2 17:0.2 18:0.2 19:-0.2 20:-0.2 21:-0.6 22:-1 23:-1 24:-1 25:-1 26:-1 27:-1 28:-1 29:-1 32:0.0999228 33:-0.379615 34:-0.652674 35:0.605818 36:-0.574854 37:-0.419812 38:-0.829465 39:0.0314187 40:-0.40344 41:-0.531321 42:0.194078 43:-0.48367 44:-0.603548 45:-0.435603 46:-0.754055 47:-0.658732 48:-0.116087 49:0.00565892 50:-0.53764 51:-0.565405 52:-0.51163 53:-0.546753 54:-0.114632 55:-0.277717 56:0.505059 57:-0.715106 58:-0.599427 59:-0.328624 60:-0.382901 61:0.120894 62:-0.588564 63:-0.51707 64:-0.581491 65:0.292366 66:-0.856404 67:-0.670681 68:-0.788795 69:-0.320478 70:0.101395 71:-0.212412 72:-0.775706 73:-0.200879 74:-0.741529 75:-0.573629 76:-0.775563 77:0.147315 78:0.216954 79:-0.703155 80:-0.500878 81:-0.362418 82:-0.109447 83:-0.282415 84:-0.208625 85:-0.603982 86:-0.545899 87:-0.537504 88:-0.358172 89:-0.347474 90:-0.22698 91:-0.134477 92:-0.716058 93:-0.384141 94:-0.838177 95:-0.602269 96:-0.300435 97:-0.666187 98:-0.863607 99:-0.770621 100:-0.697105 101:-0.525559 102:-0.881383 103:0.125869 104:-0.867724 105:0.229674 106:-0.924797 107:-0.941477 108:-0.837382 109:-0.399148 110:-0.120016 111:-0.461231 112:-0.093731 113:-0.238359 114:-0.637023 115:-0.376624 116:-0.542727 117:-0.136982 118:-0.0564631 119:-0.197724 120:0.295897 121:-0.432902 122:-0.593354 123:-0.551865 124:0.108582 125:-0.493871 126:-0.397903 127:-0.418027 128:-0.0681108 129:-0.441792 130:-0.324717 131:0.16625 132:-0.149207 133:-0.266612 134:0.0184574 135:-0.0184424 136:-0.266612 137:0.144164 138:0.374111 139:-0.567942 140:-0.111373 141:-0.186973 142:0.149782 143:-1 144:-1 145:-0.333333 146:-0.5 147:-0.333333 148:-0.25 149:0.5 150:0.333333 151:0.2 152:-0.61769 153:-0.46409 154:-0.0666626 155:0.200003 156:0.333337 157:0.111115 158:3.26501e-06 160:0.199999 161:0.199999 162:0.199999 163:-0.199999 164:-0.199999 165:-0.600001 166:-1 167:-1 168:-1 169:-1 170:-1 171:-1 172:-1 173:-1 176:-1 177:-1 178:-0.333335 179:-0.500001 180:-0.333333 181:-0.249997 182:0.500006 183:0.333337 184:0.199997 
0.2456351075471679 -0.3178613039866247 -0 1:0.126099 2:0.247075 3:-0.198003 4:0.11517 5:-0.577088 6:0.0620187 7:0.190751 8:-0.0747119 9:-0.0495931 10:0.0666667 11:0.4 12:0.555556 13:0.111111 16:0.2 17:0.2 18:0.2 19:-0.2 20:-0.2 21:-0.6 22:-1 23:-1 24:-1 25:-1 26:-1 27:-1 28:-1 29:-1 32:0.105347 33:-0.545936 34:-0.710503 35:0.750389 36:-0.292255 37:-0.413683 38:-0.875108 39:-0.753664 40:0.573236 41:-0.602346 42:-0.397463 43:-0.375026 44:-0.738646 45:-0.30862 46:-0.401645 47:-0.818107 48:-0.72543 49:0.351646 50:-0.141558 51:-0.740486 52:-0.631326 53:-0.455708 54:-0.0495327 55:-0.250859 56:-0.360301 57:-0.237666 58:0.36157 59:-0.692456 60:-0.370066 61:0.0613356 62:-0.862161 63:-0.0605455 64:-0.296602 65:-0.150302 66:-0.549491 67:0.00514527 68:-0.431242 69:-0.267957 70:-0.555319 71:-0.748558 72:0.259528 73:-0.419214 74:-0.376191 75:-0.596613 76:-0.81984 77:-0.0400928 78:-0.395937 79:-0.174752 80:-0.165683 81:-0.248671 82:-0.353438 83:-0.651946 84:-0.117187 85:-0.372484 86:-0.633413 87:0.313005 88:-0.480428 89:-0.336536 90:-0.565825 91:-0.423506 92:-0.353116 93:0.242004 94:-0.0648816 95:0.0733618 96:-0.73525 97:-0.805341 98:-0.0436449 99:-0.710112 100:0.175645 101:0.0236673 102:-0.565629 103:-0.240832 104:-0.941484 105:-0.267646 106:-0.53644 107:-0.674506 108:-0.235391 109:-0.346506 110:-0.724667 111:-0.473761 112:-0.137627 113:-0.451385 114:-0.251427 115:-0.859212 116:0.0244099 117:-0.382256 118:-0.659895 119:-0.640742 120:-0.265292 121:-0.638541 122:-0.618665 123:-0.639504 124:-0.593863 125:-0.672061 126:0.241679 127:-0.765463 128:-0.342493 129:-0.30711 130:-0.408516 131:0.197768 132:-0.118195 133:-0.259719 134:0.011058 135:-0.0110347 136:-0.259719 137:-0.0216022 138:0.450765 139:-0.550096 140:-0.154264 141:-0.0955623 142:0.388692 143:-1 144:-1 145:-0.333333 146:-0.5 147:-0.333333 149:0.75 150:0.555556 151:-0.0666667 152:-0.681432 153:-0.434853 154:0.0666626 155:0.400009 156:0.555567 157:0.111115 158:3.26501e-06 160:0.199999 161:0.199999 162:0.199999 163:-0.199999 164:-0.199999 165:-0.600001 166:-1 167:-1 168:-1 169:-1 170:-1 171:-1 172:-1 173:-1 176:-1 177:-1 178:-0.333335 179:-0.500001 180:-0.333333 181:3.26501e-06 182:0.750014 183:0.555567 184:-0.0666626 
0.278183344617625 -0.6875470612842879 -0 1:-0.341811 2:0.123242 3:-0.197752 4:-0.185282 5:-0.81172 6:0.0577795 7:0.199169 8:0.0813486 9:0.0114512 10:-0.6 11:-0.6 12:-0.555556 13:-0.555556 14:-0.5 15:-0.333333 16:-0.2 17:-0.2 18:-0.2 19:-0.2 20:-0.2 21:-0.6 22:-0.5 23:-0.333333 24:-0.333333 25:-1 26:-1 27:-1 28:-1 29:-1 32:-0.659355 33:0.0668176 34:-0.606235 35:-0.120885 36:-0.825474 37:-0.644805 38:-0.212244 39:-0.601454 40:-0.774429 41:-0.664757 42:-0.820088 43:-0.848145 44:-0.857368 45:-0.80971 46:-0.758989 47:-0.475809 48:-0.62785 49:-0.557138 50:-0.637532 51:-0.433403 52:-0.856583 53:-0.668857 54:-0.400867 55:-0.42403 56:-0.593762 57:-0.574125 58:-0.624377 59:-0.367054 60:-0.742318 61:-0.470652 62:-0.605475 63:-0.584358 64:-0.731616 65:-0.32024 66:-0.381502 67:-0.912697 68:-0.286691 69:-0.6408 70:-0.139302 71:-0.530681 72:-0.67177 73:-0.381669 74:-0.655659 75:-0.577053 76:-0.451077 77:-0.0678105 78:-0.479249 79:-0.596705 80:-0.400727 81:-0.547915 82:-0.318613 83:-0.7319 84:0.0705558 85:-0.31013 86:-0.320766 87:-0.0026058 88:-0.0898589 89:-0.379799 90:0.291704 91:-0.338911 92:-0.555835 93:0.017712 94:-0.571933 95:-0.913689 96:-0.717014 97:-0.309441 98:-0.388833 99:-0.729304 100:-0.224193 101:-0.496678 102:-0.596525 103:-0.395497 104:-0.600252 105:-0.555355 106:-0.789729 107:-0.869955 108:-0.189193 109:-0.330188 110:-0.829022 111:-0.0932857 112:-0.949841 113:-0.988709 114:-0.313773 115:-0.788543 116:-0.66426 117:-0.460623 118:-0.519819 119:-0.846683 120:-0.882236 121:-0.2776 122:-0.608418 123:-0.387382 124:-0.542204 125:-0.861901 126:-0.771635 127:-0.68671 128:-0.800656 129:-0.452325 130:-0.80072 131:0.284436 132:-0.300425 133:-0.44994 134:0.225887 135:-0.225889 136:-0.44994 137:0.518002 138:-0.0349384 139:-0.552981 140:-0.144536 141:0.0855414 142:0.537412 143:-1 144:-1 145:-1 146:-0.5 147:-0.333333 148:-0.5 149:-0.5 150:-0.555556 151:-0.466667 152:-0.294185 153:-0.423265 154:-0.6 155:-0.599999 156:-0.555554 157:-0.555554 158:-0.499998 159:-0.333333 160:-0.199999 161:-0.199999 162:-0.199999 163:-0.199999 164:-0.199999 165:-0.600001 166:-0.500001 167:-0.333335 168:-0.333335 169:-1 170:-1 171:-1 172:-1 173:-1 176:-1 177:-1 178:-1 179:-0.500001 180:-0.333333 181:-0.499998 182:-0.499998 183:-0.555554 184:-0.466667 
1.458284994996982 -1.216266080140015 -0.1385384510594895 1:-0.245136 2:0.372145 3:-0.456433 4:-0.230071 5:-0.529092 6:-0.207597 7:0.018138 8:0.065304 9:0.17216 10:-0.6 11:-0.6 12:-0.555556 13:-0.555556 14:-0.5 15:-0.333333 16:-0.2 17:-0.2 18:-0.2 19:-0.2 20:-0.2 21:-0.2 23:0.333333 24:-0.333333 27:-1 28:-1 29:-1 32:-0.352222 33:0.0175952 34:-0.600774 35:-0.528181 36:-0.660187 37:-0.601212 38:-0.368004 39:-0.812692 40:-0.600871 41:-0.776013 42:-0.627973 43:-0.818545 44:-0.55989 45:-0.841102 46:-0.673149 47:-0.778721 48:-0.873197 49:-0.880169 50:-0.350933 51:-0.419794 52:-0.19311 53:-0.0920208 54:-0.718789 55:-0.403336 56:-0.51854 57:-0.892189 58:-0.0884374 59:-0.423326 60:-0.869443 61:-0.114365 62:0.14185 63:-0.587921 64:-0.513399 65:-0.522498 66:-0.710371 67:-0.273684 68:-0.692167 69:-0.667169 70:-0.554911 71:-0.576236 72:-0.357025 73:-0.451616 74:-0.413288 75:-0.811761 76:-0.561683 77:-0.604998 78:-0.74481 79:-0.461929 80:-0.775084 81:-0.130376 82:-0.409886 83:-0.716178 84:-0.537989 85:-0.708288 86:-0.612398 87:-0.646761 88:-0.909286 89:-0.65523 90:-0.534683 91:-0.464229 92:-0.390609 93:-0.450829 94:-0.649808 95:-0.868465 96:-0.929777 97:-0.673373 98:-0.782227 99:-0.861478 100:-0.618208 101:-0.295794 102:-0.720148 103:-0.0735015 104:-0.669821 105:-0.322061 106:-0.369516 107:-0.489547 108:-0.140401 109:-0.584476 110:-0.814471 111:-0.52573 112:-0.373568 113:-0.47328 114:-0.576309 115:-0.714089 116:-0.685284 117:-0.730628 118:-0.668745 119:-0.32989 120:-0.981601 121:-0.901425 122:-0.187514 123:-0.312329 124:-0.578062 125:-0.788902 126:-0.51857 127:-0.929085 128:-0.850365 129:-0.573796 130:-0.582709 131:0.444036 132:-0.812324 133:-0.881614 134:0.810411 135:-0.810402 136:-0.881614 137:0.390489 138:0.221185 139:-0.733476 140:-0.353702 141:-0.0994827 142:0.56536 143:-1 144:-1 145:-0.333333 147:-0.333333 148:-0.5 149:-0.5 150:-0.333333 151:-0.6 152:-0.512165 153:0.296633 154:-0.6 155:-0.599999 156:-0.555554 157:-0.555554 158:-0.499998 159:-0.333333 160:-0.199999 161:-0.199999 162:-0.199999 163:-0.199999 164:-0.199999 165:-0.199999 166:1.6325e-06 167:0.333335 168:-0.333335 169:-3.265e-06 170:-3.265e-06 171:-1 172:-1 173:-1 176:-1 177:-1 178:-0.333335 179:1.6325e-06 180:-0.333333 181:-0.499998 182:-0.499998 183:-0.333331 184:-0.6 
0.3050661742811736 -0.05420949007944295 -0.3300441881836529 1:-0.601185 2:-0.667792 3:-0.533555 4:-0.48884 5:-0.695955 6:-0.160455 7:-0.420436 8:-0.368822 9:-0.274389 10:-0.6 11:-0.6 12:-0.555556 13:-0.777778 14:-1 15:-1 16:-1 17:-1 18:-1 19:-1 20:-1 21:-1 22:-1 23:-1 24:-1 25:-1 26:-1 27:-1 28:-1 29:-1 32:-0.140267 33:-0.211723 34:-0.413305 35:-0.707672 36:-0.82647 37:-0.295824 38:-0.778037 39:-0.634901 40:0.118636 41:-0.249899 42:-0.917579 43:-0.659319 44:-0.573995 45:-0.598 46:-0.806736 47:-0.773886 48:-0.785585 49:-0.947448 50:-0.616715 51:-0.634528 52:-0.723479 53:-0.0358318 54:-0.589818 55:-0.552504 56:0.116684 57:-0.289866 58:-0.451592 59:-0.310195 60:-0.418767 61:-0.678137 62:-0.347349 63:-1 64:-0.365637 65:-0.645433 66:-0.793103 67:-0.725956 68:-0.776514 69:-0.842965 70:-0.624884 71:-0.315843 72:-0.0939334 73:-0.638337 74:-0.998722 75:-0.63456 76:-0.282815 77:-0.297162 78:-0.553349 79:-0.653731 80:-0.727557 81:-0.680922 82:-0.641422 83:-0.62019 84:-0.606509 85:-0.83204 86:-0.23857 87:-0.261748 88:-0.720872 89:-0.868843 90:-0.697329 91:-0.382798 92:-0.284284 93:-0.658558 94:-0.391354 95:-0.817561 96:-0.630832 97:-1 98:-0.781311 99:-0.882146 100:-0.850663 101:-0.300916 102:-0.750314 103:-0.455282 104:-0.587187 105:-0.544393 106:-0.796062 107:-0.38327 108:0.109004 109:-0.453872 110:-0.741689 111:-0.47898 112:-0.295731 113:-0.94528 114:-0.54292 115:-0.848399 116:-0.649064 117:-0.964647 118:-0.734117 119:-0.405565 120:-0.440826 121:-0.973382 122:-0.642122 123:0.0613944 124:-0.289836 125:-0.815355 126:-0.844488 127:-0.772085 128:-0.863843 129:-0.702497 130:-0.877408 131:-0.286436 132:-0.48109 133:-0.275462 134:0.0279944 135:-0.0279876 136:-0.275462 137:0.484698 138:-0.313199 139:0.323143 140:-0.0905889 141:0.228416 142:0.847398 143:-1 144:-1 145:-1 146:-1 147:-1 148:-0.5 149:-0.5 150:-0.555556 151:-0.733333 152:-0.0771889 153:-0.897053 154:-0.6 155:-0.599999 156:-0.555554 157:-0.777778 158:-1 159:-1 160:-1 161:-1 162:-1 163:-1 164:-1 165:-1 166:-1 167:-1 168:-1 169:-1 170:-1 171:-1 172:-1 173:-1 176:-1 177:-1 178:-1 179:-1 180:-1 181:-0.499998 182:-0.499998 183:-0.555554 184:-0.733333 
0.9842147602097495 -0.7805197797352349 -0.09765358797325595 1:-0.149834 2:0.000562257 3:-0.19817 4:-0.032726 5:-0.692294 6:0.0771355 7:0.154604 8:0.189728 9:0.0528509 10:-0.2 12:-0.111111 13:-0.111111 14:-0.25 16:-0.2 17:-0.2 18:-0.2 19:-0.6 20:-0.6 21:-1 22:-1 23:-1 24:-1 25:-1 26:-1 27:-1 28:-1 29:-1 32:-0.133637 33:-0.707645 34:-0.312025 35:-0.26292 36:0.472851 37:-0.352526 38:-0.433164 39:-0.706679 40:-0.172626 41:-0.271962 42:-0.822801 43:-0.856883 44:-0.727734 45:-0.572912 46:-0.828292 47:-0.753748 48:-0.319198 49:-0.130916 50:-0.278852 51:-0.509097 52:-0.45822 53:-0.286151 54:-0.0728087 55:-0.929536 56:-0.49889 57:-0.5866 58:-0.604456 59:-0.389987 60:-0.642879 61:-0.732267 62:-0.204602 63:-0.182642 64:-0.095311 65:-0.484195 66:-0.694892 67:-0.370886 68:-0.358039 69:-0.834671 70:-0.541139 71:-0.390577 72:-0.582247 73:-0.0957819 74:-0.340434 75:-0.0276498 76:-0.15315 77:-0.400426 78:-0.952141 79:-0.893447 80:-0.293014 81:-0.413287 82:-0.729011 83:-0.299111 84:-0.818544 85:0.205203 86:-0.373525 87:-0.0828583 88:0.221322 89:-0.945742 90:-0.0428226 91:-0.715356 92:-0.962177 93:-0.660212 94:-0.614947 95:-0.631798 96:-0.717392 97:-0.306919 98:-0.113892 99:-0.729348 100:-0.632998 101:-0.635291 102:-0.44091 103:-0.0895291 104:-0.834035 105:-0.198725 106:-0.895694 107:-0.608749 108:-0.655718 109:-0.651821 110:-0.833046 111:-0.328339 112:-0.848512 113:-0.191746 114:-0.330212 115:-0.311202 116:-0.447751 117:-0.36847 118:-0.491515 119:-0.366181 120:-0.521813 121:-0.66768 122:-0.5885 123:-0.841238 124:-0.517402 125:-0.425308 126:-0.309021 127:-0.647833 128:-0.705895 129:-0.611965 130:-0.796488 131:0.309576 132:-0.325747 133:-0.480598 134:0.262692 135:-0.262686 136:-0.480598 137:0.215872 138:0.178413 139:-0.539821 140:-0.196026 141:0.0827296 142:0.469988 143:-1 144:-1 145:-1 146:-0.5 147:-0.666667 148:-0.25 150:0.111111 151:-0.2 152:-0.525304 153:-0.398902 154:-0.2 155:2.61201e-06 156:-0.111109 157:-0.111109 158:-0.249997 160:-0.199999 161:-0.199999 162:-0.199999 163:-0.600001 164:-0.600001 165:-1 166:-1 167:-1 168:-1 169:-1 170:-1 171:-1 172:-1 173:-1 176:-1 177:-1 178:-1 179:-0.500001 180:-0.666667 181:-0.249997 182:3.26501e-06 183:0.111115 184:-0.2 
2.051940664853717 -0.3461513770249742 -1.687597789843911 1:-0.719901 2:-0.748493 3:-0.758724 4:-0.660726 5:-0.441534 6:-0.43433 7:-0.796776 8:-0.678533 9:-0.931462 10:-0.6 11:-0.6 12:-0.777778 13:-1 14:-1 15:-1 16:-1 17:-1 18:-1 19:-1 20:-1 21:-1 22:-1 23:-1 24:-1 25:-1 26:-1 27:-1 28:-1 29:-1 32:-0.78875 33:-0.48107 34:-0.659193 35:-0.671798 36:-0.302186 37:-0.458489 38:-0.430126 39:0.50706 40:-0.530668 41:-0.134398 42:-0.751731 43:-0.675619 44:-0.427599 45:-0.820224 46:-0.717045 47:-0.861686 48:-0.763231 49:-0.541289 50:-0.502038 51:-0.401456 52:-0.937814 53:0.0242135 54:-0.68357 55:-0.52944 56:0.0794867 57:-0.734018 58:-0.566164 59:-0.455911 60:-0.801857 61:-0.647857 62:-0.358415 63:-0.837174 64:-0.376566 65:-0.322938 66:-0.212803 67:-0.390806 68:-0.71879 69:-0.555407 70:-0.118823 71:-0.740034 72:-0.643901 73:-0.818244 74:-0.390082 75:-0.545722 76:-0.8985 77:-0.725702 78:-0.418177 79:-0.889632 80:-0.193891 81:0.02725 82:-0.467749 83:-0.57364 84:-0.478669 85:-0.398156 86:-0.947467 87:-0.344564 88:-0.683158 89:-0.675323 90:-0.394952 91:-0.64524 92:-0.35766 93:-0.818225 94:-0.587715 95:-0.505227 96:-0.661526 97:-0.110784 98:-0.799363 99:-0.89597 100:-0.0945104 101:-0.597917 102:-0.604699 103:-0.693975 104:-0.736789 105:-0.466895 106:-0.620018 107:-0.376183 108:-0.663092 109:-0.614654 110:-0.776669 111:-0.571523 112:-0.582457 113:-0.903492 114:-0.706358 115:-0.361049 116:-0.419786 117:-0.666037 118:-0.248153 119:-0.856987 120:-0.461901 121:-0.589134 122:0.086943 123:-0.098854 124:-0.58116 125:-0.797419 126:-0.663103 127:-0.411649 128:-0.419697 129:-0.526419 130:-0.375208 131:-0.65258 132:-0.344359 133:0.374344 134:-0.570479 135:0.57048 136:0.374344 137:0.59736 138:-0.317555 139:0.805339 140:-0.59477 141:0.145097 142:-0.727525 143:-1 144:-1 145:-1 146:-1 147:-1 148:-0.75 149:-0.5 150:-0.555556 151:-0.333333 152:-0.0667161 153:-0.977615 154:-0.6 155:-0.599999 156:-0.777778 157:-1 158:-1 159:-1 160:-1 161:-1 162:-1 163:-1 164:-1 165:-1 166:-1 167:-1 168:-1 169:-1 170:-1 171:-1 172:-1 173:-1 176:-1 177:-1 178:-1 179:-1 180:-1 181:-0.75 182:-0.499998 183:-0.555554 184:-0.333333 
0.363418588745483 -0.3051515914974476 -0.03764878727120377 1:0.0441266 2:0.250039 3:-0.194209 4:0.0506947 5:-0.631632 6:0.0422388 7:0.240725 8:-0.134667 9:-0.171114 10:-0.0666667 11:0.2 12:0.333333 13:0.111111 16:0.2 17:0.2 18:0.2 19:-0.2 20:-0.2 21:-0.6 22:-1 23:-1 24:-1 25:-1 26:-1 27:-1 28:-1 29:-1 32:0.0111074 33:-0.227245 34:-0.537062 35:0.451445 36:-0.398013 37:-0.45539 38:-0.836663 39:0.0743851 40:-0.485241 41:-0.480459 42:-0.20103 43:-0.525164 44:-0.0933257 45:-0.504129 46:-0.946127 47:-0.726014 48:-0.248011 49:-0.239764 50:-0.344299 51:-0.309065 52:-0.454455 53:-0.262525 54:-0.453671 55:-0.281438 56:0.514575 57:-0.174097 58:-0.192227 59:-0.871433 60:-0.0365728 61:-0.0745327 62:-0.102448 63:-0.109264 64:-0.632781 65:0.116827 66:-0.859626 67:-0.302678 68:-0.680225 69:-0.0231892 70:0.525643 71:-0.592016 72:-0.776558 73:-0.838721 74:-0.581636 75:-0.546009 76:-0.0649262 77:0.100186 78:-0.024119 79:-0.625128 80:-0.417809 81:-0.496631 82:-0.249993 83:-0.835876 84:-0.122768 85:-0.622214 86:-0.774428 87:-0.521785 88:-0.856195 89:-0.288015 90:-0.402632 91:-0.083387 92:-0.496821 93:-0.23071 94:-0.788438 95:-0.657911 96:-0.151263 97:-0.543233 98:-0.544702 99:-0.709679 100:-0.347779 101:-0.629863 102:-0.689067 103:-0.265545 104:-0.5291 105:-0.0256822 106:-0.157201 107:-0.0638686 108:-0.353281 109:0.0893329 110:-0.406498 111:-0.763426 112:-0.31864 113:0.0210805 114:-0.464055 115:-0.260143 116:-0.119145 117:-0.13593 118:-0.566225 119:-0.697941 120:-0.134296 121:-0.638754 122:-0.557972 123:-0.534445 124:0.353203 125:-0.480588 126:-0.623852 127:-0.634481 128:-0.355376 129:-0.556174 130:-0.0212267 131:0.139452 132:-0.0165587 133:-0.138146 134:-0.115225 135:0.115221 136:-0.138146 137:0.129163 138:0.37545 139:-0.563553 140:-0.0965229 141:-0.202314 142:0.111335 143:-1 144:-1 145:-0.333333 146:-0.5 147:-0.333333 148:-0.25 149:0.5 150:0.333333 151:0.0666667 152:-0.61679 153:-0.47555 154:-0.0666626 155:0.200003 156:0.333337 157:0.111115 158:3.26501e-06 160:0.199999 161:0.199999 162:0.199999 163:-0.199999 164:-0.199999 165:-0.600001 166:-1 167:-1 168:-1 169:-1 170:-1 171:-1 172:-1 173:-1 176:-1 177:-1 178:-0.333335 179:-0.500001 180:-0.333333 181:-0.249997 182:0.500006 183:0.333337 184:0.0666626 
0.7928565017806116 -0.5995356537435353 -0.1368082161095444 1:0.0999151 2:0.22139 3:-0.186893 4:0.119272 5:-0.586851 6:0.0914237 7:0.157291 8:0.0506528 9:0.0494813 10:0.0666667 11:0.2 12:0.333333 13:0.111111 16:0.2 17:0.2 18:0.2 19:-0.2 20:-0.2 21:-0.6 22:-1 23:-1 24:-1 25:-1 26:-1 27:-1 28:-1 29:-1 32:0.136616 33:-0.606932 34:-0.677986 35:0.728415 36:-0.234011 37:-0.14679 38:-0.735077 39:-0.920918 40:0.335975 41:-0.569433 42:-0.404835 43:-0.379643 44:-0.645692 45:-0.31373 46:-0.181793 47:-0.795331 48:-0.655571 49:-0.167691 50:-0.142983 51:-0.795769 52:-0.693464 53:-0.606216 54:-0.329903 55:-0.901509 56:-0.0612271 57:-0.216113 58:0.0938415 59:-0.575778 60:-0.280589 61:-0.479736 62:-0.420362 63:-0.309547 64:-0.609413 65:0.158182 66:-0.781311 67:0.282638 68:-0.121574 69:-0.57285 70:-0.555641 71:-0.808898 72:0.125702 73:-0.0197177 74:-0.326617 75:-0.865225 76:-0.711614 77:-0.166726 78:-0.962172 79:-0.536865 80:0.22991 81:-0.184257 82:-0.27352 83:-0.935728 84:-0.789643 85:-0.44361 86:-0.708594 87:-0.529948 88:-0.136651 89:0.055563 90:-0.495508 91:-0.598147 92:-0.727306 93:-0.778921 94:0.58279 95:-0.234188 96:-0.599659 97:-0.211374 98:-0.291586 99:-0.587168 100:-0.122089 101:-0.480618 102:-0.210513 103:-0.568669 104:-0.219952 105:-0.810651 106:-0.473339 107:-0.612334 108:-0.707104 109:-0.0407982 110:-0.892638 111:-0.707169 112:-0.140847 113:-0.198975 114:-0.80258 115:-0.8109 116:-0.582117 117:-0.30982 118:-0.120067 119:-0.393436 120:-0.459491 121:-0.761852 122:-0.159993 123:-0.712252 124:-0.637664 125:-0.568115 126:0.460432 127:-0.118233 128:-0.748569 129:-0.913452 130:-0.168096 131:0.193479 132:-0.0918392 133:-0.235597 134:-0.014648 135:0.0146632 136:-0.235597 137:0.0079508 138:0.36324 139:-0.530104 140:-0.192912 141:-0.0239854 142:0.493672 143:-1 144:-1 145:-0.333333 146:-0.5 147:-0.666667 148:-0.25 149:0.5 150:0.555556 151:0.0666667 152:-0.677634 153:-0.413153 154:0.0666626 155:0.200003 156:0.333337 157:0.111115 158:3.26501e-06 160:0.199999 161:0.199999 162:0.199999 163:-0.199999 164:-0.199999 165:-0.600001 166:-1 167:-1 168:-1 169:-1 170:-1 171:-1 172:-1 173:-1 176:-1 177:-1 178:-0.333335 179:-0.500001 180:-0.666667 181:-0.249997 182:0.500006 183:0.555567 184:0.0666626 
0.9773205934177808 -0.8288693574801378 -0.1451863485829913 1:0.148646 2:0.284 3:-0.174501 4:0.135461 5:-0.588625 6:0.072983 7:0.230503 8:-0.0952442 9:-0.123951 10:0.0666667 11:0.4 12:0.555556 13:0.111111 16:0.2 17:0.2 18:0.2 19:0.2 20:-0.2 21:-0.6 22:-1 23:-1 24:-1 25:-1 26:-1 27:-1 28:-1 29:-1 32:-0.218792 33:0.001651 34:-0.655244 35:0.276119 36:0.0123768 37:-0.545639 38:-0.718665 39:-0.612593 40:0.186163 41:-0.487022 42:-0.638188 43:-0.175227 44:-0.516326 45:-0.565447 46:-0.847391 47:-0.646304 48:-0.493817 49:-0.502751 50:-0.101249 51:-0.322801 52:-0.584331 53:-0.729822 54:-0.205432 55:-0.329737 56:-0.504873 57:-0.677049 58:0.646457 59:-0.596789 60:-0.774316 61:-0.255969 62:-0.0262541 63:-0.53822 64:-0.94357 65:0.110035 66:-0.904497 67:0.359888 68:-0.639956 69:-0.774815 70:-0.427565 71:-0.260572 72:-0.559903 73:0.125445 74:-0.258375 75:-0.744327 76:-0.943365 77:0.0979023 78:-0.290385 79:-0.223413 80:-0.618358 81:0.298441 82:-0.254874 83:-0.227379 84:-0.496291 85:-0.154159 86:-0.757929 87:-0.569464 88:-0.12564 89:-0.419417 90:-0.393747 91:-0.62309 92:0.0737806 93:-0.705102 94:-0.0497305 95:-0.412437 96:0.186967 97:-0.696482 98:-0.901257 99:-0.574446 100:-0.674748 101:-0.791931 102:-0.78846 103:-0.590321 104:-0.458414 105:0.111039 106:-0.581659 107:-0.261937 108:-0.577251 109:0.444893 110:-0.302608 111:0.0347304 112:-0.291752 113:-0.475621 114:-0.38759 115:-1 116:-0.124299 117:-0.517018 118:-0.746519 119:-0.70431 120:0.052887 121:-0.283632 122:0.139596 123:-0.644161 124:-0.182293 125:-0.220159 126:-0.423936 127:-0.151653 128:-0.826574 129:-0.194091 130:-0.875203 131:0.0469602 132:0.418093 133:0.318725 134:-0.526275 135:0.526289 136:0.318725 137:-0.0444044 138:0.457281 139:-0.54264 140:-0.108329 141:-0.186658 142:0.163323 143:-1 144:-1 145:-0.333333 146:-0.5 147:-0.333333 149:0.75 150:0.555556 151:0.0666667 152:-0.683787 153:-0.473099 154:0.0666626 155:0.400009 156:0.555567 157:0.111115 158:3.26501e-06 160:0.199999 161:0.199999 162:0.199999 163:0.199999 164:-0.199999 165:-0.600001 166:-1 167:-1 168:-1 169:-1 170:-1 171:-1 172:-1 173:-1 176:-1 177:-1 178:-0.333335 179:-0.500001 180:-0.333333 181:3.26501e-06 182:0.750014 183:0.555567 184:0.0666626 
0 -0 -0.1767863065103186 1:0.0163882 2:0.246295 3:-0.198132 4:0.0374403 5:-0.637587 6:0.0369494 7:0.241035 8:-0.136659 9:-0.170533 10:-0.0666667 11:0.2 12:0.333333 13:0.111111 16:0.2 17:0.2 18:0.2 19:-0.2 20:-0.2 21:-0.6 22:-1 23:-1 24:-1 25:-1 26:-1 27:-1 28:-1 29:-1 32:0.0648366 33:-0.31564 34:-0.586168 35:0.535531 36:-0.495298 37:-0.443328 38:-0.795094 39:0.115667 40:-0.507344 41:-0.660801 42:0.0298453 43:-0.513111 44:-0.382035 45:-0.438118 46:-0.808051 47:-0.684481 48:-0.189609 49:-0.0518673 50:-0.504143 51:-0.38204 52:-0.944973 53:-0.401975 54:-0.0861316 55:-0.156136 56:0.647769 57:-0.704064 58:-0.576559 59:-0.38365 60:-0.673123 61:0.364861 62:-0.0565192 63:-0.55882 64:-0.481514 65:0.0826932 66:-0.772654 67:-0.810909 68:-0.803321 69:0.260802 70:-0.432008 71:-0.815616 72:-0.45216 73:-0.479557 74:-0.317281 75:-0.700198 76:-0.561908 77:-0.150889 78:-0.414491 79:-0.231813 80:-0.586233 81:0.354807 82:-0.775155 83:-0.604504 84:0.0681093 85:-0.646164 86:-0.633914 87:-0.740582 88:-0.368349 89:-0.0383729 90:-0.644479 91:0.471843 92:0.345685 93:-0.51081 94:-0.341607 95:-0.503101 96:-0.425847 97:-0.740681 98:-0.0650678 99:-0.321197 100:-0.396049 101:0.00110871 102:-0.552391 103:-0.527487 104:-0.720931 105:0.321506 106:-0.653415 107:-0.167607 108:0.125705 109:-0.127707 110:-0.751294 111:-0.219598 112:-0.319258 113:-0.712043 114:-0.850101 115:-0.183845 116:-0.532217 117:-0.404952 118:-0.426311 119:-0.0484508 120:-0.839046 121:-0.56963 122:-0.731982 123:-0.110885 124:-0.379907 125:-0.0669266 126:-0.223363 127:-0.403697 128:-0.981028 129:-0.439733 130:-0.683749 131:0.159928 132:-0.113207 133:-0.232747 134:-0.0176626 135:0.0176778 136:-0.232747 137:0.191119 138:0.363194 139:-0.567153 140:-0.0961675 141:-0.194279 142:0.125241 143:-1 144:-1 145:-0.333333 146:-0.5 147:-0.333333 148:-0.25 149:0.5 150:0.333333 151:-0.0666667 152:-0.605859 153:-0.472972 154:-0.0666626 155:0.200003 156:0.333337 157:0.111115 158:3.26501e-06 160:0.199999 161:0.199999 162:0.199999 163:-0.199999 164:-0.199999 165:-0.600001 166:-1 167:-1 168:-1 169:-1 170:-1 171:-1 172:-1 173:-1 176:-1 177:-1 178:-0.333335 179:-0.500001 180:-0.333333 181:-0.249997 182:0.500006 183:0.333337 184:-0.0666626 
0.6893422412173544 -0.5643742638125161 -0.08403834350858261 1:0.0202198 2:0.302359 3:-0.185104 4:0.0399715 5:-0.649933 6:0.0531645 7:0.243041 8:-0.155875 9:-0.13491 10:-0.2 12:0.111111 13:0.111111 15:0.333333 16:0.6 17:0.6 18:0.6 19:-0.2 20:-0.2 21:-0.6 22:-1 23:-1 24:-1 25:-1 26:-1 27:-1 28:-1 29:-1 32:0.0742069 33:-0.295356 34:-0.578854 35:0.53987 36:-0.573942 37:-0.40575 38:-0.783859 39:0.217369 40:-0.628125 41:-0.51917 42:0.0481966 43:-0.490491 44:-0.519639 45:-0.397296 46:-0.815677 47:-0.531504 48:-0.13348 49:-0.158025 50:-0.578422 51:-0.422275 52:-0.817291 53:-0.593972 54:0.0100946 55:0.0857378 56:0.380291 57:-0.868245 58:-0.830722 59:-0.338346 60:-0.677017 61:0.435657 62:-0.00304779 63:-0.977534 64:-0.399783 65:-0.178722 66:-0.713731 67:-0.622963 68:-0.744037 69:0.205845 70:-0.985397 71:-0.725883 72:-0.470886 73:-0.408284 74:-0.45953 75:-0.599119 76:-0.867546 77:-0.266107 78:-0.63698 79:-0.13859 80:-0.763251 81:0.0043988 82:-0.470068 83:-0.449471 84:-0.734939 85:-0.842136 86:-0.948276 87:-0.370436 88:-0.631801 89:-0.00297859 90:-0.768095 91:0.226436 92:-0.710901 93:0.317639 94:-0.330584 95:-0.257041 96:-0.135946 97:-0.661081 98:-0.449036 99:-0.764384 100:0.147338 101:-0.0518393 102:-0.208338 103:-0.502713 104:-0.971326 105:-0.188147 106:-0.7135 107:-0.0301059 108:0.271306 109:0.20643 110:-0.734674 111:-0.353163 112:-0.168627 113:-0.882195 114:-0.477042 115:-0.196762 116:0.150128 117:-0.406367 118:-0.701951 119:0.517912 120:-0.200915 121:-0.77538 122:-0.288061 123:0.284193 124:-0.161181 125:-0.789847 126:-0.333217 127:-0.294264 128:-0.8392 129:-0.543321 130:-0.211322 131:0.188952 132:-0.14814 133:-0.27909 134:0.0319133 135:-0.0319148 136:-0.27909 137:0.19712 138:0.422913 139:-0.556122 140:-0.0938418 141:-0.209561 142:0.189564 143:-1 144:-1 145:-0.333333 146:-0.5 149:0.25 150:0.111111 151:-0.2 152:-0.598733 153:-0.4981 154:-0.2 155:2.61201e-06 156:0.111115 157:0.111115 158:3.26501e-06 159:0.333333 160:0.599998 161:0.599998 162:0.599998 163:-0.199999 164:-0.199999 165:-0.600001 166:-1 167:-1 168:-1 169:-1 170:-1 171:-1 172:-1 173:-1 176:-1 177:-1 178:-0.333335 179:-0.500001 181:3.26501e-06 182:0.250005 183:0.111115 184:-0.2 
0.9138880852598864 -0.1238672110661093 -0.7241467708758852 1:0.0258678 2:0.17196 3:-0.20571 4:0.0263792 5:-0.63779 6:0.039464 7:0.215063 8:-0.216643 9:-0.0231965 10:0.2 11:0.2 12:0.333333 13:-0.111111 16:0.2 17:0.2 18:-0.2 19:-0.6 20:-0.6 21:-0.6 22:-1 23:-1 24:-1 25:-1 26:-1 27:-1 28:-1 29:-1 32:0.0467266 33:-0.306736 34:-0.476183 35:0.399209 36:-0.724053 37:-0.613809 38:-0.551484 39:0.349343 40:-0.885439 41:-0.434394 42:-0.257833 43:-0.281513 44:-0.783193 45:-0.711612 46:-0.975073 47:-0.625159 48:0.0360293 49:-0.691563 50:-0.346132 51:-0.470541 52:-0.652449 53:-0.426588 54:-0.195169 55:-0.204494 56:-0.26524 57:-0.645742 58:-0.797972 59:-0.254172 60:-0.966637 61:-0.143505 62:-0.312975 63:-0.62 64:-0.448256 65:-0.532099 66:-0.869423 67:-0.0524825 68:-0.655101 69:-0.361358 70:-0.180879 71:-0.336392 72:-0.222133 73:-0.546789 74:-0.904263 75:-0.636113 76:-0.429972 77:-0.0684804 78:-0.371489 79:0.0846064 80:-0.00587093 81:-0.248497 82:-0.863791 83:-0.682427 84:-0.336982 85:0.174027 86:-0.0121071 87:-0.475833 88:-0.0569317 89:-0.346422 90:-0.570434 91:-0.658076 92:0.245635 93:-0.187349 94:-0.672811 95:-0.561172 96:-0.55883 97:-0.547039 98:-0.00966616 99:-0.645591 100:-0.359894 101:-0.497039 102:-0.690913 103:-0.459013 104:-0.731227 105:0.319763 106:-0.169861 107:-0.724825 108:-0.637962 109:-0.612334 110:-0.677133 111:-0.785633 112:-0.545688 113:0.404021 114:-0.658626 115:-0.92695 116:0.15306 117:-0.306244 118:-0.427157 119:-0.594441 120:-0.547138 121:-0.359019 122:-0.909072 123:-0.116564 124:-0.785572 125:-0.814544 126:-0.718275 127:-0.865486 128:-0.942043 129:-0.679115 130:-0.465734 131:0.316428 132:-0.303096 133:-0.466239 134:0.245372 135:-0.245374 136:-0.466239 137:0.0736574 138:0.34982 139:-0.565439 140:-0.126177 141:-0.345394 142:0.254601 143:-1 144:-1 145:-1 146:-0.5 147:-0.333333 148:-0.25 149:0.5 150:0.555556 151:0.333333 152:-0.599817 153:-0.480894 154:0.199997 155:0.200003 156:0.333337 157:-0.111109 158:3.26501e-06 160:0.199999 161:0.199999 162:-0.199999 163:-0.600001 164:-0.600001 165:-0.600001 166:-1 167:-1 168:-1 169:-1 170:-1 171:-1 172:-1 173:-1 176:-1 177:-1 178:-1 179:-0.500001 180:-0.333333 181:-0.249997 182:0.500006 183:0.555567 184:0.33333 
0.4039151036629662 -0 -0.7298186907092715 1:-0.3293 2:0.0160384 3:-0.4423 4:-0.280771 5:-0.606038 6:-0.175456 7:-0.0168882 8:-0.291848 9:-0.258592 10:-0.333333 11:-0.2 12:-0.555556 13:-0.555556 14:-0.5 15:-0.333333 16:-0.2 17:-0.2 18:-0.6 19:-0.6 20:-0.6 21:-0.6 22:-0.5 23:-0.333333 24:-1 25:-1 26:-1 27:-1 28:-1 29:-1 32:-0.644254 33:-0.138811 34:-0.642279 35:-0.862945 36:-0.716886 37:-0.464728 38:-0.432728 39:0.0656184 40:-0.680373 41:-0.818374 42:-0.530398 43:-0.267105 44:-0.676388 45:-0.5085 46:-0.621523 47:-0.901401 48:-0.718874 49:-0.783421 50:-0.0583891 51:-0.830842 52:-0.106771 53:-0.115535 54:-0.0649118 55:-0.916871 56:-0.275043 57:-0.816704 58:-0.876789 59:-0.21626 60:-0.752324 61:-0.475753 62:-0.107645 63:-0.576763 64:-0.658611 65:-0.0897556 66:-0.813327 67:-0.207018 68:-0.684484 69:-0.45366 70:-0.797284 71:-0.124605 72:0.0968548 73:-0.693504 74:-0.387003 75:-0.588803 76:-0.139201 77:-0.633222 78:-0.471475 79:-0.665326 80:-0.447046 81:-0.2458 82:-0.811254 83:-0.578966 84:0.0403587 85:-0.711898 86:-0.666422 87:-0.0330126 88:-0.497289 89:-0.882715 90:-0.304833 91:-0.672556 92:-0.615272 93:-0.0573362 94:-0.481206 95:-0.525136 96:-0.630204 97:-0.489946 98:-0.658811 99:-0.359447 100:-0.366823 101:-0.597796 102:-0.950401 103:-0.561594 104:-0.465643 105:-0.609617 106:0.186459 107:-0.51662 108:-0.393583 109:-0.617925 110:-0.656952 111:-0.53725 112:-0.826938 113:-0.329472 114:-0.867318 115:-0.532294 116:-0.395112 117:-0.543195 118:0.30837 119:-0.726913 120:-0.838884 121:-0.14855 122:-0.516922 123:-0.943065 124:-0.545059 125:-0.769939 126:-0.502591 127:-0.698171 128:-0.558354 129:-0.516877 130:-0.737811 131:0.146079 132:-0.440834 133:-0.5002 134:0.286562 135:-0.286551 136:-0.5002 137:0.517252 138:0.0803563 139:-0.711616 140:-0.394173 141:-0.292428 142:0.037922 143:-1 144:-1 145:-1 146:-0.5 147:-0.666667 148:-0.5 150:-0.111111 151:-0.2 152:-0.412028 153:-0.112468 154:-0.333333 155:-0.199999 156:-0.555554 157:-0.555554 158:-0.499998 159:-0.333333 160:-0.199999 161:-0.199999 162:-0.600001 163:-0.600001 164:-0.600001 165:-0.600001 166:-0.500001 167:-0.333335 168:-1 169:-1 170:-1 171:-1 172:-1 173:-1 176:-1 177:-1 178:-1 179:-0.500001 180:-0.666667 181:-0.499998 182:3.26501e-06 183:-0.111109 184:-0.2 
0.8572338825160144 -0 -0.792513298310068 1:-0.412389 2:-0.05303 3:-0.575627 4:-0.408816 5:-0.517511 6:-0.309705 7:-0.176306 8:-0.413383 9:-0.334055 10:-0.333333 11:-0.4 12:-0.555556 13:-0.555556 14:-0.5 15:-0.333333 16:-0.2 17:-0.2 18:-0.2 19:-0.6 20:-0.6 21:-0.6 22:-1 23:-1 24:-1 25:-1 26:-1 27:-1 28:-1 29:-1 32:-0.784158 33:0.0620099 34:-0.883753 35:-0.888618 36:-0.935365 37:-0.625018 38:-0.414758 39:-0.508635 40:0.280308 41:-0.533695 42:-0.66186 43:-0.122935 44:-0.526592 45:-0.463996 46:-0.410413 47:-0.754295 48:-0.940709 49:-0.75304 50:-0.547017 51:-0.580817 52:0.0370659 53:-0.91336 54:-0.399128 55:-0.361413 56:-0.665814 57:-0.580878 58:-0.471148 59:-0.350213 60:-0.818236 61:-0.861127 62:-0.313068 63:-0.382321 64:-0.193775 65:-0.420356 66:-0.243733 67:-0.747979 68:-0.49639 69:-0.675419 70:-0.740255 71:-0.711044 72:-0.466989 73:-0.516363 74:-0.509659 75:-0.33115 76:-0.673653 77:-0.478873 78:-0.707496 79:-0.700156 80:-0.778165 81:-0.649263 82:-0.175346 83:-0.00923999 84:-0.490209 85:-0.173558 86:-0.548182 87:0.113929 88:-0.395999 89:-0.688035 90:-0.89308 91:-0.328169 92:-0.947454 93:-0.45199 94:-0.0641176 95:-0.94647 96:-0.822669 97:-0.378851 98:-0.602047 99:-0.579989 100:-0.518113 101:-0.439824 102:0.0508094 103:-0.706105 104:-0.538404 105:0.308717 106:-0.331846 107:-0.560065 108:-0.657175 109:-0.459519 110:-0.61552 111:-0.555692 112:-0.383435 113:-0.102977 114:-0.64467 115:-0.808588 116:-0.80498 117:-0.359335 118:-0.438819 119:-0.781575 120:-0.489527 121:0.187761 122:-0.719339 123:-0.365137 124:0.201012 125:-0.249896 126:-0.40121 127:-0.465454 128:-0.423527 129:-0.725539 130:-0.48633 131:-0.0991093 132:-0.511488 133:-0.437229 134:0.210841 135:-0.210822 136:-0.437229 137:0.564656 138:0.102187 139:-0.616378 140:-0.368421 141:-0.196183 142:0.196683 143:-1 144:-1 145:-1 146:-0.5 147:-0.333333 148:-0.5 149:-0.25 150:0.111111 151:-0.333333 152:-0.360907 153:-0.0763943 154:-0.333333 155:-0.399999 156:-0.555554 157:-0.555554 158:-0.499998 159:-0.333333 160:-0.199999 161:-0.199999 162:-0.199999 163:-0.600001 164:-0.600001 165:-0.600001 166:-1 167:-1 168:-1 169:-1 170:-1 171:-1 172:-1 173:-1 176:-1 177:-1 178:-1 179:-0.500001 180:-0.333333 181:-0.499998 182:-0.249997 183:0.111115 184:-0.333333 
0.2513080299440695 -0.107617254579922 -0 1:-0.409284 2:-0.0557882 3:-0.600861 4:-0.398584 5:-0.448671 6:-0.335459 7:-0.211882 8:-0.436497 9:-0.339728 10:-0.466667 11:-0.4 12:-0.333333 13:-0.555556 14:-0.5 15:-0.333333 16:-0.2 17:-0.2 18:-0.2 19:-0.6 20:-0.6 21:-0.6 22:-1 23:-1 24:-1 25:-1 26:-1 27:-1 28:-1 29:-1 32:-0.788197 33:0.0836048 34:-0.899159 35:-0.84285 36:-0.898584 37:-0.685211 38:-0.623339 39:-0.339645 40:0.282326 41:-0.899618 42:-0.518699 43:-0.0858864 44:-0.655651 45:-0.0958005 46:-0.329671 47:-0.756302 48:-0.830991 49:-0.718441 50:-0.674105 51:-0.664556 52:0.0954202 53:-0.722864 54:-0.473096 55:-0.164458 56:-0.330382 57:-0.819917 58:-0.862856 59:-0.819691 60:-0.664167 61:0.028202 62:-0.705092 63:-0.753445 64:0.579626 65:-0.106311 66:-0.745809 67:-0.345976 68:-0.230224 69:-0.573318 70:-0.764214 71:-0.640047 72:-0.294186 73:-0.434504 74:-0.128029 75:-0.189867 76:-0.321243 77:0.060655 78:0.0965185 79:-0.828621 80:-0.649823 81:-0.336126 82:-0.421847 83:0.0921518 84:-0.430158 85:-0.732434 86:-0.30814 87:0.304084 88:-0.664615 89:-0.989737 90:-0.646181 91:-0.350695 92:-0.384751 93:-0.417225 94:-0.271224 95:-0.0385477 96:0.108131 97:-0.39821 98:-0.675817 99:-0.120024 100:-0.445615 101:-0.350319 102:-0.884805 103:-0.582293 104:-0.770255 105:-1 106:-0.319392 107:-0.725513 108:-0.113873 109:-0.439898 110:-0.530321 111:-0.10914 112:-0.836399 113:0.0393354 114:-0.57005 115:-0.657053 116:0.258524 117:-0.826999 118:-0.333243 119:-0.37996 120:0.157243 121:-0.622146 122:-0.940341 123:-0.222002 124:-0.224254 125:-0.709346 126:-0.214929 127:-0.349461 128:-0.731187 129:-0.858382 130:0.382196 131:-0.129642 132:-0.505574 133:-0.412914 134:0.182285 135:-0.182287 136:-0.412914 137:0.542004 138:0.12294 139:-0.609666 140:-0.387057 141:-0.211282 142:0.200888 143:-1 144:-1 145:-1 146:-0.5 147:-0.333333 148:-0.25 149:-0.25 150:-0.111111 151:-0.333333 152:-0.424358 153:-0.0617864 154:-0.466667 155:-0.399999 156:-0.333331 157:-0.555554 158:-0.499998 159:-0.333333 160:-0.199999 161:-0.199999 162:-0.199999 163:-0.600001 164:-0.600001 165:-0.600001 166:-1 167:-1 168:-1 169:-1 170:-1 171:-1 172:-1 173:-1 176:-1 177:-1 178:-1 179:-0.500001 180:-0.333333 181:-0.249997 182:-0.249997 183:-0.111109 184:-0.333333 
0.1189996449435967 -0 -0.0378947008569162 1:-0.388283 2:-0.0488365 3:-0.616662 4:-0.3807 5:-0.385995 6:-0.364787 7:-0.204304 8:-0.423675 9:-0.339607 10:-0.6 11:-0.6 12:-0.555556 13:-0.555556 14:-0.5 15:-0.333333 16:-0.2 17:-0.2 18:-0.2 19:-0.2 20:-0.6 21:-0.6 22:-1 23:-1 24:-1 25:-1 26:-1 27:-1 28:-1 29:-1 32:-0.727178 33:0.0645125 34:-0.91008 35:-0.790416 36:-0.773642 37:-0.746484 38:-0.631251 39:-0.288973 40:0.292748 41:-0.895935 42:-0.218074 43:-0.354033 44:-0.682764 45:0.124591 46:-0.442875 47:-0.711658 48:-0.36357 49:-0.866151 50:-0.495153 51:-0.481911 52:-0.0833058 53:-0.117327 54:-0.157549 55:-0.645201 56:0.15441 57:-0.0502423 58:-0.629473 59:-0.458273 60:0.00634365 61:-0.764009 62:-0.736344 63:-0.170666 64:-0.561671 65:-0.515245 66:-0.274441 67:-0.413985 68:-0.739837 69:0.118535 70:-0.489906 71:-0.565113 72:-0.563573 73:0.130866 74:-0.79296 75:-0.69322 76:-0.646174 77:0.112446 78:0.123379 79:-0.36882 80:-0.535099 81:0.222827 82:0.0677054 83:-0.88091 84:0.132315 85:-0.880909 86:-0.129642 87:-0.776944 88:-0.735766 89:-0.359637 90:0.119294 91:-0.65982 92:-0.410742 93:-0.165612 94:-0.553237 95:-0.464189 96:-0.415357 97:-0.853988 98:-0.835296 99:-0.168521 100:-0.87259 101:-0.288678 102:-0.394362 103:-0.39334 104:-0.806307 105:-0.267722 106:-0.628186 107:-0.981331 108:-0.561307 109:-0.844349 110:-0.558353 111:-0.741525 112:-0.56499 113:-0.589285 114:-0.898246 115:-0.290299 116:-0.592297 117:-0.534625 118:-0.124672 119:-0.885039 120:0.0725848 121:-0.386911 122:0.191998 123:-0.642312 124:-0.405592 125:-0.181867 126:-0.501427 127:-0.691446 128:-0.252998 129:-0.283129 130:-0.611058 131:-0.117391 132:-0.52726 133:-0.44218 134:0.216679 135:-0.216678 136:-0.44218 137:0.471797 138:0.0855527 139:-0.629159 140:-0.370746 141:-0.203637 142:0.191067 143:-1 144:-1 145:-0.333333 146:-0.5 147:-0.333333 148:-0.5 149:-0.5 150:-0.333333 151:-0.466667 152:-0.483879 153:-0.137637 154:-0.6 155:-0.599999 156:-0.555554 157:-0.555554 158:-0.499998 159:-0.333333 160:-0.199999 161:-0.199999 162:-0.199999 163:-0.199999 164:-0.600001 165:-0.600001 166:-1 167:-1 168:-1 169:-1 170:-1 171:-1 172:-1 173:-1 176:-1 177:-1 178:-0.333335 179:-0.500001 180:-0.333333 181:-0.499998 182:-0.499998 183:-0.333331 184:-0.466667 
0.6638330538915532 -0.5566872498092458 -0 1:-0.360594 2:-0.0587212 3:-0.625237 4:-0.371578 5:-0.351181 6:-0.37049 7:-0.224471 8:-0.407177 9:-0.276978 10:-0.333333 11:-0.6 12:-0.555556 13:-0.555556 14:-0.5 15:-0.333333 16:-0.2 17:-0.2 18:-0.2 19:-0.2 20:-0.6 21:-1 22:-1 23:-1 24:-1 25:-1 26:-1 27:-1 28:-1 29:-1 32:-0.63655 33:0.00591201 34:-0.915059 35:-0.821535 36:-0.67637 37:-0.808375 38:-0.496767 39:-0.733014 40:0.203659 41:-0.895264 42:-0.369854 43:-0.445981 44:-0.568026 45:-0.485762 46:-0.146954 47:-0.501672 48:-0.646125 49:-0.300857 50:-0.328534 51:-0.161261 52:-0.591182 53:-0.564915 54:-0.37864 55:-0.399678 56:-0.522925 57:-0.410858 58:-0.345018 59:0.177705 60:-0.548956 61:0.000726414 62:-0.280666 63:-0.227916 64:0.0662384 65:-0.37587 66:-0.665753 67:-0.219589 68:-0.335924 69:-0.802753 70:-0.696466 71:-0.560994 72:-0.602836 73:-0.206984 74:-0.45782 75:-0.61015 76:0.85063 77:-0.00734768 78:-0.595246 79:-0.191991 80:-0.149769 81:-0.46222 82:0.0123067 83:-0.872548 84:-0.753277 85:0.092464 86:-0.624338 87:0.0813068 88:-0.634439 89:-0.0738129 90:-0.319238 91:-0.614132 92:-0.453348 93:0.0103243 94:-0.175171 95:-0.577765 96:-0.111812 97:-0.714659 98:-0.236961 99:-0.491073 100:-0.8027 101:-0.753931 102:-0.558215 103:-0.686638 104:-0.911371 105:-0.3131 106:-0.217428 107:-0.370369 108:-0.43648 109:-0.678831 110:-0.580989 111:-0.546834 112:-0.8059 113:-0.056833 114:-0.0572682 115:-0.265605 116:-0.815257 117:-0.425078 118:-0.490755 119:0.00415988 120:0.776562 121:-0.255942 122:0.247786 123:0.783 124:-0.63437 125:-0.0776544 126:-0.763269 127:-0.297692 128:0.0278338 129:-0.147036 130:0.161757 131:-0.0569226 132:-0.591688 133:-0.538384 134:0.333808 135:-0.333806 136:-0.538384 137:0.40204 138:0.116563 139:-0.649526 140:-0.416797 141:-0.239568 142:0.244194 143:-1 144:-1 145:-1 146:-0.5 147:-0.333333 148:-0.5 149:-0.5 150:-0.111111 151:-0.0666667 152:-0.513556 153:-0.0842524 154:-0.333333 155:-0.599999 156:-0.555554 157:-0.555554 158:-0.499998 159:-0.333333 160:-0.199999 161:-0.199999 162:-0.199999 163:-0.199999 164:-0.600001 165:-1 166:-1 167:-1 168:-1 169:-1 170:-1 171:-1 172:-1 173:-1 176:-1 177:-1 178:-1 179:-0.500001 180:-0.333333 181:-0.499998 182:-0.499998 183:-0.111109 184:-0.0666626 
1.50177122295241 -0.07702683425224567 -1.233610420455574 1:-0.644394 2:-0.740263 3:-0.455213 4:-0.562818 5:-0.888809 6:-0.155291 7:-0.114289 8:-0.138523 9:-0.444451 10:-0.6 11:-0.8 12:-0.777778 13:-0.777778 14:-1 15:-1 16:-1 17:-1 18:-1 19:-1 20:-1 21:-1 22:-1 23:-1 24:-1 25:-1 26:-1 27:-1 28:-1 29:-1 32:-0.518313 33:-0.262282 34:-0.836484 35:-0.879972 36:-0.91375 37:-0.696082 38:-0.926755 39:-0.408542 40:-0.864744 41:-0.218393 42:-0.944987 43:-0.902648 44:-0.805498 45:-0.83267 46:-0.715491 47:-0.223052 48:-0.595499 49:-0.895264 50:-0.753523 51:-0.61732 52:-0.702261 53:0.0721048 54:-0.111366 55:-0.882348 56:-0.869796 57:-0.454002 58:-0.655825 59:-0.480502 60:-0.432404 61:-0.905113 62:-0.646463 63:-0.713447 64:-0.624823 65:-0.576703 66:-0.928237 67:-0.863284 68:-0.700403 69:-0.760534 70:-0.638718 71:-0.38275 72:-0.65131 73:-0.708227 74:-0.785903 75:-0.722893 76:-0.308648 77:-0.754902 78:-0.538203 79:-0.92817 80:-0.777251 81:-0.462913 82:-0.522572 83:-0.625655 84:-0.579076 85:-0.84747 86:-0.123633 87:-0.460022 88:-0.706908 89:-0.626136 90:-0.830049 91:-0.728846 92:-0.36194 93:-0.389607 94:-0.746855 95:-0.791329 96:-0.913666 97:-0.343313 98:-0.424809 99:-0.89648 100:-0.646952 101:-0.631192 102:-0.944536 103:-0.393269 104:-0.488273 105:-0.828828 106:-0.496553 107:-0.440088 108:-0.824057 109:-0.574657 110:-0.556695 111:-0.770267 112:-0.828963 113:-0.327788 114:-0.738475 115:-0.712814 116:-0.767064 117:-0.841653 118:-0.738912 119:-0.481267 120:-0.815387 121:-0.628889 122:-0.544647 123:-0.64989 124:-0.453662 125:-0.628488 126:-0.544152 127:-0.705481 128:-0.66899 129:-0.640077 130:-0.537455 131:-0.21805 132:-0.370857 133:-0.208675 134:-0.0429576 135:0.0429591 136:-0.208675 137:0.629913 138:-0.435933 139:-0.011064 140:0.236206 141:0.457061 142:0.282532 143:-1 144:-1 145:-1 146:-1 147:-1 148:-0.75 149:-0.75 150:-0.333333 151:-0.6 152:0.378235 153:-0.873643 154:-0.6 155:-0.8 156:-0.777778 157:-0.777778 158:-1 159:-1 160:-1 161:-1 162:-1 163:-1 164:-1 165:-1 166:-1 167:-1 168:-1 169:-1 170:-1 171:-1 172:-1 173:-1 176:-1 177:-1 178:-1 179:-1 180:-1 181:-0.75 182:-0.75 183:-0.333331 184:-0.6 
1.844658650369161 -1.818752731296049 -0 1:-0.644683 2:-0.832338 3:-0.427757 4:-0.571662 5:-0.928653 6:-0.107455 7:-0.137212 8:-0.193127 9:-0.478208 10:-0.6 11:-1 12:-1 13:-1 14:-1 15:-1 16:-1 17:-1 18:-1 19:-1 20:-1 21:-1 22:-1 23:-1 24:-1 25:-1 26:-1 27:-1 28:-1 29:-1 32:-0.533967 33:-0.342899 34:-0.940102 35:-0.767912 36:-0.77319 37:-0.732914 38:-0.892943 39:-0.477969 40:-1 41:-0.33641 42:-0.719708 43:-0.761769 44:-0.802466 45:-1 46:-0.574169 47:-0.475715 48:-0.604338 49:-0.678973 50:-0.901169 51:-0.610129 52:-0.349327 53:-0.148632 54:-0.27903 55:-0.787409 56:-0.538723 57:-0.747085 58:-0.352528 59:-0.439144 60:-0.698177 61:-0.734703 62:-0.637862 63:-0.679744 64:-0.557029 65:-0.443844 66:-0.995156 67:-0.519534 68:-0.905935 69:-0.531943 70:-0.633494 71:-0.48136 72:-0.832806 73:-0.699092 74:-0.826789 75:-0.508531 76:-0.655162 77:-0.656837 78:-0.589087 79:-0.736395 80:-0.7235 81:-0.539172 82:-0.307633 83:-0.589968 84:-0.636249 85:-0.512405 86:-0.168596 87:-0.757032 88:-0.823526 89:-0.913109 90:-0.480734 91:-0.397726 92:0.0244189 93:-0.572513 94:-0.941406 95:-0.839085 96:-0.818285 97:-0.860364 98:-0.048119 99:-0.734018 100:-0.603256 101:-0.615467 102:-0.39552 103:-0.568067 104:-0.750899 105:-0.461302 106:-0.604835 107:-0.642563 108:-0.269144 109:-0.812174 110:-0.987561 111:-0.620071 112:-0.559038 113:-0.630461 114:-0.414649 115:-0.315089 116:-0.914748 117:-0.701441 118:-0.209885 119:-0.360113 120:-0.482867 121:-0.572561 122:-0.445927 123:-0.774167 124:-0.563255 125:-0.844308 126:-0.425966 127:-0.850416 128:-0.822238 129:-0.576329 130:-0.626472 131:-0.251906 132:-0.292852 133:-0.0934237 134:-0.159676 135:0.159695 136:-0.0934237 137:0.620312 138:-0.574611 139:0.0554008 140:0.205841 141:0.497407 142:0.307048 143:-1 144:-1 145:-1 146:-1 147:-1 148:-1 149:-1 150:-0.333333 151:-0.6 152:0.489482 153:-0.893175 154:-0.6 155:-1 156:-1 157:-1 158:-1 159:-1 160:-1 161:-1 162:-1 163:-1 164:-1 165:-1 166:-1 167:-1 168:-1 169:-1 170:-1 171:-1 172:-1 173:-1 176:-1 177:-1 178:-1 179:-1 180:-1 181:-1 182:-1 183:-0.333331 184:-0.6 
0.682652160227154 -0.1539142452914158 -0.3555934191617374 1:-0.385495 2:-0.0646246 3:-0.603943 4:-0.301411 5:-0.307898 6:-0.337954 7:-0.215379 8:-0.366916 9:-0.151469 10:-0.466667 11:-0.6 12:-0.555556 13:-0.555556 14:-0.5 15:-0.333333 16:-0.2 17:-0.2 18:-0.2 19:-0.2 20:-0.6 21:-1 22:-1 23:-1 24:-1 25:-1 26:-1 27:-1 28:-1 29:-1 32:-0.614171 33:-0.186453 34:-0.727931 35:-0.870279 36:-0.403257 37:-0.696543 38:-0.720948 39:-0.723312 40:-0.242023 41:-0.347837 42:-0.442125 43:-0.746312 44:-0.122129 45:-0.751316 46:-0.505953 47:-0.509248 48:-0.987805 49:-0.749885 50:-0.41859 51:-0.629314 52:-0.15377 53:-0.633056 54:0.639831 55:-0.67403 56:-0.146598 57:-0.152842 58:-0.129351 59:-0.340875 60:0.122761 61:-0.460603 62:0.0212425 63:-0.154691 64:-0.803169 65:-0.590335 66:-0.443251 67:0.824907 68:-0.596076 69:-0.708791 70:0.253226 71:-0.141921 72:-0.59072 73:-0.723983 74:-0.320846 75:-0.430705 76:-0.00291754 77:-0.908781 78:-0.492551 79:-0.342922 80:0.0101991 81:-0.805455 82:-0.483498 83:-0.138238 84:-0.283452 85:-0.644635 86:-0.507094 87:0.0745156 88:-0.401797 89:-0.416354 90:0.250925 91:-0.485073 92:-0.291019 93:-0.530064 94:-0.154306 95:-0.667933 96:-0.496928 97:-0.153019 98:-0.422055 99:-0.671006 100:-0.277584 101:-0.29614 102:-0.245436 103:-0.558692 104:-0.0997518 105:-0.796613 106:-0.252256 107:-0.152828 108:-0.781159 109:-0.435831 110:-0.435555 111:-0.723063 112:-0.814118 113:-0.679788 114:-0.709795 115:-0.932439 116:-0.407813 117:-0.552571 118:-0.91316 119:-0.707441 120:-0.311281 121:-0.916955 122:-0.73369 123:-0.620031 124:-0.71218 125:-0.228944 126:-0.72574 127:-0.264713 128:-0.312331 129:-0.425845 130:-0.719046 131:0.127162 132:-0.645408 133:-0.665774 134:0.499281 135:-0.499279 136:-0.665774 137:0.485749 138:0.0611663 139:-0.641651 140:-0.42491 141:-0.274638 142:0.372187 143:-1 144:-1 145:-1 146:-0.5 147:-0.333333 148:-0.5 149:-0.5 150:-0.111111 151:-0.466667 152:-0.593262 153:-0.126292 154:-0.466667 155:-0.599999 156:-0.555554 157:-0.555554 158:-0.499998 159:-0.333333 160:-0.199999 161:-0.199999 162:-0.199999 163:-0.199999 164:-0.600001 165:-1 166:-1 167:-1 168:-1 169:-1 170:-1 171:-1 172:-1 173:-1 176:-1 177:-1 178:-1 179:-0.500001 180:-0.333333 181:-0.499998 182:-0.499998 183:-0.111109 184:-0.466667 
1.112525181137396 -1.043759080089909 -0 1:-0.643798 2:-0.864651 3:-0.419424 4:-0.576149 5:-0.941984 6:-0.0869426 7:-0.160731 8:-0.243167 9:-0.502236 10:-0.733333 11:-1 12:-1 13:-1 14:-1 15:-1 16:-1 17:-1 18:-1 19:-1 20:-1 21:-1 22:-1 23:-1 24:-1 25:-1 26:-1 27:-1 28:-1 29:-1 32:-0.50934 33:-0.345638 34:-0.992017 35:-0.726807 36:-0.626444 37:-0.769643 38:-0.901539 39:-0.681418 40:-0.738335 41:-0.327605 42:-0.661223 43:-0.762886 44:-0.926387 45:-0.821518 46:-0.224498 47:-0.531554 48:-0.822482 49:-0.874319 50:-0.731704 51:-0.549914 52:-0.211612 53:0.161886 54:-0.916377 55:-0.982459 56:-0.342844 57:-0.541508 58:-0.542159 59:-0.5566 60:-0.703945 61:-0.455419 62:-0.856674 63:-0.324306 64:-0.879124 65:-0.814517 66:-0.787949 67:-0.912654 68:-0.956575 69:-0.605205 70:-0.432944 71:-0.58685 72:-0.826787 73:-0.858239 74:-0.529836 75:-0.975015 76:-0.664449 77:-0.714054 78:-0.623623 79:-0.661697 80:-0.738316 81:-0.371611 82:-0.808618 83:-0.424001 84:-0.576493 85:-0.308078 86:-0.548104 87:-0.360053 88:-0.445095 89:-0.618874 90:-0.369506 91:-0.224331 92:-0.746782 93:-0.892752 94:-0.940936 95:-0.43445 96:-0.691943 97:-0.345599 98:-0.0894753 99:-0.589253 100:-0.519556 101:-0.505257 102:-0.269495 103:-0.749822 104:-0.900173 105:-0.2588 106:-0.570587 107:-0.477894 108:-0.716658 109:-0.585512 110:-0.742547 111:-0.530216 112:-0.764362 113:0.0254184 114:-0.337102 115:-0.807245 116:-0.544661 117:-0.836866 118:-1 119:-0.907149 120:-0.400043 121:-0.369548 122:-0.379844 123:-0.146127 124:-0.829638 125:-0.657458 126:-0.536529 127:-0.84407 128:-0.865645 129:-0.58902 130:0.10408 131:-0.285426 132:-0.255093 133:-0.0180706 134:-0.232355 135:0.232376 136:-0.0180706 137:0.607411 138:-0.66878 139:0.0901855 140:0.172307 141:0.49375 142:0.309095 143:-1 144:-1 145:-1 146:-1 147:-1 148:-1 149:-1 150:-0.555556 151:-0.6 152:0.533402 153:-0.895323 154:-0.733333 155:-1 156:-1 157:-1 158:-1 159:-1 160:-1 161:-1 162:-1 163:-1 164:-1 165:-1 166:-1 167:-1 168:-1 169:-1 170:-1 171:-1 172:-1 173:-1 176:-1 177:-1 178:-1 179:-1 180:-1 181:-1 182:-1 183:-0.555554 184:-0.6 
0.978768423736872 -0 -1.277451555195076 1:-0.64842 2:-0.850116 3:-0.422734 4:-0.576534 5:-0.938952 6:-0.0956812 7:-0.149693 8:-0.218728 9:-0.489309 10:-0.6 11:-1 12:-1 13:-1 14:-1 15:-1 16:-1 17:-1 18:-1 19:-1 20:-1 21:-1 22:-1 23:-1 24:-1 25:-1 26:-1 27:-1 28:-1 29:-1 32:-0.507947 33:-0.343873 34:-0.969528 35:-0.736247 36:-0.710487 37:-0.7426 38:-0.891671 39:-0.587848 40:-0.880557 41:-0.238327 42:-0.745582 43:-0.767895 44:-0.837555 45:-0.872114 46:-0.4817 47:-0.405688 48:-0.830291 49:-0.686053 50:-0.910382 51:-0.471972 52:-0.351158 53:0.0605242 54:-0.532396 55:-0.880755 56:-0.583849 57:-0.659074 58:-0.444931 59:-0.373297 60:-0.906598 61:-0.69084 62:-0.979868 63:-0.546656 64:-0.455118 65:-0.847341 66:-0.913657 67:-0.565088 68:-0.787468 69:-0.537058 70:-0.595968 71:-0.479073 72:-0.932551 73:-0.806695 74:-0.941048 75:-0.712261 76:-0.497622 77:-0.742903 78:-0.620716 79:-0.553832 80:-0.479407 81:-0.619974 82:-0.764565 83:-0.613759 84:-0.769657 85:-0.624169 86:-0.0434792 87:-0.732982 88:-0.420323 89:-0.895041 90:-0.530109 91:-0.327518 92:-0.445396 93:-0.861555 94:-0.826753 95:-0.912262 96:-0.204697 97:-0.673998 98:-0.488806 99:-0.454774 100:-0.975861 101:-0.487497 102:-0.822486 103:-0.642684 104:-0.772448 105:-0.838272 106:-0.314536 107:-0.564961 108:-0.767524 109:-0.433871 110:-0.818453 111:-0.837347 112:-0.580329 113:-0.764139 114:-0.493223 115:-0.639602 116:-0.717273 117:-0.606921 118:-0.803108 119:-0.714304 120:-0.895628 121:-0.944971 122:-0.592591 123:-0.541751 124:-0.542065 125:-0.670997 126:-0.611668 127:-0.80819 128:-0.708432 129:-0.890277 130:-0.515621 131:-0.27126 132:-0.273516 133:-0.0532013 134:-0.198838 135:0.198835 136:-0.0532013 137:0.617912 138:-0.619718 139:0.0791178 140:0.19242 141:0.498584 142:0.314235 143:-1 144:-1 145:-1 146:-1 147:-1 148:-1 149:-1 150:-0.333333 151:-0.6 152:0.526835 153:-0.89476 154:-0.6 155:-1 156:-1 157:-1 158:-1 159:-1 160:-1 161:-1 162:-1 163:-1 164:-1 165:-1 166:-1 167:-1 168:-1 169:-1 170:-1 171:-1 172:-1 173:-1 176:-1 177:-1 178:-1 179:-1 180:-1 181:-1 182:-1 183:-0.333331 184:-0.6 
0.5529985144802342 -0 -0.6093194277948212 1:-0.329535 2:-0.0485681 3:-0.595704 4:-0.275756 5:-0.294084 6:-0.327944 7:-0.206515 8:-0.372541 9:-0.0923802 10:-0.333333 11:-0.4 12:-0.555556 13:-0.555556 14:-0.5 15:-0.333333 16:-0.2 17:-0.2 18:-0.2 19:-0.2 20:-0.6 21:-1 22:-1 23:-1 24:-1 25:-1 26:-1 27:-1 28:-1 29:-1 32:-0.512524 33:-0.357439 34:-0.73647 35:-0.856734 36:-0.350724 37:-0.737684 38:-0.819716 39:-0.796139 40:-0.443941 41:0.227961 42:-0.61084 43:-0.658382 44:-0.677183 45:-0.0217138 46:-0.998647 47:-0.442237 48:-0.443245 49:-0.697708 50:-0.795125 51:-0.641548 52:0.275575 53:-0.552046 54:0.299383 55:-0.460867 56:-0.2648 57:-0.545816 58:-0.559407 59:-0.570658 60:-0.410609 61:-0.433323 62:-0.112087 63:-0.498385 64:-0.289798 65:-0.409 66:-0.363997 67:-0.440776 68:-0.116326 69:-0.246876 70:-0.133791 71:-0.81162 72:-0.714797 73:-0.411725 74:-0.684283 75:-0.431111 76:-0.28632 77:-0.453063 78:-0.93529 79:-0.546623 80:-0.419056 81:-0.724778 82:-0.813329 83:-0.620775 84:-0.483724 85:-0.754602 86:-0.778861 87:0.174615 88:-0.726729 89:-0.479015 90:-0.469056 91:-0.087553 92:-0.445716 93:-0.770384 94:-0.803112 95:-0.655808 96:-0.35727 97:-0.415535 98:-0.571322 99:-0.303847 100:-0.256282 101:-0.0230152 102:-0.140575 103:-0.484589 104:-0.822979 105:-0.033008 106:-0.347125 107:-0.486104 108:-0.803892 109:-0.944854 110:-0.567145 111:-0.688317 112:-0.586246 113:-0.864368 114:-0.55285 115:-0.809246 116:-0.61079 117:-0.364045 118:-0.312252 119:-0.484862 120:-0.553395 121:0.154416 122:-0.0517855 123:0.104449 124:-0.469353 125:-0.0351171 126:-0.407766 127:-0.294388 128:-0.622454 129:-0.172536 130:-0.356259 131:0.244301 132:-0.713528 133:-0.759811 134:0.629757 135:-0.62975 136:-0.759811 137:0.417642 138:0.104222 139:-0.633163 140:-0.412292 141:-0.312098 142:0.431659 143:-1 144:-1 145:-1 146:-0.5 147:-0.333333 148:-0.5 149:-0.5 150:0.111111 151:-0.333333 152:-0.618316 153:-0.168286 154:-0.333333 155:-0.399999 156:-0.555554 157:-0.555554 158:-0.499998 159:-0.333333 160:-0.199999 161:-0.199999 162:-0.199999 163:-0.199999 164:-0.600001 165:-1 166:-1 167:-1 168:-1 169:-1 170:-1 171:-1 172:-1 173:-1 176:-1 177:-1 178:-1 179:-0.500001 180:-0.333333 181:-0.499998 182:-0.499998 183:0.111115 184:-0.333333 
1.170677991862107 -0.4586262035428176 -0.9378273070396297 1:-0.640205 2:-0.80768 3:-0.424818 4:-0.539664 5:-0.898838 6:-0.0778957 7:-0.204266 8:-0.389431 9:-0.697426 10:-0.6 11:-0.8 12:-1 13:-1 14:-1 15:-1 16:-1 17:-1 18:-1 19:-1 20:-1 21:-1 22:-1 23:-1 24:-1 25:-1 26:-1 27:-1 28:-1 29:-1 32:-0.877754 33:-0.177312 34:-0.799961 35:-0.746468 36:-0.601831 37:-0.29578 38:-0.732746 39:-0.694654 40:0.0516088 41:-0.760867 42:-0.665028 43:-0.729256 44:-0.337637 45:-0.787333 46:-0.629921 47:-0.231445 48:-0.979762 49:-0.947245 50:-0.759625 51:-0.816084 52:-0.242591 53:-0.189617 54:-0.134192 55:-0.726039 56:-0.461186 57:-0.439036 58:-0.99585 59:-0.451961 60:-0.672438 61:-0.979077 62:-0.656175 63:-0.647053 64:-0.788975 65:-0.516025 66:-0.785803 67:-0.838907 68:-0.640758 69:-0.54979 70:-0.77131 71:-0.847432 72:-0.555084 73:-0.463373 74:-0.71292 75:-0.550462 76:-0.15783 77:-0.907079 78:-0.764252 79:-0.767954 80:-0.782869 81:0.160582 82:-0.487798 83:-0.256052 84:-0.632626 85:-0.595074 86:-0.165473 87:-0.834521 88:-0.23096 89:-0.705559 90:-0.724108 91:-0.897995 92:-0.453545 93:-0.312351 94:-0.678738 95:-0.718188 96:-0.664727 97:-0.444432 98:-0.82232 99:-0.764226 100:-0.485673 101:-0.567262 102:-0.523663 103:-0.563493 104:-0.597264 105:-0.791723 106:-0.74338 107:-0.788892 108:-0.900036 109:-0.284257 110:-0.57778 111:-0.711678 112:-0.302802 113:-0.702792 114:-0.701829 115:-0.637683 116:-0.283143 117:-0.368567 118:-0.906458 119:-0.226278 120:-0.609688 121:-0.457808 122:-0.543698 123:-0.599257 124:-0.859102 125:-0.793177 126:-0.233587 127:-0.101382 128:-0.66021 129:-0.43856 130:-0.401395 131:-0.481308 132:0.106413 133:0.713522 134:-0.817454 135:0.817454 136:0.713522 137:0.617762 138:-0.501093 139:0.135344 140:0.121096 141:0.417246 142:-0.125596 143:-1 144:-1 145:-1 146:-1 147:-1 148:-1 149:-0.75 150:-0.333333 151:-0.6 152:0.347729 153:-0.900829 154:-0.6 155:-0.8 156:-1 157:-1 158:-1 159:-1 160:-1 161:-1 162:-1 163:-1 164:-1 165:-1 166:-1 167:-1 168:-1 169:-1 170:-1 171:-1 172:-1 173:-1 176:-1 177:-1 178:-1 179:-1 180:-1 181:-1 182:-0.75 183:-0.333331 184:-0.6 
0.5520516172467305 -0.3856751950598943 -0.121989725201851 1:-0.101257 2:0.0626351 3:-0.153304 4:-0.0938407 5:-0.782944 6:0.136504 7:0.146484 8:-0.2372 9:0.164336 10:-0.466667 11:-0.2 12:-0.111111 13:-0.555556 14:-0.5 15:-0.333333 16:-0.2 17:-0.2 18:-0.6 19:-0.6 20:-0.6 21:-0.6 22:-0.5 23:-0.333333 24:-1 25:-1 26:-1 27:-1 28:-1 29:-1 32:-0.0289718 33:0.0578806 34:-0.796447 35:-0.480746 36:-0.725351 37:-0.886287 38:-0.746298 39:0.170879 40:-0.421012 41:-0.627535 42:-0.483511 43:-0.538302 44:-0.156971 45:-0.410113 46:-0.824616 47:-0.708712 48:-0.870162 49:-0.17174 50:-0.466379 51:-0.949854 52:-0.29362 53:0.291566 54:-0.47846 55:-0.481896 56:-0.577631 57:-0.128975 58:-0.634617 59:-0.912239 60:-0.916972 61:-0.172552 62:-0.269459 63:-0.775575 64:-0.78979 65:-0.52153 66:-0.28467 67:-0.565563 68:-0.684738 69:-0.853228 70:0.0835433 71:-0.633583 72:-0.152919 73:0.0884914 74:-0.397 75:-0.899646 76:-0.73727 77:-0.487296 78:-0.390361 79:-0.585231 80:-0.370344 81:-0.223003 82:-0.284312 83:-0.181622 84:-0.4745 85:-0.55684 86:-0.0468282 87:-0.659193 88:-0.360119 89:-0.674045 90:-0.802992 91:-0.604962 92:0.0232229 93:-0.0886124 94:-0.301292 95:-0.0951112 96:0.0925564 97:-0.125832 98:-0.356091 99:-0.541081 100:-0.319389 101:-0.138076 102:-0.854439 103:-0.559437 104:-0.349892 105:-0.00450576 106:-0.372714 107:-0.54729 108:-0.443207 109:-0.208457 110:-0.677911 111:0.370767 112:-0.231612 113:-0.25517 114:-0.206207 115:-0.817244 116:-0.00945337 117:0.242328 118:-0.389952 119:-0.586155 120:-0.503295 121:-0.415269 122:-0.915737 123:-0.235598 124:-0.0427014 125:-0.548453 126:-0.557834 127:-0.200141 128:-0.328125 129:-0.680741 130:-0.240674 131:0.387583 132:-0.512079 133:-0.649704 134:0.477713 135:-0.477713 136:-0.649704 137:0.228473 138:0.263007 139:-0.367949 140:-0.0541505 141:-0.488814 142:0.318907 143:-1 144:-1 145:-0.333333 146:-0.5 147:-0.333333 148:-0.25 150:-0.111111 151:-0.466667 152:-0.401703 153:-0.871093 154:-0.466667 155:-0.199999 156:-0.111109 157:-0.555554 158:-0.499998 159:-0.333333 160:-0.199999 161:-0.199999 162:-0.600001 163:-0.600001 164:-0.600001 165:-0.600001 166:-0.500001 167:-0.333335 168:-1 169:-1 170:-1 171:-1 172:-1 173:-1 176:-1 177:-1 178:-0.333335 179:-0.500001 180:-0.333333 181:-0.249997 182:3.26501e-06 183:-0.111109 184:-0.466667 
0.2714490383164661 -0.4446404541850151 -0 1:-0.110714 2:0.0453681 3:-0.127058 4:-0.100545 5:-0.811164 6:0.191595 7:0.0901571 8:-0.204419 9:0.176643 10:-0.466667 11:-0.4 12:-0.555556 13:-0.555556 14:-0.5 15:-0.333333 16:-0.2 17:-0.2 18:-0.6 19:-0.6 20:-0.6 21:-0.6 22:-0.5 23:-0.333333 24:-1 25:-1 26:-1 27:-1 28:-1 29:-1 32:-0.208183 33:-0.109583 34:-0.847419 35:-0.371444 36:-0.801603 37:-0.600176 38:-0.503535 39:-0.662515 40:0.0447593 41:-0.817786 42:-0.741502 43:-0.541666 44:-0.553108 45:-0.216613 46:-0.296617 47:-0.756009 48:-0.650342 49:-0.590843 50:-0.369234 51:-0.0291549 52:-0.568015 53:-0.110596 54:-0.625193 55:0.0700891 56:0.249786 57:-0.098378 58:-0.823245 59:-0.992287 60:-0.820853 61:-0.514313 62:-0.131162 63:-0.724769 64:-0.548567 65:-0.415449 66:-0.266913 67:-0.404699 68:-0.637453 69:-0.761658 70:-0.940303 71:-0.540275 72:0.308243 73:-0.824923 74:-0.727407 75:-0.678352 76:-0.300656 77:-0.170898 78:-0.781198 79:-0.722342 80:-0.628765 81:-0.714883 82:-0.686416 83:-0.0584559 84:-0.145669 85:-0.800113 86:-0.783215 87:-0.269513 88:-0.295482 89:-0.807368 90:-0.447358 91:-0.645467 92:-0.928311 93:-0.377204 94:-0.686928 95:-0.7021 96:-0.403779 97:-0.272256 98:-0.0650791 99:-0.86806 100:-0.846253 101:-0.454888 102:-0.988616 103:-0.88167 104:-0.874538 105:-0.514143 106:-0.665436 107:-0.284673 108:-0.319977 109:0.305317 110:-0.830207 111:-0.492945 112:-0.24632 113:-0.38662 114:-0.716231 115:-0.647669 116:0.0266614 117:-0.127388 118:-0.719717 119:-0.867626 120:-0.726526 121:-0.258782 122:-0.829673 123:-0.539791 124:-0.252513 125:-0.569779 126:-0.477323 127:-0.899322 128:0.108394 129:-0.661836 130:-0.643749 131:0.458507 132:-0.452766 133:-0.629777 134:0.451267 135:-0.451259 136:-0.629777 137:0.232973 138:0.143805 139:-0.356151 140:-0.157571 141:-0.494936 142:0.277885 143:-1 144:-1 145:-0.333333 146:-0.5 147:-0.333333 148:-0.25 149:-0.25 150:-0.111111 151:-0.333333 152:-0.366837 153:-0.829154 154:-0.466667 155:-0.399999 156:-0.555554 157:-0.555554 158:-0.499998 159:-0.333333 160:-0.199999 161:-0.199999 162:-0.600001 163:-0.600001 164:-0.600001 165:-0.600001 166:-0.500001 167:-0.333335 168:-1 169:-1 170:-1 171:-1 172:-1 173:-1 176:-1 177:-1 178:-0.333335 179:-0.500001 180:-0.333333 181:-0.249997 182:-0.249997 183:-0.111109 184:-0.333333 
0.9692593634023233 -0.4396932579981501 -0.4459254475693434 1:-0.596115 2:-0.749194 3:-0.403553 4:-0.520909 5:-0.902806 6:-0.0461784 7:-0.211492 8:-0.374199 9:-0.637191 10:-0.6 11:-0.6 12:-0.777778 13:-1 14:-1 15:-1 16:-1 17:-1 18:-1 19:-1 20:-1 21:-1 22:-1 23:-1 24:-1 25:-1 26:-1 27:-1 28:-1 29:-1 32:-0.742663 33:-0.124447 34:-0.781845 35:-0.550761 36:-0.478817 37:-0.388648 38:-0.676818 39:-0.68302 40:-0.179771 41:-0.480405 42:-0.630224 43:-0.890224 44:-0.782774 45:-0.721956 46:-0.619344 47:-0.639162 48:-0.140687 49:-0.588578 50:-0.776262 51:-0.390167 52:-0.671286 53:-1 54:-0.0595798 55:-0.550463 56:-0.735137 57:-0.00577667 58:-0.773395 59:-0.368565 60:-0.76393 61:-0.892428 62:-0.725346 63:-0.915968 64:-0.582272 65:-0.205434 66:-0.687077 67:-0.804618 68:-0.658668 69:-0.629076 70:-0.739046 71:-0.784214 72:-0.315425 73:-0.778804 74:-0.418604 75:-0.921591 76:-0.0422287 77:-0.702321 78:-0.749903 79:-0.441422 80:-0.895701 81:-0.057666 82:-0.702611 83:-0.264176 84:-0.575103 85:-0.419286 86:-0.416869 87:-0.401452 88:-0.743084 89:-0.47676 90:-0.862602 91:-0.758526 92:-0.935356 93:-0.269161 94:-0.901279 95:-0.55835 96:-0.438339 97:-0.677852 98:-0.808111 99:-0.947227 100:-0.790788 101:-0.559731 102:-0.576658 103:-0.445335 104:-0.654441 105:-0.661194 106:-0.562567 107:-0.399362 108:-0.903318 109:-0.318449 110:-0.314048 111:-0.410247 112:-0.560808 113:-0.625811 114:-0.522069 115:-0.980791 116:-0.61174 117:-0.812039 118:-0.718457 119:-0.319508 120:-0.179348 121:-0.282174 122:-0.245251 123:-0.428899 124:-0.583904 125:-0.621216 126:-0.539421 127:-0.153158 128:-0.976613 129:-0.458358 130:-0.116971 131:-0.41491 132:0.0101645 133:0.469528 134:-0.643541 135:0.643564 136:0.469528 137:0.555356 138:-0.366308 139:0.170856 140:0.105851 141:0.197756 142:-0.149789 143:-1 144:-1 145:-1 146:-1 147:-1 148:-1 149:-0.5 150:-0.333333 151:-0.6 152:0.315992 153:-0.908864 154:-0.6 155:-0.599999 156:-0.777778 157:-1 158:-1 159:-1 160:-1 161:-1 162:-1 163:-1 164:-1 165:-1 166:-1 167:-1 168:-1 169:-1 170:-1 171:-1 172:-1 173:-1 176:-1 177:-1 178:-1 179:-1 180:-1 181:-1 182:-0.499998 183:-0.333331 184:-0.6 
0.4899506190684255 -0 -0.6930712311903483 1:-0.0778337 2:0.106879 3:-0.40543 4:-0.0804026 5:-0.459589 6:-0.126753 7:-0.00288943 8:-0.392269 9:-0.0466629 10:-0.333333 11:-0.2 12:-0.111111 13:-0.333333 14:-0.25 16:0.2 17:-0.2 18:-0.2 19:-0.6 20:-0.6 21:-0.6 22:-0.5 23:-1 24:-1 25:-1 26:-1 27:-1 28:-1 29:-1 32:-0.341639 33:0.203203 34:-0.823685 35:-0.163712 36:-0.436384 37:-0.936428 38:-0.853914 39:0.429485 40:-0.388645 41:-0.416324 42:-0.200209 43:-0.604945 44:0.237689 45:-0.747582 46:-0.27646 47:-0.500366 48:-0.595119 49:-0.676346 50:-0.576947 51:-0.404496 52:-0.594973 53:0.484534 54:-0.0877277 55:-0.580133 56:-0.141354 57:-0.24168 58:-0.454339 59:-0.222613 60:-0.380671 61:-0.457748 62:-0.599102 63:-0.406999 64:-0.534646 65:-0.559802 66:-0.450803 67:0.376408 68:-0.991332 69:-0.828837 70:-0.663099 71:0.417014 72:0.0253155 73:-0.0193277 74:-0.498192 75:-0.270172 76:-0.241487 77:-0.0651745 78:0.239862 79:-0.320536 80:-0.273394 81:-0.69804 82:0.212357 83:-0.622892 84:-0.351225 85:-0.192095 86:-0.255103 87:-0.105713 88:-0.549927 89:-0.56207 90:-0.094381 91:-0.37578 92:0.256849 93:-0.860285 94:-0.191458 95:-0.545277 96:-0.080947 97:-0.263036 98:-0.145617 99:-0.566451 100:-0.493754 101:-0.612428 102:-0.301444 103:0.0704778 104:-0.403453 105:-0.487693 106:-0.54178 107:-0.378003 108:-0.656906 109:-0.511195 110:-0.321003 111:0.125854 112:-0.626311 113:-0.138303 114:-0.889293 115:0.153737 116:-0.105507 117:-0.7875 118:-0.453774 119:-0.0109987 120:-0.272739 121:-0.624367 122:-0.693501 123:-0.473209 124:-0.647341 125:-0.825483 126:-0.298987 127:-0.680972 128:-0.532995 129:-0.606204 130:-0.21651 131:0.00437454 132:-0.0845612 133:-0.100105 134:-0.153099 135:0.153115 136:-0.100105 137:0.131863 138:0.383221 139:-0.480153 140:-0.143732 141:-0.378457 142:0.433825 143:-1 144:-1 145:-0.333333 146:-0.5 150:0.111111 151:-0.333333 152:-0.650591 153:-0.68187 154:-0.333333 155:-0.199999 156:-0.111109 157:-0.333331 158:-0.249997 160:0.199999 161:-0.199999 162:-0.199999 163:-0.600001 164:-0.600001 165:-0.600001 166:-0.500001 167:-1 168:-1 169:-1 170:-1 171:-1 172:-1 173:-1 176:-1 177:-1 178:-0.333335 179:-0.500001 181:3.26501e-06 182:3.26501e-06 183:0.111115 184:-0.333333 
0.9388404553996006 -0.3169487578780186 -0.6045095788403902 1:-0.0570627 2:0.116714 3:-0.496396 4:-0.0989386 5:-0.307106 6:-0.218822 7:-0.0951479 8:-0.432419 9:-0.201978 10:-0.2 11:-0.4 12:-0.333333 13:-0.333333 14:-0.25 16:0.2 17:0.2 18:-0.2 19:-0.6 20:-0.6 21:-0.6 22:-0.5 23:-1 24:-1 25:-1 26:-1 27:-1 28:-1 29:-1 32:-0.317763 33:0.148916 34:-0.791733 35:-0.263628 36:-0.370921 37:-0.942179 38:-0.592547 39:0.26827 40:-0.530139 41:-0.0530073 42:-0.0675693 43:-0.56907 44:0.0781492 45:-0.878426 46:0.00671293 47:-0.424513 48:-0.890996 49:-0.982397 50:-0.663689 51:-0.232753 52:-0.0331746 53:0.270115 54:0.149534 55:-0.603875 56:-0.680645 57:0.683124 58:-0.840507 59:-0.120409 60:-0.719033 61:0.350773 62:-0.667715 63:-0.498358 64:-0.592682 65:0.46398 66:-0.274184 67:-0.38983 68:-0.773088 69:-0.692722 70:0.988109 71:-0.472778 72:0.127238 73:-0.696352 74:-0.380388 75:-0.550926 76:0.338143 77:0.300155 78:-0.152861 79:-0.712023 80:-0.68423 81:0.207764 82:-0.493964 83:-0.567516 84:0.334455 85:-0.319409 86:-0.0441247 87:-0.322249 88:-0.28549 89:0.0466286 90:0.0704831 91:-0.649162 92:-0.827068 93:0.361064 94:0.0962798 95:0.0698283 96:-0.42188 97:-0.670852 98:-0.844996 99:-0.431515 100:0.321102 101:0.040576 102:-0.812446 103:-0.55469 104:-0.615817 105:-0.48025 106:-0.948349 107:-0.385698 108:-0.0128807 109:-0.0144184 110:-0.71618 111:-0.295148 112:-0.018759 113:0.116657 114:0.229581 115:-0.513461 116:0.238324 117:-0.607213 118:0.292577 119:-1 120:-0.596367 121:-0.405939 122:-0.806982 123:0.149479 124:-0.160521 125:-0.553377 126:0.376478 127:-0.381277 128:-0.789248 129:-0.193321 130:-0.307871 131:-0.0817258 132:-0.0672945 133:-0.0127891 134:-0.237342 135:0.237367 136:-0.0127891 137:0.0819082 138:0.367065 139:-0.528218 140:-0.239951 141:-0.349426 142:0.265695 143:-1 144:-1 145:-0.333333 148:-0.25 149:-0.25 150:0.111111 151:0.0666667 152:-0.715118 153:-0.497442 154:-0.2 155:-0.399999 156:-0.333331 157:-0.333331 158:-0.249997 160:0.199999 161:0.199999 162:-0.199999 163:-0.600001 164:-0.600001 165:-0.600001 166:-0.500001 167:-1 168:-1 169:-1 170:-1 171:-1 172:-1 173:-1 176:-1 177:-1 178:-0.333335 179:1.6325e-06 181:-0.249997 182:-0.249997 183:0.111115 184:0.0666626 
1.115919259477682 -0.4318092054223812 -0.6254627025414932 1:-0.196459 2:0.0143909 3:-0.561677 4:-0.225062 5:-0.311659 6:-0.287112 7:-0.174055 8:-0.453892 9:-0.337555 10:-0.333333 11:-0.4 12:-0.333333 13:-0.333333 14:-0.5 15:-0.333333 16:-0.2 17:-0.2 18:-0.2 19:-0.6 20:-0.6 21:-0.6 22:-0.5 23:-1 24:-1 25:-1 26:-1 27:-1 28:-1 29:-1 32:-0.650102 33:0.202215 34:-0.748799 35:-0.68639 36:-0.288521 37:-0.115692 38:-0.492362 39:-0.689829 40:-0.394929 41:0.0827889 42:0.0217622 43:-0.781056 44:-0.0631408 45:-0.277795 46:-0.690571 47:-0.822561 48:-0.84642 49:-0.0989036 50:-0.523902 51:0.137463 52:-0.364617 53:-0.246063 54:0.080372 55:-0.45531 56:0.298813 57:-0.428783 58:-0.461492 59:-0.76372 60:-0.511836 61:0.22588 62:-0.122242 63:-0.612068 64:-0.593652 65:-0.856251 66:0.0491774 67:0.0538934 68:-0.153572 69:-0.219502 70:-0.400906 71:-0.455103 72:-0.416081 73:0.657257 74:-0.731849 75:-0.461137 76:0.115204 77:0.213781 78:-0.438978 79:-0.387394 80:-0.303799 81:-0.360293 82:-0.473446 83:-0.230575 84:-0.0716024 85:-0.766352 86:0.124054 87:0.771453 88:-0.433948 89:-0.815395 90:-0.140001 91:-0.613902 92:0.461565 93:-0.361914 94:-0.154855 95:-0.848574 96:-0.608531 97:-0.210613 98:-0.790552 99:-0.231296 100:-0.615975 101:-0.163687 102:-0.479869 103:-0.774476 104:-0.12695 105:-0.254025 106:-0.684236 107:-0.743949 108:0.478519 109:0.102932 110:-0.805778 111:-0.436648 112:-0.440989 113:-0.700007 114:-0.0729662 115:-0.862524 116:-0.855603 117:-0.166327 118:-0.762647 119:0.0483802 120:-0.258111 121:-0.450261 122:-0.156932 123:-0.78472 124:-0.316883 125:-0.91687 126:0.0830916 127:-0.591891 128:-0.447822 129:0.766922 130:-0.34315 131:-0.209121 132:-0.124491 133:0.0488677 134:-0.294674 135:0.294674 136:0.0488677 137:0.170717 138:0.266209 139:-0.559692 140:-0.322757 141:-0.235334 142:0.200318 143:-1 144:-1 145:-0.333333 146:-0.5 148:-0.25 149:-0.25 150:-0.111111 151:-0.0666667 152:-0.642617 153:-0.295586 154:-0.333333 155:-0.399999 156:-0.333331 157:-0.333331 158:-0.499998 159:-0.333333 160:-0.199999 161:-0.199999 162:-0.199999 163:-0.600001 164:-0.600001 165:-0.600001 166:-0.500001 167:-1 168:-1 169:-1 170:-1 171:-1 172:-1 173:-1 176:-1 177:-1 178:-0.333335 179:-0.500001 181:-0.249997 182:-0.249997 183:-0.111109 184:-0.0666626 
0.1314854604725117 -0 -0.3303790344733493 1:-0.384284 2:-0.0510081 3:-0.615975 4:-0.379859 5:-0.386518 6:-0.364122 7:-0.203233 8:-0.420315 9:-0.334415 10:-0.6 11:-0.6 12:-0.555556 13:-0.555556 14:-0.5 15:-0.333333 16:-0.2 17:-0.2 18:-0.2 19:-0.2 20:-0.6 21:-0.6 22:-1 23:-1 24:-1 25:-1 26:-1 27:-1 28:-1 29:-1 32:-0.712026 33:0.0586512 34:-0.937672 35:-0.800953 36:-0.761584 37:-0.801664 38:-0.623999 39:-0.325131 40:0.294323 41:-0.901617 42:-0.209454 43:-0.356819 44:-0.670524 45:0.120992 46:-0.502083 47:-0.682812 48:-0.344266 49:-0.872948 50:-0.483415 51:-0.367078 52:-0.129688 53:-0.0250206 54:-0.14194 55:-0.628288 56:0.145599 57:-0.117157 58:-0.461156 59:-0.462672 60:-0.00937637 61:-0.845615 62:-0.635875 63:-0.128163 64:-0.70333 65:-0.590834 66:-0.264832 67:-0.524809 68:-0.675231 69:-0.115163 70:-0.157034 71:-0.484068 72:-0.479191 73:-0.0633689 74:-0.586414 75:-0.442494 76:-0.714703 77:0.0603341 78:-0.220599 79:-0.278335 80:-0.543172 81:0.186834 82:-0.0962461 83:-0.497172 84:0.410462 85:-0.866293 86:-0.368446 87:-0.813632 88:-0.90489 89:-0.404836 90:-0.13328 91:-0.370079 92:-0.417399 93:-0.340032 94:-0.310843 95:-0.384542 96:-0.304743 97:-0.444839 98:-0.818184 99:-0.313601 100:-0.851877 101:-0.486669 102:-0.613114 103:-0.210494 104:-0.751762 105:-0.346456 106:-0.643782 107:-0.448687 108:-0.534383 109:-0.546344 110:-0.627754 111:-0.643368 112:-0.755063 113:-0.373995 114:-0.499667 115:-0.673815 116:0.24565 117:0.0298341 118:-0.0485473 119:-0.302979 120:-0.111138 121:-0.187085 122:-0.514509 123:-0.465806 124:-0.381254 125:-0.695864 126:-0.256988 127:-0.446709 128:-0.809565 129:-0.0184762 130:-0.39003 131:-0.112371 132:-0.529981 133:-0.447858 134:0.22342 135:-0.223417 136:-0.447858 137:0.464446 138:0.0877157 139:-0.633915 140:-0.375259 141:-0.209375 142:0.18885 143:-1 144:-1 145:-1 146:-0.5 147:-0.333333 148:-0.5 149:-0.5 150:-0.333333 151:-0.333333 152:-0.484305 153:-0.138151 154:-0.6 155:-0.599999 156:-0.555554 157:-0.555554 158:-0.499998 159:-0.333333 160:-0.199999 161:-0.199999 162:-0.199999 163:-0.199999 164:-0.600001 165:-0.600001 166:-1 167:-1 168:-1 169:-1 170:-1 171:-1 172:-1 173:-1 176:-1 177:-1 178:-1 179:-0.500001 180:-0.333333 181:-0.499998 182:-0.499998 183:-0.333331 184:-0.333333 
0.3214388545551753 -0.2697718922332877 -0 1:-0.460125 2:-0.272192 3:-0.468376 4:-0.174458 5:-0.447529 6:-0.200208 7:-0.0392232 8:-0.37843 9:0.0484922 10:-0.466667 11:-0.6 12:-0.555556 13:-0.555556 14:-0.75 15:-0.666667 16:-0.6 17:-0.6 18:-0.6 19:-0.6 20:-0.6 21:-1 22:-1 23:-1 24:-1 25:-1 26:-1 27:-1 28:-1 29:-1 32:-0.546138 33:-0.299854 34:-0.416913 35:-0.384929 36:-0.674019 37:-0.851211 38:-0.414047 39:-0.829313 40:-0.925036 41:-0.852983 42:-0.793291 43:-0.832053 44:-0.797067 45:-0.923243 46:-0.90881 47:-0.457324 48:-0.744633 49:-0.221378 50:-0.578415 51:-0.397042 52:-0.745756 53:-0.302638 54:0.318394 55:-0.00400583 56:-0.222817 57:0.0993067 58:-0.630943 59:-0.404881 60:-0.437089 61:-0.397959 62:-0.36355 63:-0.889508 64:-0.205879 65:-0.0328168 66:-0.296209 67:-0.0889016 68:-0.905421 69:-0.698063 70:-0.854135 71:-0.666063 72:-0.311182 73:0.270198 74:-0.732989 75:-0.512709 76:-0.363276 77:-0.639797 78:-1 79:-0.298236 80:-0.181677 81:-0.604766 82:-0.723741 83:-0.55629 84:-0.50132 85:-0.246049 86:-0.416202 87:-0.493195 88:-0.962258 89:-0.623431 90:-0.54457 91:-0.541772 92:-0.707839 93:-0.207566 94:-0.522695 95:-0.872669 96:-0.25984 97:-0.767812 98:-0.662496 99:-0.431559 100:-0.546195 101:-0.265542 102:-0.925677 103:-0.164033 104:-0.840372 105:-0.437976 106:-0.603398 107:-0.19184 108:-0.743401 109:-0.734327 110:-0.656738 111:-0.530611 112:-0.903 113:-0.799988 114:-0.78074 115:-0.65082 116:-0.737874 117:-0.527451 118:-0.335034 119:-0.839663 120:-0.93176 121:-0.162437 122:-0.591676 123:-0.192001 124:-0.479936 125:-0.283666 126:-0.790572 127:-0.690283 128:-0.676635 129:-0.601012 130:-0.889074 131:0.50845 132:-0.714783 133:-0.826367 134:0.726743 135:-0.72675 136:-0.826367 137:0.521602 138:-0.15598 139:-0.426473 140:-0.0583228 141:-0.600502 142:0.151014 143:-1 144:-1 145:-1 146:-0.5 147:-0.666667 148:-0.75 149:-0.75 150:-0.111111 151:-0.466667 152:-0.602184 153:-0.717625 154:-0.466667 155:-0.599999 156:-0.555554 157:-0.555554 158:-0.75 159:-0.666667 160:-0.600001 161:-0.600001 162:-0.600001 163:-0.600001 164:-0.600001 165:-1 166:-1 167:-1 168:-1 169:-1 170:-1 171:-1 172:-1 173:-1 176:-1 177:-1 178:-1 179:-0.500001 180:-0.666667 181:-0.75 182:-0.75 183:-0.111109 184:-0.466667 
2.177627835122233 -1.752975569501282 -0.2423850018005707 1:-0.638629 2:-0.870966 3:-0.417496 4:-0.579415 5:-0.947294 6:-0.0702168 7:-0.199034 8:-0.339075 9:-0.585584 10:-0.733333 11:-1 12:-1 13:-1 14:-1 15:-1 16:-1 17:-1 18:-1 19:-1 20:-1 21:-1 22:-1 23:-1 24:-1 25:-1 26:-1 27:-1 28:-1 29:-1 32:-0.523474 33:-0.365181 34:-0.905376 35:-0.754338 36:-0.491465 37:-0.957436 38:-0.82136 39:-0.728485 40:-0.516421 41:-0.6338 42:-0.815737 43:-0.721636 44:-0.924378 45:-0.889802 46:-0.427553 47:-0.323796 48:-0.734914 49:-0.972143 50:-0.939733 51:-0.380627 52:-0.110063 53:-0.344169 54:-0.843733 55:-0.978707 56:-0.476163 57:-0.812899 58:-0.516887 59:-0.792543 60:-0.826392 61:-0.40459 62:-0.674809 63:-0.585956 64:-0.864051 65:-0.909088 66:-0.63409 67:-0.668823 68:-0.804301 69:-0.462061 70:-0.486769 71:-0.899303 72:-0.920031 73:-0.651676 74:-0.815833 75:-0.949566 76:-0.683779 77:-0.330928 78:-0.374193 79:-0.745203 80:-0.346109 81:-0.582642 82:-0.557893 83:-0.512263 84:-0.605789 85:0.0916014 86:-0.993455 87:-0.421104 88:-0.586771 89:-0.686119 90:-0.269928 91:-0.568329 92:-0.607693 93:-0.723485 94:-0.577954 95:-0.693765 96:-0.407013 97:-0.414029 98:-0.759248 99:-0.61062 100:-0.802536 101:-0.428377 102:-0.554761 103:-0.506612 104:-0.708105 105:-0.423683 106:-0.120175 107:-0.359775 108:-0.558367 109:-0.687442 110:-0.988174 111:-0.91428 112:-0.566632 113:-0.754887 114:-0.797921 115:-0.642268 116:-0.786663 117:-0.85714 118:-0.880706 119:-0.301148 120:-1 121:-0.287685 122:-0.229906 123:-0.330224 124:0.116498 125:-1 126:-0.738217 127:-0.360708 128:-0.273793 129:-0.306089 130:-0.802235 131:-0.337346 132:-0.173179 133:0.135194 134:-0.372039 135:0.372047 136:0.135194 137:0.59571 138:-0.697941 139:0.14013 140:0.127532 141:0.371146 142:0.097539 143:-1 144:-1 145:-1 146:-1 147:-1 148:-1 149:-1 150:-0.777778 151:-0.6 152:0.555208 153:-0.895707 154:-0.733333 155:-1 156:-1 157:-1 158:-1 159:-1 160:-1 161:-1 162:-1 163:-1 164:-1 165:-1 166:-1 167:-1 168:-1 169:-1 170:-1 171:-1 172:-1 173:-1 176:-1 177:-1 178:-1 179:-1 180:-1 181:-1 182:-1 183:-0.777778 184:-0.6 
1.22011225913493 -0.9513252075686826 -0.1111489776123826 1:-0.633297 2:-0.808639 3:-0.426995 4:-0.531567 5:-0.888083 6:-0.0816146 7:-0.202243 8:-0.390013 9:-0.699546 10:-0.6 11:-0.8 12:-1 13:-1 14:-1 15:-1 16:-1 17:-1 18:-1 19:-1 20:-1 21:-1 22:-1 23:-1 24:-1 25:-1 26:-1 27:-1 28:-1 29:-1 32:-0.911733 33:-0.151239 34:-0.790101 35:-0.791655 36:-0.645154 37:-0.269292 38:-0.785214 39:-0.634414 40:0.013116 41:-0.605404 42:-0.722637 43:-0.727749 44:-0.207843 45:-0.734934 46:-0.561886 47:-0.334917 48:-0.752449 49:-0.861318 50:-0.776861 51:-0.639262 52:-0.242689 53:-0.356899 54:-0.392451 55:-0.520537 56:-0.608171 57:-0.218736 58:-0.852662 59:-0.446678 60:-0.601328 61:-0.706465 62:-0.591556 63:-0.921982 64:-0.436681 65:-0.775363 66:-0.755416 67:-0.781225 68:-0.548496 69:-0.888977 70:-0.922883 71:-0.657656 72:-0.924316 73:-0.0866556 74:-0.890477 75:-0.575195 76:-0.942242 77:-0.795995 78:-0.812702 79:-0.302498 80:-0.293256 81:-0.207057 82:-0.523031 83:-0.609729 84:-0.640861 85:-0.766206 86:-0.0665872 87:-0.727047 88:-0.672166 89:-0.541451 90:-0.794559 91:-0.669784 92:-0.859659 93:-0.321084 94:-0.696253 95:-0.590211 96:-0.551939 97:-0.73926 98:-0.70383 99:-0.72172 100:-0.786394 101:-0.42421 102:-0.238031 103:-0.584015 104:-0.580112 105:-0.837929 106:-0.374949 107:-0.716748 108:-0.355904 109:-0.266044 110:-0.794857 111:-0.472888 112:-0.340547 113:-0.325115 114:-0.472724 115:-0.884855 116:-0.807636 117:-0.347282 118:-0.722657 119:-0.455759 120:0.0172082 121:-0.575624 122:-0.779817 123:-0.463575 124:-0.888331 125:-0.805174 126:-0.710283 127:-0.594403 128:-0.405466 129:-0.609284 130:-0.393523 131:-0.488503 132:0.117948 133:0.743407 134:-0.837515 135:0.837525 136:0.743407 137:0.60096 138:-0.510157 139:0.129473 140:0.123591 141:0.44922 142:-0.107009 143:-1 144:-1 145:-1 146:-1 147:-1 148:-1 149:-0.75 150:-0.555556 151:-0.6 152:0.307922 153:-0.900611 154:-0.6 155:-0.8 156:-1 157:-1 158:-1 159:-1 160:-1 161:-1 162:-1 163:-1 164:-1 165:-1 166:-1 167:-1 168:-1 169:-1 170:-1 171:-1 172:-1 173:-1 176:-1 177:-1 178:-1 179:-1 180:-1 181:-1 182:-0.75 183:-0.555554 184:-0.6 
