svm_type one_against_all
kernel_type rbf
trainOnlyClass -1
gamma 0.1
nr_class 2
nr_hyp 2
total_sv 436
rho -0.393792 0.393792
omegaNorm 25.9925 25.9925
avgDistP 0.0557654 0.0440005
avgDistN 0.0440005 0.0557654
avgFP 1.44948 1.14368
avgFN 1.14368 1.44948
label 2 1
nr_sv 266 170
SV
0.2333899257585373 -0.2333899257585373 1:-0.193405 2:0.12762 3:-0.180621 4:-0.17923 5:-0.680326 6:0.00768871 7:0.10236 8:-0.0883874 9:0.070176 10:-0.157895 11:-0.0588235 12:-0.125 13:-0.125 14:-0.5 15:-0.8 16:-0.714286 17:-1 18:-1 19:-1 30:-0.761657 31:-0.287688 32:-0.450024 33:-0.674551 34:-0.899891 35:-0.468109 36:-0.73994 37:-0.813656 38:-0.457465 39:-0.859589 40:-0.874068 41:-0.690043 42:-0.732017 43:-0.700976 44:-0.727554 45:-0.0625586 46:-0.856486 47:-0.591687 48:-0.713177 49:-0.479403 50:-0.638352 51:-0.730903 52:-0.926179 53:-0.909905 54:-0.927064 55:-0.288742 56:-0.569084 57:-0.893559 58:-0.700518 59:-0.899546 60:-0.365635 61:-0.804019 62:-0.768822 63:-0.844685 64:-0.815083 65:-0.847748 66:-0.773972 67:-0.711605 68:-0.756861 69:-0.763486 70:-0.810112 71:-0.820404 72:-0.868326 73:-0.870024 74:-0.794645 75:-0.78429 76:-0.807902 77:-0.534257 78:-0.860677 79:-0.830331 80:-0.839039 81:-0.545361 82:-0.723146 83:-0.85471 84:-0.76044 85:-0.955864 86:-0.767681 87:-0.743814 88:-0.827971 89:-0.428407 90:-0.611918 91:-0.7631 92:-0.724203 93:-0.916512 94:-0.410309 95:-0.695336 96:-0.634126 97:-0.749344 98:-0.863765 99:-0.665683 100:-0.862183 101:-0.607296 102:-0.532371 103:-0.796014 104:-0.766999 105:-0.461367 106:-0.742919 107:-0.789296 108:-0.618307 109:-0.819265 110:-0.905064 111:-0.935069 112:-0.558306 113:-0.696678 114:-0.705542 115:-0.680041 116:-0.710982 117:-0.836691 118:-0.642311 119:-0.739744 120:-0.786052 121:-0.60975 122:-0.92292 123:-0.827657 124:-0.838925 125:-0.758651 126:-0.488814 127:-0.849894 128:-0.653786 129:-0.267524 130:0.681844 131:0.560578 132:-0.740949 133:0.740958 134:0.560578 135:-0.133022 136:0.401018 137:-0.285379 138:0.0293545 139:-0.0213698 140:0.220146 141:-1 142:-0.2 143:-0.25 144:0.111111 145:-0.166667 148:-0.157895 149:-0.2 150:0.256881 151:-0.628535 152:-0.96352 153:-0.157896 154:-0.058824 155:-0.125001 156:-0.125001 157:-0.500002 158:-0.8 159:-0.714285 160:-1 161:-1 162:-1 173:-1 174:-0.199999 175:-0.25 176:0.11111 177:-0.166669 180:-0.157896 181:-0.200001 182:0.256884 
0.6056879002519275 -0.6056879002519275 1:0.541053 2:1 3:-0.391801 4:0.57041 5:0.106169 6:-0.192362 7:-0.0198531 8:-0.233503 9:-0.0790888 10:0.263158 11:0.294118 12:0.125 14:0.166667 16:0.428571 17:1 18:1 19:1 30:0.646192 31:1 32:0.299571 33:1 34:0.788959 35:0.628995 36:-0.615918 37:0.570176 38:0.779213 39:1 40:0.45724 41:1 42:0.58158 43:-0.416134 44:0.411069 45:0.680574 46:-0.115203 47:-0.613975 48:-0.32948 49:-0.0120158 50:0.167514 51:0.970542 52:0.704991 53:1 54:-0.73481 55:0.654384 56:-0.242588 57:0.548531 58:0.480454 59:1 60:1 61:0.704671 62:0.101289 63:0.534794 64:-0.365195 65:-0.629679 66:-0.386326 67:0.467843 68:-0.12197 69:1 70:0.523858 71:-0.423636 72:-0.492856 73:0.382964 74:0.469207 75:-0.790257 76:-0.390815 77:0.851705 78:1 79:0.115005 80:-0.133847 81:0.0984994 82:-0.673178 83:-0.146445 84:-0.241349 85:0.0380444 86:-0.606626 87:0.82077 88:1 89:0.283438 90:-0.75901 91:-0.100118 92:-0.406917 93:-0.259604 94:-0.659304 95:-0.0806636 96:0.581562 97:0.141747 98:0.892304 99:-0.580857 100:0.350905 101:0.310064 102:-0.774592 103:-0.758471 104:-0.187582 105:1 106:1 107:-0.41196 108:0.880128 109:0.831619 110:-0.65545 111:0.463373 112:0.933673 113:-0.360925 114:0.847366 115:-0.0447724 116:0.179492 117:-0.611191 118:-0.0338131 119:-0.515758 120:-0.136063 121:0.372401 122:0.547361 123:0.0356227 124:1 125:-0.299017 126:-0.611356 127:-0.545109 128:-0.800519 129:-0.569472 130:-0.665746 131:-0.537628 132:0.274649 133:-0.274651 134:-0.537628 135:-0.961768 136:1 137:-0.427796 138:-0.102791 139:-0.262708 140:-0.108871 141:1 142:1 143:1 144:1 145:0.5 146:0.428571 147:0.5 148:0.263158 149:0.3 150:0.293578 151:-0.988213 152:-0.947871 153:0.26316 154:0.29412 155:0.125001 157:0.166662 158:-1.36e-06 159:0.428574 160:1 161:1 162:1 173:1 174:1 175:1 176:1 177:0.499997 178:0.428576 179:0.500004 180:0.26316 181:0.299995 182:0.293579 
0.09686423306236082 -0.09686423306236082 1:-0.280557 2:0.101082 3:-0.361825 4:-0.191742 5:-0.538186 6:-0.14014 7:-0.0787375 8:-0.236072 9:-0.129554 10:-0.263158 11:-0.176471 12:-0.25 13:-0.375 14:-0.333333 15:-0.8 16:-0.714286 17:-1 18:-1 19:-1 30:0.28686 31:-0.786725 32:-0.135356 33:-0.360209 34:0.0690016 35:-0.827822 36:-0.723927 37:-0.580438 38:-0.694629 39:-0.747297 40:-0.783414 41:-0.424313 42:-0.41462 43:-0.635635 44:-0.411298 45:-0.156116 46:0.0435175 47:-0.793061 48:-0.662387 49:-0.823038 50:-0.43751 51:-0.450557 52:-0.59457 53:-0.652452 54:-0.297368 55:-0.645142 56:-0.463591 57:-0.589025 58:-0.577873 59:-0.908579 60:-0.174788 61:-0.825928 62:-0.535573 63:-0.10247 64:-0.646806 65:-0.842407 66:-0.79231 67:-0.875444 68:-0.596217 69:-0.885276 70:-0.519016 71:-0.657033 72:-0.820819 73:-0.485732 74:-0.467363 75:-0.512802 76:0.0763649 77:-0.911109 78:-0.745269 79:-0.826939 80:-0.833285 81:-0.474125 82:-0.733992 83:-0.801013 84:-0.780316 85:-0.864386 86:-0.665613 87:-0.556464 88:-0.655286 89:-0.60701 90:-0.413979 91:-0.825815 92:-0.677466 93:-0.42587 94:-0.369086 95:-0.835856 96:-0.631569 97:-0.694609 98:-0.294912 99:-0.79597 100:-0.663664 101:-0.710457 102:-0.716794 103:-0.441603 104:-0.743365 105:-0.701846 106:-0.895686 107:-0.778181 108:-0.467895 109:-0.506487 110:-0.52488 111:-0.886514 112:-0.522257 113:-0.48324 114:-0.606084 115:-0.615156 116:-0.569698 117:-0.502847 118:-0.675354 119:-0.859299 120:-0.566788 121:-0.590722 122:-0.292486 123:-0.851315 124:-0.74281 125:-0.611745 126:-0.760355 127:-0.183585 128:-0.423536 129:-0.388368 130:-0.34116 131:-0.298927 132:-0.0105801 133:0.0105829 134:-0.298927 135:-0.0659001 136:0.391443 137:-0.390614 138:-0.166466 139:-0.149459 140:-0.042167 141:-1 142:-0.2 144:0.111111 145:-0.166667 146:-0.142857 147:-0.125 148:-0.263158 149:-0.2 150:0.330275 151:-0.710719 152:-0.953449 153:-0.26316 154:-0.176472 155:-0.25 156:-0.375 157:-0.333335 158:-0.8 159:-0.714285 160:-1 161:-1 162:-1 173:-1 174:-0.199999 176:0.11111 177:-0.166669 178:-0.142856 179:-0.125001 180:-0.26316 181:-0.200001 182:0.330274 
0.6601280715365997 -0.6601280715365997 1:0.0347566 2:0.343122 3:-0.312626 4:0.106633 5:-0.368316 6:-0.108801 7:0.00214176 8:-0.181028 9:0.00608155 10:0.157895 11:0.176471 13:-0.125 14:-0.333333 15:-0.6 16:-0.428571 17:-0.5 18:-1 19:-1 30:0.293611 31:0.0736591 32:-0.394359 33:0.100367 34:-0.583984 35:0.0402666 36:-0.245307 37:-0.423909 38:0.12932 39:-0.302148 40:-0.404939 41:-0.226712 42:-0.588287 43:-0.76306 44:-0.622583 45:-0.892681 46:0.687861 47:-0.264977 48:-0.556729 49:-0.921078 50:0.226151 51:0.0807127 52:-0.489812 53:-0.65236 54:-0.715454 55:-0.244372 56:-0.204284 57:0.373559 58:-0.751163 59:-0.849565 60:-0.351024 61:0.0877202 62:-0.594773 63:-0.369797 64:-0.834806 65:-0.655819 66:0.348646 67:-0.997348 68:-0.718718 69:-0.767642 70:-0.626115 71:-0.366703 72:-0.00894889 73:-0.294116 74:-0.606982 75:-0.618377 76:-0.471553 77:-0.515818 78:-0.474657 79:-0.529724 80:-0.517105 81:-0.359549 82:-0.657737 83:-0.71838 84:-0.432414 85:-0.332896 86:-0.659994 87:-0.49253 88:-0.061298 89:-0.323512 90:-0.306894 91:-0.352167 92:-0.861482 93:-0.453839 94:-0.0273956 95:-0.850342 96:-0.188434 97:-0.389165 98:-0.836864 99:-0.433072 100:-0.915078 101:-0.362736 102:-0.497154 103:-0.00278548 104:-0.742067 105:-0.470231 106:-0.621817 107:-0.792218 108:-0.661884 109:-0.291617 110:-0.482034 111:-0.545567 112:-0.379577 113:-0.316948 114:-0.57943 115:-0.66943 116:-0.642421 117:-0.529806 118:-0.213464 119:-0.93499 120:-0.818692 121:-0.403822 122:-0.955798 123:-0.410154 124:-0.219542 125:-0.853612 126:-0.606564 127:-0.834356 128:-0.709709 129:-0.381376 130:-0.291854 131:-0.254164 132:-0.0590064 133:0.0589982 134:-0.254164 135:-0.444341 136:0.557613 137:-0.368303 138:-0.0790043 139:-0.169078 140:0.0575169 141:-1 142:-0.6 144:0.111111 145:0.166667 146:0.285714 147:0.375 148:0.157895 149:0.1 150:0.266055 151:-0.857345 152:-0.949227 153:0.157896 154:0.176472 156:-0.125001 157:-0.333335 158:-0.6 159:-0.42857 160:-0.499999 161:-1 162:-1 173:-1 174:-0.599999 176:0.11111 177:0.166662 178:0.285717 179:0.375003 180:0.157896 181:0.100001 182:0.266055 
0.6059887532735765 -0.6059887532735765 1:0.491163 2:0.832155 3:-0.264871 4:0.534835 5:-0.126228 6:-0.0521268 7:0.0339847 8:-0.147764 9:0.0398816 10:0.473684 11:0.529412 12:0.125 13:0.125 15:-0.2 16:0.142857 17:0.5 18:0.5 19:0.5 30:0.190024 31:-0.412205 32:1 33:0.0681151 34:-0.353737 35:-0.104708 36:0.0377915 37:-0.0787763 38:-0.393071 39:0.0620857 40:1 41:-0.0383119 42:-0.516062 43:1 44:1 45:0.233293 46:0.899126 47:0.436855 48:0.694648 49:0.116161 50:-0.686637 51:1 52:-0.902656 53:-0.537795 54:0.460928 55:-0.637715 56:0.766141 57:0.327987 58:-0.0438446 59:0.544413 60:0.107645 61:1 62:-0.876346 63:0.499449 64:-0.301949 65:-0.716122 66:-0.0643835 67:-0.354374 68:-0.194972 69:0.348624 70:-0.334087 71:-0.350199 72:-0.687042 73:0.213192 74:0.69324 75:-0.273372 76:1 77:0.941123 78:0.498263 79:-0.564099 80:-0.774294 81:0.650427 82:0.147393 83:-0.0790944 84:-0.294008 85:0.408402 86:0.681422 87:0.49822 88:-0.858627 89:0.681899 90:-0.562758 91:-0.413231 92:-0.496772 93:-0.209149 94:0.400662 95:0.866853 96:-0.281592 97:-0.521756 98:-0.609705 99:-0.223745 100:-0.313883 101:-0.237481 102:-0.200176 103:-0.382353 104:1 105:0.518496 106:-0.428125 107:-0.550319 108:-0.0686784 109:-0.719604 110:-0.0135584 111:0.0485482 112:0.671131 113:1 114:-0.493063 115:-0.575017 116:-0.563441 117:-0.69304 118:-0.555888 119:-0.139878 120:1 121:-0.139583 122:0.606467 123:0.427582 124:0.188967 125:-0.0654416 126:0.514975 127:0.479231 128:0.443396 129:-0.559632 130:-0.14212 131:0.083109 132:-0.381848 133:0.381852 134:0.083109 135:-0.873374 136:0.855244 137:-0.327959 138:-0.0445777 139:-0.110876 140:0.136757 141:0.5 142:0.6 143:0.5 144:0.555556 145:0.166667 146:0.571429 147:0.75 148:0.473684 149:0.4 150:0.211009 151:-0.96018 152:-0.954944 153:0.47368 154:0.529408 155:0.125001 156:0.125001 157:-2.26666e-06 158:-0.200001 159:0.142859 160:0.499999 161:0.499999 162:0.499999 173:0.499999 174:0.599999 175:0.500001 176:0.555552 177:0.166662 178:0.571434 179:0.749998 180:0.47368 181:0.399996 182:0.211012 
0.9729624925712106 -0.9729624925712106 1:-0.170604 2:0.0675277 3:-0.184894 4:-0.0851911 5:-0.618087 6:0.0331528 7:0.0395319 8:-0.106697 9:0.0368824 10:0.0526316 11:-0.176471 12:-0.25 13:-0.375 14:-0.666667 15:-0.8 16:-0.714286 17:-1 18:-1 19:-1 30:-0.597462 31:0.0127416 32:-0.531989 33:-0.534007 34:-0.708161 35:-0.830488 36:-0.596334 37:-0.378636 38:-0.794678 39:-0.452048 40:-0.780809 41:-0.699088 42:-0.513806 43:-0.811305 44:-0.314087 45:0.255739 46:-0.447661 47:0.177507 48:-0.268357 49:-0.84758 50:-0.591284 51:-0.651447 52:-0.554155 53:-0.410369 54:-0.683433 55:-0.842972 56:-0.466954 57:-0.696104 58:-0.222663 59:-0.800236 60:-0.588415 61:-0.474936 62:-0.666735 63:-0.436599 64:-0.811329 65:-0.820645 66:-0.244508 67:-0.709253 68:-0.772297 69:-0.817789 70:-0.785058 71:-0.72653 72:-0.420585 73:-0.437632 74:-0.504128 75:-0.514687 76:-0.598707 77:-0.585679 78:-0.833791 79:-0.76811 80:-0.929821 81:-0.588394 82:-0.607779 83:-0.782821 84:-0.804602 85:-0.754883 86:-0.868016 87:-0.501267 88:-0.85963 89:-0.697218 90:-0.520401 91:-0.54086 92:-0.626068 93:-0.593232 94:-0.40459 95:-0.796147 96:-0.773805 97:-0.587872 98:-0.606388 99:-0.601115 100:-0.412303 101:-0.0375991 102:-0.604562 103:-0.589339 104:-0.291446 105:-0.678563 106:-0.63473 107:-0.925905 108:-0.603397 109:-0.789731 110:-0.379659 111:-0.75271 112:-0.51695 113:-0.864681 114:-0.74885 115:-0.660743 116:-0.354369 117:-0.782246 118:-0.351808 119:-0.721993 120:-0.746775 121:-0.419682 122:-0.497749 123:-0.497853 124:-0.79434 125:-0.980174 126:-0.752679 127:-0.46238 128:-0.910368 129:-0.261972 130:0.365384 131:0.264567 132:-0.529858 133:0.529851 134:0.264567 135:-0.190083 136:0.243008 137:-0.267248 138:-0.0385832 139:-0.0579931 140:0.15132 141:-1 142:-0.2 143:-0.5 144:-0.333333 145:-0.5 146:-0.285714 147:0.125 148:0.0526316 149:0.1 150:0.66055 151:-0.707759 152:-0.961006 153:0.052632 154:-0.176472 155:-0.25 156:-0.375 157:-0.666667 158:-0.8 159:-0.714285 160:-1 161:-1 162:-1 173:-1 174:-0.199999 175:-0.499999 176:-0.333334 177:-0.500002 178:-0.285713 179:0.125001 180:0.052632 181:0.100001 182:0.660549 
0.05035430447010401 -0.05035430447010401 1:-0.161469 2:0.107798 3:-0.0877665 4:-0.055803 5:-0.667265 6:0.173666 7:-0.0164307 8:-0.0523652 9:0.0211564 10:-0.0526316 11:0.0588235 13:-0.5 14:-0.666667 15:-0.8 16:-0.714286 17:-1 18:-1 19:-1 30:-0.159316 31:-0.658365 32:-0.74361 33:-0.707621 34:-0.529415 35:-0.568193 36:-0.418005 37:-0.233776 38:-0.550922 39:-0.694267 40:-0.733523 41:-0.988052 42:-0.966792 43:-0.793465 44:-0.315466 45:-0.556463 46:-0.680034 47:-0.691931 48:-0.454174 49:-0.545528 50:-0.763422 51:-0.574615 52:-0.303627 53:-0.465426 54:-0.502611 55:-0.873032 56:-0.958238 57:-0.830842 58:-0.526808 59:-0.761897 60:-0.518689 61:-0.692322 62:-0.848537 63:-0.440256 64:-0.58729 65:-0.952333 66:-0.778944 67:-0.297942 68:-0.406251 69:-0.616569 70:-0.46862 71:-0.8607 72:-0.961531 73:-0.770419 74:-0.839527 75:-0.588003 76:-0.73533 77:-0.796065 78:-0.721807 79:-0.833481 80:-0.898591 81:-0.864287 82:-0.847972 83:-0.320263 84:-0.604957 85:-0.318766 86:-0.738677 87:-0.757275 88:-0.72226 89:-0.772424 90:-0.582081 91:-0.82695 92:-0.794273 93:-0.693254 94:-0.637229 95:-0.941388 96:-0.750849 97:-0.603111 98:-0.700808 99:-0.882962 100:-0.422629 101:-0.0713742 102:-0.688006 103:-0.332245 104:-0.743582 105:-0.550192 106:-0.860771 107:-0.688092 108:-0.71576 109:-0.900234 110:-0.861077 111:-0.670552 112:-0.63957 113:-0.653998 114:-0.846589 115:-0.88132 116:-0.400155 117:-0.705487 118:-0.169063 119:-0.382914 120:-0.734433 121:-0.558221 122:-0.403062 123:-0.849426 124:-0.770646 125:-0.836639 126:-0.76963 127:-0.910114 128:-0.832054 129:-0.00980957 130:0.149888 131:-0.127908 132:-0.188054 133:0.188049 134:-0.127908 135:0.230902 136:-0.0671213 137:-0.167213 138:-0.0990912 139:-0.0408493 140:0.0929086 141:-1 142:-1 143:-1 144:-0.777778 145:-0.833333 146:-0.571429 147:0.125 148:-0.0526316 149:-0.1 150:0.376147 151:-0.688716 152:-0.959445 153:-0.052632 154:0.058824 156:-0.5 157:-0.666667 158:-0.8 159:-0.714285 160:-1 161:-1 162:-1 173:-1 174:-1 175:-1 176:-0.777778 177:-0.833334 178:-0.571428 179:0.125001 180:-0.052632 181:-0.100001 182:0.376146 
0.1537843342960878 -0.1537843342960878 1:-0.314638 2:0.00961852 3:-0.0964005 4:-0.201672 5:-0.746005 6:0.167929 7:-0.029221 8:-0.0610559 9:0.00587268 10:-0.263158 11:-0.176471 12:-0.25 13:-0.625 14:-0.666667 15:-0.8 16:-0.714286 17:-1 18:-1 19:-1 30:-0.406148 31:-0.927214 32:-0.657131 33:-0.651236 34:-0.741236 35:-0.466691 36:-0.647893 37:-0.631861 38:-0.71718 39:-0.939095 40:-0.976283 41:-0.768269 42:-0.595043 43:-0.837604 44:-0.670671 45:-0.755027 46:-0.381418 47:-0.745694 48:-0.674199 49:-0.406122 50:-0.475632 51:-0.721882 52:-0.97795 53:-0.947425 54:-0.689037 55:-0.680528 56:-0.603811 57:-0.754662 58:-0.902951 59:-0.725001 60:-0.641229 61:-0.810734 62:-0.550434 63:-0.554851 64:-0.692163 65:-0.713196 66:-0.930536 67:-0.792333 68:-0.922973 69:-0.816202 70:-0.829021 71:-0.80959 72:-0.912451 73:-0.74463 74:-0.941372 75:-0.883839 76:-0.295683 77:-0.777609 78:-0.425875 79:-0.868178 80:-0.866022 81:-0.661812 82:-0.752954 83:-0.918166 84:-0.818773 85:-0.742274 86:-0.89933 87:-0.868356 88:-0.753336 89:-0.692463 90:-0.870019 91:-0.615229 92:-0.748734 93:-0.850898 94:-0.497599 95:-0.561003 96:-0.884608 97:-0.756352 98:-0.788931 99:-0.925754 100:-0.904304 101:-0.541477 102:-0.853707 103:-0.924951 104:-0.898687 105:-0.615814 106:-0.929021 107:-0.661626 108:-0.310279 109:-0.723287 110:-0.436257 111:-0.884602 112:-0.751916 113:-0.739883 114:-0.831081 115:-0.86097 116:-0.694463 117:-0.790569 118:-0.760865 119:-0.753112 120:-0.605616 121:-0.415907 122:-0.562328 123:-0.509701 124:-0.75802 125:-0.650633 126:-0.879578 127:-0.90187 128:-0.968941 129:-0.0199018 130:0.384318 131:0.057842 132:-0.359956 133:0.359952 134:0.057842 135:0.366008 136:-0.147414 137:-0.171299 138:-0.112924 139:-0.0475033 140:0.0740774 141:-1 142:-1 143:-1 144:-0.777778 145:-0.833333 146:-0.571429 147:-0.125 148:-0.263158 149:-0.3 150:0.651376 151:-0.562258 152:-0.959077 153:-0.26316 154:-0.176472 155:-0.25 156:-0.625 157:-0.666667 158:-0.8 159:-0.714285 160:-1 161:-1 162:-1 173:-1 174:-1 175:-1 176:-0.777778 177:-0.833334 178:-0.571428 179:-0.125001 180:-0.26316 181:-0.300002 182:0.651378 
0.9920172969807678 -0.9920172969807678 1:0.113009 2:0.407162 3:0.0363932 4:0.214274 5:-0.599148 6:0.279393 7:0.0698527 8:-0.026003 9:0.123416 10:0.0526316 11:0.176471 12:0.25 14:-0.333333 15:-0.4 16:-0.428571 17:-1 18:-1 19:-1 30:-0.0934988 31:-0.559814 32:-0.915892 33:-0.629557 34:-0.650806 35:0.0318379 36:-0.810434 37:-0.153216 38:0.0596485 39:-0.739323 40:-0.665133 41:-0.290966 42:-0.53955 43:-0.870085 44:-0.782328 45:-0.705462 46:-0.771045 47:-0.118869 48:-0.848726 49:-0.881602 50:-0.357756 51:-0.366537 52:-0.664125 53:-0.377375 54:-0.534569 55:-0.210921 56:-0.769173 57:-0.407694 58:-0.619761 59:-0.396231 60:-0.344185 61:-0.650835 62:-0.349386 63:-0.503839 64:-0.870295 65:-0.910162 66:-0.594344 67:-0.0405621 68:-0.743429 69:-0.528592 70:-0.438085 71:-0.670793 72:-0.750556 73:-0.198358 74:-0.843483 75:-0.44063 76:0.424178 77:-0.674452 78:-0.513005 79:-0.689785 80:-0.429351 81:-0.814802 82:-0.671977 83:-0.538756 84:-0.877359 85:-0.0921201 86:-0.720365 87:-0.257359 88:-0.402723 89:-0.428982 90:-0.762273 91:-0.445366 92:-0.751291 93:-0.651929 94:-0.308422 95:-0.642158 96:-0.630979 97:-0.366621 98:0.0682622 99:-0.504255 100:-0.59749 101:-0.577296 102:-0.494113 103:-0.352373 104:-0.52303 105:-0.917226 106:-0.732134 107:-0.671731 108:-0.67018 109:-0.369968 110:-0.248648 111:-0.622493 112:-0.873972 113:-0.696884 114:-0.158956 115:-0.635949 116:-0.854145 117:-0.618601 118:-0.0303699 119:-0.119954 120:-0.801726 121:-0.445169 122:-0.517355 123:-0.623993 124:-0.618458 125:-0.272477 126:-0.583972 127:-0.807422 128:-0.90114 129:-0.0581239 130:0.51063 131:0.187339 132:-0.468776 133:0.468777 134:0.187339 135:0.0240747 136:0.151586 137:-0.0919487 138:-0.00578974 139:-0.223068 140:-0.0217933 141:-1 142:-1 143:-0.75 144:-0.555556 145:-0.333333 147:0.25 148:0.0526316 150:0.256881 151:-0.801421 152:-0.965379 153:0.052632 154:0.176472 155:0.250002 157:-0.333335 158:-0.400001 159:-0.42857 160:-1 161:-1 162:-1 173:-1 174:-1 175:-0.75 176:-0.555555 177:-0.333335 179:0.250002 180:0.052632 182:0.256884 
0.9648871281018516 -0.9648871281018516 1:-0.00909524 2:0.340483 3:0.0142721 4:0.0507331 5:-0.670527 6:0.253148 7:0.0715486 8:-0.0953134 9:0.0660738 10:-0.157895 11:-0.0588235 13:-0.125 14:-0.333333 15:-0.4 16:-0.428571 17:-1 18:-1 19:-1 30:-0.207682 31:-0.612669 32:-0.975791 33:-0.437517 34:-0.484503 35:-0.569963 36:-0.552952 37:-0.540909 38:-0.762782 39:-0.837994 40:-0.603597 41:-0.52486 42:-0.94667 43:-0.753108 44:-0.484901 45:-0.472942 46:-0.529526 47:-0.837244 48:-0.00246572 49:-0.605636 50:-0.647186 51:-0.629586 52:-0.929415 53:-0.8933 54:-0.798261 55:-0.600707 56:-0.409573 57:-0.924324 58:-0.599509 59:-0.682631 60:-0.879918 61:-0.582224 62:-0.0732323 63:-0.640334 64:-0.507012 65:-0.613021 66:-0.84072 67:-0.702617 68:-0.615007 69:-0.794468 70:-0.494118 71:-0.780632 72:-0.93309 73:-0.456503 74:-0.335949 75:-0.64573 76:-0.276701 77:-0.612532 78:-0.247398 79:-0.458323 80:-0.902322 81:-0.360191 82:-0.742919 83:-0.636113 84:-0.706187 85:-0.691302 86:-0.813188 87:-0.774526 88:-0.645417 89:-0.11774 90:-0.180955 91:-0.298854 92:-0.712745 93:-0.639572 94:-0.585545 95:-0.782278 96:-0.630597 97:-0.868324 98:-0.574322 99:-0.752216 100:-0.774292 101:-0.618461 102:-0.672164 103:-0.462005 104:-0.373114 105:-0.217982 106:-0.916305 107:-0.372839 108:-0.710961 109:-0.864809 110:-0.737924 111:-0.463959 112:-0.575089 113:-0.428835 114:-0.583504 115:-0.873366 116:-0.947754 117:-0.721546 118:-0.660554 119:-0.446925 120:-0.495201 121:-0.143577 122:0.248057 123:-0.841859 124:-0.78646 125:-0.681726 126:-0.647536 127:-0.533886 128:-0.903696 129:0.0439658 130:0.392005 131:0.0159828 132:-0.32292 133:0.322925 134:0.0159828 135:0.0502336 136:0.114153 137:-0.11063 138:-0.0039586 139:-0.280606 140:-0.0916135 141:-1 142:-1 143:-0.75 144:-0.555556 145:-0.5 148:-0.0526316 149:-0.1 150:0.366972 151:-0.722625 152:-0.965244 153:-0.157896 154:-0.058824 156:-0.125001 157:-0.333335 158:-0.400001 159:-0.42857 160:-1 161:-1 162:-1 173:-1 174:-1 175:-0.75 176:-0.555555 177:-0.500002 180:-0.052632 181:-0.100001 182:0.366976 
1.094544696609053 -1.094544696609053 1:-0.178232 2:0.220501 3:-0.0656039 4:-0.105233 5:-0.708749 6:0.183247 7:0.0225123 8:-0.0467149 9:-0.00729649 10:-0.368421 11:-0.294118 12:-0.25 13:-0.375 14:-0.333333 15:-0.4 16:-0.428571 17:-0.5 18:-1 19:-1 30:-0.504745 31:-0.756115 32:-0.514637 33:-0.791039 34:-0.661313 35:-0.655099 36:-0.765688 37:-0.719028 38:-0.644028 39:-0.669585 40:-0.703158 41:-0.781808 42:-0.731398 43:-0.534823 44:-0.550317 45:-0.594359 46:-0.470363 47:-0.881456 48:-0.882849 49:-0.520524 50:-0.645655 51:-0.684302 52:-0.796005 53:-0.770666 54:-0.728548 55:-0.834479 56:-0.547628 57:-0.725651 58:-0.659345 59:-0.809295 60:-0.58105 61:-0.801114 62:-0.89288 63:-0.454297 64:-0.830273 65:-0.850142 66:-0.917786 67:-0.798852 68:-0.797056 69:-0.851205 70:-0.606326 71:-0.605902 72:-0.681719 73:-0.940453 74:-0.688062 75:-0.883601 76:-0.902795 77:-0.629739 78:-0.322679 79:-0.751203 80:-0.893743 81:-0.52812 82:-0.716393 83:-0.775453 84:-0.881449 85:-0.692249 86:-0.809027 87:-0.765583 88:-0.701499 89:-0.911886 90:-0.290194 91:-0.748685 92:-0.80777 93:-0.71904 94:-0.882042 95:-0.973264 96:-0.676862 97:-0.562663 98:-0.741086 99:-0.844985 100:-0.800594 101:-0.4509 102:-0.927901 103:-0.844539 104:-0.751352 105:-0.883716 106:-0.809985 107:-0.398035 108:-0.694847 109:-0.643765 110:-0.746203 111:-0.89408 112:-0.911546 113:-0.799109 114:-0.648895 115:-0.879771 116:-0.574692 117:-0.78841 118:-0.826586 119:-0.653866 120:-0.643946 121:-0.630048 122:-0.820922 123:-0.656067 124:-0.737515 125:-0.754127 126:-0.801063 127:-0.682355 128:-0.507385 129:0.160929 130:0.387268 131:-0.0652228 132:-0.248315 133:0.24831 134:-0.0652228 135:0.13489 136:0.00299689 137:-0.160393 138:-0.0569812 139:-0.236947 140:-0.166625 141:-1 142:-1 143:-0.75 144:-0.555556 145:-0.5 146:-0.285714 147:-0.25 148:-0.368421 149:-0.3 150:0.642202 151:-0.640197 152:-0.963134 153:-0.368422 154:-0.294118 155:-0.25 156:-0.375 157:-0.333335 158:-0.400001 159:-0.42857 160:-0.499999 161:-1 162:-1 173:-1 174:-1 175:-0.75 176:-0.555555 177:-0.500002 178:-0.285713 179:-0.25 180:-0.368422 181:-0.300002 182:0.642201 
1.151514821439957 -1.151514821439957 1:-0.500933 2:-0.290708 3:-0.335612 4:-0.429202 5:-0.741667 6:-0.0648849 7:-0.182152 8:-0.175452 9:-0.521135 10:-0.368421 11:-0.411765 12:-0.375 13:-0.875 14:-1 15:-1 16:-1 17:-1 18:-1 19:-1 30:-0.450921 31:-0.817074 32:-0.730971 33:-0.745873 34:-0.387298 35:-0.640814 36:-0.819834 37:-0.925672 38:-0.695533 39:-0.95518 40:-0.787579 41:-0.967321 42:-0.845301 43:-0.848 44:-0.513517 45:-0.21873 46:-0.736879 47:-0.638087 48:-0.86106 49:-0.778709 50:-0.637169 51:-0.854586 52:-0.93185 53:-0.870813 54:-0.586099 55:-0.816045 56:-0.570737 57:-0.67625 58:-0.589549 59:-0.742742 60:-0.690898 61:-0.777937 62:-0.810698 63:-0.743593 64:-0.81316 65:-0.907791 66:-0.49012 67:-0.836555 68:-0.636604 69:-0.784108 70:-0.62881 71:-0.939274 72:-0.847488 73:-0.813223 74:-0.738799 75:-0.591764 76:-0.833433 77:-0.664825 78:-0.39399 79:-0.915527 80:-0.872174 81:-0.782609 82:-0.835519 83:-0.830861 84:-0.766479 85:-0.650411 86:-0.827386 87:-0.745746 88:-0.732179 89:-0.679881 90:-0.467215 91:-0.897989 92:-0.881865 93:-0.97165 94:-0.493881 95:-0.860137 96:-0.68405 97:-0.95862 98:-0.968022 99:-0.784448 100:-0.945632 101:-0.648587 102:-0.72843 103:-0.884709 104:-0.748303 105:-0.842893 106:-0.709741 107:-0.787291 108:-0.744339 109:-0.706406 110:-0.545904 111:-0.723213 112:-0.612499 113:-0.879334 114:-0.77051 115:-0.758857 116:-0.818233 117:-0.805568 118:-0.678938 119:-0.969135 120:-0.76097 121:-0.938864 122:-0.755775 123:-0.989729 124:-0.910215 125:-0.821239 126:-0.61882 127:-0.743801 128:-0.608175 129:-0.129509 130:-0.151569 131:-0.292455 132:-0.0176631 133:0.0176747 134:-0.292455 135:0.376069 136:-0.285831 137:-0.337045 138:-0.278289 139:-0.0348529 140:-0.542685 141:-1 142:-1 143:-1 144:-1 145:-0.833333 146:-0.714286 147:-0.25 148:-0.368421 149:-0.4 150:0.559633 151:-0.408675 152:-0.978462 153:-0.368422 154:-0.411765 155:-0.375 156:-0.875 157:-1 158:-1 159:-1 160:-1 161:-1 162:-1 173:-1 174:-1 175:-1 176:-1 177:-0.833334 178:-0.714285 179:-0.25 180:-0.368422 181:-0.400001 182:0.559634 
0.01758294444938876 -0.01758294444938876 1:-0.675789 2:-0.459391 3:-0.372631 4:-0.568307 5:-0.822195 6:-0.158514 7:-0.0836616 8:-0.076565 9:-0.24684 10:-0.578947 11:-0.647059 12:-0.75 13:-0.875 14:-1 15:-1 16:-1 17:-1 18:-1 19:-1 30:-0.794372 31:-0.775602 32:-0.916607 33:-0.605192 34:-0.929512 35:-0.983181 36:-0.898908 37:-0.805286 38:-0.780045 39:-0.788533 40:-0.958355 41:-0.537245 42:-0.927679 43:-0.971292 44:-0.773576 45:-0.56215 46:-0.877347 47:-0.795534 48:-0.944724 49:-0.641428 50:-0.883842 51:-0.872567 52:-0.972815 53:-0.705402 54:-0.863258 55:-0.861474 56:-0.875803 57:-0.738831 58:-0.824491 59:-0.898602 60:-0.792245 61:-0.75091 62:-0.835522 63:-0.788632 64:-0.963272 65:-0.912957 66:-0.876925 67:-0.763979 68:-0.904369 69:-0.908869 70:-0.863339 71:-0.865769 72:-0.96575 73:-0.793422 74:-0.970975 75:-0.548998 76:-0.668318 77:-0.928706 78:-0.723188 79:-0.925112 80:-0.983597 81:-0.762818 82:-0.845995 83:-0.66832 84:-0.866772 85:-0.958764 86:-0.933895 87:-0.814282 88:-0.820308 89:-0.835758 90:-0.780905 91:-0.855959 92:-0.926346 93:-0.845849 94:-0.89763 95:-0.819287 96:-0.760822 97:-0.831621 98:-0.870677 99:-0.883728 100:-0.923619 101:-0.778476 102:-0.883608 103:-0.740584 104:-0.79696 105:-0.860408 106:-0.965001 107:-0.81336 108:-0.923911 109:-0.924312 110:-0.676 111:-0.814667 112:-0.690846 113:-0.876661 114:-0.824345 115:-0.661171 116:-0.963836 117:-0.896042 118:-0.750836 119:-0.892044 120:-0.521027 121:-0.865212 122:-0.867562 123:-0.920637 124:-0.825498 125:-0.870451 126:-0.729121 127:-0.812911 128:-0.850765 129:-0.0273064 130:-0.240287 131:-0.416166 132:0.123486 133:-0.123488 134:-0.416166 135:0.527273 136:-0.431906 137:-0.4037 138:-0.171786 139:0.137554 140:-0.0809569 141:-1 142:-1 143:-1 144:-1 145:-1 146:-0.714286 147:-0.5 148:-0.578947 149:-0.5 150:0.577982 151:-0.124221 152:-0.96303 153:-0.578948 154:-0.647059 155:-0.75 156:-0.875 157:-1 158:-1 159:-1 160:-1 161:-1 162:-1 173:-1 174:-1 175:-1 176:-1 177:-1 178:-0.714285 179:-0.5 180:-0.578948 181:-0.500001 182:0.577982 
2.324398727646322 -2.324398727646322 1:-0.649255 2:-0.412431 3:-0.478426 4:-0.586966 5:-0.757504 6:-0.319344 7:-0.0680415 8:0.0731575 9:-0.0861177 10:-0.578947 11:-0.529412 12:-0.625 13:-0.875 14:-1 15:-1 16:-1 17:-1 18:-1 19:-1 30:-0.79269 31:-0.730533 32:-0.774684 33:-0.668899 34:-0.865136 35:-0.963399 36:-0.814706 37:-0.905043 38:-0.734689 39:-0.838129 40:-0.762314 41:-0.734223 42:-0.955364 43:-0.907408 44:-0.78029 45:-0.849054 46:-0.828005 47:-0.872032 48:-0.821575 49:-0.800968 50:-0.835237 51:-0.902437 52:-0.810426 53:-0.90973 54:-0.809359 55:-0.721897 56:-0.832431 57:-0.89899 58:-0.929001 59:-0.87112 60:-0.733936 61:-0.810474 62:-0.711937 63:-0.896972 64:-0.809592 65:-0.893254 66:-0.84418 67:-0.796684 68:-0.845127 69:-0.853395 70:-0.860199 71:-0.811996 72:-0.92437 73:-0.78903 74:-0.675378 75:-0.790265 76:-0.804956 77:-0.849949 78:-0.902083 79:-0.87968 80:-0.81783 81:-0.793601 82:-0.891178 83:-0.89206 84:-0.812599 85:-0.890861 86:-0.881258 87:-0.929514 88:-0.841943 89:-0.775727 90:-0.751096 91:-0.987396 92:-0.99423 93:-0.712652 94:-0.899677 95:-0.7114 96:-0.710088 97:-0.936645 98:-0.754078 99:-0.948149 100:-0.731141 101:-0.809826 102:-0.907568 103:-0.831668 104:-0.811993 105:-0.768353 106:-0.950904 107:-0.814134 108:-0.751625 109:-0.982394 110:-0.945129 111:-0.911849 112:-0.778132 113:-0.748476 114:-0.725713 115:-0.95924 116:-0.968 117:-0.923171 118:-0.935555 119:-0.768932 120:-0.86083 121:-0.692912 122:-0.616799 123:-0.868196 124:-0.84819 125:-0.746524 126:-0.608961 127:-0.970345 128:-0.839856 129:0.0533567 130:-0.485831 131:-0.630301 132:0.399456 133:-0.399445 134:-0.630301 135:0.471074 136:-0.33771 137:-0.518195 138:-0.154904 139:0.283269 140:0.153685 141:-1 142:-1 143:-1 144:-1 145:-0.833333 146:-0.571429 147:-0.5 148:-0.578947 149:-0.5 150:0.33945 151:-0.209284 152:-0.942049 153:-0.578948 154:-0.529412 155:-0.625 156:-0.875 157:-1 158:-1 159:-1 160:-1 161:-1 162:-1 173:-1 174:-1 175:-1 176:-1 177:-0.833334 178:-0.571428 179:-0.5 180:-0.578948 181:-0.500001 182:0.339451 
12.55968966545811 -12.55968966545811 1:-0.648619 2:-0.192911 3:-0.621459 4:-0.597085 5:-0.611108 6:-0.465646 7:-0.223092 8:-0.0668552 9:-0.126235 10:-0.684211 11:-0.647059 12:-0.75 13:-0.75 14:-0.833333 15:-0.8 16:-0.714286 17:-0.5 18:-1 19:-1 30:-0.825704 31:-0.664502 32:-0.702914 33:-0.726417 34:-0.870655 35:-0.957529 36:-0.828863 37:-0.961987 38:-0.724518 39:-0.868593 40:-0.823862 41:-0.645622 42:-0.954404 43:-0.972895 44:-0.648958 45:-0.829904 46:-0.614253 47:-0.827836 48:-0.717926 49:-0.921979 50:-0.835762 51:-0.971372 52:-0.900042 53:-0.797419 54:-0.860971 55:-0.900036 56:-0.8259 57:-0.89592 58:-0.733721 59:-0.849804 60:-0.820243 61:-0.945448 62:-0.902421 63:-0.869794 64:-0.853539 65:-0.910144 66:-0.851468 67:-0.879619 68:-0.791068 69:-0.920968 70:-0.836502 71:-0.734941 72:-0.768152 73:-0.913577 74:-0.806966 75:-0.808391 76:-0.744074 77:-0.863152 78:-0.744378 79:-0.868216 80:-0.736961 81:-0.880354 82:-0.870159 83:-0.729482 84:-0.844542 85:-0.839226 86:-0.949916 87:-0.83089 88:-0.947601 89:-0.73779 90:-0.882447 91:-0.871621 92:-0.857927 93:-0.862623 94:-0.825548 95:-0.798898 96:-0.887032 97:-0.742987 98:-0.676771 99:-0.901243 100:-0.949607 101:-0.792379 102:-0.844815 103:-0.980383 104:-0.952 105:-0.856383 106:-0.96812 107:-0.91779 108:-0.831753 109:-0.946124 110:-0.709423 111:-0.914325 112:-0.901156 113:-0.584355 114:-0.821399 115:-0.804355 116:-0.903618 117:-0.906926 118:-0.723258 119:-0.726904 120:-0.834774 121:-0.706365 122:-0.914439 123:-0.900806 124:-0.977952 125:-0.729994 126:-0.775167 127:-0.897703 128:-0.948206 129:0.0544008 130:-0.624481 131:-0.731569 132:0.546356 133:-0.546352 134:-0.731569 135:0.535897 136:-0.289955 137:-0.622347 138:-0.322564 139:0.017803 140:-0.0292005 141:-1 142:-1 143:-0.75 144:-0.777778 145:-0.833333 146:-0.571429 147:-0.625 148:-0.684211 149:-0.7 150:0.229358 151:-0.380775 152:-0.899531 153:-0.684211 154:-0.647059 155:-0.75 156:-0.75 157:-0.833334 158:-0.8 159:-0.714285 160:-0.499999 161:-1 162:-1 173:-1 174:-1 175:-0.75 176:-0.777778 177:-0.833334 178:-0.571428 179:-0.625 180:-0.684211 181:-0.700001 182:0.22936 
2.561501259505307 -2.561501259505307 1:-0.855889 2:-0.700295 3:-0.798692 4:-0.802129 5:-0.598432 6:-0.627075 7:-0.612679 8:-0.619549 9:-0.294014 10:-0.789474 11:-0.764706 12:-0.875 13:-1 14:-1 15:-1 16:-1 17:-1 18:-1 19:-1 30:-0.664736 31:-0.455705 32:-0.826188 33:-0.877085 34:-0.944203 35:-0.794134 36:-0.865168 37:-0.844566 38:-0.857748 39:-0.787239 40:-0.926513 41:-0.814004 42:-0.857295 43:-0.865583 44:-0.662539 45:-0.931147 46:-0.848003 47:-0.860144 48:-0.931838 49:-0.865956 50:-0.711666 51:-0.96975 52:-0.868348 53:-0.881287 54:-0.973509 55:-0.768085 56:-0.837585 57:-0.710828 58:-0.788394 59:-0.912347 60:-0.845559 61:-0.893339 62:-0.873302 63:-0.520214 64:-0.996051 65:-0.857116 66:-0.900498 67:-0.898124 68:-0.900505 69:-0.944841 70:-0.899917 71:-0.812499 72:-0.847441 73:-0.712108 74:-0.757382 75:-0.790327 76:-0.692413 77:-0.964931 78:-0.898684 79:-0.909892 80:-0.9122 81:-0.758627 82:-0.877287 83:-0.86318 84:-0.805758 85:-0.723077 86:-0.951518 87:-0.81736 88:-0.911008 89:-0.72682 90:-0.725807 91:-0.82247 92:-0.943252 93:-0.823327 94:-0.881491 95:-0.870695 96:-0.957116 97:-0.758533 98:-0.887099 99:-0.920056 100:-0.753082 101:-0.824303 102:-0.896664 103:-0.744037 104:-0.913947 105:-0.736734 106:-0.830811 107:-0.627652 108:-0.618779 109:-0.649017 110:-0.805266 111:-0.872464 112:-0.939458 113:-0.638853 114:-0.686381 115:-0.654634 116:-0.922156 117:-0.865699 118:-0.950983 119:-0.946786 120:-0.85465 121:-0.919274 122:-0.890872 123:-0.937567 124:-0.785015 125:-0.825846 126:-0.960839 127:-0.775547 128:-0.722866 129:-0.534923 130:-0.613953 131:-0.497089 132:0.222714 133:-0.222712 134:-0.497089 135:0.674739 136:-0.508846 137:0.00324903 138:-0.227289 139:0.149248 140:0.600983 141:-1 142:-1 143:-1 144:-1 145:-0.833333 146:-0.714286 147:-0.75 148:-0.789474 149:-0.7 150:0.449541 151:-0.0425586 152:-0.9534 153:-0.789474 154:-0.764706 155:-0.875 156:-1 157:-1 158:-1 159:-1 160:-1 161:-1 162:-1 173:-1 174:-1 175:-1 176:-1 177:-0.833334 178:-0.714285 179:-0.75 180:-0.789474 181:-0.700001 182:0.449543 
1.651337709183425 -1.651337709183425 1:-0.86995 2:-0.72657 3:-0.833407 4:-0.81012 5:-0.531894 6:-0.66935 7:-0.696409 8:-0.690467 9:-0.402952 10:-0.789474 11:-0.764706 12:-1 13:-1 14:-1 15:-1 16:-1 17:-1 18:-1 19:-1 30:-0.663724 31:-0.511537 32:-0.766972 33:-0.868883 34:-0.954859 35:-0.73694 36:-0.805772 37:-0.9462 38:-0.858453 39:-0.906793 40:-0.909785 41:-0.856247 42:-0.791636 43:-0.873727 44:-0.802677 45:-0.70269 46:-0.861269 47:-0.822527 48:-0.77789 49:-0.697084 50:-0.846201 51:-0.993633 52:-0.861728 53:-0.939063 54:-0.852274 55:-0.890733 56:-0.917214 57:-0.823762 58:-0.622387 59:-0.964428 60:-0.76991 61:-0.861314 62:-0.777521 63:-0.669979 64:-0.979398 65:-0.86831 66:-0.852209 67:-0.85026 68:-0.842923 69:-0.940309 70:-0.873949 71:-0.923218 72:-0.902153 73:-0.645577 74:-0.708813 75:-0.809274 76:-0.722776 77:-0.826011 78:-0.88783 79:-0.834264 80:-0.892361 81:-0.77605 82:-0.889627 83:-0.82385 84:-0.933647 85:-0.849516 86:-0.801759 87:-0.940816 88:-0.97896 89:-0.771333 90:-0.922984 91:-0.941504 92:-0.798835 93:-0.858809 94:-0.805091 95:-0.811945 96:-0.616929 97:-0.863783 98:-0.763531 99:-0.781777 100:-0.915236 101:-0.835825 102:-0.967548 103:-0.91277 104:-0.832934 105:-0.837944 106:-0.879481 107:-0.865557 108:-0.692212 109:-0.690989 110:-0.670136 111:-0.76215 112:-0.69728 113:-0.515989 114:-0.91799 115:-0.844023 116:-0.916853 117:-0.914662 118:-0.749851 119:-0.949565 120:-0.824608 121:-0.803009 122:-0.959594 123:-0.588228 124:-0.892868 125:-0.721533 126:-0.830827 127:-0.570077 128:-0.944893 129:-0.566458 130:-0.630717 131:-0.497205 132:0.222848 133:-0.222856 134:-0.497205 135:0.697593 136:-0.537932 137:0.0254836 138:-0.350075 139:0.0172296 140:0.321334 141:-1 142:-1 143:-1 144:-1 145:-1 146:-0.714286 147:-0.75 148:-0.789474 149:-0.7 150:0.174312 151:-0.112423 152:-0.929664 153:-0.789474 154:-0.764706 155:-1 156:-1 157:-1 158:-1 159:-1 160:-1 161:-1 162:-1 173:-1 174:-1 175:-1 176:-1 177:-1 178:-0.714285 179:-0.75 180:-0.789474 181:-0.700001 182:0.174311 
1.426916460424593 -1.426916460424593 1:-0.880278 2:-0.759092 3:-0.862102 4:-0.810905 5:-0.452197 6:-0.703675 7:-0.786967 8:-0.749396 9:-0.543922 10:-0.789474 11:-0.764706 12:-1 13:-1 14:-1 15:-1 16:-1 17:-1 18:-1 19:-1 30:-0.683768 31:-0.590498 32:-0.736937 33:-0.880491 34:-0.829197 35:-0.749396 36:-0.793313 37:-0.880578 38:-0.847208 39:-0.912506 40:-0.808292 41:-0.6943 42:-0.905427 43:-0.880274 44:-0.754141 45:-0.971383 46:-0.83474 47:-0.842833 48:-0.904216 49:-0.820138 50:-0.815944 51:-0.913022 52:-0.952912 53:-0.933393 54:-0.972176 55:-0.782002 56:-0.817412 57:-0.759305 58:-0.657251 59:-0.884975 60:-0.770184 61:-0.876869 62:-0.6733 63:-0.797707 64:-0.903842 65:-0.83489 66:-0.961454 67:-0.763179 68:-0.872044 69:-0.850505 70:-0.776876 71:-0.894846 72:-0.968534 73:-0.705869 74:-0.616802 75:-0.900922 76:-0.914805 77:-0.958039 78:-0.790504 79:-0.898932 80:-0.905147 81:-0.975805 82:-0.920898 83:-0.827837 84:-0.914496 85:-0.775821 86:-0.903524 87:-0.9619 88:-0.842393 89:-0.87635 90:-0.847433 91:-0.63939 92:-0.854576 93:-0.842945 94:-0.973165 95:-0.792286 96:-0.700432 97:-0.884214 98:-0.871531 99:-0.844074 100:-0.641016 101:-0.944344 102:-0.98532 103:-0.799262 104:-0.882726 105:-0.70045 106:-0.870571 107:-0.679879 108:-0.651422 109:-0.744146 110:-0.941535 111:-0.757983 112:-0.814257 113:-0.78213 114:-0.671759 115:-0.859585 116:-0.744037 117:-0.969841 118:-0.874603 119:-0.87145 120:-0.910388 121:-0.437855 122:-0.833889 123:-0.759627 124:-0.765748 125:-0.704685 126:-0.755056 127:-0.864352 128:-0.955831 129:-0.58237 130:-0.628898 131:-0.484667 132:0.207105 133:-0.207101 134:-0.484667 135:0.70981 136:-0.586846 137:0.0350058 138:-0.515508 139:-0.132134 140:-0.068468 141:-1 142:-1 143:-1 144:-1 145:-1 146:-0.857143 147:-0.75 148:-0.789474 149:-0.8 150:0.0275229 151:-0.201219 152:-0.887388 153:-0.789474 154:-0.764706 155:-1 156:-1 157:-1 158:-1 159:-1 160:-1 161:-1 162:-1 173:-1 174:-1 175:-1 176:-1 177:-1 178:-0.857142 179:-0.75 180:-0.789474 181:-0.8 182:0.0275244 
1.642434394333211 -1.642434394333211 1:-0.652114 2:-0.229929 3:-0.876296 4:-0.526199 5:0.234096 6:-0.719922 7:-0.797935 8:-0.766786 9:-0.622733 10:-0.684211 11:-0.647059 12:-0.75 13:-0.75 14:-0.666667 15:-0.8 16:-0.714286 17:-1 18:-1 19:-1 30:-0.917197 31:-0.736644 32:-0.746697 33:-0.86222 34:-0.753133 35:-0.91154 36:-0.838837 37:-0.903292 38:-0.697 39:-0.878697 40:-0.940762 41:-0.635415 42:-0.778593 43:-0.82829 44:-0.900558 45:-0.625779 46:-0.838978 47:-0.745897 48:-0.829943 49:-0.834422 50:-0.701611 51:-0.800767 52:-0.94547 53:-0.941166 54:-0.693658 55:-0.856701 56:-0.70044 57:-0.891545 58:-0.680424 59:-0.906502 60:-0.737226 61:-0.94704 62:-0.869775 63:-0.546533 64:-0.851889 65:-0.790195 66:-0.913949 67:-0.797078 68:-0.820987 69:-0.869865 70:-0.848196 71:-0.974373 72:-0.794767 73:-0.908428 74:-0.680141 75:-0.912549 76:-0.87656 77:-0.549259 78:-0.54563 79:-0.848385 80:-0.871775 81:-0.855544 82:-0.968252 83:-0.793049 84:-0.859182 85:-0.737296 86:-0.71625 87:-0.740204 88:-0.861195 89:-0.836252 90:-0.779105 91:-0.948352 92:-0.858183 93:-0.827085 94:-0.630979 95:-0.940943 96:-0.909821 97:-0.755285 98:-0.904906 99:-0.772434 100:-0.910313 101:-0.604679 102:-0.949149 103:-0.737972 104:-0.833106 105:-0.856116 106:-0.709578 107:-0.76847 108:-0.63985 109:-0.977109 110:-0.604742 111:-0.936277 112:-0.809906 113:-0.725287 114:-0.877972 115:-0.670081 116:-0.847358 117:-0.876501 118:-0.901408 119:-0.729231 120:-0.915981 121:-0.757037 122:-0.676797 123:-0.721943 124:-0.967888 125:-0.883731 126:-0.770628 127:-0.926983 128:-0.713537 129:0.232972 130:-0.781118 131:-0.871696 132:0.770347 133:-0.770343 134:-0.871696 135:0.517643 136:-0.319459 137:-0.803369 138:-0.944155 139:-0.829252 140:-0.898253 141:-1 142:-1 143:-1 144:-0.777778 145:-0.666667 146:-0.571429 147:-0.625 148:-0.684211 149:-0.6 150:0.376147 151:-0.81182 152:-0.167808 153:-0.684211 154:-0.647059 155:-0.75 156:-0.75 157:-0.666667 158:-0.8 159:-0.714285 160:-1 161:-1 162:-1 173:-1 174:-1 175:-1 176:-0.777778 177:-0.666667 178:-0.571428 179:-0.625 180:-0.684211 181:-0.600001 182:0.376146 
1.019795403399733 -1.019795403399733 1:-0.0495333 2:0.3053 3:0.0520818 4:0.0177249 5:-0.708271 6:0.276043 7:0.112984 8:-0.078545 9:0.122834 10:-0.157895 11:-0.0588235 13:-0.375 14:-0.333333 15:-0.4 16:-0.428571 17:-0.5 18:-1 19:-1 30:-0.321584 31:-0.56026 32:-0.850376 33:-0.58437 34:-0.468446 35:-0.735657 36:-0.615768 37:-0.388109 38:-0.536242 39:-0.728498 40:-0.568896 41:-0.774833 42:-0.927311 43:-0.684769 44:-0.818375 45:-0.304857 46:-0.795872 47:-0.370732 48:-0.75331 49:-0.894711 50:-0.598772 51:-0.762431 52:-0.6849 53:-0.806157 54:-0.328058 55:-0.483167 56:-0.828173 57:-0.594469 58:-0.60315 59:-0.864073 60:-0.810075 61:-0.374016 62:-0.732466 63:-0.463691 64:-0.599006 65:-0.957201 66:-0.683957 67:-0.474726 68:-0.572873 69:-0.641648 70:-0.752702 71:-0.88349 72:-0.64604 73:-0.419081 74:-0.773515 75:-0.589741 76:-0.73339 77:-0.101054 78:-0.480662 79:-0.741229 80:-0.703516 81:-0.622315 82:-0.710968 83:-0.700369 84:-0.93362 85:-0.460064 86:-0.733427 87:-0.960946 88:-0.680785 89:-0.0294133 90:-0.722113 91:-0.273996 92:-0.810495 93:-0.439836 94:-0.966209 95:-0.828265 96:-0.526342 97:-0.611527 98:-0.659973 99:-0.741663 100:-0.809586 101:-0.389194 102:-0.704684 103:-0.679608 104:-0.68159 105:0.0490414 106:-0.795571 107:-0.801402 108:-0.982362 109:0.335681 110:-0.576213 111:-0.8964 112:-0.729218 113:-0.834481 114:-0.864881 115:-0.974806 116:-0.59693 117:-0.484232 118:-0.378565 119:-0.407689 120:-0.982626 121:-0.436682 122:-0.586558 123:-0.385579 124:-0.683289 125:-0.498298 126:-0.512059 127:-0.689871 128:-0.792957 129:0.0846186 130:0.465435 131:0.0400448 132:-0.344324 133:0.344325 134:0.0400448 135:0.0975207 136:0.0802951 137:-0.0943362 138:0.0408424 139:-0.269805 140:-0.0305237 141:-1 142:-1 143:-0.75 144:-0.555556 145:-0.333333 146:-0.285714 148:-0.0526316 149:-0.1 150:0.302752 151:-0.687777 152:-0.967524 153:-0.157896 154:-0.058824 156:-0.375 157:-0.333335 158:-0.400001 159:-0.42857 160:-0.499999 161:-1 162:-1 173:-1 174:-1 175:-0.75 176:-0.555555 177:-0.333335 178:-0.285713 180:-0.052632 181:-0.100001 182:0.302756 
1.101187757294287 -1.101187757294287 1:-0.00615754 2:0.352545 3:0.0248868 4:0.0660317 5:-0.66865 6:0.262035 7:0.0784852 8:-0.101494 9:0.142912 10:-0.157895 11:-0.0588235 13:-0.125 14:-0.166667 15:-0.4 16:-0.428571 17:-0.5 18:-1 19:-1 30:-0.206384 31:-0.635794 32:-0.970345 33:-0.444208 34:-0.462384 35:-0.648587 36:-0.539762 37:-0.549297 38:-0.690366 39:-0.848825 40:-0.640755 41:-0.572989 42:-0.924141 43:-0.695265 44:-0.400674 45:-0.677304 46:-0.764816 47:-0.589408 48:-0.00233863 49:-0.714617 50:-0.447232 51:-0.743879 52:-0.801163 53:-0.921664 54:-0.769502 55:-0.667648 56:-0.313502 57:-0.781872 58:-0.684008 59:-0.84842 60:-0.654354 61:-0.492012 62:-0.113799 63:-0.270972 64:-0.248642 65:-0.770063 66:-0.760384 67:-0.603948 68:-0.475234 69:-0.792308 70:-0.384667 71:-0.753975 72:-0.676193 73:-0.71854 74:-0.690411 75:-0.131314 76:-0.144965 77:-0.153071 78:-0.179169 79:-0.629374 80:-0.69213 81:-0.335983 82:-0.879222 83:-0.819375 84:-0.711921 85:-0.752746 86:-0.684636 87:-0.867938 88:-0.796915 89:0.209241 90:-0.149586 91:-0.485777 92:-0.725972 93:-0.368361 94:-0.813242 95:-0.891536 96:-0.717843 97:-0.726378 98:-0.198372 99:-0.747135 100:-0.862471 101:-0.550201 102:-0.623719 103:-0.171617 104:-0.814783 105:-0.0564458 106:-0.70944 107:-0.788796 108:-0.802127 109:-0.252022 110:-0.902499 111:-0.302548 112:-0.597232 113:-0.724802 114:-0.854002 115:-0.93067 116:-0.787638 117:-0.473528 118:-0.551034 119:-0.522563 120:-0.387443 121:0.0984294 122:-0.460424 123:-0.79754 124:-0.938128 125:-0.681814 126:-0.77996 127:-0.773574 128:-0.800363 129:0.0704574 130:0.396901 131:0.000846088 132:-0.309309 133:0.309301 134:0.000846088 135:0.063313 136:0.107611 137:-0.104305 138:0.00354536 139:-0.317022 140:-0.0464343 141:-1 142:-1 143:-0.75 144:-0.555556 145:-0.333333 148:-0.157895 149:-0.2 150:0.366972 151:-0.728404 152:-0.964378 153:-0.157896 154:-0.058824 156:-0.125001 157:-0.166669 158:-0.400001 159:-0.42857 160:-0.499999 161:-1 162:-1 173:-1 174:-1 175:-0.75 176:-0.555555 177:-0.333335 180:-0.157896 181:-0.200001 182:0.366976 
0.427428046684666 -0.427428046684666 1:-0.185858 2:0.105731 3:-0.0420816 4:-0.0791639 5:-0.707827 6:0.224056 7:-0.0141526 8:-0.148104 9:0.425905 10:-0.368421 11:-0.294118 12:-0.25 13:-0.25 14:-0.166667 15:-0.6 16:-1 17:-1 18:-1 19:-1 30:-0.307205 31:-0.802839 32:-0.560322 33:-0.738496 34:-0.462276 35:-0.522259 36:-0.824441 37:-0.784128 38:-0.629638 39:-0.990725 40:-0.748857 41:-0.605022 42:-0.791022 43:-0.594674 44:-0.586992 45:-0.393353 46:-0.463805 47:-0.286555 48:-0.783932 49:-0.786103 50:-0.911772 51:-0.656171 52:-0.682879 53:-0.644051 54:-0.657783 55:-0.278671 56:-0.88715 57:-0.192676 58:-0.935672 59:-0.679817 60:-0.438958 61:-0.543667 62:-0.582767 63:-0.614019 64:-0.681929 65:-0.822186 66:-0.854322 67:-0.524363 68:-0.335224 69:-0.85447 70:-0.665221 71:-0.671963 72:-0.835455 73:-0.583007 74:-0.459736 75:-0.585406 76:-0.601083 77:-0.872345 78:-0.834716 79:-0.963745 80:-0.727396 81:-0.501566 82:-0.698657 83:-0.882721 84:-0.67134 85:-0.582785 86:-0.925931 87:-0.664681 88:-0.750599 89:-0.481114 90:-0.427243 91:-0.457693 92:-0.92679 93:-0.700374 94:-0.306866 95:-0.912393 96:-0.603311 97:-0.898528 98:-0.684574 99:-0.680162 100:-0.716854 101:-0.792715 102:-0.956848 103:-0.780943 104:-0.756031 105:-0.560925 106:-0.883511 107:-0.71104 108:-0.784083 109:-0.681337 110:-0.515653 111:-0.77044 112:-0.684907 113:-0.653632 114:-0.93827 115:-0.869256 116:-0.705806 117:-0.806721 118:-0.511297 119:-0.629877 120:-0.591556 121:-0.867873 122:-0.828755 123:-0.786958 124:-0.669486 125:-0.887993 126:-0.876027 127:-0.790692 128:-0.695932 129:0.283482 130:0.0140344 131:-0.37295 132:0.0727949 133:-0.0727922 134:-0.37295 135:0.240963 136:-0.0526585 137:-0.131342 138:-0.0966352 139:-0.239995 140:0.442667 141:-1 142:-1 143:-1 144:-0.777778 145:-0.666667 146:-0.285714 147:-0.25 148:-0.368421 149:-0.3 150:0.376147 151:-0.651744 152:-0.951767 153:-0.368422 154:-0.294118 155:-0.25 156:-0.25 157:-0.166669 158:-0.6 159:-1 160:-1 161:-1 162:-1 173:-1 174:-1 175:-1 176:-0.777778 177:-0.666667 178:-0.285713 179:-0.25 180:-0.368422 181:-0.300002 182:0.376146 
0.7048384772764378 -0.7048384772764378 1:-0.166952 2:0.146969 3:-0.125512 4:-0.0873936 5:-0.661248 6:-0.023087 7:0.289423 8:-0.142073 9:0.618781 10:-0.0526316 11:0.0588235 12:-0.125 13:-0.625 14:-0.5 15:-0.6 16:-0.714286 17:-0.5 18:-1 19:-1 30:-0.639742 31:-0.789147 32:-0.716457 33:-0.853128 34:-0.859694 35:-0.48786 36:-0.742757 37:-0.605736 38:-0.333905 39:-0.735106 40:-0.62918 41:-0.890722 42:-0.912897 43:-0.99891 44:-0.859849 45:-0.0452692 46:-0.633197 47:-0.819667 48:-0.901677 49:-0.863164 50:-0.629103 51:-0.718489 52:-0.8267 53:-0.595043 54:-0.645355 55:-0.696668 56:-0.474137 57:-0.614154 58:-0.906217 59:-0.789781 60:-0.947685 61:-0.518624 62:-0.882256 63:-0.445306 64:-0.853417 65:-0.873182 66:-0.880658 67:-0.968969 68:-0.738847 69:-0.857094 70:-0.845167 71:-0.779403 72:-0.867757 73:-0.358709 74:-0.835887 75:-0.540644 76:-0.658084 77:-0.304606 78:-0.69351 79:-0.529741 80:-0.836294 81:-0.928761 82:-0.815404 83:-0.745698 84:-0.83894 85:-0.865051 86:-0.611815 87:-0.91778 88:-0.907596 89:-0.550554 90:-0.780955 91:-0.403806 92:-0.834047 93:-0.465526 94:-0.808388 95:-0.362079 96:-0.804555 97:-0.618948 98:-0.888708 99:-0.925575 100:-0.89002 101:-0.641124 102:-0.604728 103:-0.969528 104:-0.68895 105:-0.806938 106:-0.872524 107:-0.754274 108:-0.544434 109:-0.748496 110:-0.850847 111:-0.546156 112:-0.72531 113:-0.33333 114:-0.580844 115:-0.632405 116:-0.922795 117:-0.628912 118:-0.561931 119:-0.67917 120:-0.715702 121:-0.794891 122:-0.314869 123:-0.857659 124:-0.929085 125:-0.730052 126:-0.657572 127:-0.868699 128:-0.758523 129:0.772702 130:-0.326956 131:-0.698945 132:0.497752 133:-0.497748 134:-0.698945 135:0.0641754 136:0.0255801 137:-0.307288 138:0.23164 139:-0.328876 140:0.505096 141:-1 142:-1 143:-0.75 144:-0.555556 145:-0.5 146:-0.428571 147:-0.5 148:-0.0526316 149:-0.1 150:0.211009 151:-0.680725 152:-0.98167 153:-0.052632 154:0.058824 155:-0.125001 156:-0.625 157:-0.500002 158:-0.6 159:-0.714285 160:-0.499999 161:-1 162:-1 173:-1 174:-1 175:-0.75 176:-0.555555 177:-0.500002 178:-0.428571 179:-0.5 180:-0.052632 181:-0.100001 182:0.211012 
0.01721065957533174 -0.01721065957533174 1:0.0983121 2:0.257528 3:0.0463604 4:0.145691 5:-0.640193 6:0.12725 7:0.393615 8:-0.0188201 9:1 10:0.157895 11:0.294118 12:0.375 13:-0.125 14:-0.166667 15:-1 16:-1 17:-1 18:-1 19:-1 30:-0.310204 31:-0.524599 32:-0.675479 33:-0.90442 34:-0.848324 35:-0.318331 36:-0.519173 37:-0.324278 38:-0.635285 39:-0.479496 40:-0.444294 41:-0.684788 42:-0.483254 43:-0.826305 44:-0.877694 45:-0.602554 46:-0.410999 47:-0.547831 48:-0.426974 49:-0.9251 50:-0.630699 51:-0.603195 52:-0.807176 53:-0.930243 54:-0.506213 55:-0.690078 56:-0.574077 57:-0.632963 58:-0.593088 59:-0.441047 60:-0.649161 61:-0.0103605 62:-0.707869 63:-0.490221 64:-0.778161 65:-0.896937 66:-0.790253 67:-0.824861 68:-0.942651 69:-0.989741 70:-0.752733 71:-0.97009 72:-0.883092 73:-0.901436 74:-0.433414 75:-0.368288 76:-0.311576 77:-0.618627 78:-0.795005 79:-0.705325 80:-0.744594 81:-0.779872 82:-0.550431 83:-0.700949 84:-0.809437 85:-0.424007 86:-0.651996 87:-0.547602 88:-0.853174 89:-0.576071 90:-0.580503 91:-0.742512 92:-0.85092 93:-0.940702 94:-0.877493 95:-0.557468 96:-0.745594 97:-0.819978 98:-0.561686 99:-0.501216 100:-0.311357 101:0.0455463 102:-0.892644 103:-0.799745 104:-0.771372 105:-0.690226 106:-0.868447 107:-0.558924 108:-0.505625 109:-0.544066 110:-0.505328 111:-0.567518 112:-0.62947 113:-0.78238 114:-0.806162 115:-0.290575 116:-0.741895 117:-0.612116 118:-0.591598 119:-0.670355 120:-0.593075 121:-0.754139 122:-0.735451 123:-0.941934 124:-0.752182 125:-0.75003 126:-0.224782 127:-0.754369 128:-0.52847 129:0.767343 130:-0.361438 131:-0.715263 132:0.52191 133:-0.521903 134:-0.715263 135:-0.268847 136:0.193705 137:-0.20026 138:0.344298 139:-0.272404 140:0.853532 141:-1 142:-1 143:-1 144:-0.333333 145:-0.166667 147:0.25 148:0.157895 149:0.1 150:0.229358 151:-0.766015 152:-0.988269 153:0.157896 154:0.29412 155:0.375003 156:-0.125001 157:-0.166669 158:-1 159:-1 160:-1 161:-1 162:-1 173:-1 174:-1 175:-1 176:-0.333334 177:-0.166669 179:0.250002 180:0.157896 181:0.100001 182:0.22936 
0.05089245563463395 -0.05089245563463395 1:0.0904485 2:0.327743 3:-0.0309998 4:0.128934 5:-0.600939 6:0.25964 7:-0.0676328 8:-0.114037 9:-0.0664069 10:-0.157895 11:-0.0588235 14:0.333333 15:-0.8 16:-1 17:-1 18:-1 19:-1 30:-0.16741 31:-0.0932493 32:-0.493642 33:-0.397725 34:-0.67787 35:0.458092 36:-0.64308 37:-0.713771 38:-0.382318 39:-0.748823 40:-0.638793 41:-0.750635 42:-0.447708 43:-0.936462 44:-0.289383 45:0.0830253 46:-0.178245 47:0.126107 48:-0.644536 49:-0.463337 50:-0.458843 51:-0.625792 52:-0.778704 53:-0.538099 54:-0.769313 55:-0.810206 56:-0.064514 57:-0.728346 58:0.0650091 59:-0.582399 60:0.359457 61:0.0715819 62:-0.740736 63:-0.237623 64:-0.319539 65:-0.956921 66:-0.68869 67:-0.679253 68:-0.613744 69:-0.783759 70:-0.179686 71:-0.39239 72:-0.37778 73:-0.323724 74:-0.49537 75:-0.47678 76:-0.250648 77:-0.310226 78:-0.705309 79:-0.770699 80:-0.735225 81:-0.632752 82:-0.555969 83:-0.278755 84:0.00459107 85:-0.850015 86:-0.277087 87:-0.629959 88:-0.795347 89:-0.318952 90:-0.295628 91:-0.266299 92:-0.927515 93:-0.60614 94:-0.991159 95:-0.419202 96:-0.61846 97:0.155088 98:-0.158704 99:-0.816944 100:-0.840745 101:-0.737822 102:-0.41742 103:-0.628513 104:-0.428534 105:-0.385345 106:-0.738482 107:-0.603821 108:-0.187366 109:0.272286 110:-0.671811 111:-0.179322 112:-0.786731 113:-0.0127191 114:-0.656057 115:-0.26098 116:-0.735238 117:-0.923446 118:-0.564504 119:-0.812259 120:0.095131 121:-0.105333 122:0.107014 123:-0.479884 124:-0.813353 125:-0.600775 126:-0.708977 127:-0.913754 128:-0.549098 129:-0.0489204 130:-0.129756 131:-0.319914 132:0.0126228 133:-0.0126245 134:-0.319914 135:-0.146101 136:0.10273 137:-0.106011 138:-0.154458 139:-0.0997316 140:-0.0262486 141:-1 142:-1 143:-1 144:-1 146:0.142857 148:-0.0526316 149:-0.1 150:0.577982 151:-0.780656 152:-0.953492 153:-0.157896 154:-0.058824 157:0.33333 158:-0.8 159:-1 160:-1 161:-1 162:-1 173:-1 174:-1 175:-1 176:-1 177:-2.26666e-06 178:0.142859 180:-0.052632 181:-0.100001 182:0.577982 
0.1946322388390345 -0.1946322388390345 1:0.0979956 2:0.343607 3:-0.0685017 4:0.139831 5:-0.569177 6:0.249555 7:-0.152312 8:-0.0870784 9:-0.104873 10:-0.157895 11:-0.0588235 14:0.333333 15:-0.6 16:-1 17:-1 18:-1 19:-1 30:-0.0733237 31:-0.23628 32:-0.598178 33:-0.263257 34:-0.343642 35:0.424558 36:-0.609376 37:-0.539913 38:-0.652532 39:-0.56361 40:-0.687031 41:-0.829397 42:-0.619953 43:-0.644506 44:-0.500505 45:0.0343393 46:0.152158 47:0.195625 48:-0.725664 49:-0.56663 50:0.0609813 51:-0.766508 52:-0.795701 53:-0.662452 54:-0.726969 55:-0.575051 56:0.146109 57:-0.441794 58:0.203289 59:-0.612929 60:-0.0753202 61:0.0591102 62:-0.0632942 63:-0.503842 64:-0.733342 65:-0.904343 66:-0.290883 67:-0.557425 68:-0.665665 69:-0.738524 70:0.202611 71:-0.557836 72:-0.505206 73:0.0113031 74:0.0483813 75:-0.241868 76:-0.31037 77:0.103212 78:0.0535568 79:-0.7603 80:-0.774346 81:-0.77499 82:-0.485438 83:-0.275334 84:-0.748704 85:0.13705 86:-0.255664 87:-0.566834 88:-0.764631 89:-0.559996 90:-0.743631 91:-0.327448 92:-0.328593 93:-0.425753 94:-0.501262 95:-0.750597 96:-0.796102 97:-0.530055 98:0.229561 99:-0.141197 100:-0.483858 101:-0.426594 102:-0.12213 103:-0.472812 104:-0.864696 105:-0.718562 106:-0.700136 107:-0.719044 108:-0.816543 109:-0.245552 110:0.349142 111:-0.598267 112:-0.488855 113:-0.632028 114:-0.118407 115:-0.653577 116:-0.824602 117:-0.387555 118:-0.871407 119:-0.796226 120:-0.845452 121:-0.519218 122:0.154419 123:-0.646765 124:-0.750235 125:-0.22913 126:-0.273909 127:-0.79576 128:-0.641624 129:-0.0798076 130:-0.19664 131:-0.356354 132:0.0537219 133:-0.0537259 134:-0.356354 135:-0.128997 136:0.0984086 137:-0.113187 138:-0.246028 139:-0.0616084 140:-0.062251 141:-1 142:-1 143:-1 144:-1 145:0.166667 146:0.142857 148:-0.157895 149:-0.2 150:0.844037 151:-0.797184 152:-0.944135 153:-0.157896 154:-0.058824 157:0.33333 158:-0.6 159:-1 160:-1 161:-1 162:-1 173:-1 174:-1 175:-1 176:-1 177:0.166662 178:0.142859 180:-0.157896 181:-0.200001 182:0.844037 
0.4462131445349194 -0.4462131445349194 1:-0.154877 2:0.145392 3:0.106472 4:-0.0098364 5:-0.748931 6:0.406323 7:-0.0716579 8:0.128177 9:0.29181 10:-0.368421 11:-0.294118 12:-0.25 13:-0.25 14:-0.166667 15:-0.6 16:-1 17:-1 18:-1 19:-1 30:-0.47596 31:-0.602652 32:-0.695606 33:-0.767915 34:-0.463332 35:-0.221963 36:-0.845864 37:-0.771665 38:-0.614195 39:-0.880274 40:-0.706671 41:-0.769943 42:-0.538333 43:-0.888418 44:-0.701426 45:-0.386873 46:-0.854055 47:-0.450235 48:-0.704835 49:-0.619648 50:-0.699088 51:-0.84085 52:-0.699044 53:-0.61107 54:-0.528964 55:-0.743155 56:-0.520226 57:-0.606046 58:-0.734575 59:-0.724404 60:-0.925779 61:-0.680429 62:-0.824103 63:-0.510501 64:-0.477983 65:-0.609283 66:-0.717495 67:-0.622428 68:-0.685134 69:-0.712463 70:-0.735085 71:-0.742575 72:-0.518952 73:-0.815794 74:-0.711485 75:-0.74119 76:-0.716366 77:-0.795855 78:-0.609789 79:-0.748475 80:-0.893638 81:-0.758409 82:-0.661845 83:-0.802506 84:-0.635432 85:-0.507176 86:-0.889224 87:-0.799066 88:-0.772892 89:-0.7823 90:-0.783038 91:-0.132644 92:-0.905888 93:-0.749363 94:-0.599353 95:-0.890391 96:-0.598678 97:-0.597653 98:-0.827635 99:-0.993224 100:-0.655623 101:-0.78469 102:-0.927855 103:-0.723422 104:-0.545506 105:-0.805692 106:-0.911979 107:-0.871541 108:-0.854577 109:-0.725185 110:-0.765319 111:-0.791528 112:-0.731317 113:-0.828605 114:-0.680268 115:-0.388314 116:-0.765018 117:-0.86955 118:-0.348399 119:-0.693872 120:-0.903686 121:-0.381405 122:-0.748185 123:-0.481428 124:-0.745563 125:-0.770771 126:-0.861368 127:-0.52921 128:-0.817564 129:0.126835 130:0.654471 131:0.142258 132:-0.431829 133:0.431837 134:0.142258 135:0.0838663 136:0.0378451 137:-0.00158127 138:-0.158807 139:-0.0921186 140:0.183471 141:-1 142:-1 143:-0.75 144:-0.777778 145:-0.166667 146:-0.142857 147:-0.25 148:-0.368421 149:-0.4 150:0.568807 151:-0.647625 152:-0.970362 153:-0.368422 154:-0.294118 155:-0.25 156:-0.25 157:-0.166669 158:-0.6 159:-1 160:-1 161:-1 162:-1 173:-1 174:-1 175:-0.75 176:-0.777778 177:-0.166669 178:-0.142856 179:-0.25 180:-0.368422 181:-0.400001 182:0.568811 
1.736763689282071 -1.736763689282071 1:-0.233207 2:0.04973 3:0.244548 4:-0.0243203 5:-0.813677 6:0.502477 7:0.0438941 8:0.235754 9:0.517244 10:-0.368421 11:-0.294118 12:-0.25 13:-0.25 14:-0.333333 15:-0.8 16:-1 17:-1 18:-1 19:-1 30:-0.59352 31:-0.738816 32:-0.730176 33:-0.480926 34:-0.584344 35:-0.656487 36:-0.818739 37:-0.824542 38:-0.520422 39:-0.941412 40:-0.862584 41:-0.614308 42:-0.873276 43:-0.869709 44:-0.647864 45:-0.612783 46:-0.672602 47:-0.382129 48:-0.502114 49:-0.590309 50:-0.674685 51:-0.800543 52:-0.783828 53:-0.917645 54:-0.586695 55:-0.884949 56:-0.77861 57:-0.818666 58:-0.645631 59:-0.748959 60:-0.881223 61:-0.546321 62:-0.5828 63:-0.596988 64:-0.845419 65:-0.794496 66:-0.809529 67:-0.880806 68:-0.558101 69:-0.810709 70:-0.652175 71:-0.928609 72:-0.763494 73:-0.0531256 74:-0.69398 75:-0.795952 76:-0.699605 77:-0.652326 78:-0.38396 79:-0.879311 80:-0.812586 81:-0.867407 82:-0.629739 83:-0.800499 84:-0.68125 85:-0.748817 86:-0.58798 87:-0.724902 88:-0.823687 89:-0.407588 90:-0.898816 91:-0.551187 92:-0.906231 93:-0.68828 94:-0.42215 95:-0.792215 96:-0.887386 97:-0.816257 98:-0.531773 99:-0.736633 100:-0.576607 101:-0.961728 102:-0.532451 103:-0.871295 104:-0.905514 105:-0.766281 106:-0.909963 107:-0.666389 108:-0.0435494 109:-0.804316 110:-0.698243 111:-0.799913 112:-0.526049 113:-0.283165 114:-0.616939 115:-0.688501 116:-0.726436 117:-0.925802 118:-0.746842 119:-0.937691 120:-0.875934 121:-0.0603323 122:-0.689068 123:-0.737319 124:-0.838405 125:-0.839304 126:-0.65712 127:-0.736146 128:-0.767511 129:0.480733 130:0.291702 131:-0.285953 132:-0.0247682 133:0.0247666 134:-0.285953 135:0.198563 136:-0.0505574 137:0.0668664 138:-0.0338631 139:-0.0617931 140:0.36782 141:-1 142:-1 143:-0.75 144:-0.777778 145:-0.666667 146:-0.142857 147:-0.25 148:-0.368421 149:-0.4 150:0.522936 151:-0.583099 152:-0.979326 153:-0.368422 154:-0.294118 155:-0.25 156:-0.25 157:-0.333335 158:-0.8 159:-1 160:-1 161:-1 162:-1 173:-1 174:-1 175:-0.75 176:-0.777778 177:-0.666667 178:-0.142856 179:-0.25 180:-0.368422 181:-0.400001 182:0.522939 
0.8084261087506289 -0.8084261087506289 1:0.0909246 2:0.379654 3:0.200656 4:0.205576 5:-0.69311 6:0.475781 7:0.00757662 8:0.16791 9:0.557091 10:-0.157895 11:-0.0588235 14:0.166667 15:-0.4 16:-0.714286 17:-1 18:-1 19:-1 30:-0.308968 31:-0.762081 32:-0.652349 33:-0.482317 34:-0.438054 35:-0.478662 36:-0.673096 37:-0.932155 38:-0.393398 39:-0.711139 40:-0.499391 41:-0.723623 42:-0.827283 43:-0.824428 44:-0.48774 45:-0.899966 46:-0.53597 47:-0.6406 48:-0.572205 49:-0.382246 50:-0.417836 51:-0.522317 52:-0.755431 53:-0.535538 54:-0.551358 55:-0.279043 56:-0.803499 57:-0.576693 58:-0.558101 59:-0.574868 60:-0.822316 61:-0.476749 62:-0.410415 63:-0.193679 64:-0.641518 65:-0.509406 66:-0.591782 67:-0.765827 68:-0.64663 69:-0.889449 70:-0.216593 71:-0.852619 72:-0.523519 73:-0.624595 74:-0.208724 75:-0.344201 76:-0.327671 77:-0.302511 78:-0.403561 79:-0.878049 80:-0.498916 81:-0.375717 82:-0.794373 83:-0.126676 84:-0.500634 85:-0.5773 86:-0.76575 87:-0.198583 88:-0.86181 89:-0.801325 90:-0.806504 91:-0.743041 92:-0.773955 93:-0.653508 94:-0.741328 95:-0.38241 96:-0.502819 97:-0.686375 98:0.129116 99:-0.786408 100:-0.843029 101:-0.435085 102:0.00520963 103:-0.93299 104:-0.720843 105:-0.821376 106:-0.603157 107:-0.526372 108:0.00241801 109:-0.419022 110:-0.506512 111:-0.837595 112:-0.457347 113:-0.17128 114:-0.942914 115:-0.578618 116:-0.708282 117:-0.595449 118:-0.531395 119:-0.639512 120:-0.898491 121:-0.355005 122:-0.460396 123:-0.127714 124:-0.598573 125:-0.699228 126:-0.583644 127:-0.593732 128:-0.584428 129:0.26893 130:0.54886 131:-0.0244509 132:-0.286239 133:0.286242 134:-0.0244509 135:-0.106432 136:0.215912 137:0.0478636 138:-0.0731397 139:-0.228103 140:0.24492 141:-1 142:-1 143:-0.75 144:-0.333333 145:-0.166667 146:0.142857 148:-0.157895 149:-0.2 150:0.733945 151:-0.753046 152:-0.982227 153:-0.157896 154:-0.058824 157:0.166662 158:-0.400001 159:-0.714285 160:-1 161:-1 162:-1 173:-1 174:-1 175:-0.75 176:-0.333334 177:-0.166669 178:0.142859 180:-0.157896 181:-0.200001 182:0.733945 
0.9127028754888201 -0.9127028754888201 1:-0.345143 2:-0.0787384 3:0.0630256 4:-0.239007 5:-0.8427 6:0.366157 7:-0.0945517 8:0.0643093 9:0.466421 10:-0.473684 11:-0.411765 12:-0.5 13:-0.5 14:-0.5 15:-0.8 16:-1 17:-1 18:-1 19:-1 30:-0.49302 31:-0.821273 32:-0.620873 33:-0.583745 34:-0.789688 35:-0.863143 36:-0.797802 37:-0.830708 38:-0.826832 39:-0.923911 40:-0.756146 41:-0.978631 42:-0.816469 43:-0.655994 44:-0.564439 45:-0.489952 46:-0.555163 47:-0.89843 48:-0.726022 49:-0.659985 50:-0.877613 51:-0.938814 52:-0.911923 53:-0.599105 54:-0.92911 55:-0.819126 56:-0.516606 57:-0.627788 58:-0.830874 59:-0.975598 60:-0.571405 61:-0.765757 62:-0.726705 63:-0.575751 64:-0.84836 65:-0.754854 66:-0.28045 67:-0.601573 68:-0.885169 69:-0.759569 70:-0.884707 71:-0.921394 72:-0.946922 73:-0.625301 74:-0.800261 75:-0.761296 76:-0.60063 77:-0.624647 78:-0.377214 79:-0.81008 80:-0.711679 81:-0.743617 82:-0.730718 83:-0.680189 84:-0.88931 85:-0.797005 86:-0.787227 87:-0.678197 88:-0.77608 89:-0.655179 90:-0.827978 91:-0.543329 92:-0.933945 93:-0.590624 94:-0.555094 95:-0.720974 96:-0.746557 97:-0.793616 98:-0.21058 99:-0.662742 100:-0.949265 101:-0.733217 102:-0.766876 103:-0.873655 104:-0.55233 105:-0.753665 106:-0.911174 107:-0.862815 108:-0.675879 109:-0.813825 110:-0.436438 111:-0.626478 112:-0.87538 113:-0.647686 114:-0.69532 115:-0.895628 116:-0.673545 117:-0.755533 118:-0.806064 119:-0.493976 120:-0.524096 121:-0.481882 122:-0.743655 123:-0.7272 124:-0.592104 125:-0.756116 126:-0.783872 127:-0.721883 128:-0.402135 129:0.478608 130:-0.225851 131:-0.5817 132:0.332911 133:-0.332914 134:-0.5817 135:0.221703 136:-0.0712824 137:-0.030179 138:-0.183571 139:-0.23142 140:0.251678 141:-1 142:-1 143:-0.75 144:-0.555556 145:-0.5 146:-0.285714 147:-0.375 148:-0.473684 149:-0.5 150:0.844037 151:-0.428487 152:-0.986569 153:-0.473685 154:-0.411765 155:-0.5 156:-0.5 157:-0.500002 158:-0.8 159:-1 160:-1 161:-1 162:-1 173:-1 174:-1 175:-0.75 176:-0.555555 177:-0.500002 178:-0.285713 179:-0.375 180:-0.473685 181:-0.500001 182:0.844037 
0.4161105748174294 -0.4161105748174294 1:0.33434 2:0.476033 3:0.0997314 4:0.375446 5:-0.558248 6:0.344034 7:0.0802627 8:0.0231754 9:0.523332 10:0.157895 11:0.294118 12:0.375 13:0.25 14:0.5 15:-0.4 16:-1 17:-1 18:-1 19:-1 30:0.110296 31:-0.367362 32:-0.560647 33:-0.631409 34:0.180874 35:-0.144976 36:-0.362811 37:-0.170603 38:-0.220858 39:-0.753906 40:-0.410035 41:-0.338306 42:-0.737801 43:-0.610028 44:-0.463004 45:-0.64925 46:-0.883233 47:-0.228334 48:-0.366255 49:-0.620741 50:0.139726 51:-0.43589 52:-0.0842695 53:-0.37879 54:-0.40155 55:-0.527012 56:-0.699641 57:-0.0435375 58:-0.745739 59:-0.474353 60:-0.460507 61:-0.456694 62:-0.418777 63:-0.548035 64:-0.150866 65:-0.70204 66:0.053344 67:0.318749 68:-0.0678478 69:-0.464687 70:-0.777968 71:-0.601965 72:-0.958257 73:-0.50066 74:-0.356013 75:0.455557 76:-0.525586 77:-0.314441 78:-0.239657 79:-0.459309 80:-0.231592 81:-0.0187336 82:-0.868985 83:-0.531202 84:-0.94531 85:0.33597 86:-0.745305 87:-0.516205 88:-0.716934 89:0.0960113 90:0.618239 91:0.224325 92:-0.636703 93:-0.200808 94:0.146021 95:-0.332453 96:-0.328069 97:-0.434661 98:0.0249908 99:-0.820591 100:-0.126921 101:-0.529269 102:-0.246236 103:-0.558337 104:-0.135433 105:-0.261378 106:-0.516815 107:-0.326373 108:0.144269 109:-0.0156406 110:-0.255958 111:-0.583629 112:-0.138716 113:-0.013581 114:-0.326588 115:-0.370291 116:-0.85119 117:-0.526139 118:0.204077 119:-0.0158487 120:-0.0505164 121:-0.496027 122:-0.705571 123:-0.322853 124:-0.299213 125:-0.498428 126:-0.597574 127:0.371608 128:-0.55874 129:0.105039 130:-0.117103 131:-0.385236 132:0.0870497 133:-0.0870471 134:-0.385236 135:-0.446353 136:0.355619 137:-0.0459328 138:0.00546929 139:-0.216336 140:0.380489 141:-1 142:-1 143:-0.75 144:-0.555556 146:0.571429 147:0.375 148:0.157895 149:0.1 150:0.853211 151:-0.848238 152:-0.985219 153:0.157896 154:0.29412 155:0.375003 156:0.250002 157:0.499997 158:-0.400001 159:-1 160:-1 161:-1 162:-1 173:-1 174:-1 175:-0.75 176:-0.555555 177:-2.26666e-06 178:0.571434 179:0.375003 180:0.157896 181:0.100001 182:0.853213 
0.8825771961298458 -0.8825771961298458 1:0.0981525 2:0.318788 3:0.107459 4:0.150025 5:-0.672076 6:0.319906 7:0.150354 8:0.0154871 9:0.526909 10:-0.0526316 11:0.0588235 12:0.125 14:0.166667 15:-0.6 16:-1 17:-1 18:-1 19:-1 30:-0.15406 31:-0.476649 32:-0.496182 33:-0.426313 34:-0.378594 35:-0.202889 36:-0.738081 37:-0.431912 38:-0.609732 39:-0.644306 40:-0.790388 41:-0.623581 42:-0.624398 43:-0.77284 44:-0.500086 45:-0.569909 46:-0.795066 47:-0.111255 48:-0.75467 49:-0.0193954 50:-0.634192 51:-0.415606 52:-0.674916 53:-0.511131 54:-0.555697 55:-0.525924 56:-0.514434 57:-0.744948 58:-0.546173 59:-0.800649 60:-0.591919 61:-0.202141 62:0.300093 63:-0.53438 64:-0.601358 65:-0.622127 66:-0.574438 67:-0.569506 68:-0.48954 69:-0.833125 70:-0.559246 71:-0.527088 72:-0.791995 73:-0.445741 74:-0.373435 75:-0.680277 76:0.366738 77:-0.509912 78:-0.730486 79:-0.617028 80:-0.627864 81:-0.690958 82:-0.370471 83:-0.657297 84:-0.5828 85:-0.225931 86:-0.990529 87:-0.310153 88:-0.827399 89:-0.0882006 90:-0.370423 91:-0.505925 92:-0.755738 93:-0.591365 94:-0.195087 95:-0.540971 96:-0.550039 97:-0.56225 98:-0.0362644 99:-0.968006 100:-0.69028 101:-0.0109379 102:-0.111382 103:-0.951733 104:-0.509288 105:-0.664725 106:-0.84158 107:-0.320359 108:-0.856112 109:-0.51088 110:-0.618767 111:-0.0279563 112:-0.685465 113:-0.729574 114:-0.794258 115:-0.356355 116:-0.816725 117:-0.222504 118:-0.611688 119:-0.663738 120:-0.618719 121:-0.962523 122:-0.891144 123:-0.94064 124:-0.588578 125:-0.720404 126:-0.432411 127:-0.824421 128:-0.683712 129:0.323813 130:-0.201387 131:-0.522782 132:0.255443 133:-0.255449 134:-0.522782 135:-0.226734 136:0.244891 137:-0.0631053 138:0.0812574 139:-0.209277 140:0.404206 141:-1 142:-1 143:-0.75 144:-0.333333 145:-0.166667 146:0.285714 147:0.125 148:-0.0526316 149:-0.1 150:0.678899 151:-0.750309 152:-0.985998 153:-0.052632 154:0.058824 155:0.125001 157:0.166662 158:-0.6 159:-1 160:-1 161:-1 162:-1 173:-1 174:-1 175:-0.75 176:-0.333334 177:-0.166669 178:0.285717 179:0.125001 180:-0.052632 181:-0.100001 182:0.678903 
0.1580216380026608 -0.1580216380026608 1:0.342604 2:0.513549 3:0.0339624 4:0.365389 5:-0.519989 6:0.213884 7:0.211609 8:-0.0371377 9:0.47655 10:0.157895 11:0.294118 12:0.375 13:0.375 14:0.5 15:-0.4 16:-1 17:-1 18:-1 19:-1 30:-0.149592 31:-0.216902 32:-0.431879 33:-0.874977 34:0.358092 35:-0.375087 36:-0.601924 37:-0.871385 38:-0.134117 39:-0.707674 40:-0.554796 41:-0.254846 42:-0.844494 43:-0.697055 44:-0.442516 45:-0.571696 46:-0.433596 47:-0.534157 48:-0.419268 49:-0.786349 50:0.724587 51:-0.635577 52:-0.763826 53:-0.636107 54:-0.648514 55:-0.39567 56:-0.482049 57:-0.028049 58:-0.60292 59:-0.858002 60:-0.625689 61:-0.597065 62:0.0575136 63:-0.0866977 64:-0.686431 65:-0.780517 66:0.425945 67:0.186462 68:-0.729825 69:-0.388172 70:-0.309612 71:-0.826955 72:-0.917481 73:-0.307155 74:-0.830852 75:-0.195945 76:-0.215143 77:-0.596681 78:0.0160287 79:-0.2241 80:-0.496451 81:-0.349438 82:-0.169244 83:-0.703223 84:-0.760733 85:-0.0656565 86:-0.395148 87:-0.942299 88:-0.38126 89:-0.668967 90:-0.400793 91:0.839372 92:-0.775533 93:-0.730396 94:-0.246244 95:0.127583 96:-0.191209 97:-0.474282 98:-0.429083 99:-0.937198 100:-0.500184 101:-0.522396 102:-0.676747 103:-0.642322 104:-0.632778 105:-0.550309 106:-0.570487 107:0.59262 108:-0.471319 109:-0.441389 110:-0.603693 111:-0.45838 112:-0.739506 113:-0.479096 114:-0.678044 115:-0.706909 116:-0.38643 117:-0.888837 118:-0.644439 119:-0.162487 120:-0.381446 121:0.587034 122:-0.359719 123:-0.210236 124:-0.746512 125:-0.741912 126:-0.86877 127:-0.57286 128:-0.287967 129:0.0531479 130:0.141158 131:-0.173354 132:-0.142825 133:0.14282 134:-0.173354 135:-0.45009 136:0.398557 137:-0.138584 138:0.147488 139:-0.283107 140:0.295549 141:-1 142:-1 143:-0.75 144:-0.333333 145:0.5 146:0.571429 147:0.375 148:0.157895 149:0.1 150:0.642202 151:-0.859239 152:-0.985795 153:0.157896 154:0.29412 155:0.375003 156:0.375003 157:0.499997 158:-0.400001 159:-1 160:-1 161:-1 162:-1 173:-1 174:-1 175:-0.75 176:-0.333334 177:0.499997 178:0.571434 179:0.375003 180:0.157896 181:0.100001 182:0.642201 
0.6584176165281299 -0.6584176165281299 1:-0.116662 2:0.233852 3:-0.267687 4:-0.0578121 5:-0.531395 6:-0.155224 7:0.196938 8:-0.00347671 9:-0.237726 10:-0.157895 11:-0.0588235 12:-0.125 13:-0.5 14:-0.333333 15:-0.6 16:-0.714286 17:-0.5 18:-0.5 19:-1 30:0.167392 31:-0.499303 32:-0.532167 33:-0.606981 34:-0.904402 35:-0.379429 36:-0.64384 37:-0.139767 38:-0.24868 39:-0.648324 40:-0.889297 41:-0.839516 42:-0.866778 43:-0.937034 44:-0.165385 45:-0.259587 46:-0.318379 47:-0.680183 48:-0.38207 49:-0.728426 50:-0.623728 51:-0.756879 52:-0.568572 53:-0.251904 54:-0.515776 55:-0.864568 56:-0.387662 57:-0.618519 58:-0.751155 59:-0.887226 60:0.209766 61:-0.708511 62:-0.669054 63:-0.577654 64:-0.553617 65:-0.758555 66:-0.574827 67:0.142167 68:-0.770289 69:-0.293852 70:-0.90501 71:-0.38576 72:-0.733239 73:-0.615496 74:-0.302734 75:-0.539326 76:0.415974 77:-0.835652 78:0.217616 79:-0.609166 80:-0.7499 81:-0.220462 82:-0.912841 83:-0.630845 84:-0.74794 85:-0.149482 86:-0.567883 87:-0.610914 88:-0.66735 89:-0.626391 90:-0.669743 91:-0.504662 92:-0.606367 93:-0.347029 94:-0.214345 95:-0.61369 96:-0.896549 97:-0.797358 98:-0.527072 99:-0.726566 100:-0.521422 101:-0.0496532 102:-0.955204 103:-0.607924 104:-0.859149 105:-0.66303 106:-0.891331 107:-0.369695 108:-0.0971187 109:-0.552597 110:-0.165687 111:-0.664873 112:-0.732871 113:-0.615047 114:-0.609153 115:-0.571548 116:-0.64342 117:-0.578544 118:-0.29659 119:-0.589455 120:-0.584925 121:-0.761085 122:-0.819426 123:-0.883734 124:-0.578603 125:-0.121292 126:-0.901803 127:-0.539097 128:-0.610412 129:-0.32199 130:0.187587 131:0.162973 132:-0.448926 133:0.448934 134:0.162973 135:-0.0102767 136:0.0896029 137:-0.401354 138:0.131632 139:-0.00908212 140:-0.258463 141:-1 142:-0.6 143:-0.75 144:-0.555556 145:-0.5 146:-0.285714 148:-0.157895 149:-0.2 150:0.513761 151:-0.76047 152:-0.981544 153:-0.157896 154:-0.058824 155:-0.125001 156:-0.5 157:-0.333335 158:-0.6 159:-0.714285 160:-0.499999 161:-0.499999 162:-1 173:-1 174:-0.599999 175:-0.75 176:-0.555555 177:-0.500002 178:-0.285713 180:-0.157896 181:-0.200001 182:0.513762 
0.1443437042410495 -0.1443437042410495 1:-0.119127 2:0.107347 3:-0.306692 4:-0.0236506 5:-0.469269 6:-0.203306 7:0.184516 8:0.0156528 9:-0.167617 10:-0.0526316 11:-0.0588235 13:-0.375 14:-0.5 15:-0.8 16:-1 17:-1 18:-1 19:-1 30:0.0519519 31:-0.527917 32:-0.556763 33:-0.553131 34:-0.855342 35:-0.528389 36:-0.570515 37:-0.567088 38:0.171708 39:-0.749724 40:-0.862699 41:-0.743269 42:-0.760277 43:-0.964689 44:-0.698978 45:0.104718 46:-0.987932 47:-0.625942 48:-0.434572 49:-0.34623 50:-0.419187 51:-0.886896 52:-0.734648 53:-0.589148 54:-0.39779 55:0.186133 56:-0.66622 57:-0.231683 58:-0.634735 59:-0.664 60:-0.49903 61:-0.0681882 62:-0.643751 63:-0.805859 64:-0.724308 65:-0.884768 66:-0.331489 67:-0.170414 68:-0.338061 69:-0.792466 70:-0.420846 71:-0.258635 72:-0.630467 73:-0.317651 74:-0.337373 75:-0.772359 76:-0.461927 77:-0.783233 78:0.104952 79:-0.719562 80:-0.450569 81:-0.857026 82:-0.714482 83:-0.501849 84:-0.953126 85:-0.619469 86:-0.984857 87:-0.445373 88:-0.525609 89:-0.875827 90:0.00530469 91:-0.627355 92:-0.59647 93:-0.564086 94:-0.49517 95:-0.500067 96:-0.603687 97:-0.636497 98:-0.662871 99:-0.863564 100:-0.752496 101:-0.556013 102:-0.701248 103:-0.586886 104:-0.558309 105:-0.852729 106:-0.659744 107:-0.481387 108:-0.0727291 109:-0.286128 110:-0.171103 111:-0.724984 112:-0.612044 113:-0.478073 114:-0.623535 115:-0.788736 116:-0.75239 117:-0.755444 118:-0.713853 119:-0.668428 120:-0.558608 121:0.235679 122:-0.465378 123:-0.728423 124:-0.544884 125:-0.400623 126:-0.286033 127:-0.752894 128:-0.877932 129:-0.380776 130:0.489658 131:0.53292 132:-0.722631 133:0.722635 134:0.53292 135:-0.101976 136:0.0390345 137:-0.435589 138:0.118196 139:-0.0136013 140:-0.186646 141:-1 142:-1 143:-1 144:-0.333333 145:-0.5 146:-0.285714 148:-0.0526316 149:-0.1 150:0.623853 151:-0.795491 152:-0.978317 153:-0.052632 154:-0.058824 156:-0.375 157:-0.500002 158:-0.8 159:-1 160:-1 161:-1 162:-1 173:-1 174:-1 175:-1 176:-0.333334 177:-0.500002 178:-0.285713 180:-0.052632 181:-0.100001 182:0.623854 
0.8532351860828216 -0.8532351860828216 1:0.0769421 2:0.373565 3:-0.262363 4:0.231586 5:-0.33771 6:-0.177599 7:0.256896 8:-0.0634502 9:0.15284 10:-0.0526316 11:0.0588235 12:0.125 13:-0.25 14:-0.166667 15:-0.4 16:-0.714286 17:-0.5 18:-1 19:-1 30:-0.359969 31:-0.469858 32:-0.928016 33:-0.393416 34:-0.830184 35:-0.817314 36:-0.884571 37:-0.423844 38:-0.451643 39:-0.568183 40:-0.00782518 41:-0.644156 42:-0.887196 43:-0.816883 44:-0.59525 45:-0.905146 46:-0.679401 47:-0.713974 48:-0.722093 49:-0.248165 50:-0.749116 51:-0.851385 52:-0.836166 53:-0.3816 54:-0.906873 55:-0.756232 56:-0.366615 57:-0.690631 58:-0.23046 59:-0.612083 60:-0.182165 61:-0.387966 62:-0.492446 63:-0.437132 64:-0.807541 65:-0.703093 66:-0.542539 67:-0.334949 68:-0.485382 69:-0.822576 70:-0.407203 71:-0.812736 72:-0.991209 73:-0.607343 74:-0.241277 75:-0.68779 76:-0.097524 77:-0.463996 78:-0.543791 79:-0.424527 80:-0.585436 81:-0.649378 82:-0.441586 83:-0.570464 84:-0.878129 85:-0.675298 86:-0.94519 87:-0.712495 88:-0.504623 89:-0.590544 90:-0.377709 91:-0.302179 92:-0.606016 93:-0.258773 94:-0.54536 95:-0.528887 96:-0.565199 97:-0.640638 98:-0.566999 99:-0.529384 100:-0.535245 101:-0.264688 102:-0.609134 103:-0.868616 104:-0.748599 105:-0.541738 106:-0.762398 107:-0.471366 108:-0.120642 109:-0.559924 110:-0.29957 111:-0.635532 112:-0.684584 113:-0.745731 114:-0.481809 115:-0.316306 116:-0.526698 117:-0.674119 118:-0.859806 119:-0.280522 120:-0.761935 121:-0.685622 122:-0.375684 123:-0.814344 124:-0.822962 125:-0.822492 126:-0.695976 127:-0.894733 128:-0.360875 129:0.276377 130:0.587974 131:-0.0039783 132:-0.304935 133:0.304929 134:-0.0039783 135:-0.210492 136:0.162394 137:-0.417288 138:0.196458 139:-0.525809 140:-0.336403 141:-1 142:-1 143:-0.75 144:-0.555556 145:-0.333333 146:-0.142857 147:0.125 148:-0.0526316 149:-0.1 150:0.431193 151:-0.886994 152:-0.977327 153:-0.052632 154:0.058824 155:0.125001 156:-0.25 157:-0.166669 158:-0.400001 159:-0.714285 160:-0.499999 161:-1 162:-1 173:-1 174:-1 175:-0.75 176:-0.555555 177:-0.333335 178:-0.142856 179:0.125001 180:-0.052632 181:-0.100001 182:0.431195 
0.3978536484832285 -0.3978536484832285 1:-0.277297 2:-0.0393059 3:-0.211914 4:-0.196899 5:-0.669781 6:-0.142978 7:0.295757 8:-0.195427 9:0.581745 10:-0.157895 11:-0.176471 12:-0.25 13:-0.5 14:-0.666667 15:-0.8 16:-1 17:-1 18:-1 19:-1 30:-0.720685 31:-0.546032 32:-0.877824 33:-0.833293 34:-0.627986 35:-0.734653 36:-0.917542 37:-0.558342 38:-0.685705 39:-0.86645 40:-0.844954 41:-0.836461 42:-0.934124 43:-0.567578 44:-0.745087 45:-0.755288 46:-0.655364 47:-0.920038 48:-0.716877 49:-0.472652 50:-0.736656 51:-0.718505 52:-0.954542 53:-0.787787 54:-0.631887 55:-0.920131 56:-0.682936 57:-0.805498 58:-0.830594 59:-0.98356 60:-0.65775 61:-0.865649 62:-0.513466 63:-0.466192 64:-0.773577 65:-0.842408 66:-0.785565 67:-0.607231 68:-0.671257 69:-0.886748 70:-0.699301 71:-0.849024 72:-0.675682 73:-0.70266 74:-0.731916 75:-0.530024 76:-0.821787 77:-0.715725 78:-0.511899 79:-0.76176 80:-0.921445 81:-0.727529 82:-0.756595 83:-0.641134 84:-0.78057 85:-0.934233 86:-0.819617 87:-0.775201 88:-0.916923 89:-0.547898 90:-0.888669 91:-0.737395 92:-0.848152 93:-0.674863 94:-0.911551 95:-0.783273 96:-0.653089 97:-0.606925 98:-0.699347 99:-0.915967 100:-0.922108 101:-0.86271 102:-0.761408 103:-0.681731 104:-0.834439 105:-0.858551 106:-0.900204 107:-0.886761 108:-0.464043 109:-0.684702 110:-0.577839 111:-0.735663 112:-0.808852 113:-0.816094 114:-0.796292 115:-0.927165 116:-0.673342 117:-0.881044 118:-0.882967 119:-0.818067 120:-0.771175 121:-0.93315 122:-0.0701583 123:-0.869913 124:-0.871152 125:-0.811919 126:-0.741243 127:-0.907523 128:-0.637015 129:0.685127 130:-0.33548 131:-0.68737 132:0.48081 133:-0.480804 134:-0.68737 135:0.039885 136:-0.0372594 137:-0.392638 138:0.238488 139:-0.413917 140:0.381914 141:-1 142:-1 143:-1 144:-0.555556 145:-0.5 146:-0.285714 147:-0.25 148:-0.157895 149:-0.2 150:0.33945 151:-0.627993 152:-0.98078 153:-0.157896 154:-0.176472 155:-0.25 156:-0.5 157:-0.666667 158:-0.8 159:-1 160:-1 161:-1 162:-1 173:-1 174:-1 175:-1 176:-0.555555 177:-0.500002 178:-0.285713 179:-0.25 180:-0.157896 181:-0.200001 182:0.339451 
1.150442716025519 -1.150442716025519 1:-0.290725 2:-0.0442387 3:-0.154566 4:-0.212339 5:-0.717834 6:-0.0995748 7:0.348747 8:-0.143672 9:0.643666 10:-0.157895 11:-0.0588235 12:-0.25 13:-0.5 14:-0.666667 15:-0.8 16:-1 17:-1 18:-1 19:-1 30:-0.680931 31:-0.551046 32:-0.925693 33:-0.834655 34:-0.702126 35:-0.698302 36:-0.905124 37:-0.553028 38:-0.661029 39:-0.857029 40:-0.901638 41:-0.82667 42:-0.906127 43:-0.558168 44:-0.644746 45:-0.751363 46:-0.900814 47:-0.873165 48:-0.821225 49:-0.455072 50:-0.716737 51:-0.706582 52:-0.895797 53:-0.650135 54:-0.794122 55:-0.899554 56:-0.882205 57:-0.774975 58:-0.850516 59:-0.777357 60:-0.91585 61:-0.841158 62:-0.931658 63:-0.72115 64:-0.813339 65:-0.882238 66:-0.741285 67:-0.742891 68:-0.75903 69:-0.936698 70:-0.871681 71:-1 72:-0.800185 73:-0.917184 74:-0.894162 75:-0.493008 76:-0.733533 77:-0.803562 78:-0.733553 79:-0.82087 80:-0.898839 81:-0.669932 82:-0.637753 83:-0.85618 84:-0.883661 85:-0.620533 86:-0.892703 87:-0.919103 88:-0.830964 89:-0.671433 90:-0.841625 91:-0.487642 92:-0.937327 93:-0.63164 94:-0.691679 95:-0.919915 96:-1 97:-0.823851 98:-0.970472 99:-0.824395 100:-0.87278 101:-0.987636 102:-0.986255 103:-0.914178 104:-0.828941 105:-0.660672 106:-0.875764 107:-0.621017 108:-0.527008 109:-0.832528 110:-0.751336 111:-0.87834 112:-0.955251 113:-0.791974 114:-0.737115 115:-0.844137 116:-0.902597 117:-0.866134 118:-0.607859 119:-0.625077 120:-0.469086 121:-0.685141 122:-0.735788 123:-0.580207 124:-0.846478 125:-0.846288 126:-0.893398 127:-0.843584 128:-0.645239 129:0.717026 130:-0.35911 131:-0.705377 132:0.507233 133:-0.507233 134:-0.705377 135:0.0541143 136:-0.025939 137:-0.36174 138:0.295785 139:-0.412787 140:0.38103 141:-1 142:-1 143:-1 144:-0.555556 145:-0.5 146:-0.285714 147:-0.375 148:-0.157895 149:-0.2 150:0.284404 151:-0.581941 152:-0.981481 153:-0.157896 154:-0.058824 155:-0.25 156:-0.5 157:-0.666667 158:-0.8 159:-1 160:-1 161:-1 162:-1 173:-1 174:-1 175:-1 176:-0.555555 177:-0.500002 178:-0.285713 179:-0.375 180:-0.157896 181:-0.200001 182:0.284402 
0.1841684962017832 -0.1841684962017832 1:-0.262203 2:-0.0408399 3:0.0211398 4:-0.19464 5:-0.801908 6:0.113459 7:0.359535 8:-0.0469138 9:0.954255 10:-0.157895 11:-0.176471 12:-0.125 13:-0.5 14:-0.666667 15:-0.8 16:-1 17:-1 18:-1 19:-1 30:-0.633815 31:-0.690354 32:-0.826491 33:-0.775551 34:-0.70825 35:-0.62185 36:-0.820521 37:-0.778477 38:-0.692352 39:-0.722395 40:-0.816218 41:-0.697137 42:-0.964272 43:-0.811376 44:-0.789943 45:-0.524906 46:-0.878227 47:-0.883046 48:-0.929078 49:-0.748049 50:-0.833374 51:-0.666789 52:-0.8806 53:-0.71931 54:-0.774474 55:-0.889909 56:-0.801913 57:-0.88865 58:-0.867825 59:-0.897149 60:-0.782837 61:-0.88564 62:-0.787457 63:-0.888448 64:-0.815067 65:-0.90981 66:-0.664036 67:-0.916859 68:-0.775295 69:-0.811822 70:-0.840434 71:-0.728314 72:-0.936413 73:-0.954795 74:-0.87778 75:-0.645755 76:-0.74173 77:-0.801917 78:-0.763339 79:-0.899881 80:-0.849828 81:-0.683999 82:-0.924727 83:-0.767176 84:-0.863535 85:-0.898753 86:-0.793532 87:-0.878171 88:-0.932992 89:-0.843877 90:-0.918908 91:-0.888034 92:-0.846583 93:-0.876729 94:-0.761666 95:-0.74125 96:-0.786608 97:-0.841571 98:-0.847356 99:-0.938351 100:-0.969836 101:-0.903232 102:-0.833841 103:-0.814617 104:-0.900275 105:-0.934218 106:-0.915542 107:-0.936613 108:-0.651072 109:-0.800455 110:-0.591913 111:-0.756706 112:-0.67266 113:-0.690823 114:-0.933625 115:-0.86096 116:-0.804261 117:-0.862379 118:-0.792605 119:-0.828522 120:-0.768895 121:-0.690676 122:-0.764467 123:-0.769592 124:-0.858855 125:-0.699224 126:-0.687536 127:-0.743606 128:-0.861649 129:0.762749 130:-0.222436 131:-0.644762 132:0.419728 133:-0.419721 134:-0.644762 135:0.0529644 136:-0.00638294 137:-0.210077 138:0.307452 139:-0.29855 140:0.79317 141:-1 142:-1 143:-1 144:-0.555556 145:-0.333333 146:-0.428571 147:-0.25 148:-0.157895 149:-0.2 150:0.46789 151:-0.508425 152:-0.988594 153:-0.157896 154:-0.176472 155:-0.125001 156:-0.5 157:-0.666667 158:-0.8 159:-1 160:-1 161:-1 162:-1 173:-1 174:-1 175:-1 176:-0.555555 177:-0.333335 178:-0.428571 179:-0.25 180:-0.157896 181:-0.200001 182:0.46789 
1.448099107303668 -1.448099107303668 1:-0.362542 2:-0.0636778 3:-0.0677056 4:-0.20739 5:-0.764957 6:0.0707502 7:0.250255 8:-0.117525 9:0.794879 10:-0.368421 11:-0.411765 12:-0.375 13:-0.625 14:-0.5 15:-0.8 16:-1 17:-1 18:-1 19:-1 30:-0.633224 31:-0.716103 32:-0.774774 33:-0.78477 34:-0.667339 35:-0.715899 36:-0.851461 37:-0.771086 38:-0.761886 39:-0.737506 40:-0.798257 41:-0.756404 42:-0.847141 43:-0.855631 44:-0.853366 45:-0.659245 46:-0.760506 47:-0.819826 48:-0.910666 49:-0.798871 50:-0.758073 51:-0.73211 52:-0.977942 53:-0.782195 54:-0.681248 55:-0.929307 56:-0.6866 57:-0.854838 58:-0.957822 59:-0.912529 60:-0.763586 61:-0.850597 62:-0.779519 63:-0.660353 64:-0.84056 65:-0.901154 66:-0.855161 67:-0.964072 68:-0.897643 69:-0.821328 70:-0.831233 71:-0.649894 72:-0.921149 73:-0.930468 74:-0.663042 75:-0.67285 76:-0.803404 77:-0.73482 78:-0.648108 79:-0.983719 80:-0.682757 81:-0.936615 82:-0.862389 83:-0.786988 84:-0.844492 85:-0.817088 86:-0.847847 87:-0.949352 88:-0.827981 89:-0.866133 90:-0.810391 91:-0.87692 92:-0.871425 93:-0.894919 94:-0.74651 95:-0.722215 96:-0.819616 97:-0.771472 98:-0.822498 99:-0.938909 100:-0.919888 101:-0.974636 102:-0.828814 103:-0.933954 104:-0.75116 105:-0.953563 106:-0.927789 107:-0.931391 108:-0.888031 109:-0.837386 110:-0.651288 111:-0.909226 112:-0.600246 113:-0.75271 114:-0.799175 115:-0.729836 116:-0.859065 117:-0.854858 118:-0.857486 119:-0.923782 120:-0.704091 121:-0.624515 122:-0.886328 123:-0.837931 124:-0.868833 125:-0.891199 126:-0.755105 127:-0.808942 128:-0.902395 129:0.706104 130:-0.211887 131:-0.627703 132:0.395837 133:-0.395826 134:-0.627703 135:0.273015 136:-0.184361 137:-0.240484 138:0.189282 139:-0.422224 140:0.481919 141:-1 142:-1 143:-1 144:-0.777778 145:-0.5 146:-0.571429 147:-0.5 148:-0.368421 149:-0.4 150:0.449541 151:-0.54063 152:-0.987103 153:-0.368422 154:-0.411765 155:-0.375 156:-0.625 157:-0.500002 158:-0.8 159:-1 160:-1 161:-1 162:-1 173:-1 174:-1 175:-1 176:-0.777778 177:-0.500002 178:-0.571428 179:-0.5 180:-0.368422 181:-0.400001 182:0.449543 
1.314732170467288 -1.314732170467288 1:-0.472811 2:-0.205832 3:-0.11577 4:-0.325907 5:-0.807993 6:0.0340728 7:0.204519 8:-0.151459 9:0.690121 10:-0.473684 11:-0.411765 12:-0.5 13:-0.75 14:-0.666667 15:-1 16:-1 17:-1 18:-1 19:-1 30:-0.599855 31:-0.595994 32:-0.712686 33:-0.641844 34:-0.814203 35:-0.793435 36:-0.908588 37:-0.953468 38:-0.772899 39:-0.867928 40:-0.805322 41:-0.828754 42:-0.89457 43:-0.832469 44:-0.782073 45:-0.743694 46:-0.725327 47:-0.813733 48:-0.532673 49:-0.928607 50:-0.847367 51:-0.815645 52:-0.943018 53:-0.928115 54:-0.949808 55:-0.916605 56:-0.924625 57:-0.964584 58:-0.872676 59:-0.914122 60:-0.733348 61:-0.746914 62:-0.977627 63:-0.696582 64:-0.713075 65:-0.933445 66:-0.702398 67:-0.816882 68:-0.904109 69:-0.837113 70:-0.920766 71:-0.953258 72:-0.916296 73:-0.876559 74:-0.742838 75:-0.825814 76:-0.741672 77:-0.724084 78:-0.956144 79:-0.748836 80:-0.936138 81:-0.855242 82:-0.766406 83:-0.73151 84:-0.847099 85:-0.878517 86:-0.977324 87:-0.921388 88:-0.969299 89:-0.867835 90:-0.883157 91:-0.814252 92:-0.918412 93:-0.873623 94:-0.74862 95:-0.803826 96:-0.96477 97:-0.807529 98:-0.849557 99:-0.91661 100:-0.86944 101:-0.896257 102:-0.918597 103:-0.873685 104:-0.932072 105:-0.834369 106:-0.908605 107:-0.776171 108:-0.731681 109:-0.846968 110:-0.59394 111:-0.94553 112:-0.677928 113:-0.971749 114:-0.79603 115:-0.817981 116:-0.962448 117:-0.856206 118:-0.877789 119:-0.79293 120:-0.724921 121:-0.926599 122:-0.687267 123:-0.928234 124:-0.966093 125:-0.692968 126:-0.833001 127:-0.787237 128:-0.787637 129:0.406045 130:-0.144258 131:-0.513555 132:0.24363 133:-0.243621 134:-0.513555 135:0.345167 136:-0.257434 137:-0.266594 138:0.139823 139:-0.206462 140:0.828969 141:-1 142:-1 143:-1 144:-0.777778 145:-0.666667 146:-0.571429 147:-0.5 148:-0.473684 149:-0.5 150:0.669725 151:-0.411456 152:-0.984262 153:-0.473685 154:-0.411765 155:-0.5 156:-0.75 157:-0.666667 158:-1 159:-1 160:-1 161:-1 162:-1 173:-1 174:-1 175:-1 176:-0.777778 177:-0.666667 178:-0.571428 179:-0.5 180:-0.473685 181:-0.500001 182:0.669726 
0.8811466609570811 -0.8811466609570811 1:-0.468521 2:-0.217597 3:-0.17074 4:-0.321204 5:-0.775234 6:-0.00789874 7:0.154594 8:-0.185253 9:0.559849 10:-0.473684 11:-0.411765 12:-0.5 13:-0.75 14:-0.666667 15:-1 16:-1 17:-1 18:-1 19:-1 30:-0.63392 31:-0.601562 32:-0.693526 33:-0.678122 34:-0.775653 35:-0.79172 36:-0.90218 37:-0.913914 38:-0.72503 39:-0.846688 40:-0.745918 41:-0.875774 42:-0.866687 43:-0.798458 44:-0.81211 45:-0.876174 46:-0.810799 47:-0.782532 48:-0.724408 49:-0.808903 50:-0.77878 51:-0.911808 52:-0.867292 53:-0.768647 54:-0.986541 55:-0.843967 56:-0.677699 57:-0.856245 58:-0.75282 59:-0.807635 60:-0.912082 61:-0.898943 62:-0.946551 63:-0.972501 64:-0.934765 65:-0.842451 66:-0.734867 67:-0.757324 68:-0.758383 69:-0.833183 70:-0.663504 71:-0.691851 72:-0.871478 73:-0.809556 74:-0.493941 75:-0.920922 76:-0.79413 77:-0.609773 78:-0.834642 79:-0.90095 80:-0.886154 81:-0.70101 82:-0.94626 83:-0.807168 84:-0.710926 85:-0.779813 86:-0.869185 87:-0.823132 88:-0.915624 89:-0.711461 90:-0.73309 91:-0.789987 92:-0.884989 93:-0.686706 94:-0.737699 95:-0.955329 96:-0.681099 97:-0.804201 98:-0.913324 99:-0.888662 100:-0.736636 101:-0.818994 102:-0.851726 103:-0.850688 104:-0.810699 105:-0.776859 106:-0.968921 107:-0.922878 108:-0.630216 109:-0.837326 110:-0.873404 111:-0.687951 112:-0.673086 113:-0.785796 114:-0.958783 115:-0.647418 116:-0.966779 117:-0.8898 118:-0.705476 119:-0.81053 120:-0.759356 121:-0.88914 122:-0.645344 123:-0.867936 124:-0.914739 125:-0.817493 126:-0.729583 127:-0.754367 128:-0.910196 129:0.352853 130:-0.0847829 131:-0.460442 132:0.177064 133:-0.177061 134:-0.460442 135:0.325189 136:-0.272541 137:-0.296475 138:0.0858414 139:-0.228022 140:0.680105 141:-1 142:-1 143:-1 144:-0.777778 145:-0.666667 146:-0.571429 147:-0.5 148:-0.473684 149:-0.5 150:0.825688 151:-0.456089 152:-0.980085 153:-0.473685 154:-0.411765 155:-0.5 156:-0.75 157:-0.666667 158:-1 159:-1 160:-1 161:-1 162:-1 173:-1 174:-1 175:-1 176:-0.777778 177:-0.666667 178:-0.571428 179:-0.5 180:-0.473685 181:-0.500001 182:0.825689 
4.854167545883785 -4.854167545883785 1:-0.48981 2:-0.00958428 3:-0.594555 4:-0.459074 5:-0.49483 6:-0.369561 7:-0.334344 8:-0.467557 9:-0.0411593 10:-0.578947 11:-0.647059 12:-0.625 13:-0.625 14:-0.666667 15:-0.6 16:-0.428571 17:-0.5 18:-1 19:-1 30:-0.574338 31:-0.575888 32:-0.887364 33:-0.760141 34:-0.743354 35:-0.734073 36:-0.901541 37:-0.874292 38:-0.723844 39:-0.857154 40:-0.828214 41:-0.688477 42:-0.85063 43:-0.842713 44:-0.657261 45:-0.472863 46:-0.893136 47:-0.921 48:-0.741109 49:-0.73571 50:-0.710697 51:-0.841219 52:-0.903861 53:-0.93443 54:-0.613876 55:-0.69619 56:-0.875901 57:-0.787107 58:-0.772784 59:-0.8175 60:-0.954429 61:-0.620482 62:-0.965885 63:-0.923004 64:-0.731458 65:-0.84571 66:-0.860784 67:-0.772459 68:-0.761103 69:-0.902725 70:-0.843548 71:-0.840402 72:-0.971201 73:-0.615422 74:-0.913085 75:-0.849809 76:-0.772414 77:-0.542223 78:-0.81151 79:-0.946332 80:-0.83467 81:-0.803749 82:-0.919729 83:-0.832003 84:-0.860043 85:-0.805798 86:-0.954733 87:-0.878337 88:-0.883118 89:-0.72274 90:-0.947212 91:-0.945732 92:-0.872035 93:-0.777502 94:-0.916499 95:-0.913895 96:-0.744514 97:-0.895429 98:-0.790615 99:-0.878108 100:-0.858906 101:-0.76499 102:-0.975958 103:-0.990625 104:-0.852129 105:-0.800429 106:-0.989567 107:-0.917427 108:-0.822234 109:-0.765158 110:-0.985228 111:-0.902225 112:-0.942236 113:-0.806593 114:-0.883249 115:-0.874153 116:-0.723365 117:-0.751834 118:-0.948867 119:-0.937893 120:-0.796932 121:-0.772702 122:-0.787361 123:-0.840346 124:-0.861053 125:-0.914307 126:-0.854254 127:-0.957647 128:-0.882669 129:0.306156 130:-0.661707 131:-0.805987 132:0.662104 133:-0.662098 134:-0.805987 135:0.403378 136:-0.0789809 137:-0.553945 138:-0.442863 139:-0.642009 140:-0.32505 141:-1 142:-1 143:-0.75 144:-0.333333 145:-0.5 146:-0.571429 147:-0.5 148:-0.578947 149:-0.6 150:0.587156 151:-0.596936 152:-0.912086 153:-0.578948 154:-0.647059 155:-0.625 156:-0.625 157:-0.666667 158:-0.6 159:-0.42857 160:-0.499999 161:-1 162:-1 173:-1 174:-1 175:-0.75 176:-0.333334 177:-0.500002 178:-0.571428 179:-0.5 180:-0.578948 181:-0.600001 182:0.587159 
0.1832683598394321 -0.1832683598394321 1:-0.216842 2:0.264626 3:-0.562861 4:-0.200485 5:-0.271808 6:-0.330618 7:-0.298547 8:-0.408934 9:-0.0154134 10:-0.368421 11:-0.294118 12:-0.375 13:-0.375 14:-0.333333 15:-0.2 16:0.142857 17:-0.5 18:-1 19:-1 30:-0.00690278 31:-0.362024 32:-0.254489 33:-0.732857 34:-0.812819 35:-0.569571 36:-0.756241 37:-0.730064 38:-0.627781 39:-0.638142 40:-0.549999 41:-0.503229 42:-0.69614 43:-0.828517 44:-0.698871 45:-0.697063 46:-0.433943 47:-0.37896 48:-0.661997 49:-0.579153 50:-0.676501 51:-0.583924 52:-0.971565 53:-0.834042 54:-0.834853 55:-0.396901 56:-0.35196 57:-0.717715 58:-0.786185 59:-0.784492 60:-0.771981 61:-0.779135 62:-0.567315 63:-0.0554894 64:-0.550018 65:-0.827792 66:-0.770084 67:-0.533609 68:-0.735138 69:-0.904536 70:-0.203325 71:-0.883608 72:-0.574554 73:-0.792017 74:-0.738857 75:-0.868297 76:-0.843756 77:-0.74039 78:-0.000242078 79:-0.812928 80:-0.820313 81:-0.694 82:-0.745937 83:-0.847655 84:-0.77312 85:-0.556753 86:-0.561787 87:-0.807198 88:-0.755901 89:-0.724781 90:-0.450893 91:-0.620672 92:-0.809102 93:-0.430089 94:-0.378578 95:-0.372197 96:-0.553113 97:-0.843966 98:-0.744619 99:-0.894573 100:-0.770649 101:-0.220279 102:-0.48454 103:-0.69271 104:-0.973252 105:-0.851877 106:-0.808451 107:-0.713128 108:-0.350471 109:-0.484606 110:-0.588268 111:-0.662488 112:-0.781089 113:-0.59421 114:-0.834593 115:-0.740305 116:-0.909707 117:-0.362711 118:-0.849878 119:-0.912463 120:-0.697561 121:-0.554268 122:-0.885266 123:-0.611529 124:-0.593686 125:-0.587207 126:-0.851172 127:-0.743136 128:-0.695999 129:0.200559 130:-0.808367 131:-0.885517 132:0.793883 133:-0.793879 134:-0.885517 135:0.151419 136:0.13117 137:-0.526219 138:-0.404155 139:-0.626478 140:-0.334892 141:-1 142:-1 143:-0.75 144:0.111111 145:-0.166667 146:-0.285714 147:-0.25 148:-0.368421 149:-0.4 150:0.623853 151:-0.809929 152:-0.929491 153:-0.368422 154:-0.294118 155:-0.375 156:-0.375 157:-0.333335 158:-0.200001 159:0.142859 160:-0.499999 161:-1 162:-1 173:-1 174:-1 175:-0.75 176:0.11111 177:-0.166669 178:-0.285713 179:-0.25 180:-0.368422 181:-0.400001 182:0.623854 
1.103155538549956 -1.103155538549956 1:-0.237736 2:0.224197 3:-0.455597 4:-0.198134 5:-0.435266 6:-0.185531 7:-0.270224 8:-0.280114 9:-0.0770998 10:-0.368421 11:-0.294118 12:-0.5 13:-0.5 14:-0.333333 15:-0.2 16:-0.428571 17:-0.5 18:-1 19:-1 30:-0.0215624 31:-0.410434 32:-0.260788 33:-0.724245 34:-0.767989 35:-0.624102 36:-0.847486 37:-0.819139 38:-0.659264 39:-0.610839 40:-0.680415 41:-0.483673 42:-0.945041 43:-0.773234 44:-0.723999 45:-0.568318 46:-0.568732 47:-0.699689 48:-0.24056 49:-0.613387 50:-0.539083 51:-0.712869 52:-0.896191 53:-0.953851 54:-0.71065 55:-0.524833 56:-0.396886 57:-0.903193 58:-0.641894 59:-0.696979 60:-0.767766 61:-0.865138 62:-0.554059 63:-0.799151 64:-0.0862717 65:-0.937542 66:-0.821283 67:-0.708568 68:-0.8893 69:-0.884594 70:-0.670012 71:-0.32906 72:-0.707622 73:-0.60309 74:-0.695149 75:-0.963606 76:-0.833452 77:-0.670005 78:-0.273929 79:-0.684638 80:-0.783517 81:-0.728147 82:-0.812383 83:-0.649944 84:-0.860703 85:-0.78592 86:-0.807905 87:-0.460295 88:-0.955399 89:-0.469868 90:-0.58052 91:-0.815007 92:-0.865022 93:-0.651279 94:-0.601826 95:-0.509325 96:-0.394843 97:-0.799809 98:-0.776511 99:-0.821556 100:-0.862302 101:-0.799172 102:-0.57816 103:-0.427781 104:-0.717835 105:-0.973071 106:-0.950571 107:-0.855362 108:-0.530945 109:-0.713643 110:-0.260015 111:-0.820146 112:-0.669627 113:-0.888373 114:-0.773831 115:-0.658288 116:-0.735128 117:-0.934508 118:-0.5103 119:-0.633045 120:-0.764004 121:-0.748263 122:-0.423468 123:-0.87176 124:-0.764222 125:-0.972193 126:-0.341401 127:-0.842556 128:-0.746924 129:0.263667 130:-0.787647 131:-0.879845 132:0.78418 133:-0.784187 134:-0.879845 135:0.169529 136:0.0826617 137:-0.422931 138:-0.373527 139:-0.590853 140:-0.458583 141:-1 142:-1 143:-0.75 144:-0.111111 145:-0.166667 146:-0.285714 147:-0.25 148:-0.368421 149:-0.4 150:0.908257 151:-0.754939 152:-0.959579 153:-0.368422 154:-0.294118 155:-0.5 156:-0.5 157:-0.333335 158:-0.200001 159:-0.42857 160:-0.499999 161:-1 162:-1 173:-1 174:-1 175:-0.75 176:-0.111112 177:-0.166669 178:-0.285713 179:-0.25 180:-0.368422 181:-0.400001 182:0.908256 
0.8842000103549192 -0.8842000103549192 1:-0.528341 2:-0.159881 3:-0.426122 4:-0.447079 5:-0.681832 6:-0.139689 7:-0.296571 8:-0.245823 9:-0.194584 10:-0.473684 11:-0.529412 12:-0.75 13:-0.75 14:-0.666667 15:-0.6 16:-0.714286 17:-1 18:-1 19:-1 30:-0.590036 31:-0.556067 32:-0.858975 33:-0.790759 34:-0.920435 35:-0.751346 36:-0.878977 37:-0.972679 38:-0.87863 39:-0.754715 40:-0.820269 41:-0.754721 42:-0.977472 43:-0.783696 44:-0.911252 45:-0.549501 46:-0.761726 47:-0.941057 48:-0.951345 49:-0.590702 50:-0.918962 51:-0.811867 52:-0.923417 53:-0.839365 54:-0.89856 55:-0.643052 56:-0.713209 57:-0.813652 58:-0.778777 59:-0.779607 60:-0.716155 61:-0.951879 62:-0.754142 63:-0.723468 64:-0.856048 65:-0.937474 66:-0.640479 67:-0.922698 68:-0.741882 69:-0.866346 70:-0.936609 71:-0.891345 72:-0.875844 73:-0.728746 74:-0.654283 75:-0.850337 76:-0.732742 77:-0.746077 78:-0.875348 79:-0.785224 80:-0.944625 81:-0.782638 82:-0.935068 83:-0.721124 84:-0.861743 85:-0.708018 86:-0.957548 87:-0.928277 88:-0.916063 89:-0.670496 90:-0.788458 91:-0.680408 92:-0.983418 93:-0.594363 94:-0.943161 95:-0.869725 96:-0.788369 97:-0.926254 98:-0.638224 99:-0.903476 100:-0.883944 101:-0.623767 102:-0.726895 103:-0.740768 104:-0.956631 105:-0.799903 106:-0.920239 107:-0.802424 108:-0.800508 109:-0.8198 110:-0.836662 111:-0.940856 112:-0.798579 113:-0.725892 114:-0.96462 115:-0.74601 116:-0.813912 117:-0.872871 118:-0.636955 119:-0.967058 120:-0.91899 121:-0.863656 122:-0.800783 123:-0.806199 124:-0.873893 125:-0.891477 126:-0.814816 127:-0.925803 128:-0.852101 129:0.391407 130:-0.58442 131:-0.772852 132:0.609703 133:-0.609701 134:-0.772852 135:0.427668 136:-0.19692 137:-0.390292 138:-0.402015 139:-0.590393 140:-0.59084 141:-1 142:-1 143:-1 144:-0.555556 145:-0.666667 146:-0.571429 147:-0.375 148:-0.473684 149:-0.5 150:0.568807 151:-0.458616 152:-0.969437 153:-0.473685 154:-0.529412 155:-0.75 156:-0.75 157:-0.666667 158:-0.6 159:-0.714285 160:-1 161:-1 162:-1 173:-1 174:-1 175:-1 176:-0.555555 177:-0.666667 178:-0.571428 179:-0.375 180:-0.473685 181:-0.500001 182:0.568811 
7.380385319300325 -7.380385319300325 1:-0.622959 2:-0.170413 3:-0.120188 4:-0.501785 5:-0.909652 6:0.0875527 7:0.0877918 8:0.257121 9:0.0322356 10:-0.684211 11:-0.764706 12:-0.75 13:-0.75 14:-0.666667 15:-0.8 16:-0.714286 17:-0.5 18:-1 19:-1 30:-0.687727 31:-0.64359 32:-0.5704 33:-0.825235 34:-0.824653 35:-0.877541 36:-0.942 37:-0.822176 38:-0.864977 39:-0.785665 40:-0.829367 41:-0.902163 42:-0.784305 43:-0.781239 44:-0.835681 45:-0.90256 46:-0.797324 47:-0.852518 48:-0.77319 49:-0.713587 50:-0.768814 51:-0.814646 52:-0.876694 53:-0.84823 54:-0.864142 55:-0.882184 56:-0.823602 57:-0.878602 58:-0.714665 59:-0.902472 60:-0.679462 61:-0.874695 62:-0.766491 63:-0.962586 64:-0.779694 65:-0.829329 66:-0.981499 67:-0.887684 68:-0.781123 69:-0.907372 70:-0.735531 71:-0.875206 72:-0.912579 73:-0.723368 74:-0.904063 75:-0.873672 76:-0.869971 77:-0.766174 78:-0.780705 79:-0.835971 80:-0.887419 81:-0.896091 82:-0.791474 83:-0.815888 84:-0.921137 85:-0.908378 86:-0.874956 87:-0.854913 88:-0.955951 89:-0.815024 90:-0.722831 91:-0.86454 92:-0.835684 93:-0.928401 94:-0.855151 95:-0.795624 96:-0.63864 97:-0.711511 98:-0.743652 99:-0.883699 100:-0.884168 101:-0.797846 102:-0.875836 103:-0.90357 104:-0.838742 105:-0.958803 106:-0.870106 107:-0.919692 108:-0.839485 109:-0.547683 110:-0.901956 111:-0.839902 112:-0.814467 113:-0.922706 114:-0.85512 115:-0.876364 116:-0.914743 117:-0.890169 118:-0.811302 119:-0.884363 120:-0.792985 121:-0.822998 122:-0.893876 123:-0.724679 124:-0.973116 125:-0.815033 126:-0.738576 127:-0.847269 128:-0.741316 129:0.030356 130:-0.0599682 131:-0.30839 132:-0.000166528 133:0.000160422 134:-0.30839 135:0.657204 136:-0.289811 137:-0.228522 138:0.0136042 139:0.479687 140:0.339131 141:-1 142:-1 143:-0.75 144:-0.777778 145:-0.666667 146:-0.714286 147:-0.625 148:-0.684211 149:-0.7 150:0.275229 151:-0.0310387 152:-0.96334 153:-0.684211 154:-0.764706 155:-0.75 156:-0.75 157:-0.666667 158:-0.8 159:-0.714285 160:-0.499999 161:-1 162:-1 173:-1 174:-1 175:-0.75 176:-0.777778 177:-0.666667 178:-0.714285 179:-0.625 180:-0.684211 181:-0.700001 182:0.275232 
0.09871811564532565 -0.09871811564532565 1:-0.041905 2:0.325053 3:0.0765912 4:0.0403753 5:-0.709652 6:0.242169 7:0.244442 8:0.0927758 9:0.157672 10:-0.263158 11:-0.294118 12:-0.25 13:-0.25 15:-0.2 16:-0.714286 17:-0.5 18:-1 19:-1 30:-0.394046 31:-0.7656 32:-0.483534 33:-0.498484 34:-0.411427 35:-0.630592 36:-0.87755 37:-0.950909 38:-0.755542 39:-0.843936 40:-0.859233 41:-0.843674 42:-0.72397 43:-0.746027 44:-0.463926 45:-0.562222 46:-0.912123 47:-0.857892 48:-0.706614 49:-0.577667 50:-0.643257 51:-0.808355 52:-0.85013 53:-0.647606 54:-0.253668 55:-0.750119 56:-0.738816 57:-0.927061 58:-0.666643 59:-0.952932 60:-0.810915 61:-0.870665 62:-0.771969 63:-0.48103 64:-0.532392 65:-0.803957 66:-0.642208 67:-0.622434 68:-0.5944 69:-0.79188 70:-0.731622 71:-0.800894 72:-0.715256 73:-0.892848 74:-0.165354 75:-0.715915 76:-0.705102 77:-0.599599 78:-0.319705 79:-0.830518 80:-0.790524 81:-0.810617 82:-0.907056 83:-0.617377 84:-0.818239 85:-0.432349 86:-0.792948 87:-0.907135 88:-0.916363 89:-0.783634 90:-0.931633 91:-0.353308 92:-0.758862 93:-0.866044 94:-0.606564 95:-0.439713 96:-0.718528 97:-0.813838 98:-0.887459 99:-0.801331 100:-0.681835 101:-0.730301 102:-0.893377 103:-0.782732 104:-0.582224 105:-0.289653 106:-0.716916 107:-0.787562 108:-0.823305 109:-0.680799 110:-0.261132 111:-0.926582 112:-0.94856 113:-0.828256 114:-0.511309 115:-0.74765 116:-0.517565 117:-0.932984 118:-0.579738 119:-0.656484 120:-0.636361 121:-0.77677 122:-0.330615 123:-0.630872 124:-0.62778 125:-0.663979 126:-0.771742 127:-0.306209 128:-0.635781 129:0.623717 130:-0.141195 131:-0.571709 132:0.319545 133:-0.319536 134:-0.571709 135:-0.0115702 136:0.113147 137:-0.118446 138:0.182997 139:-0.452588 140:-0.353848 141:-1 142:-1 143:-0.75 144:-0.555556 146:-0.142857 147:-0.125 148:-0.263158 149:-0.2 150:0.587156 151:-0.694545 152:-0.977063 153:-0.26316 154:-0.294118 155:-0.25 156:-0.25 157:-2.26666e-06 158:-0.200001 159:-0.714285 160:-0.499999 161:-1 162:-1 173:-1 174:-1 175:-0.75 176:-0.555555 177:-2.26666e-06 178:-0.142856 179:-0.125001 180:-0.26316 181:-0.200001 182:0.587159 
