svm_type one_against_all
kernel_type rbf
trainOnlyClass -1
gamma 0.177828
nr_class 2
nr_hyp 2
total_sv 176
rho -0.90913 0.90913
omegaNorm 9.59025 9.59025
avgDistP 0.106825 0.1157
avgDistN 0.1157 0.106825
avgFP 1.02448 1.10959
avgFN 1.10959 1.02448
label 1 2
nr_sv 141 35
SV
0.02041817703372812 -0.02041817703372812 1:-0.502651 2:-0.39836 3:0.714038 4:-0.489201 5:-0.894254 6:0.884128 7:0.290126 8:0.143482 9:0.301893 10:-0.368421 11:-0.529412 12:-0.466667 13:-0.538462 14:-0.538462 15:-0.538462 16:-0.538462 17:-0.5 18:-0.454545 19:-0.818182 20:-0.777778 21:-1 22:-1 23:-1 24:-1 25:-1 26:-1 27:-1 28:-1 29:-1 30:-1 32:-0.470244 33:-0.357512 34:-0.536414 35:-0.901278 36:-0.939965 37:-0.897373 38:-0.95905 39:-0.764851 40:-0.738461 41:-0.732206 42:-0.650696 43:-0.811155 44:-0.969728 45:-0.82113 46:-0.853893 47:-0.91356 48:-0.660687 49:-0.836066 50:-0.637049 51:-0.810161 52:-0.656332 53:-0.601754 54:-0.817657 55:-0.867638 56:-0.689756 57:-0.495871 58:-0.644439 59:-0.964032 60:-0.889598 61:-0.681219 62:-0.640302 63:-0.948525 64:-0.805318 65:-0.743822 66:-0.812095 67:-0.691579 68:-0.88669 69:-0.647915 70:-0.895958 71:-0.650149 72:-0.687458 73:-0.548077 74:-0.679807 75:-0.567177 76:-0.76447 77:-0.511429 78:-0.532671 79:-0.30788 80:-0.649696 81:-0.504026 82:-0.446375 83:-0.408855 84:-0.221949 85:-0.594882 86:-0.478548 87:-0.605958 88:-0.332771 89:-0.482226 90:-0.425037 91:-0.509189 92:-0.708681 93:-0.796606 94:-0.784285 95:-0.835405 96:-0.977713 97:-0.657346 98:-0.907386 99:-0.573218 100:-0.898048 101:-0.554066 102:-0.622676 103:-0.48866 104:-0.716264 105:-0.709188 106:-0.877955 107:-0.902457 108:-0.572793 109:-0.78409 110:-0.865215 111:-0.900566 112:-0.841384 113:-0.667842 114:-0.752091 115:-0.888369 116:-0.876835 117:-0.846843 118:-0.806875 119:-0.957469 120:-0.984294 121:-0.901666 122:-0.667827 123:-0.636223 124:-0.789673 125:-0.758887 126:-0.678253 127:-0.830298 128:-0.723585 129:-0.770354 130:-0.78469 131:-0.211108 132:0.428226 133:-0.0276635 134:-0.364628 135:0.296261 136:-0.0276635 137:0.556698 138:-0.399716 139:-0.228733 140:0.316524 141:0.204174 142:0.613688 143:-0.84 144:-0.76 145:-0.76 146:-0.76 147:-0.769231 148:-0.769231 149:-0.703704 150:-0.62963 151:-0.714286 152:-0.547438 153:-0.655208 154:-0.36842 155:-0.529412 156:-0.466665 157:-0.538462 158:-0.538462 159:-0.538462 160:-0.538462 161:-0.499998 162:-0.454544 163:-0.818181 164:-0.777778 165:-1 166:-1 167:-1 168:-1 169:-1 170:-1 171:-1 172:-1 173:-1 174:-1 176:-0.84 177:-0.76 178:-0.76 179:-0.76 180:-0.76923 181:-0.76923 182:-0.703704 183:-0.62963 184:-0.714286 
0.02582644453377628 -0.02582644453377628 1:-0.501612 2:-0.399754 3:0.726561 4:-0.487847 5:-0.896035 6:0.89321 7:0.295536 8:0.153196 9:0.305664 10:-0.368421 11:-0.529412 12:-0.466667 13:-0.538462 14:-0.538462 15:-0.538462 16:-0.538462 17:-0.5 18:-0.454545 19:-0.818182 20:-0.777778 21:-1 22:-1 23:-1 24:-1 25:-1 26:-1 27:-1 28:-1 29:-1 30:-1 32:-0.464986 33:-0.365183 34:-0.532447 35:-0.908085 36:-0.936733 37:-0.894996 38:-0.961299 39:-0.764522 40:-0.737325 41:-0.741764 42:-0.647977 43:-0.807599 44:-0.954242 45:-0.832909 46:-0.855657 47:-0.911924 48:-0.654677 49:-0.856144 50:-0.660828 51:-0.785295 52:-0.649256 53:-0.60646 54:-0.828832 55:-0.864481 56:-0.714919 57:-0.480315 58:-0.699949 59:-0.960775 60:-0.944414 61:-0.695579 62:-0.654057 63:-0.932088 64:-0.780067 65:-0.784885 66:-0.737027 67:-0.707544 68:-0.849036 69:-0.543217 70:-0.781326 71:-0.872734 72:-0.524185 73:-0.645041 74:-0.894319 75:-0.682661 76:-0.454892 77:-0.602221 78:-0.641554 79:-0.351805 80:-0.718827 81:-0.800587 82:-0.369488 83:-0.463568 84:-0.414947 85:-0.661809 86:-0.425839 87:-0.906874 88:-0.409833 89:-0.707141 90:-0.663935 91:-0.683269 92:-0.777671 93:-0.9019 94:-0.850254 95:-0.92855 96:-0.892096 97:-0.467259 98:-0.596283 99:-0.898871 100:-0.770316 101:-0.666581 102:-0.770865 103:-0.764044 104:-0.941098 105:-0.86593 106:-0.688875 107:-0.530069 108:-0.963841 109:-0.804484 110:-0.716698 111:-0.806422 112:-0.780994 113:-0.806469 114:-0.799049 115:-0.691064 116:-0.773237 117:-0.835705 118:-0.774684 119:-0.626386 120:-0.61391 121:-0.604418 122:-0.588322 123:-0.568422 124:-0.538319 125:-0.737253 126:-0.835847 127:-0.62716 128:-0.699001 129:-0.961974 130:-0.896547 131:-0.208634 132:0.42537 133:-0.0321966 134:-0.360887 135:0.292116 136:-0.0321966 137:0.554337 138:-0.399325 139:-0.223738 140:0.32772 141:0.220584 142:0.628005 143:-0.84 144:-0.76 145:-0.76 146:-0.76 147:-0.769231 148:-0.769231 149:-0.703704 150:-0.62963 151:-0.642857 152:-0.546156 153:-0.657394 154:-0.36842 155:-0.529412 156:-0.466665 157:-0.538462 158:-0.538462 159:-0.538462 160:-0.538462 161:-0.499998 162:-0.454544 163:-0.818181 164:-0.777778 165:-1 166:-1 167:-1 168:-1 169:-1 170:-1 171:-1 172:-1 173:-1 174:-1 176:-0.84 177:-0.76 178:-0.76 179:-0.76 180:-0.76923 181:-0.76923 182:-0.703704 183:-0.62963 184:-0.642857 
0.008137051346928714 -0.008137051346928714 1:-0.498077 2:-0.39945 3:0.725226 4:-0.484711 5:-0.893969 6:0.891723 7:0.295561 8:0.152828 9:0.30539 10:-0.368421 11:-0.529412 12:-0.466667 13:-0.538462 14:-0.538462 15:-0.538462 16:-0.538462 17:-0.5 18:-0.454545 19:-0.818182 20:-0.777778 21:-1 22:-1 23:-1 24:-1 25:-1 26:-1 27:-1 28:-1 29:-1 30:-1 32:-0.476004 33:-0.360962 34:-0.540932 35:-0.897246 36:-0.937868 37:-0.895797 38:-0.95055 39:-0.761939 40:-0.747564 41:-0.725584 42:-0.673196 43:-0.785691 44:-0.953937 45:-0.824898 46:-0.893621 47:-0.894336 48:-0.690795 49:-0.806686 50:-0.626422 51:-0.818531 52:-0.632132 53:-0.591363 54:-0.830437 55:-0.855556 56:-0.69204 57:-0.587832 58:-0.573633 59:-0.944459 60:-0.93831 61:-0.707798 62:-0.631291 63:-0.977842 64:-0.810524 65:-0.748319 66:-0.858435 67:-0.652201 68:-0.839198 69:-0.677088 70:-0.92403 71:-0.58366 72:-0.761963 73:-0.551394 74:-0.626121 75:-0.62818 76:-0.904362 77:-0.51369 78:-0.522181 79:-0.51162 80:-0.559008 81:-0.492371 82:-0.630887 83:-0.478775 84:-0.193138 85:-0.617884 86:-0.604174 87:-0.437285 88:-0.493016 89:-0.375632 90:-0.297685 91:-0.412381 92:-0.964576 93:-0.723755 94:-0.653061 95:-0.883317 96:-0.872227 97:-0.754862 98:-0.832049 99:-0.630334 100:-0.701184 101:-0.69626 102:-0.546461 103:-0.696398 104:-0.625901 105:-0.747441 106:-0.673533 107:-0.855709 108:-0.492184 109:-0.690918 110:-0.991727 111:-0.836423 112:-0.749352 113:-0.582167 114:-0.77926 115:-0.8097 116:-0.966678 117:-0.781339 118:-0.801203 119:-0.872273 120:-0.901157 121:-0.638157 122:-0.571204 123:-0.651805 124:-0.652851 125:-0.773067 126:-0.648547 127:-0.894938 128:-0.614428 129:-0.85413 130:-0.944688 131:-0.208252 132:0.443816 133:-0.0197948 134:-0.37109 135:0.303427 136:-0.0197948 137:0.549565 138:-0.398947 139:-0.224 140:0.328391 141:0.218019 142:0.624677 143:-0.84 144:-0.76 145:-0.76 146:-0.76 147:-0.769231 148:-0.769231 149:-0.703704 150:-0.62963 151:-0.642857 152:-0.551044 153:-0.657051 154:-0.36842 155:-0.529412 156:-0.466665 157:-0.538462 158:-0.538462 159:-0.538462 160:-0.538462 161:-0.499998 162:-0.454544 163:-0.818181 164:-0.777778 165:-1 166:-1 167:-1 168:-1 169:-1 170:-1 171:-1 172:-1 173:-1 174:-1 176:-0.84 177:-0.76 178:-0.76 179:-0.76 180:-0.76923 181:-0.76923 182:-0.703704 183:-0.62963 184:-0.642857 
1.566306702117827 -1.566306702117827 1:-0.680097 2:-0.616604 3:0.728637 4:-0.669244 5:-1 6:0.892148 7:0.290413 8:0.140644 9:0.300758 10:-0.578947 11:-0.764706 12:-0.733333 13:-0.846154 14:-0.846154 15:-0.846154 16:-0.846154 17:-0.833333 18:-0.818182 19:-0.818182 20:-0.777778 21:-1 22:-1 23:-1 24:-1 25:-1 26:-1 27:-1 28:-1 29:-1 30:-1 32:-0.640502 33:-0.725864 34:-0.896145 35:-0.949792 36:-0.993866 37:-0.821312 38:-0.974437 39:-0.958502 40:-0.973654 41:-0.917677 42:-0.852863 43:-0.775274 44:-0.901433 45:-0.835994 46:-0.801628 47:-0.873924 48:-0.899152 49:-0.89092 50:-0.810857 51:-0.952892 52:-0.947278 53:-0.738964 54:-0.728468 55:-0.929411 56:-0.924802 57:-0.690418 58:-0.847401 59:-0.831622 60:-0.47085 61:-0.896412 62:-0.788849 63:-0.563687 64:-0.822237 65:-0.827095 66:-0.772621 67:-0.689688 68:-0.554072 69:-0.730054 70:-0.763667 71:-0.662498 72:-0.710722 73:-0.781508 74:-0.731333 75:-0.778662 76:-0.931833 77:-0.865214 78:-1 79:-0.830568 80:-0.92339 81:-0.829788 82:-0.849113 83:-0.912889 84:-0.710133 85:-0.892042 86:-0.991556 87:-0.993363 88:-0.901741 89:-0.946569 90:-0.870694 91:-0.971591 92:-0.889986 93:-0.877357 94:-0.90805 95:-0.890511 96:-0.894175 97:-0.904158 98:-0.734457 99:-0.834425 100:-0.882957 101:-0.865491 102:-0.770546 103:-0.81817 104:-0.997829 105:-0.868076 106:-0.858656 107:-0.787581 108:-0.775856 109:-0.958794 110:-0.836645 111:-0.903814 112:-0.877746 113:-0.804371 114:-0.916359 115:-0.871238 116:-0.854718 117:-0.882987 118:-0.812265 119:-0.957205 120:-0.901504 121:-0.931815 122:-0.913202 123:-0.929773 124:-0.937351 125:-0.773207 126:-0.841877 127:-0.867487 128:-0.725875 129:-0.851336 130:-0.721343 131:-0.0390082 132:0.729079 133:-0.000987781 134:-0.386432 135:0.320405 136:-0.000987781 137:0.704777 138:-0.722468 139:-0.22314 140:0.321361 141:0.199253 142:0.609283 143:-1 144:-0.92 145:-0.92 146:-0.92 147:-0.923077 148:-0.923077 149:-0.851852 150:-0.777778 151:-0.785714 152:-0.125008 153:-0.659723 154:-0.578946 155:-0.764706 156:-0.733333 157:-0.846154 158:-0.846154 159:-0.846154 160:-0.846154 161:-0.833333 162:-0.818181 163:-0.818181 164:-0.777778 165:-1 166:-1 167:-1 168:-1 169:-1 170:-1 171:-1 172:-1 173:-1 174:-1 176:-1 177:-0.92 178:-0.92 179:-0.92 180:-0.923077 181:-0.923077 182:-0.851852 183:-0.777778 184:-0.785714 
1.068342856649168 -1.068342856649168 1:-0.667418 2:-0.618812 3:0.721911 4:-0.660129 5:-0.993768 6:0.888256 7:0.286305 8:0.135637 9:0.298128 10:-0.578947 11:-0.764706 12:-0.733333 13:-0.846154 14:-0.846154 15:-0.846154 16:-0.846154 17:-0.833333 18:-0.818182 19:-0.818182 20:-0.777778 21:-1 22:-1 23:-1 24:-1 25:-1 26:-1 27:-1 28:-1 29:-1 30:-1 32:-0.627299 33:-0.744452 34:-0.878932 35:-0.964177 36:-0.977294 37:-0.80669 38:-0.97742 39:-0.9609 40:-0.97535 41:-0.920804 42:-0.867717 43:-0.850541 44:-0.856192 45:-0.862031 46:-0.794827 47:-0.860767 48:-0.977391 49:-0.865113 50:-0.859407 51:-0.876347 52:-0.948288 53:-0.864895 54:-0.622782 55:-0.914027 56:-0.880016 57:-0.757465 58:-0.663672 59:-0.819818 60:-0.813516 61:-0.800568 62:-0.898096 63:-0.828116 64:-0.644465 65:-0.922305 66:-0.852666 67:-0.69869 68:-0.834914 69:-0.627414 70:-0.726601 71:-0.536196 72:-0.651675 73:-0.833566 74:-0.686128 75:-0.802101 76:-0.842607 77:-0.794608 78:-0.884916 79:-0.935347 80:-0.81556 81:-0.789794 82:-0.795563 83:-0.860457 84:-0.712722 85:-0.745168 86:-0.817103 87:-0.814654 88:-0.793931 89:-0.873424 90:-0.883835 91:-0.931187 92:-0.973867 93:-0.892757 94:-0.783192 95:-0.818847 96:-0.756969 97:-0.592779 98:-0.721942 99:-0.770722 100:-0.801324 101:-0.963071 102:-0.892578 103:-0.839758 104:-0.726163 105:-0.905862 106:-0.795184 107:-0.701244 108:-0.81563 109:-0.744531 110:-0.849909 111:-0.929919 112:-0.64345 113:-0.968355 114:-0.827494 115:-0.830782 116:-0.874007 117:-0.908036 118:-0.922084 119:-0.979086 120:-0.895891 121:-1 122:-0.842716 123:-0.78591 124:-0.945555 125:-0.777389 126:-0.726087 127:-0.864758 128:-0.837972 129:-0.875711 130:-0.818394 131:-0.0494457 132:0.752008 133:0.0221988 134:-0.405081 135:0.341058 136:0.0221988 137:0.691691 138:-0.725638 139:-0.225045 140:0.314121 141:0.188005 142:0.59707 143:-1 144:-0.92 145:-0.92 146:-0.92 147:-0.923077 148:-0.923077 149:-0.851852 150:-0.777778 151:-0.857143 152:-0.160061 153:-0.659185 154:-0.578946 155:-0.764706 156:-0.733333 157:-0.846154 158:-0.846154 159:-0.846154 160:-0.846154 161:-0.833333 162:-0.818181 163:-0.818181 164:-0.777778 165:-1 166:-1 167:-1 168:-1 169:-1 170:-1 171:-1 172:-1 173:-1 174:-1 176:-1 177:-0.92 178:-0.92 179:-0.92 180:-0.923077 181:-0.923077 182:-0.851852 183:-0.777778 184:-0.857143 
0.1220460208393854 -0.1220460208393854 1:-0.676009 2:-0.616615 3:0.728799 4:-0.667186 5:-0.998849 6:0.891841 7:0.290957 8:0.140644 9:0.299755 10:-0.684211 11:-0.764706 12:-0.733333 13:-0.846154 14:-0.846154 15:-0.846154 16:-0.846154 17:-0.833333 18:-0.818182 19:-0.818182 20:-0.777778 21:-1 22:-1 23:-1 24:-1 25:-1 26:-1 27:-1 28:-1 29:-1 30:-1 32:-0.6466 33:-0.726873 34:-0.892208 35:-0.953189 36:-0.994736 37:-0.818615 38:-0.977219 39:-0.958976 40:-0.974679 41:-0.925234 42:-0.832988 43:-0.806072 44:-0.884984 45:-0.812661 46:-0.807456 47:-0.880801 48:-0.906044 49:-0.887922 50:-0.815357 51:-0.931761 52:-0.97845 53:-0.78373 54:-0.678784 55:-0.883854 56:-0.920811 57:-0.635426 58:-0.790416 59:-0.833867 60:-0.423993 61:-0.91139 62:-0.789125 63:-0.532163 64:-0.944132 65:-0.81884 66:-0.753076 67:-0.75717 68:-0.506761 69:-0.757486 70:-0.791764 71:-0.72676 72:-0.823719 73:-0.776131 74:-0.823308 75:-0.838199 76:-0.92181 77:-0.862931 78:-0.962913 79:-0.850394 80:-0.849229 81:-0.94787 82:-0.929745 83:-0.90389 84:-0.819183 85:-0.982976 86:-0.90192 87:-0.965499 88:-0.876294 89:-0.883023 90:-0.84247 91:-0.940795 92:-1 93:-0.756973 94:-0.827982 95:-0.904383 96:-0.746502 97:-0.839431 98:-0.824017 99:-0.762875 100:-0.936306 101:-0.860665 102:-0.81504 103:-0.680829 104:-0.852321 105:-0.968272 106:-0.68405 107:-0.918033 108:-0.850959 109:-0.83984 110:-0.905488 111:-0.880361 112:-0.909183 113:-0.831591 114:-0.882344 115:-0.918201 116:-0.934863 117:-0.947957 118:-0.9256 119:-0.903306 120:-0.965623 121:-0.897034 122:-0.892236 123:-0.882472 124:-0.820777 125:-0.738099 126:-0.894281 127:-0.890388 128:-0.796499 129:-0.786738 130:-0.736484 131:-0.0391377 132:0.744493 133:0.00824244 134:-0.393876 135:0.328663 136:0.00824244 137:0.699415 138:-0.719909 139:-0.222588 140:0.323484 141:0.199033 142:0.607406 143:-1 144:-0.92 145:-0.92 146:-0.92 147:-0.923077 148:-0.923077 149:-0.851852 150:-0.777778 151:-0.785714 152:-0.132306 153:-0.661086 154:-0.68421 155:-0.764706 156:-0.733333 157:-0.846154 158:-0.846154 159:-0.846154 160:-0.846154 161:-0.833333 162:-0.818181 163:-0.818181 164:-0.777778 165:-1 166:-1 167:-1 168:-1 169:-1 170:-1 171:-1 172:-1 173:-1 174:-1 176:-1 177:-0.92 178:-0.92 179:-0.92 180:-0.923077 181:-0.923077 182:-0.851852 183:-0.777778 184:-0.785714 
0.3934205122484457 -0.3934205122484457 1:-0.666239 2:-0.617946 3:0.741596 4:-0.657661 5:-0.995361 6:0.900782 7:0.296886 8:0.15059 9:0.303976 10:-0.578947 11:-0.764706 12:-0.733333 13:-0.846154 14:-0.846154 15:-0.846154 16:-0.846154 17:-0.833333 18:-0.818182 19:-0.818182 20:-0.777778 21:-1 22:-1 23:-1 24:-1 25:-1 26:-1 27:-1 28:-1 29:-1 30:-1 32:-0.63519 33:-0.741455 34:-0.87969 35:-0.964267 36:-0.976966 37:-0.806827 38:-0.985933 39:-0.955912 40:-0.972411 41:-0.919028 42:-0.87416 43:-0.846765 44:-0.846446 45:-0.866025 46:-0.771779 47:-0.857082 48:-0.975379 49:-0.874028 50:-0.842324 51:-0.882349 52:-0.999041 53:-0.938575 54:-0.592217 55:-0.963415 56:-0.959323 57:-0.670337 58:-0.777198 59:-0.840544 60:-0.715924 61:-0.896656 62:-0.864993 63:-0.839229 64:-0.7297 65:-0.851041 66:-0.835197 67:-0.73719 68:-0.777492 69:-0.653566 70:-0.687515 71:-0.461503 72:-0.626083 73:-0.733018 74:-0.586022 75:-0.781549 76:-0.860732 77:-0.717761 78:-0.876363 79:-0.995683 80:-0.844947 81:-0.763951 82:-0.858623 83:-0.864271 84:-0.672645 85:-0.739995 86:-0.802848 87:-0.811677 88:-0.778693 89:-0.920289 90:-0.898158 91:-0.929369 92:-0.99575 93:-0.962484 94:-0.789642 95:-0.871897 96:-0.835993 97:-0.588967 98:-0.710528 99:-0.90245 100:-0.812134 101:-0.889094 102:-0.891764 103:-0.827033 104:-0.801311 105:-0.976986 106:-0.964814 107:-0.715498 108:-0.93115 109:-0.861319 110:-0.826781 111:-0.970663 112:-0.666309 113:-0.906732 114:-0.902389 115:-0.861944 116:-0.912757 117:-0.900933 118:-0.77218 119:-0.981605 120:-0.955939 121:-0.913897 122:-0.926905 123:-0.87822 124:-0.850267 125:-0.834721 126:-0.882718 127:-0.891611 128:-0.837428 129:-0.885047 130:-0.633982 131:-0.0470719 132:0.771975 133:0.0318836 134:-0.412771 135:0.349594 136:0.0318836 137:0.685689 138:-0.721715 139:-0.219337 140:0.332406 141:0.216228 142:0.623164 143:-1 144:-0.92 145:-0.92 146:-0.92 147:-0.923077 148:-0.923077 149:-0.851852 150:-0.777778 151:-0.714286 152:-0.159508 153:-0.662614 154:-0.578946 155:-0.764706 156:-0.733333 157:-0.846154 158:-0.846154 159:-0.846154 160:-0.846154 161:-0.833333 162:-0.818181 163:-0.818181 164:-0.777778 165:-1 166:-1 167:-1 168:-1 169:-1 170:-1 171:-1 172:-1 173:-1 174:-1 176:-1 177:-0.92 178:-0.92 179:-0.92 180:-0.923077 181:-0.923077 182:-0.851852 183:-0.777778 184:-0.714286 
0.1543987203732109 -0.1543987203732109 1:-0.528842 2:-0.400964 3:0.682166 4:-0.519367 5:-0.90524 6:0.847847 7:0.290363 8:0.153073 9:0.303987 10:-0.368421 11:-0.529412 12:-0.466667 13:-0.538462 14:-0.538462 15:-0.538462 16:-0.538462 17:-0.5 18:-0.454545 19:-0.818182 20:-0.777778 21:-1 22:-1 23:-1 24:-1 25:-1 26:-1 27:-1 28:-1 29:-1 30:-1 32:-0.17742 33:-0.550668 34:-0.433783 35:-0.86174 36:-0.963788 37:-0.831812 38:-0.8833 39:-0.660771 40:-0.860216 41:-0.791275 42:-0.854085 43:-0.92324 44:-0.862737 45:-0.906824 46:-0.747542 47:-0.747216 48:-0.735167 49:-0.741252 50:-0.757785 51:-0.701361 52:-0.750561 53:-0.69355 54:-0.775818 55:-0.764863 56:-0.642597 57:-0.864309 58:-0.75757 59:-0.866857 60:-0.201741 61:-0.855791 62:-0.901548 63:-0.709897 64:-0.664137 65:-0.768511 66:-0.800495 67:-0.766709 68:-0.633279 69:-0.787376 70:-0.879024 71:-0.805937 72:-0.729043 73:-0.466937 74:-0.754624 75:-0.961894 76:-0.8826 77:-0.869047 78:-0.583954 79:-0.772678 80:-0.744886 81:-0.857205 82:-0.847787 83:-0.911367 84:-0.588752 85:-0.767569 86:-0.902305 87:-0.807212 88:-0.349498 89:-0.838182 90:-0.799188 91:-0.806009 92:-0.897044 93:-0.80866 94:-0.830101 95:-0.609687 96:-0.854588 97:-0.757448 98:-0.786675 99:-0.684697 100:-0.912441 101:-0.421633 102:-0.709456 103:-0.87405 104:-0.945053 105:-0.940417 106:-0.739598 107:-0.955988 108:-0.745662 109:-0.691025 110:-0.75421 111:-0.952124 112:-0.740051 113:-0.838516 114:-0.702533 115:-0.962891 116:-0.8478 117:-0.773991 118:-0.642683 119:-0.746755 120:-0.88232 121:-0.712114 122:-0.588463 123:-0.501348 124:-0.875714 125:-0.648073 126:-0.870858 127:-0.663421 128:-0.825766 129:-0.84801 130:-0.791872 131:-0.218496 132:-0.0085154 133:-0.326094 134:-0.0923073 135:-0.00536444 136:-0.326094 137:0.522999 138:-0.384624 139:-0.242625 140:0.318157 141:0.229384 142:0.637211 143:-0.84 144:-0.76 145:-0.76 146:-0.76 147:-0.769231 148:-0.769231 149:-0.703704 150:-0.407407 151:-0.428571 152:-0.509511 153:-0.63704 154:-0.36842 155:-0.529412 156:-0.466665 157:-0.538462 158:-0.538462 159:-0.538462 160:-0.538462 161:-0.499998 162:-0.454544 163:-0.818181 164:-0.777778 165:-1 166:-1 167:-1 168:-1 169:-1 170:-1 171:-1 172:-1 173:-1 174:-1 176:-0.84 177:-0.76 178:-0.76 179:-0.76 180:-0.76923 181:-0.76923 182:-0.703704 183:-0.407409 184:-0.428569 
0.06677027490334375 -0.06677027490334375 1:-0.00107374 2:0.153739 3:0.882475 4:0.0316047 5:-0.650381 6:1 7:0.403135 8:0.262208 9:0.407598 10:-0.0526316 11:-0.0588235 12:0.0666667 13:0.0769231 14:0.0769231 15:0.0769231 16:0.0769231 17:0.166667 18:0.272727 19:0.272727 20:0.555556 21:0.333333 22:-0.5 23:-0.428571 24:-1 25:-1 26:-1 27:-1 28:-1 29:-1 30:-1 32:-0.793455 33:-0.410686 34:-0.340351 35:-0.53848 36:-0.909668 37:-0.595334 38:-0.725831 39:-0.746769 40:-0.855699 41:-0.853772 42:-0.704226 43:-0.427543 44:-0.798135 45:-0.600815 46:-0.790283 47:-0.46126 48:-0.645456 49:-0.906172 50:-0.938038 51:-0.842856 52:-0.651017 53:-0.733095 54:-0.77281 55:-0.829247 56:-0.93526 57:-0.458568 58:-0.343351 59:-0.657416 60:-0.504772 61:-0.402661 62:-0.713215 63:-0.708271 64:-0.801218 65:-0.837553 66:-0.684536 67:-0.935322 68:-0.713818 69:-0.241589 70:-0.520542 71:-0.833466 72:-0.889857 73:-0.634397 74:-0.711025 75:-0.866281 76:-0.813907 77:-0.846767 78:-0.401982 79:-0.741645 80:-0.805489 81:-0.193159 82:-0.822911 83:-0.954613 84:-0.334841 85:-0.681114 86:-0.432574 87:-0.565282 88:-0.798313 89:-0.392275 90:-0.497101 91:-0.564715 92:-0.437582 93:-0.708833 94:-0.786383 95:-0.734056 96:-0.77554 97:-0.917323 98:-0.284638 99:-0.288689 100:-0.561861 101:-0.407505 102:-0.147381 103:-0.446699 104:-0.861783 105:-0.458184 106:-0.753864 107:-0.288951 108:-0.779261 109:-0.449785 110:-0.553022 111:-0.826078 112:-0.697707 113:-0.0374491 114:-0.557614 115:-0.662811 116:-0.757885 117:-0.692978 118:-0.711454 119:-0.537773 120:-0.331175 121:-0.260366 122:-0.448567 123:-0.26141 124:-0.550928 125:-0.916204 126:-0.729325 127:-0.620741 128:-0.386859 129:-0.820033 130:-0.502546 131:0.386792 132:0.0629975 133:-0.568535 134:0.17597 135:-0.302501 136:-0.568535 137:0.342156 138:-0.165991 139:-0.593438 140:-0.291628 141:-0.471024 142:-0.283462 143:-0.76 144:-0.68 145:-0.68 146:-0.68 147:-0.384615 148:-0.384615 149:-0.407407 150:-0.259259 151:-0.357143 152:-0.874225 153:-0.534383 154:-0.0526271 155:-0.0588264 156:0.0666655 157:0.0769215 158:0.0769215 159:0.0769215 160:0.0769215 161:0.16667 162:0.272728 163:0.272728 164:0.555551 165:0.333329 166:-0.499998 167:-0.428571 168:-1 169:-1 170:-1 171:-1 172:-1 173:-1 174:-1 176:-0.76 177:-0.68 178:-0.68 179:-0.68 180:-0.384616 181:-0.384616 182:-0.407409 183:-0.259259 184:-0.357142 
0.03127058169269831 -0.03127058169269831 1:-0.317998 2:-0.209056 3:0.608777 4:-0.306153 5:-0.760139 6:0.805527 7:0.255701 8:0.213828 9:0.283249 10:-0.368421 11:-0.411765 12:-0.466667 13:-0.384615 14:-0.384615 15:-0.384615 16:-0.384615 17:-0.333333 18:-0.272727 19:-0.636364 20:-0.555556 21:-0.555556 22:-0.5 23:-0.714286 24:-1 25:-1 26:-1 27:-1 28:-1 29:-1 30:-1 32:-0.439476 33:0.0348259 34:-0.0268358 35:-0.979327 36:-0.816153 37:-0.860843 38:-0.462804 39:-0.677395 40:-0.809374 41:-0.626137 42:-0.779065 43:-0.330542 44:-0.813408 45:-0.693402 46:-0.376813 47:-0.820044 48:-0.722442 49:-0.882735 50:-0.656415 51:-0.86871 52:-0.754302 53:-0.628199 54:-0.747314 55:-0.430452 56:-0.879073 57:-0.128941 58:-0.650154 59:-0.860247 60:-0.651772 61:-0.809328 62:-0.724666 63:-0.83548 64:-0.540058 65:-0.660036 66:-0.789832 67:-0.829865 68:-0.618298 69:-0.348665 70:-0.436448 71:-0.33884 72:-0.503529 73:-0.435344 74:-0.589906 75:-0.675596 76:-0.486974 77:-0.516139 78:-0.366109 79:-0.0774493 80:-0.723006 81:-0.49798 82:-0.00788218 83:-0.725769 84:-0.371294 85:-0.722742 86:0.24744 87:-0.738367 88:-0.332447 89:-0.684172 90:-0.64096 91:-0.325651 92:-0.607887 93:-0.524194 94:-0.592845 95:-0.618737 96:0.177479 97:-0.119318 98:0.450393 99:0.16658 100:-0.513869 101:0.100344 102:0.180052 103:0.438795 104:-0.451263 105:-0.385716 106:-0.293973 107:-0.700711 108:-0.383332 109:-0.699811 110:-0.87977 111:-0.737722 112:-0.523166 113:-0.867472 114:-0.972022 115:-0.672526 116:-0.631143 117:-0.524636 118:-0.711191 119:-0.80489 120:-0.818377 121:-0.1417 122:-0.792556 123:-0.65628 124:-0.451713 125:0.0236376 126:0.194805 127:-0.576851 128:0.186754 129:-0.631136 130:0.0800123 131:-0.347457 132:-0.130901 133:-0.315921 134:-0.102548 135:0.00597593 136:-0.315921 137:0.0490973 138:0.174412 139:-0.248298 140:0.283359 141:0.263916 142:0.567856 143:-0.28 144:-0.28 145:-0.28 146:-0.28 147:-0.230769 148:-0.230769 149:-0.185185 150:-0.185185 151:-0.285714 152:-0.753749 153:-0.578387 154:-0.36842 155:-0.411765 156:-0.466665 157:-0.384616 158:-0.384616 159:-0.384616 160:-0.384616 161:-0.333331 162:-0.272726 163:-0.636363 164:-0.555557 165:-0.555557 166:-0.499998 167:-0.714285 168:-1 169:-1 170:-1 171:-1 172:-1 173:-1 174:-1 176:-0.279997 177:-0.279997 178:-0.279997 179:-0.279997 180:-0.230768 181:-0.230768 182:-0.185186 183:-0.185186 184:-0.285715 
0.04600719824375661 -0.04600719824375661 1:-0.317858 2:-0.198575 3:0.542332 4:-0.287191 5:-0.728215 6:0.761178 7:0.220985 8:0.246232 9:0.243169 10:-0.368421 11:-0.411765 12:-0.466667 13:-0.384615 14:-0.384615 15:-0.384615 16:-0.384615 17:-0.333333 18:-0.272727 19:-0.636364 20:-0.555556 21:-0.555556 22:-0.5 23:-0.714286 24:-1 25:-1 26:-1 27:-1 28:-1 29:-1 30:-1 32:-0.423375 33:-0.0352271 34:0.10179 35:-0.931715 36:-0.795101 37:-0.815578 38:-0.463531 39:-0.757959 40:-0.775285 41:-0.578033 42:-0.725911 43:-0.317071 44:-0.849423 45:-0.718172 46:-0.217769 47:-0.858077 48:-0.648319 49:-0.857343 50:-0.752798 51:-0.966938 52:-0.839386 53:-0.292224 54:-0.674518 55:-0.413976 56:-0.772322 57:-0.419402 58:-0.399258 59:-0.823547 60:-0.806254 61:-0.723141 62:-0.955703 63:-0.795293 64:-0.880202 65:-0.398859 66:-0.938257 67:-0.749002 68:-0.52316 69:-0.488699 70:-0.786831 71:-0.922673 72:-0.425594 73:-0.882961 74:-0.826417 75:-0.356159 76:-0.9666 77:0.0412065 78:-0.827958 79:0.346837 80:-0.486663 81:-0.534807 82:0.280575 83:-0.615076 84:0.349472 85:-0.567701 86:0.000804452 87:0.0745404 88:-0.0912728 89:-0.111018 90:-0.0448705 91:-0.0319965 92:-0.48332 93:-0.47719 94:-0.175973 95:-0.790262 96:-0.499188 97:-0.365582 98:-0.485096 99:0.110809 100:-0.218459 101:-0.659237 102:-0.180906 103:0.16337 104:-0.0815892 105:-0.10228 106:0.0387568 107:-0.339353 108:-0.586548 109:-0.223967 110:-0.461495 111:-0.579338 112:-0.0931583 113:0.0847402 114:-0.0183693 115:-0.151128 116:-0.362828 117:-0.249615 118:0.257052 119:0.0401081 120:0.0999495 121:-0.403121 122:-0.66298 123:-0.497846 124:-0.545114 125:-0.231091 126:-0.850587 127:-0.805476 128:-0.446582 129:-0.61845 130:-0.0312694 131:-0.364052 132:-0.165166 133:-0.329654 134:-0.0886985 135:-0.00935313 136:-0.329654 137:0.346928 138:-0.151031 139:-0.270548 140:0.219221 141:0.297496 142:0.50578 143:-0.6 144:-0.6 145:-0.6 146:-0.6 147:-0.615385 148:-0.615385 149:-0.555556 150:-0.555556 151:-0.5 152:-0.77669 153:-0.52898 154:-0.36842 155:-0.411765 156:-0.466665 157:-0.384616 158:-0.384616 159:-0.384616 160:-0.384616 161:-0.333331 162:-0.272726 163:-0.636363 164:-0.555557 165:-0.555557 166:-0.499998 167:-0.714285 168:-1 169:-1 170:-1 171:-1 172:-1 173:-1 174:-1 176:-0.6 177:-0.6 178:-0.6 179:-0.6 180:-0.615384 181:-0.615384 182:-0.555556 183:-0.555556 184:-0.500001 
0.02522696739454562 -0.02522696739454562 1:-0.18642 2:-0.0541728 3:0.362967 4:-0.153445 5:-0.570885 6:0.54755 7:0.228236 8:0.252617 9:0.204519 10:-0.157895 11:-0.176471 12:-0.0666667 13:-0.0769231 14:-0.0769231 15:-0.0769231 16:-0.230769 17:-0.166667 18:-0.0909091 19:-0.0909091 20:-0.111111 21:-0.555556 22:-0.5 23:-0.714286 24:-1 25:-1 26:-1 27:-1 28:-1 29:-1 30:-1 32:-0.414285 33:-0.492739 34:-0.411008 35:-0.385148 36:-0.877818 37:-0.958033 38:-0.776724 39:-0.92737 40:-0.501462 41:-0.502079 42:-0.48203 43:-0.471853 44:-0.382621 45:-0.940595 46:-0.616276 47:-0.831812 48:-0.858125 49:-0.529885 50:-0.82867 51:-0.8258 52:-0.909486 53:-0.497849 54:-0.404719 55:-0.711214 56:-0.643554 57:-0.827053 58:-0.675955 59:-0.663274 60:-0.5262 61:-0.595666 62:-0.735 63:-0.815124 64:-0.795939 65:-0.773418 66:-0.645982 67:-0.954613 68:-0.718571 69:-0.899104 70:-0.466813 71:-0.319753 72:-0.60508 73:-0.793573 74:-0.502591 75:-0.827919 76:-0.651652 77:-0.56291 78:-0.308069 79:-0.814351 80:-0.89265 81:-0.543145 82:-0.175287 83:-0.694768 84:-0.234938 85:-0.851195 86:-0.532176 87:-0.460911 88:-0.36282 89:-0.380509 90:-0.865784 91:-0.457811 92:-0.80467 93:-0.369489 94:-0.627886 95:-0.0531701 96:-0.584695 97:-0.38558 98:-0.846904 99:-0.248768 100:-0.346541 101:0.168834 102:-0.303695 103:0.0181449 104:-0.317173 105:-0.061688 106:-0.275988 107:-0.401841 108:0.118942 109:-0.0736612 110:-0.0603849 111:-0.702037 112:-0.255936 113:0.00053179 114:-0.729646 115:-0.690981 116:-0.491443 117:-0.54997 118:-0.0333002 119:-0.381839 120:-0.441439 121:-0.682143 122:-0.227265 123:-0.471522 124:-0.525165 125:-0.207808 126:-0.36465 127:-0.991586 128:-0.45432 129:-0.43267 130:-0.352989 131:0.0240267 132:-0.133623 133:-0.538522 134:0.140015 135:-0.262679 136:-0.538522 137:0.118807 138:0.0844675 139:-0.642776 140:-0.335679 141:-0.433401 142:-0.416956 143:-0.44 144:-0.44 145:-0.44 146:-0.44 147:-0.307692 148:-0.230769 149:-0.259259 150:-0.111111 151:0.0714286 152:-0.865252 153:-0.412886 154:-0.157895 155:-0.176471 156:-0.0666655 157:-0.0769246 158:-0.0769246 159:-0.0769246 160:-0.230771 161:-0.166665 162:-0.0909086 163:-0.0909086 164:-0.111113 165:-0.555557 166:-0.499998 167:-0.714285 168:-1 169:-1 170:-1 171:-1 172:-1 173:-1 174:-1 176:-0.44 177:-0.44 178:-0.44 179:-0.44 180:-0.307689 181:-0.230768 182:-0.259259 183:-0.111114 184:0.0714314 
0.07330591705974723 -0.07330591705974723 1:-0.268595 2:-0.00853904 3:0.108451 4:-0.233478 5:-0.500655 6:0.267871 7:0.175538 8:0.338913 9:0.0614702 10:-0.157895 11:-0.176471 12:-0.0666667 13:-0.0769231 14:-0.0769231 15:-0.0769231 16:-0.230769 17:-0.166667 18:-0.0909091 19:-0.0909091 20:0.111111 21:-0.111111 22:-0.5 23:-0.714286 24:-0.666667 25:-1 26:-1 27:-1 28:-1 29:-1 30:-1 32:-0.142601 33:-0.898854 34:1 35:-0.831984 36:-0.749611 37:-0.933659 38:-0.868111 39:-0.665805 40:-0.375987 41:-0.639388 42:0.166574 43:0.0448781 44:-0.603672 45:-0.602035 46:-0.887325 47:-0.404209 48:-0.165831 49:-0.719918 50:-0.663297 51:-0.588001 52:-0.389138 53:0.276722 54:-0.869379 55:-0.705616 56:-0.707283 57:-0.339413 58:-0.250985 59:-0.82984 60:-0.0103755 61:-0.0191614 62:-0.432243 63:-0.42698 64:-0.676629 65:-0.685391 66:-0.897433 67:-0.736561 68:-0.338274 69:-0.61552 70:-0.123553 71:-0.691016 72:-0.797702 73:-0.410887 74:-0.581222 75:-0.528894 76:-0.754307 77:-0.300502 78:0.388031 79:-0.494198 80:-0.745759 81:-0.700976 82:-0.85633 83:-0.114714 84:0.59285 85:-0.406802 86:-0.69324 87:-0.559633 88:-0.412783 89:0.0627157 90:0.0619306 91:-0.689249 92:-0.476854 93:-0.886778 94:-0.614192 95:-0.749292 96:0.499147 97:-0.367887 98:-0.0509654 99:-0.0832769 100:-0.0525644 101:0.0389693 102:0.213359 103:-0.361676 104:-0.00224208 105:-0.561217 106:-0.206173 107:-0.402082 108:-0.30663 109:-0.209531 110:0.182858 111:-0.162084 112:-0.0591935 113:0.319442 114:0.0579373 115:-0.402398 116:-0.788843 117:-0.9002 118:-0.395491 119:-0.577959 120:-0.529694 121:0.227003 122:-0.409611 123:0.353435 124:-0.485967 125:-0.308709 126:0.121685 127:-0.572368 128:-0.780485 129:-0.582647 130:-0.139618 131:-0.565404 132:-0.260784 133:-0.205109 134:-0.209451 135:0.124379 136:-0.205109 137:0.266886 138:0.120708 139:-0.49219 140:0.0980753 141:0.3672 142:0.197271 143:-0.36 144:-0.36 145:-0.36 146:-0.28 147:-0.307692 148:-0.307692 149:-0.333333 150:-0.333333 151:-0.214286 152:-0.867487 153:-0.245743 154:-0.157895 155:-0.176471 156:-0.0666655 157:-0.0769246 158:-0.0769246 159:-0.0769246 160:-0.230771 161:-0.166665 162:-0.0909086 163:-0.0909086 164:0.111107 165:-0.111113 166:-0.499998 167:-0.714285 168:-0.666666 169:-1 170:-1 171:-1 172:-1 173:-1 174:-1 176:-0.360001 177:-0.360001 178:-0.360001 179:-0.279997 180:-0.307689 181:-0.307689 182:-0.333332 183:-0.333332 184:-0.214287 
1.053080069825953 -1.053080069825953 1:-0.7031 2:-0.350697 3:-0.378709 4:-0.743546 5:-0.716768 6:-0.150546 7:-0.190876 8:-0.257093 9:0.15252 10:-0.684211 11:-0.647059 12:-0.6 13:-0.692308 14:-0.692308 15:-0.692308 16:-0.692308 17:-0.666667 18:-0.636364 19:-0.636364 20:-0.555556 21:-0.555556 22:-0.75 23:-0.714286 24:-0.666667 25:-1 26:-1 27:-1 28:-1 29:-1 30:-1 32:-0.692651 33:-0.708619 34:-0.983421 35:-0.920529 36:-0.940714 37:-0.929184 38:-0.993262 39:-0.898538 40:-0.957895 41:-0.902514 42:-0.954948 43:-0.900283 44:-0.870784 45:-0.919585 46:-0.916653 47:-0.931047 48:-0.960795 49:-0.986544 50:-0.9174 51:-0.957808 52:-0.839658 53:-0.865679 54:-0.900956 55:-0.930251 56:-0.886301 57:-0.887045 58:-0.848195 59:-0.967045 60:-0.861743 61:-0.80971 62:-0.94093 63:-0.92483 64:-0.861699 65:-0.929132 66:-0.806048 67:-0.891278 68:-0.763733 69:-0.782331 70:-0.880106 71:-0.721801 72:-0.910719 73:-0.791578 74:-0.920315 75:-0.881793 76:-0.860035 77:-0.942506 78:-0.976603 79:-0.861267 80:-0.913417 81:-0.90381 82:-0.956519 83:-0.872254 84:-0.844437 85:-0.906956 86:-0.929233 87:-0.950397 88:-0.853388 89:-0.873734 90:-0.780121 91:-0.925949 92:-0.934961 93:-0.991433 94:-0.977326 95:-0.882548 96:-0.893663 97:-0.99774 98:-0.90475 99:-0.844379 100:-0.936564 101:-0.929433 102:-0.968657 103:-0.943992 104:-0.887419 105:-0.948597 106:-0.905569 107:-0.980452 108:-0.881851 109:-0.9134 110:-0.83091 111:-0.906618 112:-0.842836 113:-0.807986 114:-0.854832 115:-0.789773 116:-0.881598 117:-0.88976 118:-0.930282 119:-0.950974 120:-0.826751 121:-0.935139 122:-0.92956 123:-0.924043 124:-0.902678 125:-0.807215 126:-0.901645 127:-0.935266 128:-0.863569 129:-0.901683 130:-0.781992 131:0.132113 132:-0.374826 133:-0.703485 134:0.348682 135:-0.493804 136:-0.703485 137:0.678162 138:-0.300343 139:-0.676886 140:-0.516827 141:-0.467809 142:-0.0222888 143:-0.76 144:-0.68 145:-0.68 146:-0.68 147:-0.692308 148:-0.692308 149:-0.703704 150:-0.703704 151:-0.714286 152:-0.500915 153:0.918529 154:-0.68421 155:-0.647059 156:-0.599999 157:-0.692308 158:-0.692308 159:-0.692308 160:-0.692308 161:-0.666666 162:-0.636363 163:-0.636363 164:-0.555557 165:-0.555557 166:-0.749999 167:-0.714285 168:-0.666666 169:-1 170:-1 171:-1 172:-1 173:-1 174:-1 176:-0.76 177:-0.68 178:-0.68 179:-0.68 180:-0.692307 181:-0.692307 182:-0.703704 183:-0.703704 184:-0.714286 
3.148281129279076 -3.148281129279076 1:-0.927455 2:-0.911929 3:-0.695624 4:-0.98019 5:-0.869022 6:-0.40889 7:-0.652163 8:-0.760025 9:-0.78239 10:-0.789474 11:-0.764706 12:-1 13:-1 14:-1 15:-1 16:-1 17:-1 18:-1 19:-1 20:-1 21:-1 22:-1 23:-1 24:-1 25:-1 26:-1 27:-1 28:-1 29:-1 30:-1 32:-0.976781 33:-0.936816 34:-0.949059 35:-0.923194 36:-0.978098 37:-0.945111 38:-0.982769 39:-0.941216 40:-0.942585 41:-0.90182 42:-0.972743 43:-0.964236 44:-0.949549 45:-0.929676 46:-0.980907 47:-0.966947 48:-0.905911 49:-0.919015 50:-0.853267 51:-0.893493 52:-0.933586 53:-0.798243 54:-0.982264 55:-0.95172 56:-0.864707 57:-0.876417 58:-0.675949 59:-0.8675 60:-0.714136 61:-0.785568 62:-0.961332 63:-0.978919 64:-0.964107 65:-0.87365 66:-0.878636 67:-0.828826 68:-0.780755 69:-0.832406 70:-0.909725 71:-0.769253 72:-0.849685 73:-0.848413 74:-0.786864 75:-0.888794 76:-0.944734 77:-0.935324 78:-0.832488 79:-0.973799 80:-0.881141 81:-0.841441 82:-0.925252 83:-0.880787 84:-0.778038 85:-0.871175 86:-0.759078 87:-0.856477 88:-0.728096 89:-0.865686 90:-0.934072 91:-0.890107 92:-0.918681 93:-0.872599 94:-0.912415 95:-0.892347 96:-0.824803 97:-0.83453 98:-0.540006 99:-0.690647 100:-0.819708 101:-0.856249 102:-0.953447 103:-0.669006 104:-0.898568 105:-0.95611 106:-0.758333 107:-0.900633 108:-0.835336 109:-0.810205 110:-0.922654 111:-0.884325 112:-0.881853 113:-0.948988 114:-0.839669 115:-0.903875 116:-0.91599 117:-0.955166 118:-0.794977 119:-0.95812 120:-0.719852 121:-0.847283 122:-0.863705 123:-0.652866 124:-0.786006 125:-0.933864 126:-0.922743 127:-0.969708 128:-0.812932 129:-0.866047 130:-0.610861 131:-0.644039 132:0.0642683 133:0.321561 134:-0.623194 135:0.582656 136:0.321561 137:0.740345 138:-0.503904 139:0.424668 140:0.073762 141:0.577179 142:-0.0536279 143:-0.84 144:-0.84 145:-0.84 146:-0.84 147:-0.846154 148:-0.846154 149:-0.851852 150:-0.62963 151:-0.714286 152:0.564424 153:-0.774723 154:-0.789473 155:-0.764706 156:-1 157:-1 158:-1 159:-1 160:-1 161:-1 162:-1 163:-1 164:-1 165:-1 166:-1 167:-1 168:-1 169:-1 170:-1 171:-1 172:-1 173:-1 174:-1 176:-0.84 177:-0.84 178:-0.84 179:-0.84 180:-0.846154 181:-0.846154 182:-0.851852 183:-0.62963 184:-0.714286 
0.7226077423001254 -0.7226077423001254 1:-0.962584 2:-0.996898 3:-0.788029 4:-0.973938 5:-0.765615 6:-0.538678 7:-0.763405 8:-0.829085 9:-0.876644 10:-1 11:-1 12:-1 13:-1 14:-1 15:-1 16:-1 17:-1 18:-1 19:-1 20:-1 21:-1 22:-1 23:-1 24:-1 25:-1 26:-1 27:-1 28:-1 29:-1 30:-1 32:-0.783284 33:-0.995643 34:-0.934301 35:-0.990111 36:-0.919839 37:-0.997154 38:-0.941686 39:-1 40:-0.949935 41:-0.864667 42:-0.904358 43:-0.770097 44:-0.879532 45:-0.877244 46:-0.814938 47:-0.900959 48:-0.840648 49:-0.848264 50:-0.887354 51:-0.969209 52:-0.861843 53:-0.83075 54:-0.96409 55:-0.93027 56:-0.921855 57:-0.822543 58:-0.875256 59:-0.947798 60:-0.810335 61:-0.697715 62:-0.836489 63:-0.791914 64:-0.821317 65:-0.916031 66:-0.946303 67:-0.845991 68:-0.42968 69:-0.550713 70:-0.60417 71:-0.641859 72:-0.878049 73:-0.862459 74:-0.786156 75:-0.62524 76:-0.67271 77:-0.752629 78:-0.784432 79:-0.696475 80:-0.877936 81:-0.917391 82:-0.793933 83:-0.922616 84:-0.848932 85:-0.949869 86:-0.84438 87:-0.960989 88:-0.785097 89:-0.839239 90:-0.679336 91:-0.690975 92:-0.876567 93:-0.802836 94:-0.772808 95:-0.784137 96:-0.747563 97:-0.594543 98:-0.928498 99:-0.897854 100:-0.748932 101:-0.472231 102:-0.826565 103:-0.699667 104:-0.554509 105:-0.554652 106:-0.894369 107:-0.746478 108:-0.549197 109:-0.788414 110:-0.911888 111:-0.99568 112:-0.737621 113:-0.862385 114:-0.620836 115:-0.696513 116:-0.735811 117:-0.540821 118:-0.327935 119:-0.620283 120:-0.786111 121:-0.568285 122:-0.585912 123:-0.4752 124:-0.812919 125:-0.690143 126:-0.81572 127:-0.837036 128:-0.724695 129:-0.682855 130:-0.7846 131:-0.713426 132:-0.0730786 133:0.323635 134:-0.624574 135:0.584182 136:0.323635 137:0.900133 138:-1 139:0.455234 140:-0.24197 141:0.797631 142:-0.162491 143:-1 144:-1 145:-1 146:-1 147:-1 148:-1 149:-1 150:-1 151:-0.928571 152:0.209402 153:-0.850697 154:-1 155:-1 156:-1 157:-1 158:-1 159:-1 160:-1 161:-1 162:-1 163:-1 164:-1 165:-1 166:-1 167:-1 168:-1 169:-1 170:-1 171:-1 172:-1 173:-1 174:-1 176:-1 177:-1 178:-1 179:-1 180:-1 181:-1 182:-1 183:-1 184:-0.928571 
0.02095626168597046 -0.02095626168597046 1:-0.958981 2:-0.993672 3:-0.994309 4:-0.990278 5:-0.39015 6:-0.942642 7:-0.99403 8:-0.994915 9:-1 10:-1 11:-1 12:-1 13:-1 14:-1 15:-1 16:-1 17:-1 18:-1 19:-1 20:-1 21:-1 22:-1 23:-1 24:-1 25:-1 26:-1 27:-1 28:-1 29:-1 30:-1 32:-0.477837 33:-0.85398 34:-0.935022 35:-0.995117 36:-0.990537 37:-0.887727 38:-0.833606 39:-0.922543 40:-0.974234 41:-0.700133 42:-0.610503 43:-0.412782 44:-0.751478 45:-0.730423 46:-0.591425 47:-0.933089 48:-0.886098 49:-0.821988 50:-0.76509 51:-0.709593 52:-0.823379 53:-0.811931 54:-0.856692 55:-0.735298 56:-0.949877 57:-0.889345 58:-0.265557 59:-0.675789 60:-0.614152 61:-0.800444 62:-0.568942 63:-0.237716 64:-0.830026 65:-0.918326 66:-0.868589 67:-0.721275 68:-0.578411 69:-0.530923 70:-0.731935 71:-0.53316 72:-0.665191 73:-0.507774 74:-0.792489 75:-0.837828 76:-0.505852 77:-0.761131 78:-0.329619 79:0.0229105 80:-0.801494 81:-0.65796 82:0.123478 83:-0.860017 84:0.080739 85:-0.638826 86:-0.546501 87:-0.467749 88:-0.515551 89:0.0759717 90:-0.369386 91:-0.747652 92:-0.873562 93:-0.59787 94:-0.631424 95:-0.684763 96:-0.523398 97:-0.995481 98:-0.628071 99:-0.704992 100:-0.761377 101:-0.877181 102:-0.778707 103:-0.950558 104:-0.985746 105:-0.695528 106:-0.637024 107:-0.664331 108:-0.973982 109:-0.935024 110:-0.881957 111:-0.668348 112:-0.648382 113:-0.770092 114:-0.47592 115:-0.566229 116:-0.882569 117:-0.921414 118:-0.628101 119:-0.692543 120:-0.845209 121:-0.833152 122:-0.795694 123:-0.663868 124:-0.382056 125:-0.895613 126:-0.95239 127:-0.908076 128:-0.8474 129:-0.845868 130:-0.440926 131:-0.933193 132:-0.287631 133:0.92675 134:-0.965424 135:0.961689 136:0.92675 137:0.771929 138:-0.885197 139:0.972926 140:-0.84049 141:0.711784 142:-0.521589 143:-1 144:-1 145:-1 146:-1 147:-1 148:-1 149:-1 150:-0.851852 151:-0.428571 152:-0.253343 153:-0.857098 154:-1 155:-1 156:-1 157:-1 158:-1 159:-1 160:-1 161:-1 162:-1 163:-1 164:-1 165:-1 166:-1 167:-1 168:-1 169:-1 170:-1 171:-1 172:-1 173:-1 174:-1 176:-1 177:-1 178:-1 179:-1 180:-1 181:-1 182:-1 183:-0.851852 184:-0.428569 
0.3649932362335815 -0.3649932362335815 1:-0.959328 2:-0.997102 3:-0.789214 4:-0.971697 5:-0.75859 6:-0.539235 7:-0.767729 8:-0.829703 9:-0.880396 10:-1 11:-1 12:-1 13:-1 14:-1 15:-1 16:-1 17:-1 18:-1 19:-1 20:-1 21:-1 22:-1 23:-1 24:-1 25:-1 26:-1 27:-1 28:-1 29:-1 30:-1 32:-0.758045 33:-0.995157 34:-0.939223 35:-0.985634 36:-0.916299 37:-0.977381 38:-0.971259 39:-0.970461 40:-0.922179 41:-0.858555 42:-0.821032 43:-0.866026 44:-0.915904 45:-0.816991 46:-0.945223 47:-0.924865 48:-0.920817 49:-0.92836 50:-0.78082 51:-0.935054 52:-0.775444 53:-0.832347 54:-0.994408 55:-0.886737 56:-0.799184 57:-0.740379 58:-0.650563 59:-0.779206 60:-0.687512 61:-0.918457 62:-0.805698 63:-0.633969 64:-0.757661 65:-0.733464 66:-0.905887 67:-0.785251 68:-0.877867 69:-0.682929 70:-0.696999 71:-0.393533 72:-0.631488 73:-0.800141 74:-0.650926 75:-0.737514 76:-0.71401 77:-0.720439 78:-0.71787 79:-0.800454 80:-0.74071 81:-0.868296 82:-0.744207 83:-0.82681 84:-0.561006 85:-0.980123 86:-0.908241 87:-0.857439 88:-0.651604 89:-0.794452 90:-0.964886 91:-0.843166 92:-0.787211 93:-0.658875 94:-0.876054 95:-0.834982 96:-0.725144 97:-0.677621 98:-0.931087 99:-0.829476 100:-0.494771 101:-0.578291 102:-0.983019 103:-0.982334 104:-0.734824 105:-0.782229 106:-0.786873 107:-0.648905 108:-0.540409 109:-0.58849 110:-0.510982 111:-0.701081 112:-0.490592 113:-0.498785 114:-0.398599 115:-0.779655 116:-0.870957 117:-0.736061 118:-0.399779 119:-0.77277 120:-0.820299 121:-0.848476 122:-0.865081 123:-0.752072 124:-0.828609 125:-0.63635 126:-0.709045 127:-0.756201 128:-0.731295 129:-0.925446 130:-0.966531 131:-0.716968 132:-0.0904298 133:0.30883 134:-0.614692 135:0.573241 136:0.30883 137:0.893737 138:-0.997928 139:0.481829 140:-0.237474 141:0.788518 142:-0.185412 143:-1 144:-1 145:-1 146:-1 147:-1 148:-1 149:-1 150:-1 151:-0.928571 152:0.179754 153:-0.855009 154:-1 155:-1 156:-1 157:-1 158:-1 159:-1 160:-1 161:-1 162:-1 163:-1 164:-1 165:-1 166:-1 167:-1 168:-1 169:-1 170:-1 171:-1 172:-1 173:-1 174:-1 176:-1 177:-1 178:-1 179:-1 180:-1 181:-1 182:-1 183:-1 184:-0.928571 
0.02672259114312188 -0.02672259114312188 1:-0.574918 2:-0.233705 3:-0.676482 4:-0.566865 5:-0.0552498 6:-0.373034 7:-0.576371 8:-0.738556 9:-0.568278 10:-0.578947 11:-0.529412 12:-0.466667 13:-0.384615 14:-0.384615 15:-0.384615 16:-0.384615 17:-0.333333 18:-0.272727 19:-0.454545 20:-0.555556 21:-0.555556 22:-0.75 23:-1 24:-1 25:-1 26:-1 27:-1 28:-1 29:-1 30:-1 32:0.284145 33:-0.0335684 34:-0.625657 35:-0.778904 36:-0.987828 37:-0.858836 38:-0.655788 39:-0.795491 40:-0.968219 41:-0.682596 42:-0.682434 43:-0.464376 44:-0.71993 45:-0.698253 46:-0.672236 47:-0.843733 48:-0.692597 49:-0.87995 50:-0.650631 51:-0.71721 52:-0.86007 53:-0.660532 54:-0.564077 55:-0.734365 56:-0.847324 57:-0.653626 58:-0.754028 59:-0.801943 60:-0.440173 61:-0.621771 62:-0.863531 63:-0.243158 64:-0.648307 65:-0.889646 66:-0.958879 67:-0.726515 68:-0.471006 69:-0.929465 70:-0.794457 71:-0.74734 72:-0.774976 73:-0.38081 74:-0.884468 75:-0.714914 76:-0.651857 77:-0.617647 78:-0.721918 79:-0.410538 80:-0.83643 81:-0.891058 82:-0.616151 83:-0.468596 84:-0.710144 85:-0.706057 86:-0.688061 87:-0.896613 88:-0.844198 89:-0.498741 90:-0.556783 91:-0.69621 92:-0.833505 93:-0.748497 94:-0.628921 95:-0.850766 96:-0.729429 97:-0.478913 98:-0.431649 99:-0.69786 100:-0.437989 101:-0.660484 102:-0.437739 103:-0.711336 104:-0.672823 105:-0.111716 106:-0.564378 107:-0.464786 108:-0.307062 109:-0.474373 110:-0.554133 111:-0.636178 112:-0.515436 113:-0.250607 114:-0.728879 115:-0.66928 116:-0.683424 117:-0.881706 118:-0.558831 119:-0.608075 120:-0.524211 121:-0.799272 122:-0.811333 123:-0.795613 124:-0.592538 125:-0.937175 126:-0.705028 127:-0.57821 128:-0.457243 129:-0.836001 130:-0.331823 131:-0.491489 132:-0.576666 133:-0.60173 134:0.216725 135:-0.347651 136:-0.60173 137:0.612191 138:-0.244035 139:-0.671866 140:-1 141:-0.925791 142:-1 143:-0.76 144:-0.68 145:-0.6 146:-0.6 147:-0.615385 148:-0.615385 149:-0.62963 150:-0.62963 151:-0.714286 152:-0.870112 153:0.849445 154:-0.578946 155:-0.529412 156:-0.466665 157:-0.384616 158:-0.384616 159:-0.384616 160:-0.384616 161:-0.333331 162:-0.272726 163:-0.454544 164:-0.555557 165:-0.555557 166:-0.749999 167:-1 168:-1 169:-1 170:-1 171:-1 172:-1 173:-1 174:-1 176:-0.76 177:-0.68 178:-0.6 179:-0.6 180:-0.615384 181:-0.615384 182:-0.62963 183:-0.62963 184:-0.714286 
0.009600587028495004 -0.009600587028495004 1:-0.369479 2:-0.235292 3:0.483902 4:-0.350161 5:-0.750034 6:0.68069 7:0.230221 8:0.224033 9:0.221726 10:-0.368421 11:-0.529412 12:-0.466667 13:-0.384615 14:-0.384615 15:-0.384615 16:-0.384615 17:-0.5 18:-0.454545 19:-0.636364 20:-0.555556 21:-0.555556 22:-0.5 23:-0.714286 24:-1 25:-1 26:-1 27:-1 28:-1 29:-1 30:-1 32:-0.528793 33:0.0689689 34:-0.182052 35:-0.919302 36:-0.853073 37:-0.968457 38:-0.457036 39:-0.628481 40:-0.847124 41:-0.790831 42:-0.744307 43:-0.485003 44:-0.639405 45:-0.713316 46:-0.621712 47:-0.676653 48:-0.85759 49:-0.691011 50:-0.821148 51:-0.872957 52:-0.895673 53:-0.556159 54:-0.549644 55:-0.710174 56:-0.612215 57:-0.432193 58:-0.704009 59:-0.744522 60:-0.758082 61:-0.823279 62:-0.630003 63:-0.509725 64:-0.732922 65:-0.726391 66:-0.729648 67:-0.791059 68:-0.618218 69:-0.812927 70:-0.48152 71:-0.59446 72:-0.517482 73:-0.924751 74:-0.359545 75:-0.565137 76:-0.533944 77:-0.00548066 78:0.131879 79:0.134034 80:-0.524137 81:-0.277272 82:0.0778146 83:-0.548904 84:0.278194 85:-0.0687004 86:-0.248 87:0.0111931 88:0.0288275 89:0.128455 90:0.290064 91:-0.65286 92:-0.531559 93:-0.647534 94:-0.767374 95:-0.721867 96:-0.589761 97:-0.1643 98:-0.261113 99:-0.260694 100:-0.617451 101:-0.370749 102:-0.937049 103:-0.597928 104:-0.820273 105:-0.426331 106:-0.555558 107:-0.64166 108:-0.381458 109:-0.87357 110:-0.615593 111:-0.934268 112:-0.450003 113:-0.358828 114:-0.804221 115:-0.987592 116:-0.421498 117:-0.838524 118:-0.458495 119:-0.152494 120:-0.610027 121:-0.13777 122:-0.607034 123:-0.353739 124:-0.746608 125:-0.797915 126:-0.524794 127:-0.692809 128:-0.656355 129:-0.606663 130:0.128333 131:-0.311275 132:-0.177575 133:-0.381874 134:-0.0347935 135:-0.0690538 136:-0.381874 137:0.183106 138:0.0252633 139:-0.319735 140:0.202538 141:0.243022 142:0.434362 143:-0.44 144:-0.44 145:-0.44 146:-0.44 147:-0.461538 148:-0.461538 149:-0.407407 150:-0.259259 151:-0.0714286 152:-0.743777 153:-0.49092 154:-0.36842 155:-0.529412 156:-0.466665 157:-0.384616 158:-0.384616 159:-0.384616 160:-0.384616 161:-0.499998 162:-0.454544 163:-0.636363 164:-0.555557 165:-0.555557 166:-0.499998 167:-0.714285 168:-1 169:-1 170:-1 171:-1 172:-1 173:-1 174:-1 176:-0.44 177:-0.44 178:-0.44 179:-0.44 180:-0.461538 181:-0.461538 182:-0.407409 183:-0.259259 184:-0.071428 
0.08738939983981844 -0.08738939983981844 1:-0.100641 2:-0.0806395 3:0.601721 4:-0.0734078 5:-0.616058 6:0.783353 7:0.280306 8:0.168286 9:0.224467 10:0.0526316 11:0.0588235 12:0.0666667 13:0.230769 14:-0.0769231 15:-0.0769231 16:-0.0769231 17:-0.166667 18:-0.0909091 19:-0.636364 20:-0.555556 21:-0.555556 22:-0.5 23:-0.714286 24:-1 25:-1 26:-1 27:-1 28:-1 29:-1 30:-1 32:-0.65914 33:0.155608 34:-0.641074 35:0.0608264 36:-0.54123 37:-0.0852143 38:-0.592413 39:-0.315624 40:-0.44285 41:-0.501194 42:-0.309591 43:-0.156065 44:-0.253217 45:-0.35346 46:-0.754769 47:-0.833883 48:-0.373198 49:0.00770462 50:-0.0204881 51:-0.371775 52:-0.229845 53:-0.376822 54:-0.610071 55:-0.81804 56:-0.620519 57:-0.798164 58:-0.363781 59:-0.702503 60:-0.0245532 61:0.226983 62:-0.729141 63:-0.214073 64:0.444975 65:-0.420433 66:-0.192842 67:-0.454287 68:-0.232746 69:-0.267221 70:-0.528783 71:-0.593364 72:-0.408129 73:-0.397498 74:-0.229493 75:-0.693688 76:0.206269 77:-0.575512 78:-0.46976 79:0.130341 80:-0.470145 81:0.285199 82:-0.680974 83:-0.568236 84:0.23218 85:-0.769808 86:0.498288 87:-0.220557 88:-0.344334 89:-0.81341 90:0.523041 91:-0.00284305 92:-0.893872 93:-0.700703 94:-0.274521 95:-0.739282 96:-0.232826 97:-0.623316 98:0.498096 99:-0.552685 100:-0.336776 101:0.760521 102:0.802632 103:-0.302973 104:-0.449325 105:0.240025 106:0.773916 107:-0.0248541 108:0.258627 109:0.177697 110:0.117865 111:-0.385773 112:0.744786 113:0.386034 114:0.426712 115:0.538137 116:0.128252 117:-0.255328 118:0.358277 119:1 120:1 121:0.395118 122:-0.380592 123:0.0334674 124:-0.338508 125:-0.545142 126:0.382642 127:-0.339896 128:-0.121676 129:-0.26691 130:-0.175634 131:-0.468445 132:-0.205837 133:-0.265378 134:-0.152334 135:0.0611229 136:-0.265378 137:-0.0164805 138:0.239666 139:-0.266217 140:0.30634 141:0.218562 142:0.478276 143:-0.2 144:-0.2 145:-0.2 146:-0.2 147:-0.153846 148:-0.153846 149:-0.185185 150:-0.185185 151:-0.214286 152:-0.867182 153:-0.585366 154:0.0526342 155:0.0588264 156:0.0666655 157:0.230764 158:-0.0769246 159:-0.0769246 160:-0.0769246 161:-0.166665 162:-0.0909086 163:-0.636363 164:-0.555557 165:-0.555557 166:-0.499998 167:-0.714285 168:-1 169:-1 170:-1 171:-1 172:-1 173:-1 174:-1 176:-0.199999 177:-0.199999 178:-0.199999 179:-0.199999 180:-0.153846 181:-0.153846 182:-0.185186 183:-0.185186 184:-0.214287 
0.03222219976456733 -0.03222219976456733 1:-0.223073 2:-0.120791 3:0.666826 4:-0.250438 5:-0.743606 6:0.700034 7:0.438137 8:0.143645 9:0.175746 10:-0.0526316 11:-0.0588235 12:-0.2 13:-0.230769 14:-0.230769 15:-0.230769 16:-0.230769 17:-0.166667 18:-0.0909091 19:-0.454545 20:-0.555556 21:-0.555556 22:-0.5 23:-0.714286 24:-1 25:-1 26:-1 27:-1 28:-1 29:-1 30:-1 32:-0.572704 33:0.162846 34:-0.347075 35:-0.539286 36:-0.684803 37:-0.691868 38:-0.336265 39:-0.86051 40:-0.866625 41:-0.403084 42:-0.460862 43:-0.815638 44:-0.71679 45:-0.939384 46:-0.191628 47:-0.642577 48:-0.544509 49:-0.704381 50:-0.841036 51:-0.8648 52:-0.915633 53:-0.357217 54:-0.799164 55:-0.896125 56:-0.029072 57:-0.62519 58:0.0807669 59:-0.762838 60:-0.804151 61:-0.883373 62:-0.821715 63:-0.508485 64:-0.700631 65:-0.748516 66:-0.440745 67:-0.683583 68:-0.474396 69:-0.742756 70:-0.310439 71:-0.54887 72:-0.519169 73:-0.166282 74:-0.26621 75:-0.626202 76:-0.847446 77:-0.272405 78:0.586637 79:-0.361886 80:-0.463125 81:-0.807131 82:0.00530958 83:-0.570755 84:-0.68753 85:-0.548187 86:-0.343241 87:-0.0947928 88:-0.700519 89:-0.412974 90:-0.27871 91:-0.210478 92:-0.200316 93:-0.621791 94:-0.602369 95:-0.208508 96:-0.494211 97:-0.307108 98:-0.561045 99:-0.170619 100:0.663506 101:-0.583356 102:-0.7858 103:-0.596038 104:-0.627842 105:-0.573618 106:-0.700802 107:-0.612441 108:-0.339542 109:-0.677519 110:-0.655157 111:-0.762462 112:-0.538035 113:-0.26727 114:-0.192142 115:-0.351231 116:-0.526347 117:-0.713129 118:-0.716853 119:-0.535248 120:0.14398 121:-0.901051 122:-0.434331 123:-0.7345 124:-0.875699 125:-0.185749 126:-0.610253 127:-0.414788 128:-0.292343 129:-0.461569 130:-0.252452 131:-0.416765 132:0.0892771 133:-0.0570437 134:-0.340179 135:0.269182 136:-0.0570437 137:0.128942 138:0.163742 139:-0.299401 140:0.561129 141:0.208117 142:0.420605 143:-0.28 144:-0.28 145:-0.28 146:-0.28 147:-0.307692 148:-0.307692 149:-0.333333 150:-0.259259 151:-0.285714 152:-0.780156 153:-0.706423 154:-0.0526271 155:-0.0588264 156:-0.199999 157:-0.230771 158:-0.230771 159:-0.230771 160:-0.230771 161:-0.166665 162:-0.0909086 163:-0.454544 164:-0.555557 165:-0.555557 166:-0.499998 167:-0.714285 168:-1 169:-1 170:-1 171:-1 172:-1 173:-1 174:-1 176:-0.279997 177:-0.279997 178:-0.279997 179:-0.279997 180:-0.307689 181:-0.307689 182:-0.333332 183:-0.259259 184:-0.285715 
0.02698217648899143 -0.02698217648899143 1:-0.277186 2:-0.258175 3:0.702835 4:-0.306899 5:-0.786495 6:0.727162 7:0.444887 8:0.137588 9:0.168531 10:-0.157895 11:-0.0588235 12:0.0666667 13:-0.230769 14:-0.384615 15:-0.384615 16:-0.384615 17:-0.333333 18:-0.636364 19:-0.818182 20:-0.777778 21:-0.777778 22:-0.75 23:-0.714286 24:-1 25:-1 26:-1 27:-1 28:-1 29:-1 30:-1 32:-0.622385 33:0.0565928 34:-0.489609 35:-0.678632 36:-0.820293 37:-0.448427 38:-0.835189 39:-0.615392 40:-0.80817 41:-0.563134 42:-0.57551 43:-0.592985 44:-0.804318 45:-0.845709 46:-0.396041 47:-0.941137 48:-0.473402 49:-0.84939 50:-0.659333 51:-0.868512 52:-0.850386 53:-0.6988 54:-0.52851 55:-0.820972 56:-0.761538 57:-0.137054 58:-0.582504 59:-0.748724 60:-0.662022 61:-0.772879 62:-0.804415 63:-0.676633 64:-0.762047 65:-0.791736 66:-0.836494 67:-0.839774 68:0.0422737 69:-0.40949 70:-0.717392 71:-0.0777392 72:-0.683507 73:-0.335153 74:-0.470779 75:-0.708197 76:-0.661643 77:-0.426125 78:-0.373018 79:0.745095 80:-0.45887 81:-0.303283 82:-0.188138 83:-0.141856 84:0.453 85:-0.307922 86:0.0382987 87:-0.162143 88:0.542145 89:-0.0225995 90:-0.306333 91:-0.204553 92:-0.228785 93:-0.348957 94:-0.417031 95:-0.656223 96:-0.134072 97:-0.454955 98:-0.178354 99:-0.448214 100:-0.53626 101:-0.439151 102:-0.272894 103:-0.660354 104:-0.557393 105:-0.245166 106:-0.574852 107:-0.482753 108:-0.586275 109:-0.763446 110:-0.579159 111:-0.66816 112:-0.388375 113:-0.636842 114:-0.308487 115:-0.817836 116:-0.900979 117:-0.782691 118:-0.584915 119:-0.891188 120:-0.776099 121:-0.933255 122:-0.641011 123:-0.438044 124:-0.525996 125:-0.69401 126:-0.608959 127:-0.653629 128:-0.739246 129:-0.919957 130:-0.838688 131:-0.314044 132:0.146295 133:-0.12795 134:-0.279189 135:0.201629 136:-0.12795 137:0.100802 138:0.127787 139:-0.275124 140:0.600783 141:0.229313 142:0.442718 143:-0.36 144:-0.36 145:-0.36 146:-0.28 147:-0.307692 148:-0.307692 149:-0.333333 150:-0.185185 151:-0.214286 152:-0.737882 153:-0.731736 154:-0.157895 155:-0.0588264 156:0.0666655 157:-0.230771 158:-0.384616 159:-0.384616 160:-0.384616 161:-0.333331 162:-0.636363 163:-0.818181 164:-0.777778 165:-0.777778 166:-0.749999 167:-0.714285 168:-1 169:-1 170:-1 171:-1 172:-1 173:-1 174:-1 176:-0.360001 177:-0.360001 178:-0.360001 179:-0.279997 180:-0.307689 181:-0.307689 182:-0.333332 183:-0.185186 184:-0.214287 
2.251940329712791 -2.251940329712791 1:-0.904937 2:-0.860927 3:-0.33705 4:-0.910341 5:-0.951606 6:-0.103322 7:-0.190807 8:-0.423199 9:-0.578581 10:-0.789474 11:-0.882353 12:-0.866667 13:-0.846154 14:-0.846154 15:-1 16:-1 17:-1 18:-1 19:-1 20:-1 21:-1 22:-1 23:-1 24:-1 25:-1 26:-1 27:-1 28:-1 29:-1 30:-1 32:-0.948245 33:-0.972796 34:-0.82188 35:-0.92563 36:-0.957206 37:-0.950791 38:-0.937684 39:-0.986346 40:-0.927746 41:-0.913391 42:-0.819223 43:-0.859959 44:-0.818595 45:-0.936124 46:-0.933798 47:-0.952423 48:-0.989693 49:-0.973576 50:-0.964794 51:-0.884331 52:-0.93837 53:-0.914831 54:-0.959314 55:-0.965134 56:-0.979002 57:-0.885905 58:-0.877145 59:-0.997286 60:-0.869656 61:-0.978887 62:-0.993147 63:-0.941714 64:-0.898193 65:-0.917777 66:-0.925592 67:-0.881099 68:-0.879801 69:-1 70:-0.935675 71:-0.877043 72:-0.977248 73:-0.995282 74:-0.943861 75:-0.8943 76:-0.975783 77:-0.93915 78:-0.831824 79:-0.849148 80:-0.91205 81:-0.920202 82:-0.883037 83:-0.950043 84:-0.857775 85:-0.942396 86:-0.975157 87:-0.998213 88:-0.918794 89:-0.903267 90:-0.89059 91:-0.846803 92:-0.890176 93:-0.843947 94:-0.938604 95:-0.898971 96:-1 97:-0.846877 98:-0.964987 99:-0.985979 100:-0.920739 101:-0.856246 102:-0.859321 103:-0.97358 104:-0.862285 105:-0.968008 106:-0.97643 107:-0.935381 108:-0.765322 109:-0.977694 110:-0.896289 111:-0.939889 112:-0.863579 113:-0.914592 114:-0.987667 115:-0.941239 116:-0.914444 117:-0.937496 118:-0.948497 119:-0.952992 120:-0.910959 121:-0.888162 122:-0.911445 123:-0.927814 124:-0.936437 125:-0.868734 126:-0.912897 127:-0.98498 128:-0.989791 129:-0.958201 130:-0.993679 131:-0.394099 132:0.185009 133:-0.00307792 134:-0.384732 135:0.318528 136:-0.00307792 137:0.872928 138:-0.869981 139:-0.15158 140:0.395252 141:0.502622 142:-0.0349882 143:-1 144:-1 145:-1 146:-1 147:-0.923077 148:-0.923077 149:-0.925926 150:-0.925926 151:-0.857143 152:0.443912 153:-0.777591 154:-0.789473 155:-0.882353 156:-0.866666 157:-0.846154 158:-0.846154 159:-1 160:-1 161:-1 162:-1 163:-1 164:-1 165:-1 166:-1 167:-1 168:-1 169:-1 170:-1 171:-1 172:-1 173:-1 174:-1 176:-1 177:-1 178:-1 179:-1 180:-0.923077 181:-0.923077 182:-0.925926 183:-0.925926 184:-0.857143 
0.4576517656547895 -0.4576517656547895 1:-0.899255 2:-0.83767 3:-0.376242 4:-0.912222 5:-0.938429 6:-0.132691 7:-0.231322 8:-0.474194 9:-0.604114 10:-0.684211 11:-0.882353 12:-0.866667 13:-0.846154 14:-0.846154 15:-1 16:-1 17:-1 18:-1 19:-1 20:-1 21:-1 22:-1 23:-1 24:-1 25:-1 26:-1 27:-1 28:-1 29:-1 30:-1 32:-0.928129 33:-0.920035 34:-0.78683 35:-0.937661 36:-0.971795 37:-0.963774 38:-0.935087 39:-0.988874 40:-0.901425 41:-0.944058 42:-0.857467 43:-0.878649 44:-0.910159 45:-0.838773 46:-0.890851 47:-0.965138 48:-0.977788 49:-0.951225 50:-0.982546 51:-0.88979 52:-0.960503 53:-0.805876 54:-0.969848 55:-0.947777 56:-0.933859 57:-0.847284 58:-0.86947 59:-0.97438 60:-0.793141 61:-1 62:-0.965231 63:-0.974191 64:-0.873535 65:-0.947955 66:-0.916133 67:-0.942969 68:-0.939928 69:-0.946209 70:-0.944873 71:-0.841884 72:-0.919672 73:-0.8875 74:-0.966881 75:-0.932568 76:-0.915889 77:-0.86491 78:-0.89733 79:-0.996159 80:-0.924135 81:-0.999198 82:-0.89901 83:-0.921156 84:-0.808138 85:-0.935829 86:-0.894183 87:-0.930338 88:-0.901126 89:-0.85014 90:-0.826787 91:-0.874456 92:-0.872444 93:-0.957486 94:-0.950101 95:-0.96548 96:-0.905846 97:-0.830665 98:-0.919023 99:-0.968663 100:-0.955989 101:-0.900272 102:-0.828961 103:-0.955603 104:-0.915267 105:-0.998736 106:-0.91808 107:-0.988314 108:-0.849102 109:-0.941575 110:-0.916325 111:-0.96382 112:-0.65317 113:-0.94398 114:-0.93632 115:-0.940324 116:-0.879187 117:-0.90041 118:-0.975654 119:-0.939283 120:-0.952141 121:-0.886309 122:-0.966875 123:-0.849794 124:-0.967716 125:-0.976849 126:-0.989192 127:-0.928316 128:-0.951532 129:-0.9321 130:-0.915522 131:-0.440287 132:0.209928 133:0.0834852 134:-0.453053 135:0.394202 136:0.0834852 137:0.858563 138:-0.818284 139:-0.181363 140:0.274016 141:0.303227 142:-0.193602 143:-1 144:-1 145:-1 146:-0.92 147:-0.923077 148:-0.923077 149:-0.851852 150:-0.851852 151:-0.857143 152:0.398407 153:-0.792998 154:-0.68421 155:-0.882353 156:-0.866666 157:-0.846154 158:-0.846154 159:-1 160:-1 161:-1 162:-1 163:-1 164:-1 165:-1 166:-1 167:-1 168:-1 169:-1 170:-1 171:-1 172:-1 173:-1 174:-1 176:-1 177:-1 178:-1 179:-0.92 180:-0.923077 181:-0.923077 182:-0.851852 183:-0.851852 184:-0.857143 
3.028130239892743 -3.028130239892743 1:-0.870154 2:-0.766003 3:-0.368085 4:-0.883738 5:-0.904973 6:-0.088052 7:-0.266911 8:-0.495436 9:-0.539044 10:-0.578947 11:-0.882353 12:-0.866667 13:-0.846154 14:-0.846154 15:-0.846154 16:-0.846154 17:-1 18:-1 19:-1 20:-1 21:-1 22:-1 23:-1 24:-1 25:-1 26:-1 27:-1 28:-1 29:-1 30:-1 32:-0.941139 33:-0.74584 34:-0.877491 35:-0.925872 36:-0.988858 37:-0.908916 38:-0.964519 39:-0.964411 40:-0.913481 41:-1 42:-0.778966 43:-0.904712 44:-0.942577 45:-0.932712 46:-0.695635 47:-0.944645 48:-0.962394 49:-0.933727 50:-0.918944 51:-0.953688 52:-0.880247 53:-0.90244 54:-0.932641 55:-0.88542 56:-0.940815 57:-0.987446 58:-0.798339 59:-0.980134 60:-0.922487 61:-0.859445 62:-0.905705 63:-0.949215 64:-0.923328 65:-0.937603 66:-0.853852 67:-0.948024 68:-0.949732 69:-0.909019 70:-0.911314 71:-0.910944 72:-0.965791 73:-0.887639 74:-0.973271 75:-0.854419 76:-0.986812 77:-1 78:-0.949554 79:-0.810031 80:-0.996718 81:-0.925123 82:-0.841654 83:-0.801801 84:-0.950808 85:-0.899207 86:-0.989827 87:-0.895281 88:-0.85835 89:-0.872795 90:-0.937594 91:-0.955195 92:-0.989554 93:-0.939922 94:-0.881282 95:-0.953488 96:-0.927781 97:-0.867838 98:-0.713924 99:-0.817853 100:-0.925607 101:-0.886328 102:-0.833795 103:-0.925805 104:-0.944676 105:-0.85835 106:-0.995897 107:-0.881099 108:-0.8714 109:-0.898369 110:-1 111:-0.89325 112:-0.891684 113:-0.996767 114:-0.884491 115:-0.992524 116:-0.93452 117:-0.880586 118:-0.872865 119:-0.98519 120:-0.978528 121:-0.920826 122:-0.992911 123:-0.789135 124:-0.896695 125:-0.962608 126:-0.873771 127:-0.989707 128:-0.941992 129:-0.899472 130:-0.984999 131:-0.363074 132:0.142227 133:-0.0772331 134:-0.323099 135:0.250268 136:-0.0772331 137:0.846706 138:-0.757743 139:-0.327775 140:-0.100066 141:-0.0969781 142:-0.365899 143:-1 144:-1 145:-0.92 146:-0.92 147:-0.923077 148:-0.846154 149:-0.851852 150:-0.777778 151:-0.785714 152:0.148177 153:-0.657702 154:-0.578946 155:-0.882353 156:-0.866666 157:-0.846154 158:-0.846154 159:-0.846154 160:-0.846154 161:-1 162:-1 163:-1 164:-1 165:-1 166:-1 167:-1 168:-1 169:-1 170:-1 171:-1 172:-1 173:-1 174:-1 176:-1 177:-1 178:-0.92 179:-0.92 180:-0.923077 181:-0.846154 182:-0.851852 183:-0.777778 184:-0.785714 
1.041966759912342 -1.041966759912342 1:-0.88415 2:-0.812641 3:-0.322015 4:-0.895991 5:-0.939641 6:-0.0519621 7:-0.221284 8:-0.430662 9:-0.374286 10:-0.578947 11:-0.882353 12:-0.866667 13:-0.846154 14:-0.846154 15:-0.846154 16:-1 17:-1 18:-1 19:-1 20:-1 21:-1 22:-1 23:-1 24:-1 25:-1 26:-1 27:-1 28:-1 29:-1 30:-1 32:-0.964436 33:-0.697709 34:-0.90436 35:-0.947276 36:-0.958418 37:-0.90195 38:-0.953541 39:-0.968898 40:-0.912039 41:-0.980273 42:-0.844937 43:-0.849125 44:-0.931008 45:-0.889245 46:-0.827661 47:-0.935807 48:-0.892552 49:-0.943728 50:-0.965015 51:-0.928806 52:-0.898085 53:-0.848376 54:-0.881993 55:-0.999659 56:-0.969069 57:-0.924499 58:-0.856551 59:-0.94012 60:-0.775683 61:-0.958843 62:-0.941305 63:-0.887935 64:-0.836702 65:-0.977238 66:-0.926711 67:-0.94557 68:-0.946215 69:-0.892373 70:-0.965104 71:-0.930666 72:-0.959611 73:-0.879224 74:-0.865948 75:-0.928491 76:-1 77:-0.976256 78:-0.825266 79:-0.869017 80:-0.96374 81:-0.844582 82:-0.947458 83:-0.924549 84:-0.939698 85:-0.968235 86:-0.956746 87:-0.950198 88:-0.915706 89:-0.931263 90:-0.989603 91:-0.989785 92:-0.975266 93:-0.842147 94:-0.949043 95:-0.951519 96:-0.82461 97:-0.953066 98:-0.908049 99:-0.947997 100:-0.93295 101:-0.906096 102:-0.957083 103:-0.913563 104:-0.924807 105:-0.850288 106:-1 107:-0.941881 108:-0.851787 109:-0.80115 110:-0.915014 111:-0.977907 112:-0.976105 113:-0.860543 114:-0.842326 115:-0.88027 116:-0.964909 117:-0.929881 118:-0.838776 119:-0.927617 120:-0.880118 121:-0.776924 122:-0.900512 123:-0.783304 124:-0.791466 125:-0.938236 126:-0.979485 127:-0.986268 128:-0.860717 129:-0.977413 130:-0.81491 131:-0.378597 132:0.110997 133:-0.0850457 134:-0.316429 135:0.242881 136:-0.0850457 137:0.852511 138:-0.770344 139:-0.230243 140:0.1309 141:0.252487 142:0.263526 143:-1 144:-1 145:-0.92 146:-0.92 147:-0.923077 148:-0.923077 149:-0.851852 150:-0.777778 151:-0.785714 152:0.321569 153:-0.604608 154:-0.578946 155:-0.882353 156:-0.866666 157:-0.846154 158:-0.846154 159:-0.846154 160:-1 161:-1 162:-1 163:-1 164:-1 165:-1 166:-1 167:-1 168:-1 169:-1 170:-1 171:-1 172:-1 173:-1 174:-1 176:-1 177:-1 178:-0.92 179:-0.92 180:-0.923077 181:-0.923077 182:-0.851852 183:-0.777778 184:-0.785714 
1.88068810391798 -1.88068810391798 1:-0.890525 2:-0.825822 3:-0.287468 4:-0.900992 5:-0.958479 6:-0.0148178 7:-0.200267 8:-0.375059 9:-0.337423 10:-0.578947 11:-0.882353 12:-0.866667 13:-0.846154 14:-0.846154 15:-1 16:-1 17:-1 18:-1 19:-1 20:-1 21:-1 22:-1 23:-1 24:-1 25:-1 26:-1 27:-1 28:-1 29:-1 30:-1 32:-0.954866 33:-0.693016 34:-0.93244 35:-0.946275 36:-0.959654 37:-0.948232 38:-0.954972 39:-0.930316 40:-0.91379 41:-0.980024 42:-0.75751 43:-0.904341 44:-0.875231 45:-0.892533 46:-0.878616 47:-0.966235 48:-0.954075 49:-0.995582 50:-0.94083 51:-0.901933 52:-0.949812 53:-0.967493 54:-0.784947 55:-0.963937 56:-0.951745 57:-0.878054 58:-0.951438 59:-0.91991 60:-0.750704 61:-0.982842 62:-0.995751 63:-0.952599 64:-0.877525 65:-0.977973 66:-0.921966 67:-0.927747 68:-0.879506 69:-0.924173 70:-0.934308 71:-0.954814 72:-0.840161 73:-0.967727 74:-0.854548 75:-0.949631 76:-0.92241 77:-0.958834 78:-0.839557 79:-0.837259 80:-0.993659 81:-0.930344 82:-0.962973 83:-0.940274 84:-0.847105 85:-0.967435 86:-0.897399 87:-0.948997 88:-0.966405 89:-0.931562 90:-0.930378 91:-0.925358 92:-0.879343 93:-0.919719 94:-0.920123 95:-0.861057 96:-0.944183 97:-0.979774 98:-0.989647 99:-0.893223 100:-0.946381 101:-0.782382 102:-0.923447 103:-0.934773 104:-0.867424 105:-0.791067 106:-0.892931 107:-0.824147 108:-0.941262 109:-0.979949 110:-0.911209 111:-0.908178 112:-0.945059 113:-0.873051 114:-0.814386 115:-0.853592 116:-0.925486 117:-0.961099 118:-0.902647 119:-0.909269 120:-0.883357 121:-0.936441 122:-1 123:-0.955937 124:-0.992469 125:-0.861937 126:-0.932374 127:-0.872283 128:-0.86935 129:-0.984021 130:-1 131:-0.376547 132:0.101187 133:-0.0956624 134:-0.307322 135:0.232783 136:-0.0956624 137:0.848035 138:-0.767049 139:-0.161137 140:0.260848 141:0.494671 142:0.520936 143:-1 144:-1 145:-0.92 146:-0.92 147:-0.923077 148:-0.923077 149:-0.851852 150:-0.777778 151:-0.785714 152:0.424265 153:-0.668588 154:-0.578946 155:-0.882353 156:-0.866666 157:-0.846154 158:-0.846154 159:-1 160:-1 161:-1 162:-1 163:-1 164:-1 165:-1 166:-1 167:-1 168:-1 169:-1 170:-1 171:-1 172:-1 173:-1 174:-1 176:-1 177:-1 178:-0.92 179:-0.92 180:-0.923077 181:-0.923077 182:-0.851852 183:-0.777778 184:-0.785714 
0.9929806044105881 -0.9929806044105881 1:-0.894197 2:-0.830422 3:-0.258859 4:-0.901896 5:-0.969355 6:0.013662 7:-0.180885 8:-0.318675 9:-0.340849 10:-0.578947 11:-0.882353 12:-0.866667 13:-0.846154 14:-0.846154 15:-1 16:-1 17:-1 18:-1 19:-1 20:-1 21:-1 22:-1 23:-1 24:-1 25:-1 26:-1 27:-1 28:-1 29:-1 30:-1 32:-0.929793 33:-0.70247 34:-0.983228 35:-0.94616 36:-0.962802 37:-0.981314 38:-0.961187 39:-0.898188 40:-0.898594 41:-0.928711 42:-0.791354 43:-0.958979 44:-0.888272 45:-0.826362 46:-0.975485 47:-0.954107 48:-0.930182 49:-0.925635 50:-0.93561 51:-0.90631 52:-0.93919 53:-0.979624 54:-0.937097 55:-0.961012 56:-0.894936 57:-0.876081 58:-0.964783 59:-0.924691 60:-0.908401 61:-0.860824 62:-0.98766 63:-0.953797 64:-0.940966 65:-0.895913 66:-0.949968 67:-0.969341 68:-0.795644 69:-0.949231 70:-0.930297 71:-0.917927 72:-0.946104 73:-0.891402 74:-0.925263 75:-0.947344 76:-0.929895 77:-0.934408 78:-0.949382 79:-0.946703 80:-0.900464 81:-0.974546 82:-0.816427 83:-0.987808 84:-0.961307 85:-0.936821 86:-0.944577 87:-0.970569 88:-0.800629 89:-0.935967 90:-0.92905 91:-0.842599 92:-0.956024 93:-0.838087 94:-0.93296 95:-0.989525 96:-0.910293 97:-0.930099 98:-0.912151 99:-0.939664 100:-0.803251 101:-0.870308 102:-0.945871 103:-0.918337 104:-0.869937 105:-0.987506 106:-0.837797 107:-0.901455 108:-0.891185 109:-0.910363 110:-0.824817 111:-0.97667 112:-0.863785 113:-0.917254 114:-0.700347 115:-0.957239 116:-0.920516 117:-0.908538 118:-0.835304 119:-0.930051 120:-0.83372 121:-0.956282 122:-0.841659 123:-0.953885 124:-0.976144 125:-0.896556 126:-0.842457 127:-0.897332 128:-1 129:-0.924408 130:-0.885498 131:-0.367066 132:0.101022 133:-0.106684 134:-0.297781 135:0.222226 136:-0.106684 137:0.848871 138:-0.767561 139:-0.11245 140:0.361686 141:0.709847 142:0.634754 143:-1 144:-1 145:-1 146:-0.92 147:-0.923077 148:-0.923077 149:-0.851852 150:-0.777778 151:-0.785714 152:0.478595 153:-0.715749 154:-0.578946 155:-0.882353 156:-0.866666 157:-0.846154 158:-0.846154 159:-1 160:-1 161:-1 162:-1 163:-1 164:-1 165:-1 166:-1 167:-1 168:-1 169:-1 170:-1 171:-1 172:-1 173:-1 174:-1 176:-1 177:-1 178:-1 179:-0.92 180:-0.923077 181:-0.923077 182:-0.851852 183:-0.777778 184:-0.785714 
5.664933887453218 -5.664933887453218 1:-0.84521 2:-0.739766 3:-0.0487177 4:-0.840843 5:-0.969242 6:0.236804 7:-0.0731125 8:-0.132365 9:-0.408828 10:-0.684211 11:-0.647059 12:-0.733333 13:-0.846154 14:-0.846154 15:-0.846154 16:-0.846154 17:-1 18:-1 19:-1 20:-1 21:-1 22:-1 23:-1 24:-1 25:-1 26:-1 27:-1 28:-1 29:-1 30:-1 32:-0.921539 33:-0.686039 34:-0.85143 35:-0.928527 36:-0.965259 37:-0.848492 38:-0.922572 39:-0.948755 40:-0.989297 41:-0.90639 42:-0.860371 43:-0.864241 44:-0.946391 45:-0.850481 46:-0.917775 47:-0.950172 48:-0.7944 49:-0.934427 50:-0.914381 51:-0.926168 52:-0.866964 53:-0.77677 54:-0.904598 55:-0.982523 56:-0.918664 57:-0.945096 58:-0.847483 59:-0.979553 60:-0.906213 61:-0.916036 62:-0.862662 63:-0.862535 64:-0.903393 65:-0.928884 66:-0.964123 67:-0.84801 68:-0.874447 69:-0.984652 70:-0.970823 71:-0.953501 72:-0.928419 73:-0.763224 74:-0.955138 75:-0.954985 76:-0.866518 77:-0.902286 78:-0.797059 79:-0.941656 80:-0.933213 81:-0.920818 82:-0.810672 83:-0.956304 84:-0.838123 85:-0.950716 86:-0.973592 87:-1 88:-0.761244 89:-0.961568 90:-0.946522 91:-0.935367 92:-0.960571 93:-0.925493 94:-0.992665 95:-0.876535 96:-0.91854 97:-0.919702 98:-0.933844 99:-0.689525 100:-0.99441 101:-0.902352 102:-0.940092 103:-0.850616 104:-0.852166 105:-0.869764 106:-0.862213 107:-0.895026 108:-0.978898 109:-0.92025 110:-0.881922 111:-0.956808 112:-0.907921 113:-0.945548 114:-0.91778 115:-0.903754 116:-0.861854 117:-0.960142 118:-0.974543 119:-0.850323 120:-0.868883 121:-0.887605 122:-0.978172 123:-0.951965 124:-0.870828 125:-0.930002 126:-0.99662 127:-0.919433 128:-0.95386 129:-0.917425 130:-0.961401 131:-0.347097 132:0.391596 133:0.106055 134:-0.470265 135:0.413264 136:0.106055 137:0.798888 138:-0.666075 139:-0.052045 140:0.493006 141:0.752775 142:0.19837 143:-1 144:-1 145:-0.92 146:-0.92 147:-0.846154 148:-0.769231 149:-0.777778 150:-0.777778 151:-0.785714 152:0.206406 153:-0.848968 154:-0.68421 155:-0.647059 156:-0.733333 157:-0.846154 158:-0.846154 159:-0.846154 160:-0.846154 161:-1 162:-1 163:-1 164:-1 165:-1 166:-1 167:-1 168:-1 169:-1 170:-1 171:-1 172:-1 173:-1 174:-1 176:-1 177:-1 178:-0.92 179:-0.92 180:-0.846154 181:-0.76923 182:-0.777778 183:-0.777778 184:-0.785714 
0.1448565097636518 -0.1448565097636518 1:-0.559881 2:-0.388724 3:0.112725 4:-0.54312 5:-0.760632 6:0.42847 7:-0.0199334 8:-0.0867952 9:-0.245171 10:-0.368421 11:-0.294118 12:-0.333333 13:-0.230769 14:-0.384615 15:-0.384615 16:-0.384615 17:-0.666667 18:-0.818182 19:-0.818182 20:-0.777778 21:-1 22:-1 23:-1 24:-1 25:-1 26:-1 27:-1 28:-1 29:-1 30:-1 32:0.474814 33:-0.731791 34:-0.491777 35:-0.626098 36:-0.746861 37:-0.556053 38:-0.816975 39:-0.705458 40:-0.674346 41:-0.894206 42:-0.434646 43:-0.374853 44:-0.672343 45:-0.763799 46:-0.636149 47:-0.735838 48:-0.758686 49:-0.767912 50:-0.82427 51:-0.864854 52:-0.655686 53:-0.00302813 54:-0.780798 55:-0.781132 56:-0.64684 57:-0.480628 58:-0.5244 59:-0.759933 60:-0.704872 61:-0.949103 62:-0.854984 63:0.283535 64:-0.82074 65:-0.872403 66:-0.670293 67:-0.692501 68:-0.710838 69:-0.754034 70:-0.802967 71:-0.538307 72:-0.85707 73:-0.347479 74:-0.476636 75:-0.881593 76:-0.533246 77:-0.946631 78:-0.595109 79:-0.387823 80:-0.82982 81:-0.69629 82:-0.638679 83:-0.472624 84:-0.666016 85:-0.827368 86:-0.772237 87:-0.677612 88:-0.818915 89:-0.906671 90:-0.34483 91:-0.660872 92:-0.774052 93:-0.726633 94:-0.67922 95:-0.894137 96:-0.919913 97:-0.510874 98:-0.524915 99:-0.73029 100:-0.383499 101:-0.736018 102:-0.34487 103:-0.672479 104:-0.758998 105:-0.963606 106:-0.719996 107:-0.693853 108:-0.788306 109:-0.590006 110:-0.440508 111:-0.812242 112:-0.567201 113:-0.458823 114:-0.678097 115:-0.800616 116:-0.793035 117:-0.811034 118:-0.719211 119:-0.508642 120:-0.751607 121:-0.806416 122:-0.750308 123:-0.599869 124:-0.746288 125:-0.783686 126:-0.834866 127:-0.753275 128:-0.794335 129:-0.673126 130:-0.894349 131:-0.437438 132:-0.622016 133:-0.674156 134:0.309533 135:-0.450428 136:-0.674156 137:0.58228 138:-0.311303 139:-0.369272 140:-0.109789 141:-0.260978 142:-0.465224 143:-0.84 144:-0.76 145:-0.68 146:-0.68 147:-0.692308 148:-0.615385 149:-0.555556 150:-0.555556 151:-0.571429 152:-0.642404 153:-0.763612 154:-0.36842 155:-0.294118 156:-0.333333 157:-0.230771 158:-0.384616 159:-0.384616 160:-0.384616 161:-0.666666 162:-0.818181 163:-0.818181 164:-0.777778 165:-1 166:-1 167:-1 168:-1 169:-1 170:-1 171:-1 172:-1 173:-1 174:-1 176:-0.84 177:-0.76 178:-0.68 179:-0.68 180:-0.692307 181:-0.615384 182:-0.555556 183:-0.555556 184:-0.571428 
0.08324479202204568 -0.08324479202204568 1:-0.409388 2:-0.189995 3:0.508455 4:-0.372291 5:-0.771924 6:0.718387 7:0.226558 8:0.227431 9:0.156827 10:-0.157895 11:-0.176471 12:-0.2 13:-0.0769231 14:-0.0769231 15:-0.0769231 16:-0.0769231 17:-0.333333 18:-0.636364 19:-0.636364 20:-0.555556 21:-0.777778 22:-0.75 23:-0.714286 24:-1 25:-1 26:-1 27:-1 28:-1 29:-1 30:-1 32:1 33:0.583192 34:-0.303306 35:-0.327897 36:-0.424647 37:0.137826 38:-0.717226 39:-0.331496 40:-0.486517 41:-0.213887 42:-0.0414924 43:-0.354819 44:-0.917804 45:-0.191318 46:0.53054 47:-0.813026 48:-0.36387 49:-0.515393 50:-0.571886 51:-0.484073 52:-0.828194 53:-0.0449493 54:-0.530233 55:-0.651925 56:-0.678045 57:0.104632 58:0.117306 59:-0.37127 60:0.596027 61:-0.586738 62:-0.458854 63:-0.20651 64:-0.839208 65:-0.238458 66:-0.426073 67:-0.199188 68:-0.956043 69:-0.59468 70:-0.633578 71:-0.336787 72:0.401148 73:-0.325083 74:-0.568988 75:-0.404285 76:-0.336886 77:-0.169551 78:-0.0900472 79:-0.583364 80:-0.779321 81:-0.677052 82:-0.415285 83:-0.877647 84:-0.223045 85:-0.700215 86:0.438736 87:-0.392476 88:0.0817153 89:-0.749559 90:-0.457955 91:-0.72839 92:-0.622503 93:-0.768219 94:-0.731222 95:-0.708345 96:0.23196 97:-0.705095 98:0.420284 99:-0.190346 100:-0.368554 101:-0.500771 102:-0.688626 103:-0.272918 104:-0.762575 105:-0.657932 106:0.0415207 107:-0.06335 108:-0.0424872 109:-0.210982 110:-0.634892 111:-0.70624 112:-0.373674 113:-0.899233 114:-0.750373 115:-0.659547 116:-0.660043 117:-0.606757 118:-0.132072 119:-0.905801 120:-0.17689 121:-0.0649479 122:-0.564489 123:-0.34802 124:-0.871716 125:-0.641218 126:-0.518016 127:-0.791492 128:-0.155438 129:-0.865547 130:-0.033446 131:-0.531756 132:-0.95666 133:-0.968625 134:1 135:-0.930765 136:-0.968625 137:0.473311 138:-0.121328 139:-0.257621 140:0.284521 141:0.182946 142:0.262334 143:-0.68 144:-0.6 145:-0.52 146:-0.52 147:-0.538462 148:-0.461538 149:-0.481481 150:-0.481481 151:-0.5 152:-0.721954 153:-0.654283 154:-0.157895 155:-0.176471 156:-0.199999 157:-0.0769246 158:-0.0769246 159:-0.0769246 160:-0.0769246 161:-0.333331 162:-0.636363 163:-0.636363 164:-0.555557 165:-0.777778 166:-0.749999 167:-0.714285 168:-1 169:-1 170:-1 171:-1 172:-1 173:-1 174:-1 176:-0.68 177:-0.6 178:-0.52 179:-0.52 180:-0.538461 181:-0.461538 182:-0.481482 183:-0.481482 184:-0.500001 
0.6664268196497087 -0.6664268196497087 1:-0.693609 2:-0.467162 3:-0.0606463 4:-0.689242 5:-0.821296 6:-0.116121 7:0.254701 8:0.335816 9:0.0200108 10:-0.578947 11:-0.647059 12:-0.6 13:-0.538462 14:-0.692308 15:-0.692308 16:-0.692308 17:-0.666667 18:-0.818182 19:-0.818182 20:-0.777778 21:-0.777778 22:-0.75 23:-1 24:-1 25:-1 26:-1 27:-1 28:-1 29:-1 30:-1 32:0.0335102 33:-0.680146 34:-0.99682 35:-0.717929 36:-0.977175 37:-0.847041 38:-0.943215 39:-0.881252 40:-0.788502 41:-0.721835 42:-0.792075 43:-0.897013 44:-0.936494 45:-0.875137 46:-0.760293 47:-0.887775 48:-0.848639 49:-0.783701 50:-0.824694 51:-0.967078 52:-0.723545 53:-0.772363 54:-0.89989 55:-0.785359 56:-0.907274 57:-0.786705 58:-0.84206 59:-0.918014 60:-0.59614 61:-0.817774 62:-0.950253 63:-0.920577 64:-0.878489 65:-0.853824 66:-0.843825 67:-0.904699 68:-0.668834 69:-0.749124 70:-0.879702 71:-0.983365 72:-0.858383 73:-0.953464 74:-0.763695 75:-0.858165 76:-0.997696 77:-0.773474 78:-0.870272 79:-0.742312 80:-0.835058 81:-0.802148 82:-0.705842 83:-0.834369 84:-0.785606 85:-0.755518 86:-0.963555 87:-0.951969 88:-0.724646 89:-0.82774 90:-0.874885 91:-0.871259 92:-0.952057 93:-0.886885 94:-0.742203 95:-0.910496 96:-0.943948 97:-0.740728 98:-0.886636 99:-0.700432 100:-0.811283 101:-0.852457 102:-0.578422 103:-0.812107 104:-0.939409 105:-0.923742 106:-0.873295 107:-0.947608 108:-0.688658 109:-0.930144 110:-0.769148 111:-0.947806 112:-0.727027 113:-0.919707 114:-0.704539 115:-0.887034 116:-0.959115 117:-0.773184 118:-0.804308 119:-0.899986 120:-0.963248 121:-0.776239 122:-0.772422 123:-0.968688 124:-0.918647 125:-0.878177 126:-0.85171 127:-0.821464 128:-0.870371 129:-0.962733 130:-0.829849 131:-0.308153 132:-0.496376 133:-0.630444 134:0.25287 135:-0.387681 136:-0.630444 137:0.598318 138:-0.361038 139:-0.563798 140:0.435337 141:0.548633 142:0.312976 143:-0.76 144:-0.76 145:-0.76 146:-0.76 147:-0.769231 148:-0.769231 149:-0.703704 150:-0.62963 151:-0.714286 152:-0.452646 153:-0.273841 154:-0.578946 155:-0.647059 156:-0.599999 157:-0.538462 158:-0.692308 159:-0.692308 160:-0.692308 161:-0.666666 162:-0.818181 163:-0.818181 164:-0.777778 165:-0.777778 166:-0.749999 167:-1 168:-1 169:-1 170:-1 171:-1 172:-1 173:-1 174:-1 176:-0.76 177:-0.76 178:-0.76 179:-0.76 180:-0.76923 181:-0.76923 182:-0.703704 183:-0.62963 184:-0.714286 
0.06880871417007141 -0.06880871417007141 1:-0.257578 2:-0.0668082 3:0.00884418 4:-0.241617 5:-0.444473 6:-0.0220858 7:0.294047 8:0.220977 9:-0.0554593 10:-0.0526316 11:0.0588235 12:0.2 13:0.384615 14:0.230769 15:-0.0769231 16:-0.0769231 17:-0.333333 18:-0.454545 19:-0.454545 20:-0.333333 21:-0.333333 22:-0.25 23:-1 24:-1 25:-1 26:-1 27:-1 28:-1 29:-1 30:-1 32:-0.338011 33:0.336301 34:-0.310113 35:0.0337705 36:-0.537655 37:-0.592841 38:-0.377366 39:-0.547585 40:-0.814742 41:-0.0892701 42:0.629041 43:-0.49614 44:-0.483262 45:-0.645331 46:-0.530841 47:-0.873483 48:-0.580044 49:-0.570165 50:-0.104289 51:-0.400311 52:-0.225454 53:0.212396 54:-0.520742 55:-0.601648 56:-0.363477 57:-0.341843 58:-0.551704 59:-0.381212 60:-0.245291 61:-0.589347 62:-0.839418 63:-0.315586 64:-0.28778 65:-0.147685 66:-0.173579 67:-0.887571 68:-0.769938 69:-0.768189 70:-0.411374 71:-0.461727 72:-0.328737 73:-0.640137 74:0.0759434 75:-0.647186 76:-0.817899 77:-0.201744 78:0.1874 79:-0.384227 80:-0.667419 81:0.167696 82:-0.697929 83:-0.772693 84:-0.783223 85:-0.64949 86:-0.840557 87:-0.854087 88:-0.214825 89:-0.278212 90:0.0861978 91:-0.685544 92:-0.572328 93:-0.239132 94:-0.777122 95:-0.453204 96:-0.518801 97:0.262795 98:-0.516181 99:-0.161481 100:-0.589181 101:-0.921845 102:-0.784512 103:-0.800339 104:-0.533316 105:-0.219545 106:0.22275 107:-0.187044 108:-0.540342 109:-0.705778 110:-0.110382 111:-0.767663 112:0.0787907 113:-0.570284 114:-0.585784 115:-0.724177 116:-0.867811 117:-0.721303 118:-0.372298 119:-0.648282 120:-0.224179 121:-0.204035 122:-0.182741 123:-0.789709 124:-0.425361 125:-0.71843 126:-0.7519 127:-0.577268 128:-0.788605 129:-0.422836 130:-0.194864 131:-0.669979 132:-0.0228545 133:0.275311 134:-0.592019 135:0.548118 136:0.275311 137:0.258179 138:0.0888017 139:-0.50238 140:0.557684 141:0.764257 142:0.519267 143:-0.44 144:-0.44 145:-0.44 146:-0.28 147:-0.307692 148:-0.307692 149:-0.259259 150:-0.259259 151:-0.357143 152:-0.878338 153:-0.450231 154:-0.0526271 155:0.0588264 156:0.200005 157:0.384618 158:0.230764 159:-0.0769246 160:-0.0769246 161:-0.333331 162:-0.454544 163:-0.454544 164:-0.333335 165:-0.333335 166:-0.249997 167:-1 168:-1 169:-1 170:-1 171:-1 172:-1 173:-1 174:-1 176:-0.44 177:-0.44 178:-0.44 179:-0.279997 180:-0.307689 181:-0.307689 182:-0.259259 183:-0.259259 184:-0.357142 
0.02692204562024289 -0.02692204562024289 1:-0.513251 2:-0.342073 3:0.132343 4:-0.509839 5:-0.741009 6:0.146856 7:0.291684 8:0.0359973 9:0.0216327 10:-0.263158 11:-0.176471 12:-0.0666667 13:0.0769231 14:-0.0769231 15:-0.0769231 16:-0.538462 17:-0.833333 18:-0.818182 19:-0.818182 20:-0.777778 21:-0.777778 22:-1 23:-1 24:-1 25:-1 26:-1 27:-1 28:-1 29:-1 30:-1 32:-0.325207 33:-0.616948 34:-0.226409 35:-0.839219 36:-0.765699 37:-0.654682 38:-0.68822 39:-0.839116 40:-0.88211 41:-0.811133 42:-0.823199 43:-0.842417 44:-0.872164 45:-0.646708 46:-0.590313 47:-0.711544 48:-0.655214 49:-0.870135 50:-0.858765 51:-0.724808 52:-0.947193 53:-0.555931 54:-0.877817 55:-0.877797 56:-0.985685 57:-0.466674 58:-0.453169 59:-0.708009 60:-0.558229 61:-0.948977 62:-0.761698 63:-0.857843 64:-0.884864 65:-0.788497 66:-0.888947 67:-0.98051 68:-0.819317 69:-0.620917 70:-0.553455 71:-0.770688 72:-0.863031 73:-0.480815 74:-0.776721 75:-0.851446 76:-0.711388 77:-0.845607 78:-0.927491 79:-0.761553 80:-0.541201 81:-0.64157 82:-0.729351 83:-0.896042 84:-0.585203 85:-0.682954 86:-0.910148 87:-0.934074 88:-0.589959 89:-0.788454 90:-0.682205 91:-0.807786 92:-0.66911 93:-0.73932 94:-0.685235 95:-0.885112 96:-0.571574 97:-0.820358 98:-0.982274 99:-0.629501 100:-0.944596 101:-0.72817 102:-0.804729 103:-0.653926 104:-0.89451 105:-0.721309 106:-0.701655 107:-0.658271 108:-0.91129 109:-0.685656 110:-0.91237 111:-0.792289 112:-0.929552 113:-0.552283 114:-0.680876 115:-0.851572 116:-0.774204 117:-0.754106 118:-0.698051 119:-0.784033 120:-0.581319 121:-0.702101 122:-0.844852 123:-0.908892 124:-0.829016 125:-0.925267 126:-0.586987 127:-0.925521 128:-0.867715 129:-0.824306 130:-0.475069 131:-0.535659 132:0.544131 133:0.595699 134:-0.792051 135:0.769679 136:0.595699 137:0.49481 138:-0.139947 139:-0.357674 140:0.723211 141:0.19991 142:0.298245 143:-0.68 144:-0.6 145:-0.6 146:-0.52 147:-0.538462 148:-0.538462 149:-0.481481 150:-0.481481 151:-0.571429 152:-0.676595 153:-0.631346 154:-0.263157 155:-0.176471 156:-0.0666655 157:0.0769215 158:-0.0769246 159:-0.0769246 160:-0.538462 161:-0.833333 162:-0.818181 163:-0.818181 164:-0.777778 165:-0.777778 166:-1 167:-1 168:-1 169:-1 170:-1 171:-1 172:-1 173:-1 174:-1 176:-0.68 177:-0.6 178:-0.6 179:-0.52 180:-0.538461 181:-0.538461 182:-0.481482 183:-0.481482 184:-0.571428 
0.01447421794520755 -0.01447421794520755 1:-0.536117 2:-0.376955 3:0.0781722 4:-0.532474 5:-0.737509 6:0.14445 7:0.22283 8:-0.0655794 9:0.0284996 10:-0.157895 11:-0.176471 12:-0.0666667 13:0.0769231 14:-0.0769231 15:-0.384615 16:-0.538462 17:-0.833333 18:-0.818182 19:-0.818182 20:-0.777778 21:-1 22:-1 23:-1 24:-1 25:-1 26:-1 27:-1 28:-1 29:-1 30:-1 32:-0.46524 33:-0.520281 34:-0.43046 35:-0.82784 36:-0.798165 37:-0.602215 38:-0.767606 39:-0.968292 40:-0.892878 41:-0.863933 42:-0.940011 43:-0.912068 44:-0.780072 45:-0.780959 46:-0.733044 47:-0.793568 48:-0.608024 49:-0.836116 50:-0.714496 51:-0.811087 52:-0.723662 53:-0.933475 54:-0.954669 55:-0.854537 56:-0.666961 57:-0.969897 58:-0.845857 59:-0.784783 60:-0.409213 61:-0.842295 62:-0.739497 63:-0.706624 64:-0.80648 65:-0.910102 66:-0.95981 67:-0.695137 68:-0.804445 69:-0.763446 70:-0.89754 71:-0.498624 72:-0.724796 73:-0.866147 74:-0.586921 75:-0.898728 76:-0.941102 77:-0.929441 78:-0.894755 79:-0.77886 80:-0.767287 81:-0.817637 82:-0.852709 83:-0.78062 84:-0.499138 85:-0.877824 86:-0.717089 87:-0.706581 88:-0.732798 89:-0.931966 90:-0.952704 91:-0.793485 92:-0.803994 93:-0.869245 94:-1 95:-0.865137 96:-0.725659 97:-0.742188 98:-0.496617 99:-0.767532 100:-0.771571 101:-0.796828 102:-0.776916 103:-0.723238 104:-0.889793 105:-0.797655 106:-0.676561 107:-0.776193 108:-0.794232 109:-0.704928 110:-0.677149 111:-0.906493 112:-0.914304 113:-0.894768 114:-0.740003 115:-0.884439 116:-0.820311 117:-0.849282 118:-0.652026 119:-0.988555 120:-0.910726 121:-0.508047 122:-0.807513 123:-0.934433 124:-0.752667 125:-0.812898 126:-0.794913 127:-0.773658 128:-0.990023 129:-0.87891 130:-0.806668 131:-0.397192 132:0.487931 133:0.261313 134:-0.582421 135:0.537477 136:0.261313 137:0.293846 138:0.106082 139:-0.286118 140:0.761093 141:-0.152482 142:0.011642 143:-0.44 144:-0.36 145:-0.28 146:-0.28 147:-0.307692 148:-0.230769 149:-0.259259 150:-0.259259 151:-0.285714 152:-0.665949 153:-0.64049 154:-0.157895 155:-0.176471 156:-0.0666655 157:0.0769215 158:-0.0769246 159:-0.384616 160:-0.538462 161:-0.833333 162:-0.818181 163:-0.818181 164:-0.777778 165:-1 166:-1 167:-1 168:-1 169:-1 170:-1 171:-1 172:-1 173:-1 174:-1 176:-0.44 177:-0.360001 178:-0.279997 179:-0.279997 180:-0.307689 181:-0.230768 182:-0.259259 183:-0.259259 184:-0.285715 
0.1436243320223532 -0.1436243320223532 1:-0.748346 2:-0.56201 3:-0.153456 4:-0.738702 5:-0.831964 6:-0.00477573 7:0.0249244 8:-0.157496 9:-0.452402 10:-0.473684 11:-0.411765 12:-0.333333 13:-0.230769 14:-0.846154 15:-0.846154 16:-0.846154 17:-0.833333 18:-0.818182 19:-0.818182 20:-1 21:-1 22:-1 23:-1 24:-1 25:-1 26:-1 27:-1 28:-1 29:-1 30:-1 32:-0.0292484 33:-0.795084 34:-0.478137 35:-0.655464 36:-0.812932 37:-0.828101 38:-0.971503 39:-0.943936 40:-0.897382 41:-0.870325 42:-0.735572 43:-0.800456 44:-0.702824 45:-0.577546 46:-0.549622 47:-0.848271 48:-0.867028 49:-0.967177 50:-0.848467 51:-0.864725 52:-0.889547 53:-0.751099 54:-0.712666 55:-0.828375 56:-0.548806 57:-0.710554 58:-0.719633 59:-0.938595 60:-0.717507 61:-0.883146 62:-0.815322 63:-0.806692 64:-0.75181 65:-0.949083 66:-0.670229 67:-0.710309 68:-0.776002 69:-0.907915 70:-0.974694 71:-0.664321 72:-0.727193 73:-0.895857 74:-0.801291 75:-0.730602 76:-0.70021 77:-0.849448 78:-0.747547 79:-0.921816 80:-0.97821 81:-0.757806 82:-0.86264 83:-0.888938 84:-0.722222 85:-0.64849 86:-0.69647 87:-0.863363 88:-0.77197 89:-0.946988 90:-0.968144 91:-0.84732 92:-0.857074 93:-0.934906 94:-0.687424 95:-0.786849 96:-0.652228 97:-0.555071 98:-0.815687 99:-0.855233 100:-0.906517 101:-0.787847 102:-0.819571 103:-0.882099 104:-0.671837 105:-0.745439 106:-0.694794 107:-0.522973 108:-0.626882 109:-0.856982 110:-0.802788 111:-0.8295 112:-0.866421 113:-0.761261 114:-0.619241 115:-0.798948 116:-0.792109 117:-0.735124 118:-0.553841 119:-0.912993 120:-0.795065 121:-0.887673 122:-0.785999 123:-0.740967 124:-0.685365 125:-0.746458 126:-0.686306 127:-0.845587 128:-0.663825 129:-0.76868 130:-0.757454 131:-0.535179 132:-0.418687 133:-0.40808 134:-0.00696249 135:-0.0998856 136:-0.40808 137:0.651006 138:-0.240361 139:-0.220679 140:0.659083 141:0.866287 142:0.215911 143:-0.68 144:-0.68 145:-0.68 146:-0.68 147:-0.692308 148:-0.615385 149:-0.62963 150:-0.62963 151:-0.642857 152:-0.370574 153:-0.640001 154:-0.473684 155:-0.411765 156:-0.333333 157:-0.230771 158:-0.846154 159:-0.846154 160:-0.846154 161:-0.833333 162:-0.818181 163:-0.818181 164:-1 165:-1 166:-1 167:-1 168:-1 169:-1 170:-1 171:-1 172:-1 173:-1 174:-1 176:-0.68 177:-0.68 178:-0.68 179:-0.68 180:-0.692307 181:-0.615384 182:-0.62963 183:-0.62963 184:-0.642857 
0.1604951202070889 -0.1604951202070889 1:-0.855465 2:-0.67081 3:-0.225068 4:-0.849578 5:-0.922189 6:-0.0115625 7:-0.0875829 8:-0.299494 9:-0.660934 10:-0.684211 11:-0.647059 12:-0.6 13:-0.692308 14:-0.846154 15:-0.846154 16:-0.846154 17:-0.833333 18:-0.818182 19:-1 20:-1 21:-1 22:-1 23:-1 24:-1 25:-1 26:-1 27:-1 28:-1 29:-1 30:-1 32:-0.438169 33:-0.667245 34:-0.796314 35:-0.980332 36:-0.924885 37:-0.920749 38:-0.991505 39:-0.867851 40:-0.98379 41:-0.886233 42:-0.876161 43:-0.715536 44:-0.948164 45:-0.866135 46:-0.814946 47:-0.866218 48:-0.840566 49:-0.814347 50:-0.970072 51:-0.811657 52:-0.92095 53:-0.943516 54:-0.881995 55:-0.876973 56:-0.782735 57:-0.899651 58:-0.855576 59:-0.923373 60:-0.92716 61:-0.812576 62:-0.984422 63:-0.972938 64:-0.833184 65:-0.890012 66:-0.943703 67:-0.793818 68:-0.855465 69:-0.804865 70:-0.921477 71:-0.850626 72:-0.914048 73:-0.577917 74:-0.967905 75:-0.914855 76:-0.949674 77:-0.874572 78:-0.647461 79:-0.949269 80:-0.929114 81:-0.866934 82:-0.895444 83:-0.868098 84:-0.942066 85:-0.863054 86:-0.693309 87:-0.913223 88:-0.846049 89:-0.888587 90:-0.899644 91:-0.915728 92:-0.934751 93:-0.872911 94:-0.860738 95:-0.749815 96:-0.974924 97:-0.937595 98:-0.718031 99:-0.891742 100:-0.835696 101:-0.925168 102:-0.879545 103:-0.913434 104:-0.901588 105:-0.974881 106:-0.862901 107:-0.715738 108:-0.833425 109:-0.854821 110:-0.683993 111:-0.903052 112:-0.780652 113:-0.849871 114:-0.859078 115:-0.845782 116:-0.797721 117:-0.873862 118:-0.831672 119:-0.954865 120:-0.772138 121:-0.933102 122:-0.872569 123:-0.8453 124:-0.927304 125:-0.980857 126:-0.948172 127:-0.915903 128:-0.795988 129:-0.810205 130:-0.963449 131:-0.473773 132:-0.103856 133:-0.162565 134:-0.248354 135:0.167472 136:-0.162565 137:0.791607 138:-0.461496 139:-0.0341823 140:0.768062 141:0.921173 142:-0.134749 143:-0.84 144:-0.84 145:-0.84 146:-0.84 147:-0.769231 148:-0.769231 149:-0.777778 150:-0.703704 151:-0.785714 152:0.0757436 153:-0.819183 154:-0.68421 155:-0.647059 156:-0.599999 157:-0.692308 158:-0.846154 159:-0.846154 160:-0.846154 161:-0.833333 162:-0.818181 163:-1 164:-1 165:-1 166:-1 167:-1 168:-1 169:-1 170:-1 171:-1 172:-1 173:-1 174:-1 176:-0.84 177:-0.84 178:-0.84 179:-0.84 180:-0.76923 181:-0.76923 182:-0.777778 183:-0.703704 184:-0.785714 
0.2763691480031296 -0.2763691480031296 1:-0.831282 2:-0.689271 3:-0.279975 4:-0.837673 5:-0.886839 6:-0.161371 7:-0.0274277 8:-0.382598 9:-0.568352 10:-0.578947 11:-0.647059 12:-0.6 13:-0.692308 14:-0.692308 15:-0.692308 16:-1 17:-1 18:-1 19:-1 20:-1 21:-1 22:-1 23:-1 24:-1 25:-1 26:-1 27:-1 28:-1 29:-1 30:-1 32:-0.675417 33:-0.834213 34:-0.776775 35:-0.922428 36:-0.976209 37:-0.898262 38:-0.829631 39:-0.840985 40:-0.813611 41:-0.858999 42:-0.709588 43:-0.80622 44:-0.964511 45:-0.857637 46:-0.92855 47:-0.962432 48:-0.895619 49:-0.825244 50:-0.794143 51:-0.949965 52:-0.935309 53:-0.890222 54:-0.95564 55:-0.933583 56:-0.895582 57:-0.98756 58:-0.751697 59:-0.929301 60:-0.838751 61:-0.867483 62:-0.83856 63:-0.851485 64:-0.945176 65:-0.935581 66:-0.827802 67:-0.955644 68:-0.960006 69:-0.880494 70:-0.977504 71:-0.767841 72:-0.863273 73:-0.77815 74:-0.953096 75:-0.915083 76:-0.912716 77:-0.873555 78:-0.974007 79:-0.870864 80:-0.897077 81:-0.953585 82:-0.939779 83:-0.956649 84:-0.711678 85:-0.970978 86:-0.84171 87:-0.887122 88:-0.793239 89:-0.912337 90:-0.842879 91:-0.998919 92:-0.902433 93:-0.976351 94:-0.955527 95:-0.967051 96:-0.78984 97:-0.792135 98:-0.918068 99:-0.902391 100:-0.897523 101:-0.866615 102:-0.849036 103:-0.83412 104:-0.815222 105:-0.847045 106:-0.976566 107:-0.818927 108:-0.775175 109:-0.844771 110:-0.936218 111:-0.974428 112:-0.708948 113:-0.79451 114:-0.921063 115:-0.832562 116:-0.921308 117:-0.931505 118:-0.855225 119:-0.935776 120:-0.945194 121:-0.894894 122:-0.9494 123:-0.685948 124:-0.928701 125:-0.898665 126:-0.902261 127:-0.916768 128:-0.904528 129:-0.835067 130:-0.952478 131:-0.45276 132:0.249993 133:0.139547 134:-0.495357 135:0.441064 136:0.139547 137:0.727997 138:-0.388154 139:-0.125227 140:0.939077 141:0.520261 142:-0.0522595 143:-0.84 144:-0.84 145:-0.76 146:-0.76 147:-0.769231 148:-0.769231 149:-0.62963 150:-0.555556 151:-0.571429 152:-0.0576013 153:-0.943577 154:-0.578946 155:-0.647059 156:-0.599999 157:-0.692308 158:-0.692308 159:-0.692308 160:-1 161:-1 162:-1 163:-1 164:-1 165:-1 166:-1 167:-1 168:-1 169:-1 170:-1 171:-1 172:-1 173:-1 174:-1 176:-0.84 177:-0.84 178:-0.76 179:-0.76 180:-0.76923 181:-0.76923 182:-0.62963 183:-0.555556 184:-0.571428 
0.08197601102777211 -0.08197601102777211 1:-0.0834571 2:0.457501 3:0.524135 4:-0.0677968 5:-0.582575 6:0.36473 7:0.614634 8:0.869881 9:0.832374 10:-0.368421 11:-0.294118 12:-0.2 13:-0.230769 14:-0.230769 15:-0.384615 16:-0.384615 17:-0.333333 18:-0.272727 19:-0.272727 20:-0.111111 21:-0.111111 23:0.142857 24:0.333333 25:0.333333 26:0.333333 27:0.333333 28:0.333333 29:0.333333 30:0.333333 32:0.0562385 33:-0.0154998 34:-0.401323 35:-0.672853 36:-0.908495 37:-0.950917 38:-0.856171 39:-0.272206 40:-0.883206 41:-0.778078 42:-0.633991 43:-0.475825 44:-0.337246 45:-0.458354 46:-0.482191 47:-0.723427 48:-0.616316 49:-0.908108 50:-0.259283 51:-0.836199 52:-0.842646 53:-0.860165 54:-0.562088 55:-0.715051 56:-0.151728 57:-0.917059 58:-0.836138 59:-0.806248 60:-0.372703 61:-0.336857 62:-0.629876 63:-0.933575 64:-0.771883 65:-0.899734 66:-0.869273 67:-0.134672 68:-0.758742 69:-0.495125 70:-0.78472 71:-0.977781 72:-0.915007 73:-0.370655 74:-0.769914 75:-0.782091 76:-0.849175 77:-0.808669 78:-0.909243 79:-0.294791 80:-0.532668 81:-0.645808 82:-0.496501 83:-0.758346 84:-0.666448 85:-0.560128 86:-0.354334 87:-0.971834 88:-0.662155 89:-0.533365 90:-0.118829 91:-0.732742 92:-0.633898 93:-0.839076 94:-0.853369 95:-0.775983 96:-0.456449 97:-0.288966 98:-0.852315 99:-0.675621 100:-0.747848 101:-0.73708 102:-0.703124 103:-0.61028 104:-0.738819 105:-0.712468 106:-0.535209 107:-0.531455 108:-0.815943 109:-0.466783 110:-0.666436 111:-0.68654 112:-0.645615 113:-0.469485 114:-0.524699 115:-0.49439 116:-0.94441 117:-0.817272 118:-0.89472 119:-0.72616 120:-0.277814 121:-0.507336 122:-0.522954 123:-0.937015 124:-0.927174 125:-0.923145 126:-0.409233 127:-0.751051 128:-0.356012 129:-0.584518 130:-0.216153 131:0.121913 132:-0.526143 133:-0.779373 134:0.454602 135:-0.611106 136:-0.779373 137:0.0955872 138:0.290316 139:-0.76161 140:-0.0444899 141:0.0568006 142:0.308052 143:-0.12 144:-0.12 145:-0.12 146:-0.12 147:-0.153846 148:-0.153846 149:-0.185185 150:-0.185185 151:-0.0714286 152:-0.876885 153:0.301819 154:-0.36842 155:-0.294118 156:-0.199999 157:-0.230771 158:-0.230771 159:-0.384616 160:-0.384616 161:-0.333331 162:-0.272726 163:-0.272726 164:-0.111113 165:-0.111113 166:3.40501e-06 167:0.142858 168:0.333335 169:0.333335 170:0.333335 171:0.333335 172:0.333335 173:0.333335 174:0.333335 176:-0.12 177:-0.12 178:-0.12 179:-0.12 180:-0.153846 181:-0.153846 182:-0.185186 183:-0.185186 184:-0.071428 
0.08420041365848668 -0.08420041365848668 1:-0.0283726 2:0.468048 3:0.29306 4:0.00117331 5:-0.424404 6:0.076677 7:0.586818 8:0.811241 9:0.891391 10:-0.368421 11:-0.294118 12:-0.2 13:-0.0769231 14:-0.384615 15:-0.384615 16:-0.384615 17:-0.333333 18:-0.272727 19:-0.272727 20:-0.111111 21:-0.111111 23:0.142857 24:0.333333 25:0.333333 26:0.333333 27:0.333333 28:0.333333 29:0.333333 30:0.333333 32:-0.148329 33:-0.224905 34:-0.324388 35:-0.803936 36:-0.944369 37:-0.833552 38:-0.817255 39:-0.386726 40:-0.634452 41:-0.720321 42:-0.908046 43:-0.78707 44:-0.68025 45:-0.152618 46:-0.60211 47:-0.715637 48:-0.651666 49:-0.691815 50:-0.933933 51:-0.496778 52:-0.642207 53:-0.713926 54:-0.781248 55:-0.749638 56:-0.834012 57:-0.385674 58:-0.564175 59:-0.933117 60:-0.61249 61:-0.904407 62:-0.943689 63:-0.379384 64:-0.681698 65:-0.917364 66:-0.758635 67:-0.757557 68:-0.862657 69:-0.757752 70:-0.39373 71:-0.327358 72:-0.825892 73:-0.720646 74:-0.724468 75:-0.753323 76:-0.645965 77:-0.535128 78:-0.932296 79:-0.572102 80:-0.532747 81:-0.462489 82:-0.714343 83:-0.652338 84:-0.911198 85:-0.790652 86:-0.785789 87:-0.778991 88:-0.716442 89:-0.623788 90:-0.887949 91:-0.852683 92:-0.701582 93:-0.82183 94:-0.76874 95:-0.677188 96:-0.664909 97:-0.497193 98:-0.118208 99:-0.117159 100:-0.144831 101:0.38484 102:-0.104359 103:0.139122 104:-0.130645 105:0.0805657 106:0.170541 107:0.590447 108:0.240221 109:0.118844 110:-0.129377 111:-0.531243 112:-0.35404 113:-0.108678 114:-0.134598 115:-0.302212 116:-0.492664 117:-0.494107 118:-0.328904 119:-0.728998 120:-0.322556 121:-0.539934 122:-0.631074 123:-0.909593 124:-0.852712 125:-0.749573 126:-0.608536 127:-0.816901 128:-0.410715 129:-0.565176 130:-0.343737 131:0.310766 132:-0.439679 133:-0.772634 134:0.444909 135:-0.600383 136:-0.772634 137:-0.220495 138:0.522581 139:-0.847037 140:-0.0931966 141:-0.0393604 142:0.291589 143:0.2 144:0.2 145:0.2 146:0.2 147:0.153846 148:0.153846 149:0.111111 150:0.185185 151:0.357143 152:-0.917607 153:0.382765 154:-0.36842 155:-0.294118 156:-0.199999 157:-0.0769246 158:-0.384616 159:-0.384616 160:-0.384616 161:-0.333331 162:-0.272726 163:-0.272726 164:-0.111113 165:-0.111113 166:3.40501e-06 167:0.142858 168:0.333335 169:0.333335 170:0.333335 171:0.333335 172:0.333335 173:0.333335 174:0.333335 176:0.199999 177:0.199999 178:0.199999 179:0.199999 180:0.153846 181:0.153846 182:0.111109 183:0.185186 184:0.357145 
0.08751280801920043 -0.08751280801920043 1:0.363381 2:0.690519 3:0.0805377 4:0.329346 5:-0.00441054 6:-0.175813 7:0.551878 8:0.606737 9:1 10:-0.0526316 11:0.0588235 12:0.2 13:0.384615 14:0.384615 15:0.230769 16:0.230769 17:0.333333 18:0.454545 19:0.454545 20:0.555556 21:0.111111 22:0.25 23:0.428571 24:0.666667 25:0.333333 26:0.333333 27:0.333333 28:0.333333 29:0.333333 30:0.333333 32:-0.434273 33:-0.32333 34:-0.318721 35:-0.620831 36:-0.823628 37:-0.819461 38:-0.872754 39:-0.562761 40:-0.497672 41:-0.797222 42:-0.303694 43:-0.482945 44:-0.949824 45:-0.714749 46:-0.905015 47:-0.887186 48:-0.67393 49:-0.338923 50:-0.755352 51:-0.790196 52:-0.699697 53:-0.609388 54:-0.724981 55:-0.907251 56:-0.85913 57:-0.0767268 58:-0.414331 59:-0.916756 60:-0.752244 61:-0.936641 62:-0.658439 63:-0.592749 64:-0.700137 65:-0.704022 66:-0.609507 67:-0.800218 68:-0.841827 69:-0.819256 70:-0.738261 71:-0.600272 72:-0.464107 73:-0.497018 74:-0.842697 75:-0.998244 76:-0.899199 77:-0.91139 78:-0.945335 79:-0.795574 80:-0.0897825 81:-0.878566 82:-0.545672 83:-0.61924 84:-0.923072 85:-0.721607 86:-0.753462 87:-0.927892 88:-0.598204 89:-0.463757 90:-0.834481 91:-0.824769 92:-0.719408 93:-0.640514 94:-0.902956 95:-0.834299 96:-0.370571 97:-0.721969 98:-0.912973 99:-0.830376 100:-0.771923 101:-0.670353 102:-0.926361 103:-0.573232 104:-0.64543 105:-0.926082 106:-0.568489 107:-0.98532 108:-0.825768 109:-0.701524 110:-0.363522 111:-0.545183 112:-0.770913 113:-0.731858 114:-0.495728 115:-0.646987 116:-0.359442 117:-0.719815 118:-0.84639 119:-0.483565 120:0.00544339 121:-0.133888 122:-0.178264 123:0.111087 124:-0.202395 125:-0.514013 126:-0.317492 127:-0.750078 128:-0.296969 129:-0.242892 130:-0.553151 131:0.816657 132:-0.372913 133:-0.816703 134:0.509263 135:-0.671654 136:-0.816703 137:0.0589856 138:0.236486 139:-0.918806 140:-0.140591 141:-0.605053 142:-0.268253 143:-0.28 144:-0.28 145:-0.2 146:-0.2 147:-0.0769231 148:-0.0769231 149:-0.111111 150:-0.111111 151:-0.0714286 152:-0.98215 153:0.491363 154:-0.0526271 155:0.0588264 156:0.200005 157:0.384618 158:0.384618 159:0.230764 160:0.230764 161:0.333333 162:0.454543 163:0.454543 164:0.555551 165:0.111107 166:0.250003 167:0.428571 168:0.666666 169:0.333335 170:0.333335 171:0.333335 172:0.333335 173:0.333335 174:0.333335 176:-0.279997 177:-0.279997 178:-0.199999 179:-0.199999 180:-0.0769243 181:-0.0769243 182:-0.111114 183:-0.111114 184:-0.071428 
0.03575849988219565 -0.03575849988219565 1:-0.42096 2:0.0341251 3:-0.347644 4:-0.480574 5:-0.405023 6:-0.490824 7:0.181412 8:-0.470994 9:0.867099 10:-0.578947 11:-0.529412 12:-0.466667 13:-0.538462 14:-0.692308 15:-0.692308 16:-0.692308 17:-0.666667 18:-0.636364 19:-0.636364 20:-0.555556 21:-0.555556 22:-0.5 23:-0.428571 24:-0.333333 25:-0.333333 26:-0.333333 27:-0.333333 28:-0.333333 29:-0.333333 30:-0.333333 32:-0.669 33:-0.800105 34:-0.941603 35:-0.893787 36:-0.94273 37:-0.911239 38:-0.956895 39:-0.873857 40:-0.830353 41:-0.912388 42:-0.782995 43:-0.814512 44:-0.900712 45:-0.895581 46:-0.811252 47:-0.916801 48:-0.923352 49:-0.910112 50:-0.882441 51:-0.949727 52:-0.856843 53:-0.947081 54:-0.91617 55:-0.872218 56:-0.964609 57:-0.897509 58:-0.747119 59:-0.980794 60:-0.978216 61:-0.74608 62:-0.91887 63:-0.908671 64:-0.867296 65:-0.843138 66:-0.988997 67:-0.99555 68:-0.727391 69:-0.810779 70:-0.851611 71:-0.881296 72:-0.83083 73:-0.815788 74:-0.75367 75:-0.836058 76:-0.711679 77:-0.796951 78:-0.707013 79:-0.820289 80:-0.630538 81:-0.741102 82:-0.613552 83:-0.771813 84:-0.384773 85:-0.591046 86:-0.620847 87:-0.883705 88:-0.776493 89:-0.739275 90:-0.809589 91:-0.978035 92:-0.953966 93:-0.938112 94:-0.835151 95:-0.862525 96:-0.779686 97:-0.812813 98:-0.704796 99:-0.825034 100:-0.833176 101:-0.7818 102:-0.719192 103:-0.902075 104:-0.913506 105:-0.7693 106:-0.866499 107:-0.934784 108:-0.888508 109:-0.863434 110:-0.858246 111:-0.918045 112:-0.624064 113:-0.603631 114:-0.62267 115:-0.723161 116:-0.711785 117:-0.7544 118:-0.726084 119:-0.822038 120:-0.99329 121:-0.8171 122:-0.530191 123:-0.527804 124:-0.498697 125:-0.592617 126:-0.557711 127:-0.802432 128:-0.835247 129:-0.926684 130:-0.785398 131:1 132:-0.895868 133:-0.997515 134:0.801347 135:-0.995167 136:-0.997515 137:0.099572 138:0.172708 139:-1 140:-0.530235 141:-1 142:-0.121168 143:-0.28 144:-0.28 145:-0.28 146:-0.28 147:-0.307692 148:-0.307692 149:-0.185185 150:-0.037037 151:-0.0714286 152:-0.829078 153:0.834325 154:-0.578946 155:-0.529412 156:-0.466665 157:-0.538462 158:-0.692308 159:-0.692308 160:-0.692308 161:-0.666666 162:-0.636363 163:-0.636363 164:-0.555557 165:-0.555557 166:-0.499998 167:-0.428571 168:-0.333333 169:-0.333333 170:-0.333333 171:-0.333333 172:-0.333333 173:-0.333333 174:-0.333333 176:-0.279997 177:-0.279997 178:-0.279997 179:-0.279997 180:-0.307689 181:-0.307689 182:-0.185186 183:-0.0370363 184:-0.071428 
