svm_type one_against_all
kernel_type rbf
trainOnlyClass -1
gamma 0.133352
nr_class 2
nr_hyp 2
total_sv 487
rho 0.0603572 -0.0603572
omegaNorm 28.9206 28.9206
avgDistP 0.0406533 0.0403047
avgDistN 0.0403047 0.0406533
avgFP 1.17572 1.16564
avgFN 1.16564 1.17572
label 2 1
nr_sv 255 232
SV
0.2926627057421963 -0.2926627057421964 1:0.449533 2:0.526015 3:0.567845 4:0.449698 5:-0.425282 6:0.801523 7:0.259538 8:0.298411 9:-0.376477 10:0.724138 11:0.777778 12:0.714286 13:0.76 14:0.826087 15:0.73913 16:0.272727 17:0.333333 18:-0.0526316 22:-0.142857 23:-0.272727 24:-0.272727 25:-0.2 26:-0.555556 27:-0.555556 28:-1 29:-1 30:-1 31:-1 32:-0.735418 33:-0.728122 34:-0.739639 35:-0.775348 36:-0.57563 37:-0.747133 38:-0.778537 39:-0.690013 40:-0.482273 41:-0.0872681 42:-0.807846 43:-0.401685 44:0.382825 45:0.0245993 46:-0.399928 47:-0.0644834 48:-0.62795 49:-0.830326 50:-0.965276 51:-0.580896 52:-0.106314 53:-0.581718 54:-0.786664 55:-0.31697 56:-0.724726 57:-0.640888 58:-0.514507 59:-0.0548595 60:-0.659799 61:0.350873 62:-0.644639 63:-0.687475 64:-0.467306 65:-0.400788 66:-0.401496 67:-0.405743 68:-0.854256 69:0.137828 70:-0.298257 71:-0.846924 72:-0.810834 73:-0.0649163 74:-0.508399 75:-0.821731 76:-0.641894 77:0.223825 78:-0.125551 79:-0.787251 80:-0.211847 81:-0.793108 82:-0.596434 83:-0.74969 84:-0.36539 85:-0.350095 86:-0.679256 87:-0.399747 88:-0.864529 89:-0.307705 90:-0.37594 91:0.0169981 92:-0.461366 93:-0.702017 94:-0.56207 95:-0.467598 96:-0.123935 97:-0.757565 98:-0.752489 99:-0.478456 100:0.00830448 101:-0.540009 102:-0.34232 103:-0.793341 104:0.265171 105:-0.0210881 106:-0.0471761 107:-0.26974 108:-0.851883 109:-0.717977 110:-0.316801 111:-0.541102 112:-0.19565 113:-0.774916 114:-0.912793 115:-0.625468 116:-0.153292 117:-0.811022 118:-0.397102 119:-0.591308 120:-0.667511 121:-0.772877 122:-0.303237 123:-0.246947 124:-0.771867 125:-0.489237 126:-0.465967 127:-0.521631 128:-0.720978 129:-0.673884 130:0.219338 131:-0.236278 132:0.485862 133:0.603019 134:-0.771324 135:0.771317 136:0.603019 137:-0.152694 138:0.454524 139:0.179303 140:0.358968 141:0.261707 142:-0.250985 143:-0.027027 144:0.027027 145:0.0810811 146:0.0810811 147:0.0810811 148:0.105263 149:0.405405 150:0.35 151:0.55 152:-0.943921 153:-0.95562 154:0.724134 155:0.777777 156:0.714286 157:0.759999 158:0.826085 159:0.73913 160:0.272728 161:0.333333 162:-0.0526271 163:3.78334e-06 164:3.78334e-06 165:-4.25624e-06 166:-0.142857 167:-0.272726 168:-0.272726 169:-0.2 170:-0.555557 171:-0.555557 172:-1 173:-1 174:-1 175:-1 176:-0.0270283 177:0.0270246 178:0.0810813 179:0.0810813 180:0.0810813 181:0.105263 182:0.405406 183:0.349999 184:0.549999 
0.7415734415294606 -0.741573441529461 1:0.521289 2:0.588972 3:0.536012 4:0.517437 5:-0.373971 6:0.780564 7:0.249469 8:0.293717 9:-0.394837 10:0.724138 11:0.777778 12:0.714286 13:0.68 14:0.826087 15:0.73913 16:0.454545 17:0.52381 18:0.157895 19:0.222222 20:0.222222 21:0.125 22:-0.142857 23:-0.272727 24:-0.272727 25:-0.2 26:-0.555556 27:-0.555556 28:-1 29:-1 30:-1 31:-1 32:-0.62647 33:-0.79314 34:-0.757099 35:-0.892121 36:-0.653211 37:-0.325018 38:-0.814731 39:-0.4676 40:-0.301668 41:-0.655013 42:-0.12372 43:-0.391497 44:-0.389235 45:0.505291 46:0.195024 47:-0.177318 48:-0.46535 49:-0.628893 50:-0.694492 51:-0.70276 52:-0.844357 53:-0.0685926 54:-0.060501 55:-0.64621 56:-0.342971 57:-0.790612 58:-0.0622205 59:-0.554537 60:-0.0474133 61:-0.347263 62:0.259617 63:-0.0279737 64:-0.863529 65:0.138031 66:-0.291379 67:-0.452205 68:-0.632876 69:0.254325 70:-0.689784 71:-0.185906 72:-0.684279 73:-0.733193 74:-0.965239 75:-0.14445 76:-0.548676 77:-0.783043 78:-0.321133 79:0.432691 80:0.468012 81:-0.909152 82:-0.329268 83:-0.508244 84:-0.330596 85:-0.500316 86:-0.395202 87:-0.377342 88:-0.853185 89:-0.622594 90:-0.0533502 91:0.0308516 92:-0.334859 93:-0.373343 94:-0.486697 95:-0.683266 96:-0.96544 97:-0.404721 98:-0.437185 99:1 100:-0.866362 101:-0.573892 102:0.0397916 103:-0.0130024 104:-0.724897 105:-0.40987 106:-0.376687 107:0.21753 108:-0.120448 109:0.0281834 110:-0.111222 111:-0.473779 112:-0.479663 113:-0.19363 114:-0.313401 115:-0.182222 116:-0.460554 117:-0.946659 118:-0.739812 119:-0.682202 120:0.0944049 121:-0.988288 122:0.204657 123:-0.711309 124:-0.575332 125:-0.90398 126:0.027955 127:-0.408297 128:-0.355878 129:-0.453331 130:-0.165202 131:-0.24736 132:0.138702 133:0.240043 134:-0.515742 135:0.515735 136:0.240043 137:-0.170784 138:0.486822 139:0.187116 140:0.372872 141:0.283881 142:-0.257967 143:0.027027 144:0.0810811 145:0.135135 146:0.135135 147:0.135135 148:0.157895 149:0.351351 150:0.3 151:0.5 152:-0.954593 153:-0.959927 154:0.724134 155:0.777777 156:0.714286 157:0.680001 158:0.826085 159:0.73913 160:0.454549 161:0.523812 162:0.157895 163:0.222222 164:0.222222 165:0.125002 166:-0.142857 167:-0.272726 168:-0.272726 169:-0.2 170:-0.555557 171:-0.555557 172:-1 173:-1 174:-1 175:-1 176:0.0270246 177:0.0810813 178:0.135134 179:0.135134 180:0.135134 181:0.157893 182:0.351349 183:0.3 184:0.499999 
0.2498526393076164 -0.2498526393076164 1:0.452909 2:0.529178 3:0.566131 4:0.452093 5:-0.423217 6:0.800217 7:0.259363 8:0.297489 9:-0.377452 10:0.724138 11:0.777778 12:0.714286 13:0.68 14:0.826087 15:0.73913 16:0.272727 17:0.333333 18:-0.0526316 22:-0.142857 23:-0.272727 24:-0.272727 25:-0.2 26:-0.555556 27:-0.555556 28:-1 29:-1 30:-1 31:-1 32:-0.736694 33:-0.726191 34:-0.738756 35:-0.775228 36:-0.576852 37:-0.741941 38:-0.772604 39:-0.687309 40:-0.499003 41:-0.0837647 42:-0.796862 43:-0.389049 44:0.39344 45:0.0322223 46:-0.424097 47:-0.0408602 48:-0.647204 49:-0.826515 50:-0.943906 51:-0.56212 52:-0.112892 53:-0.611668 54:-0.768526 55:-0.371672 56:-0.729088 57:-0.641462 58:-0.479796 59:-0.0914737 60:-0.684308 61:0.35847 62:-0.612402 63:-0.685123 64:-0.481294 65:-0.414973 66:-0.380021 67:-0.434161 68:-0.793783 69:0.0359662 70:-0.200416 71:-0.84008 72:-0.795536 73:-0.0849133 74:-0.481759 75:-0.786848 76:-0.653914 77:0.221711 78:-0.12478 79:-0.82366 80:-0.166339 81:-0.794055 82:-0.71474 83:-0.771075 84:-0.330914 85:-0.391405 86:-0.668667 87:-0.444492 88:-0.908773 89:-0.158994 90:-0.34487 91:0.0720367 92:-0.469006 93:-0.721759 94:-0.570846 95:-0.492356 96:-0.0541897 97:-0.752097 98:-0.815146 99:-0.558867 100:-0.0253338 101:-0.686576 102:-0.432853 103:-0.617363 104:0.36502 105:-0.0648468 106:-0.0929852 107:-0.28206 108:-0.803362 109:-0.677607 110:-0.325671 111:-0.451835 112:-0.221382 113:-0.794223 114:-0.927192 115:-0.606978 116:-0.165797 117:-0.829805 118:-0.486401 119:-0.492882 120:-0.682282 121:-0.734836 122:-0.276264 123:-0.367701 124:-0.71895 125:-0.574952 126:-0.426125 127:-0.518022 128:-0.793248 129:-0.671823 130:0.150341 131:-0.237298 132:0.493435 133:0.612767 134:-0.777521 135:0.777506 136:0.612767 137:-0.156893 138:0.45467 139:0.159833 140:0.336561 141:0.234191 142:-0.274119 143:-0.027027 144:0.027027 145:0.0810811 146:0.0810811 147:0.0810811 148:0.105263 149:0.405405 150:0.35 151:0.55 152:-0.944361 153:-0.955194 154:0.724134 155:0.777777 156:0.714286 157:0.680001 158:0.826085 159:0.73913 160:0.272728 161:0.333333 162:-0.0526271 163:3.78334e-06 164:3.78334e-06 165:-4.25624e-06 166:-0.142857 167:-0.272726 168:-0.272726 169:-0.2 170:-0.555557 171:-0.555557 172:-1 173:-1 174:-1 175:-1 176:-0.0270283 177:0.0270246 178:0.0810813 179:0.0810813 180:0.0810813 181:0.105263 182:0.405406 183:0.349999 184:0.549999 
0.5078470576317863 -0.5078470576317854 1:0.473261 2:0.549268 3:0.583793 4:0.473357 5:-0.420737 6:0.815754 7:0.261722 8:0.303967 9:-0.359181 10:0.724138 11:0.777778 12:0.714286 13:0.68 14:0.826087 15:0.73913 16:0.272727 17:0.333333 18:0.157895 19:0.222222 22:-0.142857 23:-0.272727 24:-0.272727 25:-0.2 26:-0.555556 27:-0.555556 28:-1 29:-1 30:-1 31:-1 32:-0.603744 33:-0.826553 34:-0.93111 35:-0.710852 36:-0.573749 37:-0.614667 38:-0.93435 39:-0.805122 40:-0.774479 41:0.20478 42:-0.883923 43:-0.466244 44:0.00136689 45:-0.761243 46:-0.347273 47:0.10261 48:-0.756008 49:-0.462892 50:-0.619713 51:-0.450417 52:-0.217663 53:-0.480927 54:-0.748332 55:-0.475607 56:-0.636502 57:-0.788083 58:-0.0628727 59:-0.481395 60:-0.253714 61:-0.125404 62:0.0396366 63:-0.656289 64:-0.818131 65:0.0931674 66:-0.744794 67:-0.436129 68:-0.542532 69:-0.850996 70:0.260178 71:-0.708923 72:-0.715623 73:-0.385738 74:-0.604824 75:-0.535057 76:-0.893773 77:-0.0545579 78:-0.427382 79:-0.280158 80:-0.872905 81:-0.552556 82:-0.630998 83:-0.715405 84:-0.729951 85:-0.351289 86:-0.648162 87:-0.704072 88:-0.53745 89:-0.598291 90:-0.349877 91:-0.454987 92:0.265702 93:-0.521018 94:-0.815556 95:-0.651676 96:-0.594522 97:0.41581 98:-0.990829 99:-0.520287 100:-0.681431 101:0.164795 102:-0.745502 103:-0.510938 104:-0.704648 105:-0.00961262 106:0.116934 107:-0.542663 108:-0.563164 109:-0.485702 110:-0.624213 111:-0.341022 112:-0.561577 113:-0.527786 114:-0.58347 115:-0.846146 116:-0.68144 117:-0.203564 118:-0.773026 119:-0.3542 120:-0.142414 121:-0.504757 122:-0.811101 123:-0.22888 124:-0.604381 125:-0.145832 126:-0.532623 127:-0.615876 128:-0.743527 129:-0.685683 130:-0.673476 131:-0.0970662 132:0.431841 133:0.364279 134:-0.609112 135:0.609107 136:0.364279 137:-0.107033 138:0.397922 139:0.102119 140:0.258415 141:-0.0801011 142:-0.510917 143:-0.135135 144:-0.0810811 145:-0.027027 146:-0.027027 147:0.0810811 148:0.105263 149:0.405405 150:0.35 151:0.55 152:-0.946128 153:-0.952657 154:0.724134 155:0.777777 156:0.714286 157:0.680001 158:0.826085 159:0.73913 160:0.272728 161:0.333333 162:0.157895 163:0.222222 164:3.78334e-06 165:-4.25624e-06 166:-0.142857 167:-0.272726 168:-0.272726 169:-0.2 170:-0.555557 171:-0.555557 172:-1 173:-1 174:-1 175:-1 176:-0.135134 177:-0.0810813 178:-0.0270283 179:-0.0270283 180:0.0810813 181:0.105263 182:0.405406 183:0.349999 184:0.549999 
0.005738845586118891 -0.005738845586119227 1:0.330034 2:0.453206 3:0.573762 4:0.334725 5:-0.487413 6:0.801673 7:0.263596 8:0.296966 9:-0.368037 10:0.655172 11:0.62963 12:0.571429 13:0.52 14:0.652174 15:0.565217 16:0.0909091 17:0.142857 18:-0.0526316 20:-0.222222 21:-0.125 22:-0.285714 23:-0.272727 24:-0.272727 25:-0.2 26:-0.555556 27:-0.555556 28:-1 29:-1 30:-1 31:-1 32:-0.579245 33:-0.719127 34:-0.79724 35:-0.426055 36:-0.983736 37:-0.810171 38:-0.909888 39:-0.801556 40:-0.49616 41:-0.661642 42:-0.381628 43:-0.399565 44:-0.644517 45:0.05274 46:-0.241895 47:-0.511908 48:-0.660176 49:-0.671697 50:0.00451173 51:-0.398052 52:-0.876382 53:-0.600222 54:-0.40811 55:-0.0917693 56:-0.498558 57:-0.527154 58:-0.88527 59:-0.284976 60:-0.916846 61:-0.485247 62:0.472176 63:-0.377069 64:-0.610075 65:-0.394386 66:-0.297586 67:-0.693127 68:-0.68292 69:-0.0833491 70:-0.446731 71:-0.713738 72:-0.835184 73:-0.142653 74:-0.545244 75:-0.365463 76:-0.616146 77:-0.9182 78:-0.778418 79:-0.731033 80:-0.141089 81:-0.556065 82:-0.422607 83:-0.720224 84:-0.746564 85:-0.419761 86:-0.404429 87:0.198908 88:-0.829091 89:-0.408803 90:-0.564024 91:0.185996 92:-0.821524 93:-0.709073 94:-0.784139 95:-0.241689 96:-0.89582 97:-0.382202 98:-0.576049 99:0.456831 100:-0.517234 101:-0.73511 102:-0.217415 103:-0.78957 104:0.171077 105:-0.197495 106:-0.0251258 107:-0.888272 108:-0.778957 109:0.0167825 110:-0.805449 111:-0.335102 112:-0.450069 113:-0.701928 114:-0.937989 115:-0.169248 116:-0.548518 117:-0.511524 118:-0.624114 119:-0.417415 120:-0.752842 121:-0.802411 122:-0.0696616 123:-0.462527 124:-0.254733 125:-0.545373 126:0.177357 127:-0.345339 128:-0.297291 129:-0.753042 130:-0.487974 131:-0.144139 132:0.264297 133:0.253062 134:-0.52584 135:0.525838 136:0.253062 137:-0.00948216 138:0.325645 139:0.0965067 140:0.264739 141:-0.0791821 142:-0.516665 143:-0.189189 144:-0.189189 145:-0.135135 146:-0.135135 147:-0.027027 149:0.297297 150:0.25 151:0.45 152:-0.925642 153:-0.953286 154:0.65517 155:0.629632 156:0.571427 157:0.519998 158:0.652169 159:0.565215 160:0.0909074 161:0.142854 162:-0.0526271 163:3.78334e-06 164:-0.222222 165:-0.125002 166:-0.285715 167:-0.272726 168:-0.272726 169:-0.2 170:-0.555557 171:-0.555557 172:-1 173:-1 174:-1 175:-1 176:-0.189191 177:-0.189191 178:-0.135134 179:-0.135134 180:-0.0270283 181:-1.79211e-06 182:0.297296 183:0.249998 184:0.45 
0.3199394964231245 -0.3199394964231244 1:0.333363 2:0.455231 3:0.576523 4:0.336694 5:-0.487618 6:0.803581 7:0.264944 8:0.298647 9:-0.36488 10:0.655172 11:0.62963 12:0.571429 13:0.52 14:0.652174 15:0.565217 16:0.0909091 17:0.142857 18:-0.0526316 20:-0.222222 21:-0.125 22:-0.285714 23:-0.272727 24:-0.272727 25:-0.2 26:-0.555556 27:-0.555556 28:-1 29:-1 30:-1 31:-1 32:-0.579384 33:-0.719867 34:-0.797512 35:-0.42585 36:-0.987066 37:-0.812124 38:-0.913859 39:-0.800717 40:-0.497226 41:-0.637717 42:-0.388156 43:-0.389822 44:-0.643691 45:0.0409621 46:-0.219776 47:-0.537226 48:-0.656021 49:-0.670399 50:-0.000484932 51:-0.398225 52:-0.867102 53:-0.599494 54:-0.402543 55:-0.130479 56:-0.518777 57:-0.513713 58:-0.876856 59:-0.271265 60:-0.930333 61:-0.423418 62:0.488947 63:-0.409493 64:-0.609279 65:-0.366095 66:-0.376548 67:-0.661953 68:-0.691757 69:-0.0757883 70:-0.473719 71:-0.759599 72:-0.809192 73:-0.060291 74:-0.522479 75:-0.366161 76:-0.648749 77:-0.861863 78:-0.763943 79:-0.711471 80:-0.185969 81:-0.562517 82:-0.478339 83:-0.712184 84:-0.819278 85:-0.442653 86:-0.446721 87:0.228181 88:-0.848493 89:-0.408441 90:-0.554228 91:0.170126 92:-0.715026 93:-0.734958 94:-0.740928 95:-0.252478 96:-0.833534 97:-0.361288 98:-0.643596 99:0.457863 100:-0.502013 101:-0.814738 102:-0.26262 103:-0.864093 104:0.230656 105:-0.246828 106:-0.0264092 107:-0.889094 108:-0.734743 109:0.0139248 110:-0.836092 111:-0.314702 112:-0.522027 113:-0.691097 114:-0.912699 115:-0.137971 116:-0.535078 117:-0.438676 118:-0.624378 119:-0.462445 120:-0.757778 121:-0.751986 122:-0.0811808 123:-0.426142 124:-0.292346 125:-0.427078 126:0.300659 127:-0.393646 128:-0.39317 129:-0.748719 130:-0.315271 131:-0.141698 132:0.264 133:0.250091 134:-0.523546 135:0.523539 136:0.250091 137:-0.013226 138:0.325587 139:0.0980497 140:0.266711 141:-0.0783546 142:-0.513165 143:-0.189189 144:-0.189189 145:-0.135135 146:-0.135135 147:-0.027027 149:0.297297 150:0.25 151:0.45 152:-0.925779 153:-0.953286 154:0.65517 155:0.629632 156:0.571427 157:0.519998 158:0.652169 159:0.565215 160:0.0909074 161:0.142854 162:-0.0526271 163:3.78334e-06 164:-0.222222 165:-0.125002 166:-0.285715 167:-0.272726 168:-0.272726 169:-0.2 170:-0.555557 171:-0.555557 172:-1 173:-1 174:-1 175:-1 176:-0.189191 177:-0.189191 178:-0.135134 179:-0.135134 180:-0.0270283 181:-1.79211e-06 182:0.297296 183:0.249998 184:0.45 
1.001367992814023 -1.001367992814023 1:0.59538 2:0.521814 3:0.487913 4:0.58907 5:-0.30928 6:0.724278 7:0.268691 8:0.282893 9:-0.382502 10:1 11:1 12:0.928571 13:1 14:1 15:1 16:0.909091 17:1 18:0.368421 21:-0.375 22:-0.714286 23:-0.636364 24:-0.818182 25:-0.8 26:-0.777778 27:-0.777778 28:-0.777778 29:-0.75 30:-1 31:-1 32:-0.324078 33:-0.959059 34:-0.658713 35:-0.764122 36:-0.74761 37:-0.799741 38:0.15121 39:-0.699408 40:-0.384235 41:-0.150288 42:-0.585293 43:0.229632 44:-0.569383 45:1 46:1 47:-0.516825 48:0.400095 49:0.105016 50:-0.968931 51:-0.3697 52:-0.470542 53:-0.457135 54:0.0955617 55:-0.472762 56:-0.345143 57:-0.723426 58:-0.796984 59:-0.672192 60:-0.698605 61:-0.247896 62:0.569209 63:0.311243 64:-0.260909 65:0.322102 66:-0.0222966 67:-0.578799 68:-0.514607 69:-0.739759 70:0.26626 71:-0.630144 72:-0.661445 73:-0.380093 74:-0.436238 75:-0.65737 76:-0.271254 77:-0.641556 78:1 79:1 80:-0.475117 81:-0.403718 82:0.161422 83:-0.741448 84:0.220748 85:-0.659237 86:0.63312 87:-0.636047 88:-0.673574 89:-0.188789 90:-0.450894 91:-0.756858 92:-0.467063 93:0.427942 94:-0.282607 95:-0.471696 96:-0.727445 97:-0.418317 98:-0.514794 99:-0.403963 100:0.121192 101:-0.477771 102:0.0269234 103:0.184305 104:-0.123215 105:-0.345945 106:0.102463 107:0.14273 108:-0.0413301 109:-0.363306 110:0.253817 111:-0.426415 112:0.10012 113:-0.795899 114:0.423841 115:-0.45384 116:-0.0544599 117:1 118:1 119:-0.262727 120:-0.378218 121:-0.62316 122:-0.765202 123:-0.0679539 124:-0.562173 125:-0.136806 126:-0.0832712 127:-0.732797 128:-0.799219 129:-0.7862 130:0.263379 131:-0.104173 132:-0.390302 133:-0.422374 134:0.124232 135:-0.124241 136:-0.422374 137:-0.402099 138:0.642799 139:-0.0485352 140:0.152501 141:-0.40009 142:-0.786907 143:0.297297 144:0.297297 145:0.351351 146:0.351351 147:0.405405 148:0.421053 149:0.513514 150:0.6 151:0.75 152:-0.965227 153:-0.960965 154:1 155:1 156:0.928573 157:1 158:1 159:1 160:0.909093 161:1 162:0.368425 163:3.78334e-06 164:3.78334e-06 165:-0.375001 166:-0.714285 167:-0.636363 168:-0.818181 169:-0.8 170:-0.777778 171:-0.777778 172:-0.777778 173:-0.749999 174:-1 175:-1 176:0.297297 177:0.297297 178:0.35135 179:0.35135 180:0.405403 181:0.421053 182:0.513512 183:0.599998 184:0.750001 
1.019496175398007 -1.019496175398007 1:0.669743 2:0.617886 3:0.47949 4:0.662581 5:-0.264257 6:0.747606 7:0.21407 8:0.329449 9:-0.405392 10:0.862069 11:1 12:1 13:1 14:0.913043 15:0.913043 16:0.818182 17:0.904762 18:0.894737 19:0.444444 20:0.444444 21:0.25 22:-0.285714 23:-0.272727 24:-0.636364 25:-0.6 26:-1 27:-1 28:-1 29:-1 30:-1 31:-1 32:-0.539835 33:-0.814317 34:-0.801043 35:-0.944232 36:-0.90655 37:-0.922239 38:-0.247297 39:-0.163533 40:-0.29432 41:-0.0882954 42:0.135013 43:0.593643 44:0.208812 45:-0.608019 46:-0.347181 47:0.434403 48:0.108515 49:0.0361191 50:0.219396 51:-0.612817 52:-0.61876 53:-0.655567 54:-0.0503289 55:-0.366355 56:-0.465532 57:-0.560576 58:-0.277332 59:-0.35472 60:-0.810774 61:-0.603015 62:0.295528 63:0.432635 64:-0.226148 65:0.891657 66:0.836963 67:-0.37648 68:-0.604894 69:-0.137705 70:0.293767 71:-0.1512 72:-0.340639 73:0.952165 74:-0.37936 75:-0.0930432 76:-0.377667 77:0.0320666 78:-0.827141 79:-0.29764 80:0.846003 81:-0.270465 82:-0.638258 83:-0.323115 84:-0.136371 85:-0.0577253 86:-0.38177 87:0.133889 88:-0.233069 89:0.0277875 90:0.616174 91:-0.41004 92:-0.791252 93:-0.798124 94:-0.313628 95:0.0982343 96:-0.567823 97:-0.290145 98:-0.561053 99:-0.531511 100:-0.780791 101:-0.501017 102:-0.245918 103:-0.243908 104:0.427517 105:-0.259312 106:-0.161422 107:0.0142537 108:-0.836391 109:-0.320078 110:-0.701173 111:-0.25247 112:1 113:-0.367716 114:-0.404723 115:0.552369 116:-0.678999 117:-0.576329 118:-0.741552 119:0.251712 120:-0.365209 121:-0.703318 122:-0.538138 123:0.332945 124:-0.788205 125:-0.621134 126:-0.282196 127:-0.534611 128:0.311057 129:-0.306579 130:-0.374117 131:-0.35666 132:0.103681 133:0.342466 134:-0.593204 135:0.593192 136:0.342466 137:-0.593597 138:0.785208 139:0.31032 140:0.501402 141:0.432025 142:-0.186238 143:0.513514 144:0.567568 145:0.567568 146:0.621622 147:0.621622 148:0.631579 149:0.72973 150:0.8 151:0.8 152:-0.972691 153:-0.955202 154:0.862067 155:1 156:1 157:1 158:0.913039 159:0.913039 160:0.818185 161:0.904764 162:0.894739 163:0.444447 164:0.444447 165:0.249999 166:-0.285715 167:-0.272726 168:-0.636363 169:-0.6 170:-1 171:-1 172:-1 173:-1 174:-1 175:-1 176:0.513512 177:0.567565 178:0.567565 179:0.621622 180:0.621622 181:0.631579 182:0.729728 183:0.800001 184:0.8 
0.9128086535187749 -0.9128086535187746 1:0.569079 2:0.548618 3:0.601725 4:0.572656 5:-0.37884 6:0.900918 7:0.106175 8:0.432729 9:-0.358155 10:0.862069 11:0.925926 12:0.785714 13:0.92 14:0.913043 15:0.913043 16:0.636364 17:0.714286 18:0.368421 19:0.111111 22:-0.428571 23:-0.272727 24:-0.636364 25:-0.6 26:-0.555556 27:-0.555556 28:-1 29:-1 30:-1 31:-1 32:-0.657878 33:-0.783747 34:-0.766802 35:-0.876743 36:-0.713641 37:-0.494401 38:-0.886203 39:-0.624169 40:-0.754891 41:0.636946 42:-0.772354 43:-0.496691 44:0.0754538 45:0.649439 46:0.610583 47:-0.385239 48:-0.492736 49:-0.815666 50:-0.503734 51:-0.678419 52:-0.55869 53:-0.0436613 54:-0.264403 55:-0.518225 56:-0.544073 57:-0.909559 58:-0.496946 59:-0.762682 60:-0.208227 61:-0.483086 62:0.308459 63:0.109995 64:-0.696978 65:-0.702637 66:0.575914 67:-0.481711 68:-0.46609 69:-0.528499 70:-0.527416 71:-0.606912 72:-0.51438 73:-0.637414 74:-0.291498 75:-0.219682 76:-0.141204 77:-0.109416 78:-0.821018 79:-0.754721 80:0.148599 81:-0.041923 82:-0.542598 83:-0.425327 84:-0.518692 85:-0.618285 86:-0.022868 87:-0.382004 88:-0.706828 89:-0.742774 90:-0.77047 91:-0.940521 92:-0.224549 93:-0.508957 94:-0.502642 95:-0.448568 96:-0.544032 97:-0.73883 98:-0.588156 99:0.0946614 100:0.35604 101:-0.246527 102:-0.0424337 103:-0.0745313 104:-0.702279 105:0.171078 106:0.520934 107:-0.930273 108:-0.589863 109:0.178456 110:-0.440494 111:-0.734229 112:-0.625599 113:-0.156885 114:-0.0700842 115:-0.758114 116:0.0196857 117:0.261238 118:-0.139807 119:-0.395602 120:-0.368459 121:-0.751285 122:-0.662951 123:-0.721383 124:-0.426448 125:-0.740401 126:-0.138361 127:-0.728741 128:-0.573848 129:-0.538001 130:-0.173071 131:-0.0606331 132:0.132784 133:0.0443807 134:-0.354087 135:0.354081 136:0.0443807 137:-0.686284 138:0.813442 139:0.231354 140:0.152601 141:0.330496 142:-0.266533 143:0.567568 144:0.621622 145:0.621622 146:0.621622 147:0.675676 148:0.684211 149:0.891892 150:0.9 151:1 152:-0.957249 153:-0.931779 154:0.862067 155:0.925927 156:0.785714 157:0.920002 158:0.913039 159:0.913039 160:0.636364 161:0.714285 162:0.368425 163:0.111113 164:3.78334e-06 165:-4.25624e-06 166:-0.428571 167:-0.272726 168:-0.636363 169:-0.6 170:-0.555557 171:-0.555557 172:-1 173:-1 174:-1 175:-1 176:0.567565 177:0.621622 178:0.621622 179:0.621622 180:0.675675 181:0.68421 182:0.89189 183:0.899999 184:1 
0.6328486171907258 -0.6328486171907256 1:0.245629 2:0.336982 3:0.532194 4:0.287017 5:-0.49381 6:0.877947 7:-0.00558817 8:0.420428 9:-0.42671 10:0.37931 11:0.407407 12:0.428571 13:0.6 14:0.652174 15:0.652174 16:0.454545 17:0.428571 18:0.263158 19:-0.222222 20:-0.333333 21:-0.5 22:-0.714286 23:-0.636364 24:-0.636364 25:-0.6 26:-1 27:-1 28:-1 29:-1 30:-1 31:-1 32:-0.629703 33:-0.571714 34:-0.826191 35:-0.923147 36:-0.645202 37:-0.0159395 38:-0.462348 39:-0.647779 40:-0.74122 41:0.203153 42:0.198736 43:-0.0255532 44:-0.784391 45:0.174512 46:0.0634368 47:-0.377114 48:-0.707752 49:-0.500389 50:0.118654 51:-0.4841 52:-0.346757 53:-0.877512 54:0.267263 55:-0.205483 56:-0.266904 57:-0.700501 58:-0.387519 59:-0.133251 60:-0.890955 61:-0.686505 62:0.373932 63:-0.611646 64:-0.614073 65:-0.185147 66:-0.0291445 67:-0.882278 68:-0.21572 69:0.907355 70:0.0678034 71:-0.820131 72:-0.658192 73:-0.233054 74:-0.666425 75:-0.50326 76:-0.678948 77:-0.190663 78:-0.58777 79:-0.421203 80:-0.572175 81:-0.0685396 82:-0.199735 83:-0.232822 84:-0.638521 85:-0.956619 86:-0.794365 87:-0.563728 88:-0.454549 89:-0.790093 90:-0.35118 91:-0.488998 92:0.126381 93:0.371047 94:-0.714324 95:-0.693665 96:0.215598 97:0.212925 98:-0.564918 99:-0.237151 100:-0.114064 101:-0.617885 102:-0.558154 103:0.300833 104:-0.693037 105:-0.602166 106:-0.184844 107:-0.519777 108:-0.147675 109:-0.439177 110:-0.511629 111:-0.698631 112:-0.812405 113:-0.788432 114:-0.402665 115:-0.330589 116:-0.408113 117:-0.930469 118:0.0687269 119:-0.431383 120:-0.1002 121:-0.281419 122:0.0205713 123:-0.29975 124:-0.629994 125:0.613066 126:-0.166013 127:-0.286012 128:-0.696211 129:-0.630768 130:-0.177963 131:-0.363389 132:-0.25689 133:-0.0896118 134:-0.231559 135:0.23156 136:-0.0896118 137:0.0271519 138:0.360833 139:0.386995 140:0.179014 141:0.645905 142:-0.134415 143:-0.0810811 144:-0.0810811 145:-0.0810811 146:-0.027027 147:0.027027 149:0.0810811 152:-0.920213 153:-0.953618 154:0.379309 155:0.407409 156:0.428573 157:0.600002 158:0.652169 159:0.652169 160:0.454549 161:0.42857 162:0.263157 163:-0.222222 164:-0.333333 165:-0.5 166:-0.714285 167:-0.636363 168:-0.636363 169:-0.6 170:-1 171:-1 172:-1 173:-1 174:-1 175:-1 176:-0.0810813 177:-0.0810813 178:-0.0810813 179:-0.0270283 180:0.0270246 181:-1.79211e-06 182:0.0810808 183:-5.1075e-07 184:-1.0215e-06 
2.772671474906963 -2.772671474906962 1:-0.632755 2:-0.39212 3:0.00057991 4:-0.592553 5:-0.82722 6:0.388131 7:-0.118252 8:0.177901 9:-0.472533 10:-0.517241 11:-0.555556 12:-0.571429 13:-0.52 14:-0.565217 15:-0.565217 16:-0.727273 17:-0.714286 18:-0.789474 19:-0.777778 20:-0.777778 21:-0.75 22:-1 23:-1 24:-1 25:-1 26:-1 27:-1 28:-1 29:-1 30:-1 31:-1 32:0.211108 33:-0.709607 34:-0.610069 35:-0.87975 36:-0.916563 37:-0.91227 38:-0.946338 39:-0.969369 40:-0.741862 41:-0.872911 42:-0.871024 43:-0.847547 44:-0.852655 45:-0.973171 46:-0.828962 47:-0.860531 48:-0.889181 49:-0.977336 50:-0.843753 51:-0.778099 52:-0.868684 53:-0.768443 54:-0.882841 55:-0.719786 56:-0.805538 57:-0.926702 58:-0.916306 59:-0.933695 60:-0.959347 61:-0.923446 62:-0.713929 63:-0.945099 64:-0.916605 65:-0.73868 66:-0.74975 67:-0.887398 68:-0.889934 69:-0.627877 70:-0.729999 71:-0.900773 72:-0.915331 73:-0.998513 74:-0.858329 75:-0.842315 76:-0.87625 77:-0.777087 78:-0.986363 79:-0.849215 80:-0.813937 81:-0.843679 82:-0.903625 83:-0.938022 84:-0.814006 85:-0.729627 86:-0.806668 87:-0.837326 88:-0.915442 89:-0.813336 90:-0.845997 91:-0.790481 92:-0.846677 93:-0.7685 94:-0.900826 95:-0.842108 96:-0.757267 97:-0.841782 98:-0.857695 99:-0.613406 100:-0.80759 101:-0.626266 102:-0.767702 103:-0.862855 104:-0.724306 105:-0.632217 106:-0.587857 107:-0.794233 108:-0.832008 109:-0.872509 110:-0.746102 111:-0.744084 112:-0.893111 113:-0.73228 114:-0.868974 115:-0.883728 116:-0.897285 117:-0.766429 118:-0.854447 119:-0.872962 120:-0.876216 121:-0.855466 122:-0.864748 123:-0.798223 124:-0.955293 125:-0.801277 126:-0.876614 127:-0.914389 128:-0.871751 129:-0.843916 130:-0.715115 131:-0.313457 132:-0.375686 133:-0.27535 134:-0.0430187 135:0.0430223 136:-0.27535 137:0.774458 138:-0.528204 139:-0.0171577 140:-0.0179091 141:0.175402 142:-0.37795 143:-0.891892 144:-0.891892 145:-0.837838 146:-0.837838 147:-0.837838 148:-0.789474 149:-0.675676 150:-0.7 151:-0.75 152:-0.411979 153:-0.949552 154:-0.517243 155:-0.555556 156:-0.571429 157:-0.52 158:-0.565218 159:-0.565218 160:-0.727272 161:-0.714285 162:-0.789473 163:-0.777777 164:-0.777777 165:-0.75 166:-1 167:-1 168:-1 169:-1 170:-1 171:-1 172:-1 173:-1 174:-1 175:-1 176:-0.891892 177:-0.891892 178:-0.837838 179:-0.837838 180:-0.837838 181:-0.789474 182:-0.675676 183:-0.7 184:-0.75 
1.305976395530295 -1.305976395530296 1:-0.404838 2:-0.060864 3:-0.202364 4:-0.388291 5:-0.542658 6:0.168637 7:-0.128184 8:0.10368 9:-0.450512 10:-0.448276 11:-0.481481 12:-0.428571 13:-0.36 14:-0.391304 15:-0.391304 16:-0.363636 17:-0.333333 18:-0.368421 19:-0.333333 20:-0.333333 21:-0.25 22:-1 23:-1 24:-1 25:-1 26:-1 27:-1 28:-1 29:-1 30:-1 31:-1 32:0.111619 33:-0.0429531 34:0.460613 35:-0.072527 36:-0.730146 37:-0.646075 38:-0.55433 39:-0.742627 40:-0.968686 41:-0.665745 42:-0.591283 43:-0.176844 44:0.0249135 45:-0.206908 46:-0.114281 47:-0.675178 48:-0.74642 49:-0.830623 50:-0.844433 51:-0.627054 52:-0.626816 53:-0.384418 54:-0.277969 55:-0.0426594 56:-0.601858 57:-0.920638 58:-0.751757 59:-0.662811 60:-0.795768 61:-0.628297 62:-0.691171 63:-0.583989 64:-0.67995 65:0.0483255 66:-0.86155 67:-0.910581 68:-0.742385 69:-0.675518 70:-0.532366 71:-0.853402 72:-0.639537 73:-0.833529 74:-0.0877224 75:-0.802696 76:-0.671503 77:-0.874723 78:-0.389928 79:-0.456708 80:-0.407865 81:-0.617195 82:-0.857705 83:-0.340535 84:-0.384214 85:-0.121636 86:-0.565384 87:-0.362664 88:-0.858164 89:-0.458612 90:-0.514536 91:-0.86377 92:-0.666886 93:-0.420757 94:-0.21357 95:-0.503693 96:-0.75963 97:-0.617712 98:-0.840986 99:-0.680275 100:-0.616035 101:-0.801959 102:-0.816029 103:-0.223017 104:0.142548 105:-0.0985318 106:-0.0363234 107:-0.814723 108:-0.816255 109:-0.836172 110:-0.699346 111:-0.677307 112:-0.903746 113:-0.404122 114:-0.0463821 115:-0.406236 116:-0.659699 117:-0.825971 118:-0.855667 119:-0.513712 120:-0.537081 121:-0.632657 122:-0.141675 123:-0.381326 124:-0.921686 125:0.345503 126:-0.632601 127:-0.587486 128:-0.574054 129:-0.674678 130:-0.762229 131:-0.885946 132:-0.628964 133:0.050712 134:-0.359618 135:0.359616 136:0.050712 137:0.594472 138:-0.215451 139:0.158911 140:0.377871 141:0.793237 142:0.231291 143:-0.675676 144:-0.675676 145:-0.621622 146:-0.621622 147:-0.621622 148:-0.578947 149:-0.621622 150:-0.6 151:-0.65 152:-0.780119 153:-0.920139 154:-0.448274 155:-0.481483 156:-0.428573 157:-0.360001 158:-0.391305 159:-0.391305 160:-0.363636 161:-0.333333 162:-0.36842 163:-0.333333 164:-0.333333 165:-0.250001 166:-1 167:-1 168:-1 169:-1 170:-1 171:-1 172:-1 173:-1 174:-1 175:-1 176:-0.675676 177:-0.675676 178:-0.621622 179:-0.621622 180:-0.621622 181:-0.578949 182:-0.621623 183:-0.599999 184:-0.649999 
0.8074723782558151 -0.8074723782558149 1:-0.334935 2:-0.0441772 3:-0.253951 4:-0.324513 5:-0.437191 6:0.0986402 7:-0.115834 8:0.100523 9:-0.454519 10:-0.310345 11:-0.259259 12:-0.285714 13:-0.2 14:-0.217391 15:-0.217391 16:-0.181818 17:-0.142857 18:-0.157895 19:-0.555556 20:-0.555556 21:-0.5 22:-0.857143 23:-1 24:-1 25:-1 26:-1 27:-1 28:-1 29:-1 30:-1 31:-1 32:-0.345665 33:-0.233365 34:0.0856035 35:-0.0119445 36:-0.565746 37:-0.567274 38:-0.300068 39:-0.556812 40:-0.624202 41:-0.87083 42:-0.828055 43:-0.645943 44:0.518237 45:-0.109166 46:-0.235824 47:-0.683144 48:-0.541935 49:-0.699447 50:-0.509768 51:-0.256151 52:-0.335602 53:-0.600835 54:0.283476 55:-0.0652966 56:-0.841411 57:-0.764661 58:-0.620425 59:-0.971142 60:-0.784714 61:-0.837322 62:-0.379962 63:-0.859572 64:-0.757942 65:-0.482183 66:-0.441256 67:-0.30185 68:-0.383385 69:-0.349461 70:-0.721798 71:-0.745114 72:-0.770571 73:-0.584542 74:-0.743565 75:-0.757515 76:-0.946988 77:-0.329453 78:-0.141427 79:-0.755212 80:-0.0991743 81:-0.603929 82:0.60166 83:-0.349519 84:-0.688538 85:-0.406255 86:-0.574617 87:-0.513098 88:-0.402102 89:-0.892082 90:-0.2813 91:-0.555224 92:-0.134678 93:-0.619302 94:-0.741761 95:-0.286958 96:-0.761653 97:-0.411071 98:-0.238116 99:0.107107 100:0.16615 101:-0.315641 102:-0.127479 103:-0.840242 104:-0.532229 105:-0.650289 106:-0.320491 107:-0.9403 108:-0.78075 109:-0.133065 110:-0.15121 111:-0.761648 112:0.0157904 113:-0.742893 114:-0.374965 115:-0.433371 116:-0.813487 117:-0.677168 118:-0.471163 119:-0.639922 120:-0.178765 121:-0.46967 122:-0.290796 123:-0.579507 124:-0.54773 125:-0.683054 126:-0.17507 127:-0.554415 128:0.324132 129:-0.492704 130:-0.343545 131:-0.804312 132:-0.71618 133:-0.316039 134:0.00155438 135:-0.00154847 136:-0.316039 137:0.38366 138:0.0284808 139:0.0898936 140:0.392283 141:0.801433 142:0.232647 143:-0.459459 144:-0.459459 145:-0.405405 146:-0.405405 147:-0.405405 148:-0.368421 149:-0.405405 150:-0.35 151:-0.4 152:-0.835 153:-0.904173 154:-0.310346 155:-0.25926 156:-0.285714 157:-0.199999 158:-0.21739 159:-0.21739 160:-0.181815 161:-0.142854 162:-0.157895 163:-0.555555 164:-0.555555 165:-0.5 166:-0.857143 167:-1 168:-1 169:-1 170:-1 171:-1 172:-1 173:-1 174:-1 175:-1 176:-0.459459 177:-0.459459 178:-0.405406 179:-0.405406 180:-0.405406 181:-0.368423 182:-0.405407 183:-0.35 184:-0.4 
1.163017333385158 -1.163017333385158 1:-0.218242 2:0.114583 3:-0.218062 4:-0.204224 5:-0.352577 6:0.141135 7:-0.0960962 8:0.130504 9:-0.455276 10:-0.241379 11:-0.259259 12:-0.214286 13:-0.12 14:-0.130435 15:-0.130435 16:-0.181818 17:-0.142857 18:-0.0526316 19:-0.111111 20:-0.222222 21:-0.125 22:-0.571429 23:-0.818182 24:-1 25:-1 26:-1 27:-1 28:-1 29:-1 30:-1 31:-1 32:0.132844 33:0.0487967 34:0.0796421 35:-0.208129 36:-0.174667 37:-0.451718 38:-0.530105 39:-0.654598 40:-0.435622 41:-0.37393 42:-0.912361 43:-0.40279 44:-0.0303139 45:-0.511519 46:-0.516587 47:0.153928 48:0.597556 49:-0.441613 50:-0.67023 51:-0.799865 52:-0.781819 53:-0.284371 54:-0.267183 55:-0.5123 56:-0.858227 57:-0.760036 58:-0.700683 59:0.192474 60:-0.473645 61:-0.504286 62:-0.431417 63:-0.624222 64:-0.648658 65:-0.507864 66:-0.857768 67:-0.857951 68:-0.772372 69:0.364033 70:-0.103626 71:-0.235683 72:-0.338476 73:-0.242192 74:-0.802225 75:-0.747698 76:-0.552105 77:-0.885746 78:-0.423989 79:-0.758693 80:-0.0251632 81:-0.83672 82:0.0741467 83:-0.315389 84:-0.889087 85:-0.0398761 86:-0.234627 87:0.0306363 88:-0.80653 89:-0.551325 90:0.275455 91:-0.141993 92:-0.56874 93:-0.908172 94:-0.582899 95:0.0962008 96:-0.279668 97:-0.646865 98:-0.465159 99:0.572863 100:-0.347602 101:-0.579862 102:-0.00961754 103:-0.690762 104:-0.225007 105:-0.517236 106:-0.480309 107:-0.19387 108:-0.20563 109:-0.0903945 110:-0.11754 111:-0.0823003 112:-0.435133 113:-0.402884 114:-0.747942 115:-0.82484 116:-0.758967 117:-0.676268 118:-0.532668 119:-0.696667 120:-0.303464 121:-0.413786 122:0.0796038 123:-0.762693 124:-0.763891 125:0.858006 126:-0.253048 127:-0.0803929 128:-0.332784 129:-0.388023 130:0.170659 131:-0.782485 132:-0.741755 133:-0.400541 134:0.0982902 135:-0.0982818 136:-0.400541 137:0.310602 138:0.0936671 139:-0.216553 140:-0.0153441 141:0.0571462 142:-0.410848 143:-0.405405 144:-0.351351 145:-0.351351 146:-0.351351 147:-0.297297 148:-0.315789 149:-0.243243 150:-0.25 151:-0.3 152:-0.881655 153:-0.904598 154:-0.241382 155:-0.25926 156:-0.214286 157:-0.12 158:-0.130435 159:-0.130435 160:-0.181815 161:-0.142854 162:-0.0526271 163:-0.111113 164:-0.222222 165:-0.125002 166:-0.571428 167:-0.818181 168:-1 169:-1 170:-1 171:-1 172:-1 173:-1 174:-1 175:-1 176:-0.405406 177:-0.351353 178:-0.351353 179:-0.351353 180:-0.297297 181:-0.315789 182:-0.243245 183:-0.249999 184:-0.299999 
0.8139873590926862 -0.8139873590926858 1:-0.319908 2:0.0386894 3:-0.123843 4:-0.294006 5:-0.514649 6:0.2429 7:-0.0794267 8:0.167917 9:-0.478886 10:-0.310345 11:-0.259259 12:-0.285714 13:-0.2 14:-0.217391 15:-0.217391 16:-0.363636 17:-0.333333 18:-0.368421 19:-0.555556 20:-0.555556 21:-0.5 22:-0.714286 23:-0.636364 24:-0.636364 25:-0.6 26:-0.555556 27:-1 28:-1 29:-1 30:-1 31:-1 32:-0.570328 33:-0.262467 34:0.225261 35:-0.768611 36:-0.847414 37:-0.683221 38:-0.717694 39:-0.778341 40:-0.840633 41:-0.934695 42:-0.463193 43:-0.983985 44:-0.345289 45:-0.766165 46:-0.150861 47:-0.899607 48:-0.725615 49:-0.647802 50:-0.696584 51:-0.418862 52:-0.68286 53:-0.919878 54:-0.638195 55:-0.481392 56:-0.913639 57:-0.882481 58:-0.459526 59:-0.636725 60:-0.957537 61:-0.57495 62:-0.996092 63:-0.654621 64:-0.827368 65:-0.744002 66:-0.509896 67:-0.727946 68:-0.913556 69:-0.135546 70:-0.506482 71:-0.867044 72:-0.887423 73:-0.677174 74:-0.660058 75:-0.703726 76:-0.90369 77:-0.649188 78:-0.685519 79:-0.927113 80:-0.206156 81:-0.731806 82:-0.405199 83:-0.605978 84:-0.778089 85:-0.381977 86:-0.895221 87:-0.644654 88:-0.728057 89:-0.611394 90:-0.763597 91:-0.121817 92:-0.653891 93:-0.758811 94:-0.804118 95:-0.649975 96:-0.633428 97:-0.695551 98:-0.620885 99:-0.639218 100:-0.450198 101:-0.585455 102:-0.186279 103:-0.93507 104:-0.703768 105:-0.400274 106:-0.641324 107:-0.727598 108:-0.490243 109:-0.73772 110:-0.80885 111:-0.963979 112:-0.596245 113:-0.892768 114:-0.666836 115:-0.606506 116:-0.214831 117:-0.482431 118:-0.695327 119:-0.407465 120:-0.868509 121:-0.468 122:-0.823501 123:-0.848925 124:-0.537304 125:-0.588405 126:-0.68971 127:-0.555585 128:-0.584226 129:-0.730094 130:-0.344008 131:-0.425527 132:-0.585491 133:-0.453649 134:0.162138 135:-0.162148 136:-0.453649 137:0.416375 138:-0.0191214 139:-0.144276 140:0.00630094 141:0.112305 142:-0.42938 143:-0.513514 144:-0.513514 145:-0.459459 146:-0.459459 147:-0.405405 148:-0.421053 149:-0.297297 150:-0.35 151:-0.4 152:-0.820596 153:-0.931414 154:-0.310346 155:-0.25926 156:-0.285714 157:-0.199999 158:-0.21739 159:-0.21739 160:-0.363636 161:-0.333333 162:-0.36842 163:-0.555555 164:-0.555555 165:-0.5 166:-0.714285 167:-0.636363 168:-0.636363 169:-0.6 170:-0.555557 171:-1 172:-1 173:-1 174:-1 175:-1 176:-0.513512 177:-0.513512 178:-0.459459 179:-0.459459 180:-0.405406 181:-0.421053 182:-0.297298 183:-0.35 184:-0.4 
0.5141239694800084 -0.5141239694800087 1:0.206065 2:0.444283 3:-0.0827736 4:0.221981 5:-0.109034 6:0.284517 7:-0.0283601 8:0.195172 9:-0.425376 10:0.172414 11:0.259259 12:0.285714 13:0.44 14:0.478261 15:0.478261 16:0.363636 17:0.333333 18:0.157895 19:-0.111111 20:-0.111111 21:-0.25 22:-0.428571 23:-0.454545 24:-0.454545 25:-0.4 26:-0.333333 27:-0.777778 28:-0.777778 29:-1 30:-1 31:-1 32:-0.411008 33:-0.806173 34:-0.513647 35:-0.708936 36:-0.534753 37:-0.19019 38:-0.601067 39:-0.648719 40:-0.615774 41:-0.315554 42:-0.832784 43:-0.651268 44:-0.251743 45:-0.473227 46:-0.078217 47:-0.321664 48:-0.755248 49:-0.296321 50:-0.58231 51:-0.596658 52:-0.629853 53:-0.359961 54:-0.282412 55:-0.365523 56:-0.366209 57:-0.661693 58:-0.320815 59:-0.961708 60:-0.685799 61:-0.0166626 62:-0.733148 63:-0.271805 64:-0.414357 65:-0.396292 66:0.131636 67:-0.426006 68:-0.874235 69:-0.627866 70:-0.231594 71:-0.789719 72:-0.26334 73:-0.688231 74:-0.83525 75:-0.518073 76:-0.772046 77:-0.299987 78:-0.86631 79:-0.293202 80:-0.679908 81:-0.146534 82:-0.115549 83:-0.613521 84:-0.517155 85:-0.761977 86:-0.547807 87:-0.382201 88:-0.789116 89:-0.291348 90:0.112554 91:-0.485881 92:-0.0909478 93:-0.617457 94:-0.61952 95:-0.544819 96:-0.231117 97:-0.578095 98:-0.501122 99:-0.342722 100:-0.468333 101:0.153715 102:-0.517 103:-0.354726 104:-0.513389 105:-0.15447 106:-0.528432 107:-0.69352 108:-0.0285081 109:-0.210307 110:-0.505313 111:-0.403346 112:-0.315355 113:-0.377267 114:-0.623798 115:-0.7932 116:-0.923119 117:-0.832383 118:-0.131043 119:-0.914377 120:-0.110424 121:-0.322255 122:-0.851626 123:-0.434656 124:-0.513527 125:-0.746134 126:-0.455562 127:-0.879626 128:-0.656605 129:-0.135163 130:0.502587 131:-0.0108135 132:-0.689363 133:-0.735814 134:0.548052 135:-0.548054 136:-0.735814 137:-0.043387 138:0.396399 139:-0.252292 140:-0.0985349 141:-0.245494 142:-0.660464 143:-0.0810811 144:-0.0810811 145:-0.027027 146:0.0810811 147:0.135135 148:0.105263 149:0.189189 150:0.1 151:0.05 152:-0.961072 153:-0.91656 154:0.172412 155:0.259259 156:0.285714 157:0.44 158:0.47826 159:0.47826 160:0.363636 161:0.333333 162:0.157895 163:-0.111113 164:-0.111113 165:-0.250001 166:-0.428571 167:-0.454544 168:-0.454544 169:-0.4 170:-0.333335 171:-0.777778 172:-0.777778 173:-1 174:-1 175:-1 176:-0.0810813 177:-0.0810813 178:-0.0270283 179:0.0810813 180:0.135134 181:0.105263 182:0.18919 183:0.100001 184:0.0500014 
0.5042544568431629 -0.5042544568431631 1:-0.0882341 2:0.188422 3:-0.0880462 4:-0.0530983 5:-0.335912 6:0.239189 7:0.0237836 8:0.236982 9:-0.475912 10:0.0344828 11:0.111111 12:0.0714286 13:0.12 14:0.130435 15:0.130435 16:-0.181818 17:-0.142857 18:-0.368421 19:-0.333333 20:-0.444444 21:-0.5 22:-0.571429 23:-0.636364 24:-0.636364 25:-0.6 26:-0.555556 27:-1 28:-1 29:-1 30:-1 31:-1 32:-0.378253 33:-0.376859 34:-0.584778 35:-0.456639 36:-0.821166 37:-0.518698 38:-0.553874 39:-0.677008 40:-0.727632 41:-0.829735 42:-0.756668 43:-0.338439 44:-0.373689 45:-0.41459 46:-0.362958 47:-0.601109 48:-0.602659 49:-0.821772 50:-0.453772 51:-0.250499 52:-0.58048 53:-0.7332 54:-0.232575 55:-0.303175 56:-0.398407 57:-0.831523 58:-0.816148 59:-0.885767 60:-0.907927 61:-0.491381 62:-0.265816 63:0.00437341 64:-0.82636 65:-0.610734 66:-0.764315 67:-0.384439 68:-0.662723 69:-0.743432 70:-0.822049 71:-0.729989 72:-0.703896 73:-0.551852 74:-0.654189 75:-0.855594 76:-0.735987 77:0.222151 78:-0.911974 79:-0.66931 80:-0.280309 81:-0.60399 82:-0.520717 83:-0.42685 84:-0.421669 85:-0.610362 86:-0.609424 87:-0.744998 88:-0.327172 89:-0.714102 90:-0.634925 91:-0.757545 92:-0.887921 93:-0.850738 94:-0.643567 95:-0.418195 96:-0.711231 97:-0.663109 98:-0.800913 99:0.0605939 100:-0.79412 101:-0.211698 102:0.00431729 103:0.287451 104:-0.623753 105:-0.728021 106:-0.561688 107:-0.533344 108:-0.631043 109:0.279313 110:-0.796208 111:-0.570528 112:-0.527059 113:-0.96409 114:-0.71421 115:-0.694943 116:-0.330485 117:-0.455416 118:-0.728078 119:-0.747365 120:-0.645892 121:-0.340774 122:-0.751169 123:-0.642514 124:-0.641631 125:0.103418 126:-0.435316 127:-0.847896 128:0.0818991 129:-0.285409 130:0.128408 131:-0.134575 132:-0.679564 133:-0.693063 134:0.483947 135:-0.483954 136:-0.693063 137:0.20049 138:0.182907 139:-0.159833 140:0.123146 141:-0.00777073 142:-0.561699 143:-0.351351 144:-0.297297 145:-0.297297 146:-0.189189 147:-0.135135 148:-0.157895 149:-0.0810811 150:-0.1 151:-0.05 152:-0.908577 153:-0.941303 154:0.0344837 155:0.111113 156:0.0714272 157:0.12 158:0.130435 159:0.130435 160:-0.181815 161:-0.142854 162:-0.36842 163:-0.333333 164:-0.444444 165:-0.5 166:-0.571428 167:-0.636363 168:-0.636363 169:-0.6 170:-0.555557 171:-1 172:-1 173:-1 174:-1 175:-1 176:-0.351353 177:-0.297297 178:-0.297297 179:-0.189191 180:-0.135134 181:-0.157893 182:-0.0810819 183:-0.100002 184:-0.0500001 
5.19712872230619 -5.197128722306188 1:-0.632659 2:-0.270541 3:-0.488246 4:-0.587458 5:-0.504456 6:-0.206664 7:-0.172577 8:0.0847683 9:-0.452223 10:-0.517241 11:-0.555556 12:-0.571429 13:-0.6 14:-0.565217 15:-0.652174 16:-0.727273 17:-0.714286 18:-0.684211 19:-0.777778 20:-0.777778 21:-0.75 22:-0.857143 23:-0.818182 24:-0.818182 25:-0.8 26:-0.777778 27:-0.777778 28:-1 29:-1 30:-1 31:-1 32:-0.389721 33:-0.189046 34:-0.879946 35:-0.904948 36:-0.899814 37:-0.996733 38:-0.964744 39:-0.846193 40:-0.960524 41:-0.870794 42:-0.767709 43:-0.920118 44:-0.806268 45:-0.841746 46:-0.807334 47:-0.811937 48:-0.889042 49:-0.903287 50:-0.717328 51:-0.752706 52:-0.798665 53:-0.948192 54:-0.795356 55:-0.6497 56:-0.776885 57:-0.952479 58:-0.765105 59:-0.979946 60:-0.940315 61:-0.855996 62:-0.695287 63:-0.94009 64:-0.871869 65:-0.744926 66:-0.850377 67:-0.927626 68:-0.929806 69:-0.569714 70:-0.83784 71:-0.818652 72:-0.864804 73:-0.827685 74:-0.898698 75:-0.934426 76:-0.809652 77:-0.821936 78:-0.772706 79:-0.810188 80:-0.758913 81:-0.839639 82:-0.721953 83:-0.865087 84:-0.967229 85:-0.89273 86:-0.791713 87:-0.750167 88:-0.769377 89:-0.827644 90:-0.903038 91:-0.827542 92:-0.822484 93:-0.917054 94:-0.806277 95:-0.802528 96:-0.771181 97:-0.683776 98:-0.820166 99:-0.75755 100:-0.73951 101:-0.89074 102:-0.795866 103:-0.808958 104:-0.770212 105:-0.875492 106:-0.915288 107:-0.965186 108:-0.797163 109:-0.936929 110:-0.796955 111:-0.837412 112:-0.834637 113:-0.961437 114:-0.957563 115:-0.840467 116:-0.87341 117:-0.933044 118:-0.857844 119:-0.713638 120:-0.836326 121:-0.842622 122:-0.903173 123:-0.826002 124:-0.658753 125:-0.534423 126:-0.754277 127:-0.902525 128:-0.960684 129:-0.929271 130:-0.544469 131:-0.168102 132:-0.544561 133:-0.544944 134:0.277955 135:-0.277958 136:-0.544944 137:0.674563 138:-0.337768 139:-0.503511 140:-0.17457 141:-0.0143751 142:-0.431777 143:-0.783784 144:-0.72973 145:-0.72973 146:-0.72973 147:-0.675676 148:-0.684211 149:-0.621622 150:-0.65 151:-0.65 152:-0.697562 153:-0.801646 154:-0.517243 155:-0.555556 156:-0.571429 157:-0.6 158:-0.565218 159:-0.652174 160:-0.727272 161:-0.714285 162:-0.68421 163:-0.777777 164:-0.777777 165:-0.75 166:-0.857143 167:-0.818181 168:-0.818181 169:-0.8 170:-0.777778 171:-0.777778 172:-1 173:-1 174:-1 175:-1 176:-0.783784 177:-0.72973 178:-0.72973 179:-0.72973 180:-0.675676 181:-0.684211 182:-0.621623 183:-0.650001 184:-0.649999 
1.300389107014818 -1.300389107014821 1:-0.951925 2:-0.920072 3:-0.821729 4:-0.941498 5:-0.722016 6:-0.473071 7:-0.916348 8:-0.728833 9:-0.692576 10:-0.793103 11:-0.851852 12:-0.928571 13:-1 14:-1 15:-1 16:-1 17:-1 18:-1 19:-1 20:-1 21:-1 22:-1 23:-1 24:-1 25:-1 26:-1 27:-1 28:-1 29:-1 30:-1 31:-1 32:-0.677908 33:-0.72197 34:-0.933401 35:-0.955481 36:-0.95455 37:-0.969677 38:-0.973603 39:-0.989807 40:-0.988161 41:-0.937054 42:-0.967387 43:-0.959616 44:-0.858856 45:-0.969386 46:-0.981292 47:-0.91436 48:-0.985337 49:-0.955557 50:-0.932744 51:-0.986908 52:-0.939802 53:-1 54:-0.956966 55:-0.880141 56:-0.918492 57:-0.97047 58:-0.954219 59:-0.972329 60:-0.923593 61:-0.928454 62:-0.97139 63:-0.962024 64:-0.982947 65:-0.951984 66:-0.95023 67:-0.97713 68:-0.959827 69:-0.971033 70:-0.960779 71:-0.949565 72:-0.951421 73:-0.929517 74:-0.976608 75:-0.991013 76:-0.955258 77:-0.960547 78:-0.919633 79:-0.917468 80:-0.903798 81:-0.916698 82:-0.905569 83:-0.952896 84:-0.967422 85:-0.893597 86:-0.951608 87:-0.9385 88:-0.986735 89:-0.928719 90:-0.92792 91:-0.876291 92:-0.932055 93:-0.946415 94:-0.943567 95:-0.934017 96:-0.958672 97:-0.951853 98:-0.935092 99:-0.917927 100:-0.824867 101:-0.973037 102:-0.900467 103:-0.836732 104:-0.80004 105:-0.951519 106:-0.934318 107:-0.888666 108:-0.921693 109:-0.969038 110:-0.940204 111:-0.960665 112:-0.877717 113:-0.949341 114:-0.92651 115:-0.916504 116:-0.872766 117:-0.877877 118:-0.967162 119:-0.902251 120:-0.962213 121:-0.979575 122:-0.906212 123:-0.948541 124:-0.989856 125:-0.908768 126:-0.85358 127:-0.970134 128:-0.908899 129:-0.952717 130:-0.915058 131:-0.63237 132:-0.394522 133:0.0478488 134:-0.357131 135:0.357117 136:0.0478488 137:0.883835 138:-0.607023 139:0.921898 140:-0.109589 141:0.440571 142:0.668234 143:-0.891892 144:-0.891892 145:-0.891892 146:-0.891892 147:-0.837838 148:-0.842105 149:-0.837838 150:-0.85 151:-0.9 152:0.46085 153:-0.924662 154:-0.793103 155:-0.851852 156:-0.928571 157:-1 158:-1 159:-1 160:-1 161:-1 162:-1 163:-1 164:-1 165:-1 166:-1 167:-1 168:-1 169:-1 170:-1 171:-1 172:-1 173:-1 174:-1 175:-1 176:-0.891892 177:-0.891892 178:-0.891892 179:-0.891892 180:-0.837838 181:-0.842105 182:-0.837838 183:-0.85 184:-0.9 
1.339238586885466 -1.339238586885466 1:-0.940607 2:-0.908861 3:-0.808842 4:-0.929506 5:-0.709728 6:-0.445055 7:-0.929116 8:-0.699491 9:-0.667124 10:-0.793103 11:-0.777778 12:-0.857143 13:-1 14:-1 15:-1 16:-1 17:-1 18:-1 19:-1 20:-1 21:-1 22:-1 23:-1 24:-1 25:-1 26:-1 27:-1 28:-1 29:-1 30:-1 31:-1 32:-0.656004 33:-0.732952 34:-0.961712 35:-0.949122 36:-0.962335 37:-0.964263 38:-0.95969 39:-0.978278 40:-0.982303 41:-0.915579 42:-0.948412 43:-0.951093 44:-0.905395 45:-0.91668 46:-0.982541 47:-0.987738 48:-0.9307 49:-0.909942 50:-0.940225 51:-0.960076 52:-0.927115 53:-0.986026 54:-0.906286 55:-0.956707 56:-0.927208 57:-0.993191 58:-0.91093 59:-0.932003 60:-0.937832 61:-0.929371 62:-0.925306 63:-0.941054 64:-0.988681 65:-0.92658 66:-0.882347 67:-0.986413 68:-0.988832 69:-0.890391 70:-0.974391 71:-0.982257 72:-0.98343 73:-0.955093 74:-0.994162 75:-0.950652 76:-0.933385 77:-0.879961 78:-0.972405 79:-0.964908 80:-0.895368 81:-0.977996 82:-0.892044 83:-0.97774 84:-0.978077 85:-0.90904 86:-0.933303 87:-0.95856 88:-0.943713 89:-0.96643 90:-0.946153 91:-0.924679 92:-0.938623 93:-0.95752 94:-0.930202 95:-0.882216 96:-0.936816 97:-0.865424 98:-0.939567 99:-0.810863 100:-0.916241 101:-0.881154 102:-0.916772 103:-0.816368 104:-0.833111 105:-0.913949 106:-0.972207 107:-0.913688 108:-0.860618 109:-0.992442 110:-0.944424 111:-0.917747 112:-0.9822 113:-0.917763 114:-0.938869 115:-0.942118 116:-0.898014 117:-0.900357 118:-0.966521 119:-0.920613 120:-0.91701 121:-0.940902 122:-0.860337 123:-0.952265 124:-0.943882 125:-0.909188 126:-0.923363 127:-0.98428 128:-0.917794 129:-0.938066 130:-0.879279 131:-0.582014 132:-0.413695 133:-0.0564634 134:-0.262861 135:0.262851 136:-0.0564634 137:0.822113 138:-0.502692 139:0.894304 140:-0.211174 141:0.34295 142:0.560335 143:-0.837838 144:-0.837838 145:-0.837838 146:-0.837838 147:-0.837838 148:-0.736842 149:-0.783784 150:-0.8 151:-0.8 152:0.331896 153:-0.931148 154:-0.793103 155:-0.777778 156:-0.857143 157:-1 158:-1 159:-1 160:-1 161:-1 162:-1 163:-1 164:-1 165:-1 166:-1 167:-1 168:-1 169:-1 170:-1 171:-1 172:-1 173:-1 174:-1 175:-1 176:-0.837838 177:-0.837838 178:-0.837838 179:-0.837838 180:-0.837838 181:-0.736842 182:-0.783784 183:-0.8 184:-0.8 
3.332284109686615 -3.332284109686616 1:-0.717825 2:-0.35513 3:0.0692729 4:-0.660451 5:-0.900678 6:0.257836 7:0.274623 8:0.455586 9:-0.412912 10:-0.793103 11:-0.777778 12:-0.714286 13:-0.68 14:-0.652174 15:-0.652174 16:-0.636364 17:-0.714286 18:-0.684211 19:-0.777778 20:-0.777778 21:-0.75 22:-0.714286 23:-0.818182 24:-1 25:-1 26:-1 27:-1 28:-1 29:-1 30:-1 31:-1 32:0.436214 33:-0.529488 34:-0.912398 35:-0.870332 36:-0.925111 37:-0.914742 38:-0.90008 39:-0.992309 40:-0.947404 41:-0.899256 42:-0.927305 43:-0.810696 44:-0.982846 45:-0.748226 46:-0.872631 47:-0.900902 48:-0.971052 49:-0.848717 50:-0.88548 51:-0.822224 52:-0.94478 53:-0.912315 54:-0.892614 55:-0.783912 56:-0.828914 57:-0.943475 58:-0.858648 59:-0.911415 60:-0.875739 61:-0.916442 62:-0.88182 63:-0.938739 64:-0.988839 65:-0.961446 66:-0.913946 67:-0.872203 68:-0.919254 69:-0.919096 70:-0.824566 71:-0.886324 72:-0.90663 73:-0.834616 74:-0.934174 75:-0.880694 76:-0.949748 77:-0.92829 78:-0.926471 79:-0.813101 80:-0.665626 81:-0.964162 82:-0.93461 83:-0.791909 84:-0.789056 85:-0.911169 86:-0.989001 87:-0.907754 88:-0.899684 89:-0.940707 90:-0.800673 91:-0.889769 92:-0.891434 93:-0.8045 94:-0.888341 95:-0.919195 96:-0.878485 97:-0.801823 98:-0.947967 99:-0.992689 100:-0.922592 101:-0.833382 102:-0.878658 103:-0.751647 104:-0.843062 105:-0.87912 106:-0.91618 107:-0.729251 108:-0.988245 109:-0.917754 110:-0.922323 111:-0.875675 112:-0.959943 113:-0.862416 114:-0.930491 115:-0.871595 116:-0.887682 117:-0.898718 118:-0.819839 119:-0.968303 120:-0.794221 121:-0.933328 122:-0.879176 123:-0.976718 124:-0.893324 125:-0.833948 126:-0.797745 127:-0.934132 128:-0.877836 129:-0.886416 130:-0.758749 131:-0.631155 132:-0.0285765 133:0.665334 134:-0.810345 135:0.810339 136:0.665334 137:0.874633 138:-0.553406 139:-0.0536847 140:0.591356 141:0.550449 142:-0.20533 143:-0.891892 144:-0.891892 145:-0.837838 146:-0.783784 147:-0.783784 148:-0.789474 149:-0.837838 150:-0.85 151:-0.9 152:-0.156506 153:-0.929378 154:-0.793103 155:-0.777778 156:-0.714285 157:-0.68 158:-0.652174 159:-0.652174 160:-0.636363 161:-0.714285 162:-0.68421 163:-0.777777 164:-0.777777 165:-0.75 166:-0.714285 167:-0.818181 168:-1 169:-1 170:-1 171:-1 172:-1 173:-1 174:-1 175:-1 176:-0.891892 177:-0.891892 178:-0.837838 179:-0.783784 180:-0.783784 181:-0.789474 182:-0.837838 183:-0.85 184:-0.9 
1.072189959470679 -1.072189959470679 1:-0.23536 2:0.203179 3:0.184923 4:-0.194918 5:-0.618917 6:0.371599 7:0.331913 8:0.444055 9:-0.460546 10:-0.310345 11:-0.259259 12:-0.285714 13:-0.2 14:-0.130435 15:-0.130435 16:-0.272727 17:-0.238095 18:-0.157895 19:-0.222222 20:-0.222222 21:-0.125 22:-0.285714 23:-0.636364 24:-0.636364 25:-0.6 26:-0.555556 27:-0.555556 28:-1 29:-1 30:-1 31:-1 32:-0.237732 33:-0.511259 34:0.39361 35:-0.754326 36:-0.770101 37:-0.745554 38:-0.841542 39:-0.966602 40:-0.804479 41:-0.878392 42:-0.825323 43:-0.386898 44:-0.572947 45:-0.354651 46:-0.49604 47:-0.310832 48:-0.612854 49:-0.683741 50:-0.0199364 51:-0.412478 52:-0.872196 53:-0.487993 54:-0.317839 55:-0.732293 56:-0.915409 57:-0.878503 58:-0.614044 59:-0.721609 60:-0.710865 61:0.006066 62:-0.163449 63:-0.806183 64:-0.974996 65:-0.843829 66:-0.669281 67:-0.797582 68:-0.626133 69:-0.593065 70:-0.248886 71:-0.611931 72:-0.820048 73:-0.560234 74:-0.668405 75:-0.979518 76:-0.834129 77:-0.0942034 78:-0.793604 79:-0.388422 80:-0.59629 81:-0.511439 82:-0.597977 83:-0.85276 84:-0.731921 85:-0.32971 86:-0.879128 87:-0.777785 88:-0.636235 89:-0.567249 90:-0.943191 91:-0.452595 92:-0.334787 93:-0.836533 94:-0.840107 95:-0.567676 96:-0.476816 97:-0.183285 98:-0.450026 99:-0.106692 100:-0.622492 101:-0.810311 102:-0.707096 103:-0.239461 104:-0.559747 105:-0.789739 106:-0.157917 107:-0.82877 108:-0.607222 109:-0.758141 110:-0.625711 111:-0.762031 112:-0.815127 113:-0.749485 114:-0.753294 115:-0.422273 116:-0.707512 117:-0.65755 118:-0.701881 119:-0.372518 120:-0.525043 121:-0.850961 122:-0.510795 123:-0.358987 124:-0.849052 125:-0.274541 126:-0.212071 127:-0.658146 128:-0.729959 129:-0.602823 130:-0.0969801 131:-0.653916 132:-0.0996534 133:0.59867 134:-0.768559 135:0.768545 136:0.59867 137:0.625542 138:-0.187649 139:-0.105277 140:0.460222 141:0.653493 142:-0.206327 143:-0.675676 144:-0.675676 145:-0.621622 146:-0.567568 147:-0.567568 148:-0.578947 149:-0.513514 150:-0.55 151:-0.55 152:-0.810555 153:-0.955233 154:-0.310346 155:-0.25926 156:-0.285714 157:-0.199999 158:-0.130435 159:-0.130435 160:-0.272728 161:-0.238097 162:-0.157895 163:-0.222222 164:-0.222222 165:-0.125002 166:-0.285715 167:-0.636363 168:-0.636363 169:-0.6 170:-0.555557 171:-0.555557 172:-1 173:-1 174:-1 175:-1 176:-0.675676 177:-0.675676 178:-0.621622 179:-0.567569 180:-0.567569 181:-0.578949 182:-0.513513 183:-0.55 184:-0.550001 
0.8066212443977694 -0.8066212443977695 1:0.0708752 2:0.416383 3:0.330088 4:0.10246 5:-0.501572 6:0.511755 7:0.369698 8:0.427768 9:-0.495637 10:-0.0344828 11:0.037037 12:0.0714286 13:0.12 14:0.217391 15:0.217391 16:0.0909091 17:0.142857 18:0.157895 19:0.222222 20:0.222222 21:0.375 22:-0.285714 23:-0.636364 24:-0.636364 25:-0.6 26:-0.555556 27:-0.555556 28:-1 29:-1 30:-1 31:-1 32:-0.523444 33:-0.459169 34:-0.594966 35:-0.309589 36:-0.530092 37:-0.470496 38:-0.0196136 39:-0.584847 40:-0.806846 41:-0.809671 42:-0.981489 43:-0.685323 44:-0.817493 45:-0.763746 46:-0.602088 47:0.00994591 48:-0.781608 49:-0.322649 50:-0.218679 51:-0.331163 52:-0.629317 53:0.530293 54:0.187416 55:-0.236999 56:-0.531121 57:-0.319836 58:-0.455556 59:-0.826617 60:-0.645941 61:-0.51526 62:-0.307994 63:-0.665602 64:-0.928777 65:-0.885022 66:-0.811646 67:-0.538422 68:-0.867527 69:0.871936 70:-0.184123 71:-0.35634 72:-0.846278 73:0.186471 74:-0.74142 75:-0.770985 76:-0.82695 77:-0.815658 78:-0.52774 79:-0.528328 80:-0.362643 81:-0.824577 82:-0.0445107 83:-0.0750013 84:-0.291554 85:-0.640624 86:-0.120879 87:-0.823476 88:-0.63458 89:-0.0262937 90:-0.235108 91:-0.425356 92:-0.127684 93:-0.235346 94:-0.800278 95:-0.324139 96:-0.871319 97:-0.638284 98:-0.400467 99:0.175463 100:-0.657858 101:-0.451347 102:0.460878 103:-0.798913 104:-0.352484 105:-0.751249 106:-0.92567 107:-0.743198 108:-0.00198273 109:-0.968773 110:-0.512462 111:-0.388382 112:-0.358987 113:-0.550442 114:-0.85729 115:-0.490274 116:-0.852453 117:0.0233973 118:0.106669 119:-0.425842 120:-0.254882 121:-0.971915 122:-0.104949 123:-0.601282 124:-0.468999 125:-0.412523 126:0.257561 127:-0.80173 128:0.00528962 129:-0.658237 130:-0.322554 131:-0.585409 132:-0.15724 133:0.355592 134:-0.602787 135:0.602793 136:0.355592 137:0.421833 138:0.0529608 139:0.00010841 140:0.521476 141:0.686988 142:-0.234544 143:-0.459459 144:-0.459459 145:-0.351351 146:-0.351351 147:-0.351351 148:-0.368421 149:-0.297297 150:-0.35 151:-0.35 152:-0.898632 153:-0.977729 154:-0.0344851 155:0.0370356 156:0.0714272 157:0.12 158:0.21739 159:0.21739 160:0.0909074 161:0.142854 162:0.157895 163:0.222222 164:0.222222 165:0.374996 166:-0.285715 167:-0.636363 168:-0.636363 169:-0.6 170:-0.555557 171:-0.555557 172:-1 173:-1 174:-1 175:-1 176:-0.459459 177:-0.459459 178:-0.351353 179:-0.351353 180:-0.351353 181:-0.368423 182:-0.297298 183:-0.35 184:-0.350001 
0.5797770644950631 -0.5797770644950632 1:0.179247 2:0.497002 3:0.424997 4:0.169136 5:-0.508978 6:0.608075 7:0.371275 8:0.415908 9:-0.507645 10:0.103448 11:0.185185 12:0.214286 13:0.2 14:0.304348 15:0.304348 16:0.0909091 17:0.142857 18:0.263158 19:0.333333 20:0.222222 21:0.375 22:-0.428571 23:-0.454545 24:-0.454545 25:-0.4 26:-0.333333 27:-0.333333 28:-0.777778 29:-0.75 30:-1 31:-1 32:-0.589598 33:-0.83751 34:-0.329425 35:-0.390908 36:-0.958688 37:-0.447151 38:-0.154433 39:-0.471945 40:-0.596491 41:-0.890113 42:-0.920704 43:-0.759029 44:-0.513189 45:-0.576535 46:-0.72693 47:-0.627594 48:-0.210198 49:-0.832798 50:0.00991667 51:-0.642123 52:-0.647078 53:-0.537243 54:-0.532747 55:0.938332 56:-0.566426 57:-0.766683 58:-0.80733 59:0.133828 60:-0.642072 61:-0.774526 62:-0.524106 63:-0.724854 64:-0.727441 65:-0.593008 66:-0.962492 67:-0.95223 68:-0.705373 69:-0.778505 70:-0.0529909 71:-0.742862 72:-0.310883 73:-0.295288 74:-0.755167 75:-0.649475 76:-0.294169 77:-0.564913 78:-0.548783 79:-0.762606 80:-0.272268 81:-0.464691 82:-0.495538 83:-0.890866 84:-0.564577 85:-0.0195061 86:-0.357928 87:-0.299143 88:-0.559057 89:-0.546367 90:-0.49841 91:-0.854508 92:-0.909518 93:-0.11657 94:-0.270538 95:-0.388923 96:-0.593229 97:-0.525875 98:-0.298692 99:-0.172551 100:-0.829949 101:-0.390597 102:-0.265298 103:-0.337592 104:-0.390568 105:-0.699727 106:-0.490869 107:-0.419735 108:-0.875655 109:-0.100512 110:-0.577052 111:-0.33595 112:-0.500669 113:-0.324931 114:-0.0921858 115:-0.504832 116:-0.837526 117:-0.490916 118:-0.72798 119:-0.547601 120:-0.712153 121:-0.726146 122:-0.647004 123:0.232897 124:-0.0626651 125:-0.660792 126:-0.639531 127:-0.570001 128:-0.463466 129:-0.665131 130:0.0139751 131:-0.416822 132:-0.100528 133:0.169467 134:-0.459613 135:0.459606 136:0.169467 137:0.321763 138:0.136488 139:-0.0923762 140:0.301967 141:0.362168 142:-0.458131 143:-0.351351 144:-0.351351 145:-0.297297 146:-0.297297 147:-0.297297 148:-0.315789 149:-0.189189 150:-0.25 151:-0.15 152:-0.905109 153:-0.98431 154:0.103448 155:0.185186 156:0.214286 157:0.199999 158:0.304344 159:0.304344 160:0.0909074 161:0.142854 162:0.263157 163:0.333331 164:0.222222 165:0.374996 166:-0.428571 167:-0.454544 168:-0.454544 169:-0.4 170:-0.333335 171:-0.333335 172:-0.777778 173:-0.749999 174:-1 175:-1 176:-0.351353 177:-0.351353 178:-0.297297 179:-0.297297 180:-0.297297 181:-0.315789 182:-0.189188 183:-0.249999 184:-0.150002 
1.213823784984288 -1.213823784984289 1:-0.399607 2:0.0105695 3:0.405396 4:-0.351662 5:-0.797849 6:0.589891 7:0.335431 8:0.386439 9:-0.526599 10:-0.448276 11:-0.407407 12:-0.357143 13:-0.44 14:-0.391304 15:-0.391304 16:-0.454545 17:-0.428571 18:-0.368421 19:-0.444444 20:-0.444444 21:-0.375 22:-0.714286 23:-0.818182 24:-0.818182 25:-0.8 26:-0.777778 27:-0.777778 28:-0.777778 29:-0.75 30:-1 31:-1 32:-0.507916 33:-0.0619178 34:-0.606722 35:-0.861436 36:-0.842963 37:-0.825777 38:-0.905822 39:-0.821702 40:-0.914993 41:-0.56943 42:-0.859019 43:-0.876505 44:-0.401874 45:-0.959576 46:-0.738945 47:-0.745773 48:-0.633517 49:-0.875066 50:-0.96639 51:-0.670086 52:-0.800851 53:-0.65007 54:-0.893995 55:-0.582572 56:-0.826882 57:-0.829637 58:-0.932404 59:-0.864974 60:-0.804836 61:-0.961365 62:-0.903011 63:-0.80545 64:-0.844454 65:-0.860165 66:-0.6589 67:-0.880581 68:-0.849186 69:-0.81048 70:-0.862909 71:-0.795593 72:-0.902273 73:-0.600328 74:-0.821428 75:-0.974096 76:-0.810825 77:-0.483139 78:-0.894012 79:-0.738577 80:-0.586633 81:-0.71525 82:-0.803656 83:-0.901033 84:-0.892799 85:-0.739167 86:-0.398521 87:-0.933294 88:-0.959208 89:-0.697116 90:-0.663609 91:-0.903179 92:-0.777326 93:-0.80833 94:-0.95225 95:-0.752517 96:-0.938121 97:-0.759812 98:-0.788235 99:-0.968523 100:-0.772618 101:-0.357334 102:-0.736221 103:-0.675976 104:-0.707472 105:-0.817149 106:-0.980402 107:-0.787704 108:-0.708163 109:-0.585168 110:-0.645183 111:-0.688986 112:-0.784735 113:-0.884598 114:-0.919377 115:-0.837635 116:-0.860497 117:-0.974735 118:-0.642448 119:-0.730519 120:-0.695667 121:-0.796082 122:-0.648257 123:-0.728531 124:-0.641049 125:-0.790921 126:-0.855689 127:-0.910953 128:-0.92774 129:-0.767856 130:-0.760911 131:-0.400842 132:0.242594 133:0.585767 134:-0.760283 135:0.760284 136:0.585767 137:0.479076 138:-0.0289367 139:-0.0917655 140:0.277927 141:0.336996 142:-0.485639 143:-0.513514 144:-0.513514 145:-0.459459 146:-0.459459 147:-0.459459 148:-0.473684 149:-0.405405 150:-0.35 151:-0.35 152:-0.642481 153:-0.986021 154:-0.448274 155:-0.407405 156:-0.357141 157:-0.44 158:-0.391305 159:-0.391305 160:-0.454545 161:-0.428572 162:-0.36842 163:-0.444444 164:-0.444444 165:-0.375001 166:-0.714285 167:-0.818181 168:-0.818181 169:-0.8 170:-0.777778 171:-0.777778 172:-0.777778 173:-0.749999 174:-1 175:-1 176:-0.513512 177:-0.513512 178:-0.459459 179:-0.459459 180:-0.459459 181:-0.473684 182:-0.405407 183:-0.35 184:-0.350001 
0.2523326942179964 -0.2523326942179966 1:-0.120665 2:0.284483 3:0.373782 4:-0.124097 5:-0.655515 6:0.561291 7:0.347846 8:0.381212 9:-0.532041 10:-0.172414 11:-0.111111 12:-0.0714286 13:-0.12 14:-0.0434783 15:-0.0434783 16:-0.272727 17:-0.238095 18:-0.157895 19:-0.222222 20:-0.222222 21:-0.125 22:-0.428571 23:-0.454545 24:-0.454545 25:-0.4 26:-0.333333 27:-0.777778 28:-0.777778 29:-1 30:-1 31:-1 32:-0.533208 33:-0.302951 34:0.118517 35:-0.721016 36:-0.661443 37:-0.719522 38:-0.735393 39:-0.950994 40:-0.882799 41:-0.63632 42:-0.77579 43:-0.935639 44:-0.00242728 45:-0.604382 46:-0.41268 47:-0.663251 48:-0.66134 49:-0.799226 50:0.010179 51:-0.485371 52:-0.559089 53:-0.128783 54:-0.97423 55:-0.619803 56:-0.74238 57:-0.892678 58:-0.785517 59:-0.924333 60:-0.715776 61:-0.390796 62:-0.734847 63:-0.500995 64:-0.670867 65:-0.724363 66:-0.544722 67:-0.943472 68:-0.864214 69:-0.238541 70:-0.670218 71:-0.80213 72:-0.843627 73:-0.159316 74:-0.653596 75:-0.748365 76:-0.686949 77:-0.547838 78:-0.954072 79:-0.634135 80:-0.710504 81:-0.762862 82:-0.296072 83:-0.651274 84:-0.549246 85:-0.825435 86:-0.78172 87:-0.505177 88:-0.672789 89:-0.554732 90:-0.564503 91:-0.824911 92:-0.565374 93:-0.921858 94:-0.555694 95:-0.682979 96:-0.400401 97:-0.815084 98:-0.679812 99:-0.732045 100:-0.516765 101:-0.714241 102:-0.591453 103:0.429579 104:-0.847705 105:-0.776927 106:-0.446576 107:-0.658098 108:-0.65555 109:-0.438563 110:-0.751428 111:-0.806301 112:-0.464061 113:-0.899994 114:-0.873975 115:-0.891616 116:-0.709511 117:-0.881937 118:-0.665536 119:-0.403855 120:-0.898141 121:-0.568676 122:-0.195677 123:-0.427749 124:-0.990506 125:-0.486808 126:-0.394572 127:-0.711855 128:-0.891147 129:-0.794667 130:-0.447309 131:-0.599585 132:0.0805109 133:0.767959 134:-0.871919 135:0.871918 136:0.767959 137:0.405633 138:0.0339316 139:-0.0968753 140:0.309755 141:0.347869 142:-0.483907 143:-0.459459 144:-0.459459 145:-0.405405 146:-0.405405 147:-0.405405 148:-0.421053 149:-0.297297 150:-0.35 151:-0.15 152:-0.813639 153:-0.986077 154:-0.172413 155:-0.11111 156:-0.0714272 157:-0.12 158:-0.0434803 159:-0.0434803 160:-0.272728 161:-0.238097 162:-0.157895 163:-0.222222 164:-0.222222 165:-0.125002 166:-0.428571 167:-0.454544 168:-0.454544 169:-0.4 170:-0.333335 171:-0.777778 172:-0.777778 173:-1 174:-1 175:-1 176:-0.459459 177:-0.459459 178:-0.405406 179:-0.405406 180:-0.405406 181:-0.421053 182:-0.297298 183:-0.35 184:-0.150002 
0.5616892277688468 -0.5616892277688463 1:-0.165412 2:0.17395 3:0.386236 4:-0.169429 5:-0.6866 6:0.58648 7:0.317112 8:0.364473 9:-0.538613 10:-0.103448 11:-0.037037 12:-0.0714286 13:-0.2 14:-0.130435 15:-0.130435 16:-0.272727 17:-0.238095 18:-0.157895 19:-0.222222 20:-0.222222 21:-0.125 22:-0.571429 23:-0.636364 24:-0.636364 25:-0.6 26:-0.555556 27:-1 28:-1 29:-1 30:-1 31:-1 32:-0.257404 33:-0.591163 34:0.0626645 35:-0.516237 36:-0.746246 37:-0.852066 38:-0.735067 39:-0.912478 40:-0.853057 41:-0.83718 42:-0.788689 43:-0.69508 44:-0.143819 45:-0.764522 46:0.145486 47:-0.531564 48:-0.546863 49:-0.329789 50:-0.534941 51:-0.669031 52:-0.0685768 53:-0.754435 54:-0.222842 55:-0.548081 56:-0.89935 57:-0.928084 58:-0.871576 59:-0.772851 60:-0.823721 61:-0.155364 62:-0.430858 63:-0.425013 64:-0.636797 65:-0.70939 66:-0.744526 67:-0.85925 68:-0.905629 69:-0.696202 70:-0.76862 71:-0.717005 72:-0.488432 73:-0.903996 74:-0.781745 75:-0.474154 76:-0.842692 77:-0.698517 78:-0.943598 79:-0.897701 80:-0.311545 81:-0.545615 82:-0.724941 83:-0.830945 84:-0.600756 85:-0.380769 86:-0.913773 87:-0.678306 88:-0.665621 89:-0.672438 90:-0.893966 91:-0.701024 92:-0.23084 93:-0.5893 94:-0.855207 95:-0.840513 96:-0.721416 97:-0.49392 98:-0.862744 99:-0.571652 100:0.235505 101:-0.546704 102:-0.505251 103:-0.460214 104:-0.39136 105:-0.511969 106:-0.442429 107:-0.566025 108:-0.453678 109:-0.860413 110:-0.749449 111:-0.509233 112:-0.831585 113:-0.573702 114:-0.623627 115:-0.530958 116:-0.415496 117:-0.654783 118:-0.621842 119:-0.929292 120:-0.371573 121:-0.63806 122:-0.697553 123:-0.342365 124:-0.482997 125:-0.781676 126:-0.710581 127:-0.745834 128:-0.374424 129:-0.421711 130:-0.716514 131:-0.60885 132:-0.00950452 133:0.643619 134:-0.796881 135:0.796886 136:0.643619 137:0.4155 138:0.0326028 139:0.0963079 140:0.516453 141:0.665801 142:-0.281083 143:-0.459459 144:-0.405405 145:-0.405405 146:-0.405405 147:-0.405405 148:-0.421053 149:-0.297297 150:-0.35 151:-0.3 152:-0.788111 153:-0.993754 154:-0.103449 155:-0.0370371 156:-0.0714272 157:-0.199999 158:-0.130435 159:-0.130435 160:-0.272728 161:-0.238097 162:-0.157895 163:-0.222222 164:-0.222222 165:-0.125002 166:-0.571428 167:-0.636363 168:-0.636363 169:-0.6 170:-0.555557 171:-1 172:-1 173:-1 174:-1 175:-1 176:-0.459459 177:-0.405406 178:-0.405406 179:-0.405406 180:-0.405406 181:-0.421053 182:-0.297298 183:-0.35 184:-0.299999 
0.08271345784558701 -0.08271345784558699 1:-0.148626 2:0.182479 3:0.417452 4:-0.115567 5:-0.667158 6:0.630791 7:0.292645 8:0.319506 9:-0.567232 10:-0.172414 11:-0.111111 12:-0.0714286 13:-0.12 14:-0.0434783 15:-0.0434783 16:-0.181818 17:-0.142857 18:-0.263158 19:-0.222222 20:-0.222222 21:-0.125 22:-0.714286 23:-0.636364 24:-0.636364 25:-0.6 26:-0.555556 27:-1 28:-1 29:-1 30:-1 31:-1 32:-0.331932 33:-0.660149 34:-0.183661 35:-0.425286 36:-0.836864 37:-0.617563 38:-0.4138 39:-0.890026 40:-0.836654 41:-0.688853 42:-0.930135 43:-0.904508 44:-0.521261 45:-0.270752 46:-0.570049 47:-0.322407 48:-0.632995 49:-0.349243 50:-0.130673 51:-0.438938 52:-0.714867 53:-0.0671332 54:-0.706423 55:-0.721961 56:-0.648409 57:-0.852952 58:-0.937221 59:-0.730874 60:-0.624527 61:-0.074916 62:-0.573414 63:-0.602527 64:-0.916749 65:-0.199263 66:-0.581274 67:-0.752653 68:-0.929635 69:-0.755291 70:-0.653 71:-0.823253 72:-0.864753 73:-0.783885 74:-0.560719 75:-0.67584 76:-0.954904 77:-0.54834 78:-0.260884 79:-0.670233 80:-0.462561 81:-0.888536 82:-0.638857 83:-0.550959 84:-0.324031 85:-0.80917 86:-0.718574 87:-0.665372 88:-0.938818 89:-0.341617 90:-0.856455 91:-0.526477 92:-0.847476 93:-0.820279 94:-0.857794 95:-0.661014 96:-0.306422 97:-0.600637 98:-0.888566 99:-0.686271 100:-0.366509 101:-0.846533 102:-0.47093 103:-0.615341 104:0.349611 105:-0.0529859 106:-0.729752 107:-0.739208 108:-0.701818 109:-0.79837 110:-0.677045 111:-0.84842 112:-0.838036 113:-0.625625 114:-0.893704 115:-0.851082 116:-0.763487 117:-0.56495 118:-0.729729 119:-0.684364 120:0.0391433 121:-0.400929 122:-0.894206 123:-0.500584 124:-0.736978 125:-0.800223 126:-0.203614 127:-0.795696 128:-0.660106 129:-0.448276 130:-0.605064 131:-0.599486 132:0.0666516 133:0.745268 134:-0.858584 135:0.85858 136:0.745268 137:0.493772 138:-0.0703025 139:0.139394 140:0.500131 141:0.622642 142:-0.329206 143:-0.567568 144:-0.513514 145:-0.513514 146:-0.513514 147:-0.513514 148:-0.473684 149:-0.405405 150:-0.45 151:-0.4 152:-0.810833 153:-0.994661 154:-0.172413 155:-0.11111 156:-0.0714272 157:-0.12 158:-0.0434803 159:-0.0434803 160:-0.181815 161:-0.142854 162:-0.263157 163:-0.222222 164:-0.222222 165:-0.125002 166:-0.714285 167:-0.636363 168:-0.636363 169:-0.6 170:-0.555557 171:-1 172:-1 173:-1 174:-1 175:-1 176:-0.567569 177:-0.513512 178:-0.513512 179:-0.513512 180:-0.513512 181:-0.473684 182:-0.405407 183:-0.450002 184:-0.4 
0.1172521104848274 -0.1172521104848273 1:-0.149101 2:0.171256 3:0.433503 4:-0.1225 5:-0.676933 6:0.636837 7:0.309563 8:0.278813 9:-0.608753 10:-0.103448 11:-0.111111 12:-0.0714286 13:-0.04 14:-0.0434783 15:-0.0434783 16:-0.181818 17:-0.142857 18:-0.263158 19:-0.222222 20:-0.222222 21:-0.125 22:-0.714286 23:-0.636364 24:-0.636364 25:-0.6 26:-0.555556 27:-1 28:-1 29:-1 30:-1 31:-1 32:-0.323605 33:-0.651422 34:-0.182977 35:-0.437458 36:-0.840275 37:-0.627496 38:-0.429204 39:-0.861931 40:-0.818921 41:-0.679896 42:-0.922401 43:-0.884296 44:-0.507293 45:-0.308713 46:-0.562419 47:-0.419832 48:-0.546036 49:-0.269515 50:-0.235047 51:-0.418426 52:-0.660558 53:-0.107407 54:-0.710635 55:-0.696206 56:-0.642333 57:-0.875108 58:-0.973865 59:-0.697269 60:-0.622196 61:0.0211079 62:-0.546353 63:-0.646338 64:-0.92405 65:-0.262178 66:-0.505947 67:-0.77807 68:-0.935082 69:-0.798305 70:-0.553389 71:-0.844127 72:-0.932865 73:-0.869178 74:-0.576409 75:-0.640488 76:-0.916286 77:-0.503249 78:-0.354497 79:-0.773749 80:-0.444504 81:-0.803401 82:-0.684182 83:-0.711677 84:-0.0445897 85:-0.9378 86:-0.613367 87:-0.770424 88:-0.805413 89:-0.231499 90:-0.802324 91:-0.469293 92:-0.876109 93:-0.901087 94:-0.850487 95:-0.647807 96:-0.4119 97:-0.435923 98:-0.744384 99:-0.641286 100:-0.460294 101:-0.766011 102:-0.612071 103:-0.708684 104:0.466434 105:-0.306545 106:-0.803591 107:-0.707727 108:-0.582702 109:-0.951224 110:-0.899511 111:-0.753103 112:-0.821407 113:-0.618124 114:-0.918223 115:-0.733595 116:-0.936119 117:-0.355464 118:-0.864905 119:-0.639453 120:-0.287782 121:-0.552918 122:-0.680438 123:-0.673841 124:-0.683507 125:-0.788847 126:-0.37336 127:-0.667206 128:-0.594191 129:-0.592029 130:-0.90609 131:-0.590343 132:0.0536902 133:0.702364 134:-0.832942 135:0.832934 136:0.702364 137:0.478027 138:-0.0633968 139:0.158897 140:0.542335 141:0.604593 142:-0.389123 143:-0.567568 144:-0.513514 145:-0.513514 146:-0.513514 147:-0.459459 148:-0.473684 149:-0.351351 150:-0.4 151:-0.4 152:-0.804907 153:-0.993965 154:-0.103449 155:-0.11111 156:-0.0714272 157:-0.040002 158:-0.0434803 159:-0.0434803 160:-0.181815 161:-0.142854 162:-0.263157 163:-0.222222 164:-0.222222 165:-0.125002 166:-0.714285 167:-0.636363 168:-0.636363 169:-0.6 170:-0.555557 171:-1 172:-1 173:-1 174:-1 175:-1 176:-0.567569 177:-0.513512 178:-0.513512 179:-0.513512 180:-0.459459 181:-0.473684 182:-0.351351 183:-0.399999 184:-0.4 
0.8417131293481451 -0.8417131293481439 1:-0.115768 2:0.229205 3:0.400219 4:-0.0904081 5:-0.646253 6:0.618306 7:0.288008 8:0.248073 9:-0.612021 10:0.0344828 11:0.037037 12:-0.142857 13:-0.12 14:-0.130435 15:-0.130435 16:-0.363636 17:-0.333333 18:-0.263158 19:-0.222222 20:-0.222222 21:-0.25 22:-0.428571 23:-0.272727 24:-0.454545 25:-0.4 26:-0.333333 27:-0.777778 28:-0.777778 29:-1 30:-1 31:-1 32:-0.129823 33:-0.486154 34:-0.412979 35:-0.416987 36:-0.744334 37:-0.621518 38:-0.680459 39:-0.895034 40:-0.878606 41:-0.919553 42:-0.737294 43:-0.685984 44:-0.842863 45:-0.251431 46:-0.478039 47:-0.393457 48:-0.45232 49:-0.663297 50:-0.60994 51:0.817643 52:-0.545634 53:-0.742757 54:-0.279055 55:-0.296899 56:-0.542364 57:-0.606577 58:-0.160454 59:-0.540686 60:-0.818284 61:-0.730771 62:-0.513385 63:-0.650886 64:-0.559439 65:-0.871725 66:-0.794659 67:-0.347588 68:-0.533901 69:-0.113583 70:-0.434426 71:-0.969878 72:-0.801827 73:-0.504372 74:-0.83416 75:-0.952785 76:-0.621644 77:-0.435424 78:-0.876775 79:-0.79182 80:-0.465833 81:-0.506923 82:-0.347227 83:-0.683184 84:-0.888564 85:-0.915977 86:-0.310872 87:-0.447473 88:-0.963178 89:-0.726259 90:-0.789799 91:-0.87516 92:-0.640458 93:-0.943545 94:-0.528922 95:-0.804799 96:-0.706163 97:-0.500019 98:-0.681202 99:0.475445 100:-0.459665 101:-0.156759 102:-0.881516 103:-0.370448 104:-0.780272 105:-0.26411 106:-0.430682 107:-0.863794 108:0.0089439 109:-0.624837 110:-0.906208 111:-0.543624 112:-0.685463 113:-0.876542 114:-0.803233 115:-0.41834 116:-0.49178 117:-0.41872 118:-0.626375 119:-0.829072 120:-0.665636 121:-0.289026 122:-0.794062 123:-0.589177 124:-0.523997 125:-0.506496 126:-0.880945 127:-0.574294 128:-0.887539 129:-0.58511 130:-0.162636 131:-0.538612 132:-0.0246577 133:0.470737 134:-0.684065 135:0.684062 136:0.470737 137:0.190553 138:0.215466 139:-0.00583246 140:0.314292 141:0.258342 142:-0.585533 143:-0.243243 144:-0.243243 145:-0.243243 146:-0.243243 147:-0.189189 148:-0.210526 149:-0.027027 150:-0.05 151:-0.1 152:-0.825081 153:-0.990279 154:0.0344837 155:0.0370356 156:-0.142859 157:-0.12 158:-0.130435 159:-0.130435 160:-0.363636 161:-0.333333 162:-0.263157 163:-0.222222 164:-0.222222 165:-0.250001 166:-0.428571 167:-0.272726 168:-0.454544 169:-0.4 170:-0.333335 171:-0.777778 172:-0.777778 173:-1 174:-1 175:-1 176:-0.243244 177:-0.243244 178:-0.243244 179:-0.243244 180:-0.189191 181:-0.210528 182:-0.0270289 183:-0.0499995 184:-0.0999991 
0.1327471655863474 -0.132747165586348 1:0.0696379 2:0.258798 3:0.300124 4:0.0904355 5:-0.49348 6:0.504068 7:0.316667 8:0.171884 9:-0.628572 10:0.310345 11:0.333333 12:0.357143 13:0.44 14:0.478261 15:0.391304 16:0.0909091 17:0.047619 18:-0.368421 19:-0.444444 20:-0.444444 21:-0.625 22:-0.571429 23:-0.454545 24:-0.636364 25:-0.6 26:-0.555556 27:-0.555556 28:-1 29:-1 30:-1 31:-1 32:-0.81931 33:-0.592735 34:-0.576609 35:-0.74775 36:-0.964497 37:-0.722672 38:-0.448217 39:-0.715448 40:-0.517385 41:-0.361775 42:-0.653013 43:-0.612864 44:-0.328109 45:-0.940706 46:-0.334904 47:-0.41237 48:-0.908536 49:-0.850108 50:-0.523281 51:-0.452116 52:-0.658866 53:-0.213834 54:-0.260167 55:-0.541925 56:-0.342086 57:-0.603934 58:-0.794849 59:-0.748962 60:-0.74587 61:-0.716411 62:-0.888622 63:-0.436334 64:-0.480805 65:-0.805124 66:-0.227697 67:-0.519736 68:-0.68962 69:-0.76172 70:-0.53741 71:-0.797901 72:-0.531202 73:-0.799985 74:-0.798941 75:-0.659945 76:-0.924309 77:-0.126046 78:-0.562658 79:-0.657091 80:-0.105309 81:-0.798261 82:-0.385667 83:-0.707288 84:-0.773936 85:-0.758079 86:-0.416089 87:-0.651643 88:-0.426541 89:-0.268733 90:-0.439953 91:-0.613985 92:-0.388543 93:-0.484077 94:-0.812944 95:-0.509537 96:-0.824249 97:-0.557314 98:-0.807302 99:-0.755311 100:-0.859698 101:-0.80952 102:-0.662117 103:-0.567584 104:-0.172397 105:-0.894248 106:-0.622925 107:-0.122196 108:-0.600571 109:-0.661051 110:-0.372477 111:-0.637268 112:-0.515177 113:-0.470978 114:-0.734876 115:-0.296458 116:-0.505999 117:-0.419996 118:-0.71275 119:-0.433103 120:-0.848682 121:-0.439191 122:-0.783969 123:-0.762827 124:-0.6393 125:-0.023641 126:-0.166087 127:-0.943359 128:-0.593931 129:-0.81971 130:-0.638754 131:-0.124489 132:0.157515 133:0.126817 134:-0.424516 135:0.424521 136:0.126817 137:-0.191253 138:0.490915 139:-0.0120155 140:0.445117 141:0.237476 142:-0.579067 143:0.0810811 144:0.0810811 145:0.135135 146:0.135135 147:0.135135 148:0.157895 149:0.351351 150:0.4 151:0.55 152:-0.898793 153:-0.986327 154:0.310345 155:0.333331 156:0.357141 157:0.44 158:0.47826 159:0.391305 160:0.0909074 161:0.0476181 162:-0.36842 163:-0.444444 164:-0.444444 165:-0.625 166:-0.571428 167:-0.454544 168:-0.636363 169:-0.6 170:-0.555557 171:-0.555557 172:-1 173:-1 174:-1 175:-1 176:0.0810813 177:0.0810813 178:0.135134 179:0.135134 180:0.135134 181:0.157893 182:0.351349 183:0.399998 184:0.549999 
0.3086165821699032 -0.3086165821699029 1:0.180435 2:0.28911 3:0.332477 4:0.198044 5:-0.445306 6:0.570123 7:0.259242 8:0.158251 9:-0.607733 10:0.586207 11:0.555556 12:0.571429 13:0.68 14:0.652174 15:0.478261 16:0.181818 17:0.047619 18:-0.473684 19:-0.444444 20:-0.444444 21:-0.625 22:-0.571429 23:-0.454545 24:-0.636364 25:-0.6 26:-0.555556 27:-0.555556 28:-1 29:-1 30:-1 31:-1 32:-0.808965 33:-0.615739 34:-0.712342 35:-0.693055 36:-0.853565 37:-0.773097 38:-0.607256 39:-0.664371 40:-0.754322 41:-0.319526 42:-0.813189 43:-0.391328 44:-0.0224132 45:0.207311 46:-0.657259 47:-0.616001 48:-0.446319 49:-0.63805 50:-0.615072 51:-0.281122 52:-0.355134 53:-0.711105 54:-0.874847 55:-0.22696 56:-0.0550789 57:-0.952611 58:-0.258272 59:-0.405946 60:-0.858672 61:-0.902516 62:-0.943875 63:-0.654273 64:-0.768762 65:-0.586875 66:-0.824624 67:-0.841139 68:-0.662901 69:0.434395 70:-0.143737 71:-0.72536 72:-0.397706 73:-0.432606 74:-0.664786 75:-0.436863 76:-0.830637 77:-0.86781 78:-0.527196 79:-0.766861 80:-0.52534 81:-0.602757 82:-0.273075 83:-0.659819 84:-0.185203 85:-0.761797 86:-0.395363 87:-0.795541 88:-0.58596 89:-0.739836 90:-0.603778 91:-0.540569 92:-0.755377 93:-0.803842 94:-0.786159 95:-0.156067 96:-0.607363 97:-0.670389 98:-0.655057 99:0.572201 100:-0.317054 101:0.38219 102:-0.143405 103:-0.344259 104:-0.624592 105:-0.54195 106:-0.386982 107:-0.443832 108:-0.46846 109:-0.683709 110:-0.924378 111:-0.355481 112:-0.618629 113:-0.769606 114:-0.569233 115:-0.614538 116:-0.641071 117:-0.480857 118:-0.777548 119:-0.911632 120:-0.230804 121:-0.727265 122:-0.225493 123:0.0128342 124:-0.437659 125:0.340419 126:-0.331214 127:-0.687468 128:-0.883267 129:-0.690898 130:-0.557392 131:-0.0583685 132:0.140798 133:0.0498991 134:-0.358911 135:0.358909 136:0.0498991 137:-0.266795 138:0.542164 139:0.0240092 140:0.36111 141:0.191719 142:-0.566109 143:0.135135 144:0.135135 145:0.135135 146:0.243243 147:0.297297 148:0.263158 149:0.459459 150:0.6 151:0.6 152:-0.919926 153:-0.977491 154:0.586206 155:0.555554 156:0.571427 157:0.680001 158:0.652169 159:0.47826 160:0.181821 161:0.0476181 162:-0.473684 163:-0.444444 164:-0.444444 165:-0.625 166:-0.571428 167:-0.454544 168:-0.636363 169:-0.6 170:-0.555557 171:-0.555557 172:-1 173:-1 174:-1 175:-1 176:0.135134 177:0.135134 178:0.135134 179:0.243244 180:0.297297 181:0.263158 182:0.459459 183:0.599998 184:0.600001 
0.4632085805674399 -0.4632085805674397 1:0.151 2:0.271629 3:0.364163 4:0.167846 5:-0.479949 6:0.614225 7:0.232983 8:0.184594 9:-0.508677 10:0.517241 11:0.555556 12:0.571429 13:0.6 14:0.652174 15:0.565217 16:0.272727 17:-0.238095 18:-0.473684 19:-0.444444 20:-0.444444 21:-0.625 22:-0.571429 23:-0.454545 24:-0.636364 25:-0.6 26:-0.555556 27:-0.555556 28:-1 29:-1 30:-1 31:-1 32:-0.804606 33:-0.579536 34:-0.681647 35:-0.705542 36:-0.883532 37:-0.740663 38:-0.547272 39:-0.679075 40:-0.894302 41:-0.409279 42:-0.673049 43:-0.552015 44:-0.223728 45:0.272876 46:-0.178437 47:-0.496292 48:-0.565516 49:-0.875472 50:-0.92382 51:-0.156873 52:-0.409941 53:-0.722085 54:-0.544365 55:0.0261523 56:-0.444067 57:-0.621747 58:-0.158382 59:-0.774477 60:-0.921212 61:-0.825282 62:-0.486449 63:-0.665106 64:-0.844644 65:-0.891548 66:-0.576601 67:-0.889232 68:-0.713357 69:-0.314029 70:0.373988 71:-0.501195 72:-0.672376 73:-0.619075 74:-0.44297 75:-0.690317 76:-0.893044 77:-0.478488 78:-0.83998 79:-0.505147 80:-0.0811544 81:-0.933077 82:-0.806017 83:-0.537234 84:-0.277008 85:-0.747761 86:-0.5031 87:-0.775171 88:-0.896555 89:-0.446234 90:-0.865455 91:-0.912554 92:-0.774389 93:-0.504406 94:-0.879774 95:-0.940868 96:-0.37181 97:-0.599449 98:-0.810944 99:0.909016 100:-0.219777 101:-0.543531 102:-0.696298 103:-0.40024 104:-0.530848 105:-0.696681 106:-0.668427 107:-0.849527 108:-0.627906 109:-0.761597 110:-0.683865 111:-0.477619 112:-0.728675 113:-0.76994 114:-0.599022 115:-0.469011 116:-0.801565 117:-0.466976 118:-0.4288 119:-0.640662 120:-0.481477 121:-0.327287 122:-0.639645 123:-0.694286 124:-0.611521 125:-0.46174 126:-0.101534 127:-0.414784 128:0.191646 129:-0.480623 130:-0.175695 131:-0.0371768 132:0.10592 133:-0.000165339 134:-0.314509 135:0.314497 136:-0.000165339 137:-0.35014 138:0.610609 139:0.0527162 140:0.326824 141:0.171695 142:-0.441743 143:0.243243 144:0.243243 145:0.297297 146:0.297297 147:0.405405 148:0.368421 149:0.567568 150:0.6 151:0.65 152:-0.910614 153:-0.969727 154:0.517242 155:0.555554 156:0.571427 157:0.600002 158:0.652169 159:0.565215 160:0.272728 161:-0.238097 162:-0.473684 163:-0.444444 164:-0.444444 165:-0.625 166:-0.571428 167:-0.454544 168:-0.636363 169:-0.6 170:-0.555557 171:-0.555557 172:-1 173:-1 174:-1 175:-1 176:0.243244 177:0.243244 178:0.297297 179:0.297297 180:0.405403 181:0.368419 182:0.567569 183:0.599998 184:0.65 
0.8897028710519681 -0.8897028710519679 1:0.516107 2:0.518221 3:0.434009 4:0.523989 5:-0.313737 6:0.71377 7:0.187393 8:0.293819 9:-0.299247 10:0.862069 11:0.851852 12:0.857143 13:0.84 14:0.913043 15:0.826087 16:0.727273 17:0.52381 18:0.368421 19:0.444444 20:-0.111111 21:-0.625 22:-0.571429 23:-0.454545 24:-0.636364 25:-0.6 26:-0.555556 27:-0.555556 28:-1 29:-1 30:-1 31:-1 32:-0.201566 33:-0.769717 34:-0.827304 35:-0.75039 36:-0.830225 37:-0.408541 38:-0.0771784 39:-0.724178 40:-0.449954 41:-0.0663902 42:-0.153415 43:-0.0746189 44:0.0294038 45:-0.210005 46:0.629407 47:-0.238156 48:-0.421537 49:0.209506 50:-0.438943 51:-0.00527962 52:-0.00896376 53:-0.51233 54:-0.251427 55:0.25841 56:-0.10804 57:-0.804588 58:-0.578029 59:-0.60964 60:-0.860114 61:-0.169748 62:0.248735 63:0.773831 64:-0.367212 65:-0.657768 66:-0.780278 67:-0.282053 68:-0.726715 69:0.981488 70:0.169107 71:-0.405587 72:-0.642608 73:-0.599915 74:-0.69347 75:-0.62296 76:-0.876019 77:-0.346465 78:-0.421521 79:0.0315021 80:-0.217249 81:0.271873 82:0.294831 83:-0.780549 84:0.416772 85:-0.479615 86:-0.656356 87:-0.00336338 88:-0.470714 89:-0.213433 90:0.151321 91:0.305629 92:-0.373359 93:-0.295958 94:-0.794343 95:0.0383401 96:-0.62704 97:-0.70031 98:-0.260475 99:0.338865 100:-0.942042 101:-0.725203 102:0.123047 103:-0.417137 104:-0.816849 105:-0.400457 106:-0.235735 107:-0.509987 108:-0.878685 109:-0.232106 110:-0.885197 111:-0.84925 112:-0.223092 113:-0.752874 114:-0.158435 115:0.288184 116:-0.128037 117:-0.522823 118:-0.119087 119:1 120:0.155022 121:-0.612578 122:-0.51768 123:-0.292162 124:-0.390672 125:0.177375 126:-0.345525 127:-0.347926 128:-0.273697 129:-0.71482 130:-0.382307 131:-0.0333865 132:-0.434356 133:-0.497142 134:0.216337 135:-0.216337 136:-0.497142 137:-0.334255 138:0.593432 139:0.0843069 140:0.227558 141:-0.302426 142:-0.628519 143:0.189189 144:0.189189 145:0.189189 146:0.297297 147:0.459459 148:0.421053 149:0.513514 150:0.55 151:0.6 152:-0.961336 153:-0.94346 154:0.862067 155:0.85185 156:0.857141 157:0.840003 158:0.913039 159:0.826085 160:0.727272 161:0.523812 162:0.368425 163:0.444447 164:-0.111113 165:-0.625 166:-0.571428 167:-0.454544 168:-0.636363 169:-0.6 170:-0.555557 171:-0.555557 172:-1 173:-1 174:-1 175:-1 176:0.189187 177:0.189187 178:0.189187 179:0.297297 180:0.459459 181:0.421053 182:0.513512 183:0.549999 184:0.600001 
0.1150027551819797 -0.1150027551819793 1:0.105112 2:0.145144 3:0.416485 4:0.163387 5:-0.508219 6:0.696083 7:0.16023 8:0.298257 9:-0.328991 10:0.517241 11:0.555556 12:0.428571 13:0.52 14:0.565217 15:0.565217 16:0.454545 17:0.142857 18:-0.473684 19:-0.444444 20:-0.555556 21:-0.875 22:-0.857143 23:-0.818182 24:-1 25:-1 26:-1 27:-1 28:-1 29:-1 30:-1 31:-1 32:-0.618769 33:-0.836221 34:-0.827656 35:-0.856655 36:-0.746385 37:-0.475153 38:-0.786528 39:-0.684005 40:-0.691876 41:0.258952 42:-0.493828 43:-0.81308 44:-0.343547 45:0.0293525 46:-0.294703 47:-0.478522 48:-0.466222 49:-0.475 50:-0.606559 51:-0.279428 52:-0.816103 53:-0.733026 54:-0.326079 55:0.0431357 56:-0.219412 57:-0.654197 58:-0.706101 59:-0.802399 60:-0.666336 61:-0.878282 62:-0.481693 63:-0.520083 64:-0.898025 65:-0.415566 66:-0.143792 67:-0.292039 68:-0.579058 69:-0.431346 70:-0.146076 71:-0.711684 72:-0.843051 73:-0.458463 74:-0.476941 75:-0.726324 76:-0.537478 77:-0.309652 78:-0.373853 79:-0.785652 80:-0.591157 81:-0.581154 82:-0.800049 83:-0.971954 84:-0.74524 85:-0.660661 86:-0.755877 87:-0.565206 88:-0.766365 89:-0.641295 90:-0.153458 91:-0.562188 92:-0.416519 93:-0.40095 94:-0.660336 95:-0.570807 96:-0.0741178 97:-0.626282 98:-0.677898 99:0.153652 100:-0.753672 101:-0.666123 102:-0.280376 103:-0.679218 104:-0.638076 105:-0.473879 106:-0.345838 107:-0.952399 108:-0.724077 109:-0.68478 110:-0.932184 111:-0.648198 112:-0.837896 113:-0.596076 114:-0.944663 115:0.206029 116:-0.635575 117:-0.829546 118:-0.678193 119:-0.317341 120:0.0411468 121:-0.496276 122:0.267006 123:-0.695447 124:-0.483901 125:-0.619329 126:-0.18723 127:-0.730093 128:-0.66338 129:-0.485564 130:-0.740054 131:-0.129524 132:0.0461939 133:0.0218657 134:-0.334212 135:0.334211 136:0.0218657 137:-0.164626 138:0.482806 139:0.335909 140:0.502642 141:0.408936 142:-0.0519938 143:0.0810811 144:0.0810811 145:0.0810811 146:0.0810811 147:0.189189 148:0.157895 149:0.243243 150:0.35 151:0.4 152:-0.904603 153:-0.943149 154:0.517242 155:0.555554 156:0.428573 157:0.519998 158:0.565215 159:0.565215 160:0.454549 161:0.142854 162:-0.473684 163:-0.444444 164:-0.555555 165:-0.875 166:-0.857143 167:-0.818181 168:-1 169:-1 170:-1 171:-1 172:-1 173:-1 174:-1 175:-1 176:0.0810813 177:0.0810813 178:0.0810813 179:0.0810813 180:0.189187 181:0.157893 182:0.243243 183:0.349999 184:0.400001 
0.5311527115618884 -0.5311527115618877 1:-0.41858 2:-0.158537 3:0.130905 4:-0.417946 5:-0.747952 6:0.461457 7:0.0351082 8:0.169619 9:-0.409444 10:-0.310345 11:-0.259259 12:-0.357143 13:-0.28 14:-0.217391 15:-0.304348 16:-0.272727 17:-0.333333 18:-0.578947 19:-0.666667 20:-0.777778 21:-0.875 22:-0.857143 23:-0.818182 24:-0.818182 25:-1 26:-1 27:-1 28:-1 29:-1 30:-1 31:-1 32:-0.0556831 33:-0.342974 34:-0.803245 35:-0.677224 36:-0.65077 37:-0.781088 38:-0.926744 39:-0.90814 40:-0.855498 41:-0.911565 42:-0.956957 43:-0.674946 44:-0.491708 45:-0.919543 46:-0.670063 47:-0.637484 48:-0.632232 49:-0.752845 50:-0.679098 51:-0.92021 52:-0.871963 53:-0.636252 54:-0.771308 55:-0.705315 56:-0.670082 57:-0.895426 58:-0.884114 59:-0.880207 60:-0.770037 61:-0.909923 62:-0.903162 63:-0.831613 64:-0.689762 65:-0.847513 66:-0.579569 67:-0.685478 68:-0.825239 69:-0.933295 70:-0.818016 71:-0.888949 72:-0.849565 73:-0.856491 74:-0.89823 75:-0.740345 76:-0.688454 77:-0.444525 78:-0.916278 79:-0.868621 80:-0.729459 81:-0.650031 82:-0.805058 83:-0.789448 84:-0.915016 85:-0.578738 86:-0.606533 87:-0.795693 88:-0.550302 89:-0.755689 90:-0.89341 91:-0.866882 92:-0.715314 93:-0.786641 94:-0.707452 95:-0.645959 96:-0.772725 97:-0.846284 98:-0.885442 99:-0.347178 100:-0.664035 101:-0.726366 102:-0.762048 103:-0.772445 104:-0.656202 105:-0.620852 106:-0.433164 107:-0.771475 108:-0.880451 109:-0.790722 110:-0.908518 111:-0.788016 112:-0.860373 113:-0.821236 114:-0.780637 115:-0.833922 116:-0.735012 117:-0.532589 118:-0.807923 119:-0.506893 120:-0.81199 121:-0.901828 122:-0.844104 123:-0.794531 124:-0.848494 125:-0.160725 126:-0.761092 127:-0.81093 128:-0.527271 129:-0.720483 130:-0.311192 131:-0.303267 132:-0.475887 133:-0.398673 134:0.0960819 135:-0.0960799 136:-0.398673 137:0.493737 138:-0.0388198 139:0.208614 140:0.390689 141:0.192082 142:-0.258877 143:-0.513514 144:-0.513514 145:-0.513514 146:-0.459459 147:-0.459459 148:-0.421053 149:-0.459459 150:-0.45 151:-0.45 152:-0.64948 153:-0.938751 154:-0.310346 155:-0.25926 156:-0.357141 157:-0.279997 158:-0.21739 159:-0.30435 160:-0.272728 161:-0.333333 162:-0.578946 163:-0.666666 164:-0.777777 165:-0.875 166:-0.857143 167:-0.818181 168:-0.818181 169:-1 170:-1 171:-1 172:-1 173:-1 174:-1 175:-1 176:-0.513512 177:-0.513512 178:-0.513512 179:-0.459459 180:-0.459459 181:-0.421053 182:-0.45946 183:-0.450002 184:-0.449999 
1.14985426703834 -1.14985426703834 1:-0.394851 2:-0.0611397 3:0.0738945 4:-0.396842 5:-0.709218 6:0.39991 7:0.0431518 8:0.119567 9:-0.449278 10:-0.310345 11:-0.259259 12:-0.428571 13:-0.36 14:-0.304348 15:-0.304348 16:-0.272727 17:-0.333333 18:-0.684211 19:-0.666667 20:-0.777778 21:-0.75 22:-0.714286 23:-0.636364 24:-0.636364 25:-0.8 26:-0.777778 27:-0.777778 28:-1 29:-1 30:-1 31:-1 32:-0.658532 33:0.073274 34:-0.480772 35:-0.776841 36:-0.756592 37:-0.788455 38:-0.761275 39:-0.867437 40:-0.904601 41:-0.870816 42:-0.788198 43:-0.857492 44:-0.66533 45:-0.697512 46:-0.851873 47:-0.849181 48:-0.599113 49:-0.563113 50:-0.678732 51:-0.721662 52:-0.716824 53:-0.709179 54:-0.467989 55:-0.585977 56:-0.794085 57:-0.938922 58:-0.595302 59:-0.885368 60:-0.827353 61:-0.816513 62:-0.736479 63:-0.89319 64:-0.938985 65:-0.848946 66:-0.676876 67:-0.790901 68:-0.679444 69:-0.523399 70:-0.645753 71:-0.939504 72:-0.893732 73:-0.911881 74:-0.760626 75:-0.954653 76:-0.873773 77:-0.754443 78:-0.914143 79:-0.547154 80:-0.45385 81:-0.697968 82:-0.584944 83:-0.763485 84:-0.671135 85:-0.646393 86:-0.780209 87:-0.882382 88:-0.832371 89:-0.583433 90:-0.430788 91:-0.524589 92:-0.732958 93:-0.63336 94:-0.905248 95:-0.777066 96:-0.722995 97:-0.506094 98:-0.891776 99:-0.639467 100:-0.621049 101:-0.108585 102:-0.486182 103:-0.593871 104:-0.822623 105:-0.941755 106:-0.520215 107:-0.556331 108:-0.605309 109:-0.852957 110:-0.904025 111:-0.737058 112:-0.743244 113:-0.786942 114:-0.692077 115:-0.880315 116:-0.709178 117:-0.450423 118:-0.697703 119:-0.923709 120:-0.639717 121:-0.67385 122:-0.652822 123:-0.804717 124:-0.820518 125:-0.612166 126:-0.507269 127:-0.635273 128:-0.337812 129:-0.617936 130:-0.806449 131:-0.338543 132:-0.402635 133:-0.287864 134:-0.0294474 135:0.0294467 136:-0.287864 137:0.452169 138:0.00449544 139:-0.117058 140:0.0611376 141:0.0445298 142:-0.404207 143:-0.459459 144:-0.459459 145:-0.459459 146:-0.459459 147:-0.459459 148:-0.368421 149:-0.405405 150:-0.4 151:-0.3 152:-0.689964 153:-0.922823 154:-0.310346 155:-0.25926 156:-0.428573 157:-0.360001 158:-0.30435 159:-0.30435 160:-0.272728 161:-0.333333 162:-0.68421 163:-0.666666 164:-0.777777 165:-0.75 166:-0.714285 167:-0.636363 168:-0.636363 169:-0.8 170:-0.777778 171:-0.777778 172:-1 173:-1 174:-1 175:-1 176:-0.459459 177:-0.459459 178:-0.459459 179:-0.459459 180:-0.459459 181:-0.368423 182:-0.405407 183:-0.399999 184:-0.299999 
0.9458994423770449 -0.945899442377045 1:-0.0856186 2:0.189111 3:0.0702495 4:-0.0659605 5:-0.464916 6:0.483352 7:-0.126731 8:0.114196 9:-0.382028 10:0.0344828 11:-0.037037 12:-0.0714286 13:-0.04 14:0.0434783 15:0.0434783 17:-0.142857 18:-0.263158 19:-0.222222 20:-0.444444 21:-0.375 22:-0.285714 23:-0.636364 24:-0.636364 25:-0.8 26:-0.777778 27:-0.777778 28:-1 29:-1 30:-1 31:-1 32:-0.430488 33:-0.561006 34:-0.797234 35:-0.698706 36:-0.292515 37:-0.593489 38:-0.852159 39:-0.922179 40:-0.770574 41:-0.514307 42:-0.649502 43:-0.735115 44:-0.80754 45:-0.35012 46:-0.52327 47:-0.639847 48:-0.64414 49:-0.764683 50:0.0323022 51:-0.646905 52:-0.357422 53:-0.563654 54:-0.915005 55:-0.67413 56:-0.631291 57:-0.766356 58:-0.57568 59:-0.572169 60:-0.577762 61:-0.880482 62:-0.253941 63:-0.353201 64:-0.54077 65:-0.36113 66:-0.537696 67:-0.94412 68:-0.914011 69:-0.317865 70:-0.432357 71:-0.867859 72:-0.606801 73:-0.647076 74:-0.735031 75:-0.428636 76:-0.783238 77:-0.401644 78:-0.575018 79:-0.781391 80:-0.446053 81:-0.885976 82:-0.732159 83:-0.754504 84:-0.602353 85:-0.539312 86:-0.264053 87:-0.735315 88:-0.803443 89:-0.216633 90:-0.077768 91:-0.498748 92:-0.635961 93:-0.566219 94:-0.469351 95:-0.801171 96:-0.841461 97:-0.844572 98:-0.936677 99:-0.278231 100:-0.676028 101:-0.816663 102:0.0914595 103:-0.74664 104:-0.458111 105:-0.198784 106:-0.776482 107:-0.8691 108:-0.14111 109:-0.0836886 110:-0.572214 111:-0.273726 112:-0.368659 113:-0.942316 114:-0.759571 115:-0.33872 116:-0.838438 117:-0.212513 118:-0.515734 119:-0.567537 120:-0.686353 121:-0.355695 122:-0.64085 123:-0.949778 124:-0.7475 125:-0.79382 126:-0.349942 127:-0.853891 128:-0.124779 129:-0.340202 130:-0.55249 131:-0.550888 132:-0.0213614 133:0.499696 134:-0.703704 135:0.703701 136:0.499696 137:0.0749825 138:0.310971 139:-0.0449071 140:-0.129007 141:0.000287013 142:-0.34002 143:-0.135135 144:-0.135135 145:-0.135135 146:-0.135135 147:-0.0810811 149:-0.027027 150:0.05 151:0.1 152:-0.882501 153:-0.858983 154:0.0344837 155:-0.0370371 156:-0.0714272 157:-0.040002 158:0.0434744 159:0.0434744 161:-0.142854 162:-0.263157 163:-0.222222 164:-0.444444 165:-0.375001 166:-0.285715 167:-0.636363 168:-0.636363 169:-0.8 170:-0.777778 171:-0.777778 172:-1 173:-1 174:-1 175:-1 176:-0.135134 177:-0.135134 178:-0.135134 179:-0.135134 180:-0.0810813 181:-1.79211e-06 182:-0.0270289 183:0.0499985 184:0.1 
0.4752385302177198 -0.4752385302177197 1:0.199075 2:0.450925 3:0.0278031 4:0.249859 5:-0.19624 6:0.477086 7:-0.189617 8:0.0861111 9:-0.318441 10:0.103448 11:0.185185 12:0.142857 13:0.28 14:0.391304 15:0.391304 16:0.181818 17:0.142857 18:0.157895 19:0.111111 21:0.125 22:0.285714 23:-0.272727 24:-0.272727 25:-0.8 26:-0.777778 27:-0.777778 28:-1 29:-1 30:-1 31:-1 32:-0.766446 33:-0.760821 34:-0.832699 35:-0.699222 36:-0.726855 37:-0.727408 38:0.154683 39:-0.640615 40:-0.507146 41:-0.107493 42:-0.750743 43:-0.54373 44:-0.588419 45:-0.450887 46:-0.780048 47:-0.667803 48:-0.977275 49:-0.805976 50:-0.617323 51:-0.503353 52:-0.908055 53:-0.513194 54:-0.0516503 55:0.155548 56:-0.564207 57:-0.444321 58:-0.164698 59:-0.829723 60:-0.73071 61:-0.387176 62:-0.608897 63:-0.625058 64:-0.818869 65:-0.542301 66:-0.938788 67:-0.907262 68:-0.580784 69:-0.0115483 70:-0.248541 71:-0.721918 72:-0.260643 73:-0.431549 74:-0.522634 75:-0.71188 76:-0.706145 77:-0.482757 78:-0.478447 79:-0.239975 80:-0.692396 81:-0.738045 82:-0.757391 83:-0.736394 84:-0.0171565 85:-0.468536 86:-0.214925 87:-0.970317 88:-0.481364 89:-0.281383 90:0.382364 91:-0.448595 92:-0.587684 93:-0.577584 94:-0.692341 95:-0.754529 96:-0.806707 97:-0.606348 98:-0.890255 99:-0.447162 100:-0.560867 101:-0.656667 102:0.0700322 103:0.120425 104:-0.649293 105:-0.1978 106:-0.484845 107:-0.44569 108:-0.713997 109:-0.137231 110:-0.703292 111:-0.65033 112:-0.598141 113:-0.404983 114:-0.881725 115:-0.0679065 116:-0.85101 117:-0.6145 118:-0.697932 119:-0.634894 120:-0.722009 121:-0.617569 122:-0.586462 123:-0.649786 124:-0.557466 125:-0.437631 126:-0.201338 127:-0.259264 128:-0.059577 129:-0.580412 130:-0.347086 131:-0.300841 132:0.0963067 133:0.258381 134:-0.529957 135:0.529943 136:0.258381 137:0.0396431 138:0.357739 139:-0.0422763 140:-0.199904 141:-0.0498121 142:-0.27341 143:-0.0810811 144:-0.0810811 145:-0.0810811 146:-0.0810811 147:-0.027027 148:0.105263 149:0.0810811 151:0.05 152:-0.955436 153:-0.828637 154:0.103448 155:0.185186 156:0.142859 157:0.280003 158:0.391305 159:0.391305 160:0.181821 161:0.142854 162:0.157895 163:0.111113 164:3.78334e-06 165:0.125002 166:0.285718 167:-0.272726 168:-0.272726 169:-0.8 170:-0.777778 171:-0.777778 172:-1 173:-1 174:-1 175:-1 176:-0.0810813 177:-0.0810813 178:-0.0810813 179:-0.0810813 180:-0.0270283 181:0.105263 182:0.0810808 183:-5.1075e-07 184:0.0500014 
2.30694278138275 -2.306942781382749 1:-0.496138 2:-0.249755 3:-0.0108194 4:-0.426318 5:-0.6922 6:0.427123 7:-0.233249 8:0.0593378 9:-0.318986 10:-0.448276 11:-0.407407 12:-0.428571 13:-0.36 14:-0.304348 15:-0.304348 16:-0.545455 17:-0.619048 18:-0.684211 19:-0.777778 20:-0.777778 21:-0.75 22:-0.857143 23:-0.818182 24:-1 25:-1 26:-1 27:-1 28:-1 29:-1 30:-1 31:-1 32:-0.595501 33:-0.622404 34:-0.229454 35:-0.856665 36:-0.839201 37:-0.566157 38:-0.732092 39:-0.891536 40:-0.90859 41:-0.863451 42:-0.944789 43:-0.805959 44:-0.749265 45:-0.608845 46:-0.941637 47:-0.769102 48:-0.983798 49:-0.871078 50:-0.523137 51:-0.576685 52:-0.852267 53:-0.700413 54:-0.7074 55:-0.831638 56:-0.853307 57:-0.819883 58:-0.869803 59:-0.898042 60:-0.789392 61:-0.48681 62:-0.715691 63:-0.860973 64:-0.868181 65:-0.796747 66:-0.860027 67:-0.754531 68:-0.893742 69:-0.946138 70:-0.786697 71:-0.958003 72:-0.898035 73:-0.486507 74:-0.62629 75:-0.773119 76:-0.865086 77:-0.70768 78:-0.861887 79:-0.651336 80:-0.893242 81:-0.934824 82:-0.856006 83:-0.73545 84:-0.795647 85:-0.671548 86:-0.731288 87:-0.620689 88:-0.964272 89:-0.563151 90:-0.625233 91:-0.815894 92:-0.561195 93:-0.961466 94:-0.891488 95:-0.741979 96:-0.718916 97:-0.8644 98:-0.684053 99:-0.682599 100:-0.741334 101:-0.815685 102:-0.823739 103:-0.522233 104:-0.450789 105:-0.785824 106:-0.650177 107:-0.819084 108:-0.820682 109:-0.829363 110:-0.866914 111:-0.78683 112:-0.781698 113:-0.835099 114:-0.928913 115:-0.899041 116:-0.552284 117:-0.808449 118:-0.923523 119:-0.640567 120:-0.702111 121:-0.804839 122:-0.76913 123:-0.760161 124:-0.950123 125:-0.4071 126:-0.442013 127:-0.725453 128:-0.763774 129:-0.77867 130:-0.792371 131:-0.286837 132:-0.370953 133:-0.289831 134:-0.0273034 135:0.0273028 136:-0.289831 137:0.433765 138:0.034465 139:0.258247 140:0.0690022 141:0.247265 142:0.0459662 143:-0.405405 144:-0.405405 145:-0.405405 146:-0.405405 147:-0.405405 148:-0.421053 149:-0.459459 150:-0.5 151:-0.35 152:-0.686335 153:-0.83422 154:-0.448274 155:-0.407405 156:-0.428573 157:-0.360001 158:-0.30435 159:-0.30435 160:-0.545454 161:-0.619047 162:-0.68421 163:-0.777777 164:-0.777777 165:-0.75 166:-0.857143 167:-0.818181 168:-1 169:-1 170:-1 171:-1 172:-1 173:-1 174:-1 175:-1 176:-0.405406 177:-0.405406 178:-0.405406 179:-0.405406 180:-0.405406 181:-0.421053 182:-0.45946 183:-0.500001 184:-0.350001 
0.1895730053156053 -0.1895730053156053 1:-0.394946 2:-0.145942 3:-0.250172 4:-0.404808 5:-0.521177 6:0.186821 7:-0.306297 8:-0.108395 9:-0.100364 10:-0.310345 11:-0.259259 12:-0.214286 13:-0.12 14:-0.0434783 15:-0.130435 16:-0.363636 17:-0.428571 18:-0.578947 19:-0.555556 20:-0.666667 21:-1 22:-1 23:-1 24:-1 25:-1 26:-1 27:-1 28:-1 29:-1 30:-1 31:-1 32:-0.303646 33:-0.73055 34:-0.043326 35:-0.879044 36:-0.865232 37:-0.510049 38:-0.871559 39:-0.923981 40:-0.833573 41:-0.558038 42:-0.865981 43:-0.662446 44:-0.94421 45:-0.413241 46:-0.58225 47:-0.839647 48:-0.776689 49:-0.910399 50:-0.596037 51:-0.733353 52:-0.687595 53:-0.896683 54:-0.73723 55:-0.556114 56:-0.433784 57:-0.958444 58:-0.615539 59:-0.843568 60:-0.867525 61:-0.650794 62:-0.840424 63:-0.821091 64:-0.915925 65:-0.563979 66:-0.624319 67:-0.932959 68:-0.806757 69:-0.436628 70:-0.646037 71:-0.619396 72:-0.814277 73:-0.92573 74:-0.931533 75:-0.900323 76:-0.64639 77:-0.616171 78:-0.615081 79:-0.903281 80:-0.273757 81:-0.839477 82:-0.622963 83:-0.628165 84:-0.590912 85:-0.783403 86:-0.752006 87:-0.669296 88:-0.806491 89:-0.608835 90:-0.680159 91:-0.917197 92:-0.627152 93:-0.729599 94:-0.73793 95:-0.823693 96:-0.818793 97:-0.470746 98:-0.676866 99:-0.225057 100:-0.94373 101:-0.532917 102:-0.959706 103:-0.860485 104:-0.702387 105:-0.808627 106:-0.824042 107:-0.837703 108:-0.702001 109:-0.523549 110:-0.495843 111:-0.911198 112:-0.863982 113:-0.91257 114:-0.642475 115:-0.661119 116:-0.708598 117:-0.510951 118:-0.715637 119:-0.866912 120:-0.990643 121:-0.500655 122:-0.692867 123:-0.837149 124:-0.655998 125:-0.628582 126:-0.288328 127:-0.657525 128:-0.766653 129:-0.478088 130:-0.592767 131:-0.581539 132:-0.227037 133:0.237984 134:-0.514134 135:0.514132 136:0.237984 137:0.489643 138:-0.0286651 139:0.272008 140:0.17809 141:0.240105 142:0.668698 143:-0.513514 144:-0.513514 145:-0.513514 146:-0.513514 147:-0.405405 148:-0.368421 149:-0.405405 150:-0.45 151:-0.5 152:-0.782178 153:-0.810364 154:-0.310346 155:-0.25926 156:-0.214286 157:-0.12 158:-0.0434803 159:-0.130435 160:-0.363636 161:-0.428572 162:-0.578946 163:-0.555555 164:-0.666666 165:-1 166:-1 167:-1 168:-1 169:-1 170:-1 171:-1 172:-1 173:-1 174:-1 175:-1 176:-0.513512 177:-0.513512 178:-0.513512 179:-0.513512 180:-0.405406 181:-0.368423 182:-0.405407 183:-0.450002 184:-0.500002 
2.621854935643792 -2.621854935643793 1:-0.60855 2:-0.366698 3:-0.291632 4:-0.61257 5:-0.704204 6:0.17014 7:-0.409689 8:-0.097458 9:0.0156858 10:-0.586207 11:-0.555556 12:-0.5 13:-0.44 14:-0.391304 15:-0.565217 16:-0.545455 17:-0.52381 18:-0.789474 19:-0.888889 20:-0.888889 21:-0.875 22:-1 23:-1 24:-1 25:-1 26:-1 27:-1 28:-1 29:-1 30:-1 31:-1 32:-0.472845 33:-0.362567 34:-0.759327 35:-0.852755 36:-0.931967 37:-0.846796 38:-0.951723 39:-0.919231 40:-0.903705 41:-0.936649 42:-0.986116 43:-0.889664 44:-0.791166 45:-0.792469 46:-0.862185 47:-0.872681 48:-0.908331 49:-0.949458 50:-0.872129 51:-0.919486 52:-0.860813 53:-0.870113 54:-0.847522 55:-0.87128 56:-0.789783 57:-0.974816 58:-0.800763 59:-0.911136 60:-0.910433 61:-0.813757 62:-0.784087 63:-0.962003 64:-0.959698 65:-0.746672 66:-0.879391 67:-0.889263 68:-0.929073 69:-0.840804 70:-0.696879 71:-0.911786 72:-0.824736 73:-0.862954 74:-0.972153 75:-0.877769 76:-0.9387 77:-0.797503 78:-0.923246 79:-0.92143 80:-0.771153 81:-0.847469 82:-0.901582 83:-0.961612 84:-0.920529 85:-0.866647 86:-0.862018 87:-0.74473 88:-0.906328 89:-0.92593 90:-0.754228 91:-0.909319 92:-0.83066 93:-0.901792 94:-0.932993 95:-0.760896 96:-0.820556 97:-0.903571 98:-0.833405 99:-0.91663 100:-0.831496 101:-0.799179 102:-0.903914 103:-0.814893 104:-0.684425 105:-0.629626 106:-0.623843 107:-0.767488 108:-0.937628 109:-0.844556 110:-0.939375 111:-0.932947 112:-0.80887 113:-0.848004 114:-0.862283 115:-0.729994 116:-0.940878 117:-0.96934 118:-0.9508 119:-0.78782 120:-0.857372 121:-0.856151 122:-0.932534 123:-0.977033 124:-0.786593 125:-0.963355 126:-0.94105 127:-0.874282 128:-0.9698 129:-0.879708 130:-0.891484 131:-0.198247 132:-0.305383 133:-0.280968 134:-0.0369513 135:0.036942 136:-0.280968 137:0.627152 138:-0.192509 139:0.243876 140:-0.0165611 141:0.0687946 142:0.617697 143:-0.621622 144:-0.621622 145:-0.621622 146:-0.621622 147:-0.567568 148:-0.578947 149:-0.621622 150:-0.65 151:-0.7 152:-0.540346 153:-0.756338 154:-0.586207 155:-0.555556 156:-0.5 157:-0.44 158:-0.391305 159:-0.565218 160:-0.545454 161:-0.52381 162:-0.789473 163:-0.888889 164:-0.888889 165:-0.875 166:-1 167:-1 168:-1 169:-1 170:-1 171:-1 172:-1 173:-1 174:-1 175:-1 176:-0.621622 177:-0.621622 178:-0.621622 179:-0.621622 180:-0.567569 181:-0.578949 182:-0.621623 183:-0.650001 184:-0.700001 
