svm_type c_svc
kernel_type rbf
gamma 1
nr_class 2
total_sv 893
rho -2.312
label 0 1
probA -6.68352
probB 3.04479
nr_sv 447 446
SV
1 0:0.00121 1:0.01994 
1 0:0.00123 1:-0.1871 
1 0:0.00502 1:-0.02897 
1 0:0.00555 1:0.3012 
1 0:0.00555 1:-0.02082 
1 0:0.00349 1:-0.03605 
1 0:0.02514 1:-0.2709 
1 0:0.00223 1:-0.00837 
1 0:0.00304 1:0.08406 
1 0:0.01831 1:0.03561 
1 0:0.01066 1:-0.27621 
1 0:0.0044 1:0.21866 
1 0:0.00388 1:0.08155 
1 0:0.00601 1:0.00485 
1 0:0.0039 1:-0.01745 
1 0:0.00462 1:0.13228 
1 0:0.02796 1:-0.05755 
1 0:0.03345 1:-0.21883 
1 0:0.01181 1:0.11296 
1 0:0.02337 1:0.02848 
1 0:0.03578 1:0.17654 
1 0:0.00182 1:0.1914 
1 0:0.00137 1:-0.13222 
1 0:0.01354 1:-0.30042 
1 0:0.02167 1:-0.00485 
1 0:0.02476 1:-0.00485 
1 0:0.0306 1:-0.00485 
1 0:0.03314 1:-0.00485 
1 0:0.02687 1:-0.28885 
1 0:0.00287 1:0.00653 
1 0:0.00051 1:-0.14315 
1 0:0.00822 1:-0.38374 
1 0:0.00126 1:0.10197 
1 0:0.02168 1:-0.09538 
1 0:0.02027 1:-0.14856 
1 0:0.02635 1:0.05911 
1 0:0.02635 1:-0.28638 
1 0:0.00373 1:-0.25185 
1 0:0.00086 1:-0.19505 
1 0:0.03676 1:0.07967 
1 0:0.01633 1:-0.21368 
1 0:0.03184 1:-0.08612 
1 0:0.04213 1:-0.059 
1 0:0.04356 1:0.00559 
1 0:0.0398 1:0.11876 
1 0:0.04121 1:0.07255 
1 0:0.04181 1:-0.12554 
1 0:0.04181 1:0.00888 
1 0:0.04145 1:-0.08963 
1 0:0.0412 1:-0.04026 
1 0:0.04092 1:0.12875 
1 0:0.04203 1:0.13701 
1 0:0.04257 1:-0.08667 
1 0:0.04289 1:-0.12309 
1 0:0.04323 1:-0.08562 
1 0:0.04165 1:-0.05405 
1 0:0.04043 1:-0.10029 
1 0:0.0404 1:0.08643 
1 0:0.04045 1:-0.03654 
1 0:0.04231 1:0.00467 
1 0:0.0424 1:0.06785 
1 0:0.04204 1:0.03331 
1 0:0.04466 1:-0.02648 
1 0:0.0461 1:0.08871 
1 0:0.03981 1:0.0691 
1 0:0.04224 1:0.00467 
1 0:0.04037 1:0.10523 
1 0:0.04235 1:0.11699 
1 0:0.04364 1:-0.00467 
1 0:0.04492 1:0.00467 
1 0:0.02418 1:-0.07479 
1 0:0.03497 1:0.1754 
1 0:0.04611 1:-0.02421 
1 0:0.00702 1:-0.04812 
1 0:0.04763 1:0.01978 
1 0:0.04739 1:-0.01382 
1 0:0.03651 1:0.01628 
1 0:0.03041 1:-0.23671 
1 0:0.0336 1:0.14784 
1 0:0.0285 1:-0.02385 
1 0:0.01212 1:0.06023 
1 0:0.04716 1:0.05346 
1 0:0.0476 1:0.03822 
1 0:0.01983 1:-0.16407 
1 0:0.0469 1:0.0173 
1 0:0.04628 1:-0.03114 
1 0:0.04387 1:0.08937 
1 0:0.01096 1:-0.05415 
1 0:0.01147 1:-0.36829 
1 0:0.01827 1:-0.05442 
1 0:0.046 1:0.08412 
1 0:0.0158 1:0.20562 
1 0:0.01315 1:-0.24396 
1 0:0.04643 1:0.01803 
1 0:0.04618 1:-0.03339 
1 0:0.04521 1:-0.07635 
1 0:0.00613 1:-0.03362 
1 0:0.02269 1:-0.05902 
1 0:0.02691 1:0.01382 
1 0:0.0114 1:0.13634 
1 0:0.0207 1:0.05052 
1 0:0.02612 1:-0.23786 
1 0:0.04671 1:0.04377 
1 0:0.04597 1:-0.0445 
1 0:0.00991 1:0.13358 
1 0:0.03107 1:-0.13403 
1 0:0.02111 1:-0.25639 
1 0:0.01269 1:0.07194 
1 0:0.0153 1:-0.06266 
1 0:0.04704 1:-0.00353 
1 0:0.0045 1:0.30806 
1 0:0.04785 1:0.0125 
1 0:0.04752 1:-0.02899 
1 0:0.0189 1:-0.22245 
1 0:0.01104 1:0.31701 
1 0:0.01085 1:0.04892 
1 0:0.00645 1:-0.29288 
1 0:0.02765 1:0.26497 
1 0:0.00831 1:0.01382 
1 0:0.04513 1:0.10165 
1 0:0.04558 1:-0.06145 
1 0:0.01068 1:-0.05507 
1 0:0.04593 1:0.01382 
1 0:0.04568 1:0.08969 
1 0:0.04598 1:-0.01382 
1 0:0.00151 1:0.25645 
1 0:0.01384 1:-0.14013 
1 0:0.04597 1:-0.07102 
1 0:0.04723 1:-0.04036 
1 0:0.00789 1:-0.00585 
1 0:0.02 1:-0.32634 
1 0:7e-05 1:-0.40311 
1 0:0.0004 1:-0.39613 
1 0:0.01106 1:-0.28009 
1 0:0.00297 1:0.40389 
1 0:0.04544 1:0.0704 
1 0:0.04557 1:-0.10046 
1 0:0.01511 1:0.01382 
1 0:0.01413 1:0.01382 
1 0:0.00131 1:-0.01382 
1 0:0.0073 1:0.01382 
1 0:0.02762 1:0.01382 
1 0:0.00871 1:-0.01382 
1 0:0.01609 1:-0.26121 
1 0:0.04684 1:0.01382 
0.7686670304206563 0:0.04809 1:-0.01092 
1 0:0.00642 1:-0.01382 
1 0:0.04649 1:-0.03464 
1 0:0.00947 1:-0.37113 
1 0:0.04506 1:-0.0705 
1 0:0.00743 1:-0.38261 
1 0:0.00754 1:0.11236 
1 0:0.00373 1:0.22546 
1 0:0.00924 1:-0.04275 
1 0:0.01288 1:-0.23446 
1 0:0.0171 1:-0.03602 
1 0:0.01239 1:0.24195 
1 0:0.03068 1:0.08933 
1 0:0.02598 1:-0.13605 
1 0:0.02382 1:-0.24311 
1 0:0.00488 1:-0.18735 
1 0:0.0189 1:0.01284 
1 0:0.00453 1:0.02549 
1 0:0.01739 1:0.03098 
1 0:0.01644 1:0.22336 
1 0:0.00222 1:0.37335 
1 0:0.0347 1:0.10604 
1 0:0.0322 1:0.06564 
1 0:0.02319 1:0.12522 
1 0:0.02696 1:-0.08933 
1 0:0.03049 1:-0.22826 
1 0:0.04563 1:-0.07813 
1 0:0.00261 1:-0.43021 
1 0:0.01038 1:0.03872 
1 0:0.02109 1:-0.08933 
1 0:0.01335 1:-0.37009 
1 0:0.01842 1:-0.03781 
1 0:0.01758 1:0.1661 
1 0:0.01169 1:0.31778 
1 0:0.01181 1:-0.12379 
1 0:0.01844 1:0.24927 
1 0:0.03837 1:-0.08933 
1 0:0.00609 1:-0.08933 
1 0:0.01478 1:0.03322 
1 0:0.00961 1:0.31477 
1 0:0.0069 1:-0.18473 
1 0:0.00449 1:0.00385 
1 0:0.00173 1:-0.40418 
1 0:0.01449 1:-0.3446 
1 0:0.01037 1:0.2854 
1 0:0.01009 1:-0.1761 
1 0:0.04327 1:-0.01966 
1 0:0.04094 1:0.09731 
1 0:0.03987 1:0.08933 
1 0:0.04782 1:-0.02415 
1 0:0.01152 1:0.12887 
1 0:0.01158 1:0.08933 
1 0:0.00561 1:0.06556 
1 0:0.04652 1:-0.0028 
1 0:0.02173 1:0.08038 
1 0:0.00173 1:-0.13266 
1 0:0.02941 1:0.17822 
1 0:0.01063 1:-0.08933 
1 0:0.03418 1:-0.05381 
1 0:0.00879 1:-0.08933 
1 0:0.00251 1:0.08933 
1 0:0.00973 1:0.08933 
1 0:0.01197 1:0.10762 
1 0:0.01215 1:-0.01434 
1 0:0.03449 1:-0.15109 
1 0:0.01063 1:0.15274 
1 0:0.02787 1:0.0117 
1 0:0.02501 1:-0.21417 
1 0:0.00048 1:0.05369 
1 0:0.03212 1:0.01035 
1 0:0.01772 1:0.07679 
1 0:0.01845 1:-0.2882 
1 0:0.0147 1:-0.02644 
1 0:0.01994 1:-0.08933 
1 0:0.04229 1:0.08933 
1 0:0.02098 1:0.17356 
1 0:0.03207 1:0.20525 
1 0:0.02498 1:-0.19103 
1 0:0.02368 1:0.19351 
1 0:0.00079 1:-0.16088 
1 0:0.00624 1:-0.22524 
1 0:0.01889 1:0.3103 
1 0:0.04176 1:-0.01456 
1 0:0.04532 1:-0.07654 
1 0:0.02813 1:-0.06927 
1 0:0.04597 1:-0.02724 
1 0:0.04648 1:-0.00755 
1 0:0.03451 1:-0.20948 
1 0:0.01945 1:0.0248 
1 0:0.03942 1:-0.10005 
1 0:0.03305 1:0.05748 
1 0:0.04079 1:-0.04264 
1 0:0.03637 1:0.03358 
1 0:0.01407 1:-0.28546 
1 0:0.02321 1:0.04061 
1 0:0.00794 1:-0.21414 
1 0:0.02923 1:-0.26804 
1 0:0.04412 1:-0.01668 
1 0:0.04457 1:-0.06275 
1 0:0.04526 1:-0.08079 
1 0:0.02133 1:-0.32077 
1 0:0.01686 1:0.26571 
1 0:0.04023 1:-0.01381 
1 0:0.00074 1:0.37186 
1 0:0.00758 1:-0.06595 
1 0:0.02026 1:-0.10038 
1 0:0.04058 1:0.09824 
1 0:0.00881 1:-0.3031 
1 0:0.00049 1:-0.00509 
1 0:0.04249 1:0.11265 
1 0:0.01193 1:-0.35572 
1 0:0.03197 1:-0.06707 
1 0:0.00358 1:0.17828 
1 0:0.01669 1:-0.33249 
1 0:0.00838 1:0.28437 
1 0:0.04529 1:0.08687 
1 0:0.0277 1:0.04825 
1 0:0.04565 1:0.06562 
1 0:0.02924 1:-0.02653 
1 0:0.04344 1:0.06192 
1 0:0.04227 1:0.07333 
1 0:0.04049 1:-0.1439 
1 0:0.04231 1:-0.08914 
1 0:0.0429 1:-0.0416 
1 0:0.04308 1:0.01359 
1 0:0.03716 1:-0.14964 
1 0:0.03804 1:-0.0271 
1 0:0.03999 1:-0.17896 
1 0:0.03724 1:-0.02736 
1 0:0.00068 1:0.06138 
1 0:0.03548 1:0.06947 
1 0:0.00529 1:0.29823 
1 0:0.03485 1:-0.13746 
1 0:0.00294 1:0.34104 
1 0:0.04241 1:-0.0309 
1 0:0.0423 1:-0.03374 
1 0:0.04328 1:-0.06402 
1 0:0.04303 1:0.09193 
1 0:0.04167 1:0.0482 
1 0:0.01459 1:0.31066 
1 0:0.04043 1:-0.10977 
1 0:0.04289 1:-0.02767 
1 0:0.01804 1:0.01374 
1 0:0.00161 1:0.4025 
1 0:0.04427 1:-0.05516 
1 0:0.04285 1:-0.06692 
1 0:0.04366 1:-0.07111 
1 0:0.04552 1:-0.00646 
1 0:0.04399 1:0.04727 
1 0:0.00142 1:0.12474 
1 0:0.04328 1:0.11573 
1 0:0.04328 1:-0.10999 
1 0:0.04451 1:-0.00313 
1 0:0.04284 1:0.07011 
1 0:0.01118 1:0.29056 
1 0:0.03083 1:-0.163 
1 0:0.01098 1:-0.26053 
1 0:0.03122 1:-0.24063 
1 0:0.04212 1:-0.05625 
1 0:0.04288 1:0.05303 
1 0:0.04158 1:-0.07015 
1 0:0.04226 1:0.03736 
1 0:0.0278 1:0.11201 
1 0:0.00623 1:-0.11251 
1 0:0.02408 1:-0.24849 
1 0:0.04266 1:-0.03014 
1 0:0.04279 1:-0.05954 
1 0:0.04525 1:-0.10666 
1 0:0.03022 1:-0.07114 
1 0:0.00766 1:0.00646 
1 0:0.04434 1:-0.00681 
1 0:0.04411 1:0.06119 
1 0:0.00028 1:0.09934 
1 0:0.03743 1:0.04736 
1 0:0.02215 1:0.00441 
1 0:0.0378 1:0.04275 
1 0:0.00909 1:-0.3468 
1 0:0.00855 1:0.24226 
1 0:0.04335 1:-0.03399 
1 0:0.03904 1:-0.03095 
1 0:0.04286 1:0.00303 
1 0:0.04237 1:-0.03096 
1 0:0.04242 1:0.09122 
1 0:0.02633 1:0.18634 
0.7118949060589898 0:0.00688 1:-0.41358 
1 0:0.0427 1:-0.0929 
1 0:0.04322 1:0.03719 
1 0:0.04197 1:0.04603 
1 0:0.04197 1:-0.00788 
1 0:0.03027 1:-0.1155 
1 0:0.04285 1:0.04504 
1 0:0.04285 1:-0.0453 
1 0:0.04326 1:0.00646 
1 0:0.00011 1:-0.31208 
1 0:0.04469 1:-0.02331 
1 0:0.01223 1:0.37555 
1 0:0.00711 1:-0.36977 
1 0:0.03421 1:0.23367 
1 0:0.0427 1:-0.07183 
1 0:0.00115 1:-0.13725 
1 0:0.04426 1:0.08503 
1 0:0.03392 1:0.18794 
1 0:0.04042 1:-0.10291 
1 0:0.04074 1:-0.00246 
1 0:6e-05 1:-0.37837 
1 0:0.01551 1:-0.34798 
1 0:0.04274 1:0.10874 
1 0:0.04169 1:0.01445 
1 0:0.04077 1:-0.07021 
1 0:0.04087 1:0.11157 
1 0:0.04135 1:-0.04521 
1 0:0.01704 1:0.33562 
1 0:0.01496 1:0.17564 
1 0:0.02344 1:-0.30955 
1 0:0.04178 1:-0.10078 
1 0:0.02272 1:-0.15915 
1 0:0.0439 1:0.12213 
1 0:0.04109 1:0.06278 
1 0:0.00425 1:0.36303 
1 0:0.02475 1:-0.00646 
1 0:0.03895 1:0.00646 
1 0:0.04449 1:-0.00646 
1 0:0.04529 1:-0.00646 
1 0:0.0416 1:0.03062 
1 0:0.00234 1:-0.33247 
1 0:0.02635 1:-0.00646 
1 0:0.0101 1:-0.00646 
1 0:0.04681 1:0.00646 
1 0:0.04324 1:0.00646 
1 0:0.04247 1:0.04832 
1 0:0.00527 1:-0.28789 
1 0:0.04306 1:-3e-05 
1 0:0.04244 1:-0.03562 
1 0:0.04189 1:0.04079 
1 0:0.03831 1:0.05612 
1 0:0.04067 1:-0.1299 
1 0:0.04169 1:-0.00646 
1 0:0.03001 1:0.00646 
1 0:0.0419 1:0.04546 
1 0:0.04212 1:0.0719 
1 0:0.03933 1:-0.00646 
1 0:0.04312 1:-0.01238 
1 0:0.04236 1:0.04528 
1 0:0.04134 1:0.03065 
1 0:0.04049 1:0.11914 
1 0:0.00927 1:0.07582 
1 0:0.04116 1:-0.13864 
1 0:0.01105 1:0.28752 
1 0:0.02297 1:0.0696 
1 0:0.02071 1:-0.00594 
1 0:0.00756 1:-0.37732 
1 0:0.01822 1:-0.14065 
1 0:0.02791 1:-0.04518 
1 0:0.0306 1:-0.06252 
1 0:0.03105 1:-0.23901 
1 0:0.03648 1:-0.03693 
1 0:0.03383 1:-0.2026 
1 0:0.0326 1:0.08328 
1 0:0.04601 1:0.06138 
1 0:0.00308 1:0.00728 
1 0:0.00392 1:0.07764 
1 0:0.00418 1:0.04226 
1 0:0.01061 1:0.34807 
1 0:0.0135 1:0.17547 
1 0:0.01106 1:-0.3548 
1 0:0.02487 1:-0.26288 
1 0:0.02735 1:0.02745 
1 0:0.02872 1:0.00939 
1 0:0.01769 1:0.00611 
1 0:0.00863 1:0.28735 
1 0:0.00756 1:-0.15754 
1 0:0.00581 1:-0.00631 
1 0:0.00414 1:0.31882 
1 0:0.01769 1:-0.31332 
1 0:0.04593 1:-0.02095 
1 0:0.0356 1:-0.12359 
1 0:0.04582 1:0.03286 
1 0:0.01291 1:-0.28735 
1 0:0.02096 1:0.0038 
1 0:0.02682 1:-0.0723 
1 0:0.00886 1:-0.34272 
1 0:0.00602 1:0.14696 
1 0:0.009 1:0.3447 
1 0:0.01022 1:0.28735 
1 0:0.00088 1:-0.08084 
1 0:0.01009 1:0.13183 
1 0:0.0175 1:0.31757 
1 0:0.04324 1:0.04185 
1 0:0.01352 1:-0.16158 
1 0:0.00488 1:-0.39321 
1 0:0.02452 1:0.11075 
1 0:0.01308 1:-0.11458 
1 0:0.01033 1:0.28735 
1 0:0.03251 1:-0.2026 
1 0:0.03251 1:0.0581 
1 0:0.0142 1:0.35649 
1 0:0.0031 1:0.1065 
1 0:0.02517 1:0.29232 
1 0:0.00422 1:0.14767 
1 0:0.03586 1:0.16324 
1 0:0.00756 1:0.28735 
0.5194380635203537 0:0.01184 1:0.38203 
-1 0:0.00161 1:-0.2006 
-1 0:0.00161 1:0.04425 
-1 0:0.00031 1:0.03063 
-1 0:0.00346 1:-0.19015 
-1 0:0.00333 1:0.0218 
-1 0:0.00053 1:-0.04374 
-1 0:0.00039 1:-0.01327 
-1 0:0.00065 1:-0.1066 
-1 0:0.00013 1:-0.08838 
-1 0:0.00133 1:-0.03023 
-1 0:0.00228 1:-0.04425 
-1 0:0.00076 1:0.00181 
-1 0:0.00076 1:-0.08611 
-1 0:3e-05 1:-0.15701 
-1 0:0.0021 1:-0.12568 
-1 0:0.00136 1:0.00672 
-1 0:0.00189 1:0.1488 
-1 0:0.00017 1:-0.10643 
-1 0:0.00017 1:0.1066 
-1 0:0.00062 1:0.03918 
-1 0:0.0004 1:-0.1096 
-1 0:0.0004 1:-0.07476 
-1 0:0.00014 1:-0.31211 
-1 0:0.00124 1:0.05688 
-1 0:0.00022 1:-0.0173 
-1 0:0.00044 1:0.00321 
-1 0:0.00044 1:-0.07118 
-1 0:0.00067 1:0.02694 
-1 0:0.00017 1:0.05264 
-1 0:0.00048 1:-0.19199 
-1 0:0.00135 1:-0.04754 
-1 0:0.00192 1:0.04227 
-1 0:0.00142 1:-0.00296 
-1 0:0.00146 1:-0.01044 
-1 0:0.00135 1:-0.02068 
-1 0:0.00016 1:-0.04093 
-1 0:0.00034 1:0.39216 
-1 0:0.00061 1:-0.22829 
-1 0:0.00112 1:0.08137 
-1 0:0.00025 1:-0.03599 
-1 0:0.00081 1:-0.06243 
-1 0:0.00054 1:0.21263 
-1 0:0.00077 1:-0.01048 
-1 0:0.00095 1:0.22159 
-1 0:0.00216 1:3e-05 
-1 0:0.00089 1:-0.08524 
-1 0:0.00088 1:0.01271 
-1 0:0.00045 1:0.19493 
-1 0:0.00118 1:-0.08071 
-1 0:0.00118 1:-0.10425 
-1 0:0.00067 1:0.19624 
-1 0:0.00164 1:-0.01677 
-1 0:0.00139 1:0.21861 
-1 0:0.00134 1:-0.15396 
-1 0:1e-05 1:-0.02694 
-1 0:0.00056 1:-0.03877 
-1 0:0.00024 1:-0.01897 
-1 0:0.00125 1:-0.03565 
-1 0:0.00128 1:0.04173 
-1 0:0.00087 1:0.10656 
-1 0:0.00108 1:-0.01873 
-1 0:0.00033 1:0.07352 
-1 0:0.00033 1:0.18956 
-1 0:0.00018 1:0.04361 
-1 0:0.00134 1:-0.06959 
-1 0:0.00184 1:0.01172 
-1 0:0.00176 1:0.0037 
-1 0:0.00059 1:0.15893 
-1 0:0.00052 1:0.23239 
-1 0:0.00029 1:0.08849 
-1 0:0.00104 1:-0.13034 
-1 0:0.00034 1:0.09681 
-1 0:0.00026 1:-0.06089 
-1 0:0.00055 1:-0.22001 
-1 0:0.00041 1:0.04 
-1 0:0.00158 1:0.09267 
-1 0:0.00037 1:0.1066 
-1 0:0.00022 1:0.00995 
-1 0:0.00022 1:-0.07683 
-1 0:0.00094 1:0.03614 
-1 0:0.00223 1:-0.00758 
-1 0:0.00167 1:0.09354 
-1 0:0.00145 1:0.03907 
-1 0:0.00047 1:-0.00065 
-1 0:9e-05 1:0.15414 
-1 0:0.00103 1:-0.18442 
-1 0:0.00119 1:0.2687 
-1 0:0.00069 1:-0.08313 
-1 0:0.00037 1:0.1066 
-1 0:0.00037 1:-0.05248 
-1 0:0.00034 1:-0.22199 
-1 0:3e-05 1:-0.14864 
-1 0:3e-05 1:-0.09982 
-1 0:0.00048 1:-0.03918 
-1 0:0.00096 1:-0.1066 
-1 0:0.00095 1:0.13292 
-1 0:0.0002 1:-0.51208 
-1 0:0.00036 1:0.32017 
-1 0:0.00036 1:-0.31096 
-1 0:0.00063 1:0.02251 
-1 0:0.00111 1:-0.03026 
-1 0:0.00168 1:-0.06728 
-1 0:0.00077 1:0.05459 
-1 0:0.00114 1:-0.0132 
-1 0:0.00012 1:0.07659 
-1 0:0.00181 1:0.01861 
-1 0:0.00071 1:0.6572 
-1 0:0.00067 1:-0.15862 
-1 0:0.00116 1:-0.05235 
-1 0:0.00012 1:-0.06965 
-1 0:0.00012 1:-0.01652 
-1 0:0.00067 1:-0.13907 
-1 0:0.0016 1:0.04674 
-1 0:0.0016 1:-0.3655 
-1 0:0.00012 1:-0.47848 
-1 0:4e-05 1:-0.08199 
-1 0:0.00227 1:0.0151 
-1 0:0.00049 1:-0.20597 
-1 0:0.00198 1:-0.16603 
-1 0:0.00097 1:0.18903 
-1 0:0.00258 1:-0.1066 
-1 0:0.00175 1:-0.13561 
-1 0:0.00152 1:-0.01481 
-1 0:0.00018 1:0.13085 
-1 0:0.00019 1:0.05423 
-1 0:0.00106 1:-0.03864 
-1 0:0.00159 1:0.17198 
-1 0:0.00042 1:0.10978 
-1 0:0.00166 1:-0.00469 
-1 0:0.00012 1:-0.07505 
-1 0:0.00072 1:-0.13907 
-1 0:0.00043 1:0.10889 
-1 0:0.00022 1:-0.09908 
-1 0:0.00019 1:-0.09285 
-1 0:8e-05 1:0.10717 
-1 0:0.00062 1:-0.04062 
-1 0:0.00065 1:-0.47848 
-1 0:0.00131 1:-0.23878 
-1 0:0.00091 1:-0.03281 
-1 0:0.00097 1:-0.1554 
-1 0:0.0014 1:0.1066 
-1 0:0.0014 1:-0.05489 
-1 0:0.0002 1:0.30144 
-1 0:0.0017 1:-0.12143 
-1 0:0.00256 1:0.09364 
-1 0:0.00073 1:0.19337 
-1 0:0.00131 1:-0.44416 
-1 0:0.00088 1:0.16527 
-1 0:0.00057 1:-0.10717 
-1 0:0.00112 1:0.16111 
-1 0:0.00123 1:-0.03062 
-1 0:0.00209 1:0.01082 
-1 0:0.00015 1:-0.07155 
-1 0:0.00037 1:-0.31827 
-1 0:0.00146 1:-0.0336 
-1 0:0.0018 1:-0.01408 
-1 0:0.0018 1:0.13319 
-1 0:0.00058 1:0.10666 
-1 0:0.00414 1:-0.10912 
-1 0:0.0002 1:-0.09717 
-1 0:0.00103 1:0.03016 
-1 0:0.00028 1:-0.3421 
-1 0:0.00138 1:-0.07653 
-1 0:0.00048 1:0.1066 
-1 0:8e-05 1:0.02587 
-1 0:1e-05 1:-0.07356 
-1 0:0.0006 1:-0.14564 
-1 0:0.00056 1:-0.19885 
-1 0:0.00024 1:0.15587 
-1 0:0.00072 1:0.25943 
-1 0:0.00025 1:-0.06155 
-1 0:0.00056 1:0.02621 
-1 0:0.00026 1:-0.07672 
-1 0:0.001 1:0.1066 
-1 0:0.00149 1:0.10767 
-1 0:0.00146 1:0.1066 
-1 0:0.00285 1:-0.03347 
-1 0:0.00053 1:-0.22387 
-1 0:0.00139 1:0.1066 
-1 0:0.00165 1:-0.04387 
-1 0:0.0037 1:-0.34681 
-1 0:0.00248 1:-0.1066 
-1 0:0.00034 1:0.23766 
-1 0:0.00051 1:0.15222 
-1 0:0.00131 1:-0.47848 
-1 0:0.00048 1:-0.15023 
-1 0:0.00021 1:-0.10136 
-1 0:0.00021 1:-0.47848 
-1 0:0.00184 1:-0.07696 
-1 0:0.00155 1:-0.47848 
-1 0:0.00098 1:0.06736 
-1 0:0.0012 1:-0.29296 
-1 0:0.00076 1:0.0299 
-1 0:0.00045 1:-0.0279 
-1 0:0.00109 1:0.47126 
-1 0:0.00145 1:0.0568 
-1 0:0.00035 1:0.1066 
-1 0:0.00145 1:-0.47848 
-1 0:0.00144 1:-0.01511 
-1 0:0.00011 1:0.22407 
-1 0:0.00159 1:0.03871 
-1 0:0.00128 1:-0.03079 
-1 0:0.00069 1:-0.1759 
-1 0:0.00165 1:-0.01787 
-1 0:0.00072 1:-0.22515 
-1 0:0.00014 1:0.01653 
-1 0:0.00342 1:-0.00141 
-1 0:0.00188 1:-0.10899 
-1 0:0.00139 1:0.03237 
-1 0:0.00149 1:-0.17743 
-1 0:0.00068 1:-0.30342 
-1 0:0.00066 1:0.05256 
-1 0:0.0013 1:0.25118 
-1 0:0.00025 1:0.30921 
-1 0:0.00038 1:-0.0421 
-1 0:0.00011 1:0.06423 
-1 0:0.00078 1:0.01119 
-1 0:0.00011 1:0.00426 
-1 0:5e-05 1:-0.01303 
-1 0:5e-05 1:0.06733 
-1 0:3e-05 1:-0.00456 
-1 0:4e-05 1:0.06137 
-1 0:0.00044 1:-0.00347 
-1 0:0.00056 1:0.05699 
-1 0:0.00056 1:-0.02079 
-1 0:0.00048 1:-0.01932 
-1 0:0.00151 1:0.04908 
-1 0:1e-05 1:0.09447 
-1 0:0.00037 1:0.04334 
-1 0:0.0026 1:-0.02051 
-1 0:0.00034 1:-0.01415 
-1 0:0.00039 1:0.12858 
-1 0:0.0001 1:-0.02101 
-1 0:9e-05 1:-0.14181 
-1 0:0.00061 1:-0.03901 
-1 0:0.00074 1:0.03779 
-1 0:0.00044 1:0.01499 
-1 0:0.00038 1:0.01974 
-1 0:0.0003 1:0.05111 
-1 0:2e-05 1:0.02818 
-1 0:2e-05 1:0.04604 
-1 0:0.00038 1:0.02054 
-1 0:0.00017 1:-0.00687 
-1 0:0.00067 1:0.06684 
-1 0:0.0005 1:-0.01613 
-1 0:0.00022 1:0.0602 
-1 0:0.00096 1:0.03697 
-1 0:0.00111 1:0.02499 
-1 0:0.00033 1:0.17351 
-1 0:7e-05 1:0.08918 
-1 0:0.00057 1:0.15109 
-1 0:0.00047 1:-0.11508 
-1 0:8e-05 1:-0.06442 
-1 0:0.0004 1:-0.24434 
-1 0:0.00014 1:-0.14939 
-1 0:0.00267 1:0.09216 
-1 0:0.00026 1:0.06684 
-1 0:0.00051 1:0.38828 
-1 0:7e-05 1:0.07246 
-1 0:0.0018 1:0.09374 
-1 0:0.00021 1:0.08802 
-1 0:0.00089 1:0.01072 
-1 0:0.00069 1:-0.01105 
-1 0:0.00276 1:0.00646 
-1 0:0.00231 1:-0.04995 
-1 0:0.0005 1:-0.00876 
-1 0:0.00134 1:-0.0325 
-1 0:0.00026 1:-0.05085 
-1 0:0.00011 1:0.00987 
-1 0:0.00022 1:0.10776 
-1 0:0.00019 1:0.06639 
-1 0:0.00022 1:-0.00609 
-1 0:0.00114 1:-0.04848 
-1 0:0.00027 1:-0.07664 
-1 0:0.00054 1:-0.00364 
-1 0:0.00147 1:-0.0086 
-1 0:0.00035 1:0.02625 
-1 0:0.00051 1:0.07413 
-1 0:1e-05 1:0.00887 
-1 0:0.00128 1:0.04531 
-1 0:9e-05 1:-0.18221 
-1 0:0.00022 1:0.10498 
-1 0:0.00058 1:-0.04333 
-1 0:0.00019 1:0.08214 
-1 0:7e-05 1:-0.13964 
-1 0:0.00018 1:0.02192 
-1 0:0.00011 1:-0.09485 
-1 0:0.00012 1:0.03678 
-1 0:0.00012 1:0.04178 
-1 0:0.00011 1:-0.00837 
-1 0:0.00016 1:0.04062 
-1 0:0.00053 1:-0.16377 
-1 0:0.00053 1:0.15151 
-1 0:0.00023 1:-0.24178 
-1 0:0.00023 1:0.07316 
-1 0:0.00019 1:-0.14973 
-1 0:0.00056 1:0.04351 
-1 0:0.00065 1:0.14715 
-1 0:0.00088 1:0.00866 
-1 0:0.00032 1:-0.02393 
-1 0:0.00049 1:0.00318 
-1 0:5e-05 1:-0.22519 
-1 0:0.00213 1:-0.68202 
-1 0:0.00135 1:0.05291 
-1 0:0.00027 1:0.08574 
-1 0:0.00091 1:-0.08933 
-1 0:2e-05 1:0.11024 
-1 0:2e-05 1:0.01319 
-1 0:0.00065 1:0.32934 
-1 0:0.00012 1:-0.12391 
-1 0:0.00034 1:0.00053 
-1 0:0.00034 1:0.03615 
-1 0:0.00037 1:0.00227 
-1 0:6e-05 1:-0.07848 
-1 0:0.00102 1:-0.10297 
-1 0:0.00021 1:0.11496 
-1 0:0.00121 1:0.00715 
-1 0:0.00031 1:0.07262 
-1 0:0.00011 1:-0.02228 
-1 0:0.00023 1:-0.00321 
-1 0:9e-05 1:-0.008 
-1 0:5e-05 1:-0.05883 
-1 0:9e-05 1:-0.03842 
-1 0:0.00041 1:0.0794 
-1 0:0.00049 1:-0.12144 
-1 0:0.00011 1:-0.05695 
-1 0:0.00042 1:0.02747 
-1 0:0.00093 1:0.10504 
-1 0:0.00024 1:0.03548 
-1 0:0.00148 1:0.02486 
-1 0:0.00024 1:-0.19367 
-1 0:0.00041 1:-0.15933 
-1 0:0.00104 1:-0.04899 
-1 0:0.00011 1:-0.12726 
-1 0:0.00012 1:-0.13694 
-1 0:5e-05 1:0.2105 
-1 0:0.00027 1:-0.09518 
-1 0:2e-05 1:-0.03242 
-1 0:0.00039 1:-0.03313 
-1 0:0.00017 1:-0.10288 
-1 0:0.00015 1:0.04206 
-1 0:0.00017 1:0.15444 
-1 0:0.0008 1:0.15942 
-1 0:0.00072 1:0.06639 
-1 0:3e-05 1:0.20351 
-1 0:0.00019 1:-0.1153 
-1 0:0.0006 1:0.11168 
-1 0:0 1:0.10127 
-1 0:0.00052 1:-0.18461 
-1 0:0.00044 1:-0.17237 
-1 0:0.00181 1:-0.01578 
-1 0:0.00128 1:-0.0258 
-1 0:0.0002 1:0.20679 
-1 0:0.0002 1:-0.21689 
-1 0:2e-05 1:0.08214 
-1 0:0.00036 1:0.12607 
-1 0:7e-05 1:-0.03953 
-1 0:0.00135 1:-0.11263 
-1 0:0.00106 1:-0.08134 
-1 0:0.00119 1:0.06677 
-1 0:0.00083 1:0.02361 
-1 0:0.00084 1:-0.21863 
-1 0:0.00048 1:-0.17311 
-1 0:0.00039 1:-0.2265 
-1 0:0.00071 1:0.02159 
-1 0:0.00112 1:-0.02908 
-1 0:0.00096 1:-0.07684 
-1 0:0.00023 1:0.09043 
-1 0:1e-05 1:-0.04662 
-1 0:0.00109 1:-0.10604 
-1 0:0.0004 1:0.15723 
-1 0:0.00011 1:-0.0558 
-1 0:0.00141 1:-0.05472 
-1 0:0.00024 1:-0.06837 
-1 0:0.00035 1:-0.05671 
-1 0:0.00024 1:0.14167 
-1 0:0.0004 1:-0.23386 
-1 0:0.00067 1:0.26473 
-1 0:0.00043 1:0.04632 
-1 0:0.00144 1:-0.13009 
-1 0:0.00291 1:0.31263 
-1 0:0.00011 1:-0.05937 
-1 0:0.00024 1:0.093 
-1 0:0.00032 1:0.03884 
-1 0:0.00065 1:0.07156 
-1 0:0.00093 1:-0.08867 
-1 0:0.00017 1:-0.08933 
-1 0:0.00058 1:-0.05578 
-1 0:0.00056 1:-0.04354 
-1 0:0.00015 1:0.20352 
-1 0:0.00103 1:-0.19822 
-1 0:0.00027 1:0.01752 
-1 0:0.00032 1:0.14227 
-1 0:0.00084 1:-0.01612 
-1 0:0.00012 1:0.23628 
-1 0:0.00051 1:0.23497 
-1 0:9e-05 1:-0.27821 
-1 0:0.00076 1:-0.08933 
-1 0:5e-05 1:0.17332 
-1 0:0.00093 1:-0.37009 
-1 0:0.00023 1:-0.10426 
-1 0:0.00148 1:0.23298 
-1 0:0.00088 1:0.19388 
-1 0:1e-05 1:-0.08933 
-1 0:0.00024 1:-0.27797 
-1 0:0.00127 1:0.15598 
-1 0:0.0014 1:-0.08933 
-1 0:0.00087 1:0.28359 
-1 0:0.00064 1:-0.30849 
-1 0:0.00081 1:0.19358 
-1 0:0 1:-0.08933 
-1 0:0.00053 1:0.08933 
-1 0:8e-05 1:-0.01673 
-1 0:0.00048 1:-0.08933 
-1 0:0.00064 1:-0.08484 
-1 0:1e-05 1:0.22842 
-1 0:0.00065 1:0.01206 
-1 0:0.00038 1:-0.04602 
-1 0:0.00015 1:-0.26224 
-1 0:0.0004 1:-0.08933 
-1 0:0.00029 1:0.08931 
-1 0:0.00029 1:-0.37748 
-1 0:0.00121 1:-0.08933 
-1 0:1e-05 1:-0.06491 
-1 0:0.00113 1:0.10764 
-1 0:0.0014 1:-0.08933 
-1 0:0.00011 1:-0.09453 
-1 0:0.00025 1:-0.02922 
-1 0:0.0001 1:0.08933 
-1 0:0.00012 1:-0.01568 
-1 0:0.00031 1:-0.31827 
-1 0:7e-05 1:0.22634 
-1 0:1e-05 1:-0.01438 
-1 0:0.00024 1:-0.2786 
-1 0:5e-05 1:0.01274 
-1 0:0.00065 1:0.15038 
-1 0:0.00051 1:-0.02402 
-1 0:0.00014 1:-0.01105 
-1 0:0.00054 1:0.03924 
-1 0:0.00194 1:0.07391 
-1 0:0.00026 1:0.08657 
-1 0:0.00027 1:-0.15478 
-1 0:0.00092 1:0.08933 
-1 0:0.00096 1:0.19901 
-1 0:0.00014 1:0.11568 
-1 0:0.00065 1:-0.16429 
