svm_type c_svc
kernel_type rbf
gamma 0.25
nr_class 2
total_sv 31
rho -0.628181
label 0 1
probA -4.86044
probB 1.93072
nr_sv 18 13
SV
1 0:0.23782 1:0.92074 2:1.56768 3:1.92457 4:2.48386 
0.5616811594244012 0:0.26005 1:0.75704 2:1.59712 3:1.87641 4:2.46497 
1 0:0.06694 1:0.8158 2:1.61035 3:1.89091 4:2.39746 
0.3908935167927909 0:0.10119 1:0.99328 2:0.0329 3:1.58177 4:1.57929 
0.7384333347223268 0:0.79334 1:0.84249 2:1.16791 3:1.85154 4:3.01787 
0.02712472646299655 0:0.28484 1:0.92174 2:0.03004 3:2.88264 4:2.90693 
0.3016960236875031 0:0.23363 1:0.75418 2:0.36564 3:2.08533 4:2.42986 
1 0:0.29185 1:0.94688 2:1.44845 3:1.50767 4:2.86154 
1 0:0.31522 1:0.50226 2:1.5418 3:1.09197 4:2.62393 
1 0:0.26909 1:0.65295 2:1.58976 3:1.10485 4:2.01826 
0.1844775014583667 0:0.4259 1:0.4936 2:1.58677 3:1.3069 4:2.23903 
1 0:0.29608 1:0.96089 2:1.53731 3:1.05645 4:2.35742 
0.1377832201621858 0:0.10807 1:0.56749 2:1.55741 3:0.96669 4:1.63941 
0.6579105172894288 0:0.14724 1:0.93596 2:1.58741 3:1.46478 4:1.89223 
1 0:0.20426 1:0.87947 2:0.80901 3:0.75727 4:1.56131 
1 0:0.22106 1:0.64148 2:1.55378 3:0.75831 4:1.93761 
1 0:0.16778 1:0.81737 2:1.64472 3:1.48668 4:2.53381 
1 0:0.13046 1:0.33628 2:1.02581 3:0.92507 4:1.82803 
-1 0:0.00718 1:0.94406 2:1.476 3:1.26705 4:2.73386 
-1 0:0.007 1:0.76842 2:1.52987 3:1.34757 4:2.87707 
-1 0:0.00655 1:0.65283 2:1.56522 3:0.86924 4:2.43227 
-1 0:0.00578 1:0.96722 2:1.53291 3:1.11579 4:2.64745 
-1 0:0.00565 1:0.90701 2:1.52587 3:1.32185 4:2.84131 
-1 0:0.02147 1:0.91254 2:1.52151 3:1.37218 4:2.04304 
-1 0:0.0058 1:0.95794 2:1.60054 3:1.05584 4:2.6563 
-1 0:0.00973 1:0.91069 2:0.10158 3:1.51546 4:1.61654 
-1 0:0.23997 1:0.82762 2:1.70081 3:0.18535 4:1.88412 
-1 0:0.00563 1:0.80341 2:1.55932 3:1.31555 4:2.87424 
-1 0:0.01362 1:0.91868 2:1.40519 3:1.37913 4:2.69893 
-1 0:0.00548 1:0.65681 2:0.94672 3:1.46639 4:2.39912 
-1 0:0.00609 1:0.90119 2:1.55172 3:0.83786 4:2.38938 
