svm_type one_against_all
kernel_type rbf
trainOnlyClass -1
gamma 0.07
nr_class 3
nr_hyp 3
total_sv 394
rho 0.902016 -0.465116 0.901855
omegaNorm 29.9318 22.7616 29.2934
avgDistP 0.0466662 0.0531781 0.0462726
avgDistN 0.0440228 0.066784 0.0529685
avgFP 1.39681 1.21042 1.35548
avgFN 1.31769 1.52011 1.55163
label 2 3 1
nr_sv 107 144 143
SV
0 -3.888465491458501 -0 1:-0.875791 2:-0.747983 3:0.460421 4:-0.842556 5:-0.967572 6:0.866514 7:-0.146336 8:-0.106367 9:-0.645164 10:-0.854545 11:-0.857143 12:-0.857143 13:-0.849057 14:-0.849057 15:-0.833333 16:-0.857143 17:-0.846154 18:-0.837838 19:-0.891892 20:-0.891892 21:-0.885714 22:-1 23:-1 24:-1 25:-1 26:-1 27:-1 28:-1 29:-1 30:-1 31:-1 32:0.0778051 33:0.0401285 34:-0.383392 35:-0.705097 36:-0.802281 37:-0.923554 38:-0.835078 39:-0.969399 40:-0.872672 41:-0.956755 42:-0.993308 43:-0.938769 44:-0.987748 45:-0.931903 46:-0.956905 47:-0.982644 48:-0.963136 49:-0.982337 50:-0.967361 51:-0.959383 52:-0.937287 53:-0.947742 54:-0.986537 55:-0.910577 56:-0.939427 57:-0.86565 58:-0.891574 59:-0.929834 60:-0.98313 61:-0.964617 62:-0.889803 63:-0.921139 64:-0.963332 65:-0.981198 66:-0.941961 67:-0.969393 68:-0.945704 69:-0.925263 70:-0.975587 71:-0.935882 72:-0.986576 73:-0.901762 74:-0.95813 75:-0.942583 76:-0.903217 77:-0.970756 78:-0.980157 79:-0.906583 80:-0.976156 81:-0.956309 82:-0.978458 83:-0.913848 84:-0.928487 85:-0.951052 86:-0.982605 87:-0.968296 88:-0.891564 89:-0.922706 90:-0.952658 91:-0.94286 92:-0.992555 93:-0.990691 94:-0.983734 95:-0.969322 96:-0.928725 97:-0.946739 98:-0.959471 99:-0.962814 100:-0.978101 101:-0.922432 102:-0.871148 103:-0.938587 104:-0.845034 105:-0.956313 106:-0.840974 107:-0.949529 108:-0.960518 109:-0.922885 110:-0.96743 111:-0.896781 112:-0.955169 113:-0.967449 114:-0.93422 115:-0.981308 116:-0.942056 117:-0.923986 118:-0.91017 119:-0.874806 120:-0.951376 121:-0.970822 122:-0.927992 123:-0.985829 124:-0.943481 125:-0.946292 126:-0.889279 127:-0.897131 128:-0.991989 129:-0.929372 130:-0.940088 131:-0.569255 132:0.0767516 133:0.18714 134:-0.6225 135:0.482709 136:0.18714 137:0.925573 138:-0.815943 139:0.189866 140:0.0970296 141:0.342775 142:-0.118821 143:-0.956044 144:-0.956044 145:-0.956989 146:-0.93617 147:-0.914894 148:-0.915789 149:-0.93617 150:-0.92381 151:-0.924528 152:0.0697026 153:-0.890811 154:-0.854546 155:-0.857143 156:-0.857143 157:-0.849057 158:-0.849056 159:-0.833333 160:-0.857143 161:-0.846154 162:-0.837838 163:-0.891892 164:-0.891892 165:-0.885714 166:-1 167:-1 168:-1 169:-1 170:-1 171:-1 172:-1 173:-1 174:-1 175:-1 176:-0.956044 177:-0.956044 178:-0.956989 179:-0.93617 180:-0.914894 181:-0.91579 182:-0.93617 183:-0.923809 184:-0.924529 
0 -0.9293910889574369 -0 1:-0.957073 2:-0.960128 3:0.285551 4:-0.914191 5:-1 6:0.775837 7:-0.325984 8:-0.178467 9:-0.692812 10:-0.963636 11:-0.928571 12:-0.928571 13:-0.924528 14:-0.849057 15:-0.958333 16:-1 17:-1 18:-1 19:-1 20:-1 21:-1 22:-1 23:-1 24:-1 25:-1 26:-1 27:-1 28:-1 29:-1 30:-1 31:-1 32:-0.509847 33:-0.854376 34:-0.696653 35:-0.783732 36:-0.955533 37:-0.947345 38:-0.918762 39:-0.955998 40:-0.975145 41:-0.987074 42:-0.988574 43:-0.977475 44:-0.992704 45:-0.993364 46:-0.958111 47:-0.964706 48:-0.97811 49:-0.979334 50:-0.986411 51:-0.980074 52:-0.952208 53:-0.996959 54:-0.995872 55:-0.961252 56:-0.967379 57:-0.997804 58:-0.943578 59:-0.990084 60:-0.923105 61:-0.937762 62:-0.979564 63:-0.910614 64:-0.97432 65:-0.993458 66:-0.981815 67:-1 68:-0.979627 69:-0.963249 70:-0.995616 71:-0.940364 72:-0.975713 73:-0.98229 74:-0.963087 75:-0.977034 76:-0.957593 77:-0.936757 78:-0.966102 79:-0.981811 80:-0.978042 81:-0.969255 82:-0.982285 83:-1 84:-0.987885 85:-0.971316 86:-0.989904 87:-0.981001 88:-0.950307 89:-0.960162 90:-0.992124 91:-0.987995 92:-0.98555 93:-0.980816 94:-0.991198 95:-0.987658 96:-0.989545 97:-0.968691 98:-0.974669 99:-0.958811 100:-0.979806 101:-0.942349 102:-0.976266 103:-0.98838 104:-0.940317 105:-0.937654 106:-0.956606 107:-0.960074 108:-0.946774 109:-0.984264 110:-0.984648 111:-0.966031 112:-0.977933 113:-0.940005 114:-0.956957 115:-1 116:-0.944939 117:-0.937662 118:-0.951188 119:-0.958544 120:-0.958949 121:-0.955431 122:-0.947626 123:-0.97587 124:-0.941682 125:-0.979314 126:-0.93123 127:-0.984723 128:-0.973012 129:-0.987433 130:-0.979932 131:-0.212615 132:0.557225 133:0.198085 134:-0.628826 135:0.491378 136:0.198085 137:0.976662 138:-0.956968 139:0.290823 140:0.0202582 141:0.374978 142:-0.0933413 143:-1 144:-1 145:-1 146:-1 147:-0.957447 148:-0.957895 149:-0.978723 150:-0.961905 151:-0.981132 152:0.829569 153:-0.889993 154:-0.963637 155:-0.928572 156:-0.928572 157:-0.924528 158:-0.849056 159:-0.958333 160:-1 161:-1 162:-1 163:-1 164:-1 165:-1 166:-1 167:-1 168:-1 169:-1 170:-1 171:-1 172:-1 173:-1 174:-1 175:-1 176:-1 177:-1 178:-1 179:-1 180:-0.957447 181:-0.957895 182:-0.978723 183:-0.961905 184:-0.981132 
3.483106232068236 -17.84349017197554 -0 1:-0.960824 2:-0.963564 3:0.0737801 4:-0.918341 5:-0.97951 6:0.566205 7:-0.363639 8:-0.200487 9:-0.611373 10:-0.890909 11:-0.928571 12:-0.928571 13:-0.962264 14:-0.924528 15:-0.916667 16:-1 17:-1 18:-1 19:-1 20:-1 21:-1 22:-1 23:-1 24:-1 25:-1 26:-1 27:-1 28:-1 29:-1 30:-1 31:-1 32:-0.456161 33:-0.835668 34:-0.837913 35:-0.759266 36:-0.880513 37:-0.922572 38:-0.980046 39:-0.943129 40:-0.974811 41:-0.9918 42:-0.994316 43:-0.96213 44:-0.969764 45:-0.989044 46:-0.996118 47:-0.968071 48:-0.987274 49:-0.98122 50:-0.985974 51:-0.979957 52:-0.972139 53:-0.985331 54:-0.974764 55:-0.957855 56:-0.964914 57:-0.964902 58:-0.949576 59:-0.986055 60:-0.958203 61:-0.927805 62:-0.959156 63:-0.972481 64:-0.970927 65:-0.985056 66:-0.994781 67:-0.978962 68:-0.973975 69:-0.965757 70:-0.989366 71:-0.971245 72:-0.995709 73:-0.996284 74:-0.968117 75:-0.94702 76:-0.958588 77:-0.974482 78:-0.940118 79:-0.972266 80:-0.989014 81:-0.996505 82:-0.942006 83:-0.998039 84:-0.988887 85:-0.985913 86:-0.97992 87:-0.968402 88:-0.972158 89:-0.972638 90:-0.997484 91:-0.997513 92:-0.983846 93:-0.976389 94:-0.993302 95:-0.982726 96:-0.982842 97:-0.968758 98:-0.991195 99:-0.983158 100:-0.96122 101:-0.969704 102:-0.989884 103:-0.954552 104:-0.985863 105:-0.95055 106:-0.965134 107:-0.95551 108:-0.956863 109:-0.994708 110:-0.956363 111:-0.975833 112:-0.946604 113:-0.961108 114:-0.955076 115:-0.965282 116:-0.966629 117:-0.964233 118:-0.98775 119:-0.966157 120:-0.987413 121:-0.95458 122:-0.960203 123:-0.988169 124:-0.973232 125:-0.984892 126:-0.942027 127:-0.989286 128:-0.950284 129:-0.951055 130:-0.985873 131:-0.272426 132:0.533032 133:0.242428 134:-0.654042 135:0.525923 136:0.242428 137:0.974172 138:-0.967302 139:0.243801 140:0.0664547 141:0.211667 142:-0.0791711 143:-1 144:-1 145:-1 146:-1 147:-0.978723 148:-0.957895 149:-0.978723 150:-0.961905 151:-0.962264 152:0.630389 153:-0.920199 154:-0.890909 155:-0.928572 156:-0.928572 157:-0.962264 158:-0.924528 159:-0.916667 160:-1 161:-1 162:-1 163:-1 164:-1 165:-1 166:-1 167:-1 168:-1 169:-1 170:-1 171:-1 172:-1 173:-1 174:-1 175:-1 176:-1 177:-1 178:-1 179:-1 180:-0.978723 181:-0.957895 182:-0.978723 183:-0.961905 184:-0.962264 
6.383035496633152 -0 -0 1:-0.967444 2:-0.951446 3:-0.179136 4:-0.939011 5:-0.960653 6:0.404502 7:-0.651896 8:-0.392663 9:-0.93638 10:-0.890909 11:-0.892857 12:-0.928571 13:-0.924528 14:-0.924528 15:-0.916667 16:-1 17:-1 18:-1 19:-1 20:-1 21:-1 22:-1 23:-1 24:-1 25:-1 26:-1 27:-1 28:-1 29:-1 30:-1 31:-1 32:-0.281559 33:-0.598975 34:-0.819112 35:-0.738045 36:-0.951132 37:-0.905225 38:-0.899297 39:-0.972168 40:-0.988392 41:-0.993306 42:-0.97236 43:-0.962274 44:-0.983648 45:-0.986818 46:-0.956727 47:-0.975853 48:-0.979413 49:-0.995284 50:-0.982149 51:-0.983207 52:-0.9515 53:-0.984558 54:-0.982416 55:-0.946242 56:-0.968976 57:-0.929909 58:-0.923905 59:-0.929762 60:-0.964007 61:-0.974802 62:-0.973766 63:-0.951126 64:-0.968714 65:-0.972955 66:-0.972066 67:-0.986241 68:-0.97444 69:-0.974561 70:-0.961227 71:-0.985946 72:-0.949635 73:-0.956101 74:-0.935513 75:-0.96454 76:-0.944427 77:-0.998345 78:-0.984127 79:-0.967379 80:-0.977019 81:-0.969246 82:-0.99042 83:-0.963681 84:-0.959182 85:-0.953582 86:-0.964329 87:-0.991401 88:-0.973178 89:-0.994794 90:-0.967302 91:-0.992206 92:-0.975547 93:-0.983637 94:-0.992912 95:-0.97051 96:-0.98221 97:-0.97945 98:-0.976164 99:-0.964972 100:-0.940151 101:-0.947197 102:-0.999445 103:-0.993897 104:-0.937144 105:-1 106:-0.953145 107:-0.98833 108:-0.96768 109:-0.965336 110:-0.981137 111:-0.954432 112:-0.973165 113:-1 114:-0.949954 115:-0.992588 116:-0.942531 117:-0.970399 118:-0.972548 119:-0.968626 120:-0.947515 121:-0.944635 122:-0.969105 123:-0.986133 124:-0.95703 125:-0.977781 126:-0.986167 127:-0.949378 128:-0.970834 129:-0.988022 130:-0.962606 131:-0.540521 132:0.234349 133:0.314801 134:-0.69376 135:0.58036 136:0.314801 137:0.97209 138:-0.936868 139:0.436664 140:-0.114975 141:0.416111 142:-0.291993 143:-1 144:-1 145:-1 146:-1 147:-0.978723 148:-0.915789 149:-0.93617 150:-0.942857 151:-0.943396 152:0.643996 153:-0.873478 154:-0.890909 155:-0.892857 156:-0.928572 157:-0.924528 158:-0.924528 159:-0.916667 160:-1 161:-1 162:-1 163:-1 164:-1 165:-1 166:-1 167:-1 168:-1 169:-1 170:-1 171:-1 172:-1 173:-1 174:-1 175:-1 176:-1 177:-1 178:-1 179:-1 180:-0.978723 181:-0.91579 182:-0.93617 183:-0.942857 184:-0.943396 
3.837230313343499 -0 -1.822391127973266 1:-0.986309 2:-0.955745 3:-0.6082 4:-0.962803 5:-0.866509 6:-0.120876 7:-0.831386 8:-0.574111 9:-0.827141 10:-0.927273 11:-0.892857 12:-0.928571 13:-1 14:-0.924528 15:-0.916667 16:-1 17:-1 18:-1 19:-1 20:-1 21:-1 22:-1 23:-1 24:-1 25:-1 26:-1 27:-1 28:-1 29:-1 30:-1 31:-1 32:-0.241641 33:-0.309759 34:-0.695255 35:-0.869799 36:-0.88561 37:-0.91932 38:-0.919574 39:-0.996128 40:-0.984808 41:-0.935822 42:-0.975213 43:-0.972295 44:-0.979573 45:-0.988218 46:-0.995919 47:-0.966317 48:-0.932956 49:-0.953346 50:-0.982646 51:-0.972173 52:-0.970812 53:-0.986384 54:-0.97269 55:-0.966946 56:-0.978437 57:-0.976615 58:-0.964365 59:-0.95316 60:-0.929785 61:-0.987628 62:-0.972144 63:-0.951562 64:-0.99228 65:-0.951478 66:-0.959346 67:-0.965892 68:-0.969175 69:-0.970523 70:-0.976634 71:-0.946963 72:-0.944776 73:-0.977705 74:-0.986204 75:-0.960194 76:-0.915423 77:-0.939749 78:-0.947489 79:-0.970948 80:-0.979692 81:-0.960965 82:-0.987779 83:-0.968649 84:-0.983791 85:-0.971702 86:-0.956133 87:-0.988538 88:-0.981776 89:-0.966832 90:-0.966774 91:-0.965339 92:-0.985654 93:-0.981912 94:-0.991212 95:-0.983615 96:-0.97738 97:-0.954211 98:-0.991202 99:-0.978423 100:-0.972472 101:-0.946603 102:-0.968446 103:-0.950718 104:-0.94448 105:-0.944592 106:-0.945191 107:-0.986004 108:-0.991185 109:-0.989752 110:-0.971073 111:-0.935567 112:-0.992503 113:-0.977876 114:-1 115:-0.967859 116:-0.939182 117:-0.953722 118:-0.991798 119:-0.986334 120:-0.984764 121:-0.93993 122:-0.951394 123:-0.985306 124:-0.960847 125:-0.94746 126:-0.986178 127:-0.986396 128:-0.975353 129:-0.935034 130:-0.974659 131:-0.787466 132:-0.0327122 133:0.449699 134:-0.763467 135:0.675866 136:0.449699 137:0.986009 138:-0.956093 139:0.384967 140:-0.0896438 141:0.457306 142:0.302819 143:-1 144:-1 145:-1 146:-1 147:-1 148:-0.936842 149:-0.93617 150:-0.942857 151:-0.962264 152:0.259139 153:-0.849117 154:-0.927273 155:-0.892857 156:-0.928572 157:-1 158:-0.924528 159:-0.916667 160:-1 161:-1 162:-1 163:-1 164:-1 165:-1 166:-1 167:-1 168:-1 169:-1 170:-1 171:-1 172:-1 173:-1 174:-1 175:-1 176:-1 177:-1 178:-1 179:-1 180:-1 181:-0.936842 182:-0.93617 183:-0.942857 184:-0.962264 
1.924005548592893 -0 -0 1:-0.896532 2:-0.810028 3:-0.155498 4:-0.873355 5:-0.89439 6:0.258415 7:-0.306047 8:-0.31131 9:-0.733169 10:-0.818182 11:-0.785714 12:-0.821429 13:-0.924528 14:-0.924528 15:-0.916667 16:-0.904762 17:-0.897436 18:-0.891892 19:-0.891892 20:-0.891892 21:-1 22:-1 23:-1 24:-1 25:-1 26:-1 27:-1 28:-1 29:-1 30:-1 31:-1 32:-0.555824 33:-0.581272 34:-0.604061 35:-0.703596 36:-0.806745 37:-0.986189 38:-0.919626 39:-0.967783 40:-0.951071 41:-0.886036 42:-0.978315 43:-0.980707 44:-0.968348 45:-0.94566 46:-0.947247 47:-0.970735 48:-0.960595 49:-0.989435 50:-0.976909 51:-0.991585 52:-0.974306 53:-0.989464 54:-0.95484 55:-0.956843 56:-0.939943 57:-0.915413 58:-0.910521 59:-0.921355 60:-0.958169 61:-0.934375 62:-0.89763 63:-0.884113 64:-0.973503 65:-0.986224 66:-0.979831 67:-0.930272 68:-0.985558 69:-0.961941 70:-0.944874 71:-0.942819 72:-0.960641 73:-0.940728 74:-0.925183 75:-0.935721 76:-0.919083 77:-0.953171 78:-0.915359 79:-0.963974 80:-0.987169 81:-0.945744 82:-0.92682 83:-0.943622 84:-0.960048 85:-0.952095 86:-0.970516 87:-0.981198 88:-0.950591 89:-0.880295 90:-0.99041 91:-0.970442 92:-0.983681 93:-0.966934 94:-0.977682 95:-0.957796 96:-0.958098 97:-0.975977 98:-0.97695 99:-0.956265 100:-0.958046 101:-0.913299 102:-0.971903 103:-0.945105 104:-0.911911 105:-0.880371 106:-0.900389 107:-0.964751 108:-0.982404 109:-0.993071 110:-0.912141 111:-0.945775 112:-0.975827 113:-0.949583 114:-0.996499 115:-0.969707 116:-0.960346 117:-0.959732 118:-0.940624 119:-0.933892 120:-0.934334 121:-0.937089 122:-0.908186 123:-0.985501 124:-0.972573 125:-0.907764 126:-0.903206 127:-0.877729 128:-0.951955 129:-0.894125 130:-0.956685 131:-0.546936 132:0.645334 133:0.765174 134:-0.907345 135:0.87304 136:0.765174 137:0.725923 138:-0.439184 139:0.197479 140:0.389278 141:0.354309 142:-0.0234792 143:-0.78022 144:-0.78022 145:-0.784946 146:-0.787234 147:-0.744681 148:-0.705263 149:-0.659574 150:-0.695238 151:-0.698113 152:-0.150651 153:-0.898581 154:-0.818181 155:-0.785713 156:-0.821429 157:-0.924528 158:-0.924528 159:-0.916667 160:-0.904762 161:-0.897436 162:-0.891892 163:-0.891892 164:-0.891892 165:-1 166:-1 167:-1 168:-1 169:-1 170:-1 171:-1 172:-1 173:-1 174:-1 175:-1 176:-0.780221 177:-0.780221 178:-0.784947 179:-0.787234 180:-0.744681 181:-0.705263 182:-0.659576 183:-0.695238 184:-0.698113 
3.37427551128019 -2.41764620780853 -0 1:-0.799661 2:-0.599901 3:0.0098682 4:-0.774906 5:-0.838573 6:0.41945 7:-0.210358 8:-0.219736 9:-0.646463 10:-0.672727 11:-0.714286 12:-0.75 13:-0.886792 14:-0.849057 15:-0.833333 16:-0.809524 17:-0.794872 18:-0.783784 19:-0.783784 20:-0.783784 21:-0.771429 22:-0.885714 23:-0.882353 24:-0.941176 25:-1 26:-1 27:-1 28:-1 29:-1 30:-1 31:-1 32:-0.347583 33:-0.284733 34:-0.217262 35:-0.568373 36:-0.883203 37:-0.831814 38:-0.809571 39:-0.927313 40:-0.939814 41:-0.918985 42:-0.940393 43:-0.970058 44:-0.944544 45:-0.882489 46:-0.885408 47:-0.982057 48:-0.917939 49:-0.952423 50:-0.957049 51:-0.973181 52:-0.83203 53:-0.900612 54:-0.97047 55:-0.932146 56:-0.933157 57:-0.919344 58:-0.886552 59:-0.921386 60:-0.982918 61:-0.979633 62:-0.975918 63:-0.917633 64:-0.929782 65:-0.892891 66:-0.865144 67:-0.880707 68:-0.923608 69:-0.944709 70:-0.944565 71:-0.825837 72:-0.898553 73:-0.899508 74:-0.861193 75:-0.966711 76:-0.961817 77:-0.80047 78:-0.839378 79:-0.87351 80:-0.928902 81:-0.985415 82:-0.984088 83:-0.890651 84:-0.954109 85:-0.855227 86:-0.963311 87:-0.972642 88:-0.833738 89:-0.953165 90:-0.962558 91:-0.964251 92:-0.959136 93:-0.8939 94:-0.980464 95:-0.923908 96:-0.961169 97:-0.96461 98:-0.903848 99:-0.867946 100:-0.849258 101:-0.823085 102:-0.914117 103:-0.899594 104:-0.902293 105:-0.941572 106:-0.825581 107:-0.931279 108:-0.889611 109:-0.868142 110:-0.881197 111:-0.885693 112:-0.870588 113:-0.871231 114:-0.919828 115:-0.986693 116:-0.823298 117:-0.908645 118:-0.913653 119:-0.988454 120:-0.883066 121:-0.859956 122:-0.94952 123:-0.893991 124:-0.941532 125:-0.957558 126:-0.95482 127:-0.924236 128:-0.930698 129:-0.972694 130:-0.977891 131:-0.480521 132:0.147601 133:0.142252 134:-0.596106 135:0.446532 136:0.142252 137:0.775657 138:-0.517335 139:-0.074535 140:0.0127854 141:-0.0370446 142:-0.350574 143:-0.824176 144:-0.824176 145:-0.827957 146:-0.829787 147:-0.808511 148:-0.747368 149:-0.744681 150:-0.752381 151:-0.773585 152:-0.521676 153:-0.862935 154:-0.672727 155:-0.714286 156:-0.75 157:-0.886793 158:-0.849056 159:-0.833333 160:-0.809524 161:-0.794872 162:-0.783784 163:-0.783784 164:-0.783784 165:-0.771428 166:-0.885714 167:-0.882353 168:-0.941176 169:-1 170:-1 171:-1 172:-1 173:-1 174:-1 175:-1 176:-0.824176 177:-0.824176 178:-0.827957 179:-0.829787 180:-0.808511 181:-0.747369 182:-0.744682 183:-0.75238 184:-0.773584 
7.610047324646316 -2.676428263368745 -0 1:-0.910244 2:-0.805288 3:-0.136004 4:-0.886388 5:-0.912818 6:0.264426 7:-0.27543 8:-0.27751 9:-0.75934 10:-0.890909 11:-0.857143 12:-0.857143 13:-0.962264 14:-0.924528 15:-0.916667 16:-0.904762 17:-0.897436 18:-0.891892 19:-0.891892 20:-0.891892 21:-0.942857 22:-1 23:-1 24:-1 25:-1 26:-1 27:-1 28:-1 29:-1 30:-1 31:-1 32:-0.208221 33:-0.524353 34:-0.466741 35:-0.858126 36:-0.941661 37:-0.892063 38:-0.950708 39:-0.941154 40:-0.915029 41:-0.959067 42:-0.987725 43:-0.946056 44:-0.955835 45:-0.97426 46:-0.95386 47:-0.958969 48:-0.962275 49:-0.983056 50:-0.99672 51:-0.981101 52:-0.955518 53:-0.991525 54:-0.973741 55:-0.910645 56:-0.898915 57:-0.934937 58:-0.918181 59:-0.974847 60:-0.933215 61:-0.947327 62:-0.907938 63:-0.958952 64:-0.960648 65:-0.954179 66:-0.964402 67:-0.952849 68:-0.937048 69:-0.918775 70:-0.991427 71:-0.941947 72:-0.956838 73:-0.949701 74:-0.927797 75:-0.977495 76:-0.911783 77:-0.947168 78:-0.906489 79:-0.984436 80:-0.985119 81:-1 82:-0.895732 83:-0.950884 84:-0.965305 85:-0.957397 86:-0.95422 87:-0.942551 88:-0.949883 89:-0.966002 90:-0.965501 91:-0.950717 92:-0.999486 93:-0.98754 94:-0.968572 95:-0.968979 96:-0.984871 97:-0.971189 98:-0.98235 99:-0.956881 100:-0.946446 101:-0.940376 102:-0.92838 103:-0.935503 104:-0.93405 105:-0.99594 106:-0.973412 107:-0.967314 108:-0.91493 109:-0.950704 110:-0.942392 111:-0.987079 112:-0.947094 113:-0.938103 114:-0.90405 115:-0.962735 116:-0.91278 117:-0.962466 118:-0.939106 119:-0.933403 120:-0.929227 121:-0.951461 122:-0.894878 123:-0.911729 124:-0.985883 125:-0.971263 126:-0.901619 127:-0.926691 128:-0.964061 129:-0.961074 130:-0.991363 131:-0.59651 132:0.462822 133:0.666976 134:-0.865165 135:0.815227 136:0.666976 137:0.710577 138:-0.412851 139:0.106761 140:0.309625 141:0.17812 142:-0.269566 143:-0.758242 144:-0.758242 145:-0.763441 146:-0.765957 147:-0.744681 148:-0.705263 149:-0.638298 150:-0.67619 151:-0.679245 152:-0.024343 153:-0.912346 154:-0.890909 155:-0.857143 156:-0.857143 157:-0.962264 158:-0.924528 159:-0.916667 160:-0.904762 161:-0.897436 162:-0.891892 163:-0.891892 164:-0.891892 165:-0.942857 166:-1 167:-1 168:-1 169:-1 170:-1 171:-1 172:-1 173:-1 174:-1 175:-1 176:-0.758242 177:-0.758242 178:-0.763441 179:-0.765957 180:-0.744681 181:-0.705263 182:-0.638299 183:-0.67619 184:-0.679245 
1.276639419166729 -0.888909749842462 -0 1:-0.352932 2:0.103749 3:0.605934 4:-0.318708 5:-0.662712 6:0.733608 7:0.38489 8:0.312386 9:0.00651422 10:-0.454545 11:-0.428571 12:-0.464286 13:-0.509434 14:-0.471698 15:-0.416667 16:-0.333333 17:-0.282051 18:-0.243243 19:-0.243243 20:-0.243243 21:-0.428571 22:-0.542857 23:-0.529412 24:-0.529412 25:-0.5 26:-0.533333 27:-0.333333 28:-0.0769231 30:0.333333 31:-1 32:-0.62737 33:-0.524866 34:-0.397679 35:-0.578937 36:-0.0648297 37:0.165548 38:-0.364789 39:-0.558633 40:-0.916112 41:-0.549361 42:-0.793146 43:-0.784963 44:-0.733535 45:-0.775292 46:-0.807569 47:-0.708512 48:-0.546544 49:-0.89373 50:-0.706707 51:-0.928902 52:-0.846115 53:-0.841481 54:-0.902756 55:-0.868235 56:-0.830649 57:-0.608769 58:-0.670101 59:-0.824729 60:-0.664538 61:-0.722806 62:-0.393914 63:-0.33688 64:-0.940071 65:-0.471738 66:-0.614482 67:-0.780882 68:-0.838724 69:-0.550233 70:-0.697575 71:-0.458688 72:-0.629914 73:-0.919738 74:-0.895223 75:-0.364687 76:-0.645726 77:-0.826941 78:-0.783446 79:-0.970687 80:-0.938796 81:-0.876256 82:-0.809176 83:-0.71294 84:-0.839624 85:-0.826877 86:-0.704659 87:-0.628228 88:-0.611805 89:-0.733249 90:-0.652181 91:-0.879082 92:-0.914577 93:-0.973326 94:-0.988469 95:-0.816652 96:-0.923694 97:-0.943076 98:-0.948513 99:-0.834766 100:-0.737795 101:-0.687361 102:-0.719245 103:-0.450561 104:-0.793157 105:-0.915872 106:-0.423599 107:-0.837146 108:-0.80189 109:-0.698534 110:-0.768604 111:-0.612287 112:-0.796728 113:-0.783591 114:-0.848711 115:-0.775072 116:-0.443856 117:-0.802611 118:-0.818657 119:-0.855019 120:-0.496185 121:-0.317986 122:-0.569087 123:-0.755168 124:-0.90139 125:-0.778883 126:-0.638208 127:-0.27575 128:-0.938565 129:-0.257102 130:-0.913047 131:-0.517669 132:-0.321548 133:-0.295375 134:-0.294088 135:0.0326716 136:-0.295375 137:0.57011 138:-0.176852 139:-0.274897 140:0.133182 141:0.30009 142:0.311997 143:-0.582418 144:-0.582418 145:-0.591398 146:-0.595745 147:-0.595745 148:-0.536842 149:-0.553191 150:-0.580952 151:-0.584906 152:-0.882928 153:-0.638618 154:-0.454547 155:-0.428573 156:-0.464286 157:-0.509435 158:-0.471698 159:-0.416667 160:-0.333333 161:-0.282051 162:-0.243244 163:-0.243244 164:-0.243244 165:-0.428571 166:-0.542858 167:-0.529413 168:-0.529413 169:-0.500001 170:-0.533334 171:-0.333333 172:-0.0769246 173:2.27001e-06 174:0.333329 175:-1 176:-0.582418 177:-0.582418 178:-0.591399 179:-0.595744 180:-0.595744 181:-0.536843 182:-0.553193 183:-0.580952 184:-0.584906 
0 -0.3564052422324031 -0 1:-0.484255 2:-0.0403353 3:0.841018 4:-0.448982 5:-0.78894 6:0.898576 7:0.45388 8:0.34814 9:0.0917104 10:-0.563636 11:-0.535714 12:-0.571429 13:-0.660377 14:-0.584906 15:-0.541667 16:-0.47619 17:-0.435897 18:-0.405405 19:-0.459459 20:-0.459459 21:-0.485714 22:-0.6 23:-0.588235 24:-0.588235 25:-0.5625 26:-0.666667 27:-0.444444 28:-0.230769 29:-0.166667 30:0.111111 31:-1 32:-0.285235 33:-0.593322 34:-0.771435 35:0.151733 36:0.441192 37:-0.666457 38:-0.672319 39:-0.772565 40:-0.89921 41:-0.953871 42:-0.914293 43:-0.784187 44:-0.726438 45:-0.763724 46:-0.820667 47:-0.735174 48:-0.894747 49:-0.867318 50:-0.946825 51:-0.917481 52:-0.826288 53:-0.875659 54:-0.973853 55:-0.687289 56:-0.685186 57:-0.670821 58:-0.332056 59:-0.69201 60:-0.831145 61:-0.827519 62:-0.710752 63:-0.679066 64:-0.724262 65:-0.80237 66:-0.731009 67:-0.775832 68:-0.54648 69:-0.793362 70:-0.895376 71:-0.94239 72:-0.994987 73:-0.952071 74:-0.755829 75:-0.751928 76:-0.677193 77:-0.869834 78:-0.712262 79:-0.586825 80:-0.786632 81:-0.796034 82:-0.843427 83:-0.934575 84:-0.941111 85:-0.88135 86:-0.953988 87:-0.923089 88:-0.956635 89:-0.778787 90:-0.835186 91:-0.834076 92:-0.904003 93:-0.908417 94:-0.971192 95:-0.879955 96:-0.849052 97:-0.803281 98:-0.796711 99:-0.956318 100:-0.776519 101:-0.761587 102:-0.687295 103:-0.903701 104:-0.849117 105:-0.605212 106:-0.714046 107:-0.837033 108:-0.652509 109:-0.533667 110:-0.747933 111:-0.972047 112:-0.540208 113:-0.709101 114:-0.741371 115:-0.900536 116:-0.928949 117:-0.873103 118:-0.800028 119:-0.862313 120:-0.919224 121:-0.895176 122:-0.817418 123:-0.812868 124:-0.0342591 125:-0.71976 126:-0.896896 127:-0.953647 128:-0.858878 129:-0.883165 130:-0.825682 131:-0.581369 132:-0.0931348 133:0.0150951 134:-0.517162 135:0.338353 136:0.0150951 137:0.659824 138:-0.313547 139:-0.204798 140:0.198503 141:0.408654 142:0.508354 143:-0.692308 144:-0.692308 145:-0.698925 146:-0.702128 147:-0.659574 148:-0.621053 149:-0.638298 150:-0.638095 151:-0.660377 152:-0.801322 153:-0.693041 154:-0.563635 155:-0.535713 156:-0.571429 157:-0.660378 158:-0.584906 159:-0.541667 160:-0.476191 161:-0.435898 162:-0.405406 163:-0.459459 164:-0.459459 165:-0.485713 166:-0.6 167:-0.588236 168:-0.588236 169:-0.5625 170:-0.666667 171:-0.444444 172:-0.230771 173:-0.166665 174:0.111107 175:-1 176:-0.692307 177:-0.692307 178:-0.698925 179:-0.702127 180:-0.659574 181:-0.621053 182:-0.638299 183:-0.638095 184:-0.660377 
0 -0.7238432015417643 -0 1:-0.555706 2:-0.122483 3:0.801738 4:-0.521293 5:-0.821529 6:0.924626 7:0.357719 8:0.261968 9:0.0983673 10:-0.636364 11:-0.607143 12:-0.607143 13:-0.698113 14:-0.660377 15:-0.625 16:-0.571429 17:-0.538462 18:-0.513514 19:-0.567568 20:-0.567568 21:-0.6 22:-0.6 23:-0.588235 24:-0.588235 25:-0.6875 26:-0.666667 27:-0.444444 28:-0.230769 29:-0.166667 30:-1 31:-1 32:-0.160164 33:-0.120735 34:0.00843705 35:0.105728 36:-0.0703489 37:-0.537487 38:-0.858533 39:-0.908247 40:-0.864621 41:-0.899301 42:-0.923723 43:-0.818106 44:-0.772185 45:-0.784037 46:-0.874385 47:-0.887407 48:-0.987583 49:-0.877538 50:-0.906928 51:-0.919279 52:-0.933553 53:-0.911507 54:-0.859581 55:-0.696992 56:-0.740254 57:-0.619308 58:-0.706313 59:-0.749584 60:-0.614765 61:-0.763998 62:-0.942658 63:-0.796681 64:-0.908861 65:-0.63018 66:-0.863458 67:-0.889345 68:-0.835798 69:-0.893363 70:-0.891118 71:-0.958103 72:-0.974807 73:-0.871152 74:-0.626656 75:-0.816531 76:-0.654764 77:-0.803139 78:-0.835127 79:-0.906424 80:-0.841182 81:-0.82773 82:-0.829125 83:-0.959623 84:-0.953556 85:-0.882514 86:-0.903554 87:-0.92434 88:-0.834103 89:-0.817271 90:-0.975432 91:-0.893915 92:-0.930531 93:-0.978531 94:-0.942583 95:-0.908908 96:-0.933874 97:-0.829747 98:-0.833332 99:-0.694661 100:-0.875397 101:-0.911611 102:-0.785945 103:-0.728033 104:-0.802018 105:-0.889229 106:-0.534776 107:-0.646418 108:-0.755697 109:-0.889882 110:-0.758621 111:-0.736041 112:-0.630582 113:-0.579801 114:-0.724923 115:-0.859713 116:-0.724858 117:-0.770132 118:-0.516959 119:-0.935078 120:-0.89712 121:-0.856268 122:-0.812327 123:-0.798038 124:-0.812232 125:-0.918129 126:-0.988535 127:-0.855532 128:-0.873211 129:-0.453644 130:-0.752067 131:-0.609633 132:0.0892695 133:0.26268 134:-0.665336 135:0.541392 136:0.26268 137:0.683322 138:-0.344861 139:-0.161772 140:0.155569 141:0.32759 142:0.517158 143:-0.714286 144:-0.714286 145:-0.72043 146:-0.723404 147:-0.680851 148:-0.642105 149:-0.659574 150:-0.695238 151:-0.716981 152:-0.750765 153:-0.694456 154:-0.636364 155:-0.607143 156:-0.607143 157:-0.698113 158:-0.660376 159:-0.624999 160:-0.571427 161:-0.53846 162:-0.513512 163:-0.567569 164:-0.567569 165:-0.6 166:-0.6 167:-0.588236 168:-0.588236 169:-0.6875 170:-0.666667 171:-0.444444 172:-0.230771 173:-0.166665 174:-1 175:-1 176:-0.714286 177:-0.714286 178:-0.720431 179:-0.723404 180:-0.680851 181:-0.642107 182:-0.659576 183:-0.695238 184:-0.716981 
0 -0.1059922132199057 -0 1:-0.569418 2:-0.163051 3:0.719906 4:-0.534563 5:-0.815221 6:0.920247 7:0.247719 8:0.180718 9:0.183994 10:-0.636364 11:-0.607143 12:-0.678571 13:-0.698113 14:-0.622642 15:-0.625 16:-0.571429 17:-0.538462 18:-0.567568 19:-0.567568 20:-0.621622 21:-0.6 22:-0.6 23:-0.588235 24:-0.588235 25:-0.6875 26:-0.666667 27:-0.444444 28:-0.230769 29:-1 30:-1 31:-1 32:-0.185144 33:-0.152801 34:-0.187878 35:-0.075576 36:-0.0776451 37:-0.658581 38:-0.885803 39:-0.87747 40:-0.859025 41:-0.84633 42:-0.911915 43:-0.820829 44:-0.867813 45:-0.816287 46:-0.777682 47:-0.89492 48:-0.951466 49:-0.900387 50:-0.92478 51:-0.949623 52:-0.837824 53:-0.954448 54:-0.938082 55:-0.50271 56:-0.878491 57:-0.697209 58:-0.689732 59:-0.800419 60:-0.781816 61:-0.857325 62:-0.785904 63:-0.784732 64:-0.899784 65:-0.791075 66:-0.765756 67:-0.903869 68:-0.948662 69:-0.834983 70:-0.875329 71:-0.702608 72:-0.821861 73:-0.842618 74:-0.861121 75:-0.876484 76:-0.811358 77:-0.779911 78:-0.670676 79:-0.905002 80:-0.970056 81:-0.87407 82:-0.861449 83:-0.928282 84:-0.917897 85:-0.872712 86:-0.902313 87:-0.884754 88:-0.8565 89:-0.86455 90:-0.86793 91:-0.954756 92:-0.942225 93:-0.92051 94:-0.928313 95:-0.855855 96:-0.894274 97:-0.964736 98:-0.822116 99:-0.755772 100:-0.762675 101:-0.845073 102:-0.958234 103:-0.868292 104:-0.773719 105:-0.750118 106:-0.742042 107:-0.8706 108:-0.944409 109:-0.737418 110:-0.824559 111:-0.66722 112:-0.718626 113:-0.872474 114:-0.979483 115:-0.899317 116:-0.804418 117:-0.76891 118:-0.862337 119:-0.91707 120:-0.532739 121:-0.793199 122:-0.902142 123:-0.974497 124:-0.87921 125:-0.885552 126:-0.735237 127:-0.770701 128:-0.795107 129:-0.820511 130:-0.63794 131:-0.549443 132:0.150853 133:0.238948 134:-0.652087 135:0.523244 136:0.238948 137:0.717813 138:-0.406804 139:-0.109655 140:0.126649 141:0.241937 142:0.614006 143:-0.758242 144:-0.758242 145:-0.763441 146:-0.744681 147:-0.744681 148:-0.684211 149:-0.702128 150:-0.714286 151:-0.735849 152:-0.74985 153:-0.686951 154:-0.636364 155:-0.607143 156:-0.678573 157:-0.698113 158:-0.622641 159:-0.624999 160:-0.571427 161:-0.53846 162:-0.567569 163:-0.567569 164:-0.621622 165:-0.6 166:-0.6 167:-0.588236 168:-0.588236 169:-0.6875 170:-0.666667 171:-0.444444 172:-0.230771 173:-1 174:-1 175:-1 176:-0.758242 177:-0.758242 178:-0.763441 179:-0.744681 180:-0.744681 181:-0.684211 182:-0.702128 183:-0.714285 184:-0.735849 
0 -0.6175181627168075 -0 1:-0.582074 2:-0.185998 3:0.583328 4:-0.547451 5:-0.797655 6:0.818704 7:0.195245 8:0.133278 9:0.15807 10:-0.636364 11:-0.607143 12:-0.678571 13:-0.698113 14:-0.622642 15:-0.625 16:-0.571429 17:-0.538462 18:-0.567568 19:-0.567568 20:-0.621622 21:-0.6 22:-0.6 23:-0.588235 24:-0.705882 25:-0.6875 26:-0.666667 27:-0.444444 28:-0.230769 29:-1 30:-1 31:-1 32:-0.190374 33:-0.177235 34:-0.196524 35:-0.0793391 36:-0.106629 37:-0.687003 38:-0.880733 39:-0.872665 40:-0.855378 41:-0.829219 42:-0.906194 43:-0.810415 44:-0.868312 45:-0.812759 46:-0.797527 47:-0.882708 48:-0.967567 49:-0.913284 50:-0.906455 51:-0.932154 52:-0.863041 53:-0.946273 54:-0.94152 55:-0.527499 56:-0.935692 57:-0.71023 58:-0.664496 59:-0.826615 60:-0.874771 61:-0.842725 62:-0.762805 63:-0.756088 64:-0.93433 65:-0.804687 66:-0.748982 67:-0.937566 68:-0.99666 69:-0.883848 70:-0.897264 71:-0.7458 72:-0.849606 73:-0.864991 74:-0.905357 75:-0.863905 76:-0.800285 77:-0.80517 78:-0.66887 79:-0.910032 80:-0.983986 81:-0.879913 82:-0.868702 83:-0.930775 84:-0.90853 85:-0.874536 86:-0.891368 87:-0.919235 88:-0.9041 89:-0.848787 90:-0.889968 91:-0.9459 92:-0.976687 93:-0.947923 94:-0.901766 95:-0.821357 96:-0.867384 97:-0.916346 98:-0.781897 99:-0.697751 100:-0.786323 101:-0.789192 102:-0.86849 103:-0.880903 104:-0.82148 105:-0.732537 106:-0.689694 107:-0.832368 108:-0.827801 109:-0.834254 110:-0.740134 111:-0.77511 112:-0.862411 113:-0.83699 114:-0.829705 115:-0.865525 116:-0.959108 117:-0.958854 118:-0.818535 119:-0.791713 120:-0.667129 121:-0.836881 122:-0.863381 123:-0.915227 124:-0.812448 125:-0.848486 126:-0.685607 127:-0.730549 128:-0.757657 129:-0.761421 130:-0.725381 131:-0.552311 132:0.123347 133:0.213502 134:-0.637674 135:0.503494 136:0.213502 137:0.720215 138:-0.405256 139:-0.127857 140:0.11565 141:0.216806 142:0.608765 143:-0.758242 144:-0.758242 145:-0.763441 146:-0.765957 147:-0.702128 148:-0.684211 149:-0.702128 150:-0.714286 151:-0.735849 152:-0.757536 153:-0.669895 154:-0.636364 155:-0.607143 156:-0.678573 157:-0.698113 158:-0.622641 159:-0.624999 160:-0.571427 161:-0.53846 162:-0.567569 163:-0.567569 164:-0.621622 165:-0.6 166:-0.6 167:-0.588236 168:-0.705883 169:-0.6875 170:-0.666667 171:-0.444444 172:-0.230771 173:-1 174:-1 175:-1 176:-0.758242 177:-0.758242 178:-0.763441 179:-0.765957 180:-0.702127 181:-0.684211 182:-0.702128 183:-0.714285 184:-0.735849 
0 -3.550294160585378 -0 1:-0.691407 2:-0.360039 3:0.564256 4:-0.655564 5:-0.861311 6:0.807201 7:0.16004 8:0.110882 9:0.19712 10:-0.709091 11:-0.678571 12:-0.678571 13:-0.698113 14:-0.698113 15:-0.708333 16:-0.666667 17:-0.641026 18:-0.675676 19:-0.72973 20:-0.72973 21:-0.714286 22:-0.714286 23:-0.705882 24:-0.823529 25:-0.8125 26:-0.8 27:-0.666667 28:-1 29:-1 30:-1 31:-1 32:-0.102214 33:-0.148822 34:-0.435921 35:-0.0736125 36:-0.854468 37:-0.804193 38:-0.856439 39:-0.873225 40:-0.815177 41:-0.886412 42:-0.935659 43:-0.90617 44:-0.894348 45:-0.955784 46:-0.870609 47:-0.951654 48:-0.896232 49:-0.950393 50:-0.924194 51:-0.939666 52:-0.775228 53:-0.954587 54:-0.98014 55:-0.870788 56:-0.788323 57:-0.872338 58:-0.914976 59:-0.816466 60:-0.880484 61:-0.903124 62:-0.930334 63:-0.888718 64:-0.931728 65:-0.976728 66:-0.97398 67:-0.954386 68:-0.952938 69:-0.751597 70:-0.958371 71:-0.911543 72:-0.919283 73:-0.916397 74:-0.890612 75:-0.951522 76:-0.957126 77:-0.956694 78:-0.741483 79:-0.948873 80:-0.896697 81:-0.923822 82:-0.925186 83:-0.847746 84:-0.863449 85:-0.880726 86:-0.903611 87:-0.981068 88:-0.886092 89:-0.898641 90:-0.974078 91:-0.954368 92:-0.947668 93:-0.939145 94:-0.969419 95:-0.918308 96:-0.9565 97:-0.842956 98:-0.91894 99:-0.901854 100:-0.917741 101:-0.791278 102:-0.872926 103:-0.845696 104:-0.821436 105:-0.77733 106:-0.922752 107:-0.886714 108:-0.969608 109:-0.919955 110:-0.892746 111:-0.923912 112:-0.736872 113:-0.993823 114:-0.834715 115:-0.937296 116:-0.975997 117:-0.878818 118:-0.899501 119:-0.972384 120:-0.853689 121:-0.794887 122:-0.947149 123:-0.821355 124:-0.84143 125:-0.947523 126:-0.910635 127:-0.94559 128:-0.924431 129:-0.847591 130:-0.883694 131:-0.414482 132:0.248589 133:0.158854 134:-0.605953 135:0.46003 136:0.158854 137:0.747849 138:-0.438827 139:-0.0959775 140:0.133578 141:0.136025 142:0.570584 143:-0.78022 144:-0.78022 145:-0.784946 146:-0.787234 147:-0.723404 148:-0.705263 149:-0.723404 150:-0.752381 151:-0.773585 152:-0.623507 153:-0.687154 154:-0.709092 155:-0.678573 156:-0.678573 157:-0.698113 158:-0.698114 159:-0.708333 160:-0.666667 161:-0.641026 162:-0.675676 163:-0.72973 164:-0.72973 165:-0.714286 166:-0.714286 167:-0.705883 168:-0.823529 169:-0.8125 170:-0.8 171:-0.666666 172:-1 173:-1 174:-1 175:-1 176:-0.780221 177:-0.780221 178:-0.784947 179:-0.787234 180:-0.723404 181:-0.705263 182:-0.723405 183:-0.75238 184:-0.773584 
0 -0.1052120323477939 -0 1:-0.603376 2:-0.24762 3:0.359561 4:-0.567269 5:-0.761103 6:0.652133 7:0.0894142 8:0.0413464 9:0.205318 10:-0.636364 11:-0.607143 12:-0.642857 13:-0.622642 14:-0.622642 15:-0.625 16:-0.571429 17:-0.538462 18:-0.567568 19:-0.621622 20:-0.621622 21:-0.6 22:-0.6 23:-0.705882 24:-0.705882 25:-0.6875 26:-0.666667 27:-0.666667 28:-1 29:-1 30:-1 31:-1 32:-0.20974 33:-0.262128 34:-0.422687 35:-0.262045 36:-0.122141 37:-0.846219 38:-0.840132 39:-0.864302 40:-0.814605 41:-0.760458 42:-0.916319 43:-0.918396 44:-0.951635 45:-0.781582 46:-0.892022 47:-0.817152 48:-0.933483 49:-0.941618 50:-0.937712 51:-0.929586 52:-0.770971 53:-0.942017 54:-0.969237 55:-0.904839 56:-0.700966 57:-0.70935 58:-0.95337 59:-0.782341 60:-0.760666 61:-0.798985 62:-0.845591 63:-0.888378 64:-0.988394 65:-0.828187 66:-0.805764 67:-0.751323 68:-0.922824 69:-0.983881 70:-0.942347 71:-0.934779 72:-0.941073 73:-0.951974 74:-0.880751 75:-0.848881 76:-0.781822 77:-0.841877 78:-0.79492 79:-0.837019 80:-0.760537 81:-0.816814 82:-0.868803 83:-0.917468 84:-0.961344 85:-0.949399 86:-0.944306 87:-0.8925 88:-0.893202 89:-0.849748 90:-0.94887 91:-0.809946 92:-0.883653 93:-0.941715 94:-0.960221 95:-0.924104 96:-0.960967 97:-0.915379 98:-0.793997 99:-0.949879 100:-0.805955 101:-0.795815 102:-0.845568 103:-0.980675 104:-0.946226 105:-0.848831 106:-0.828603 107:-0.820105 108:-0.943584 109:-0.679361 110:-0.787784 111:-0.798061 112:-0.785376 113:-0.696867 114:-0.762305 115:-0.866365 116:-0.870359 117:-0.826676 118:-0.822644 119:-0.790522 120:-0.826101 121:-0.735524 122:-0.828203 123:-0.743737 124:-0.697067 125:-0.967679 126:-0.924163 127:-0.827764 128:-0.850369 129:-0.855842 130:-0.958051 131:-0.484535 132:0.119164 133:0.118896 134:-0.582081 135:0.427309 136:0.118896 137:0.664279 138:-0.331064 139:-0.112272 140:0.146683 141:0.0329889 142:0.518665 143:-0.714286 144:-0.714286 145:-0.72043 146:-0.680851 147:-0.659574 148:-0.642105 149:-0.659574 150:-0.638095 151:-0.622642 152:-0.773591 153:-0.680242 154:-0.636364 155:-0.607143 156:-0.642857 157:-0.622643 158:-0.622641 159:-0.624999 160:-0.571427 161:-0.53846 162:-0.567569 163:-0.621622 164:-0.621622 165:-0.6 166:-0.6 167:-0.705883 168:-0.705883 169:-0.6875 170:-0.666667 171:-0.666666 172:-1 173:-1 174:-1 175:-1 176:-0.714286 177:-0.714286 178:-0.720431 179:-0.680851 180:-0.659574 181:-0.642107 182:-0.659576 183:-0.638095 184:-0.622641 
0.274345686566235 -0 -0 1:-0.659498 2:-0.334716 3:0.278433 4:-0.621429 5:-0.780186 6:0.555117 7:0.0863743 8:0.0446532 9:0.202286 10:-0.636364 11:-0.642857 12:-0.642857 13:-0.622642 14:-0.584906 15:-0.666667 16:-0.619048 17:-0.641026 18:-0.675676 19:-0.675676 20:-0.675676 21:-0.657143 22:-0.657143 23:-0.764706 24:-0.764706 25:-0.75 26:-0.733333 27:-1 28:-1 29:-1 30:-1 31:-1 32:-0.431013 33:-0.804687 34:-0.470995 35:-0.142324 36:-0.52464 37:-0.893811 38:-0.756276 39:-0.794164 40:-0.845285 41:-0.987377 42:-0.948591 43:-0.904971 44:-0.847413 45:-0.855868 46:-0.909335 47:-0.965756 48:-0.948867 49:-0.938129 50:-0.935565 51:-0.963278 52:-0.941927 53:-0.882468 54:-0.950825 55:-0.993567 56:-0.841915 57:-0.846007 58:-0.748095 59:-0.883756 60:-0.935038 61:-0.851343 62:-0.952157 63:-0.829548 64:-0.900697 65:-0.905521 66:-0.908852 67:-0.916625 68:-0.923151 69:-0.870854 70:-0.892162 71:-0.781042 72:-0.893142 73:-0.954152 74:-0.934035 75:-0.841528 76:-0.77515 77:-0.876158 78:-0.770058 79:-0.858538 80:-0.927939 81:-0.881784 82:-0.94906 83:-0.956105 84:-0.922778 85:-0.813628 86:-0.88582 87:-0.892109 88:-0.982594 89:-0.935774 90:-0.971604 91:-0.870785 92:-0.947218 93:-0.966346 94:-0.943642 95:-0.873254 96:-0.869891 97:-0.841977 98:-0.906904 99:-0.83989 100:-0.752379 101:-0.832022 102:-0.860061 103:-0.795037 104:-0.73064 105:-0.787259 106:-0.723174 107:-0.861611 108:-0.838268 109:-0.856159 110:-0.932496 111:-0.948817 112:-0.859454 113:-0.932358 114:-0.881863 115:-0.786655 116:-0.856616 117:-0.86694 118:-0.87755 119:-0.916002 120:-0.973372 121:-0.988996 122:-0.900406 123:-0.986415 124:-0.817143 125:-0.690434 126:-0.940284 127:-0.912852 128:-0.828121 129:-0.923263 130:-0.912405 131:-0.28275 132:0.060376 133:-0.132602 134:-0.416912 135:0.200971 136:-0.132602 137:0.732198 138:-0.402039 139:-0.13211 140:0.191535 141:-0.0413114 142:0.394647 143:-0.758242 144:-0.758242 145:-0.763441 146:-0.723404 147:-0.702128 148:-0.705263 149:-0.723404 150:-0.752381 151:-0.754717 152:-0.732597 153:-0.707135 154:-0.636364 155:-0.642857 156:-0.642857 157:-0.622643 158:-0.584906 159:-0.666668 160:-0.619049 161:-0.641026 162:-0.675676 163:-0.675676 164:-0.675676 165:-0.657143 166:-0.657143 167:-0.764706 168:-0.764706 169:-0.75 170:-0.733333 171:-1 172:-1 173:-1 174:-1 175:-1 176:-0.758242 177:-0.758242 178:-0.763441 179:-0.723404 180:-0.702127 181:-0.705263 182:-0.723405 183:-0.75238 184:-0.754717 
5.831094161988951 -0 -9.69011656812077 1:-0.536669 2:-0.224582 3:0.0225535 4:-0.516237 5:-0.606101 6:0.322731 7:0.0018659 8:0.0172223 9:0.00745127 10:-0.490909 11:-0.464286 12:-0.464286 13:-0.433962 14:-0.358491 15:-0.458333 16:-0.571429 17:-0.538462 18:-0.567568 19:-0.567568 20:-0.567568 21:-0.542857 22:-0.6 23:-0.647059 24:-0.647059 25:-0.625 26:-0.866667 27:-1 28:-1 29:-1 30:-1 31:-1 32:-0.575635 33:-0.774029 34:-0.632687 35:-0.414667 36:-0.30228 37:-0.123365 38:-0.943167 39:-0.814466 40:-0.784202 41:-0.697509 42:-0.894179 43:-0.949489 44:-0.847054 45:-0.76095 46:-0.745328 47:-0.951935 48:-0.600837 49:-0.707475 50:-0.905287 51:-0.966625 52:-0.769535 53:-0.851536 54:-0.91874 55:-0.97878 56:-0.875041 57:-0.889129 58:-0.840187 59:-0.865493 60:-0.656578 61:-0.768433 62:-0.569783 63:-0.907736 64:-0.934092 65:-0.863048 66:-0.971897 67:-0.868327 68:-0.884144 69:-0.795193 70:-0.849234 71:-0.80382 72:-0.880272 73:-0.83172 74:-0.619973 75:-0.876655 76:-0.757053 77:-0.7075 78:-0.873205 79:-0.88428 80:-0.856935 81:-0.712389 82:-0.76539 83:-0.878436 84:-0.88873 85:-0.84104 86:-0.640864 87:-0.899525 88:-0.811574 89:-0.765784 90:-0.859407 91:-0.979541 92:-0.985532 93:-0.975786 94:-0.958743 95:-0.90307 96:-0.862089 97:-0.78645 98:-0.970004 99:-0.702121 100:-0.849007 101:-0.645874 102:-0.829002 103:-0.927925 104:-0.831281 105:-0.819895 106:-0.945143 107:-0.948773 108:-0.82776 109:-0.71238 110:-0.905174 111:-0.794163 112:-0.583163 113:-0.644784 114:-0.867919 115:-0.739294 116:-0.743599 117:-0.825197 118:-0.745711 119:-0.749232 120:-0.769836 121:-0.908429 122:-0.792947 123:-0.772135 124:-0.682705 125:-0.839502 126:-0.908301 127:-0.795514 128:-0.829719 129:-0.918875 130:-0.972672 131:-0.496031 132:-0.139278 133:-0.128103 134:-0.420105 135:0.205359 136:-0.128103 137:0.507301 138:-0.0920938 139:-0.214734 140:0.158917 141:0.0594454 142:0.348459 143:-0.516484 144:-0.516484 145:-0.505376 146:-0.510638 147:-0.489362 148:-0.494737 149:-0.510638 150:-0.542857 151:-0.54717 152:-0.857658 153:-0.691356 154:-0.49091 155:-0.464286 156:-0.464286 157:-0.433962 158:-0.35849 159:-0.458333 160:-0.571427 161:-0.53846 162:-0.567569 163:-0.567569 164:-0.567569 165:-0.542858 166:-0.6 167:-0.647059 168:-0.647059 169:-0.625 170:-0.866667 171:-1 172:-1 173:-1 174:-1 175:-1 176:-0.516484 177:-0.516484 178:-0.505378 179:-0.510638 180:-0.489362 181:-0.494739 182:-0.51064 183:-0.542856 184:-0.547169 
0.3439289724022671 -0 -0 1:-0.656954 2:-0.320194 3:-0.188729 4:-0.617703 5:-0.601954 6:0.0643389 7:-0.046413 8:0.0212618 9:-0.0904427 10:-0.709091 11:-0.678571 12:-0.714286 13:-0.660377 14:-0.584906 15:-0.541667 16:-0.47619 17:-0.487179 18:-0.567568 19:-0.567568 20:-0.567568 21:-0.6 22:-0.657143 23:-0.705882 24:-0.705882 25:-0.8125 26:-1 27:-1 28:-1 29:-1 30:-1 31:-1 32:-0.324698 33:-0.370815 34:-0.432635 35:-0.0469109 36:-0.243102 37:-0.781262 38:-0.61803 39:-0.807561 40:-0.87826 41:-0.847429 42:-0.940056 43:-0.899307 44:-0.899853 45:-0.900706 46:-0.720008 47:-0.891451 48:-0.887936 49:-0.891119 50:-0.985127 51:-0.934673 52:-0.887506 53:-0.932494 54:-0.92531 55:-0.880954 56:-0.898813 57:-0.718228 58:-0.640722 59:-0.826058 60:-0.813717 61:-0.844705 62:-0.778837 63:-0.759199 64:-0.81482 65:-0.890112 66:-0.958501 67:-0.772336 68:-0.895237 69:-0.840086 70:-0.906776 71:-0.859883 72:-0.98984 73:-0.922753 74:-0.957928 75:-0.918853 76:-0.954187 77:-0.835512 78:-0.540714 79:-0.920386 80:-0.941064 81:-0.878714 82:-0.81401 83:-0.762306 84:-0.941133 85:-0.901543 86:-0.888148 87:-0.932603 88:-0.841872 89:-0.89832 90:-0.840963 91:-0.888327 92:-0.939462 93:-0.913294 94:-0.968391 95:-0.945873 96:-0.901524 97:-0.888707 98:-0.892378 99:-0.869467 100:-0.93111 101:-0.568153 102:-0.853378 103:-0.800537 104:-0.565423 105:-0.786293 106:-0.973214 107:-0.947152 108:-0.899252 109:-0.861899 110:-0.937033 111:-0.862572 112:-0.900085 113:-0.867409 114:-0.899935 115:-0.856683 116:-0.660018 117:-0.672665 118:-0.90207 119:-0.760642 120:-0.832304 121:-0.840299 122:-0.857267 123:-0.824439 124:-0.813964 125:-0.858243 126:-0.859685 127:-0.790836 128:-0.803665 129:-0.942655 130:-0.887581 131:-0.592969 132:0.00051701 133:0.135892 134:-0.592301 135:0.441326 136:0.135892 137:0.68159 138:-0.322999 139:-0.327342 140:0.15522 141:-0.0175503 142:0.120834 143:-0.692308 144:-0.692308 145:-0.677419 146:-0.680851 147:-0.680851 148:-0.684211 149:-0.680851 150:-0.695238 151:-0.679245 152:-0.826705 153:-0.675426 154:-0.709092 155:-0.678573 156:-0.714286 157:-0.660378 158:-0.584906 159:-0.541667 160:-0.476191 161:-0.487179 162:-0.567569 163:-0.567569 164:-0.567569 165:-0.6 166:-0.657143 167:-0.705883 168:-0.705883 169:-0.8125 170:-1 171:-1 172:-1 173:-1 174:-1 175:-1 176:-0.692307 177:-0.692307 178:-0.67742 179:-0.680851 180:-0.680851 181:-0.684211 182:-0.680852 183:-0.695238 184:-0.679245 
5.064653821499586 -0 -3.574887817946632 1:-0.702273 2:-0.392357 3:-0.182487 4:-0.673476 5:-0.666969 6:0.0364039 7:-0.017126 8:0.0552122 9:-0.484395 10:-0.709091 11:-0.678571 12:-0.714286 13:-0.660377 14:-0.584906 15:-0.541667 16:-0.571429 17:-0.538462 18:-0.567568 19:-0.567568 20:-0.621622 21:-0.6 22:-0.771429 23:-0.823529 24:-0.882353 25:-1 26:-1 27:-1 28:-1 29:-1 30:-1 31:-1 32:0.19337 33:-0.148244 34:0.00429698 35:0.290651 36:0.000527163 37:-0.619689 38:-0.548919 39:-0.694224 40:-0.675281 41:-0.884894 42:-0.93811 43:-0.806307 44:-0.873443 45:-0.870008 46:-0.811614 47:-0.841233 48:-0.695583 49:-0.948834 50:-0.925746 51:-0.940534 52:-0.768423 53:-0.859268 54:-0.90531 55:-0.848083 56:-0.932489 57:-0.731898 58:-0.857688 59:-0.640481 60:-0.513943 61:-0.674016 62:-0.792247 63:-0.712868 64:-0.970684 65:-0.751694 66:-0.874743 67:-0.937673 68:-0.812825 69:-0.920811 70:-0.97199 71:-0.852901 72:-0.84527 73:-0.760306 74:-0.743229 75:-0.786561 76:-0.811413 77:-0.882958 78:-0.832092 79:-0.892825 80:-0.833974 81:-0.865649 82:-0.868328 83:-0.857203 84:-0.844055 85:-0.728229 86:-0.840407 87:-0.903356 88:-0.855033 89:-0.858276 90:-0.898234 91:-0.869194 92:-0.911525 93:-0.885285 94:-0.92934 95:-0.814006 96:-0.730993 97:-0.855259 98:-0.850698 99:-0.850325 100:-0.816551 101:-0.9413 102:-0.915135 103:-0.889755 104:-0.794944 105:-0.763378 106:-0.736178 107:-0.769672 108:-0.642865 109:-0.647575 110:-0.765419 111:-0.87971 112:-0.855663 113:-0.72533 114:-0.716975 115:-0.822988 116:-0.948567 117:-0.813811 118:-0.866049 119:-0.781344 120:-0.817112 121:-0.88959 122:-0.945881 123:-0.791632 124:-0.756557 125:-0.886813 126:-0.703935 127:-0.906242 128:-0.803798 129:-0.973506 130:-0.989549 131:-0.878688 132:-0.322298 133:0.196753 134:-0.628065 135:0.490327 136:0.196753 137:0.657873 138:-0.2625 139:-0.285264 140:0.305585 141:0.517226 142:0.126085 143:-0.648352 144:-0.648352 145:-0.634409 146:-0.638298 147:-0.638298 148:-0.642105 149:-0.638298 150:-0.67619 151:-0.660377 152:-0.77372 153:-0.727275 154:-0.709092 155:-0.678573 156:-0.714286 157:-0.660378 158:-0.584906 159:-0.541667 160:-0.571427 161:-0.53846 162:-0.567569 163:-0.567569 164:-0.621622 165:-0.6 166:-0.771428 167:-0.823529 168:-0.882353 169:-1 170:-1 171:-1 172:-1 173:-1 174:-1 175:-1 176:-0.648352 177:-0.648352 178:-0.63441 179:-0.638298 180:-0.638298 181:-0.642107 182:-0.638299 183:-0.67619 184:-0.660377 
0 -0 -0.5150918873336335 1:-0.754859 2:-0.467752 3:-0.071774 4:-0.724886 5:-0.766287 6:0.163715 7:0.00901683 8:0.0172974 9:-0.552783 10:-0.745455 11:-0.714286 12:-0.75 13:-0.698113 14:-0.660377 15:-0.625 16:-0.666667 17:-0.692308 18:-0.675676 19:-0.675676 20:-0.675676 21:-0.657143 22:-0.828571 23:-0.823529 24:-0.941176 25:-1 26:-1 27:-1 28:-1 29:-1 30:-1 31:-1 32:-0.167831 33:-0.466629 34:-0.369017 35:0.17211 36:-0.714654 37:-0.505807 38:-0.674898 39:-0.867693 40:-0.888694 41:-0.928793 42:-0.903386 43:-0.853921 44:-0.898033 45:-0.913841 46:-0.865584 47:-0.981538 48:-0.945098 49:-0.886958 50:-0.928316 51:-0.939416 52:-0.913996 53:-0.945627 54:-0.954021 55:-0.78982 56:-0.836389 57:-0.897201 58:-0.948659 59:-0.878774 60:-0.803505 61:-0.935476 62:-0.786236 63:-0.989022 64:-0.827234 65:-0.950321 66:-0.911666 67:-0.955286 68:-0.887151 69:-0.900158 70:-0.962615 71:-0.844419 72:-0.816895 73:-0.931626 74:-0.931595 75:-0.900785 76:-0.936254 77:-0.871062 78:-0.810294 79:-0.858412 80:-0.912798 81:-0.852478 82:-0.963235 83:-0.851116 84:-0.938951 85:-0.903796 86:-0.945725 87:-0.921885 88:-0.93687 89:-0.776873 90:-0.950661 91:-0.892059 92:-0.93272 93:-0.926645 94:-0.955872 95:-0.934539 96:-0.930648 97:-0.886809 98:-0.931865 99:-0.878525 100:-0.876089 101:-0.930842 102:-0.923363 103:-0.870011 104:-0.918211 105:-0.796332 106:-0.963936 107:-0.967849 108:-0.909376 109:-0.64121 110:-0.820321 111:-0.90792 112:-0.753303 113:-0.876065 114:-0.929984 115:-0.817918 116:-0.844615 117:-0.845633 118:-0.951058 119:-0.916596 120:-0.931561 121:-0.940091 122:-0.841561 123:-0.98486 124:-0.769219 125:-0.855825 126:-0.909391 127:-0.850628 128:-0.963876 129:-0.731942 130:-0.90846 131:-0.703419 132:-0.14374 133:0.127929 134:-0.587527 135:0.434775 136:0.127929 137:0.738007 138:-0.37015 139:-0.204325 140:0.348519 141:0.640698 142:0.163652 143:-0.714286 144:-0.714286 145:-0.72043 146:-0.723404 147:-0.723404 148:-0.705263 149:-0.723404 150:-0.752381 151:-0.754717 152:-0.669116 153:-0.779328 154:-0.745455 155:-0.714286 156:-0.75 157:-0.698113 158:-0.660376 159:-0.624999 160:-0.666667 161:-0.692308 162:-0.675676 163:-0.675676 164:-0.675676 165:-0.657143 166:-0.828571 167:-0.823529 168:-0.941176 169:-1 170:-1 171:-1 172:-1 173:-1 174:-1 175:-1 176:-0.714286 177:-0.714286 178:-0.720431 179:-0.723404 180:-0.723404 181:-0.705263 182:-0.723405 183:-0.75238 184:-0.754717 
2.030817534247717 -0 -2.276962563046983 1:-0.619288 2:-0.308161 3:0.0447429 4:-0.58968 5:-0.681671 6:0.328252 7:0.0184404 8:-0.0376301 9:-0.50012 10:-0.636364 11:-0.607143 12:-0.607143 13:-0.54717 14:-0.509434 15:-0.458333 16:-0.47619 17:-0.487179 18:-0.459459 19:-0.513514 20:-0.513514 21:-0.542857 22:-0.714286 23:-0.705882 24:-0.882353 25:-1 26:-1 27:-1 28:-1 29:-1 30:-1 31:-1 32:-0.169624 33:-0.226299 34:-0.625094 35:-0.0813296 36:0.179045 37:-0.136471 38:-0.624826 39:-0.659776 40:-0.643396 41:-0.660229 42:-0.85874 43:-0.924931 44:-0.926969 45:-0.908124 46:-0.847751 47:-0.761291 48:-0.713876 49:-0.911418 50:-0.904647 51:-0.777178 52:-0.83964 53:-0.804918 54:-0.84411 55:-0.936018 56:-0.962977 57:-0.973229 58:-0.743332 59:-0.671914 60:-0.42095 61:-0.836816 62:-0.858446 63:-0.865819 64:-0.874255 65:-0.760673 66:-0.898857 67:-0.700954 68:-0.696228 69:-0.760238 70:-0.879774 71:-0.508157 72:-0.735003 73:-0.981859 74:-0.824858 75:-0.722522 76:-0.85252 77:-0.995775 78:-0.972769 79:-0.958669 80:-0.938535 81:-0.761264 82:-0.646365 83:-0.570142 84:-0.86242 85:-0.914883 86:-0.905169 87:-0.911306 88:-0.9285 89:-0.828278 90:-0.87027 91:-0.878856 92:-0.955768 93:-0.972192 94:-0.92611 95:-0.65749 96:-0.823089 97:-0.619004 98:-0.931041 99:-0.975251 100:-0.757229 101:-0.895161 102:-0.775008 103:-0.784573 104:-0.709683 105:-0.570481 106:-0.547511 107:-0.744378 108:-0.917342 109:-0.811984 110:-0.392726 111:-0.777332 112:-0.791865 113:-0.818625 114:-0.93323 115:-0.729927 116:-0.711824 117:-0.887452 118:-0.899197 119:-0.796604 120:-0.85259 121:-0.662568 122:-0.696503 123:-0.819779 124:-0.585243 125:-0.898015 126:-0.824974 127:-0.510608 128:-0.899755 129:-0.673874 130:-0.776353 131:-0.773488 132:-0.352233 133:-0.0493783 134:-0.474594 135:0.280031 136:-0.0493783 137:0.675169 138:-0.288489 139:-0.113266 140:0.346476 141:0.485012 142:0.177265 143:-0.67033 144:-0.67033 145:-0.677419 146:-0.659574 147:-0.638298 148:-0.642105 149:-0.659574 150:-0.695238 151:-0.698113 152:-0.806339 153:-0.816767 154:-0.636364 155:-0.607143 156:-0.607143 157:-0.54717 158:-0.509433 159:-0.458333 160:-0.476191 161:-0.487179 162:-0.459459 163:-0.513512 164:-0.513512 165:-0.542858 166:-0.714286 167:-0.705883 168:-0.882353 169:-1 170:-1 171:-1 172:-1 173:-1 174:-1 175:-1 176:-0.67033 177:-0.67033 178:-0.67742 179:-0.659574 180:-0.638298 181:-0.642107 182:-0.659576 183:-0.695238 184:-0.698113 
1.884186934140848 -0 -2.032502661244703 1:-0.436392 2:-0.101361 3:0.149509 4:-0.405704 5:-0.567179 6:0.467572 7:0.0390102 8:-0.0392835 9:-0.408883 10:-0.490909 11:-0.464286 12:-0.464286 13:-0.396226 14:-0.320755 15:-0.291667 16:-0.238095 17:-0.282051 18:-0.243243 19:-0.297297 20:-0.297297 21:-0.314286 22:-0.428571 23:-0.411765 24:-0.588235 25:-1 26:-1 27:-1 28:-1 29:-1 30:-1 31:-1 32:0.0598333 33:-0.156733 34:-0.429656 35:-0.488742 36:-0.56349 37:-0.340486 38:0.725644 39:-0.151199 40:-0.505108 41:-0.582839 42:-0.723329 43:-0.474551 44:-0.604449 45:-0.681282 46:-0.70254 47:-0.931224 48:-0.89132 49:-0.885485 50:-0.886304 51:-0.858524 52:-0.707884 53:-0.713582 54:-0.48138 55:-0.275531 56:-0.585481 57:-0.190696 58:-0.480306 59:-0.66912 60:-0.379075 61:-0.508968 62:-0.710514 63:-0.816407 64:-0.81524 65:-0.801452 66:-0.868439 67:-0.849134 68:-0.951081 69:-0.649922 70:-0.380307 71:-0.175158 72:-0.685492 73:-0.63857 74:-0.838629 75:-0.591213 76:-0.802403 77:-0.735158 78:-0.301191 79:-0.441692 80:-0.621047 81:-0.579788 82:-0.64331 83:-0.837688 84:-0.957173 85:-0.746436 86:-0.615608 87:-0.581979 88:-0.652471 89:-0.394068 90:-0.939053 91:-0.669173 92:-0.960047 93:-0.858187 94:-0.930313 95:-0.828296 96:-0.738506 97:-0.53285 98:-0.796201 99:-0.802649 100:-0.938825 101:-0.531426 102:-0.662643 103:-0.0312712 104:-0.872078 105:-0.408383 106:-0.562751 107:-0.678221 108:-0.447038 109:-0.567279 110:-0.72586 111:-0.708264 112:-0.906808 113:-0.885248 114:-0.603308 115:-0.898804 116:-0.639196 117:-0.692942 118:-0.223514 119:-0.7902 120:-0.519435 121:-0.36069 122:-0.713694 123:-0.602733 124:-0.742818 125:-0.57955 126:-0.206968 127:-0.576137 128:-0.371883 129:-0.589828 130:-0.768251 131:-0.88195 132:-0.465597 133:-0.0488128 134:-0.474982 135:0.280553 136:-0.0488128 137:0.607978 138:-0.198525 139:-0.044658 140:0.34984 141:0.306776 142:0.146726 143:-0.604396 144:-0.604396 145:-0.612903 146:-0.574468 147:-0.574468 148:-0.578947 149:-0.595745 150:-0.638095 151:-0.641509 152:-0.891039 153:-0.840801 154:-0.49091 155:-0.464286 156:-0.464286 157:-0.396227 158:-0.320755 159:-0.291667 160:-0.238094 161:-0.282051 162:-0.243244 163:-0.297297 164:-0.297297 165:-0.314287 166:-0.428571 167:-0.411764 168:-0.588236 169:-1 170:-1 171:-1 172:-1 173:-1 174:-1 175:-1 176:-0.604396 177:-0.604396 178:-0.612904 179:-0.574468 180:-0.574468 181:-0.578949 182:-0.595746 183:-0.638095 184:-0.641509 
3.947178096275383 -0 -3.165453281381121 1:-0.537488 2:-0.342221 3:0.210131 4:-0.502983 5:-0.669088 6:0.523442 7:0.0206552 8:-0.050904 9:-0.731107 10:-0.381818 11:-0.357143 12:-0.392857 13:-0.358491 14:-0.320755 15:-0.333333 16:-0.238095 17:-0.179487 18:-0.351351 19:-0.621622 20:-0.621622 21:-0.828571 22:-0.942857 23:-0.941176 24:-1 25:-1 26:-1 27:-1 28:-1 29:-1 30:-1 31:-1 32:-0.056434 33:-0.198431 34:-0.494864 35:-0.576863 36:-0.670124 37:-0.691556 38:-0.349268 39:-0.35584 40:-0.407929 41:-0.402922 42:-0.723107 43:-0.387423 44:-0.726367 45:-0.749114 46:-0.654327 47:-0.817613 48:-0.773095 49:-0.884927 50:-0.952041 51:-0.833811 52:-0.46727 53:-0.731289 54:-0.86817 55:-0.862634 56:-0.603512 57:-0.430064 58:-0.559571 59:-0.724139 60:-0.74345 61:-0.780928 62:-0.88574 63:-0.85746 64:-0.585404 65:-0.578423 66:-0.549224 67:-0.610718 68:-0.729436 69:-0.872565 70:-0.807089 71:-0.636066 72:-0.753376 73:-0.731709 74:-0.514798 75:-0.700558 76:-0.689874 77:-0.84435 78:-0.297511 79:-0.686837 80:-0.686395 81:-0.760602 82:-0.723074 83:-0.73388 84:-0.880254 85:-0.944024 86:-0.944255 87:-0.927429 88:-0.625514 89:-0.546583 90:-0.790826 91:-0.715659 92:-0.826696 93:-0.84657 94:-0.941845 95:-0.0434315 96:-0.8313 97:-0.736305 98:-0.706676 99:-0.901666 100:-0.679421 101:-0.636613 102:-0.483397 103:-0.662249 104:-0.658356 105:-0.612202 106:-0.818184 107:-0.935328 108:-0.787705 109:-0.841395 110:-0.796372 111:-0.657563 112:-0.891348 113:0.164319 114:-0.914202 115:-0.812043 116:-0.643556 117:-0.75835 118:-0.862467 119:-0.679644 120:-0.579477 121:-0.896988 122:-0.698159 123:-0.687595 124:-0.776704 125:-0.784763 126:-0.828877 127:-0.870344 128:-0.682187 129:-0.391278 130:-0.774716 131:-0.85122 132:-0.276391 133:0.212938 134:-0.637346 135:0.503052 136:0.212938 137:0.47498 138:-0.0372211 139:0.136307 140:0.553416 141:0.366153 142:-0.293769 143:-0.450549 144:-0.450549 145:-0.462366 146:-0.468085 147:-0.468085 148:-0.473684 149:-0.468085 150:-0.52381 151:-0.54717 152:-0.840853 153:-0.959738 154:-0.381818 155:-0.357143 156:-0.392857 157:-0.358492 158:-0.320755 159:-0.333332 160:-0.238094 161:-0.179485 162:-0.351353 163:-0.621622 164:-0.621622 165:-0.828571 166:-0.942857 167:-0.941176 168:-1 169:-1 170:-1 171:-1 172:-1 173:-1 174:-1 175:-1 176:-0.45055 177:-0.45055 178:-0.462366 179:-0.468084 180:-0.468084 181:-0.473685 182:-0.468087 183:-0.523809 184:-0.547169 
4.406992842809177 -0 -3.629311867683158 1:-0.621228 2:-0.437831 3:0.22571 4:-0.585021 5:-0.738151 6:0.576952 7:-0.044178 8:-0.133197 9:-0.738409 10:-0.381818 11:-0.392857 12:-0.464286 13:-0.396226 14:-0.509434 15:-0.458333 16:-0.47619 17:-0.538462 18:-0.513514 19:-0.621622 20:-0.891892 21:-0.885714 22:-0.885714 23:-0.941176 24:-0.941176 25:-1 26:-1 27:-1 28:-1 29:-1 30:-1 31:-1 32:-0.329927 33:-0.469553 34:-0.48539 35:-0.642371 36:-0.529942 37:-0.516052 38:-0.380873 39:-0.722048 40:-0.585848 41:-0.776738 42:-0.911569 43:-0.737553 44:-0.805675 45:-0.887397 46:-0.929009 47:-0.891165 48:-0.742183 49:-0.863073 50:-0.987238 51:-0.876305 52:-0.826165 53:-0.876877 54:-0.776026 55:-0.707153 56:-0.705304 57:-0.63243 58:-0.733137 59:-0.786746 60:-0.875764 61:-0.75884 62:-0.727051 63:-0.947933 64:-0.840357 65:-0.924062 66:-0.904545 67:-0.913974 68:-0.844379 69:-0.953327 70:-0.848619 71:-0.881351 72:-0.875695 73:-0.70236 74:-0.783712 75:-0.747949 76:-0.742679 77:-0.751163 78:-0.947546 79:-0.818866 80:-0.949133 81:-0.839039 82:-0.654936 83:-0.746439 84:-0.890862 85:-0.912535 86:-0.903277 87:-0.912626 88:-0.851584 89:-0.863182 90:-0.825002 91:-0.95196 92:-0.775345 93:-0.961315 94:-0.863529 95:-0.813227 96:-0.71314 97:-0.905125 98:-0.860388 99:-0.909443 100:-0.820304 101:-0.785956 102:-0.942305 103:-0.924558 104:-0.900313 105:-0.697134 106:-0.874629 107:-0.906683 108:-0.842078 109:-0.606013 110:-0.716844 111:-0.875037 112:-0.821498 113:-0.934175 114:-0.903172 115:-0.982288 116:-0.815267 117:-0.909285 118:-0.799726 119:-0.916049 120:-0.962699 121:-0.702608 122:-0.862542 123:-0.822228 124:-0.925941 125:-0.89469 126:-0.941428 127:-0.487834 128:-0.720648 129:-0.787106 130:-0.807117 131:-0.604083 132:-0.135841 133:-0.0047698 134:-0.504241 135:0.320645 136:-0.0047698 137:0.551387 138:-0.140772 139:-0.00526047 140:0.200865 141:0.0258197 142:-0.497355 143:-0.56044 144:-0.56044 145:-0.569892 146:-0.553191 147:-0.553191 148:-0.494737 149:-0.510638 150:-0.561905 151:-0.566038 152:-0.779501 153:-0.950472 154:-0.381818 155:-0.392857 156:-0.464286 157:-0.396227 158:-0.509433 159:-0.458333 160:-0.476191 161:-0.53846 162:-0.513512 163:-0.621622 164:-0.891892 165:-0.885714 166:-0.885714 167:-0.941176 168:-0.941176 169:-1 170:-1 171:-1 172:-1 173:-1 174:-1 175:-1 176:-0.56044 177:-0.56044 178:-0.569894 179:-0.55319 180:-0.55319 181:-0.494739 182:-0.51064 183:-0.561905 184:-0.566037 
4.836277353259445 -0 -6.131262270057393 1:-0.497989 2:-0.291718 3:0.182417 4:-0.47214 5:-0.634578 6:0.536712 7:-0.036823 8:-0.147767 9:-0.619305 10:-0.309091 11:-0.321429 12:-0.357143 13:-0.283019 14:-0.320755 15:-0.25 16:-0.238095 17:-0.282051 18:-0.297297 19:-0.621622 20:-0.72973 21:-0.771429 22:-0.828571 23:-0.823529 24:-0.882353 25:-0.875 26:-1 27:-1 28:-1 29:-1 30:-1 31:-1 32:-0.417696 33:-0.556367 34:-0.551114 35:-0.546277 36:-0.549454 37:-0.43842 38:-0.373545 39:-0.856132 40:-0.525414 41:-0.574833 42:-0.693752 43:-0.601861 44:-0.822677 45:-0.842932 46:-0.720025 47:-0.814471 48:-0.771002 49:-0.875984 50:-0.875075 51:-0.889401 52:-0.628397 53:-0.675935 54:-0.857324 55:-0.761878 56:-0.779727 57:-0.877447 58:-0.62357 59:-0.735905 60:-0.640674 61:-0.759404 62:-0.724824 63:-0.615653 64:-0.335561 65:-0.48466 66:-0.925783 67:-0.860051 68:-0.872922 69:-0.884159 70:-0.948304 71:-0.673836 72:-0.828586 73:-0.874485 74:-0.789457 75:-0.774864 76:-0.903894 77:-0.873535 78:-0.687215 79:-0.980082 80:-0.637795 81:-0.588414 82:-0.843916 83:-0.893419 84:-0.79313 85:-0.87139 86:-0.50291 87:-0.749504 88:-0.712345 89:-0.881509 90:-0.867098 91:-0.874948 92:-0.892421 93:-0.927751 94:-0.921581 95:-0.874892 96:-0.920911 97:-0.817507 98:-0.874147 99:-0.71457 100:-0.813275 101:-0.48208 102:-0.588778 103:-0.617469 104:-0.664154 105:-0.641936 106:-0.775334 107:-0.961776 108:-0.365353 109:-0.949751 110:-0.669853 111:-0.580931 112:-0.760194 113:-0.717314 114:-0.838233 115:-0.792578 116:-0.445396 117:-0.712934 118:-0.629044 119:-0.905386 120:-0.567001 121:-0.758946 122:-0.965872 123:-0.751685 124:-0.882404 125:-0.936664 126:-0.886219 127:-0.769709 128:-0.897639 129:-0.793924 130:-0.863935 131:-0.502528 132:-0.45543 133:-0.443745 134:-0.168921 135:-0.138861 136:-0.443745 137:0.540162 138:-0.118434 139:-0.0799159 140:0.135007 141:-0.0559741 142:-0.398327 143:-0.538462 144:-0.538462 145:-0.548387 146:-0.531915 147:-0.531915 148:-0.515789 149:-0.510638 150:-0.561905 151:-0.566038 152:-0.860379 153:-0.927458 154:-0.30909 155:-0.321429 156:-0.357143 157:-0.283019 158:-0.320755 159:-0.250001 160:-0.238094 161:-0.282051 162:-0.297297 163:-0.621622 164:-0.72973 165:-0.771428 166:-0.828571 167:-0.823529 168:-0.882353 169:-0.875 170:-1 171:-1 172:-1 173:-1 174:-1 175:-1 176:-0.538461 177:-0.538461 178:-0.548387 179:-0.531914 180:-0.531914 181:-0.515791 182:-0.51064 183:-0.561905 184:-0.566037 
3.289530383493699 -0.4206880942224678 -2.263959066445369 1:-0.191484 2:0.0581908 3:0.213829 4:-0.166103 5:-0.406309 6:0.579757 7:0.0183681 8:-0.153451 9:-0.265078 10:-0.0545455 11:-0.107143 12:-0.107143 13:-0.0188679 14:-0.0188679 15:0.0416667 16:0.047619 17:0.128205 18:-0.135135 19:-0.405405 20:-0.405405 21:-0.485714 22:-0.485714 23:-0.588235 24:-0.588235 25:-0.6875 26:-0.733333 27:-0.666667 28:-0.692308 29:-0.666667 30:-0.555556 31:-0.5 32:-0.0903611 33:-0.382327 34:-0.648891 35:-0.866209 36:-0.663517 37:-0.445349 38:-0.450367 39:-0.778578 40:-0.57422 41:-0.22107 42:-0.902614 43:-0.706604 44:-0.674813 45:-0.968936 46:-0.524695 47:-0.712474 48:-0.264106 49:-0.556909 50:-0.52827 51:-0.796295 52:-0.548767 53:-0.573329 54:-0.715629 55:-0.954376 56:-0.729571 57:-0.781503 58:-0.446208 59:-0.610856 60:-0.58981 61:-0.598847 62:-0.43901 63:-0.736997 64:-0.737338 65:-0.538117 66:-0.794981 67:-0.562963 68:-0.847284 69:-0.785096 70:-0.956 71:-0.856619 72:-0.918682 73:-0.763573 74:-0.818621 75:-0.754658 76:-0.54112 77:-0.720733 78:-0.524318 79:-0.589633 80:-0.931375 81:-0.780062 82:-0.604917 83:-0.751529 84:-0.570549 85:0.0471874 86:-0.698471 87:-0.791604 88:-0.769397 89:-0.744839 90:-0.905932 91:-0.839733 92:-0.95036 93:-0.863409 94:-0.974277 95:-0.948107 96:-0.732167 97:-0.627862 98:-0.645236 99:-0.941196 100:-0.741724 101:-0.489214 102:-0.731144 103:-0.635832 104:-0.652868 105:-0.440406 106:-0.951223 107:-0.876068 108:-0.306918 109:-0.745155 110:-0.840916 111:-0.56374 112:-0.47385 113:-0.779017 114:-0.754792 115:-0.724561 116:-0.587358 117:-0.565071 118:-0.0231395 119:-0.724148 120:-0.216032 121:-0.510796 122:-0.513044 123:-0.656974 124:-0.407166 125:-0.856153 126:-0.892879 127:-0.811968 128:-0.570951 129:-0.582423 130:-0.823506 131:-0.0479532 132:-0.997322 133:-0.999099 134:0.458257 135:-0.998298 136:-0.999099 137:0.350921 138:0.0812552 139:-0.3428 140:-0.226796 141:-0.538469 142:-0.566467 143:-0.362637 144:-0.362637 145:-0.333333 146:-0.340426 147:-0.340426 148:-0.347368 149:-0.319149 150:-0.390476 151:-0.377358 152:-0.941844 153:-0.818337 154:-0.0545446 155:-0.107143 156:-0.107143 157:-0.0188683 158:-0.0188688 159:0.0416658 160:0.0476181 161:0.128204 162:-0.135134 163:-0.405406 164:-0.405406 165:-0.485713 166:-0.485713 167:-0.588236 168:-0.588236 169:-0.6875 170:-0.733333 171:-0.666666 172:-0.692308 173:-0.666666 174:-0.555557 175:-0.5 176:-0.362638 177:-0.362638 178:-0.333335 179:-0.340425 180:-0.340425 181:-0.347371 182:-0.319151 183:-0.390475 184:-0.377357 
6.558380629814949 -0 -5.210908084391148 1:-0.426926 2:-0.228572 3:-0.0587344 4:-0.405484 5:-0.458058 6:0.313201 7:-0.123141 8:-0.261483 9:-0.569196 10:-0.163636 11:-0.178571 12:-0.214286 13:-0.132075 14:-0.283019 15:-0.291667 16:-0.238095 17:-0.333333 18:-0.621622 19:-0.621622 20:-0.621622 21:-0.714286 22:-0.714286 23:-0.764706 24:-0.764706 25:-0.8125 26:-0.933333 27:-0.888889 28:-1 29:-1 30:-1 31:-1 32:-0.146481 33:-0.433689 34:-0.845768 35:-0.613534 36:-0.512966 37:-0.780042 38:-0.56923 39:-0.699143 40:-0.584665 41:-0.819926 42:-0.90986 43:-0.681623 44:-0.625077 45:-0.498316 46:-0.772862 47:-0.73079 48:-0.803863 49:-0.904541 50:-0.778338 51:-0.753064 52:-0.606169 53:-0.729483 54:-0.828779 55:-0.593629 56:-0.471485 57:-0.790257 58:-0.470639 59:-0.469717 60:-0.73148 61:-0.87497 62:-0.582522 63:-0.673822 64:-0.70838 65:-0.888133 66:-0.768825 67:-0.850196 68:-0.750725 69:-0.947486 70:-0.765221 71:-0.792025 72:-0.749662 73:-0.438212 74:-0.590411 75:-0.647575 76:-0.617368 77:-0.974669 78:-0.602331 79:-0.869878 80:-0.86043 81:-0.967981 82:-0.6942 83:-0.965353 84:-0.866289 85:-0.828997 86:-0.824158 87:-0.769311 88:-0.861097 89:-0.95776 90:-0.834685 91:-0.906695 92:-0.922756 93:-0.888122 94:-0.933067 95:-0.856605 96:-0.739061 97:-0.702721 98:-0.950125 99:-0.75625 100:-0.831856 101:-0.521555 102:-0.46856 103:-0.331784 104:-0.894254 105:-0.826008 106:-0.620743 107:-0.626646 108:-0.628816 109:-0.457472 110:-0.440609 111:-0.830984 112:-0.546065 113:-0.879485 114:-0.503212 115:-0.768321 116:-0.787165 117:-0.749375 118:-0.747155 119:-0.947275 120:-0.865258 121:-0.834971 122:-0.845536 123:-0.815428 124:-0.857725 125:-0.8145 126:-0.955708 127:-0.56731 128:-0.775711 129:-0.574258 130:-0.914745 131:-0.278039 132:-0.631332 133:-0.699629 134:0.0836659 135:-0.484982 136:-0.699629 137:0.150411 138:0.26262 139:-0.275567 140:-0.0830565 141:-0.406754 142:-0.594978 143:-0.142857 144:-0.142857 145:-0.16129 146:-0.148936 147:-0.148936 148:-0.136842 149:-0.148936 150:-0.238095 151:-0.188679 152:-0.91047 153:-0.888425 154:-0.163636 155:-0.178573 156:-0.214286 157:-0.132076 158:-0.28302 159:-0.291667 160:-0.238094 161:-0.333332 162:-0.621622 163:-0.621622 164:-0.621622 165:-0.714286 166:-0.714286 167:-0.764706 168:-0.764706 169:-0.8125 170:-0.933333 171:-0.888889 172:-1 173:-1 174:-1 175:-1 176:-0.142858 177:-0.142858 178:-0.161292 179:-0.148935 180:-0.148935 181:-0.136845 182:-0.148939 183:-0.238094 184:-0.188678 
9.179025304136411 -0 -11.15823123473505 1:-0.49745 2:-0.317617 3:-0.191997 4:-0.492782 5:-0.460893 6:0.155818 7:-0.167296 8:-0.321953 9:-0.554158 10:-0.272727 11:-0.25 12:-0.285714 13:-0.207547 14:-0.169811 15:-0.208333 16:-0.285714 17:-0.435897 18:-0.72973 19:-0.72973 20:-0.783784 21:-0.771429 22:-0.771429 23:-0.823529 24:-0.882353 25:-0.9375 26:-1 27:-1 28:-1 29:-1 30:-1 31:-1 32:-0.317575 33:-0.511186 34:-0.529794 35:-0.542271 36:-0.65147 37:-0.59258 38:-0.478322 39:-0.556462 40:-0.855963 41:-0.721718 42:-0.904971 43:-0.686033 44:-0.246461 45:-0.567823 46:-0.939344 47:-0.80721 48:-0.858148 49:-0.825431 50:-0.807569 51:-0.711797 52:-0.762199 53:-0.91284 54:-0.947815 55:-0.82032 56:-0.709419 57:-0.935473 58:-0.621629 59:-0.833872 60:-0.907298 61:-0.948533 62:-0.761319 63:-0.708504 64:-0.750451 65:-0.757505 66:-0.894996 67:-0.801871 68:-0.698609 69:-0.709208 70:-0.669741 71:-0.390358 72:-0.621988 73:-0.72072 74:-0.624663 75:-0.739378 76:-0.853554 77:-0.645004 78:-0.729425 79:-0.783248 80:-0.750288 81:-0.604582 82:-0.970841 83:-0.890686 84:-0.899501 85:-0.755104 86:-0.878334 87:-0.845459 88:-0.740454 89:-0.763709 90:-0.927194 91:-0.941815 92:-0.904202 93:-0.814682 94:-0.842288 95:-0.754578 96:-0.830272 97:-0.848918 98:-0.60536 99:-0.669319 100:-0.620882 101:-0.586299 102:-0.964394 103:-0.768481 104:-0.797847 105:-0.718905 106:-0.681661 107:-0.743525 108:-0.78856 109:-0.630948 110:-0.608652 111:-0.68821 112:-0.709101 113:-0.983213 114:-0.602026 115:-0.926264 116:-0.642272 117:-0.590305 118:-0.671422 119:-0.869615 120:-0.749989 121:-0.670261 122:-0.642186 123:-0.767204 124:-0.291152 125:-0.627392 126:-0.587238 127:-0.729859 128:-0.675618 129:-0.563946 130:-0.726364 131:-0.498784 132:-0.669113 133:-0.662816 134:0.0440375 135:-0.430669 136:-0.662816 137:0.27316 138:0.178486 139:-0.269936 140:0.00792261 141:-0.238172 142:-0.334839 143:-0.230769 144:-0.230769 145:-0.247312 146:-0.255319 147:-0.255319 148:-0.263158 149:-0.276596 150:-0.333333 151:-0.358491 152:-0.895399 153:-0.879184 154:-0.272727 155:-0.25 156:-0.285713 157:-0.207546 158:-0.169812 159:-0.208335 160:-0.285715 161:-0.435898 162:-0.72973 163:-0.72973 164:-0.783784 165:-0.771428 166:-0.771428 167:-0.823529 168:-0.882353 169:-0.9375 170:-1 171:-1 172:-1 173:-1 174:-1 175:-1 176:-0.230769 177:-0.230769 178:-0.247313 179:-0.255318 180:-0.255318 181:-0.26316 182:-0.276597 183:-0.333332 184:-0.35849 
24.06352876799088 -10.72405919470455 -6.861510313690073 1:-0.663421 2:-0.404939 3:-0.22933 4:-0.644223 5:-0.609084 6:0.0934911 7:-0.167798 8:-0.309769 9:-0.410579 10:-0.6 11:-0.571429 12:-0.571429 13:-0.54717 14:-0.471698 15:-0.583333 16:-0.619048 17:-0.692308 18:-0.72973 19:-0.783784 20:-0.783784 21:-0.771429 22:-0.828571 23:-0.823529 24:-0.823529 25:-0.8125 26:-0.866667 27:-1 28:-1 29:-1 30:-1 31:-1 32:-0.717301 33:-0.442089 34:-0.430981 35:-0.445573 36:-0.481492 37:-0.851815 38:-0.663737 39:-0.941938 40:-0.766184 41:-0.746722 42:-0.914795 43:-0.881016 44:-0.884927 45:-0.806817 46:-0.913963 47:-0.972862 48:-0.95853 49:-0.977768 50:-0.94266 51:-0.975044 52:-0.84591 53:-0.979593 54:-0.904397 55:-0.796042 56:-0.92965 57:-0.942966 58:-0.929582 59:-0.856588 60:-0.695432 61:-0.819385 62:-0.815503 63:-0.923309 64:-0.829383 65:-0.946032 66:-0.958688 67:-0.942957 68:-0.900021 69:-0.970745 70:-0.979523 71:-0.885054 72:-0.918286 73:-0.912882 74:-0.698595 75:-0.921095 76:-0.932105 77:-0.935772 78:-0.866623 79:-0.879432 80:-0.810999 81:-0.854655 82:-0.869808 83:-0.855491 84:-0.89298 85:-0.941851 86:-0.985921 87:-0.956432 88:-0.974179 89:-0.96185 90:-0.962239 91:-0.920381 92:-0.998167 93:-0.920612 94:-0.92495 95:-0.895149 96:-0.929735 97:-0.859322 98:-0.921383 99:-0.918396 100:-0.874706 101:-0.907585 102:-0.801987 103:-0.635726 104:-0.857402 105:-0.813508 106:-0.942364 107:-0.963335 108:-0.929961 109:-0.850707 110:-0.93639 111:-0.915335 112:-0.787708 113:-0.910384 114:-0.901261 115:-0.943272 116:-0.921759 117:-0.889455 118:-0.960158 119:-0.961103 120:-0.838447 121:-0.831811 122:-0.902385 123:-0.829317 124:-0.826975 125:-0.948984 126:-0.841108 127:-0.850779 128:-0.958004 129:-0.869385 130:-0.881129 131:-0.157777 132:-0.511199 133:-0.640956 134:0.0210601 135:-0.399195 136:-0.640956 137:0.456373 138:-0.0330028 139:-0.372067 140:-0.104442 141:-0.283746 142:-0.228323 143:-0.450549 144:-0.450549 145:-0.462366 146:-0.446809 147:-0.446809 148:-0.452632 149:-0.468085 150:-0.485714 151:-0.490566 152:-0.813318 153:-0.812711 154:-0.600001 155:-0.571429 156:-0.571429 157:-0.54717 158:-0.471698 159:-0.583333 160:-0.619049 161:-0.692308 162:-0.72973 163:-0.783784 164:-0.783784 165:-0.771428 166:-0.828571 167:-0.823529 168:-0.823529 169:-0.8125 170:-0.866667 171:-1 172:-1 173:-1 174:-1 175:-1 176:-0.45055 177:-0.45055 178:-0.462366 179:-0.446808 180:-0.446808 181:-0.452633 182:-0.468087 183:-0.485713 184:-0.490565 
0.0751709893828162 -0 -0 1:-0.704149 2:-0.485945 3:-0.407454 4:-0.684869 5:-0.540788 6:-0.0924209 7:-0.288285 8:-0.393978 9:-0.527449 10:-0.6 11:-0.571429 12:-0.571429 13:-0.584906 14:-0.509434 15:-0.541667 16:-0.52381 17:-0.692308 18:-0.72973 19:-0.783784 20:-0.783784 21:-0.828571 22:-0.828571 23:-0.941176 24:-0.941176 25:-0.9375 26:-1 27:-1 28:-1 29:-1 30:-1 31:-1 32:-0.4867 33:-0.283562 34:-0.538032 35:-0.572497 36:-0.438711 37:-0.538739 38:-0.875949 39:-0.684372 40:-0.59794 41:-0.763282 42:-0.951304 43:-0.954677 44:-0.897877 45:-0.861984 46:-0.808749 47:-0.992154 48:-0.909874 49:-0.931949 50:-0.963157 51:-0.946502 52:-0.925617 53:-0.97824 54:-0.905615 55:-0.915064 56:-0.866616 57:-0.965334 58:-0.610796 59:-0.86577 60:-0.56312 61:-0.686169 62:-0.942516 63:-0.735288 64:-0.940518 65:-0.863793 66:-0.927584 67:-0.947229 68:-0.998225 69:-0.886187 70:-0.947265 71:-0.874796 72:-0.853032 73:-0.880946 74:-0.916771 75:-0.946741 76:-0.852571 77:-0.867234 78:-0.865282 79:-0.831293 80:-0.814383 81:-0.916602 82:-0.89049 83:-0.805403 84:-0.887445 85:-0.937243 86:-0.883824 87:-0.951338 88:-0.881329 89:-0.906837 90:-0.924742 91:-0.926871 92:-0.915487 93:-0.912917 94:-0.941791 95:-0.972663 96:-0.856168 97:-0.836498 98:-0.854126 99:-0.845693 100:-0.882115 101:-0.907059 102:-0.847022 103:-0.986706 104:-0.754439 105:-0.983429 106:-0.833821 107:-0.871333 108:-0.847548 109:-0.976447 110:-0.962338 111:-0.889192 112:-0.821313 113:-0.907543 114:-0.874733 115:-0.930992 116:-0.894665 117:-0.748932 118:-0.703154 119:-0.948297 120:-0.815899 121:-0.895367 122:-0.950267 123:-0.953409 124:-0.768404 125:-0.84118 126:-0.919747 127:-0.804498 128:-0.920455 129:-0.88734 130:-0.908545 131:-0.421881 132:-0.64637 133:-0.66858 134:0.0501548 135:-0.439062 136:-0.66858 137:0.680993 138:-0.300324 139:-0.381292 140:-0.0958659 141:-0.250928 142:-0.232595 143:-0.67033 144:-0.67033 145:-0.677419 146:-0.680851 147:-0.680851 148:-0.663158 149:-0.680851 150:-0.67619 151:-0.698113 152:-0.818819 153:-0.803273 154:-0.600001 155:-0.571429 156:-0.571429 157:-0.584905 158:-0.509433 159:-0.541667 160:-0.523809 161:-0.692308 162:-0.72973 163:-0.783784 164:-0.783784 165:-0.828571 166:-0.828571 167:-0.941176 168:-0.941176 169:-0.9375 170:-1 171:-1 172:-1 173:-1 174:-1 175:-1 176:-0.67033 177:-0.67033 178:-0.67742 179:-0.680851 180:-0.680851 181:-0.663159 182:-0.680852 183:-0.67619 184:-0.698113 
7.718084127047128 -0 -0 1:-0.762944 2:-0.536234 3:-0.38131 4:-0.737432 5:-0.634011 6:-0.0632094 7:-0.278462 8:-0.367505 9:-0.405687 10:-0.745455 11:-0.714286 12:-0.714286 13:-0.698113 14:-0.660377 15:-0.625 16:-0.619048 17:-0.641026 18:-0.783784 19:-0.783784 20:-0.783784 21:-0.828571 22:-0.885714 23:-0.941176 24:-0.941176 25:-0.9375 26:-0.933333 27:-1 28:-1 29:-1 30:-1 31:-1 32:-0.333503 33:-0.450221 34:-0.755155 35:-0.239235 36:-0.615094 37:-0.537895 38:-0.832142 39:-0.917453 40:-0.904903 41:-0.891295 42:-0.968303 43:-0.948739 44:-0.906463 45:-0.983642 46:-0.913703 47:-0.960083 48:-0.905162 49:-0.925802 50:-0.986654 51:-0.923996 52:-0.920097 53:-0.92437 54:-0.924051 55:-0.825231 56:-0.886241 57:-0.789004 58:-0.863789 59:-0.864252 60:-0.912213 61:-0.953218 62:-0.900221 63:-0.978858 64:-0.904574 65:-0.91603 66:-0.924807 67:-0.738226 68:-0.883933 69:-0.937036 70:-0.940817 71:-0.870707 72:-0.897548 73:-0.959141 74:-0.934593 75:-0.95515 76:-0.876025 77:-0.88818 78:-0.866707 79:-0.934823 80:-0.891011 81:-0.893592 82:-0.94327 83:-0.896853 84:-0.878634 85:-0.885297 86:-0.953229 87:-0.965629 88:-0.895805 89:-0.879299 90:-0.988357 91:-0.989041 92:-0.994876 93:-0.98771 94:-0.978127 95:-0.957485 96:-0.990181 97:-0.894779 98:-0.852923 99:-0.870661 100:-0.858782 101:-0.846042 102:-0.907194 103:-0.832168 104:-0.93994 105:-0.870083 106:-0.914917 107:-0.877694 108:-0.958136 109:-0.851663 110:-0.9553 111:-0.958706 112:-0.805555 113:-0.93111 114:-0.869985 115:-0.944371 116:-0.900656 117:-0.828044 118:-0.914089 119:-0.907891 120:-0.976128 121:-0.837143 122:-0.89465 123:-0.909166 124:-0.953853 125:-0.937642 126:-0.894438 127:-0.957863 128:-0.920951 129:-0.873681 130:-0.894153 131:-0.331656 132:-0.462513 133:-0.539836 134:-0.0800403 135:-0.260652 136:-0.539836 137:0.759059 138:-0.43751 139:-0.421733 140:-0.18039 141:-0.283572 142:-0.151789 143:-0.758242 144:-0.758242 145:-0.763441 146:-0.765957 147:-0.765957 148:-0.747368 149:-0.765957 150:-0.790476 151:-0.792453 152:-0.75013 153:-0.729412 154:-0.745455 155:-0.714286 156:-0.714286 157:-0.698113 158:-0.660376 159:-0.624999 160:-0.619049 161:-0.641026 162:-0.783784 163:-0.783784 164:-0.783784 165:-0.828571 166:-0.885714 167:-0.941176 168:-0.941176 169:-0.9375 170:-0.933333 171:-1 172:-1 173:-1 174:-1 175:-1 176:-0.758242 177:-0.758242 178:-0.763441 179:-0.765957 180:-0.765957 181:-0.747369 182:-0.765958 183:-0.790476 184:-0.792453 
15.22898423999434 -6.068664387978779 -0 1:-0.714174 2:-0.410807 3:-0.498929 4:-0.715878 5:-0.507862 6:-0.231654 7:-0.296853 8:-0.401155 9:-0.509971 10:-0.745455 11:-0.714286 12:-0.714286 13:-0.660377 14:-0.584906 15:-0.583333 16:-0.666667 17:-0.692308 18:-0.675676 19:-0.72973 20:-0.72973 21:-0.771429 22:-0.828571 23:-0.823529 24:-0.823529 25:-0.8125 26:-0.933333 27:-0.888889 28:-0.846154 29:-0.833333 30:-1 31:-1 32:-0.404347 33:-0.450971 34:-0.554153 35:-0.769546 36:-0.677759 37:-0.84473 38:-0.793096 39:-0.935827 40:-0.939211 41:-0.974416 42:-0.963403 43:-0.915887 44:-0.979528 45:-0.938156 46:-0.956159 47:-0.92931 48:-0.95004 49:-0.990127 50:-0.963519 51:-0.941375 52:-0.978785 53:-0.975117 54:-0.932188 55:-0.97478 56:-0.958896 57:-0.977564 58:-0.882055 59:-0.922259 60:-0.746662 61:-0.962759 62:-0.953175 63:-0.968455 64:-0.925933 65:-0.963565 66:-0.957559 67:-0.97869 68:-0.971207 69:-0.884796 70:-0.94721 71:-0.940098 72:-0.959049 73:-0.933744 74:-0.950352 75:-0.910667 76:-0.962846 77:-0.956755 78:-0.93242 79:-0.979842 80:-0.988867 81:-0.881644 82:-0.963426 83:-0.974703 84:-0.966005 85:-0.941701 86:-0.922691 87:-0.963045 88:-0.943946 89:-0.982291 90:-0.958365 91:-0.948544 92:-0.994167 93:-0.976753 94:-0.980265 95:-0.897382 96:-0.888812 97:-0.954978 98:-0.971706 99:-0.987802 100:-0.961461 101:-0.993443 102:-0.930562 103:-0.938115 104:-0.935478 105:-0.915102 106:-0.891497 107:-0.885066 108:-0.972488 109:-0.984652 110:-0.920139 111:-0.941974 112:-0.882205 113:-0.913764 114:-0.868014 115:-0.986823 116:-0.918504 117:-0.955942 118:-0.894809 119:-0.967081 120:-0.963673 121:-0.939706 122:-0.908213 123:-0.955988 124:-0.971258 125:-0.973027 126:-0.975441 127:-0.955558 128:-0.923515 129:-0.910577 130:-0.98205 131:0.00608192 132:0.227074 133:-0.203866 134:-0.36484 135:0.129634 136:-0.203866 137:0.766965 138:-0.454726 139:-0.636038 140:-0.428011 141:-0.690696 142:-0.770115 143:-0.78022 144:-0.758242 145:-0.763441 146:-0.765957 147:-0.765957 148:-0.768421 149:-0.787234 150:-0.809524 151:-0.830189 152:-0.814169 153:-0.612248 154:-0.745455 155:-0.714286 156:-0.714286 157:-0.660378 158:-0.584906 159:-0.583333 160:-0.666667 161:-0.692308 162:-0.675676 163:-0.72973 164:-0.72973 165:-0.771428 166:-0.828571 167:-0.823529 168:-0.823529 169:-0.8125 170:-0.933333 171:-0.888889 172:-0.846154 173:-0.833333 174:-1 175:-1 176:-0.780221 177:-0.758242 178:-0.763441 179:-0.765957 180:-0.765957 181:-0.768421 182:-0.787234 183:-0.809523 184:-0.830188 
0.1955789827946119 -0 -6.549078827497326 1:-0.749792 2:-0.572573 3:-0.619601 4:-0.753763 5:-0.441109 6:-0.349728 7:-0.446053 8:-0.534964 9:-0.707947 10:-0.709091 11:-0.678571 12:-0.678571 13:-0.660377 14:-0.584906 15:-0.583333 16:-0.571429 17:-0.641026 18:-0.675676 19:-0.837838 20:-0.837838 21:-0.942857 22:-0.942857 23:-1 24:-1 25:-1 26:-1 27:-1 28:-1 29:-1 30:-1 31:-1 32:-0.489505 33:-0.663236 34:-0.566824 35:-0.241506 36:-0.63197 37:-0.634914 38:-0.610194 39:-0.924781 40:-0.881163 41:-0.879567 42:-0.965269 43:-0.954867 44:-0.955948 45:-0.896603 46:-0.867471 47:-0.930511 48:-0.97278 49:-0.978492 50:-0.962401 51:-0.975974 52:-0.777855 53:-0.905479 54:-0.966305 55:-0.911138 56:-0.941775 57:-0.803668 58:-0.773452 59:-0.780736 60:-0.945178 61:-0.928525 62:-0.895552 63:-0.900291 64:-0.924229 65:-0.875388 66:-0.903962 67:-0.979095 68:-0.93574 69:-0.935845 70:-0.969432 71:-0.870885 72:-0.912192 73:-0.901355 74:-0.911787 75:-0.974849 76:-0.828349 77:-0.810384 78:-0.878823 79:-0.916508 80:-0.952818 81:-0.907479 82:-0.910107 83:-0.833777 84:-0.976935 85:-0.988427 86:-0.929352 87:-0.950183 88:-0.94061 89:-0.92928 90:-0.96552 91:-0.911862 92:-0.948392 93:-0.917806 94:-0.951951 95:-0.8732 96:-0.945891 97:-0.905686 98:-0.945326 99:-0.938966 100:-0.963671 101:-0.948046 102:-0.936203 103:-0.914729 104:-0.748291 105:-0.918283 106:-0.793538 107:-0.931334 108:-0.952269 109:-0.808844 110:-0.872322 111:-0.877824 112:-0.902973 113:-0.961379 114:-0.898686 115:-0.83799 116:-0.873176 117:-0.849485 118:-0.996574 119:-0.913487 120:-0.919889 121:-0.890314 122:-0.86103 123:-0.933662 124:-0.915641 125:-0.875499 126:-0.931731 127:-0.728029 128:-0.923686 129:-0.986453 130:-0.813722 131:-0.508968 132:-0.354156 133:-0.335778 134:-0.261338 135:-0.0121988 136:-0.335778 137:0.683497 138:-0.342563 139:-0.377423 140:-0.0298377 141:-0.177959 142:-0.221411 143:-0.692308 144:-0.692308 145:-0.698925 146:-0.702128 147:-0.702128 148:-0.705263 149:-0.723404 150:-0.752381 151:-0.754717 152:-0.813596 153:-0.83232 154:-0.709092 155:-0.678573 156:-0.678573 157:-0.660378 158:-0.584906 159:-0.583333 160:-0.571427 161:-0.641026 162:-0.675676 163:-0.837838 164:-0.837838 165:-0.942857 166:-0.942857 167:-1 168:-1 169:-1 170:-1 171:-1 172:-1 173:-1 174:-1 175:-1 176:-0.692307 177:-0.692307 178:-0.698925 179:-0.702127 180:-0.702127 181:-0.705263 182:-0.723405 183:-0.75238 184:-0.754717 
9.083824746429396 -0 -6.00167567264174 1:-0.73 2:-0.559956 3:-0.563249 4:-0.708578 5:-0.425766 6:-0.292026 7:-0.381271 8:-0.509804 9:-0.567522 10:-0.672727 11:-0.642857 12:-0.642857 13:-0.584906 14:-0.584906 15:-0.625 16:-0.619048 17:-0.641026 18:-0.675676 19:-0.783784 20:-0.945946 21:-0.942857 22:-0.942857 23:-0.941176 24:-1 25:-1 26:-1 27:-1 28:-1 29:-1 30:-1 31:-1 32:-0.478027 33:-0.679732 34:-0.750545 35:-0.345253 36:-0.536811 37:-0.58142 38:-0.917734 39:-0.747632 40:-0.813672 41:-0.794803 42:-0.977064 43:-0.843304 44:-0.9583 45:-0.972212 46:-0.854104 47:-0.927243 48:-0.909563 49:-0.935497 50:-0.944228 51:-0.941922 52:-0.902007 53:-0.911152 54:-0.840672 55:-0.92465 56:-0.993173 57:-0.959115 58:-0.804421 59:-0.937989 60:-0.892402 61:-0.930675 62:-0.948595 63:-0.916134 64:-0.936718 65:-0.728528 66:-0.891968 67:-0.805213 68:-0.856389 69:-0.799579 70:-0.911247 71:-0.987435 72:-0.966159 73:-0.942248 74:-0.974933 75:-0.919071 76:-0.828581 77:-0.836915 78:-0.966914 79:-0.948832 80:-0.930383 81:-0.943939 82:-0.820889 83:-0.957805 84:-0.951628 85:-0.821941 86:-0.931425 87:-0.948008 88:-0.850337 89:-0.965611 90:-0.970985 91:-0.867401 92:-0.966758 93:-0.919027 94:-0.962908 95:-0.892038 96:-0.927777 97:-0.819446 98:-0.928841 99:-0.942656 100:-0.950566 101:-0.880638 102:-0.898456 103:-0.921768 104:-0.927251 105:-0.758461 106:-0.817584 107:-0.89464 108:-0.861279 109:-0.899606 110:-0.888273 111:-0.890414 112:-0.880022 113:-0.828074 114:-0.850607 115:-0.866473 116:-0.915434 117:-0.79462 118:-0.890897 119:-0.938392 120:-0.947861 121:-0.877806 122:-0.985502 123:-0.867778 124:-0.777078 125:-0.89069 126:-0.906683 127:-0.919793 128:-0.930556 129:-0.913366 130:-0.927109 131:-0.351402 132:-0.495798 133:-0.560057 134:-0.0604648 135:-0.287465 136:-0.560057 137:0.688637 138:-0.367487 139:-0.412618 140:-0.0632635 141:-0.234269 142:-0.108068 143:-0.714286 144:-0.714286 145:-0.72043 146:-0.723404 147:-0.723404 148:-0.705263 149:-0.723404 150:-0.733333 151:-0.754717 152:-0.840196 153:-0.805485 154:-0.672727 155:-0.642857 156:-0.642857 157:-0.584905 158:-0.584906 159:-0.624999 160:-0.619049 161:-0.641026 162:-0.675676 163:-0.783784 164:-0.945946 165:-0.942857 166:-0.942857 167:-0.941176 168:-1 169:-1 170:-1 171:-1 172:-1 173:-1 174:-1 175:-1 176:-0.714286 177:-0.714286 178:-0.720431 179:-0.723404 180:-0.723404 181:-0.705263 182:-0.723405 183:-0.733333 184:-0.754717 
9.578392627564959 -0 -8.384126728061611 1:-0.742375 2:-0.547084 3:-0.597353 4:-0.746563 5:-0.455182 6:-0.334438 7:-0.409368 8:-0.52586 9:-0.445053 10:-0.672727 11:-0.642857 12:-0.678571 13:-0.622642 14:-0.622642 15:-0.666667 16:-0.666667 17:-0.692308 18:-0.72973 19:-0.783784 20:-0.837838 21:-0.828571 22:-0.828571 23:-0.941176 24:-1 25:-1 26:-1 27:-1 28:-1 29:-1 30:-1 31:-1 32:-0.434181 33:-0.359168 34:-0.766975 35:-0.69441 36:-0.677812 37:-0.843694 38:-0.835673 39:-0.864567 40:-0.912744 41:-0.915738 42:-0.949189 43:-0.956164 44:-0.975435 45:-0.974988 46:-0.986326 47:-0.95828 48:-0.959774 49:-0.978085 50:-0.956875 51:-0.978356 52:-0.857548 53:-0.957248 54:-0.970928 55:-0.936588 56:-0.970053 57:-0.911818 58:-0.947096 59:-0.982674 60:-0.930641 61:-0.964875 62:-0.981271 63:-0.829129 64:-0.919477 65:-0.94116 66:-0.930666 67:-0.955429 68:-0.972918 69:-0.954729 70:-0.958036 71:-0.923609 72:-0.956289 73:-0.982593 74:-0.949314 75:-0.909374 76:-0.976526 77:-0.907149 78:-0.943113 79:-0.938349 80:-0.923379 81:-0.967469 82:-0.923796 83:-0.980581 84:-0.970077 85:-0.941768 86:-0.996896 87:-0.957595 88:-0.959798 89:-0.917527 90:-0.944307 91:-0.927378 92:-0.995049 93:-0.959068 94:-0.956722 95:-0.98195 96:-0.951194 97:-0.947438 98:-0.927711 99:-0.963114 100:-0.938374 101:-0.916055 102:-0.927578 103:-0.912749 104:-0.984896 105:-0.930883 106:-0.794959 107:-0.912246 108:-0.920527 109:-0.820539 110:-0.968053 111:-0.932457 112:-0.9795 113:-0.981575 114:-0.946844 115:-0.922016 116:-0.866124 117:-0.85462 118:-0.937494 119:-0.954415 120:-0.956217 121:-0.946155 122:-0.929354 123:-0.938761 124:-0.911129 125:-0.883871 126:-0.959579 127:-0.916929 128:-0.978459 129:-0.981624 130:-0.961678 131:-0.189477 132:0.297781 133:-0.0207794 134:-0.493707 135:0.306206 136:-0.0207794 137:0.670962 138:-0.334393 139:-0.633485 140:-0.455269 141:-0.678729 142:-0.591539 143:-0.714286 144:-0.692308 145:-0.677419 146:-0.680851 147:-0.680851 148:-0.684211 149:-0.702128 150:-0.695238 151:-0.622642 152:-0.813621 153:-0.548488 154:-0.672727 155:-0.642857 156:-0.678573 157:-0.622643 158:-0.622641 159:-0.666668 160:-0.666667 161:-0.692308 162:-0.72973 163:-0.783784 164:-0.837838 165:-0.828571 166:-0.828571 167:-0.941176 168:-1 169:-1 170:-1 171:-1 172:-1 173:-1 174:-1 175:-1 176:-0.714286 177:-0.692307 178:-0.67742 179:-0.680851 180:-0.680851 181:-0.684211 182:-0.702128 183:-0.695238 184:-0.622641 
7.48601850931757 -0 -7.404196600936909 1:-0.822192 2:-0.763581 3:-0.725582 4:-0.813517 5:-0.417751 6:-0.430267 7:-0.641382 8:-0.641731 9:-0.999734 10:-0.527273 11:-0.535714 12:-0.607143 13:-0.660377 14:-0.924528 15:-0.916667 16:-0.904762 17:-0.897436 18:-0.891892 19:-0.891892 20:-1 21:-1 22:-1 23:-1 24:-1 25:-1 26:-1 27:-1 28:-1 29:-1 30:-1 31:-1 32:0.0130186 33:-0.688565 34:-0.344333 35:-0.234281 36:-0.678758 37:-0.594933 38:-0.974281 39:-0.882692 40:-0.802201 41:-0.482489 42:-0.794811 43:-0.947377 44:-0.891446 45:-0.921181 46:-0.756627 47:-0.920469 48:-0.917855 49:-0.929638 50:-0.943142 51:-0.937894 52:-0.782811 53:-0.897598 54:-0.899002 55:-0.860982 56:-0.88256 57:-0.875044 58:-0.82492 59:-0.917537 60:-0.81408 61:-0.832869 62:-0.817832 63:-0.692601 64:-0.70209 65:-0.814724 66:-0.860706 67:-0.770667 68:-0.906131 69:-0.792711 70:-0.91631 71:-0.839603 72:-0.910713 73:-0.860765 74:-0.914514 75:-0.98767 76:-0.829289 77:-0.900985 78:-0.863221 79:-0.937748 80:-0.933619 81:-0.901834 82:-0.8188 83:-0.977438 84:-0.916968 85:-0.781529 86:-0.701083 87:-0.888917 88:-0.773838 89:-0.975705 90:-0.961866 91:-0.920733 92:-0.93988 93:-0.914517 94:-0.935144 95:-0.961061 96:-0.89041 97:-0.743623 98:-0.917312 99:-0.846589 100:-0.890215 101:-0.988782 102:-0.905392 103:-0.979445 104:-0.791168 105:-0.89314 106:-0.907038 107:-0.716704 108:-0.680748 109:-0.758976 110:-0.754361 111:-0.914268 112:-0.879417 113:-0.959239 114:-0.92649 115:-0.895261 116:-0.835238 117:-0.933554 118:-0.935465 119:-0.920393 120:-0.842209 121:-0.901813 122:-0.873663 123:-0.917244 124:-0.653784 125:-0.89188 126:-0.702058 127:-0.872747 128:-0.785768 129:-0.753349 130:-0.79787 131:-0.901482 132:-0.475556 133:-0.0294886 134:-0.487918 135:0.298285 136:-0.0294886 137:0.599811 138:-0.216862 139:-0.179297 140:0.0457063 141:-0.0202597 142:-0.45879 143:-0.604396 144:-0.604396 145:-0.612903 146:-0.617021 147:-0.617021 148:-0.6 149:-0.617021 150:-0.619048 151:-0.641509 152:-0.78019 153:-0.859759 154:-0.527273 155:-0.535713 156:-0.607143 157:-0.660378 158:-0.924528 159:-0.916667 160:-0.904762 161:-0.897436 162:-0.891892 163:-0.891892 164:-1 165:-1 166:-1 167:-1 168:-1 169:-1 170:-1 171:-1 172:-1 173:-1 174:-1 175:-1 176:-0.604396 177:-0.604396 178:-0.612904 179:-0.61702 180:-0.61702 181:-0.600001 182:-0.617023 183:-0.619046 184:-0.641509 
3.127826892422626 -0 -2.832124561352499 1:-0.8165 2:-0.655771 3:-0.695378 4:-0.807078 5:-0.450279 6:-0.403505 7:-0.579033 8:-0.595621 9:-0.891748 10:-0.672727 11:-0.678571 12:-0.678571 13:-0.660377 14:-0.849057 15:-0.833333 16:-0.809524 17:-0.794872 18:-0.783784 19:-0.837838 20:-0.891892 21:-0.885714 22:-0.885714 23:-0.941176 24:-1 25:-1 26:-1 27:-1 28:-1 29:-1 30:-1 31:-1 32:-0.612992 33:-0.868509 34:-0.193678 35:-0.214022 36:-0.947182 37:-0.756348 38:-0.890231 39:-0.949649 40:-0.939972 41:-0.723545 42:-0.901427 43:-0.790789 44:-0.919581 45:-0.984866 46:-0.898889 47:-0.980445 48:-0.880721 49:-0.95594 50:-0.975133 51:-0.96773 52:-0.997131 53:-0.959886 54:-0.985695 55:-0.913943 56:-0.938027 57:-0.801005 58:-0.919481 59:-0.943095 60:-0.991743 61:-0.914282 62:-0.937774 63:-0.891556 64:-0.928204 65:-0.803591 66:-0.951555 67:-0.798043 68:-0.79208 69:-0.926964 70:-0.977145 71:-0.884338 72:-0.917087 73:-0.9258 74:-0.918242 75:-0.950696 76:-0.965286 77:-1 78:-0.920715 79:-0.969373 80:-0.898514 81:-0.899616 82:-0.975729 83:-0.927933 84:-0.959287 85:-0.915952 86:-0.969725 87:-0.908354 88:-0.98266 89:-0.913046 90:-0.906131 91:-0.882843 92:-0.89674 93:-0.923944 94:-0.976099 95:-0.9205 96:-0.967766 97:-0.902653 98:-0.940151 99:-0.952964 100:-0.948585 101:-0.904572 102:-0.934474 103:-0.898882 104:-0.932627 105:-0.864825 106:-0.945414 107:-0.929176 108:-0.997589 109:-0.940908 110:-0.91465 111:-0.926932 112:-0.902086 113:-0.902609 114:-0.775924 115:-0.863763 116:-0.853222 117:-0.86041 118:-0.82346 119:-0.938563 120:-0.937722 121:-0.926376 122:-0.905964 123:-0.917619 124:-0.986937 125:-0.971373 126:-0.892743 127:-0.84652 128:-0.938266 129:-0.962247 130:-0.961491 131:-0.599395 132:-0.408802 133:-0.322358 134:-0.272334 135:0.00285138 136:-0.322358 137:0.739536 138:-0.402999 139:-0.470916 140:-0.332868 141:-0.328329 142:-0.59985 143:-0.736264 144:-0.736264 145:-0.741935 146:-0.744681 147:-0.744681 148:-0.726316 149:-0.744681 150:-0.752381 151:-0.773585 152:-0.774551 153:-0.712378 154:-0.672727 155:-0.678573 156:-0.678573 157:-0.660378 158:-0.849056 159:-0.833333 160:-0.809524 161:-0.794872 162:-0.783784 163:-0.837838 164:-0.891892 165:-0.885714 166:-0.885714 167:-0.941176 168:-1 169:-1 170:-1 171:-1 172:-1 173:-1 174:-1 175:-1 176:-0.736264 177:-0.736264 178:-0.741936 179:-0.744681 180:-0.744681 181:-0.726317 182:-0.744682 183:-0.75238 184:-0.773584 
0.9970404041230244 -0 -0 1:-0.860958 2:-0.704457 3:-0.707692 4:-0.866268 5:-0.57351 6:-0.433751 7:-0.580562 8:-0.584089 9:-0.872001 10:-0.781818 11:-0.75 12:-0.785714 13:-0.811321 14:-0.849057 15:-0.833333 16:-0.809524 17:-0.794872 18:-0.837838 19:-0.891892 20:-0.891892 21:-0.885714 22:-0.942857 23:-0.941176 24:-1 25:-1 26:-1 27:-1 28:-1 29:-1 30:-1 31:-1 32:-0.513949 33:-0.305169 34:0.0745432 35:-0.872606 36:-0.79046 37:-0.831884 38:-0.89395 39:-0.827366 40:-0.92293 41:-0.882695 42:-0.959265 43:-0.923258 44:-0.986736 45:-0.912428 46:-0.957605 47:-0.998258 48:-0.968742 49:-0.95655 50:-0.977528 51:-0.967909 52:-0.88143 53:-0.966732 54:-0.966628 55:-0.972448 56:-0.979731 57:-0.847049 58:-0.92707 59:-0.775738 60:-0.816433 61:-0.957676 62:-0.908885 63:-0.942004 64:-0.938234 65:-0.943482 66:-0.936624 67:-0.970483 68:-0.981925 69:-0.965147 70:-0.910401 71:-0.986118 72:-0.950798 73:-0.936636 74:-0.971769 75:-0.926956 76:-0.957613 77:-0.840769 78:-0.97149 79:-0.984552 80:-0.983545 81:-0.945672 82:-0.905015 83:-0.870462 84:-0.903016 85:-0.950862 86:-0.971807 87:-0.981361 88:-0.935113 89:-0.901446 90:-0.984372 91:-0.988778 92:-0.992476 93:-0.98771 94:-0.990034 95:-0.894651 96:-0.972436 97:-0.96979 98:-0.93139 99:-0.972225 100:-0.859287 101:-0.927969 102:-0.878602 103:-0.942157 104:-0.893514 105:-0.887486 106:-0.859586 107:-0.915873 108:-0.892424 109:-0.936511 110:-0.953836 111:-0.942003 112:-0.940873 113:-0.95645 114:-0.904563 115:-0.935685 116:-0.948696 117:-0.911735 118:-0.930781 119:-0.95445 120:-0.859218 121:-0.929274 122:-0.890227 123:-0.951053 124:-0.928258 125:-0.940925 126:-0.906431 127:-0.976329 128:-0.953143 129:-0.936834 130:-0.93774 131:-0.697657 132:-0.357661 133:-0.159933 134:-0.397247 135:0.174024 136:-0.159933 137:0.710257 138:-0.345639 139:-0.483299 140:-0.322234 141:-0.293837 142:-0.548256 143:-0.692308 144:-0.692308 145:-0.698925 146:-0.702128 147:-0.702128 148:-0.705263 149:-0.723404 150:-0.752381 151:-0.773585 152:-0.650113 153:-0.683303 154:-0.781818 155:-0.75 156:-0.785713 157:-0.811321 158:-0.849056 159:-0.833333 160:-0.809524 161:-0.794872 162:-0.837838 163:-0.891892 164:-0.891892 165:-0.885714 166:-0.942857 167:-0.941176 168:-1 169:-1 170:-1 171:-1 172:-1 173:-1 174:-1 175:-1 176:-0.692307 177:-0.692307 178:-0.698925 179:-0.702127 180:-0.702127 181:-0.705263 182:-0.723405 183:-0.75238 184:-0.773584 
29.27252087233454 -0 -40.61013224747013 1:-0.8961 2:-0.745713 3:-0.757284 4:-0.886541 5:-0.55748 6:-0.50652 7:-0.627528 8:-0.604943 9:-0.907567 10:-0.818182 11:-0.821429 12:-0.892857 13:-0.849057 14:-0.849057 15:-0.833333 16:-0.809524 17:-0.846154 18:-0.891892 19:-0.891892 20:-0.891892 21:-0.942857 22:-0.942857 23:-1 24:-1 25:-1 26:-1 27:-1 28:-1 29:-1 30:-1 31:-1 32:-0.603876 33:-0.11839 34:-0.240828 35:-0.897761 36:-0.750746 37:-0.794139 38:-0.920496 39:-0.896066 40:-0.950362 41:-0.950361 42:-0.977702 43:-0.8976 44:-0.929835 45:-0.916708 46:-0.954955 47:-0.951491 48:-0.950957 49:-0.962145 50:-0.974843 51:-0.975772 52:-0.890982 53:-0.98962 54:-0.988016 55:-0.932364 56:-0.880876 57:-0.979474 58:-0.805547 59:-0.940301 60:-0.966077 61:-0.985503 62:-0.944616 63:-0.905607 64:-0.968169 65:-0.963162 66:-0.964741 67:-0.942236 68:-0.959911 69:-0.923583 70:-0.925412 71:-0.889033 72:-0.956581 73:-0.956043 74:-0.946061 75:-0.89376 76:-0.965605 77:-0.860572 78:-0.875252 79:-0.995904 80:-0.927452 81:-0.966765 82:-0.955244 83:-0.974457 84:-0.979384 85:-0.995725 86:-0.988588 87:-0.964496 88:-0.889228 89:-0.963069 90:-0.976353 91:-0.959979 92:-0.974462 93:-0.991194 94:-0.974416 95:-0.943561 96:-0.951676 97:-0.960089 98:-0.970993 99:-0.875775 100:-0.961441 101:-0.898663 102:-0.891599 103:-0.928384 104:-0.966824 105:-0.898739 106:-0.90735 107:-0.932726 108:-0.909188 109:-0.946139 110:-0.920458 111:-0.959743 112:-1 113:-0.941203 114:-0.953116 115:-0.935507 116:-0.892321 117:-0.888087 118:-0.894485 119:-0.995064 120:-0.955303 121:-0.959735 122:-0.968449 123:-0.933353 124:-0.947728 125:-0.931025 126:-0.903505 127:-0.918544 128:-0.979634 129:-0.933418 130:-0.907088 131:-0.688664 132:-0.289895 133:-0.0835334 134:-0.451304 135:0.248115 136:-0.0835334 137:0.77854 138:-0.475951 139:-0.481177 140:-0.308927 141:-0.257829 142:-0.545981 143:-0.78022 144:-0.78022 145:-0.784946 146:-0.787234 147:-0.787234 148:-0.789474 149:-0.787234 150:-0.771429 151:-0.792453 152:-0.626928 153:-0.69154 154:-0.818181 155:-0.821429 156:-0.892857 157:-0.849057 158:-0.849056 159:-0.833333 160:-0.809524 161:-0.846154 162:-0.891892 163:-0.891892 164:-0.891892 165:-0.942857 166:-0.942857 167:-1 168:-1 169:-1 170:-1 171:-1 172:-1 173:-1 174:-1 175:-1 176:-0.780221 177:-0.780221 178:-0.784947 179:-0.787234 180:-0.787234 181:-0.789475 182:-0.787234 183:-0.771429 184:-0.792453 
0 -0 -1.027467896145066 1:-0.755247 2:-0.542113 3:-0.75583 4:-0.746576 5:-0.182481 6:-0.477741 7:-0.628186 8:-0.643697 9:-0.897708 10:-0.672727 11:-0.642857 12:-0.678571 13:-0.622642 14:-0.622642 15:-0.583333 16:-0.52381 17:-0.692308 18:-0.675676 19:-0.675676 20:-0.783784 21:-0.885714 22:-1 23:-1 24:-1 25:-1 26:-1 27:-1 28:-1 29:-1 30:-1 31:-1 32:-0.297435 33:-0.572566 34:-0.597271 35:-0.360369 36:0.0887847 37:-0.603129 38:-0.404764 39:-0.713065 40:-0.845077 41:-0.934288 42:-0.985979 43:-0.867741 44:-0.890658 45:-0.880111 46:-0.838835 47:-0.786118 48:-0.928681 49:-0.917948 50:-0.912199 51:-0.970297 52:-0.773447 53:-0.887128 54:-0.961777 55:-0.820114 56:-0.665429 57:-0.723125 58:-0.534922 59:-0.929687 60:-0.821577 61:-0.928455 62:-0.827226 63:-0.906272 64:-0.885693 65:-0.936743 66:-0.980352 67:-0.847363 68:-0.82194 69:-0.890612 70:-0.82308 71:-0.798948 72:-0.802148 73:-0.667195 74:-0.739926 75:-0.942428 76:-0.819651 77:-0.881265 78:-0.69439 79:-0.845783 80:-0.882938 81:-0.99303 82:-0.914994 83:-0.915288 84:-0.944583 85:-0.887094 86:-0.867536 87:-0.884608 88:-0.923784 89:-0.958608 90:-0.727495 91:-0.863065 92:-0.97298 93:-0.939588 94:-0.996807 95:-0.930702 96:-0.921256 97:-0.789842 98:-0.972347 99:-0.738696 100:-0.842831 101:-0.743551 102:-0.947277 103:-0.900251 104:-0.72444 105:-0.679453 106:-0.877975 107:-0.874228 108:-0.815857 109:-0.810483 110:-0.781453 111:-0.64822 112:-0.923793 113:-0.795364 114:-0.735852 115:-0.864011 116:-0.819412 117:-0.917158 118:-0.89303 119:-0.921857 120:-0.94854 121:-0.66182 122:-0.727272 123:-0.936637 124:-0.759186 125:-0.7672 126:-0.895549 127:-0.939665 128:-0.939862 129:-0.94502 130:-0.96341 131:-0.919985 132:-0.346339 133:0.254694 134:-0.66089 135:0.535314 136:0.254694 137:0.747208 138:-0.400141 139:-0.39974 140:-0.211982 141:-0.268074 142:-0.491374 143:-0.736264 144:-0.736264 145:-0.741935 146:-0.744681 147:-0.744681 148:-0.726316 149:-0.744681 150:-0.771429 151:-0.792453 152:-0.870193 153:-0.707617 154:-0.672727 155:-0.642857 156:-0.678573 157:-0.622643 158:-0.622641 159:-0.583333 160:-0.523809 161:-0.692308 162:-0.675676 163:-0.675676 164:-0.783784 165:-0.885714 166:-1 167:-1 168:-1 169:-1 170:-1 171:-1 172:-1 173:-1 174:-1 175:-1 176:-0.736264 177:-0.736264 178:-0.741936 179:-0.744681 180:-0.744681 181:-0.726317 182:-0.744682 183:-0.771429 184:-0.792453 
0 -0 -0.7066889619339605 1:-0.801925 2:-0.623857 3:-0.715611 4:-0.791202 5:-0.379583 6:-0.47905 7:-0.53194 8:-0.542407 9:-0.812317 10:-0.672727 11:-0.678571 12:-0.678571 13:-0.698113 14:-0.698113 15:-0.75 16:-0.714286 17:-0.74359 18:-0.72973 19:-0.783784 20:-0.891892 21:-0.942857 22:-0.942857 23:-1 24:-1 25:-1 26:-1 27:-1 28:-1 29:-1 30:-1 31:-1 32:-0.609237 33:-0.671857 34:-0.43976 35:-0.248903 36:-0.579947 37:-0.532159 38:-0.974748 39:-0.876237 40:-0.854972 41:-0.807162 42:-0.94786 43:-0.893531 44:-0.846599 45:-0.901158 46:-0.867221 47:-0.899005 48:-0.898786 49:-0.958057 50:-0.96022 51:-0.969789 52:-0.960228 53:-0.939207 54:-0.967619 55:-0.993445 56:-0.962242 57:-0.89281 58:-0.59245 59:-0.880271 60:-0.899561 61:-0.892576 62:-0.98324 63:-0.91408 64:-0.909741 65:-0.960226 66:-0.941696 67:-0.831422 68:-0.91922 69:-0.897863 70:-0.850756 71:-0.77154 72:-0.908707 73:-0.938559 74:-0.877077 75:-0.949458 76:-0.863575 77:-0.990687 78:-0.847414 79:-0.906163 80:-0.890196 81:-0.839471 82:-0.98853 83:-0.86843 84:-0.879131 85:-0.939597 86:-0.964222 87:-0.991653 88:-0.970689 89:-0.967972 90:-0.983652 91:-0.928557 92:-0.929318 93:-0.975802 94:-0.983167 95:-0.90711 96:-0.88657 97:-0.85758 98:-0.906609 99:-0.8996 100:-0.894934 101:-0.750129 102:-0.861632 103:-0.908683 104:-0.852711 105:-0.788111 106:-0.784814 107:-0.870877 108:-0.946816 109:-0.870484 110:-0.940654 111:-0.967145 112:-0.942497 113:-0.826583 114:-0.933092 115:-0.883965 116:-0.800507 117:-0.906027 118:-0.952462 119:-0.985012 120:-0.942233 121:-0.848049 122:-0.826093 123:-0.909564 124:-0.798417 125:-0.8886 126:-0.897407 127:-0.731727 128:-0.828269 129:-0.891754 130:-0.954365 131:-0.700616 132:-0.254467 133:-0.0214112 134:-0.493275 135:0.305631 136:-0.0214112 137:0.672519 138:-0.27739 139:-0.50757 140:-0.236537 141:-0.209434 142:-0.417134 143:-0.648352 144:-0.648352 145:-0.655914 146:-0.659574 147:-0.659574 148:-0.663158 149:-0.659574 150:-0.695238 151:-0.716981 152:-0.807672 153:-0.652383 154:-0.672727 155:-0.678573 156:-0.678573 157:-0.698113 158:-0.698114 159:-0.75 160:-0.714286 161:-0.74359 162:-0.72973 163:-0.783784 164:-0.891892 165:-0.942857 166:-0.942857 167:-1 168:-1 169:-1 170:-1 171:-1 172:-1 173:-1 174:-1 175:-1 176:-0.648352 177:-0.648352 178:-0.655915 179:-0.659574 180:-0.659574 181:-0.663159 182:-0.659576 183:-0.695238 184:-0.716981 
0 -0 -0.9426084368052371 1:-0.754191 2:-0.626655 3:-0.660129 4:-0.741504 5:-0.35711 6:-0.423082 7:-0.461176 8:-0.476665 9:-0.915329 10:-0.527273 11:-0.535714 12:-0.535714 13:-0.54717 14:-0.698113 15:-0.708333 16:-0.666667 17:-0.74359 18:-0.891892 19:-0.891892 20:-0.891892 21:-0.942857 22:-0.942857 23:-1 24:-1 25:-1 26:-1 27:-1 28:-1 29:-1 30:-1 31:-1 32:-0.975269 33:-0.728342 34:-0.704055 35:-0.640733 36:-0.184312 37:-0.727642 38:-0.826256 39:-0.868368 40:-0.883275 41:-0.829255 42:-0.813254 43:-0.731875 44:-0.938485 45:-0.964969 46:-0.692607 47:-0.928062 48:-0.861633 49:-0.902407 50:-0.94261 51:-0.976064 52:-0.79041 53:-0.911186 54:-0.961133 55:-0.898182 56:-0.768539 57:-0.943678 58:-0.873476 59:-0.78103 60:-0.989035 61:-0.923816 62:-0.930975 63:-0.92126 64:-0.944344 65:-0.91045 66:-0.936583 67:-0.871433 68:-0.927203 69:-0.8962 70:-0.97103 71:-0.769008 72:-0.856229 73:-0.743095 74:-0.949192 75:-0.682689 76:-0.816472 77:-0.873305 78:-0.851846 79:-0.906668 80:-0.832491 81:-0.794454 82:-0.878739 83:-0.824711 84:-0.943761 85:-0.868479 86:-0.90465 87:-0.940425 88:-0.950913 89:-0.789612 90:-0.906874 91:-0.875003 92:-0.974795 93:-0.892346 94:-0.981453 95:-0.845524 96:-0.939997 97:-0.87111 98:-0.857216 99:-0.925148 100:-0.90192 101:-0.831928 102:-0.903998 103:-0.772649 104:-0.723003 105:-0.514766 106:-0.672668 107:-0.769444 108:-0.858201 109:-0.896277 110:-0.984305 111:-0.922966 112:-0.872946 113:-0.80535 114:-0.953651 115:-0.824835 116:-0.880095 117:-0.852596 118:-0.85344 119:-0.904436 120:-0.918467 121:-0.840857 122:-0.968788 123:-0.839007 124:-0.879384 125:-0.852065 126:-0.760818 127:-0.878171 128:-0.842022 129:-0.996447 130:-0.90594 131:-0.783004 132:-0.0974853 133:0.343112 134:-0.708844 135:0.601029 136:0.343112 137:0.518993 138:-0.0899566 139:-0.426352 140:-0.0478751 141:-0.0244734 142:-0.496088 143:-0.494505 144:-0.494505 145:-0.505376 146:-0.510638 147:-0.510638 148:-0.515789 149:-0.531915 150:-0.580952 151:-0.566038 152:-0.840947 153:-0.781894 154:-0.527273 155:-0.535713 156:-0.535713 157:-0.54717 158:-0.698114 159:-0.708333 160:-0.666667 161:-0.74359 162:-0.891892 163:-0.891892 164:-0.891892 165:-0.942857 166:-0.942857 167:-1 168:-1 169:-1 170:-1 171:-1 172:-1 173:-1 174:-1 175:-1 176:-0.494506 177:-0.494506 178:-0.505378 179:-0.510638 180:-0.510638 181:-0.515791 182:-0.531917 183:-0.580952 184:-0.566037 
