svm_type c_svc
kernel_type rbf
gamma 1
nr_class 2
total_sv 9858
rho 2.05257
label 0 1
probA -1.62843
probB 0.0906109
nr_sv 4929 4929
SV
1 0:0.06234 1:1.56744 
1 0:0.17738 1:1.39679 
1 0:0.18386 1:1.43054 
1 0:0.18724 1:1.56276 
1 0:0.14487 1:1.56181 
1 0:0.07494 1:0.30246 
1 0:0.11432 1:1.48583 
1 0:0.18201 1:0.37082 
1 0:0.23717 1:0.05659 
1 0:0.18278 1:1.2941 
1 0:0.21274 1:0.05574 
1 0:0.15658 1:1.54403 
1 0:0.15126 1:1.53979 
1 0:0.14713 1:1.28531 
1 0:0.14826 1:1.23511 
1 0:0.14768 1:1.56762 
1 0:0.1438 1:1.51763 
1 0:0.13864 1:1.56579 
1 0:0.13424 1:1.3922 
1 0:0.13433 1:1.24307 
1 0:0.13516 1:0.24535 
1 0:0.13226 1:0.77758 
1 0:0.12485 1:1.27491 
1 0:0.1168 1:0.3884 
1 0:0.17418 1:1.51775 
1 0:0.16925 1:1.50313 
1 0:0.15875 1:1.33887 
1 0:0.14356 1:1.52769 
1 0:0.13198 1:0.93478 
1 0:0.13025 1:0.10437 
1 0:0.12997 1:0.29242 
1 0:0.13727 1:1.02703 
1 0:0.14253 1:0.93167 
1 0:0.15822 1:0.26568 
1 0:0.17374 1:1.53997 
1 0:0.18998 1:0.55449 
1 0:0.18146 1:1.36997 
1 0:0.16236 1:1.49643 
1 0:0.16005 1:0.64797 
1 0:0.12169 1:0.9124 
1 0:0.12699 1:0.32555 
1 0:0.12255 1:0.90313 
1 0:0.1195 1:0.55957 
1 0:0.1195 1:0.24285 
1 0:0.12827 1:0.88907 
1 0:0.12393 1:1.51891 
1 0:0.12681 1:1.42705 
1 0:0.13215 1:1.27459 
1 0:0.12471 1:0.29007 
1 0:0.13113 1:1.38807 
1 0:0.13579 1:0.12412 
1 0:0.12888 1:1.5654 
1 0:0.17875 1:0.02318 
1 0:0.17817 1:1.5413 
1 0:0.20356 1:0.16414 
1 0:0.18127 1:1.51577 
1 0:0.12486 1:1.53751 
1 0:0.11207 1:1.5406 
1 0:0.10852 1:1.56745 
1 0:0.10852 1:1.53697 
1 0:0.11454 1:1.5286 
1 0:0.12474 1:1.27491 
1 0:0.1831 1:1.41186 
1 0:0.20638 1:0.24893 
1 0:0.19889 1:1.51635 
1 0:0.18278 1:1.56877 
1 0:0.16467 1:0.05332 
1 0:0.15665 1:0.50831 
1 0:0.15083 1:0.75445 
1 0:0.1456 1:1.22244 
1 0:0.18911 1:0.48371 
1 0:0.18221 1:0.39154 
1 0:0.17998 1:1.27491 
1 0:0.1794 1:0.38383 
1 0:0.10105 1:1.56656 
1 0:0.10227 1:1.51367 
1 0:0.10373 1:1.51897 
1 0:0.09823 1:1.52696 
1 0:0.09032 1:1.46452 
1 0:0.08865 1:1.55304 
1 0:0.09191 1:1.55109 
1 0:0.14458 1:1.26461 
1 0:0.16103 1:0.05898 
1 0:0.14996 1:1.44933 
1 0:0.14487 1:0.19074 
1 0:0.14512 1:1.27491 
1 0:0.22326 1:0.31032 
1 0:0.13945 1:1.55874 
1 0:0.15122 1:0.58658 
1 0:0.14811 1:0.91603 
1 0:0.13287 1:1.43872 
1 0:0.16056 1:1.54741 
1 0:0.15743 1:1.36997 
1 0:0.11445 1:0.08718 
1 0:0.12781 1:1.55397 
1 0:0.13698 1:1.56614 
1 0:0.13702 1:1.44659 
1 0:0.15071 1:0.21837 
1 0:0.14286 1:1.46986 
1 0:0.15298 1:1.28968 
1 0:0.17701 1:1.3498 
1 0:0.18425 1:1.38289 
1 0:0.18046 1:1.19462 
1 0:0.17661 1:1.49251 
1 0:0.17011 1:1.07029 
1 0:0.18892 1:1.56465 
1 0:0.18532 1:0.71249 
1 0:0.18058 1:1.27419 
1 0:0.19164 1:0.39602 
1 0:0.18915 1:0.74531 
1 0:0.12781 1:0.95979 
1 0:0.11791 1:0.38182 
1 0:0.12232 1:1.36815 
1 0:0.14089 1:1.35378 
1 0:0.15592 1:1.4337 
1 0:0.15443 1:1.45293 
1 0:0.14922 1:1.44911 
1 0:0.14389 1:1.27491 
1 0:0.18093 1:1.47311 
1 0:0.18093 1:1.54394 
1 0:0.17342 1:1.05942 
1 0:0.17651 1:0.31136 
1 0:0.16922 1:1.37161 
1 0:0.14644 1:1.27491 
1 0:0.15758 1:1.55832 
1 0:0.17474 1:0.76315 
1 0:0.13659 1:1.18919 
1 0:0.20635 1:0.33964 
1 0:0.17686 1:1.45849 
1 0:0.17522 1:1.34615 
1 0:0.1667 1:0.73349 
1 0:0.12503 1:0.45952 
1 0:0.11936 1:1.2319 
1 0:0.13226 1:1.00034 
1 0:0.19434 1:0.18504 
1 0:0.2024 1:0.19938 
1 0:0.19642 1:1.36341 
1 0:0.15322 1:1.30338 
1 0:0.18418 1:1.2083 
1 0:0.19281 1:1.55354 
1 0:0.18439 1:1.42233 
1 0:0.17805 1:1.47789 
1 0:0.10533 1:1.48991 
1 0:0.10533 1:0.66281 
1 0:0.20354 1:0.25617 
1 0:0.18783 1:1.57015 
1 0:0.19436 1:1.36997 
1 0:0.19522 1:1.40013 
1 0:0.18908 1:1.35584 
1 0:0.17538 1:1.37121 
1 0:0.17538 1:0.54881 
1 0:0.17466 1:0.92827 
1 0:0.13033 1:1.49849 
1 0:0.13033 1:1.42656 
1 0:0.18996 1:1.46959 
1 0:0.18996 1:1.23482 
1 0:0.1831 1:1.10796 
1 0:0.18746 1:1.3965 
1 0:0.12646 1:1.27491 
1 0:0.12991 1:0.51362 
1 0:0.12854 1:1.27491 
1 0:0.19689 1:0.38252 
1 0:0.23425 1:0.2081 
1 0:0.18482 1:0.36429 
1 0:0.19425 1:0.16518 
1 0:0.11591 1:0.04449 
1 0:0.10843 1:0.66591 
1 0:0.09637 1:0.31464 
1 0:0.13877 1:1.53599 
1 0:0.19134 1:0.06032 
1 0:0.19411 1:0.66428 
1 0:0.14866 1:1.44869 
1 0:0.13485 1:1.51616 
1 0:0.16488 1:1.2424 
1 0:0.15866 1:1.1763 
1 0:0.13646 1:1.32963 
1 0:0.18758 1:0.37442 
1 0:0.17485 1:1.53783 
1 0:0.15303 1:1.35203 
1 0:0.20665 1:0.17795 
1 0:0.11893 1:1.52361 
1 0:0.15055 1:0.32181 
1 0:0.11745 1:1.45911 
1 0:0.16987 1:0.812 
1 0:0.18195 1:0.53904 
1 0:0.19364 1:1.51128 
1 0:0.13718 1:1.06242 
1 0:0.1229 1:1.41507 
1 0:0.11482 1:1.15542 
1 0:0.12513 1:1.46902 
1 0:0.13467 1:0.63174 
1 0:0.19981 1:0.40806 
1 0:0.13051 1:0.45323 
1 0:0.19141 1:0.63998 
1 0:0.20206 1:0.41022 
1 0:0.12512 1:0.20085 
1 0:0.16799 1:1.1934 
1 0:0.19537 1:1.49385 
1 0:0.10383 1:1.56656 
1 0:0.10937 1:1.56656 
1 0:0.18569 1:0.99535 
1 0:0.12735 1:0.71145 
1 0:0.12646 1:0.14695 
1 0:0.17559 1:0.47015 
1 0:0.19231 1:0.37979 
1 0:0.13824 1:1.41675 
1 0:0.18299 1:1.13574 
1 0:0.16357 1:1.48637 
1 0:0.17823 1:0.80333 
1 0:0.19295 1:1.53444 
1 0:0.11761 1:1.45877 
1 0:0.14252 1:1.31382 
1 0:0.18388 1:1.44284 
1 0:0.16787 1:1.45457 
1 0:0.14776 1:0.43864 
1 0:0.11591 1:1.55479 
1 0:0.11517 1:0.80813 
1 0:0.18627 1:1.27491 
1 0:0.17394 1:1.47226 
1 0:0.16311 1:1.22953 
1 0:0.1695 1:1.36997 
1 0:0.18277 1:0.67045 
1 0:0.1564 1:1.36997 
1 0:0.15876 1:1.502 
1 0:0.0948 1:1.45788 
1 0:0.1711 1:1.56603 
1 0:0.12136 1:1.27491 
1 0:0.12815 1:1.27491 
1 0:0.21253 1:0.38111 
1 0:0.16169 1:1.48442 
1 0:0.17834 1:0.62817 
1 0:0.14825 1:1.55433 
1 0:0.16761 1:1.45594 
1 0:0.1634 1:0.30343 
1 0:0.15502 1:0.41123 
1 0:0.16044 1:0.31547 
1 0:0.18526 1:0.6401 
1 0:0.12997 1:0.20973 
1 0:0.16243 1:0.95979 
1 0:0.12962 1:1.56358 
1 0:0.11823 1:0.25693 
1 0:0.17318 1:1.28223 
1 0:0.11631 1:0.15822 
1 0:0.14641 1:1.56656 
1 0:0.1168 1:1.27491 
1 0:0.11799 1:1.48005 
1 0:0.14584 1:1.54344 
1 0:0.16496 1:1.07531 
1 0:0.20057 1:1.56422 
1 0:0.17309 1:1.50575 
1 0:0.03326 1:0.99516 
1 0:0.15538 1:1.17293 
1 0:0.16225 1:1.43853 
1 0:0.16542 1:1.54503 
1 0:0.12933 1:0.9826 
1 0:0.07252 1:0.88156 
1 0:0.10843 1:1.52328 
1 0:0.18201 1:0.9475 
1 0:0.18278 1:0.74657 
0.2270489675094965 0:0.19967 1:0.61025 
1 0:0.19792 1:0.54931 
1 0:0.18629 1:1.30217 
1 0:0.18171 1:1.50519 
1 0:0.17801 1:1.49675 
1 0:0.17904 1:0.65622 
1 0:0.14098 1:1.55878 
1 0:0.13652 1:1.32377 
1 0:0.13043 1:1.55317 
1 0:0.12743 1:1.23848 
1 0:0.12732 1:0.66342 
1 0:0.13031 1:0.50245 
1 0:0.12676 1:1.34628 
1 0:0.11941 1:1.2871 
1 0:0.1136 1:0.9428 
1 0:0.17418 1:1.47214 
1 0:0.16925 1:1.31914 
1 0:0.15875 1:0.77028 
1 0:0.14175 1:1.38998 
1 0:0.12878 1:1.51337 
1 0:0.12755 1:0.47609 
1 0:0.13288 1:0.87172 
1 0:0.14747 1:1.56783 
1 0:0.15303 1:0.35208 
1 0:0.15956 1:0.32494 
1 0:0.16597 1:1.53267 
1 0:0.18359 1:1.09963 
1 0:0.17555 1:0.92921 
1 0:0.15604 1:1.49921 
1 0:0.15349 1:1.17213 
1 0:0.13391 1:1.36676 
1 0:0.13087 1:0.90378 
1 0:0.12542 1:1.46621 
1 0:0.12513 1:0.03854 
1 0:0.12513 1:0.33726 
1 0:0.11954 1:1.30003 
1 0:0.11486 1:1.47967 
1 0:0.11787 1:1.14609 
1 0:0.1244 1:0.6952 
1 0:0.23364 1:0.20051 
1 0:0.11859 1:0.31897 
1 0:0.12105 1:0.80842 
1 0:0.12479 1:0.49431 
1 0:0.1166 1:0.99833 
1 0:0.18147 1:0.55712 
1 0:0.17991 1:0.96196 
1 0:0.18516 1:1.04682 
1 0:0.10233 1:1.38927 
1 0:0.0888 1:1.05304 
1 0:0.08585 1:1.08443 
1 0:0.08585 1:1.47786 
1 0:0.09345 1:0.9987 
1 0:0.10393 1:1.2871 
1 0:0.16677 1:1.15274 
1 0:0.19006 1:0.33254 
1 0:0.18189 1:0.94172 
1 0:0.18278 1:1.5304 
1 0:0.15634 1:0.54265 
1 0:0.14392 1:1.08731 
1 0:0.13656 1:1.3339 
1 0:0.13141 1:1.34143 
1 0:0.18634 1:0.13409 
1 0:0.18079 1:0.96749 
1 0:0.1781 1:1.2871 
1 0:0.17694 1:0.96197 
1 0:0.08172 1:1.04295 
1 0:0.0822 1:0.98722 
1 0:0.08241 1:1.56116 
1 0:0.07624 1:1.24532 
1 0:0.06825 1:0.88828 
1 0:0.0666 1:1.16432 
1 0:0.07146 1:1.33141 
1 0:0.14352 1:0.69617 
1 0:0.1528 1:0.53735 
1 0:0.14155 1:1.12052 
1 0:0.13709 1:0.72093 
1 0:0.14031 1:1.2871 
1 0:0.21839 1:0.266 
1 0:0.22326 1:0.20147 
1 0:0.13084 1:1.55272 
1 0:0.14385 1:1.11473 
1 0:0.1407 1:1.39543 
1 0:0.12476 1:1.44218 
1 0:0.15614 1:1.5046 
1 0:0.15235 1:0.92921 
1 0:0.12006 1:0.57008 
1 0:0.11614 1:0.98206 
1 0:0.12183 1:1.02576 
1 0:0.12973 1:0.86825 
1 0:0.14099 1:0.58193 
1 0:0.13326 1:1.09301 
1 0:0.18333 1:0.71303 
1 0:0.19771 1:0.51952 
1 0:0.18915 1:1.32156 
1 0:0.11614 1:0.9686 
1 0:0.11102 1:0.20961 
1 0:0.11296 1:1.19574 
1 0:0.1186 1:0.91346 
1 0:0.13469 1:1.54145 
1 0:0.13344 1:1.185 
1 0:0.12772 1:1.41888 
1 0:0.12195 1:1.2871 
1 0:0.16143 1:1.55643 
1 0:0.16143 1:1.01813 
1 0:0.16337 1:1.52458 
1 0:0.16659 1:0.88 
1 0:0.16398 1:0.79192 
1 0:0.1423 1:1.2871 
1 0:0.15275 1:1.55432 
1 0:0.17045 1:1.16418 
1 0:0.134 1:1.3727 
1 0:0.20635 1:0.25976 
1 0:0.12187 1:1.03862 
1 0:0.11936 1:0.65345 
1 0:0.1332 1:1.56275 
1 0:0.18916 1:0.6393 
1 0:0.18827 1:1.4703 
1 0:0.19648 1:0.58133 
1 0:0.18374 1:0.73193 
1 0:0.0973 1:1.49173 
1 0:0.0973 1:1.12647 
1 0:0.16775 1:1.03008 
1 0:0.17443 1:0.92921 
1 0:0.17498 1:1.49453 
1 0:0.16863 1:1.30763 
1 0:0.15889 1:1.19326 
1 0:0.15889 1:1.12517 
1 0:0.1591 1:0.4387 
1 0:0.10781 1:1.54037 
1 0:0.10781 1:1.14951 
1 0:0.16677 1:0.61323 
1 0:0.1703 1:1.17498 
1 0:0.11641 1:1.2871 
1 0:0.11835 1:1.08634 
1 0:0.11719 1:1.2871 
1 0:0.18452 1:0.94246 
1 0:0.19217 1:0.59442 
1 0:0.1172 1:0.60545 
1 0:0.09912 1:1.22535 
1 0:0.08911 1:0.87547 
1 0:0.11776 1:0.9619 
1 0:0.18669 1:0.53403 
1 0:0.19067 1:1.2871 
1 0:0.19411 1:1.24394 
1 0:0.19434 1:0.68229 
1 0:0.14516 1:1.4041 
1 0:0.12639 1:0.9375 
1 0:0.19387 1:1.23032 
1 0:0.18803 1:0.59727 
1 0:0.14216 1:1.23257 
1 0:0.18758 1:0.94817 
1 0:0.16787 1:1.53596 
1 0:0.14855 1:0.77907 
1 0:0.20665 1:0.46124 
1 0:0.09461 1:1.26452 
1 0:0.14328 1:0.89398 
1 0:0.09518 1:1.43009 
1 0:0.16094 1:1.38969 
1 0:0.1321 1:0.49256 
1 0:0.12253 1:1.15106 
1 0:0.09283 1:1.52316 
1 0:0.11869 1:1.47222 
1 0:0.12839 1:0.96969 
1 0:0.19434 1:0.41221 
1 0:0.12241 1:0.13771 
1 0:0.1915 1:0.32561 
1 0:0.18889 1:1.1596 
1 0:0.13292 1:0.77918 
1 0:0.08195 1:1.04294 
1 0:0.08866 1:1.04294 
1 0:0.18569 1:0.41618 
1 0:0.11624 1:1.28955 
1 0:0.11641 1:0.45785 
1 0:0.16657 1:1.03077 
1 0:0.18958 1:0.36985 
1 0:0.13391 1:1.14972 
1 0:0.18214 1:0.56452 
1 0:0.19224 1:1.45735 
1 0:0.09377 1:1.54156 
1 0:0.12072 1:1.2652 
1 0:0.16339 1:1.32938 
1 0:0.16026 1:1.44596 
1 0:0.14052 1:0.99836 
1 0:0.11989 1:1.02581 
1 0:0.12083 1:0.23061 
1 0:0.18627 1:1.2871 
1 0:0.20235 1:1.45254 
1 0:0.19197 1:1.29189 
1 0:0.1564 1:0.92921 
1 0:0.15876 1:1.0813 
1 0:0.07347 1:1.51819 
1 0:0.15288 1:1.02185 
1 0:0.11381 1:1.2871 
1 0:0.1247 1:1.2871 
1 0:0.21253 1:0.30852 
1 0:0.19059 1:1.45552 
1 0:0.1792 1:1.49185 
1 0:0.1652 1:1.44958 
1 0:0.1533 1:0.83364 
1 0:0.1599 1:0.1698 
1 0:0.1565 1:0.339 
1 0:0.17947 1:1.16361 
1 0:0.12949 1:0.77571 
1 0:0.15892 1:0.9686 
1 0:0.10891 1:1.02092 
1 0:0.11065 1:0.63425 
1 0:0.11548 1:0.43731 
1 0:0.13856 1:1.04294 
1 0:0.1136 1:1.2871 
1 0:0.11443 1:1.08191 
1 0:0.12373 1:1.19121 
1 0:0.193 1:1.26025 
1 0:0.19161 1:1.33157 
1 0:0.19991 1:1.55568 
1 0:0 1:1.24831 
1 0:0.14175 1:1.39497 
1 0:0.14903 1:1.30377 
1 0:0.15136 1:1.42623 
1 0:0.11767 1:1.23497 
1 0:0.07252 1:0.65228 
1 0:0.10272 1:1.51157 
1 0:0.18374 1:0.72369 
1 0:0.19666 1:1.37171 
1 0:0.18605 1:0.34747 
1 0:0.2054 1:1.55312 
1 0:0.1316 1:1.43943 
1 0:0.12673 1:1.51825 
1 0:0.11994 1:1.43243 
1 0:0.11909 1:1.17166 
1 0:0.11882 1:0.91257 
1 0:0.13031 1:0.40034 
1 0:0.12676 1:1.08625 
1 0:0.11941 1:1.53451 
1 0:0.1136 1:0.68165 
1 0:0.17637 1:1.52822 
1 0:0.17111 1:1.50977 
1 0:0.1569 1:1.03831 
1 0:0.1386 1:1.56554 
1 0:0.12878 1:1.27908 
1 0:0.12755 1:0.25735 
1 0:0.13289 1:0.63424 
1 0:0.15199 1:1.38376 
1 0:0.1574 1:0.61047 
1 0:0.15956 1:0.10173 
1 0:0.15487 1:1.40869 
1 0:0.17409 1:0.91031 
1 0:0.16706 1:1.19075 
1 0:0.14746 1:1.36934 
1 0:0.14459 1:0.99998 
1 0:0.144 1:1.24542 
1 0:0.13264 1:0.67698 
1 0:0.12729 1:1.25903 
1 0:0.12729 1:0.24159 
1 0:0.12989 1:0.16481 
1 0:0.1091 1:1.20395 
1 0:0.10515 1:1.36783 
1 0:0.10801 1:1.36274 
1 0:0.1156 1:0.94135 
1 0:0.2431 1:0.09261 
1 0:0.11719 1:0.06763 
1 0:0.11697 1:1.05572 
1 0:0.11889 1:0.24545 
1 0:0.108 1:1.23483 
1 0:0.18147 1:0.33802 
1 0:0.17991 1:1.20504 
1 0:0.20266 1:0.37703 
1 0:0.18516 1:1.29947 
1 0:0.08588 1:1.36054 
1 0:0.0715 1:1.24442 
1 0:0.06881 1:1.35563 
1 0:0.06881 1:1.51655 
1 0:0.07778 1:1.17168 
1 0:0.08858 1:1.53451 
1 0:0.15594 1:1.40952 
1 0:0.17984 1:0.17195 
1 0:0.17046 1:1.20353 
1 0:0.18927 1:1.47061 
1 0:0.15623 1:0.30872 
1 0:0.13778 1:0.85541 
1 0:0.12771 1:1.08998 
1 0:0.1221 1:1.54631 
1 0:0.17917 1:0.25433 
1 0:0.17743 1:0.74487 
1 0:0.17448 1:1.53451 
1 0:0.17275 1:0.73456 
1 0:0.06699 1:1.31724 
1 0:0.06699 1:1.15689 
1 0:0.06623 1:1.42882 
1 0:0.05942 1:1.30135 
1 0:0.05141 1:1.12126 
1 0:0.04975 1:1.417 
1 0:0.05592 1:1.30311 
1 0:0.14131 1:0.96489 
1 0:0.15273 1:0.30278 
1 0:0.14112 1:1.34264 
1 0:0.13704 1:0.46104 
1 0:0.14031 1:1.53451 
1 0:0.22783 1:0.25745 
1 0:0.11984 1:1.42902 
1 0:0.13401 1:0.84376 
1 0:0.13098 1:1.12153 
1 0:0.1148 1:1.56075 
1 0:0.14875 1:1.39546 
1 0:0.14436 1:1.19075 
1 0:0.12693 1:0.32034 
1 0:0.10741 1:1.24618 
1 0:0.11042 1:1.21912 
1 0:0.12973 1:1.1246 
1 0:0.1382 1:0.30913 
1 0:0.13076 1:1.34629 
1 0:0.10741 1:1.0606 
1 0:0.10828 1:0.08098 
1 0:0.10828 1:1.43022 
1 0:0.10305 1:1.01117 
1 0:0.11979 1:1.36945 
1 0:0.11831 1:1.45877 
1 0:0.1126 1:1.3003 
1 0:0.10659 1:1.53451 
1 0:0.14713 1:1.4132 
1 0:0.14713 1:1.2621 
1 0:0.16129 1:1.34903 
1 0:0.16483 1:0.66821 
1 0:0.16398 1:1.0419 
1 0:0.13715 1:1.53451 
1 0:0.14626 1:1.4606 
1 0:0.1642 1:1.06972 
1 0:0.134 1:1.52459 
1 0:0.20983 1:0.20219 
1 0:0.12187 1:0.8069 
1 0:0.11957 1:0.91178 
1 0:0.1332 1:1.32875 
1 0:0.18916 1:0.37164 
1 0:0.18827 1:1.40711 
1 0:0.19648 1:0.4437 
1 0:0.08982 1:1.52844 
1 0:0.08982 1:0.99398 
1 0:0.15324 1:1.21317 
1 0:0.16002 1:1.19075 
1 0:0.1604 1:1.4869 
1 0:0.15382 1:1.56205 
1 0:0.14758 1:1.42612 
1 0:0.14758 1:0.90018 
1 0:0.14932 1:0.57153 
1 0:0.09154 1:1.46094 
1 0:0.09154 1:1.41655 
1 0:0.15594 1:0.88203 
1 0:0.15811 1:1.43907 
1 0:0.11131 1:1.53451 
1 0:0.11142 1:0.86806 
1 0:0.11025 1:1.53451 
1 0:0.18209 1:0.71526 
1 0:0.18719 1:0.32797 
1 0:0.1188 1:0.36932 
1 0:0.09058 1:0.96154 
1 0:0.08417 1:0.67144 
1 0:0.10251 1:1.18952 
1 0:0.17917 1:0.30022 
1 0:0.18156 1:1.53451 
1 0:0.18546 1:0.93239 
1 0:0.14069 1:1.29145 
1 0:0.12503 1:1.17737 
1 0:0.14341 1:1.47371 
1 0:0.19111 1:0.72939 
1 0:0.15798 1:1.40971 
1 0:0.14855 1:1.00602 
1 0:0.20871 1:0.31675 
1 0:0.07694 1:1.31113 
1 0:0.14328 1:0.6445 
1 0:0.07847 1:1.42316 
1 0:0.16019 1:1.15926 
1 0:0.1321 1:0.71747 
1 0:0.12253 1:1.38019 
1 0:0.07623 1:1.45869 
1 0:0.11131 1:1.34101 
1 0:0.12077 1:0.70681 
1 0:0.18484 1:0.42266 
1 0:0.12064 1:0.1386 
1 0:0.18358 1:0.57189 
1 0:0.18363 1:0.99067 
1 0:0.13811 1:0.55429 
1 0:0.06535 1:1.31724 
1 0:0.07303 1:1.31724 
1 0:0.19091 1:0.66535 
1 0:0.10859 1:1.04126 
1 0:0.11104 1:0.21313 
1 0:0.16579 1:0.77044 
1 0:0.184 1:0.12154 
1 0:0.13391 1:1.37812 
1 0:0.17933 1:0.79072 
1 0:0.07642 1:1.37958 
1 0:0.10537 1:1.39873 
1 0:0.14873 1:1.24625 
1 0:0.14941 1:1.31885 
1 0:0.14052 1:0.73825 
1 0:0.12475 1:1.23268 
1 0:0.12648 1:0.49841 
1 0:0.18972 1:1.53451 
1 0:0.15633 1:1.19075 
1 0:0.15941 1:1.28452 
1 0:0.05715 1:1.36449 
1 0:0.13939 1:1.20922 
1 0:0.11185 1:1.53451 
1 0:0.1247 1:1.53451 
1 0:0.21321 1:0.31352 
1 0:0.1617 1:1.56877 
1 0:0.15086 1:0.56835 
1 0:0.1599 1:0.16236 
1 0:0.1565 1:0.28558 
1 0:0.187 1:1.01891 
1 0:0.17091 1:0.99186 
1 0:0.12949 1:0.52613 
1 0:0.15425 1:1.0606 
1 0:0.09353 1:1.29193 
1 0:0.10834 1:0.36017 
1 0:0.11548 1:0.26478 
1 0:0.13849 1:1.31724 
1 0:0.1136 1:1.53451 
1 0:0.11443 1:1.33023 
1 0:0.10822 1:1.27051 
1 0:0.17758 1:1.42494 
1 0:0.07565 1:1.2673 
1 0:0.10272 1:1.56753 
1 0:0.19624 1:0.32912 
1 0:0.18382 1:1.20469 
1 0:0.19666 1:0.23124 
1 0:0.19912 1:0.47905 
1 0:0.19353 1:0.43186 
1 0:0.21414 1:0.38499 
1 0:0.19087 1:0.31335 
1 0:0.1316 1:1.55096 
1 0:0.12673 1:1.15056 
1 0:0.11994 1:1.54867 
1 0:0.11909 1:1.28704 
1 0:0.11882 1:0.33578 
1 0:0.12472 1:0.02958 
1 0:0.20578 1:0.35724 
1 0:0.17637 1:1.42542 
1 0:0.17111 1:1.16557 
1 0:0.1569 1:0.26516 
1 0:0.1386 1:1.25878 
1 0:0.15487 1:1.54659 
1 0:0.17409 1:1.09161 
1 0:0.16706 1:0.62065 
1 0:0.14746 1:1.54113 
1 0:0.14459 1:1.05171 
1 0:0.1091 1:1.10732 
1 0:0.10515 1:1.53052 
1 0:0.10801 1:0.27828 
1 0:0.1156 1:0.30828 
1 0:0.22824 1:0.26376 
1 0:0.19353 1:1.45348 
1 0:0.17917 1:1.09549 
1 0:0.17743 1:1.18575 
1 0:0.17448 1:0.2936 
1 0:0.17275 1:1.18867 
1 0:0.14131 1:0.33106 
1 0:0.13888 1:0.2936 
1 0:0.11984 1:1.53871 
1 0:0.13401 1:1.06552 
1 0:0.13098 1:0.88083 
1 0:0.1148 1:1.49199 
1 0:0.14875 1:1.53234 
1 0:0.14436 1:0.62065 
1 0:0.06754 1:1.39279 
1 0:0.04005 1:1.26678 
1 0:0.13715 1:0.2936 
1 0:0.14626 1:1.51318 
1 0:0.1642 1:1.20588 
1 0:0.08982 1:1.5038 
1 0:0.08982 1:1.15884 
1 0:0.05131 1:0.2936 
1 0:0.18209 1:1.20799 
1 0:0.18719 1:1.56573 
1 0:0.09058 1:0.93428 
1 0:0.08417 1:1.28717 
1 0:0.17917 1:1.52911 
1 0:0.18156 1:0.2936 
1 0:0.18546 1:0.31592 
1 0:0.14069 1:1.50035 
1 0:0.19269 1:1.20692 
1 0:0.15798 1:1.53733 
1 0:0.11131 1:1.54856 
1 0:0.12077 1:1.34029 
1 0:0.18484 1:1.28607 
1 0:0.18358 1:0.85904 
1 0:0.18363 1:1.06786 
1 0:0.03069 1:1.38052 
1 0:0.19322 1:0.58335 
1 0:0.184 1:1.29835 
1 0:0.17933 1:0.47224 
1 0:0.14941 1:1.56729 
1 0:0.19129 1:0.2936 
1 0:0.15633 1:0.62065 
1 0:0.15941 1:0.31618 
1 0:0.20922 1:0.28765 
1 0:0.1617 1:1.47914 
1 0:0.187 1:0.24308 
1 0:0.17091 1:1.0598 
1 0:0.15425 1:1.37632 
1 0:0.20344 1:0.1694 
1 0:0.19469 1:0.24204 
1 0:0.24279 1:0.043 
1 0:0.15866 1:1.54637 
1 0:0.15293 1:1.09531 
1 0:0.05391 1:0.21699 
1 0:0.14928 1:1.54958 
1 0:0.2299 1:0.22576 
1 0:0.1994 1:1.56435 
1 0:0.16468 1:1.56045 
1 0:0.15934 1:1.46651 
1 0:0.06138 1:1.53601 
0.6452215048557244 0:0.24918 1:0.09155 
1 0:0.23882 1:0.03859 
1 0:0.15615 1:1.50907 
1 0:0.22441 1:0.09337 
1 0:0.25807 1:0.01068 
1 0:0.20317 1:1.55517 
1 0:0.24871 1:0.02587 
1 0:0.23446 1:0.06863 
1 0:0.24914 1:0.06829 
1 0:0.24551 1:0.02057 
1 0:0.23895 1:0.15569 
1 0:0.16836 1:1.43164 
1 0:0.16276 1:1.54668 
1 0:0.2316 1:0.05017 
1 0:0.23522 1:0.10486 
1 0:0.06456 1:1.56016 
1 0:0.22803 1:0.14109 
1 0:0.24165 1:0.03292 
1 0:0.23266 1:0.09428 
1 0:0.1594 1:1.38066 
1 0:0.23014 1:0.14698 
1 0:0.16276 1:1.27936 
1 0:0.12272 1:1.56742 
1 0:0.15559 1:1.2164 
1 0:0.17818 1:0.23349 
1 0:0.18261 1:0.46552 
1 0:0.1744 1:0.3005 
1 0:0.16734 1:1.55863 
1 0:0.1704 1:1.15756 
1 0:0.16708 1:1.55645 
1 0:0.17292 1:1.27718 
1 0:0.18792 1:0.32239 
1 0:0.17334 1:0.03038 
1 0:0.20929 1:0.25801 
1 0:0.14982 1:1.55468 
1 0:0.14722 1:1.10119 
1 0:0.13734 1:0.62374 
1 0:0.13259 1:1.54974 
1 0:0.1345 1:1.05997 
1 0:0.14667 1:1.11056 
1 0:0.16011 1:1.52218 
1 0:0.18582 1:0.27831 
1 0:0.19334 1:0.29452 
1 0:0.22015 1:0.25716 
1 0:0.15068 1:1.08375 
1 0:0.14643 1:1.19737 
1 0:0.13984 1:0.30537 
1 0:0.13702 1:1.20051 
1 0:0.21668 1:0.32239 
1 0:0.21438 1:0.30537 
1 0:0.14701 1:1.54657 
1 0:0.14198 1:1.07966 
1 0:0.13961 1:0.8953 
1 0:0.14037 1:1.498 
1 0:0.17325 1:1.52434 
1 0:0.17447 1:0.62373 
1 0:0.13866 1:1.38172 
1 0:0.12911 1:1.27884 
1 0:0.17807 1:1.19038 
1 0:0.1746 1:0.84811 
1 0:0.12303 1:0.30537 
1 0:0.12827 1:1.52074 
1 0:0.13038 1:1.21055 
1 0:0.15316 1:1.51049 
1 0:0.16058 1:1.16553 
1 0:0.11514 1:0.30537 
1 0:0.17736 1:1.21236 
1 0:0.15595 1:1.21985 
1 0:0.16496 1:1.56242 
1 0:0.17518 1:0.94803 
1 0:0.17056 1:1.29828 
1 0:0.15068 1:1.51647 
1 0:0.15332 1:0.30537 
1 0:0.18381 1:0.91667 
1 0:0.15998 1:0.30261 
1 0:0.12383 1:1.49119 
1 0:0.17123 1:1.21842 
1 0:0.14107 1:1.54544 
1 0:0.19758 1:1.42534 
1 0:0.13335 1:1.55748 
1 0:0.1327 1:1.35483 
1 0:0.15991 1:1.2765 
1 0:0.15754 1:0.85004 
1 0:0.15825 1:1.07604 
1 0:0.17971 1:1.1934 
1 0:0.12697 1:1.36996 
1 0:0.16004 1:1.28442 
1 0:0.14933 1:0.45796 
1 0:0.15183 1:1.5582 
1 0:0.16896 1:0.30537 
1 0:0.2216 1:0.31154 
1 0:0.19769 1:0.27501 
1 0:0.12598 1:1.48538 
1 0:0.1677 1:0.23244 
1 0:0.14235 1:1.0681 
1 0:0.12272 1:1.37537 
1 0:0.18991 1:0.15512 
1 0:0.16764 1:0.95913 
1 0:0.16896 1:1.51135 
1 0:0.17367 1:1.03054 
1 0:0.18282 1:1.28836 
1 0:0.20445 1:1.54644 
1 0:0.16995 1:0.92512 
1 0:0.15098 1:0.94313 
1 0:0.15098 1:0.89194 
1 0:0.15371 1:0.94207 
1 0:0.1544 1:0.9049 
1 0:0.1892 1:0.91226 
1 0:0.17336 1:1.42715 
1 0:0.17558 1:0.88933 
1 0:0.189 1:0.85555 
1 0:0.15045 1:0.95432 
1 0:0.16879 1:0.71572 
1 0:0.17547 1:1.05422 
1 0:0.18158 1:1.24471 
1 0:0.20239 1:1.52311 
1 0:0.1818 1:0.96054 
1 0:0.16409 1:1.18209 
1 0:0.16246 1:0.74754 
1 0:0.18015 1:1.33089 
1 0:0.1852 1:0.88097 
1 0:0.16199 1:0.92742 
1 0:0.18365 1:1.29592 
1 0:0.17336 1:0.85842 
1 0:0.1653 1:1.45872 
1 0:0.15116 1:0.99123 
1 0:0.14802 1:0.64195 
1 0:0.1861 1:1.07122 
1 0:0.17731 1:0.85314 
1 0:0.18108 1:0.63698 
1 0:0.17682 1:1.19185 
1 0:0.17407 1:1.07345 
1 0:0.18228 1:0.71216 
1 0:0.17152 1:1.22534 
1 0:0.15802 1:0.86371 
1 0:0.17762 1:1.42216 
1 0:0.18875 1:1.0994 
1 0:0.18732 1:1.43687 
1 0:0.1722 1:1.33343 
1 0:0.17559 1:1.11411 
1 0:0.16996 1:1.40118 
1 0:0.16727 1:0.95362 
1 0:0.15711 1:1.12018 
1 0:0.17879 1:0.87753 
1 0:0.17847 1:1.4117 
1 0:0.1613 1:0.97872 
1 0:0.17921 1:0.28914 
1 0:0.17911 1:1.20836 
1 0:0.16769 1:1.34182 
1 0:0.15962 1:1.1296 
1 0:0.16681 1:1.13121 
1 0:0.14861 1:1.19964 
1 0:0.16582 1:1.21131 
1 0:0.17911 1:1.05969 
1 0:0.16776 1:1.40962 
1 0:0.16262 1:1.15129 
1 0:0.19008 1:1.35188 
1 0:0.15835 1:1.12481 
1 0:0.17049 1:1.46253 
1 0:0.18392 1:1.28469 
1 0:0.19586 1:1.29877 
1 0:0.19149 1:0.63698 
1 0:0.1992 1:1.53707 
1 0:0.17269 1:0.95881 
1 0:0.15254 1:0.78582 
1 0:0.16959 1:1.03699 
1 0:0.17811 1:1.20478 
1 0:0.18392 1:1.54087 
1 0:0.16561 1:1.54905 
1 0:0.17455 1:0.91361 
1 0:0.1758 1:1.55525 
1 0:0.1803 1:0.84268 
1 0:0.1899 1:1.23471 
1 0:0.17525 1:1.51991 
1 0:0.15455 1:1.54194 
1 0:0.15455 1:0.50557 
1 0:0.15936 1:0.72974 
1 0:0.16044 1:0.58174 
1 0:0.1817 1:1.14596 
1 0:0.18382 1:0.7436 
1 0:0.19741 1:1.44994 
1 0:0.15655 1:1.55319 
1 0:0.1762 1:1.31422 
1 0:0.18294 1:1.48987 
1 0:0.18779 1:1.14602 
1 0:0.19944 1:0.31099 
1 0:0.18814 1:0.73468 
1 0:0.17132 1:0.71332 
1 0:0.16978 1:0.84011 
1 0:0.1883 1:0.85992 
1 0:0.19285 1:1.47756 
1 0:0.16561 1:0.62241 
1 0:0.18769 1:1.21373 
1 0:0.1817 1:1.45633 
1 0:0.17234 1:1.12064 
1 0:0.15777 1:1.55145 
1 0:0.15366 1:0.90599 
1 0:0.223 1:0.10095 
1 0:0.18256 1:0.58539 
1 0:0.20751 1:0.37883 
1 0:0.20599 1:0.47808 
1 0:0.15792 1:0.10095 
1 0:0.18392 1:0.81277 
1 0:0.18134 1:1.48007 
1 0:0.18919 1:0.81701 
1 0:0.178 1:1.2073 
1 0:0.16445 1:0.36703 
1 0:0.18373 1:1.36971 
1 0:0.19445 1:1.38359 
1 0:0.17801 1:1.23923 
1 0:0.18116 1:0.9944 
1 0:0.17807 1:0.93596 
1 0:0.17524 1:0.9008 
1 0:0.16385 1:0.83776 
1 0:0.183 1:0.54285 
1 0:0.18331 1:1.35997 
1 0:0.16535 1:0.88237 
1 0:0.15765 1:0.38693 
1 0:0.1858 1:0.72495 
1 0:0.17451 1:0.94929 
1 0:0.16514 1:0.92745 
1 0:0.17178 1:0.98608 
1 0:0.1542 1:0.84854 
1 0:0.1716 1:1.03942 
1 0:0.1858 1:1.48634 
1 0:0.17322 1:1.53916 
1 0:0.16787 1:0.87414 
1 0:0.19445 1:1.34921 
1 0:0.16362 1:0.98969 
1 0:0.17869 1:0.99878 
1 0:0.20256 1:1.54774 
1 0:0.1978 1:0.10095 
1 0:0.20515 1:1.55859 
1 0:0.2012 1:0.57535 
1 0:0.17988 1:0.74779 
1 0:0.15836 1:0.27882 
1 0:0.17669 1:0.77836 
1 0:0.1862 1:0.72619 
1 0:0.19121 1:1.56197 
1 0:0.1722 1:1.53585 
1 0:0.22412 1:0.13161 
1 0:0.2075 1:0.03859 
1 0:0.22661 1:0.0326 
1 0:0.24607 1:0.11347 
1 0:0.22499 1:0.04611 
1 0:0.14397 1:1.56005 
1 0:0.14397 1:1.19419 
1 0:0.208 1:0.2718 
1 0:0.15686 1:0.90385 
1 0:0.15796 1:1.54256 
1 0:0.16269 1:0.82509 
1 0:0.16993 1:1.25064 
1 0:0.20633 1:1.55006 
1 0:0.15359 1:1.56794 
1 0:0.15359 1:0.51003 
1 0:0.14889 1:0.71259 
1 0:0.14802 1:0.59013 
1 0:0.17726 1:0.68526 
1 0:0.18173 1:1.11067 
1 0:0.18173 1:0.73068 
1 0:0.19255 1:1.48005 
1 0:0.14947 1:1.5566 
1 0:0.17165 1:1.16038 
1 0:0.18674 1:0.71713 
1 0:0.1892 1:1.56328 
1 0:0.18008 1:0.31533 
1 0:0.17187 1:0.71653 
1 0:0.15707 1:0.68066 
1 0:0.15917 1:0.84068 
1 0:0.18031 1:0.82651 
1 0:0.17373 1:1.50823 
1 0:0.16179 1:0.63133 
1 0:0.17972 1:1.22825 
1 0:0.21071 1:0.42445 
1 0:0.18513 1:1.48748 
1 0:0.16713 1:1.51943 
1 0:0.15803 1:0.91584 
1 0:0.20628 1:1.5449 
1 0:0.19512 1:0.4226 
1 0:0.17265 1:0.8947 
1 0:0.18531 1:0.97342 
1 0:0.18512 1:1.0785 
1 0:0.17049 1:0.59836 
1 0:0.19163 1:0.39106 
1 0:0.18326 1:0.49264 
1 0:0.20526 1:1.52719 
1 0:0.21288 1:0.08044 
1 0:0.16147 1:1.19492 
1 0:0.14981 1:0.33591 
1 0:0.16819 1:1.38422 
1 0:0.17934 1:1.07468 
1 0:0.17408 1:1.3979 
1 0:0.16395 1:1.22202 
1 0:0.16808 1:1.0095 
1 0:0.22963 1:0.08044 
1 0:0.17651 1:0.90252 
1 0:0.17409 1:0.89081 
1 0:0.15195 1:0.81437 
1 0:0.17581 1:0.55131 
1 0:0.17294 1:1.34386 
1 0:0.15932 1:0.90054 
1 0:0.21288 1:0.42242 
1 0:0.15386 1:0.93823 
1 0:0.1619 1:0.99972 
1 0:0.15032 1:0.82103 
1 0:0.15773 1:1.02005 
1 0:0.16111 1:1.53187 
1 0:0.15696 1:0.88033 
1 0:0.18541 1:1.36675 
1 0:0.23736 1:0.08044 
1 0:0.15298 1:1.0039 
1 0:0.18193 1:0.9652 
1 0:0.19613 1:1.53215 
1 0:0.17097 1:1.06827 
1 0:0.18321 1:1.54466 
1 0:0.1804 1:0.08044 
1 0:0.18916 1:1.54456 
1 0:0.17649 1:0.66032 
1 0:0.18579 1:0.58838 
1 0:0.161 1:0.73038 
1 0:0.19588 1:0.53183 
1 0:0.14655 1:0.24874 
1 0:0.1588 1:0.75729 
1 0:0.17773 1:0.69301 
1 0:0.17097 1:1.56638 
1 0:0.15523 1:1.51768 
1 0:0.16643 1:1.54627 
1 0:0.17566 1:0.46099 
1 0:0.16885 1:0.49676 
1 0:0.15607 1:0.97406 
1 0:0.13737 1:0.19471 
1 0:0.12441 1:1.25576 
1 0:0.17205 1:0.63233 
1 0:0.17003 1:0.40678 
1 0:0.17749 1:0.04131 
1 0:0.18234 1:0.70105 
1 0:0.17477 1:0.02617 
1 0:0.16712 1:0.60911 
1 0:0.16712 1:0.86201 
1 0:0.16859 1:0.5443 
1 0:0.15504 1:0.58732 
1 0:0.15634 1:1.45165 
1 0:0.16319 1:0.40722 
1 0:0.1395 1:1.26295 
1 0:0.15309 1:1.40459 
1 0:0.13797 1:1.24732 
1 0:0.13186 1:1.33164 
1 0:0.13186 1:1.55127 
1 0:0.13709 1:1.32568 
1 0:0.14954 1:0.97406 
1 0:0.20941 1:0.34498 
1 0:0.19084 1:0.20587 
1 0:0.17798 1:0.45489 
1 0:0.16875 1:0.92457 
1 0:0.11402 1:1.29675 
1 0:0.11746 1:1.34168 
1 0:0.1223 1:1.51484 
1 0:0.116 1:1.31598 
1 0:0.10534 1:1.3747 
1 0:0.10146 1:1.39663 
1 0:0.10332 1:1.44919 
1 0:0.205 1:0.35078 
1 0:0.19087 1:1.14811 
1 0:0.18366 1:0.23605 
1 0:0.06164 1:0.97406 
1 0:0.15966 1:0.33471 
1 0:0.13242 1:1.29326 
1 0:0.15199 1:1.27195 
1 0:0.17319 1:1.39536 
1 0:0.18889 1:0.41021 
1 0:0.17728 1:1.1702 
1 0:0.10005 1:0.49347 
1 0:0.08004 1:0.00105 
1 0:0.13242 1:1.02541 
1 0:0.135 1:0.68375 
1 0:0.13611 1:1.06571 
1 0:0.17376 1:1.52975 
1 0:0.18907 1:1.41553 
1 0:0.18558 1:1.20383 
1 0:0.18182 1:1.50398 
1 0:0.17654 1:0.97406 
1 0:0.22211 1:0.07458 
1 0:0.17954 1:0.88776 
1 0:0.16083 1:0.15711 
1 0:0.15339 1:1.53201 
1 0:0.17808 1:0.70211 
1 0:0.20546 1:0.24792 
1 0:0.16001 1:1.43008 
1 0:0.16001 1:1.13806 
1 0:0.14599 1:0.97406 
1 0:0.1437 1:0.97406 
1 0:0.14672 1:0.21785 
1 0:0.14332 1:0.97406 
1 0:0.15104 1:0.28313 
1 0:0.16739 1:1.3036 
1 0:0.16757 1:1.32304 
1 0:0.20049 1:1.48759 
1 0:0.14875 1:1.32079 
1 0:0.1929 1:0.10472 
1 0:0.14225 1:1.31491 
1 0:0.17787 1:1.36434 
1 0:0.16068 1:1.11294 
1 0:0.13812 1:0.97742 
1 0:0.16142 1:0.75556 
1 0:0.18027 1:0.10258 
1 0:0.12366 1:1.29675 
1 0:0.07746 1:0.51888 
1 0:0.12861 1:1.29675 
1 0:0.13711 1:0.41584 
1 0:0.1437 1:0.43931 
1 0:0.22181 1:0.23277 
1 0:0.18098 1:1.11468 
1 0:0.14662 1:1.45102 
1 0:0.1745 1:1.35295 
1 0:0.18874 1:0.21174 
1 0:0.15932 1:1.25665 
1 0:0.16121 1:1.1087 
1 0:0.10957 1:1.4626 
1 0:0.14085 1:0.97406 
1 0:0.16658 1:0.97406 
1 0:0.20464 1:0.22326 
1 0:0.17259 1:0.15244 
1 0:0.15477 1:1.27901 
1 0:0.13427 1:0.40383 
1 0:0.1469 1:0.44916 
1 0:0.18575 1:1.29675 
1 0:0.13936 1:0.97406 
1 0:0.14413 1:1.17886 
1 0:0.17876 1:1.31294 
1 0:0.19027 1:1.27141 
1 0:0.19871 1:1.5553 
1 0:0.14467 1:1.27825 
1 0:0.13452 1:1.49651 
1 0:0.11886 1:1.52518 
1 0:0.09149 1:1.49992 
1 0:0.15894 1:1.54565 
1 0:0.24781 1:0.07857 
1 0:0.13963 1:1.42884 
1 0:0.13719 1:1.50225 
1 0:0.14817 1:1.4948 
1 0:0.17922 1:1.1403 
1 0:0.18439 1:1.54394 
1 0:0.1869 1:1.55663 
1 0:0.15814 1:0.89231 
1 0:0.14413 1:1.43983 
1 0:0.13619 1:1.26652 
1 0:0.13619 1:1.5538 
1 0:0.13955 1:1.48772 
1 0:0.11485 1:1.54649 
1 0:0.11675 1:1.53177 
1 0:0.12268 1:1.56803 
1 0:0.09311 1:1.45263 
1 0:0.14332 1:0.35055 
1 0:0.13024 1:1.20922 
1 0:0.12122 1:1.05736 
1 0:0.1191 1:0.1688 
1 0:0.12069 1:1.14332 
1 0:0.13214 1:1.52518 
1 0:0.18531 1:1.53255 
1 0:0.18145 1:1.52471 
1 0:0.15853 1:1.44247 
1 0:0.14216 1:1.50426 
1 0:0.12983 1:1.5591 
1 0:0.09269 1:1.22838 
1 0:0.09812 1:1.13339 
1 0:0.10492 1:0.19569 
1 0:0.10338 1:0.66601 
1 0:0.09489 1:1.43893 
1 0:0.08921 1:0.81268 
1 0:0.08769 1:0.38565 
1 0:0.17641 1:1.5274 
1 0:0.161 1:1.35708 
1 0:0.15085 1:1.52063 
1 0:0.16069 1:1.52518 
1 0:0.09996 1:1.52518 
1 0:0.12919 1:1.56936 
1 0:0.08118 1:1.45909 
1 0:0.11242 1:1.22277 
1 0:0.13894 1:1.5418 
1 0:0.15674 1:1.43882 
1 0:0.14253 1:1.5659 
1 0:0.13266 1:1.34172 
1 0:0.11427 1:1.45542 
1 0:0.08032 1:0.56986 
1 0:0.09034 1:1.56424 
1 0:0.09034 1:1.43034 
1 0:0.16697 1:0.93777 
1 0:0.17653 1:0.29876 
1 0:0.17105 1:1.12003 
1 0:0.17105 1:0.21227 
1 0:0.16793 1:1.52518 
1 0:0.18985 1:0.28571 
1 0:0.19069 1:1.5024 
1 0:0.1909 1:1.38619 
1 0:0.19695 1:1.3802 
1 0:0.19425 1:1.55044 
1 0:0.14822 1:1.49977 
1 0:0.12628 1:1.44674 
1 0:0.11734 1:1.53216 
1 0:0.14786 1:1.54944 
1 0:0.21341 1:0.37981 
1 0:0.17355 1:1.41953 
1 0:0.17355 1:1.40017 
1 0:0.17702 1:1.27566 
1 0:0.15102 1:0.12428 
1 0:0.15102 1:1.41013 
1 0:0.15992 1:1.52518 
1 0:0.18531 1:1.18163 
1 0:0.18629 1:1.45009 
1 0:0.09894 1:1.52518 
1 0:0.10274 1:1.37069 
1 0:0.09798 1:1.52518 
1 0:0.11566 1:1.52173 
1 0:0.15181 1:1.40192 
1 0:0.13186 1:1.4776 
1 0:0.16309 1:1.47652 
1 0:0.17321 1:1.41831 
1 0:0.1477 1:0.62939 
1 0:0.16282 1:1.55858 
1 0:0.12984 1:0.39916 
1 0:0.18809 1:1.40866 
1 0:0.14657 1:1.45432 
1 0:0.12732 1:1.39741 
1 0:0.12435 1:0.64378 
1 0:0.12498 1:1.56152 
1 0:0.15294 1:1.45253 
1 0:0.11008 1:1.22838 
1 0:0.11176 1:1.2911 
1 0:0.11049 1:1.22838 
1 0:0.08805 1:1.53892 
1 0:0.09819 1:1.56537 
1 0:0.19565 1:1.50303 
1 0:0.15133 1:1.39287 
1 0:0.14118 1:0.25454 
1 0:0.16387 1:0.26917 
1 0:0.20295 1:0.29385 
1 0:0.15728 1:1.5063 
1 0:0.12819 1:1.28587 
1 0:0.13077 1:1.50709 
1 0:0.09422 1:0.23117 
1 0:0.17144 1:1.19727 
1 0:0.0971 1:1.52518 
1 0:0.13415 1:1.52518 
1 0:0.17489 1:1.47215 
1 0:0.18838 1:1.49205 
1 0:0.18413 1:1.3472 
1 0:0.24263 1:0.1032 
1 0:0.141 1:1.56317 
1 0:0.13654 1:1.35019 
1 0:0.08263 1:1.39945 
1 0:0.10993 1:1.43267 
1 0:0.15334 1:1.22838 
1 0:0.09609 1:1.52518 
1 0:0.10372 1:1.5341 
1 0:0.17096 1:0.75939 
1 0:0.2442 1:0.06957 
1 0:0.22385 1:0.20674 
1 0:0.24709 1:0.03497 
1 0:0.1999 1:0.30663 
1 0:0.2009 1:0.05587 
1 0:0.16226 1:1.12245 
1 0:0.16226 1:0.72648 
1 0:0.20539 1:1.54154 
1 0:0.10645 1:1.08801 
1 0:0.09997 1:1.46314 
1 0:0.09022 1:1.13443 
1 0:0.08839 1:0.01608 
1 0:0.15561 1:0.45002 
1 0:0.25261 1:0.01911 
1 0:0.20832 1:0.03908 
1 0:0.19968 1:1.53892 
1 0:0.21654 1:0.22939 
1 0:0.22624 1:0.15597 
1 0:0.23268 1:0.18869 
1 0:0.21852 1:0.30509 
1 0:0.23124 1:0.06759 
1 0:0.20834 1:0.16325 
1 0:0.2129 1:0.11832 
1 0:0.1848 1:1.37088 
1 0:0.17684 1:0.57041 
1 0:0.17487 1:0.07939 
1 0:0.202 1:1.53768 
1 0:0.20563 1:0.3141 
1 0:0.18573 1:1.3652 
1 0:0.21384 1:0.19863 
1 0:0.17125 1:1.24194 
1 0:0.19703 1:1.56773 
1 0:0.18439 1:0.68915 
1 0:0.17311 1:1.00257 
1 0:0.20596 1:0.0625 
1 0:0.22372 1:0.03605 
1 0:0.23549 1:0.04923 
1 0:0.2282 1:0.14868 
1 0:0.20622 1:0.23405 
1 0:0.20622 1:0.38177 
1 0:0.19897 1:0.62039 
1 0:0.20411 1:0.07578 
1 0:0.1999 1:1.47404 
1 0:0.13842 1:1.50004 
1 0:0.15422 1:0.42929 
1 0:0.15858 1:0.93729 
1 0:0.15339 1:1.33803 
1 0:0.14706 1:1.24695 
1 0:0.13772 1:0.40168 
1 0:0.12392 1:0.59381 
1 0:0.12297 1:1.29579 
1 0:0.12789 1:1.1483 
1 0:0.15833 1:0.28463 
1 0:0.21566 1:0.25309 
1 0:0.1999 1:0.1299 
1 0:0.16448 1:1.23395 
1 0:0.10719 1:0.21342 
1 0:0.10891 1:1.37574 
1 0:0.12216 1:0.68081 
1 0:0.11487 1:1.13092 
1 0:0.22708 1:0.20344 
1 0:0.09141 1:0.06959 
1 0:0.08922 1:0.41906 
1 0:0.08812 1:1.52733 
1 0:0.10553 1:0.09175 
1 0:0.10667 1:0.60489 
1 0:0.12185 1:0.30452 
1 0:0.1474 1:1.51933 
1 0:0.14268 1:1.38066 
1 0:0.13838 1:1.53549 
1 0:0.22648 1:0.06505 
1 0:0.19041 1:0.24982 
1 0:0.20369 1:1.56222 
1 0:0.21716 1:0.09882 
1 0:0.21596 1:0.29641 
1 0:0.17373 1:0.07053 
1 0:0.132 1:0.91074 
1 0:0.12994 1:1.35211 
1 0:0.11557 1:1.31426 
1 0:0.18349 1:1.43348 
1 0:0.19583 1:0.54716 
1 0:0.18418 1:1.33508 
1 0:0.18062 1:0.33514 
1 0:0.19346 1:0.02591 
1 0:0.17404 1:0.94202 
1 0:0.16293 1:0.10033 
1 0:0.20411 1:0.31916 
1 0:0.19872 1:1.54396 
1 0:0.19872 1:0.32957 
1 0:0.18742 1:1.30499 
1 0:0.08589 1:0.12302 
1 0:0.12025 1:1.02429 
1 0:0.11622 1:0.06136 
1 0:0.13866 1:1.23848 
1 0:0.12982 1:1.45946 
1 0:0.1269 1:0.23252 
1 0:0.18056 1:0.5704 
1 0:0.17991 1:0.59719 
1 0:0.17826 1:0.09969 
1 0:0.19015 1:1.37623 
1 0:0.18349 1:0.63325 
1 0:0.18573 1:1.36144 
1 0:0.18573 1:0.59719 
1 0:0.19392 1:0.32142 
1 0:0.19602 1:1.49618 
1 0:0.19602 1:1.43851 
1 0:0.19245 1:1.47091 
1 0:0.18709 1:0.74894 
1 0:0.18569 1:1.4324 
1 0:0.10867 1:1.41758 
1 0:0.10835 1:0.8733 
1 0:0.10835 1:0.0957 
1 0:0.13879 1:0.18087 
1 0:0.13308 1:0.76012 
1 0:0.18703 1:1.50025 
1 0:0.1876 1:1.40365 
1 0:0.21765 1:0.33624 
1 0:0.21433 1:0.37242 
0.3092439438679178 0:0.20726 1:1.55537 
1 0:0.19479 1:1.44008 
1 0:0.18032 1:0.40754 
1 0:0.12472 1:1.0412 
1 0:0.12277 1:0.18601 
1 0:0.15315 1:1.20644 
1 0:0.13918 1:0.1631 
1 0:0.18037 1:1.27148 
1 0:0.15354 1:0.59719 
1 0:0.15948 1:0.35921 
1 0:0.16208 1:1.29355 
1 0:0.18823 1:1.53098 
1 0:0.15186 1:1.48441 
1 0:0.14878 1:0.34487 
1 0:0.14913 1:1.03832 
1 0:0.24859 1:0.04837 
1 0:0.16175 1:0.40195 
1 0:0.15743 1:0.73129 
1 0:0.23247 1:0.22653 
1 0:0.09515 1:1.32379 
1 0:0.17201 1:1.20644 
1 0:0.10512 1:1.32708 
1 0:0.10289 1:0.06947 
1 0:0.13556 1:0.27018 
1 0:0.18876 1:1.2526 
1 0:0.19362 1:0.48041 
1 0:0.23621 1:0.19026 
1 0:0.11428 1:1.17367 
1 0:0.12976 1:1.4476 
1 0:0.18685 1:0.32099 
1 0:0.18041 1:1.49719 
1 0:0.12223 1:0.71339 
1 0:0.1448 1:1.4676 
1 0:0.1565 1:1.43588 
1 0:0.16152 1:1.24193 
1 0:0.22178 1:0.23964 
1 0:0.19792 1:0.50345 
1 0:0.14615 1:0.30555 
1 0:0.18733 1:1.4437 
1 0:0.12339 1:1.48766 
1 0:0.12962 1:0.78702 
1 0:0.12999 1:0.81748 
1 0:0.13648 1:0.59719 
1 0:0.13451 1:1.24341 
1 0:0.18876 1:0.41592 
1 0:0.20738 1:0.25602 
1 0:0.2319 1:0.18869 
1 0:0.11069 1:1.44078 
1 0:0.1159 1:1.00091 
1 0:0.14233 1:1.48315 
1 0:0.15442 1:1.4789 
1 0:0.14989 1:0.59719 
1 0:0.14719 1:1.0197 
1 0:0.18137 1:0.59719 
1 0:0.1871 1:1.50278 
1 0:0.18037 1:0.43379 
1 0:0.17528 1:0.43756 
1 0:0.09931 1:1.44843 
1 0:0.11913 1:1.49931 
1 0:0.11011 1:0.59719 
1 0:0.14264 1:1.46265 
1 0:0.1317 1:1.48664 
1 0:0.14677 1:0.35593 
1 0:0.1903 1:1.20644 
1 0:0.20415 1:0.48896 
1 0:0.10834 1:1.43982 
1 0:0.14322 1:1.54138 
1 0:0.13485 1:1.3867 
1 0:0.16354 1:1.06255 
1 0:0.14912 1:1.54889 
1 0:0.13466 1:0.59719 
1 0:0.1505 1:1.20644 
1 0:0.15166 1:1.47043 
1 0:0.144 1:1.46676 
1 0:0.16495 1:0.38107 
1 0:0.17373 1:0.98862 
1 0:0.25334 1:0.0415 
1 0:0.09356 1:1.4818 
1 0:0.25234 1:0.04265 
1 0:0.17678 1:0.81368 
1 0:0.18785 1:1.12156 
1 0:0.11449 1:0.43483 
1 0:0.18801 1:1.09811 
1 0:0.09454 1:0.06662 
1 0:0.2019 1:0.41649 
1 0:0.1236 1:1.55306 
1 0:0.20728 1:0.20934 
1 0:0.18869 1:1.5678 
1 0:0.1682 1:1.55214 
1 0:0.13395 1:1.55269 
1 0:0.21081 1:0.06803 
1 0:0.19373 1:1.50293 
1 0:0.16815 1:0.50781 
1 0:0.15871 1:0.45358 
1 0:0.14356 1:0.91109 
1 0:0.11609 1:0.22276 
1 0:0.19768 1:1.49999 
1 0:0.16179 1:0.566 
1 0:0.15929 1:0.4751 
1 0:0.16753 1:0.10559 
1 0:0.19456 1:0.67219 
1 0:0.16799 1:0.63713 
1 0:0.16187 1:0.04752 
1 0:0.15406 1:0.53637 
1 0:0.15406 1:0.92928 
1 0:0.15473 1:0.61056 
1 0:0.14307 1:0.65818 
1 0:0.14549 1:1.38651 
1 0:0.15434 1:0.47917 
1 0:0.1256 1:1.1959 
1 0:0.1974 1:1.34931 
1 0:0.18978 1:1.17479 
1 0:0.18018 1:1.29704 
1 0:0.17514 1:1.525 
1 0:0.17471 1:1.25248 
1 0:0.18279 1:0.91109 
1 0:0.20681 1:0.41546 
1 0:0.18768 1:0.14252 
1 0:0.17303 1:0.39585 
1 0:0.16119 1:0.86495 
1 0:0.1501 1:1.2515 
1 0:0.15558 1:1.26841 
1 0:0.15964 1:1.54438 
1 0:0.16485 1:1.24844 
1 0:0.15998 1:1.30688 
1 0:0.15459 1:1.37841 
1 0:0.14819 1:1.39206 
1 0:0.2018 1:0.42134 
1 0:0.18685 1:1.07851 
1 0:0.17638 1:0.30748 
1 0:0.1838 1:0.91109 
1 0:0.1529 1:0.91109 
1 0:0.14215 1:0.40747 
1 0:0.11444 1:1.23529 
1 0:0.14567 1:1.19959 
1 0:0.16444 1:1.33305 
1 0:0.18419 1:0.48311 
1 0:0.16973 1:1.10826 
1 0:0.19644 1:0.54826 
1 0:0.18677 1:0.07354 
1 0:0.11322 1:1.01941 
1 0:0.11871 1:0.75264 
1 0:0.1204 1:0.99849 
1 0:0.22337 1:0.0806 
1 0:0.16997 1:0.82409 
1 0:0.14878 1:0.09613 
1 0:0.13696 1:1.5465 
1 0:0.16806 1:0.64301 
1 0:0.20509 1:0.17807 
1 0:0.12886 1:0.91109 
1 0:0.13371 1:0.14484 
1 0:0.12916 1:0.91109 
1 0:0.13401 1:0.35438 
1 0:0.15856 1:1.2566 
1 0:0.18108 1:0.96211 
1 0:0.19646 1:1.41884 
1 0:0.18771 1:0.14923 
1 0:0.18464 1:1.25828 
1 0:0.17014 1:1.43319 
1 0:0.14735 1:1.04454 
1 0:0.18022 1:0.91728 
1 0:0.15169 1:0.82382 
1 0:0.16756 1:0.1701 
1 0:0.16914 1:1.2515 
1 0:0.18666 1:0.56886 
1 0:0.16561 1:1.2515 
1 0:0.12035 1:0.36207 
1 0:0.1968 1:1.51841 
1 0:0.1288 1:0.51056 
1 0:0.22136 1:0.23263 
1 0:0.17424 1:1.04615 
1 0:0.20039 1:1.48055 
1 0:0.19751 1:1.37071 
1 0:0.18223 1:0.22077 
1 0:0.14328 1:1.18534 
1 0:0.14452 1:1.17286 
1 0:0.15485 1:1.49478 
1 0:0.19898 1:1.37626 
1 0:0.12488 1:0.91109 
1 0:0.15674 1:0.91109 
1 0:0.20167 1:0.2798 
1 0:0.1905 1:1.5048 
1 0:0.20191 1:1.52235 
1 0:0.16172 1:0.22395 
1 0:0.18569 1:1.22683 
1 0:0.19162 1:1.55759 
1 0:0.1148 1:0.4748 
1 0:0.13082 1:0.51206 
1 0:0.17886 1:1.2515 
1 0:0.11967 1:0.91109 
1 0:0.12737 1:1.11512 
1 0:0.19162 1:1.46965 
1 0:0.1905 1:1.36349 
1 0:0.18666 1:1.46988 
1 0:0.20429 1:1.51525 
0.9106185145685186 0:0.19411 1:0.71969 
1 0:0.17847 1:0.21127 
1 0:0.15102 1:1.10479 
1 0:0.22909 1:0.20333 
1 0:0.18855 1:0.23986 
1 0:0.22061 1:0.28745 
1 0:0.19481 1:0.27955 
1 0:0.1906 1:1.45313 
1 0:0.19925 1:0.49097 
1 0:0.19681 1:1.5267 
1 0:0.19511 1:0.53522 
1 0:0.19762 1:1.48023 
1 0:0.17376 1:1.43501 
1 0:0.17545 1:0.35259 
1 0:0.17929 1:1.52471 
1 0:0.15014 1:0.15467 
1 0:0.20743 1:0.21733 
1 0:0.19349 1:1.54997 
1 0:0.19355 1:0.31882 
1 0:0.20206 1:0.21127 
1 0:0.1985 1:0.32518 
1 0:0.18647 1:0.29241 
1 0:0.1895 1:0.26187 
1 0:0.19581 1:0.24645 
1 0:0.16842 1:0.53891 
1 0:0.17385 1:0.33722 
1 0:0.17816 1:1.54181 
1 0:0.18234 1:0.73106 
1 0:0.17696 1:0.25709 
1 0:0.17156 1:0.94821 
1 0:0.16625 1:1.03229 
1 0:0.20058 1:1.46312 
1 0:0.20058 1:0.01751 
1 0:0.2201 1:0.03891 
1 0:0.22024 1:0.21127 
1 0:0.15175 1:0.21127 
1 0:0.18612 1:1.44954 
1 0:0.13793 1:0.33111 
1 0:0.16808 1:0.22348 
1 0:0.20498 1:0.26185 
1 0:0.2043 1:0.46053 
1 0:0.19432 1:0.35081 
1 0:0.19832 1:0.33535 
1 0:0.20137 1:0.19512 
1 0:0.21193 1:0.36642 
1 0:0.22075 1:0.21127 
1 0:0.1374 1:1.5344 
1 0:0.14892 1:1.33749 
1 0:0.14892 1:0.07383 
1 0:0.20782 1:0.26673 
1 0:0.18985 1:1.45845 
1 0:0.18591 1:0.96411 
1 0:0.17649 1:0.52144 
1 0:0.20732 1:0.46325 
1 0:0.22865 1:0.06436 
1 0:0.19373 1:1.34698 
1 0:0.18821 1:0.98058 
1 0:0.15744 1:0.21127 
1 0:0.16058 1:0.91074 
1 0:0.15581 1:0.21127 
1 0:0.17443 1:1.40289 
1 0:0.21997 1:0.1833 
1 0:0.21757 1:0.29295 
1 0:0.19249 1:0.53055 
1 0:0.2477 1:0.00923 
1 0:0.19103 1:0.21776 
1 0:0.22222 1:0.13551 
1 0:0.18839 1:0.69919 
1 0:0.18926 1:0.69311 
1 0:0.18664 1:0.01615 
1 0:0.18398 1:1.26613 
1 0:0.18703 1:0.53891 
1 0:0.20628 1:1.56049 
1 0:0.18419 1:0.53892 
1 0:0.14538 1:0.73593 
1 0:0.1895 1:1.13144 
1 0:0.15636 1:1.55837 
1 0:0.19935 1:0.21127 
1 0:0.21094 1:0.01125 
1 0:0.21209 1:0.14426 
1 0:0.19723 1:0.21127 
1 0:0.1902 1:1.28309 
1 0:0.18604 1:0.17024 
1 0:0.18833 1:0.92632 
1 0:0.1724 1:1.53102 
1 0:0.22558 1:0.24995 
1 0:0.19169 1:1.27822 
1 0:0.2338 1:0.21127 
1 0:0.21224 1:0.1565 
1 0:0.15634 1:0.21127 
1 0:0.19379 1:0.21127 
1 0:0.1832 1:1.34734 
1 0:0.19488 1:1.43662 
1 0:0.20499 1:0.42201 
1 0:0.18449 1:1.51257 
1 0:0.14019 1:1.45456 
1 0:0.1692 1:1.55939 
1 0:0.20855 1:0.21127 
1 0:0.15559 1:0.21127 
1 0:0.16328 1:0.15781 
1 0:0.18449 1:1.16143 
1 0:0.19373 1:0.21127 
1 0:0.1832 1:1.46465 
1 0:0.20601 1:1.53501 
1 0:0.18064 1:1.57031 
1 0:0.18255 1:0.76566 
1 0:0.15495 1:1.45098 
1 0:0.18255 1:0.82499 
1 0:0.18897 1:0.81881 
1 0:0.18466 1:1.45799 
1 0:0.19887 1:0.54458 
1 0:0.17801 1:0.82832 
1 0:0.17972 1:0.2861 
1 0:0.18371 1:1.01013 
1 0:0.15441 1:0.47275 
1 0:0.19732 1:1.49419 
1 0:0.19744 1:0.53583 
1 0:0.18325 1:0.85826 
1 0:0.18966 1:0.85097 
1 0:0.17212 1:0.63107 
1 0:0.17756 1:0.53088 
1 0:0.18199 1:1.55163 
1 0:0.18594 1:0.9347 
1 0:0.18039 1:0.36355 
1 0:0.17497 1:0.93238 
1 0:0.16992 1:1.15006 
1 0:0.19373 1:0.61262 
1 0:0.22289 1:0.16694 
1 0:0.15151 1:0.76566 
1 0:0.18953 1:1.08636 
1 0:0.14215 1:0.49041 
1 0:0.17244 1:0.53212 
1 0:0.18792 1:0.96555 
1 0:0.20254 1:0.35841 
1 0:0.20707 1:0.14789 
1 0:0.14164 1:1.19872 
1 0:0.15306 1:0.72495 
1 0:0.15306 1:0.67016 
1 0:0.18314 1:0.86842 
1 0:0.1899 1:1.56356 
1 0:0.18029 1:0.15932 
1 0:0.1877 1:0.72645 
1 0:0.18225 1:0.37227 
1 0:0.16166 1:0.76566 
1 0:0.16486 1:1.52989 
1 0:0.16007 1:0.76566 
1 0:0.17813 1:1.12734 
1 0:0.18611 1:1.01605 
1 0:0.19528 1:0.41211 
1 0:0.19366 1:1.41695 
1 0:0.18903 1:1.17038 
1 0:0.18219 1:0.83756 
1 0:0.18312 1:1.00489 
1 0:0.2103 1:0.08941 
1 0:0.1905 1:0.62615 
1 0:0.18896 1:1.02497 
1 0:0.2037 1:1.5643 
1 0:0.18825 1:0.65209 
1 0:0.19073 1:0.63107 
1 0:0.18801 1:0.63107 
1 0:0.14963 1:1.33212 
1 0:0.18325 1:1.17069 
1 0:0.16061 1:0.9748 
1 0:0.19084 1:0.76566 
1 0:0.18383 1:1.30857 
1 0:0.20344 1:1.56191 
1 0:0.18958 1:0.51702 
1 0:0.19183 1:0.3067 
1 0:0.176 1:1.54432 
1 0:0.18531 1:1.29935 
1 0:0.19109 1:1.16762 
1 0:0.19705 1:1.34278 
1 0:0.19927 1:1.56224 
1 0:0.16045 1:0.76566 
1 0:0.17693 1:1.42894 
1 0:0.18856 1:1.51936 
1 0:0.17845 1:1.42518 
1 0:0.14442 1:1.11472 
1 0:0.19242 1:1.40228 
1 0:0.173 1:0.9625 
1 0:0.15949 1:0.76566 
1 0:0.16722 1:0.5608 
1 0:0.17845 1:1.24059 
1 0:0.18794 1:0.76566 
1 0:0.17693 1:1.4865 
1 0:0.18149 1:0.62161 
1 0:0.19308 1:1.3225 
1 0:0.17988 1:1.0191 
1 0:0.17041 1:1.40118 
1 0:0.181 1:1.41193 
1 0:0.16515 1:1.39196 
1 0:0.13651 1:1.35422 
1 0:0.13847 1:0.89196 
1 0:0.16571 1:0.96717 
1 0:0.17361 1:0.9215 
1 0:0.18122 1:1.18461 
1 0:0.18282 1:1.35875 
1 0:0.17188 1:1.03204 
1 0:0.14558 1:0.86304 
1 0:0.1409 1:1.47458 
1 0:0.18439 1:1.55302 
1 0:0.1718 1:1.1547 
1 0:0.14774 1:0.94962 
1 0:0.18745 1:0.88185 
1 0:0.18545 1:0.72215 
1 0:0.18784 1:0.97261 
1 0:0.20484 1:0.41286 
1 0:0.17586 1:1.32224 
1 0:0.13724 1:0.92934 
1 0:0.17922 1:1.20715 
1 0:0.14348 1:0.92901 
1 0:0.13686 1:0.75788 
1 0:0.1393 1:0.7207 
1 0:0.16563 1:0.08606 
1 0:0.16944 1:0.4622 
1 0:0.19181 1:1.36693 
1 0:0.17342 1:0.46282 
1 0:0.17336 1:0.95503 
1 0:0.16276 1:0.82482 
1 0:0.15851 1:0.98399 
1 0:0.18479 1:1.28949 
1 0:0.17966 1:1.42303 
1 0:0.17659 1:1.55677 
1 0:0.15475 1:0.98012 
1 0:0.16381 1:0.92607 
1 0:0.15094 1:1.05604 
1 0:0.14937 1:1.4687 
1 0:0.1412 1:1.0829 
1 0:0.15681 1:0.90682 
1 0:0.15681 1:1.48531 
1 0:0.16225 1:1.18884 
1 0:0.17618 1:0.90288 
1 0:0.18005 1:0.49024 
1 0:0.16359 1:0.82482 
1 0:0.15929 1:0.0958 
1 0:0.1285 1:0.72567 
1 0:0.20266 1:1.5312 
1 0:0.17756 1:0.84953 
1 0:0.18783 1:1.00358 
1 0:0.18599 1:1.56815 
1 0:0.14008 1:0.67056 
1 0:0.13765 1:0.27962 
1 0:0.18835 1:0.93532 
1 0:0.18832 1:0.82482 
1 0:0.17919 1:1.07264 
1 0:0.18105 1:1.50554 
1 0:0.1719 1:1.42343 
1 0:0.16848 1:1.0191 
1 0:0.19657 1:1.42531 
1 0:0.13875 1:1.00989 
1 0:0.18185 1:1.45523 
1 0:0.18802 1:1.42741 
1 0:0.19368 1:1.50568 
1 0:0.18962 1:0.74008 
1 0:0.2045 1:1.5308 
1 0:0.17391 1:1.0271 
1 0:0.14568 1:1.2799 
1 0:0.18666 1:1.13739 
1 0:0.18701 1:1.54819 
1 0:0.17118 1:0.99432 
1 0:0.18764 1:1.37971 
1 0:0.15063 1:1.12686 
1 0:0.14347 1:1.0522 
1 0:0.18237 1:1.39946 
1 0:0.13653 1:0.72301 
1 0:0.16502 1:1.11334 
1 0:0.17291 1:1.29432 
1 0:0.13765 1:1.2162 
1 0:0.1754 1:1.14099 
1 0:0.14151 1:1.2356 
1 0:0.16291 1:1.25371 
1 0:0.18373 1:1.14721 
1 0:0.15776 1:0.72371 
1 0:0.15493 1:1.34174 
1 0:0.14048 1:1.33246 
1 0:0.19046 1:0.82482 
1 0:0.1896 1:1.34873 
1 0:0.14874 1:1.32255 
1 0:0.13724 1:1.38961 
1 0:0.14586 1:0.82482 
1 0:0.18692 1:0.87431 
1 0:0.20971 1:0.41325 
1 0:0.16257 1:0.73113 
1 0:0.17498 1:1.10299 
1 0:0.14337 1:0.82482 
1 0:0.13687 1:1.11868 
1 0:0.14959 1:1.13734 
1 0:0.1754 1:1.52224 
1 0:0.15845 1:1.16892 
1 0:0.15692 1:1.35704 
1 0:0.16723 1:1.2183 
1 0:0.16616 1:1.35674 
1 0:0.17719 1:1.53588 
1 0:0.19358 1:1.43096 
1 0:0.13875 1:1.10902 
1 0:0.1601 1:1.56828 
1 0:0.17643 1:0.82482 
1 0:0.18373 1:1.54398 
1 0:0.15736 1:0.69781 
1 0:0.14385 1:1.13494 
1 0:0.14929 1:1.56517 
1 0:0.15116 1:1.33966 
1 0:0.16785 1:1.52703 
1 0:0.13146 1:1.49478 
1 0:0.1446 1:1.40585 
1 0:0.13442 1:1.21251 
1 0:0.14972 1:1.52113 
1 0:0.18382 1:1.55302 
1 0:0.17639 1:1.13397 
1 0:0.1464 1:0.82482 
1 0:0.13334 1:1.46101 
1 0:0.14515 1:0.82482 
1 0:0.1311 1:1.26461 
1 0:0.17879 1:0.57927 
1 0:0.2033 1:1.56493 
1 0:0.19447 1:1.43571 
1 0:0.18137 1:1.51283 
1 0:0.17196 1:1.5353 
1 0:0.19669 1:1.51888 
1 0:0.18252 1:1.54009 
1 0:0.16672 1:1.48277 
1 0:0.13787 1:1.42684 
1 0:0.13987 1:1.527 
1 0:0.16686 1:1.50162 
1 0:0.17473 1:1.51858 
1 0:0.18229 1:1.46618 
1 0:0.18385 1:1.43629 
1 0:0.17293 1:1.48023 
1 0:0.14687 1:1.5055 
1 0:0.14225 1:1.54593 
1 0:0.19541 1:1.56326 
1 0:0.18574 1:1.4785 
1 0:0.17322 1:1.55876 
1 0:0.14938 1:1.55083 
1 0:0.18809 1:1.52548 
1 0:0.18608 1:0.19756 
1 0:0.18858 1:1.53091 
1 0:0.20545 1:0.23267 
1 0:0.17706 1:1.39978 
1 0:0.13878 1:1.5628 
1 0:0.18036 1:1.56447 
1 0:0.14487 1:1.55878 
1 0:0.13731 1:0.13263 
1 0:0.13993 1:1.32728 
1 0:0.16615 1:0.71399 
1 0:0.16988 1:0.18638 
1 0:0.19327 1:1.2931 
1 0:0.19931 1:1.46239 
1 0:0.17383 1:0.28444 
1 0:0.17383 1:1.54356 
1 0:0.16878 1:1.46239 
1 0:0.16004 1:0.83437 
1 0:0.20474 1:1.50798 
1 0:0.20136 1:1.55791 
1 0:0.18618 1:1.1891 
1 0:0.18109 1:1.50582 
1 0:0.17801 1:1.5197 
1 0:0.15634 1:1.54517 
1 0:0.16525 1:1.53095 
1 0:0.15248 1:1.50862 
1 0:0.15092 1:1.51807 
1 0:0.1428 1:1.46082 
1 0:0.15822 1:1.55203 
1 0:0.15822 1:1.54805 
1 0:0.16363 1:1.52731 
1 0:0.17748 1:1.54809 
1 0:0.18078 1:0.23469 
1 0:0.16442 1:1.46239 
1 0:0.16027 1:0.71091 
1 0:0.22834 1:0.16493 
1 0:0.12901 1:0.27598 
1 0:0.20199 1:1.56167 
1 0:0.2022 1:1.50447 
1 0:0.17791 1:1.49025 
1 0:0.18905 1:1.49874 
1 0:0.18722 1:1.55359 
1 0:0.14107 1:0.04717 
1 0:0.13864 1:0.36749 
1 0:0.18973 1:1.55867 
1 0:0.18916 1:1.46239 
1 0:0.1805 1:1.55132 
1 0:0.18235 1:1.4252 
1 0:0.17338 1:1.46159 
1 0:0.17 1:1.51283 
1 0:0.19777 1:1.51431 
1 0:0.14028 1:1.4917 
1 0:0.18294 1:1.52762 
1 0:0.18932 1:1.48883 
1 0:0.19473 1:1.32767 
1 0:0.19071 1:1.34427 
1 0:0.20564 1:1.54502 
1 0:0.19888 1:1.47802 
1 0:0.1752 1:1.54674 
1 0:0.1472 1:1.40861 
1 0:0.18781 1:1.38412 
1 0:0.18813 1:1.49995 
1 0:0.17257 1:1.52941 
1 0:0.18874 1:1.43201 
1 0:0.20603 1:1.55909 
1 0:0.1522 1:1.52526 
1 0:0.14511 1:1.56562 
1 0:0.18351 1:1.47732 
1 0:0.13805 1:1.29117 
1 0:0.24578 1:0.09994 
1 0:0.19164 1:1.55386 
1 0:0.16624 1:1.50318 
1 0:0.17409 1:1.51674 
1 0:0.13908 1:1.56092 
1 0:0.17649 1:1.55535 
1 0:0.14303 1:1.55921 
1 0:0.16421 1:1.48642 
1 0:0.18485 1:1.3744 
1 0:0.15907 1:1.28985 
1 0:0.15622 1:1.24083 
1 0:0.14096 1:1.19801 
1 0:0.19191 1:1.46239 
1 0:0.19092 1:1.37321 
1 0:0.15034 1:1.50812 
1 0:0.13878 1:1.42678 
1 0:0.14726 1:1.46239 
1 0:0.18792 1:1.23553 
1 0:0.21005 1:0.23309 
1 0:0.16413 1:1.28596 
1 0:0.17633 1:1.41641 
1 0:0.1449 1:1.46239 
1 0:0.1977 1:1.46239 
1 0:0.13842 1:1.42693 
1 0:0.15095 1:1.38153 
1 0:0.17649 1:1.53356 
1 0:0.15964 1:1.46556 
1 0:0.15812 1:1.25693 
1 0:0.16875 1:1.51425 
1 0:0.16768 1:1.24522 
1 0:0.17853 1:1.45543 
1 0:0.19477 1:1.5116 
1 0:0.19477 1:1.46239 
1 0:0.14035 1:1.41726 
1 0:0.16143 1:1.49133 
1 0:0.17761 1:1.46239 
1 0:0.18485 1:1.50583 
1 0:0.15866 1:1.25103 
1 0:0.14527 1:1.38349 
1 0:0.15064 1:1.50598 
1 0:0.15249 1:1.24036 
1 0:0.16898 1:1.53396 
1 0:0.13305 1:1.52698 
1 0:0.14626 1:1.47506 
1 0:0.13585 1:1.36162 
1 0:0.15138 1:1.54353 
1 0:0.18497 1:1.49736 
1 0:0.17753 1:1.4415 
1 0:0.14702 1:1.46239 
1 0:0.13479 1:1.50601 
1 0:0.14636 1:1.46239 
1 0:0.13257 1:1.27679 
1 0:0.17746 1:0.5159 
1 0:0.18583 1:0.90097 
1 0:0.17667 1:1.20319 
1 0:0.187 1:1.21639 
1 0:0.17151 1:1.56759 
1 0:0.14339 1:1.53954 
1 0:0.14545 1:0.80565 
1 0:0.17147 1:0.80539 
1 0:0.17917 1:0.96208 
1 0:0.18661 1:1.34141 
1 0:0.18803 1:1.16774 
1 0:0.17734 1:0.9352 
1 0:0.15218 1:0.79607 
1 0:0.14772 1:1.49196 
1 0:0.19002 1:1.39403 
1 0:0.17782 1:0.96896 
1 0:0.15473 1:0.87647 
1 0:0.18909 1:0.74958 
1 0:0.18151 1:1.13789 
1 0:0.14448 1:0.83974 
1 0:0.18469 1:1.01338 
1 0:0.15029 1:0.83354 
1 0:0.14001 1:0.85514 
1 0:0.14321 1:0.59908 
1 0:0.16885 1:0.1341 
1 0:0.1721 1:0.56502 
1 0:0.19745 1:1.56346 
1 0:0.1759 1:0.48116 
1 0:0.1763 1:0.88813 
1 0:0.16664 1:0.7448 
1 0:0.16468 1:1.17985 
1 0:0.20807 1:0.46049 
1 0:0.19043 1:1.48727 
1 0:0.18556 1:1.55788 
1 0:0.18254 1:1.36331 
1 0:0.16145 1:0.86818 
1 0:0.17007 1:0.959 
1 0:0.15776 1:0.87298 
1 0:0.15627 1:1.27805 
1 0:0.14832 1:0.95575 
1 0:0.16327 1:0.85723 
1 0:0.16327 1:1.29319 
1 0:0.16846 1:1.00323 
1 0:0.18194 1:0.85343 
1 0:0.18412 1:0.62845 
1 0:0.16823 1:0.7448 
1 0:0.16458 1:0.11543 
1 0:0.13196 1:0.86895 
1 0:0.22874 1:0.12585 
1 0:0.17995 1:0.77711 
1 0:0.19145 1:1.38392 
1 0:0.14556 1:0.74132 
1 0:0.14312 1:0.37618 
1 0:0.19281 1:0.7448 
1 0:0.18491 1:0.89564 
1 0:0.1867 1:1.30752 
1 0:0.17799 1:1.23484 
1 0:0.17468 1:0.90097 
1 0:0.20178 1:1.55355 
1 0:0.14582 1:0.98785 
1 0:0.18717 1:1.51682 
1 0:0.19358 1:1.52947 
1 0:0.19483 1:0.61626 
1 0:0.20202 1:0.54359 
1 0:0.17974 1:0.88118 
1 0:0.1525 1:1.3801 
1 0:0.1923 1:1.35302 
1 0:0.1772 1:0.83327 
1 0:0.15747 1:0.93636 
1 0:0.15062 1:1.13398 
1 0:0.18777 1:1.20763 
1 0:0.14376 1:0.80097 
1 0:0.17091 1:0.95068 
1 0:0.17861 1:1.09636 
1 0:0.14466 1:1.02151 
1 0:0.18091 1:1.2522 
1 0:0.1485 1:1.04127 
1 0:0.16895 1:1.37396 
1 0:0.18906 1:1.15278 
1 0:0.16401 1:0.80305 
1 0:0.16116 1:1.5393 
1 0:0.14372 1:1.21654 
1 0:0.15569 1:1.12529 
1 0:0.14448 1:1.20192 
1 0:0.1526 1:0.7448 
1 0:0.16899 1:0.57381 
1 0:0.20521 1:1.52123 
1 0:0.18087 1:1.10779 
1 0:0.15034 1:0.7448 
1 0:0.14405 1:1.27254 
1 0:0.15613 1:1.13997 
1 0:0.18091 1:1.32787 
1 0:0.16447 1:1.32303 
1 0:0.16299 1:1.5545 
1 0:0.17351 1:1.02096 
1 0:0.17241 1:1.41282 
1 0:0.18296 1:1.41061 
1 0:0.14598 1:1.26336 
1 0:0.1663 1:1.37882 
1 0:0.18201 1:0.7448 
1 0:0.18906 1:1.34896 
1 0:0.16362 1:0.53896 
1 0:0.15065 1:1.13713 
1 0:0.15582 1:1.37122 
1 0:0.15759 1:1.53719 
1 0:0.17356 1:1.33293 
1 0:0.13895 1:1.46047 
1 0:0.15167 1:1.55138 
1 0:0.14153 1:1.3922 
1 0:0.15666 1:1.43368 
1 0:0.18921 1:1.35793 
1 0:0.18194 1:0.93655 
1 0:0.15018 1:0.7448 
1 0:0.14042 1:1.27092 
1 0:0.15151 1:0.7448 
1 0:0.13821 1:1.4576 
1 0:0.19092 1:0.75985 
1 0:0.19262 1:1.1915 
1 0:0.18309 1:1.47437 
1 0:0.19264 1:1.56644 
1 0:0.17769 1:1.53598 
1 0:0.14952 1:1.54915 
1 0:0.20614 1:0.43745 
1 0:0.15163 1:1.26965 
1 0:0.18014 1:1.36312 
1 0:0.18838 1:1.26677 
1 0:0.19587 1:1.44892 
1 0:0.19744 1:1.45169 
1 0:0.18593 1:1.14296 
1 0:0.1584 1:1.28302 
1 0:0.15389 1:1.42517 
1 0:0.24895 1:0.04778 
1 0:0.24811 1:0.08535 
1 0:0.19903 1:1.50668 
1 0:0.18638 1:1.35614 
1 0:0.16146 1:1.20011 
1 0:0.20044 1:0.3298 
1 0:0.19118 1:1.22317 
1 0:0.15127 1:1.23585 
1 0:0.19444 1:1.41604 
1 0:0.15737 1:1.24313 
1 0:0.15108 1:0.28158 
1 0:0.15324 1:1.48505 
1 0:0.18061 1:1.07019 
1 0:0.18469 1:0.55007 
1 0:0.18877 1:0.58742 
1 0:0.18862 1:1.19033 
1 0:0.16623 1:1.33106 
1 0:0.17095 1:0.95591 
1 0:0.22294 1:0.08968 
1 0:0.19374 1:1.33977 
1 0:0.1909 1:1.54591 
1 0:0.16828 1:1.21752 
1 0:0.17864 1:1.25242 
1 0:0.16541 1:1.40665 
1 0:0.16382 1:1.50161 
1 0:0.15554 1:1.15088 
1 0:0.17169 1:1.23106 
1 0:0.17169 1:1.53397 
1 0:0.17732 1:1.33027 
1 0:0.1915 1:1.23499 
1 0:0.1947 1:0.57525 
1 0:0.17761 1:1.33106 
1 0:0.17278 1:1.06521 
1 0:0.20946 1:0.3253 
1 0:0.14254 1:0.45926 
1 0:0.19311 1:1.30025 
1 0:0.20152 1:1.53819 
1 0:0.1531 1:0.33531 
1 0:0.15072 1:0.72636 
1 0:0.22004 1:0.08675 
1 0:0.19447 1:1.35245 
1 0:0.19633 1:1.38022 
1 0:0.18554 1:1.44896 
1 0:0.18161 1:1.1915 
1 0:0.15315 1:1.12824 
1 0:0.19697 1:1.38852 
1 0:0.20323 1:1.5475 
1 0:0.18923 1:1.25445 
1 0:0.1603 1:1.12325 
1 0:0.2025 1:1.51291 
1 0:0.18608 1:1.33702 
1 0:0.16492 1:1.4248 
1 0:0.15754 1:1.23706 
1 0:0.19776 1:1.48527 
1 0:0.1504 1:1.49807 
1 0:0.17992 1:1.24323 
1 0:0.18789 1:1.53792 
1 0:0.15128 1:1.42681 
1 0:0.18988 1:1.26212 
1 0:0.15597 1:1.40723 
1 0:0.17804 1:1.22081 
1 0:0.17246 1:1.49987 
1 0:0.16952 1:1.29814 
1 0:0.15484 1:0.88796 
1 0:0.16294 1:1.56707 
1 0:0.15127 1:1.4201 
1 0:0.22129 1:0.09801 
1 0:0.16013 1:1.33106 
1 0:0.20133 1:1.52338 
1 0:0.17587 1:1.5526 
1 0:0.15788 1:1.33106 
1 0:0.15117 1:1.47037 
1 0:0.16403 1:1.0202 
1 0:0.18983 1:1.54494 
1 0:0.1724 1:1.442 
1 0:0.17066 1:1.31157 
1 0:0.18084 1:1.49592 
1 0:0.1797 1:0.92452 
1 0:0.1923 1:1.48433 
1 0:0.15304 1:1.47889 
1 0:0.17509 1:1.51571 
1 0:0.19171 1:1.33106 
1 0:0.19912 1:1.51872 
1 0:0.17199 1:1.55541 
1 0:0.15811 1:1.02204 
1 0:0.16365 1:1.53155 
1 0:0.1656 1:1.29873 
1 0:0.18206 1:1.54835 
1 0:0.14532 1:1.53279 
1 0:0.15814 1:1.55448 
1 0:0.14752 1:1.53593 
1 0:0.20701 1:0.25853 
1 0:0.1629 1:1.52487 
1 0:0.2186 1:0.11183 
1 0:0.1993 1:1.51214 
1 0:0.19142 1:1.55046 
1 0:0.16073 1:1.33106 
1 0:0.14699 1:1.48918 
1 0:0.15753 1:1.33106 
1 0:0.14492 1:1.39228 
1 0:0.11134 1:0.52212 
1 0:0.13324 1:1.4867 
1 0:0.17637 1:0.68329 
1 0:0.16725 1:0.81873 
1 0:0.15741 1:0.64692 
1 0:0.15258 1:0.8296 
1 0:0.14441 1:0.71798 
1 0:0.14142 1:0.90319 
1 0:0.13479 1:0.58809 
1 0:0.13021 1:0.92904 
1 0:0.13027 1:1.31068 
1 0:0.18019 1:0.4189 
1 0:0.17702 1:0.85529 
1 0:0.17702 1:1.10846 
1 0:0.17667 1:0.6706 
1 0:0.15811 1:0.77299 
1 0:0.22455 1:0.24736 
1 0:0.21573 1:0.25045 
1 0:0.12787 1:1.28455 
1 0:0.12914 1:0.64796 
1 0:0.13446 1:0.67203 
1 0:0.05232 1:0.64796 
1 0:0.12941 1:1.4867 
1 0:0.21894 1:0.34756 
1 0:0.16302 1:1.35487 
1 0:0.16451 1:1.34405 
1 0:0.16979 1:1.08139 
1 0:0.15315 1:0.69919 
1 0:0.18571 1:1.01155 
1 0:0.18039 1:0.57945 
1 0:0.18039 1:1.0055 
1 0:0.17984 1:0.75271 
1 0:0.19565 1:1.5512 
1 0:0.18842 1:0.8572 
1 0:0.16537 1:0.68023 
1 0:0.15515 1:0.96882 
1 0:0.14672 1:0.71797 
1 0:0.19213 1:1.45906 
1 0:0.1903 1:1.26743 
1 0:0.18032 1:1.30035 
1 0:0.1861 1:1.50042 
1 0:0.1867 1:0.57855 
1 0:0.18746 1:1.07259 
1 0:0.1759 1:0.90913 
1 0:0.17297 1:0.63268 
1 0:0.16923 1:1.24313 
1 0:0.17848 1:1.0685 
1 0:0.139 1:0.64796 
1 0:0.18614 1:0.86708 
1 0:0.16905 1:0.83098 
1 0:0.14909 1:0.3519 
1 0:0.19091 1:0.64796 
1 0:0.19348 1:1.48607 
1 0:0.18516 1:0.64796 
1 0:0.15566 1:0.71525 
1 0:0.15297 1:1.46088 
0.9328129830781257 0:0.19111 1:1.12305 
1 0:0.18417 1:1.47807 
0.4667919177879591 0:0.22286 1:0.31957 
1 0:0.20172 1:0.23145 
1 0:0.15591 1:1.1959 
1 0:0.14732 1:1.28971 
1 0:0.13845 1:1.16854 
1 0:0.19799 1:1.40016 
1 0:0.19567 1:0.33515 
1 0:0.05314 1:0.58989 
1 0:0.07556 1:1.18085 
1 0:0.15881 1:0.73343 
1 0:0.15212 1:1.13266 
1 0:0.14478 1:0.80334 
1 0:0.14117 1:1.12201 
1 0:0.1363 1:0.84473 
1 0:0.13493 1:1.21742 
1 0:0.12704 1:0.74865 
1 0:0.12521 1:1.24065 
1 0:0.12545 1:1.53416 
1 0:0.18868 1:0.39522 
1 0:0.1948 1:0.68993 
1 0:0.16305 1:0.82519 
1 0:0.16305 1:1.4197 
1 0:0.16626 1:0.95339 
1 0:0.15402 1:0.80798 
1 0:0.19543 1:0.67708 
1 0:0.24547 1:0.11811 
1 0:0.12204 1:1.54322 
1 0:0.12346 1:0.67708 
1 0:0.1276 1:0.6923 
1 0:0.06754 1:0.67708 
1 0:0.12461 1:1.18085 
1 0:0.18691 1:0.84816 
1 0:0.18324 1:1.10928 
1 0:0.16142 1:0.22664 
1 0:0.15112 1:1.47254 
1 0:0.15352 1:1.53058 
1 0:0.15837 1:1.39107 
1 0:0.14798 1:0.8097 
1 0:0.17665 1:0.88275 
1 0:0.17448 1:0.85449 
1 0:0.17448 1:1.31035 
1 0:0.17576 1:0.90308 
1 0:0.1889 1:1.32339 
1 0:0.19176 1:0.78088 
1 0:0.24714 1:0.10581 
1 0:0.2145 1:0.28445 
1 0:0.17272 1:0.827 
1 0:0.18281 1:1.43785 
1 0:0.18517 1:1.19411 
1 0:0.19011 1:1.41716 
1 0:0.18663 1:0.87561 
1 0:0.15316 1:0.77014 
1 0:0.18826 1:0.65946 
1 0:0.19533 1:1.51057 
1 0:0.1724 1:0.82009 
1 0:0.18881 1:0.87132 
1 0:0.18505 1:1.318 
1 0:0.18946 1:1.32493 
1 0:0.18631 1:0.99488 
1 0:0.14552 1:1.26987 
1 0:0.13954 1:0.84473 
1 0:0.19681 1:1.53588 
1 0:0.17215 1:1.26706 
1 0:0.20261 1:1.56897 
1 0:0.17601 1:1.56715 
1 0:0.16368 1:1.07406 
1 0:0.18055 1:1.3098 
1 0:0.17615 1:0.79702 
1 0:0.16958 1:0.99607 
1 0:0.16102 1:1.2225 
1 0:0.16665 1:0.92704 
1 0:0.16535 1:1.06157 
1 0:0.16138 1:1.37105 
1 0:0.18598 1:0.83503 
1 0:0.18227 1:0.67708 
1 0:0.18138 1:1.07828 
1 0:0.1881 1:1.01559 
1 0:0.18923 1:1.03843 
1 0:0.13073 1:0.67708 
1 0:0.17225 1:1.14716 
1 0:0.16248 1:1.14461 
1 0:0.19325 1:1.23813 
1 0:0.14283 1:0.53432 
1 0:0.19413 1:1.50697 
1 0:0.18277 1:1.03138 
1 0:0.18624 1:0.67708 
1 0:0.19023 1:1.21789 
1 0:0.16773 1:0.67708 
1 0:0.14758 1:1.02697 
1 0:0.14532 1:1.3372 
1 0:0.17883 1:1.43504 
1 0:0.18072 1:1.20896 
1 0:0.19548 1:0.23432 
1 0:0.15224 1:1.49687 
1 0:0.14403 1:1.55231 
1 0:0.13399 1:1.46976 
1 0:0.19653 1:1.43039 
1 0:0.19567 1:0.28977 
1 0:0.0373 1:1.28245 
1 0:0.06684 1:1.18978 
1 0:0.14166 1:1.50524 
1 0:0.14251 1:0.60968 
1 0:0.16071 1:1.40754 
1 0:0.16046 1:1.20456 
1 0:0.15674 1:0.9796 
1 0:0.15257 1:1.15338 
1 0:0.15046 1:1.13639 
1 0:0.14909 1:1.23196 
1 0:0.14855 1:1.03159 
1 0:0.14194 1:1.09584 
1 0:0.14087 1:0.97824 
1 0:0.1428 1:1.19653 
1 0:0.15529 1:0.75288 
1 0:0.16814 1:0.65713 
1 0:0.17126 1:1.30833 
1 0:0.17027 1:1.5018 
1 0:0.17119 1:0.79183 
1 0:0.19038 1:1.41759 
1 0:0.19816 1:0.6231 
1 0:0.08509 1:1.18039 
1 0:0.07813 1:1.28691 
1 0:0.06848 1:1.07551 
1 0:0.17004 1:0.85974 
1 0:0.17077 1:0.6016 
1 0:0.18794 1:0.47247 
1 0:0.18716 1:1.48695 
1 0:0.1714 1:0.5935 
1 0:0.17744 1:0.60423 
1 0:0.16888 1:0.85727 
1 0:0.18463 1:0.50853 
1 0:0.14488 1:1.3689 
1 0:0.15041 1:0.80111 
1 0:0.16703 1:1.36251 
1 0:0.16703 1:1.12306 
1 0:0.17284 1:1.03325 
1 0:0.16749 1:1.29362 
1 0:0.13369 1:1.25172 
1 0:0.06912 1:0.71996 
1 0:0.08282 1:1.15525 
1 0:0.12196 1:1.05251 
1 0:0.13941 1:1.31796 
1 0:0.14083 1:1.16605 
1 0:0.14336 1:1.18895 
1 0:0.13369 1:0.73387 
1 0:0.19846 1:1.48293 
1 0:0.19685 1:0.3927 
1 0:0.14176 1:1.36468 
1 0:0.15838 1:1.41765 
1 0:0.16128 1:1.11739 
1 0:0.16513 1:1.08327 
1 0:0.16134 1:1.21749 
1 0:0.18339 1:1.46789 
1 0:0.18192 1:0.97608 
1 0:0.18418 1:0.98022 
1 0:0.18687 1:1.2568 
1 0:0.16171 1:1.03428 
1 0:0.16324 1:0.57084 
1 0:0.15945 1:0.88391 
1 0:0.15639 1:1.36354 
1 0:0.19472 1:1.30379 
1 0:0.17017 1:1.55148 
1 0:0.18982 1:0.71649 
1 0:0.17401 1:1.36443 
1 0:0.182 1:1.15667 
1 0:0.18457 1:1.36561 
1 0:0.20208 1:1.45685 
1 0:0.0494 1:0.45822 
1 0:0.06257 1:0.96041 
1 0:0.05259 1:0.88879 
1 0:0.18493 1:1.45313 
1 0:0.17028 1:0.48796 
1 0:0.16814 1:0.9094 
1 0:0.16673 1:0.67873 
1 0:0.16625 1:0.87926 
1 0:0.15994 1:1.20158 
1 0:0.19209 1:0.67248 
1 0:0.15917 1:0.34723 
1 0:0.15917 1:0.97905 
1 0:0.18697 1:1.24738 
1 0:0.17255 1:1.40009 
1 0:0.18695 1:1.14334 
1 0:0.18419 1:1.02971 
1 0:0.18132 1:1.56342 
1 0:0.15552 1:0.9252 
1 0:0.15247 1:1.23196 
1 0:0.20102 1:1.45875 
1 0:0.16186 1:0.45715 
1 0:0.15651 1:0.62213 
1 0:0.1699 1:1.29221 
1 0:0.17824 1:1.17364 
1 0:0.16463 1:0.44609 
1 0:0.14769 1:1.43899 
1 0:0.16532 1:1.4986 
1 0:0.18993 1:1.24967 
1 0:0.15176 1:0.39932 
1 0:0.18904 1:1.26087 
1 0:0.18163 1:1.05154 
1 0:0.14698 1:1.04567 
1 0:0.16943 1:1.56378 
1 0:0.16372 1:0.99064 
1 0:0.17528 1:0.96839 
1 0:0.17769 1:1.49221 
1 0:0.04129 1:0.61371 
1 0:0.05 1:0.3472 
1 0:0.15572 1:1.09443 
1 0:0.15177 1:1.00566 
1 0:0.16294 1:1.29402 
1 0:0.18715 1:1.37209 
1 0:0.13524 1:0.41822 
1 0:0.15684 1:0.34829 
1 0:0.18676 1:1.16798 
1 0:0.17837 1:1.16605 
1 0:0.17762 1:1.49629 
1 0:0.18444 1:1.30706 
1 0:0.14446 1:1.16605 
1 0:0.17518 1:1.20563 
1 0:0.17287 1:0.9339 
1 0:0.14417 1:0.42347 
1 0:0.04719 1:1.23477 
1 0:0.15684 1:0.71111 
1 0:0.15428 1:1.20263 
1 0:0.15176 1:0.63656 
1 0:0.19226 1:1.56748 
1 0:0.19187 1:1.16605 
1 0:0.15567 1:0.86629 
1 0:0.19314 1:1.39056 
1 0:0.18694 1:1.54462 
1 0:0.20074 1:1.40937 
1 0:0.15418 1:0.99478 
1 0:0.1682 1:1.16605 
1 0:0.15793 1:0.93662 
1 0:0.15699 1:1.21657 
1 0:0.1759 1:1.13386 
1 0:0.17326 1:0.86005 
1 0:0.18251 1:1.14513 
1 0:0.19188 1:1.41929 
1 0:0.14945 1:0.42657 
1 0:0.1983 1:0.27344 
1 0:0.18582 1:1.00372 
1 0:0.17531 1:1.16605 
1 0:0.17017 1:0.54677 
1 0:0.16773 1:1.37194 
1 0:0.19065 1:0.59188 
1 0:0.16626 1:1.11811 
1 0:0.15945 1:1.19243 
1 0:0.15865 1:0.99205 
1 0:0.18548 1:0.52326 
1 0:0.15 1:1.09579 
1 0:0.18361 1:0.60651 
1 0:0.19591 1:0.57852 
1 0:0.17171 1:0.42762 
1 0:0 1:0.62116 
1 0:0.05469 1:0.55321 
1 0:0.07991 1:0.64043 
1 0:0.15059 1:1.11644 
1 0:0.15117 1:1.2225 
1 0:0.17642 1:1.09861 
1 0:0.17833 1:1.51239 
1 0:0.17619 1:0.85069 
1 0:0.17329 1:1.30614 
1 0:0.17185 1:0.84402 
1 0:0.17159 1:1.32582 
1 0:0.17125 1:0.7764 
1 0:0.16407 1:1.33837 
1 0:0.16314 1:0.80305 
1 0:0.16608 1:0.66065 
1 0:0.17711 1:1.0395 
1 0:0.18956 1:1.13969 
1 0:0.19401 1:0.56487 
1 0:0.19303 1:0.56466 
1 0:0.1071 1:0.64542 
1 0:0.10103 1:0.68174 
1 0:0.09209 1:0.72156 
1 0:0.18348 1:0.93199 
1 0:0.1831 1:1.22663 
1 0:0.18616 1:1.23961 
1 0:0.19641 1:1.49754 
1 0:0.18791 1:0.87323 
1 0:0.15267 1:1.07735 
1 0:0.15675 1:0.9197 
1 0:0.1872 1:1.5075 
1 0:0.1872 1:0.65471 
1 0:0.19032 1:1.50776 
1 0:0.15563 1:0.61977 
1 0:0.09086 1:1.0778 
1 0:0.10371 1:0.65728 
1 0:0.13916 1:0.72202 
1 0:0.16201 1:0.46233 
1 0:0.16309 1:1.5708 
1 0:0.16514 1:1.56205 
1 0:0.15563 1:1.10631 
1 0:0.16553 1:0 
1 0:0.17958 1:0.36014 
1 0:0.18267 1:0.84635 
1 0:0.18626 1:0.69511 
1 0:0.18424 1:1.3734 
1 0:0.17199 1:0.96642 
1 0:0.17177 1:1.231 
1 0:0.16898 1:1.05182 
1 0:0.16754 1:1.1529 
1 0:0.18142 1:1.27203 
1 0:0.1933 1:1.50775 
1 0:0.07267 1:1.48477 
1 0:0.08614 1:0.83944 
1 0:0.07617 1:0.87715 
1 0:0.18556 1:0.90414 
1 0:0.1849 1:1.54395 
1 0:0.17952 1:0.8935 
1 0:0.17811 1:1.07343 
1 0:0.18096 1:1.4289 
1 0:0.1716 1:1.02831 
1 0:0.1716 1:0.99865 
1 0:0.19119 1:1.3095 
1 0:0.19707 1:1.42972 
1 0:0.17756 1:0.85502 
1 0:0.17525 1:1.32582 
1 0:0.18297 1:1.44596 
1 0:0.17717 1:0.99588 
1 0:0.18654 1:1.11075 
1 0:0.1822 1:1.32079 
1 0:0.15503 1:1.12615 
1 0:0.18421 1:0.95331 
1 0:0.15833 1:0.96683 
1 0:0.20551 1:1.53823 
1 0:0.15492 1:1.11175 
1 0:0.18754 1:1.43466 
1 0:0.18262 1:0.79885 
1 0:0.06492 1:1.46105 
1 0:0.07095 1:1.53515 
1 0:0.16941 1:0.93016 
1 0:0.16301 1:0.96712 
1 0:0.18152 1:0.58996 
1 0:0.14947 1:1.43851 
1 0:0.16963 1:1.14922 
1 0:0.19459 1:1.5708 
1 0:0.16669 1:1.5708 
1 0:0.16691 1:1.13298 
1 0:0.07088 1:0.55439 
1 0:0.16936 1:0.678 
1 0:0.16687 1:0.87416 
1 0:0.15782 1:0.98854 
1 0:0.20701 1:1.5708 
1 0:0.17834 1:1.47545 
1 0:0.21162 1:0.38637 
1 0:0.16687 1:0.97924 
1 0:0.18655 1:1.5708 
1 0:0.18008 1:0.94212 
1 0:0.17951 1:1.36182 
1 0:0.19549 1:1.47488 
1 0:0.17088 1:1.43338 
1 0:0.20124 1:0.37997 
1 0:0.1893 1:1.5708 
1 0:0.18142 1:0.87487 
1 0:0.17945 1:1.15955 
1 0:0.18922 1:0.69313 
1 0:0.1828 1:0.64796 
1 0:0.17386 1:1.55467 
1 0:0.17347 1:0.70919 
1 0:0.18782 1:1.00781 
1 0:0.02587 1:1.14355 
1 0:0.21363 1:0.32983 
1 0:0.20804 1:0.12871 
1 0:0.15861 1:1.56397 
1 0:0.15121 1:0.58848 
1 0:0.14475 1:1.32703 
1 0:0.14075 1:0.77206 
1 0:0.13679 1:1.39208 
1 0:0.13539 1:0.50172 
1 0:0.13676 1:1.32751 
1 0:0.13347 1:0.4303 
1 0:0.13265 1:0.10875 
1 0:0.18911 1:0.05251 
1 0:0.18795 1:1.5633 
1 0:0.20483 1:0.37213 
1 0:0.20754 1:0.45599 
1 0:0.19835 1:1.49733 
1 0:0.19249 1:0.22134 
1 0:0.19235 1:0.16036 
1 0:0.17848 1:1.39308 
1 0:0.15248 1:1.37567 
1 0:0.15169 1:0.25706 
1 0:0.14936 1:0.91665 
1 0:0.14073 1:1.5344 
1 0:0.21743 1:0.2081 
1 0:0.20368 1:1.54131 
1 0:0.18143 1:0.83225 
1 0:0.17013 1:1.54216 
1 0:0.18977 1:0.78919 
1 0:0.18174 1:1.5176 
1 0:0.18575 1:1.32287 
1 0:0.18924 1:1.47686 
1 0:0.19653 1:1.385 
1 0:0.19553 1:1.32605 
1 0:0.13447 1:0.19077 
1 0:0.13767 1:1.54131 
1 0:0.14084 1:1.52052 
1 0:0.19634 1:1.53554 
1 0:0.19893 1:1.50912 
1 0:0.16815 1:1.54131 
1 0:0.12591 1:0.55321 
1 0:0.20192 1:0.12804 
1 0:0.20389 1:0.41478 
1 0:0.19878 1:1.43152 
1 0:0.14998 1:0.8148 
1 0:0.14689 1:1.49797 
1 0:0.12733 1:1.47895 
1 0:0.14386 1:0.25815 
1 0:0.14538 1:0.31962 
1 0:0.14785 1:0.27433 
1 0:0.13846 1:1.4324 
1 0:0.15425 1:1.09906 
1 0:0.15243 1:1.00335 
1 0:0.15243 1:0.34573 
1 0:0.15241 1:1.3273 
1 0:0.16669 1:1.43356 
1 0:0.16158 1:0.33442 
1 0:0.16234 1:0.89646 
1 0:0.16469 1:1.43266 
1 0:0.20397 1:1.54131 
1 0:0.20475 1:1.5423 
1 0:0.18197 1:1.11453 
1 0:0.19436 1:0.1811 
1 0:0.19524 1:1.33391 
1 0:0.15878 1:1.3749 
1 0:0.16542 1:0.2574 
1 0:0.16482 1:0.7387 
1 0:0.19875 1:1.51646 
1 0:0.18652 1:0.19396 
1 0:0.17919 1:1.25104 
1 0:0.17273 1:1.31494 
1 0:0.16593 1:0.23897 
1 0:0.1961 1:1.42306 
1 0:0.19395 1:1.36453 
1 0:0.16948 1:1.16927 
1 0:0.14604 1:1.47952 
1 0:0.2042 1:0.30032 
1 0:0.18652 1:0.57091 
1 0:0.18155 1:1.25012 
1 0:0.16904 1:1.15129 
1 0:0.17381 1:0.2308 
1 0:0.16113 1:1.168 
1 0:0.16338 1:1.03873 
1 0:0.16224 1:0.45134 
1 0:0.17644 1:0.33984 
1 0:0.17697 1:1.19665 
1 0:0.13975 1:0.38794 
1 0:0.13635 1:1.39208 
1 0:0.17202 1:1.2088 
1 0:0.1708 1:0.30334 
1 0:0.16241 1:1.32414 
1 0:0.19659 1:0.25699 
1 0:0.16705 1:0.72773 
1 0:0.18184 1:0.25031 
1 0:0.18155 1:0.11906 
1 0:0.15964 1:0.1106 
1 0:0.1961 1:0.59062 
1 0:0.19492 1:1.46208 
1 0:0.21958 1:0.28959 
1 0:0.15669 1:0.68833 
1 0:0.17853 1:0.22175 
1 0:0.17957 1:0.80203 
1 0:0.16955 1:1.25028 
1 0:0.15507 1:0.71942 
1 0:0.18559 1:1.20043 
1 0:0.18727 1:0.30123 
1 0:0.17895 1:1.45905 
1 0:0.20175 1:0.21219 
1 0:0.20105 1:0.41051 
1 0:0.15479 1:1.18297 
1 0:0.19351 1:0.66751 
1 0:0.1618 1:1.20125 
1 0:0.1535 1:0.46291 
1 0:0.20175 1:0.13011 
1 0:0.14801 1:0.88736 
1 0:0.14661 1:0.85245 
1 0:0.18636 1:0.41788 
1 0:0.17373 1:0.9841 
1 0:0.15659 1:0.56932 
1 0:0.16341 1:1.37458 
1 0:0.21363 1:0.28011 
1 0:0.18407 1:1.11405 
1 0:0.18642 1:0.5898 
1 0:0.17916 1:0.76814 
1 0:0.18207 1:1.11022 
1 0:0.17384 1:1.54131 
1 0:0.18947 1:0.56639 
1 0:0.17149 1:0.6765 
1 0:0.17281 1:1.2088 
1 0:0.20105 1:1.45952 
1 0:0.16122 1:0.76015 
1 0:0.17136 1:0.60287 
1 0:0.21352 1:0.34242 
1 0:0.19067 1:1.20178 
1 0:0.17981 1:0.97879 
1 0:0.18004 1:0.23945 
1 0:0.18666 1:1.31834 
1 0:0.13672 1:1.54131 
1 0:0.15582 1:0.82332 
1 0:0.14533 1:0.53959 
1 0:0.164 1:0.42151 
1 0:0.17658 1:1.54131 
1 0:0.18838 1:1.19164 
1 0:0.18612 1:1.54131 
1 0:0.13743 1:1.34123 
1 0:0.17036 1:0.26393 
1 0:0.15929 1:1.20577 
1 0:0.15933 1:1.54131 
1 0:0.19213 1:1.54131 
1 0:0.20938 1:0.3364 
1 0:0.20651 1:1.54131 
1 0:0.16201 1:0.42252 
1 0:0.17754 1:1.21527 
1 0:0.20287 1:0.31509 
1 0:0.19603 1:0.39808 
1 0:0.19758 1:0.23455 
1 0:0.16045 1:1.54131 
1 0:0.14041 1:0.71095 
1 0:0.13865 1:0.95752 
1 0:0.20481 1:1.54131 
1 0:0.15722 1:0.25084 
1 0:0.17608 1:0.39002 
1 0:0.17725 1:1.54131 
1 0:0.15578 1:0.42417 
1 0:0.17142 1:0.26995 
1 0:0.18499 1:1.54131 
1 0:0.18932 1:0.30293 
1 0:0.18125 1:1.35388 
1 0:0.17523 1:1.21735 
1 0:0.17754 1:0.27122 
1 0:0.17894 1:0.2374 
1 0:0.20051 1:0.30792 
1 0:0.19874 1:1.54131 
1 0:0.13957 1:0.16663 
1 0:0.13646 1:0.09559 
1 0:0.19112 1:0.14364 
1 0:0.18555 1:0.17062 
1 0:0.13358 1:0.19174 
1 0:0.1846 1:0.29595 
1 0:0.19106 1:0.77843 
1 0:0.2092 1:0.21597 
1 0:0.19039 1:1.54131 
1 0:0.17739 1:0.35215 
1 0:0.20327 1:1.54131 
1 0:0.16734 1:0.10542 
1 0:0.20675 1:0.45517 
1 0:0.20884 1:0.29694 
1 0:0.20864 1:0.03593 
1 0:0.1667 1:1.53803 
1 0:0.15709 1:0.54498 
1 0:0.14947 1:1.30298 
1 0:0.14428 1:0.75488 
1 0:0.13873 1:1.37384 
1 0:0.13559 1:0.46262 
1 0:0.14483 1:1.29803 
1 0:0.1388 1:0.37264 
1 0:0.13281 1:0.05688 
1 0:0.14221 1:0.06175 
1 0:0.14321 1:1.53792 
1 0:0.15307 1:1.15964 
1 0:0.15674 1:1.0873 
1 0:0.16307 1:0.38539 
1 0:0.16388 1:0.37995 
1 0:0.15898 1:1.47387 
1 0:0.14891 1:1.52361 
1 0:0.14533 1:0.14322 
1 0:0.18913 1:0.07672 
1 0:0.17648 1:1.36004 
1 0:0.15041 1:1.39356 
1 0:0.14811 1:0.21751 
1 0:0.14489 1:0.88649 
1 0:0.13579 1:1.55333 
1 0:0.20255 1:0.2854 
1 0:0.19723 1:1.37631 
1 0:0.19555 1:0.12139 
1 0:0.19199 1:0.59604 
1 0:0.18068 1:1.30874 
1 0:0.15936 1:1.50633 
1 0:0.15767 1:1.47632 
1 0:0.16316 1:1.55141 
1 0:0.17175 1:1.45335 
1 0:0.16676 1:1.51114 
1 0:0.15557 1:0.82015 
1 0:0.13866 1:1.51977 
1 0:0.15833 1:0.7538 
1 0:0.14254 1:1.49451 
1 0:0.12239 1:1.41035 
1 0:0.12869 1:1.43267 
1 0:0.13916 1:1.46703 
1 0:0.13795 1:1.41907 
1 0:0.14311 1:0.23246 
1 0:0.1475 1:1.56954 
1 0:0.15082 1:1.54983 
1 0:0.1395 1:1.51292 
1 0:0.14314 1:1.52703 
1 0:0.19139 1:1.50267 
1 0:0.19295 1:1.33664 
1 0:0.16757 1:1.49611 
1 0:0.17796 1:1.56954 
1 0:0.12585 1:0.64043 
1 0:0.17514 1:1.02154 
1 0:0.17771 1:0.10429 
1 0:0.17517 1:1.56954 
1 0:0.17477 1:0.34833 
1 0:0.17089 1:1.45211 
1 0:0.16149 1:0.73137 
1 0:0.15862 1:1.50643 
1 0:0.14094 1:1.54487 
1 0:0.14269 1:0.32121 
1 0:0.14293 1:0.26978 
1 0:0.14424 1:0.22132 
1 0:0.13446 1:1.41164 
1 0:0.14842 1:1.1176 
1 0:0.1444 1:0.96686 
1 0:0.1437 1:0.27182 
1 0:0.13907 1:1.3132 
1 0:0.18666 1:1.52319 
1 0:0.18536 1:0.64043 
1 0:0.14582 1:1.45472 
1 0:0.14582 1:0.26687 
1 0:0.1479 1:0.86958 
1 0:0.15582 1:1.45418 
1 0:0.15692 1:1.29667 
1 0:0.14937 1:1.56954 
1 0:0.14867 1:1.48575 
1 0:0.11894 1:1.20333 
1 0:0.19562 1:0.15691 
1 0:0.19732 1:1.34932 
1 0:0.15599 1:1.39264 
1 0:0.16171 1:0.23206 
1 0:0.16092 1:0.73532 
1 0:0.14243 1:1.54437 
1 0:0.18286 1:0.11405 
1 0:0.17427 1:1.22802 
1 0:0.16295 1:1.32571 
1 0:0.16097 1:0.16566 
1 0:0.1399 1:1.51335 
1 0:0.13777 1:1.45671 
1 0:0.18665 1:1.5149 
1 0:0.16647 1:1.18627 
1 0:0.14527 1:1.45591 
1 0:0.20052 1:0.22029 
1 0:0.18286 1:0.55689 
1 0:0.1782 1:1.21164 
1 0:0.16549 1:1.19084 
1 0:0.17015 1:0.14593 
1 0:0.16646 1:1.56954 
1 0:0.16094 1:1.19068 
1 0:0.1576 1:1.00751 
1 0:0.15673 1:0.43321 
1 0:0.17783 1:0.28148 
1 0:0.18146 1:1.2009 
1 0:0.13804 1:0.30741 
1 0:0.13488 1:1.37384 
1 0:0.16685 1:1.20284 
1 0:0.1656 1:0.25192 
1 0:0.13713 1:1.33437 
1 0:0.16057 1:0.19177 
1 0:0.17351 1:0.71438 
1 0:0.17741 1:0.25963 
1 0:0.1782 1:0.03594 
1 0:0.15609 1:0.01924 
1 0:0.16661 1:0.58977 
1 0:0.1647 1:1.41911 
1 0:0.19938 1:0.19923 
1 0:0.16032 1:1.37129 
1 0:0.15934 1:0.70701 
1 0:0.17333 1:0.12866 
1 0:0.16931 1:0.77967 
1 0:0.15438 1:1.22689 
1 0:0.13983 1:0.70031 
1 0:0.18121 1:1.15557 
1 0:0.16173 1:1.19737 
1 0:0.16248 1:0.25806 
1 0:0.17848 1:1.48373 
1 0:0.20056 1:0.12166 
1 0:0.19662 1:0.34795 
1 0:0.14947 1:1.15216 
1 0:0.16358 1:0.6499 
1 0:0.16482 1:1.2053 
1 0:0.15448 1:0.41208 
1 0:0.20056 1:0.08058 
1 0:0.14223 1:0.84985 
1 0:0.14054 1:0.86117 
1 0:0.15945 1:0.34514 
1 0:0.13899 1:1.02611 
1 0:0.19714 1:1.43402 
1 0:0.16114 1:0.57902 
1 0:0.15864 1:1.39158 
1 0:0.20884 1:0.20854 
1 0:0.15025 1:1.09313 
1 0:0.15545 1:0.53961 
1 0:0.14019 1:0.7317 
1 0:0.1597 1:0.67851 
1 0:0.18596 1:1.09228 
1 0:0.17844 1:1.56954 
1 0:0.19213 1:0.52116 
1 0:0.17487 1:0.6956 
1 0:0.1714 1:1.20283 
1 0:0.19728 1:1.4181 
1 0:0.13849 1:0.72631 
1 0:0.14763 1:0.58903 
1 0:0.19081 1:0.30053 
1 0:0.16051 1:1.19775 
1 0:0.147 1:1.02093 
1 0:0.14536 1:0.28925 
1 0:0.12449 1:1.32955 
1 0:0.14262 1:1.56954 
1 0:0.15217 1:0.81455 
1 0:0.14006 1:0.48474 
1 0:0.17272 1:1.18976 
1 0:0.1369 1:0.33898 
1 0:0.14202 1:1.56954 
1 0:0.16831 1:0.63362 
1 0:0.16548 1:1.42593 
1 0:0.19254 1:1.19565 
1 0:0.18886 1:1.56954 
1 0:0.13444 1:1.29121 
1 0:0.1656 1:0.31817 
1 0:0.15371 1:1.20619 
1 0:0.1394 1:1.56954 
1 0:0.16834 1:1.56954 
1 0:0.18604 1:0.29429 
1 0:0.18182 1:1.56954 
1 0:0.13667 1:0.44599 
1 0:0.14318 1:1.2123 
1 0:0.1597 1:0.26268 
1 0:0.15088 1:0.41233 
1 0:0.15108 1:0.27969 
1 0:0.16352 1:1.56954 
1 0:0.13728 1:0.66626 
1 0:0.13565 1:0.92986 
1 0:0.20128 1:1.56954 
1 0:0.1522 1:0.2198 
1 0:0.16686 1:0.32122 
1 0:0.16686 1:1.56954 
1 0:0.13789 1:0.44972 
1 0:0.1469 1:0.22678 
1 0:0.15605 1:1.56954 
1 0:0.16051 1:0.258 
1 0:0.14711 1:1.3012 
1 0:0.14082 1:1.21463 
1 0:0.14318 1:0.22282 
1 0:0.14403 1:0.28788 
1 0:0.15579 1:0.25451 
1 0:0.17993 1:1.56954 
1 0:0.13468 1:0.08018 
1 0:0.13252 1:0.02271 
1 0:0.18912 1:0.09862 
1 0:0.14098 1:0.22064 
1 0:0.13236 1:0.10737 
1 0:0.1602 1:0.25315 
1 0:0.15745 1:0.72711 
1 0:0.21157 1:0.12285 
1 0:0.13116 1:1.56954 
1 0:0.13733 1:0.2762 
1 0:0.14994 1:1.56954 
1 0:0.19813 1:1.54575 
1 0:0.18455 1:1.14846 
1 0:0.16704 1:1.37255 
1 0:0.13501 1:0.1934 
1 0:0.17771 1:0.38414 
1 0:0.18704 1:0.48598 
1 0:0.18014 1:0.73619 
1 0:0.1721 1:0.41801 
1 0:0.16586 1:1.0439 
1 0:0.18887 1:0.54464 
1 0:0.17847 1:1.17224 
1 0:0.16265 1:1.47485 
1 0:0.14221 1:1.43982 
1 0:0.14321 1:0.51976 
1 0:0.15307 1:0.61368 
1 0:0.15674 1:0.7794 
1 0:0.16307 1:1.38163 
1 0:0.16388 1:1.26831 
1 0:0.15898 1:0.38053 
1 0:0.14891 1:0.55711 
1 0:0.14533 1:1.53778 
1 0:0.19455 1:1.48022 
1 0:0.19733 1:0.58064 
1 0:0.17411 1:0.54383 
1 0:0.16524 1:1.22874 
1 0:0.15687 1:0.71225 
1 0:0.14607 1:0.46925 
1 0:0.19555 1:1.50083 
1 0:0.18068 1:0.45161 
1 0:0.15936 1:0.54353 
1 0:0.15767 1:1.10286 
1 0:0.16316 1:0.44138 
1 0:0.17175 1:1.32908 
1 0:0.16676 1:0.14205 
1 0:0.15557 1:0.66208 
1 0:0.13866 1:0.4823 
1 0:0.15833 1:0.82796 
1 0:0.14254 1:0.48363 
1 0:0.12239 1:0.97712 
1 0:0.12869 1:0.71515 
1 0:0.13916 1:1.33462 
1 0:0.13795 1:1.27307 
1 0:0.18824 1:1.20807 
1 0:0.19427 1:0.58755 
1 0:0.19762 1:0.57943 
1 0:0.1395 1:1.35794 
1 0:0.14314 1:0.47042 
1 0:0.16757 1:0.44182 
1 0:0.15706 1:1.11644 
1 0:0.17514 1:0.66266 
1 0:0.17771 1:1.31557 
1 0:0.17517 1:0.58755 
1 0:0.17477 1:1.22397 
1 0:0.17089 1:0.534 
1 0:0.20485 1:0.16367 
1 0:0.16935 1:1.16254 
1 0:0.16523 1:1.45724 
1 0:0.16178 1:1.24929 
1 0:0.15115 1:0.44592 
1 0:0.15034 1:0.74986 
1 0:0.1444 1:0.71704 
1 0:0.1437 1:1.29117 
1 0:0.13907 1:0.38077 
1 0:0.18666 1:0.41594 
1 0:0.18536 1:1.11644 
1 0:0.14582 1:0.53806 
1 0:0.14582 1:1.26594 
1 0:0.1479 1:0.70149 
1 0:0.15582 1:0.54174 
1 0:0.15692 1:1.24279 
1 0:0.14937 1:0.58755 
1 0:0.14867 1:1.33514 
1 0:0.11894 1:1.01967 
1 0:0.1767 1:0.54302 
1 0:0.17578 1:1.20023 
1 0:0.17385 1:1.01095 
1 0:0.14243 1:0.56634 
1 0:0.19147 1:1.51292 
1 0:0.17838 1:0.4912 
1 0:0.16295 1:0.53435 
1 0:0.1616 1:1.32961 
1 0:0.1399 1:1.08753 
1 0:0.13777 1:1.46335 
1 0:0.18665 1:0.39009 
1 0:0.18433 1:0.68538 
1 0:0.17242 1:0.48214 
1 0:0.19229 1:0.65522 
1 0:0.18009 1:0.86015 
1 0:0.18029 1:1.52217 
1 0:0.16646 1:0.58755 
1 0:0.18745 1:0.72177 
1 0:0.15828 1:0.65381 
1 0:0.15946 1:1.01329 
1 0:0.16175 1:1.31872 
1 0:0.16188 1:0.41801 
1 0:0.17028 1:0.34608 
1 0:0.16906 1:1.47538 
1 0:0.13713 1:0.52392 
1 0:0.16057 1:1.54392 
1 0:0.18437 1:1.16023 
1 0:0.18969 1:1.45202 
1 0:0.16523 1:1.4321 
1 0:0.16661 1:0.84091 
1 0:0.1647 1:0.69908 
1 0:0.19938 1:1.41053 
1 0:0.16032 1:0.7825 
1 0:0.19039 1:1.10158 
1 0:0.17439 1:1.45536 
1 0:0.16931 1:0.73981 
1 0:0.15438 1:0.49526 
1 0:0.13983 1:1.02411 
1 0:0.18121 1:0.71033 
1 0:0.16173 1:0.56698 
1 0:0.16248 1:1.20392 
1 0:0.20253 1:0.55813 
1 0:0.15485 1:0.59099 
1 0:0.16358 1:0.82454 
1 0:0.19759 1:0.59242 
1 0:0.18416 1:1.12134 
1 0:0.14505 1:0.78485 
1 0:0.14195 1:0.92514 
1 0:0.15945 1:1.25857 
1 0:0.13899 1:0.98436 
1 0:0.16623 1:0.53728 
1 0:0.15025 1:0.52632 
1 0:0.15545 1:1.04184 
1 0:0.14019 1:0.84821 
1 0:0.1597 1:1.07754 
1 0:0.19412 1:0.34608 
1 0:0.13849 1:0.83695 
1 0:0.14763 1:1.14003 
1 0:0.19081 1:1.16994 
1 0:0.16051 1:0.56279 
1 0:0.147 1:0.9888 
1 0:0.14536 1:1.16391 
1 0:0.12449 1:0.13412 
1 0:0.18303 1:0.58755 
1 0:0.16815 1:0.65409 
1 0:0.14451 1:1.09714 
1 0:0.17272 1:0.57099 
1 0:0.1369 1:1.32748 
1 0:0.14202 1:0.58755 
1 0:0.16831 1:1.32398 
1 0:0.16548 1:1.3229 
1 0:0.15725 1:0.78075 
1 0:0.17219 1:1.14497 
1 0:0.15649 1:0.57383 
1 0:0.1394 1:0.58755 
1 0:0.16834 1:0.58755 
1 0:0.18604 1:1.17503 
1 0:0.18182 1:0.58755 
1 0:0.13667 1:1.34923 
1 0:0.14318 1:0.55337 
1 0:0.1597 1:1.22105 
1 0:0.15088 1:1.35837 
1 0:0.15108 1:1.16605 
1 0:0.19651 1:0.58755 
1 0:0.15891 1:0.93702 
1 0:0.1583 1:0.79284 
1 0:0.15761 1:1.21645 
1 0:0.16686 1:1.2472 
1 0:0.16686 1:0.58755 
1 0:0.13789 1:1.35151 
1 0:0.1469 1:1.22711 
1 0:0.15605 1:0.58755 
1 0:0.16051 1:1.2074 
1 0:0.14711 1:0.81376 
1 0:0.14082 1:0.55225 
1 0:0.14318 1:1.23915 
1 0:0.14403 1:1.16631 
1 0:0.15579 1:1.22879 
1 0:0.17993 1:0.58755 
1 0:0.13625 1:1.3945 
1 0:0.14487 1:1.44163 
1 0:0.20471 1:1.51762 
1 0:0.14098 1:1.54273 
1 0:0.14983 1:1.38257 
1 0:0.1602 1:1.20685 
1 0:0.15745 1:0.9495 
1 0:0.13116 1:0.58755 
1 0:0.13733 1:1.29989 
1 0:0.14994 1:0.58755 
1 0:0.18455 1:1.07741 
1 0:0.16704 1:0.48764 
1 0:0.13501 1:1.33347 
1 0:0.17771 1:1.23413 
1 0:0.18974 1:0.75348 
1 0:0.18153 1:1.07814 
1 0:0.17036 1:0.79561 
1 0:0.1621 1:1.1836 
1 0:0.18682 1:0.6987 
1 0:0.17399 1:1.21206 
1 0:0.15761 1:1.55387 
1 0:0.13196 1:1.5247 
1 0:0.13357 1:0.6938 
1 0:0.15364 1:0.72028 
1 0:0.15988 1:0.86388 
1 0:0.16721 1:1.29702 
1 0:0.16849 1:1.17643 
1 0:0.15995 1:0.82519 
1 0:0.14038 1:0.68294 
1 0:0.13599 1:1.5219 
1 0:0.20024 1:1.53298 
1 0:0.17889 1:0.7871 
1 0:0.16978 1:1.39146 
1 0:0.15872 1:0.90836 
1 0:0.13992 1:0.76369 
1 0:0.20281 1:0.52484 
1 0:0.2012 1:1.49988 
1 0:0.18607 1:0.78474 
1 0:0.16391 1:0.7062 
1 0:0.1622 1:0.86275 
1 0:0.16765 1:0.7792 
1 0:0.17654 1:0.60962 
1 0:0.17147 1:1.09311 
1 0:0.16059 1:1.07499 
1 0:0.13056 1:0.72837 
1 0:0.16329 1:0.96827 
1 0:0.136 1:0.72299 
1 0:0.12166 1:0.96133 
1 0:0.1263 1:0.49321 
1 0:0.14342 1:0.16338 
1 0:0.14229 1:0.66789 
1 0:0.1846 1:1.56676 
1 0:0.19083 1:0.63223 
1 0:0.19526 1:0.64826 
1 0:0.14395 1:0.59418 
1 0:0.14754 1:0.77508 
1 0:0.19814 1:0.42761 
1 0:0.17252 1:0.82591 
1 0:0.18808 1:0.63223 
1 0:0.15109 1:1.2225 
1 0:0.18052 1:0.80071 
1 0:0.18307 1:1.51085 
1 0:0.18035 1:0.63223 
1 0:0.1801 1:1.21909 
1 0:0.1762 1:0.75069 
1 0:0.19257 1:0.18556 
1 0:0.17185 1:1.50708 
1 0:0.16707 1:1.53983 
1 0:0.16373 1:1.36412 
1 0:0.14629 1:0.76105 
1 0:0.15114 1:0.85864 
1 0:0.14099 1:0.80878 
1 0:0.13978 1:1.28639 
1 0:0.13288 1:0.85345 
1 0:0.19029 1:1.2225 
1 0:0.14507 1:0.7442 
1 0:0.14507 1:1.29808 
1 0:0.14913 1:0.94235 
1 0:0.16083 1:0.74042 
1 0:0.16129 1:0.72104 
1 0:0.15049 1:0.63223 
1 0:0.14909 1:0.15324 
1 0:0.11505 1:0.96095 
1 0:0.1817 1:0.78894 
1 0:0.18099 1:1.40816 
1 0:0.17908 1:1.18471 
1 0:0.14694 1:0.66415 
1 0:0.19708 1:1.52735 
1 0:0.18386 1:0.78988 
1 0:0.16821 1:0.87266 
1 0:0.16685 1:1.39352 
1 0:0.13256 1:0.85143 
1 0:0.13011 1:0.47729 
1 0:0.18955 1:0.84755 
1 0:0.17532 1:0.72222 
1 0:0.18534 1:0.63779 
1 0:0.18573 1:1.49479 
1 0:0.17092 1:0.63223 
1 0:0.16337 1:0.8241 
1 0:0.16457 1:1.28217 
1 0:0.161 1:1.24778 
1 0:0.15911 1:0.79561 
1 0:0.17565 1:0.96561 
1 0:0.17439 1:1.54597 
1 0:0.13058 1:0.87657 
1 0:0.16547 1:1.55262 
1 0:0.18988 1:1.4737 
1 0:0.19518 1:1.55238 
1 0:0.17036 1:1.54603 
1 0:0.17182 1:1.26653 
1 0:0.16984 1:0.51119 
1 0:0.16509 1:0.44526 
1 0:0.17984 1:1.45225 
1 0:0.1747 1:1.02975 
1 0:0.15889 1:0.78657 
1 0:0.13578 1:1.29982 
1 0:0.18668 1:0.63695 
1 0:0.16695 1:1.03537 
1 0:0.16764 1:1.34879 
1 0:0.15746 1:0.74769 
1 0:0.16869 1:1.1406 
1 0:0.18886 1:1.19186 
1 0:0.1411 1:0.88407 
1 0:0.13556 1:1.04837 
1 0:0.16458 1:1.21405 
1 0:0.13034 1:0.71899 
1 0:0.1714 1:0.79696 
1 0:0.1519 1:0.86649 
1 0:0.15888 1:1.07814 
1 0:0.13163 1:0.97903 
1 0:0.16231 1:1.17884 
1 0:0.13281 1:0.99758 
1 0:0.14941 1:1.30406 
1 0:0.19637 1:1.31427 
1 0:0.16559 1:1.04479 
1 0:0.14621 1:0.72163 
1 0:0.1438 1:1.55678 
1 0:0.12485 1:1.11159 
1 0:0.18141 1:0.63223 
1 0:0.17312 1:1.10128 
1 0:0.13978 1:1.11358 
1 0:0.1781 1:1.04468 
1 0:0.13006 1:1.2169 
1 0:0.13705 1:0.63223 
1 0:0.17285 1:0.98625 
1 0:0.17044 1:0.61825 
1 0:0.1536 1:0.48481 
1 0:0.17751 1:1.54166 
1 0:0.16043 1:0.99989 
1 0:0.1343 1:0.63223 
1 0:0.17367 1:0.63223 
1 0:0.19157 1:1.31921 
1 0:0.1873 1:0.63223 
1 0:0.1293 1:1.22659 
1 0:0.13973 1:1.03154 
1 0:0.16231 1:1.3264 
1 0:0.14849 1:1.27663 
1 0:0.14773 1:1.57046 
1 0:0.15704 1:0.98979 
1 0:0.15611 1:1.31535 
1 0:0.1622 1:1.40608 
1 0:0.1722 1:1.24253 
1 0:0.1722 1:0.63223 
1 0:0.13101 1:1.21793 
1 0:0.14748 1:1.37654 
1 0:0.16103 1:0.63223 
1 0:0.16559 1:1.34526 
1 0:0.14605 1:0.45091 
1 0:0.13533 1:1.02863 
1 0:0.13967 1:1.37058 
1 0:0.14102 1:1.55448 
1 0:0.15616 1:1.33223 
1 0:0.18546 1:0.63223 
1 0:0.12611 1:1.47508 
1 0:0.13756 1:1.56826 
1 0:0.1302 1:1.37085 
1 0:0.14283 1:1.44782 
1 0:0.16534 1:1.35389 
1 0:0.1618 1:0.90657 
1 0:0.13165 1:0.63223 
1 0:0.12769 1:1.28052 
1 0:0.14062 1:0.63223 
1 0:0.18964 1:0.41947 
1 0:0.17203 1:0.88129 
1 0:0.12524 1:1.45842 
1 0:0.18307 1:1.17706 
1 0:0.1906 1:0.58328 
1 0:0.18215 1:0.80644 
1 0:0.17035 1:0.51337 
1 0:0.16168 1:1.10662 
1 0:0.18678 1:0.64184 
1 0:0.17345 1:1.23466 
1 0:0.15696 1:1.51089 
1 0:0.12994 1:1.47186 
1 0:0.13165 1:0.60326 
1 0:0.15384 1:0.71077 
1 0:0.16057 1:0.80482 
1 0:0.16805 1:1.36256 
1 0:0.16943 1:1.33534 
1 0:0.16019 1:0.46831 
1 0:0.13865 1:0.63298 
1 0:0.13412 1:1.5596 
1 0:0.18069 1:0.59966 
1 0:0.17095 1:1.27642 
1 0:0.15935 1:0.79722 
1 0:0.13897 1:0.54544 
1 0:0.19632 1:0.54894 
1 0:0.17104 1:0.61673 
1 0:0.16907 1:1.00726 
1 0:0.17262 1:0.52139 
1 0:0.18732 1:1.24234 
1 0:0.18162 1:0.2067 
1 0:0.1617 1:0.7331 
1 0:0.12903 1:0.5669 
1 0:0.16499 1:0.90717 
1 0:0.13476 1:0.57065 
1 0:0.12254 1:0.8912 
1 0:0.1266 1:0.80749 
1 0:0.14907 1:1.41905 
1 0:0.15118 1:1.18775 
1 0:0.18426 1:1.23739 
1 0:0.1905 1:0.66939 
1 0:0.19513 1:0.65889 
1 0:0.15452 1:1.26455 
1 0:0.15565 1:0.54293 
1 0:0.18913 1:0.50732 
1 0:0.18146 1:0.66939 
1 0:0.15038 1:1.09861 
1 0:0.18899 1:0.75544 
1 0:0.1926 1:1.3542 
1 0:0.18773 1:0.66939 
1 0:0.18773 1:1.28678 
1 0:0.18392 1:0.59895 
1 0:0.17267 1:1.1826 
1 0:0.16771 1:1.41617 
1 0:0.16438 1:1.30005 
1 0:0.14563 1:0.5391 
1 0:0.15152 1:0.77713 
1 0:0.14052 1:0.80821 
1 0:0.13919 1:1.34979 
1 0:0.13186 1:0.47828 
1 0:0.20428 1:0.49874 
1 0:0.14508 1:0.60369 
1 0:0.14508 1:1.32299 
1 0:0.14957 1:0.78408 
1 0:0.162 1:0.60753 
1 0:0.16507 1:1.1643 
1 0:0.15103 1:0.66939 
1 0:0.14882 1:1.42052 
1 0:0.11534 1:0.94807 
1 0:0.18614 1:0.59859 
1 0:0.18716 1:1.24554 
1 0:0.18535 1:0.99531 
1 0:0.1584 1:0.64485 
1 0:0.19325 1:0.58874 
1 0:0.17254 1:0.5746 
1 0:0.1708 1:1.37975 
1 0:0.13142 1:0.99692 
1 0:0.12894 1:1.37715 
1 0:0.20873 1:0.45471 
1 0:0.17619 1:0.57233 
1 0:0.19487 1:1.56844 
1 0:0.17411 1:0.66939 
1 0:0.16494 1:0.74552 
1 0:0.16664 1:1.06635 
1 0:0.16117 1:1.38114 
1 0:0.1589 1:0.51337 
1 0:0.18253 1:0.43985 
1 0:0.18068 1:1.43428 
1 0:0.12945 1:0.56458 
1 0:0.1676 1:1.50079 
1 0:0.17345 1:1.47086 
1 0:0.17785 1:0.89219 
1 0:0.17439 1:0.792 
1 0:0.17988 1:0.87729 
1 0:0.18797 1:1.50361 
1 0:0.18156 1:0.81457 
1 0:0.15993 1:0.5928 
1 0:0.13521 1:0.99544 
1 0:0.17132 1:0.57429 
1 0:0.17182 1:1.25497 
1 0:0.15821 1:0.68775 
1 0:0.17264 1:0.88883 
1 0:0.19146 1:1.18457 
1 0:0.14055 1:0.87039 
1 0:0.13451 1:0.9249 
1 0:0.16762 1:1.32246 
1 0:0.12868 1:1.02182 
1 0:0.17542 1:0.59208 
1 0:0.15234 1:0.61927 
1 0:0.15963 1:1.11318 
1 0:0.12995 1:0.92652 
1 0:0.16286 1:1.06375 
1 0:0.20886 1:0.43985 
1 0:0.13185 1:0.91387 
1 0:0.14993 1:1.11376 
1 0:0.16887 1:0.56856 
1 0:0.14617 1:1.0259 
1 0:0.14362 1:1.18961 
1 0:0.12588 1:0.22821 
1 0:0.18144 1:0.66939 
1 0:0.17555 1:0.72235 
1 0:0.13906 1:1.16634 
1 0:0.18602 1:0.57644 
1 0:0.12887 1:1.39254 
1 0:0.13617 1:0.66939 
1 0:0.17381 1:1.33582 
1 0:0.18889 1:1.23746 
1 0:0.1532 1:0.87755 
1 0:0.18414 1:1.16823 
1 0:0.16141 1:0.58722 
1 0:0.13347 1:0.66939 
1 0:0.18047 1:0.66939 
1 0:0.12799 1:1.33657 
1 0:0.13916 1:0.56203 
1 0:0.16286 1:1.27456 
1 0:0.14808 1:1.34075 
1 0:0.14712 1:1.19342 
1 0:0.15697 1:1.01439 
1 0:0.15602 1:0.75645 
1 0:0.16333 1:1.2624 
1 0:0.17786 1:1.30854 
1 0:0.17786 1:0.66939 
1 0:0.12979 1:1.33981 
1 0:0.14774 1:1.27615 
1 0:0.16227 1:0.66939 
1 0:0.16887 1:1.25886 
1 0:0.14594 1:0.91033 
1 0:0.13435 1:0.5615 
1 0:0.13904 1:1.28905 
1 0:0.14055 1:1.19186 
1 0:0.15629 1:1.28195 
1 0:0.19617 1:0.66939 
1 0:0.12417 1:1.43891 
1 0:0.13639 1:1.47853 
1 0:0.12806 1:1.56259 
1 0:0.14174 1:1.42918 
1 0:0.16882 1:1.25749 
1 0:0.16274 1:1.03244 
1 0:0.13248 1:0.66939 
1 0:0.12587 1:1.35919 
1 0:0.13877 1:0.66939 
1 0:0.19282 1:0.53191 
1 0:0.12343 1:1.355 
1 0:0.19176 1:1.30049 
1 0:0.23438 1:0.20669 
1 0:0.22082 1:0.24994 
1 0:0.10793 1:1.27461 
1 0:0.10793 1:1.48836 
1 0:0.22801 1:0.19928 
1 0:0.22679 1:0.03101 
1 0:0.22601 1:0.23576 
1 0:0.22523 1:0.11722 
1 0:0.22282 1:0.04813 
1 0:0.04671 1:1.56333 
1 0:0.22229 1:0.20279 
1 0:0.04544 1:1.19153 
1 0:0.21631 1:0.16325 
1 0:0.16814 1:1.52654 
1 0:0.16558 1:1.37546 
1 0:0.16071 1:1.42511 
1 0:0.1893 1:1.51659 
1 0:0.16266 1:1.04802 
1 0:0.16765 1:1.48906 
1 0:0.1893 1:0.68028 
1 0:0.18345 1:0.06378 
1 0:0.02673 1:0.06378 
1 0:0.15809 1:0.74842 
1 0:0.15977 1:1.41154 
1 0:0.15864 1:0.81341 
1 0:0.22233 1:0.29886 
1 0:0.02141 1:0.46028 
1 0:0.15558 1:0.65292 
1 0:0.15954 1:0.88194 
1 0:0.15684 1:1.4285 
1 0:0.21335 1:0.37343 
1 0:0.24959 1:0.06378 
1 0:0.21685 1:0.2128 
1 0:0.15881 1:0.73586 
1 0:0.18952 1:0.24209 
1 0:0.15616 1:0.53285 
1 0:0.15447 1:0.77195 
1 0:0.15104 1:0.42618 
1 0:0.20257 1:1.47641 
1 0:0.1791 1:0.63562 
1 0:0.15184 1:0.26531 
1 0:0.15565 1:0.49411 
1 0:0.17546 1:1.46557 
1 0:0.1791 1:1.23756 
1 0:0.17327 1:1.02665 
1 0:0.10697 1:1.02665 
1 0:0.1493 1:0.81148 
1 0:0.15023 1:0.42563 
1 0:0.14988 1:1.48491 
1 0:0.19454 1:0.59581 
1 0:0.19258 1:1.30833 
1 0:0.10077 1:1.43224 
1 0:0.14754 1:0.6319 
1 0:0.15041 1:0.75665 
1 0:0.18737 1:0.85497 
1 0:0.18371 1:1.15824 
1 0:0.14837 1:0.45906 
1 0:0.18728 1:0.5883 
1 0:0.15212 1:1.17396 
1 0:0.17622 1:0.86838 
1 0:0.18524 1:0.80271 
1 0:0.18645 1:1.39705 
1 0:0.18568 1:1.5071 
1 0:0.18695 1:0.73802 
1 0:0.20132 1:1.55602 
1 0:0.14548 1:1.29167 
1 0:0.14422 1:1.53083 
1 0:0.14165 1:1.19353 
1 0:0.19473 1:0.55061 
1 0:0.1961 1:0.67272 
1 0:0.19739 1:0.62338 
1 0:0.16839 1:1.38906 
1 0:0.14221 1:0.84773 
1 0:0.14524 1:1.25465 
1 0:0.16402 1:1.1143 
1 0:0.16839 1:0.79712 
1 0:0.16258 1:0.28023 
1 0:0.11887 1:0.28023 
1 0:0.14107 1:0.70398 
1 0:0.14111 1:1.18793 
1 0:0.14146 1:0.9797 
1 0:0.19381 1:0.29602 
1 0:0.18115 1:0.74424 
1 0:0.17934 1:0.97358 
1 0:0.18923 1:0.79105 
1 0:0.11322 1:0.66874 
1 0:0.13997 1:0.54676 
1 0:0.14104 1:0.80811 
1 0:0.17643 1:0.75305 
1 0:0.17131 1:0.97146 
1 0:0.14032 1:1.19156 
1 0:0.20206 1:1.53467 
1 0:0.18985 1:0.3011 
1 0:0.17413 1:0.80159 
1 0:0.22191 1:0.28023 
1 0:0.18958 1:0.26389 
1 0:0.19538 1:0.55222 
1 0:0.20091 1:1.50768 
1 0:0.14478 1:0.81954 
1 0:0.1679 1:0.48063 
1 0:0.17671 1:1.1589 
1 0:0.17924 1:0.84203 
1 0:0.17859 1:1.07942 
1 0:0.18008 1:1.15906 
1 0:0.13889 1:0.74433 
1 0:0.13796 1:0.98053 
1 0:0.1364 1:0.65974 
1 0:0.18586 1:0.67034 
1 0:0.18064 1:1.42688 
1 0:0.1874 1:0.66834 
1 0:0.19046 1:0.82544 
1 0:0.16299 1:0.83741 
1 0:0.13629 1:0.48817 
1 0:0.13865 1:0.70932 
1 0:0.15619 1:1.54271 
1 0:0.16299 1:1.19151 
1 0:0.15768 1:0.83317 
1 0:0.12993 1:0.83317 
1 0:0.13613 1:0.84626 
1 0:0.13584 1:0.68364 
1 0:0.13669 1:1.42607 
1 0:0.19657 1:1.47327 
1 0:0.18516 1:0.71834 
1 0:0.19761 1:1.38909 
1 0:0.1726 1:0.69353 
1 0:0.17082 1:1.30978 
1 0:0.18056 1:1.00361 
1 0:0.20328 1:1.49516 
1 0:0.19006 1:1.11554 
1 0:0.12428 1:1.19372 
1 0:0.13562 1:0.6367 
1 0:0.13528 1:0.84454 
1 0:0.18705 1:0.98509 
1 0:0.16865 1:0.89862 
1 0:0.19281 1:1.21157 
1 0:0.16427 1:1.20416 
1 0:0.13573 1:0.63677 
1 0:0.194 1:1.33035 
1 0:0.18663 1:1.09118 
1 0:0.18629 1:1.56509 
1 0:0.18373 1:0.63766 
1 0:0.16583 1:0.7118 
1 0:0.18123 1:0.75066 
1 0:0.18665 1:0.64767 
1 0:0.19218 1:1.56394 
1 0:0.14117 1:1.15717 
1 0:0.15472 1:0.95751 
1 0:0.16317 1:0.83577 
1 0:0.16682 1:1.46195 
1 0:0.16631 1:1.45022 
1 0:0.16808 1:0.75638 
1 0:0.18229 1:1.52445 
1 0:0.21793 1:0.29193 
1 0:0.1296 1:1.36291 
1 0:0.12894 1:1.54102 
1 0:0.12885 1:1.26948 
1 0:0.20115 1:0.25557 
1 0:0.17251 1:0.63287 
1 0:0.16747 1:0.9995 
1 0:0.17351 1:0.7601 
1 0:0.18181 1:1.43537 
1 0:0.18228 1:0.55456 
1 0:0.15356 1:1.4577 
1 0:0.12844 1:0.93789 
1 0:0.12967 1:1.32678 
1 0:0.14548 1:1.10107 
1 0:0.15356 1:0.82077 
1 0:0.14816 1:0.24498 
1 0:0.19156 1:0.548 
1 0:0.21066 1:0.3605 
1 0:0.20573 1:0.46203 
1 0:0.14075 1:0.24498 
1 0:0.12887 1:0.77772 
1 0:0.1279 1:1.26984 
1 0:0.13012 1:0.98249 
1 0:0.18406 1:1.28994 
1 0:0.17274 1:0.34613 
1 0:0.18988 1:1.31316 
1 0:0.19629 1:1.32536 
1 0:0.18615 1:1.28866 
1 0:0.15922 1:0.83263 
1 0:0.15766 1:1.00529 
1 0:0.16797 1:0.85204 
1 0:0.19452 1:0.47811 
1 0:0.19338 1:1.41439 
1 0:0.1812 1:0.86663 
1 0:0.13544 1:0.58566 
1 0:0.13028 1:0.63167 
1 0:0.12777 1:0.88923 
1 0:0.17603 1:0.85755 
1 0:0.18327 1:0.93371 
1 0:0.15841 1:0.82462 
1 0:0.18132 1:1.07839 
1 0:0.15248 1:1.02311 
1 0:0.12999 1:1.25701 
1 0:0.18307 1:1.49514 
1 0:0.17943 1:0.7765 
1 0:0.17593 1:0.94122 
1 0:0.17517 1:1.03038 
1 0:0.17268 1:0.37273 
1 0:0.15285 1:0.89089 
1 0:0.20134 1:0.24498 
1 0:0.18333 1:0.81106 
1 0:0.16972 1:0.29184 
1 0:0.18056 1:0.81387 
1 0:0.17277 1:0.63648 
1 0:0.19276 1:1.49268 
1 0:0.17943 1:1.57022 
1 0:0.1363 1:0.85621 
1 0:0.18466 1:1.19107 
1 0:0.20551 1:0.45759 
1 0:0.20735 1:0.33321 
1 0:0.14624 1:0.27947 
1 0:0.15425 1:1.27207 
1 0:0.15982 1:0.56994 
1 0:0.15949 1:0.82614 
1 0:0.16158 1:1.3133 
1 0:0.17564 1:0.73612 
1 0:0.19072 1:1.14369 
1 0:0.12447 1:0.4508 
1 0:0.12411 1:0.69058 
1 0:0.12474 1:0.35103 
1 0:0.18435 1:1.39569 
1 0:0.20082 1:1.47842 
1 0:0.18385 1:1.16355 
1 0:0.16302 1:0.7561 
1 0:0.1582 1:1.56325 
1 0:0.16419 1:0.6831 
1 0:0.17233 1:0.53611 
1 0:0.17597 1:1.12072 
1 0:0.19354 1:1.42758 
1 0:0.14624 1:0.55204 
1 0:0.12439 1:0.31177 
1 0:0.12455 1:0.41276 
1 0:0.13811 1:1.37752 
1 0:0.14954 1:1.3248 
1 0:0.18518 1:1.25188 
1 0:0.14438 1:1.10697 
1 0:0.19772 1:0.411 
1 0:0.19725 1:1.38154 
1 0:0.19694 1:1.45293 
1 0:0.18386 1:1.1816 
1 0:0.15359 1:1.10697 
1 0:0.12561 1:0.89323 
1 0:0.1241 1:0.3685 
1 0:0.12761 1:1.56926 
1 0:0.17507 1:1.46369 
1 0:0.16369 1:0.93391 
1 0:0.18133 1:1.49257 
1 0:0.1918 1:1.47021 
1 0:0.18677 1:1.49301 
1 0:0.17783 1:1.34741 
1 0:0.18126 1:1.35454 
1 0:0.15032 1:0.67039 
1 0:0.14886 1:1.39087 
1 0:0.15891 1:1.05669 
1 0:0.18791 1:1.10327 
1 0:0.1861 1:1.42729 
1 0:0.17445 1:1.38363 
1 0:0.1482 1:1.50105 
1 0:0.1279 1:0.71835 
1 0:0.12397 1:0.83038 
1 0:0.1679 1:1.22969 
1 0:0.17574 1:1.31629 
1 0:0.15098 1:0.93507 
1 0:0.17292 1:1.21601 
1 0:0.14602 1:1.23534 
1 0:0.12787 1:0.37101 
1 0:0.17506 1:1.39892 
1 0:0.17157 1:1.11391 
1 0:0.19742 1:1.56871 
1 0:0.16799 1:1.33143 
1 0:0.16964 1:1.38154 
1 0:0.16722 1:0.83701 
1 0:0.14445 1:0.65731 
1 0:0.18308 1:1.17741 
1 0:0.20019 1:1.57067 
1 0:0.18883 1:1.19463 
1 0:0.17363 1:1.18241 
1 0:0.16122 1:0.98901 
1 0:0.17097 1:1.10638 
1 0:0.16341 1:0.72826 
1 0:0.18308 1:1.54024 
1 0:0.17022 1:1.44136 
1 0:0.13493 1:1.25912 
1 0:0.19983 1:1.52881 
1 0:0.11764 1:0.83071 
1 0:0.11063 1:1.4549 
1 0:0.10729 1:0.77266 
1 0:0.11324 1:0.46046 
1 0:0.2045 1:0.43557 
1 0:0.20632 1:0.37855 
1 0:0.18381 1:1.22266 
1 0:0.17552 1:0.52295 
1 0:0.17552 1:0.72854 
1 0:0.19472 1:1.37038 
1 0:0.1793 1:0.80102 
1 0:0.18087 1:1.18101 
1 0:0.18389 1:1.3996 
1 0:0.19012 1:1.52693 
1 0:0.19525 1:0.18069 
1 0:0.19841 1:1.49267 
1 0:0.19021 1:0.23338 
1 0:0.19562 1:1.42078 
1 0:0.20099 1:0.48731 
1 0:0.18776 1:1.48372 
1 0:0.18173 1:1.09178 
1 0:0.17973 1:0.40814 
1 0:0.22979 1:0.06127 
1 0:0.21371 1:0.30794 
1 0:0.18607 1:1.53688 
1 0:0.17987 1:0.41542 
1 0:0.19563 1:0.58384 
1 0:0.11605 1:0.43941 
1 0:0.15463 1:0.35098 
1 0:0.16264 1:1.38729 
1 0:0.15867 1:0.46094 
1 0:0.14842 1:0.37625 
1 0:0.1383 1:0.56812 
1 0:0.10153 1:1.40565 
1 0:0.09811 1:1.16872 
1 0:0.10637 1:1.44391 
1 0:0.2135 1:0.32587 
1 0:0.20567 1:0.36486 
1 0:0.09523 1:1.0242 
1 0:0.08663 1:1.22121 
1 0:0.08663 1:0.87025 
1 0:0.21908 1:0.29389 
1 0:0.19383 1:0.56042 
1 0:0.15365 1:1.1148 
1 0:0.213 1:0.33332 
1 0:0.11824 1:0.46675 
1 0:0.18222 1:0.88202 
1 0:0.15947 1:0.50259 
1 0:0.16646 1:1.42956 
1 0:0.16006 1:1.17855 
1 0:0.14705 1:0.27176 
1 0:0.17897 1:1.20715 
1 0:0.17471 1:1.06776 
1 0:0.16648 1:0.84341 
1 0:0.16648 1:0.40163 
1 0:0.2226 1:0.25271 
1 0:0.1902 1:1.10833 
1 0:0.1335 1:1.4906 
1 0:0.12539 1:0.50952 
1 0:0.19346 1:0.23209 
1 0:0.21322 1:0.28884 
1 0:0.12567 1:1.18722 
1 0:0.13695 1:1.47234 
1 0:0.1433 1:0.80102 
1 0:0.21829 1:0.11247 
1 0:0.18501 1:1.30512 
1 0:0.11016 1:1.43019 
1 0:0.17108 1:0.46839 
1 0:0.17905 1:0.73893 
1 0:0.21728 1:0.10838 
1 0:0.13204 1:1.45753 
1 0:0.12344 1:1.53918 
1 0:0.12567 1:1.46553 
1 0:0.20827 1:0.07365 
1 0:0.15066 1:1.44409 
1 0:0.12241 1:1.42603 
1 0:0.13702 1:0.86095 
1 0:0.11877 1:1.25191 
1 0:0.18862 1:0.27721 
1 0:0.22238 1:0.30794 
1 0:0.12985 1:1.45779 
1 0:0.13657 1:1.39676 
1 0:0.17108 1:1.38354 
1 0:0.1377 1:0.81219 
1 0:0.18648 1:0.86095 
1 0:0.19755 1:1.43445 
1 0:0.10729 1:1.26692 
1 0:0.18925 1:1.23601 
1 0:0.14267 1:0.42452 
1 0:0.19368 1:0.48099 
1 0:0.12972 1:1.20699 
1 0:0.19107 1:1.34455 
1 0:0.1904 1:0.10388 
1 0:0.14014 1:1.20874 
1 0:0.14157 1:1.30905 
1 0:0.19466 1:1.55184 
1 0:0.19533 1:0.1794 
1 0:0.19396 1:0.33489 
1 0:0.12837 1:1.30824 
1 0:0.19321 1:0.22181 
1 0:0.19014 1:1.39506 
1 0:0.1881 1:1.55724 
1 0:0.1813 1:1.30824 
1 0:0.1804 1:1.21263 
1 0:0.17882 1:1.44299 
1 0:0.18135 1:0.91201 
1 0:0.065 1:1.12628 
1 0:0.08058 1:1.32566 
1 0:0.19194 1:1.44379 
1 0:0.16334 1:0.99068 
1 0:0.11756 1:1.32566 
1 0:0.12603 1:1.33872 
1 0:0.12387 1:1.23511 
1 0:0.14586 1:1.24951 
1 0:0.1251 1:0.88924 
1 0:0.20504 1:1.54939 
1 0:0.13782 1:0.89801 
1 0:0.07979 1:1.04027 
1 0:0.09527 1:0.98279 
1 0:0.16997 1:0.85121 
1 0:0.1221 1:0.98279 
1 0:0.13392 1:0.58786 
1 0:0.13518 1:0.95612 
1 0:0.15452 1:0.56249 
1 0:0.12805 1:0.92499 
1 0:0.13901 1:0.91557 
1 0:0.1248 1:1.52585 
1 0:0.13174 1:1.55858 
1 0:0.18724 1:1.47324 
1 0:0.16308 1:1.55858 
1 0:0.16369 1:1.36768 
1 0:0.1591 1:1.41379 
1 0:0.17661 1:1.36757 
1 0:0.17103 1:1.4053 
1 0:0.18254 1:1.43123 
1 0:0.19934 1:1.4322 
1 0:0.19474 1:1.42613 
1 0:0.20325 1:1.50692 
1 0:0.12476 1:1.03626 
1 0:0.18841 1:1.53321 
1 0:0.1641 1:1.40839 
1 0:0.15968 1:0.77216 
1 0:0.16108 1:1.16302 
1 0:0.19478 1:1.41285 
1 0:0.13682 1:0.66951 
1 0:0.08891 1:0.59763 
1 0:0.09611 1:1.2669 
1 0:0.10495 1:1.04689 
1 0:0.15617 1:1.34537 
1 0:0.17427 1:0.93145 
1 0:0.16321 1:1.28368 
1 0:0.14128 1:1.47976 
1 0:0.18023 1:1.05525 
1 0:0.13726 1:1.51648 
1 0:0.1707 1:1.506 
1 0:0.19526 1:1.36935 
1 0:0.18795 1:1.28593 
1 0:0.18542 1:1.11245 
1 0:0.18612 1:1.1551 
1 0:0.16577 1:1.56249 
1 0:0.17592 1:0.9958 
1 0:0.18531 1:0.90248 
1 0:0.15299 1:1.41757 
1 0:0.16577 1:0.77575 
1 0:0.15854 1:1.23437 
1 0:0.1868 1:1.40008 
1 0:0.1521 1:0.94047 
1 0:0.20511 1:1.55666 
1 0:0.18139 1:1.51586 
1 0:0.18081 1:1.56946 
1 0:0.12504 1:0.928 
1 0:0.1482 1:1.00632 
1 0:0.17329 1:1.05525 
1 0:0.18615 1:1.16839 
1 0:0.12893 1:0.99735 
1 0:0.19802 1:1.51879 
1 0:0.11928 1:1.47984 
1 0:0.2011 1:1.55369 
1 0:0.19464 1:1.54395 
1 0:0.17158 1:1.56197 
1 0:0.1673 1:1.2666 
1 0:0.16899 1:1.48346 
1 0:0.20214 1:1.56245 
1 0:0.1445 1:1.01173 
1 0:0.07901 1:1.15431 
1 0:0.08692 1:1.32521 
1 0:0.09647 1:1.55345 
1 0:0.16409 1:1.52777 
1 0:0.1808 1:1.39026 
1 0:0.16968 1:1.53843 
1 0:0.14862 1:1.51237 
1 0:0.25476 1:0.04574 
1 0:0.17779 1:1.49038 
1 0:0.1442 1:1.51733 
1 0:0.16571 1:1.37466 
1 0:0.19077 1:1.54132 
1 0:0.2011 1:1.51474 
1 0:0.19412 1:1.54628 
1 0:0.191 1:1.44112 
1 0:0.19257 1:1.46606 
1 0:0.1718 1:1.56314 
1 0:0.18304 1:1.54028 
1 0:0.19114 1:1.51947 
1 0:0.16043 1:1.52832 
1 0:0.1718 1:1.40129 
1 0:0.16476 1:1.46086 
1 0:0.20235 1:1.49038 
1 0:0.19433 1:1.49539 
1 0:0.14896 1:1.47342 
1 0:0.18788 1:1.50362 
1 0:0.18633 1:1.46927 
1 0:0.11927 1:1.54505 
1 0:0.14332 1:1.51039 
1 0:0.17027 1:1.49038 
1 0:0.18346 1:1.3991 
1 0:0.125 1:1.49237 
1 0:0.19256 1:1.47902 
1 0:0.11272 1:0.98338 
1 0:0.18798 1:1.13899 
1 0:0.18373 1:0.5474 
1 0:0.18571 1:1.28983 
1 0:0.1635 1:0.40026 
1 0:0.07271 1:0.73381 
1 0:0.0816 1:1.08482 
1 0:0.09186 1:1.14899 
1 0:0.18181 1:1.07597 
1 0:0.18612 1:1.48483 
1 0:0.16724 1:1.42418 
1 0:0.17032 1:0.91864 
1 0:0.16286 1:1.3639 
1 0:0.16268 1:1.27201 
1 0:0.18792 1:1.10002 
1 0:0.18802 1:1.30086 
1 0:0.17803 1:1.15026 
1 0:0.18802 1:0.73972 
1 0:0.18165 1:1.38422 
1 0:0.14118 1:1.05894 
1 0:0.1167 1:0.93579 
1 0:0.14076 1:0.94537 
1 0:0.16876 1:0.91864 
1 0:0.18201 1:1.00611 
1 0:0.11713 1:1.13822 
1 0:0.10233 1:0.91884 
1 0:0.12859 1:0.63196 
1 0:0.11228 1:0.35051 
1 0:0.19377 1:1.52748 
1 0:0.19186 1:0.30461 
1 0:0.16879 1:1.25761 
1 0:0.07812 1:0.53757 
1 0:0.08723 1:0.83886 
1 0:0.09757 1:0.19043 
1 0:0.18769 1:1.55686 
1 0:0.19086 1:0.67992 
1 0:0.17242 1:0.99226 
1 0:0.21314 1:0.14203 
1 0:0.10271 1:0.63196 
1 0:0.16769 1:1.22484 
1 0:0.16424 1:1.05826 
1 0:0.18936 1:1.53609 
1 0:0.15231 1:0.24049 
1 0:0.20996 1:0.01027 
1 0:0.19234 1:1.26167 
1 0:0.17874 1:0.92178 
1 0:0.23331 1:0.20623 
1 0:0.18647 1:0.25232 
1 0:0.22816 1:0.23976 
1 0:0.1835 1:1.433 
1 0:0.19234 1:0.44962 
1 0:0.18604 1:0.42701 
1 0:0.08951 1:0.27314 
1 0:0.12279 1:0.23502 
1 0:0.14674 1:0.38459 
1 0:0.17491 1:0.63196 
1 0:0.18813 1:0.73629 
1 0:0.20789 1:0.44755 
1 0:0.08464 1:0.33558 
1 0:0.0049 1:0.49192 
1 0:0.04031 1:1.06476 
1 0:0.16459 1:0.95009 
1 0:0.13617 1:0.41201 
1 0:0.09794 1:1.06476 
1 0:0.09924 1:0.65801 
1 0:0.19659 1:1.33676 
1 0:0.09558 1:0.52183 
1 0:0.11693 1:0.33999 
1 0:0.10955 1:0.28459 
1 0:0.17918 1:1.14045 
1 0:0.12723 1:0.1814 
1 0:0.12185 1:1.18922 
1 0:0.15395 1:1.33513 
1 0:0.18274 1:1.00486 
1 0:0.1744 1:1.33941 
1 0:0.17329 1:1.23848 
1 0:0.18522 1:0.70225 
0.6985105466114627 0:0.18946 1:0.90226 
1 0:0.16796 1:1.54098 
1 0:0.17814 1:0.92393 
1 0:0.19732 1:1.50405 
1 0:0.1928 1:1.30469 
1 0:0.17291 1:0.99073 
1 0:0.07467 1:0.96537 
1 0:0.11215 1:1.5702 
1 0:0.12503 1:1.31728 
1 0:0.13429 1:0.67878 
1 0:0.12552 1:0.9109 
1 0:0.11972 1:1.38175 
1 0:0.13386 1:1.07437 
1 0:0.13525 1:1.13652 
1 0:0.14955 1:0.97443 
1 0:0.14165 1:1.05968 
1 0:0.13482 1:1.3882 
1 0:0.14424 1:0.87848 
1 0:0.16794 1:1.2224 
1 0:0.14328 1:0.94333 
1 0:0.14314 1:1.53636 
1 0:0.15896 1:1.24032 
1 0:0.17873 1:0.85884 
1 0:0.16226 1:0.9366 
1 0:0.09148 1:1.16703 
1 0:0.12259 1:0.93643 
1 0:0.17222 1:1.1209 
1 0:0.15773 1:1.55991 
1 0:0.15281 1:1.01016 
1 0:0.15078 1:1.4767 
1 0:0.1451 1:0.99049 
1 0:0.15623 1:1.20704 
1 0:0.15264 1:0.89296 
1 0:0.19763 1:1.4871 
1 0:0.19569 1:1.4915 
1 0:0.16483 1:0.93504 
1 0:0.18688 1:1.1209 
1 0:0.18706 1:0.84104 
1 0:0.20083 1:1.47357 
1 0:0.10047 1:1.50119 
1 0:0.08463 1:1.21565 
1 0:0.07283 1:0.83865 
1 0:0.04142 1:0.89135 
1 0:0.05907 1:1.16778 
1 0:0.17726 1:1.50959 
1 0:0.19216 1:1.55012 
1 0:0.18275 1:1.33564 
1 0:0.13163 1:0.90534 
1 0:0.17827 1:1.30822 
1 0:0.16344 1:0.92325 
1 0:0.08898 1:0.93436 
1 0:0.09266 1:0.81652 
1 0:0.05859 1:1.1209 
1 0:0.05726 1:1.07176 
1 0:0.04142 1:1.41214 
1 0:0.14692 1:1.48356 
1 0:0.14899 1:1.10075 
1 0:0.15223 1:1.15033 
1 0:0.10682 1:0.85964 
1 0:0.10822 1:1.18088 
1 0:0.1076 1:1.45155 
1 0:0.06124 1:0.93436 
1 0:0.18652 1:1.22076 
1 0:0.18594 1:0.85996 
1 0:0.05859 1:0.75455 
1 0:0.15041 1:1.53032 
1 0:0.16457 1:0.44862 
1 0:0.08162 1:1.46151 
1 0:0.10793 1:1.40519 
1 0:0.16453 1:1.08552 
1 0:0.16352 1:1.49802 
1 0:0.05033 1:1.01148 
1 0:0.02201 1:1.0334 
1 0:0.17776 1:1.39698 
1 0:0.17233 1:1.05964 
1 0:0.1576 1:1.1209 
1 0:0.14634 1:1.39063 
1 0:0.14375 1:0.8863 
1 0:0.19602 1:1.46623 
1 0:0.06693 1:1.16103 
1 0:0.18655 1:1.1209 
1 0:0.18107 1:1.32758 
1 0:0.16198 1:1.49924 
1 0:0.16483 1:1.45678 
1 0:0.18402 1:1.1209 
1 0:0.14275 1:1.32893 
1 0:0.18581 1:1.08588 
1 0:0.16523 1:0.93436 
1 0:0.19532 1:1.46426 
1 0:0.18514 1:1.07351 
1 0:0.05286 1:1.51354 
1 0:0.16943 1:1.1209 
1 0:0.05684 1:0.93436 
1 0:0.18655 1:1.49371 
1 0:0.12068 1:1.32706 
1 0:0.08773 1:0.98739 
1 0:0.19476 1:1.51813 
1 0:0.08746 1:1.21816 
1 0:0.12749 1:1.26524 
1 0:0.18287 1:0.99742 
1 0:0.01245 1:0.87187 
1 0:0.13263 1:1.56999 
1 0:0.16086 1:1.15578 
1 0:0.18524 1:1.25157 
1 0:0.18456 1:1.03358 
1 0:0.18786 1:1.52026 
1 0:0.19291 1:0.71238 
1 0:0.09759 1:0.88948 
1 0:0.13401 1:1.20843 
1 0:0.1458 1:1.2505 
1 0:0.14984 1:0.88373 
1 0:0.14877 1:0.67978 
1 0:0.14294 1:1.4494 
1 0:0.15525 1:0.8842 
1 0:0.15724 1:1.32848 
1 0:0.17369 1:0.58063 
1 0:0.1662 1:0.65816 
1 0:0.15932 1:1.50885 
1 0:0.1673 1:0.67574 
1 0:0.19081 1:0.66454 
1 0:0.15307 1:0.67807 
1 0:0.15186 1:1.56902 
1 0:0.1669 1:1.16289 
1 0:0.18756 1:0.69786 
1 0:0.17677 1:0.61705 
1 0:0.10368 1:1.09099 
1 0:0.13552 1:0.62737 
1 0:0.18217 1:0.7854 
1 0:0.16864 1:1.56131 
1 0:0.16319 1:0.64395 
1 0:0.16096 1:1.37368 
1 0:0.16983 1:0.57623 
1 0:0.17783 1:1.15507 
1 0:0.17427 1:0.66114 
1 0:0.21569 1:0.38902 
1 0:0.17901 1:0.89237 
1 0:0.12493 1:1.41431 
1 0:0.11091 1:0.97483 
1 0:0.09949 1:0.71183 
1 0:0.06128 1:0.69449 
1 0:0.08373 1:0.88841 
1 0:0.19151 1:1.54331 
1 0:0.20543 1:0 
1 0:0.19715 1:1.54808 
