svm_type one_against_all
kernel_type rbf
trainOnlyClass -1
gamma 0.0562341
nr_class 2
nr_hyp 2
total_sv 108
rho -0.570131 0.570131
omegaNorm 28.9391 28.9391
avgDistP 0.0592642 0.050556
avgDistN 0.050556 0.0592642
avgFP 1.71505 1.46305
avgFN 1.46305 1.71505
label 1 2
nr_sv 74 34
SV
5.290377583452261 -5.290377583452261 1:-0.820706 2:-0.616099 3:-0.684822 4:-0.831436 5:-0.728674 6:-0.621615 7:-0.0116689 8:0.191936 9:-0.557934 10:-0.756098 11:-0.794872 12:-0.806452 13:-0.931034 14:-1 15:-1 16:-1 17:-1 18:-1 19:-1 30:-0.929569 31:-0.917039 32:-0.906475 33:-0.95422 34:-0.940594 35:-0.984167 36:-0.96879 37:-0.974311 38:-0.987097 39:-0.981181 40:-0.983132 41:-0.952115 42:-0.977964 43:-0.960889 44:-0.986552 45:-0.961184 46:-0.972866 47:-0.950083 48:-0.960012 49:-0.964087 50:-0.951856 51:-0.908914 52:-0.960973 53:-0.938776 54:-0.950376 55:-0.937245 56:-0.889971 57:-0.986287 58:-0.960641 59:-0.949525 60:-0.954421 61:-0.967892 62:-0.961893 63:-0.974747 64:-0.92247 65:-0.986663 66:-0.929076 67:-0.931789 68:-0.917522 69:-0.903963 70:-0.912297 71:-0.989498 72:-0.988683 73:-0.95723 74:-0.967368 75:-0.960821 76:-0.94488 77:-0.968956 78:-0.848497 79:-0.952405 80:-0.912675 81:-0.996749 82:-0.951889 83:-0.938369 84:-0.970807 85:-0.955337 86:-0.959478 87:-0.919986 88:-0.964139 89:-0.834405 90:-0.966798 91:-0.94394 92:-0.950225 93:-0.936269 94:-0.984125 95:-0.913281 96:-0.928499 97:-0.949346 98:-0.979686 99:-0.986375 100:-0.953733 101:-0.871785 102:-0.959764 103:-0.959882 104:-0.94364 105:-0.97932 106:-0.997226 107:-0.952069 108:-0.990381 109:-0.928275 110:-0.930922 111:-0.913974 112:-0.924256 113:-0.97936 114:-0.923598 115:-0.978975 116:-0.980791 117:-0.964545 118:-0.971088 119:-0.95051 120:-0.889779 121:-0.928146 122:-0.971854 123:-0.988908 124:-0.942574 125:-0.938771 126:-0.946032 127:-0.909496 128:-0.968191 129:0.0444878 130:-0.614513 131:-0.761429 132:0.52959 133:-0.584078 134:-0.761429 135:0.630583 136:-0.392733 137:-0.862022 138:-0.145533 139:0.155672 140:-0.385079 141:-1 142:-1 143:-1 144:-0.923077 145:-0.862069 146:-0.666667 147:-0.647059 148:-0.658537 149:-0.740741 150:0.0469799 151:-0.553552 152:-0.88271 153:-0.756098 154:-0.794872 155:-0.806452 156:-0.931034 157:-1 158:-1 159:-1 160:-1 161:-1 162:-1 173:-1 174:-1 175:-1 176:-0.923077 177:-0.862069 178:-0.666666 179:-0.647059 180:-0.658537 181:-0.740741 182:0.0469793 
13.41761354612489 -13.41761354612489 1:-0.738061 2:-0.541869 3:-0.491399 4:-0.74718 5:-0.776687 6:-0.440772 7:0.24915 8:0.407326 9:-0.353973 10:-0.560976 11:-0.692308 12:-0.741935 13:-0.931034 14:-1 15:-1 16:-1 17:-1 18:-1 19:-1 30:-0.365248 31:-0.785963 32:-0.754128 33:-0.889932 34:-0.954235 35:-0.941749 36:-0.941406 37:-0.980339 38:-0.968289 39:-0.943118 40:-0.951818 41:-0.992105 42:-0.972542 43:-0.961312 44:-0.985598 45:-0.986666 46:-0.801127 47:-0.977972 48:-0.926006 49:-0.867724 50:-0.995807 51:-0.818189 52:-0.936328 53:-0.972928 54:-0.891371 55:-0.9316 56:-0.979732 57:-0.937098 58:-0.928392 59:-0.9688 60:-0.918056 61:-0.935124 62:-0.909557 63:-0.968911 64:-0.920183 65:-0.890943 66:-0.8934 67:-0.879669 68:-0.941335 69:-0.961498 70:-0.89647 71:-0.835039 72:-0.901849 73:-0.975223 74:-0.930331 75:-1 76:-0.896749 77:-0.951922 78:-0.949647 79:-0.933889 80:-0.976696 81:-0.923266 82:-0.97168 83:-0.89391 84:-0.924547 85:-0.848393 86:-0.890444 87:-0.968487 88:-0.943096 89:-0.90752 90:-0.93299 91:-0.965281 92:-0.93261 93:-0.971918 94:-0.961931 95:-0.820512 96:-0.831203 97:-0.880156 98:-0.906722 99:-0.969087 100:-0.877401 101:-0.87933 102:-0.891399 103:-0.941845 104:-0.953483 105:-0.950037 106:-0.951401 107:-0.932284 108:-0.895304 109:-0.958967 110:-0.857408 111:-0.872809 112:-0.927577 113:-0.94737 114:-0.973398 115:-0.996953 116:-0.993853 117:-0.983667 118:-0.91161 119:-0.924423 120:-0.83159 121:-0.825049 122:-0.878457 123:-0.904131 124:-0.985332 125:-0.949238 126:-0.904964 127:-0.848429 128:-0.919264 129:-0.0901473 130:-0.354952 131:-0.558917 132:0.247143 133:-0.291571 134:-0.558917 135:0.561005 136:-0.373501 137:-0.785704 138:0.149802 139:0.53309 140:0.0650792 141:-1 142:-1 143:-1 144:-1 145:-0.862069 146:-0.733333 147:-0.647059 148:-0.512195 149:-0.518519 150:-0.0738255 151:-0.63935 152:-0.901944 153:-0.560975 154:-0.692307 155:-0.741935 156:-0.931034 157:-1 158:-1 159:-1 160:-1 161:-1 162:-1 173:-1 174:-1 175:-1 176:-1 177:-0.862069 178:-0.733333 179:-0.647059 180:-0.512194 181:-0.51852 182:-0.0738232 
21.87210801691999 -21.87210801691999 1:-0.77752 2:-0.754748 3:-0.323196 4:-0.771456 5:-0.905118 6:0.0626059 7:0.0338846 8:-0.230089 9:-0.616166 10:-0.756098 11:-0.948718 12:-0.935484 13:-1 14:-1 15:-1 16:-1 17:-1 18:-1 19:-1 30:-0.485595 31:-0.860003 32:-0.970522 33:-0.861505 34:-0.951705 35:-0.92866 36:-0.872711 37:-0.908635 38:-0.980384 39:-0.971502 40:-0.941685 41:-0.864678 42:-0.891574 43:-0.901026 44:-0.888697 45:-0.979138 46:-0.75162 47:-0.909346 48:-0.7963 49:-0.78074 50:-0.695576 51:-0.789403 52:-0.95341 53:-0.938556 54:-0.875737 55:-0.854506 56:-0.910882 57:-0.918057 58:-0.882636 59:-0.844757 60:-0.87658 61:-0.93037 62:-0.926131 63:-0.946098 64:-0.967853 65:-0.972702 66:-0.845717 67:-0.653348 68:-0.773081 69:-0.776471 70:-0.8341 71:-0.958188 72:-0.880296 73:-0.889322 74:-0.897616 75:-0.692393 76:-0.874991 77:-0.841473 78:-0.864092 79:-0.947418 80:-0.739803 81:-0.857066 82:-0.691697 83:-0.790097 84:-0.757327 85:-0.601414 86:-0.961671 87:-0.943051 88:-0.988354 89:-0.950745 90:-0.928827 91:-0.883289 92:-0.927427 93:-0.740295 94:-0.781326 95:-0.783949 96:-0.641887 97:-0.760237 98:-0.710082 99:-0.825245 100:-0.879712 101:-0.895581 102:-0.83528 103:-0.872981 104:-0.926934 105:-0.911547 106:-0.932041 107:-0.963179 108:-0.970821 109:-0.77017 110:-0.712732 111:-0.808268 112:-0.813726 113:-0.8883 114:-0.817435 115:-0.907354 116:-0.860061 117:-0.929385 118:-0.943275 119:-0.937925 120:-0.905085 121:-0.82302 122:-0.861147 123:-0.907465 124:-0.846065 125:-0.937612 126:-0.836667 127:-0.878144 128:-0.930067 129:-0.37815 130:-0.0983657 131:-0.203805 132:-0.153781 133:0.12364 134:-0.203805 135:0.549382 136:-0.422235 137:-0.28899 138:0.451154 139:0.358248 140:0.0272054 141:-1 142:-1 143:-1 144:-1 145:-0.862069 146:-0.8 147:-0.647059 148:-0.560976 149:-0.518519 150:0.516779 151:-0.445314 152:-0.968918 153:-0.756098 154:-0.948718 155:-0.935484 156:-1 157:-1 158:-1 159:-1 160:-1 161:-1 162:-1 173:-1 174:-1 175:-1 176:-1 177:-0.862069 178:-0.8 179:-0.647059 180:-0.560975 181:-0.51852 182:0.516772 
0.6113482460576122 -0.6113482460576122 1:-0.696688 2:-0.662897 3:-0.262109 4:-0.694544 5:-0.851844 6:0.147412 7:0.0493544 8:-0.0990495 9:-0.433227 10:-0.609756 11:-0.846154 12:-0.870968 13:-1 14:-1 15:-1 16:-1 17:-1 18:-1 19:-1 30:-0.540364 31:-0.682545 32:-0.787904 33:-0.938456 34:-0.839099 35:-0.948548 36:-0.931628 37:-0.954166 38:-0.966388 39:-0.907795 40:-0.893936 41:-0.991922 42:-0.864647 43:-0.895388 44:-0.98341 45:-0.940007 46:-0.903712 47:-0.808768 48:-0.586432 49:-0.827865 50:-0.848592 51:-0.884787 52:-0.793253 53:-0.940125 54:-0.843793 55:-0.815272 56:-0.867685 57:-0.85037 58:-0.905849 59:-0.90189 60:-0.904944 61:-0.915025 62:-0.832999 63:-0.905822 64:-0.934357 65:-0.943323 66:-0.785016 67:-0.922424 68:-0.736221 69:-0.973593 70:-0.75738 71:-0.899672 72:-0.895285 73:-0.989134 74:-0.854152 75:-0.665773 76:-0.632316 77:-0.77714 78:-0.840145 79:-0.865942 80:-0.777904 81:-0.923847 82:-0.702856 83:-0.782237 84:-0.887273 85:-0.685111 86:-0.847398 87:-0.734644 88:-0.835722 89:-0.762037 90:-0.921262 91:-0.95015 92:-0.84916 93:-0.83132 94:-0.703858 95:-0.636133 96:-0.69121 97:-0.789346 98:-0.861547 99:-0.696168 100:-0.743178 101:-0.841279 102:-0.917792 103:-0.905483 104:-0.855692 105:-0.922201 106:-0.881213 107:-0.837385 108:-0.790227 109:-0.934996 110:-0.729064 111:-0.890085 112:-0.824757 113:-0.767336 114:-0.667226 115:-0.793778 116:-0.821975 117:-0.875754 118:-0.678206 119:-0.753856 120:-0.778389 121:-0.75037 122:-0.805376 123:-0.824893 124:-0.773995 125:-0.915497 126:-0.81141 127:-0.899807 128:-0.906391 129:-0.102509 130:-0.290173 131:-0.510025 132:0.185482 133:-0.227725 134:-0.510025 135:0.401626 136:-0.345125 137:-0.537475 138:-0.0764354 139:-0.227628 140:-0.279779 141:-1 142:-1 143:-1 144:-1 145:-1 146:-0.8 147:-0.588235 148:-0.317073 149:-0.185185 150:0.758389 151:-0.627895 152:-0.960861 153:-0.609756 154:-0.846154 155:-0.870967 156:-1 157:-1 158:-1 159:-1 160:-1 161:-1 162:-1 173:-1 174:-1 175:-1 176:-1 177:-1 178:-0.8 179:-0.588236 180:-0.317074 181:-0.185187 182:0.758386 
7.859020034428412 -7.859020034428412 1:-0.686748 2:-0.655364 3:-0.255993 4:-0.683787 5:-0.843878 6:0.126223 7:0.0942418 8:-0.0485007 9:-0.409083 10:-0.512195 11:-0.846154 12:-0.870968 13:-1 14:-1 15:-1 16:-1 17:-1 18:-1 19:-1 30:-0.475578 31:-0.698378 32:-0.773284 33:-0.919789 34:-0.856595 35:-0.940501 36:-0.92708 37:-0.970065 38:-0.943511 39:-0.944013 40:-0.885556 41:-0.949551 42:-0.917556 43:-0.955928 44:-0.820321 45:-0.950323 46:-0.740175 47:-0.806011 48:-0.695472 49:-0.783965 50:-0.731734 51:-0.859377 52:-0.815887 53:-0.863442 54:-0.970237 55:-0.804053 56:-0.740896 57:-0.84054 58:-0.714064 59:-0.889797 60:-0.896852 61:-0.916174 62:-0.768028 63:-0.810547 64:-0.849408 65:-0.932779 66:-0.912131 67:-0.750239 68:-0.970476 69:-0.84982 70:-0.842325 71:-0.752056 72:-0.874788 73:-0.883965 74:-0.97593 75:-0.895021 76:-0.77502 77:-0.868245 78:-0.669969 79:-0.687446 80:-0.73124 81:-0.924151 82:-0.897001 83:-0.821718 84:-0.731474 85:-0.754903 86:-0.877307 87:-0.762316 88:-0.839997 89:-0.578913 90:-0.781262 91:-0.786627 92:-0.701875 93:-0.899983 94:-0.820671 95:-0.878771 96:-0.777933 97:-0.911858 98:-0.889363 99:-0.589508 100:-0.919759 101:-0.861518 102:-0.753763 103:-0.868447 104:-0.833284 105:-0.940181 106:-0.914792 107:-0.887555 108:-0.932974 109:-0.819312 110:-0.968016 111:-0.745206 112:-0.905395 113:-0.762988 114:-0.643593 115:-0.868284 116:-0.699731 117:-0.890486 118:-0.846263 119:-0.823525 120:-0.762746 121:-0.546565 122:-0.764545 123:-0.758677 124:-0.593888 125:-0.875476 126:-0.840755 127:-0.871058 128:-0.845685 129:-0.0840408 130:-0.323196 131:-0.539529 132:0.222407 133:-0.265963 134:-0.539529 135:0.386564 136:-0.304929 137:-0.546418 138:-0.0256058 139:-0.170967 140:-0.234042 141:-1 142:-1 143:-1 144:-1 145:-0.931034 146:-0.733333 147:-0.588235 148:-0.219512 149:-0.185185 150:0.302013 151:-0.646767 152:-0.959254 153:-0.512194 154:-0.846154 155:-0.870967 156:-1 157:-1 158:-1 159:-1 160:-1 161:-1 162:-1 173:-1 174:-1 175:-1 176:-1 177:-0.931034 178:-0.733333 179:-0.588236 180:-0.219512 181:-0.185187 182:0.302011 
0.9435514543858847 -0.9435514543858847 1:-0.43851 2:-0.0303678 3:-0.313994 4:-0.440806 5:-0.55161 6:-0.030375 7:0.211905 8:0.0712493 9:-0.295876 10:-0.560976 11:-0.641026 12:-0.548387 13:-0.586207 14:-0.642857 15:-0.6 16:-0.529412 17:-0.272727 18:-1 19:-1 30:0.104409 31:-0.219829 32:-0.289179 33:-0.562139 34:-0.79676 35:-0.835008 36:-0.797458 37:-0.842136 38:-0.930383 39:-0.84394 40:-0.861589 41:-0.892904 42:-0.825482 43:-0.929334 44:-0.940845 45:-0.913434 46:-0.576308 47:-0.754874 48:-0.772028 49:-0.675752 50:-0.36077 51:-0.890278 52:-0.698917 53:-0.881935 54:-0.879712 55:-0.684268 56:-0.869175 57:-0.692512 58:-0.922452 59:-0.931172 60:-0.662385 61:-0.947703 62:-0.645008 63:-0.528804 64:-0.933114 65:-0.830243 66:-0.754689 67:-0.507594 68:-0.610043 69:-0.371072 70:-0.516302 71:-0.390471 72:-0.733632 73:-0.709822 74:-0.722284 75:-0.800864 76:-0.68415 77:-0.571344 78:-0.857629 79:-0.858139 80:-0.677701 81:-0.843794 82:-0.968113 83:-0.633859 84:-0.717824 85:-0.901735 86:-0.919639 87:-0.691706 88:-0.844914 89:-0.682545 90:-0.720645 91:-0.727778 92:-0.954749 93:-0.418331 94:-0.554813 95:-0.78772 96:-0.353068 97:-0.870606 98:-0.664014 99:-0.743258 100:-0.778911 101:-0.359898 102:-0.903344 103:-0.764962 104:-0.773767 105:-0.874911 106:-0.876185 107:-0.936298 108:-0.769051 109:-0.708157 110:-0.780569 111:-0.680579 112:-0.821078 113:-0.56443 114:-0.627649 115:-0.662593 116:-0.979373 117:-0.776585 118:-0.948629 119:-0.332393 120:-0.113893 121:-0.473908 122:-0.515213 123:-0.592449 124:-0.896525 125:-0.749201 126:-0.473985 127:-0.724033 128:-0.556492 129:-0.534623 130:0.096354 131:0.149079 132:-0.466208 133:0.447183 134:0.149079 135:0.257831 136:0.0358382 137:-0.612507 138:0.107629 139:-0.186309 140:-0.192983 141:-1 142:-0.666667 143:-0.285714 144:-0.615385 145:-0.655172 146:-0.6 147:-0.411765 148:-0.170732 149:-0.111111 150:0.100671 151:-0.891276 152:-0.925134 153:-0.560975 154:-0.641026 155:-0.548388 156:-0.586207 157:-0.642857 158:-0.600001 159:-0.529412 160:-0.272729 161:-1 162:-1 173:-1 174:-0.666666 175:-0.285713 176:-0.615385 177:-0.655173 178:-0.6 179:-0.411764 180:-0.170731 181:-0.111112 182:0.100667 
2.122576292250214 -2.122576292250214 1:-0.944791 2:-0.877436 3:-0.983409 4:-0.933422 5:-0.00844086 6:-0.939355 7:-0.752375 8:-0.974467 9:-0.685027 10:-0.95122 11:-0.948718 12:-1 13:-1 14:-1 15:-1 16:-1 17:-1 18:-1 19:-1 30:-0.663526 31:-0.900256 32:-0.832758 33:-0.948414 34:-0.903821 35:-0.95662 36:-0.968169 37:-0.953307 38:-0.975026 39:-0.983959 40:-0.959061 41:-0.956916 42:-0.948933 43:-0.952141 44:-0.961473 45:-0.978275 46:-0.936479 47:-0.920917 48:-0.966117 49:-0.887142 50:-0.954572 51:-0.943153 52:-0.960818 53:-0.966977 54:-0.926048 55:-0.972729 56:-0.96598 57:-0.92315 58:-0.915899 59:-0.933619 60:-0.951651 61:-0.950812 62:-0.930642 63:-0.9098 64:-0.964618 65:-0.942566 66:-0.93883 67:-0.956626 68:-0.971038 69:-0.9326 70:-0.910408 71:-0.879675 72:-0.981836 73:-0.962814 74:-0.957909 75:-0.946602 76:-0.932699 77:-0.956354 78:-0.895954 79:-0.9597 80:-0.899829 81:-0.952373 82:-0.91805 83:-0.927418 84:-0.93041 85:-0.951647 86:-0.972108 87:-0.944137 88:-0.958385 89:-0.944842 90:-0.960922 91:-0.956961 92:-0.96888 93:-0.938636 94:-0.937864 95:-0.934413 96:-0.893482 97:-0.939665 98:-0.976212 99:-0.864318 100:-0.915866 101:-0.923151 102:-0.920171 103:-0.969459 104:-0.946742 105:-0.987721 106:-0.968621 107:-0.940079 108:-0.964121 109:-0.963493 110:-0.937565 111:-0.911811 112:-0.912303 113:-0.922526 114:-0.951141 115:-0.968067 116:-0.958381 117:-0.996367 118:-0.957571 119:-0.876233 120:-0.780535 121:-0.87864 122:-0.933937 123:-0.947972 124:-0.936237 125:-0.943998 126:-0.931277 127:-0.965501 128:-0.932052 129:-0.723094 130:-0.705063 131:-0.592511 132:0.290872 133:-0.336864 134:-0.592511 135:0.714494 136:-0.602548 137:-0.532615 138:-0.243062 139:-0.660093 140:0.164091 141:-1 142:-1 143:-1 144:-1 145:-0.931034 146:-0.8 147:-0.823529 148:-0.853659 149:-0.777778 150:-0.00671141 151:-0.686127 152:-0.857281 153:-0.951219 154:-0.948718 155:-1 156:-1 157:-1 158:-1 159:-1 160:-1 161:-1 162:-1 173:-1 174:-1 175:-1 176:-1 177:-0.931034 178:-0.8 179:-0.82353 180:-0.853659 181:-0.777778 182:-0.00671784 
7.972953810098605 -7.972953810098605 1:-0.768218 2:-0.389603 3:-0.704882 4:-0.779848 5:-0.586846 6:-0.672443 7:-0.00390154 8:0.34996 9:-0.514694 10:-0.756098 11:-0.74359 12:-0.741935 13:-0.931034 14:-0.928571 15:-0.9 16:-0.882353 17:-0.818182 18:-0.6 30:-0.709439 31:-0.92247 32:-0.831599 33:-0.863777 34:-0.886877 35:-0.919913 36:-0.974535 37:-0.987652 38:-0.987885 39:-0.97121 40:-0.98137 41:-0.976568 42:-0.945918 43:-0.974373 44:-0.871446 45:-0.977307 46:-0.845542 47:-0.981079 48:-0.892011 49:-0.942034 50:-0.922311 51:-0.949469 52:-0.992019 53:-0.933091 54:-0.988345 55:-0.904417 56:-0.927642 57:-0.846841 58:-0.933109 59:-0.949563 60:-0.966173 61:-0.950345 62:-0.875156 63:-0.96309 64:-0.938324 65:-0.955813 66:-0.973648 67:-0.887619 68:-0.861649 69:-0.954644 70:-0.970743 71:-0.938565 72:-0.936138 73:-0.967771 74:-0.958077 75:-0.887294 76:-0.909372 77:-0.988487 78:-0.919085 79:-0.928145 80:-0.845701 81:-0.953932 82:-0.961292 83:-0.918515 84:-0.936245 85:-0.907284 86:-0.955608 87:-0.921307 88:-0.93735 89:-0.852285 90:-0.913651 91:-0.92324 92:-0.991521 93:-0.890595 94:-0.908737 95:-0.801717 96:-0.893603 97:-0.964848 98:-0.908748 99:-0.836598 100:-0.937156 101:-0.93353 102:-0.88285 103:-0.951307 104:-0.96437 105:-0.98522 106:-0.930239 107:-0.983229 108:-0.979853 109:-0.86763 110:-0.934218 111:-0.975586 112:-0.876411 113:-0.902426 114:-0.946747 115:-0.916586 116:-0.93312 117:-0.986145 118:-0.941196 119:-0.972168 120:-0.928422 121:-0.85354 122:-0.924984 123:-0.905969 124:-0.95949 125:-0.907795 126:-0.888331 127:-0.931344 128:-0.969587 129:0.11471 130:-0.696875 131:-0.821386 132:0.622711 133:-0.680524 134:-0.821386 135:0.628394 136:-0.376788 137:-0.883473 138:-0.136737 139:0.398281 140:-0.261518 141:-1 142:-0.666667 143:-0.857143 144:-0.923077 145:-0.931034 146:-0.8 147:-0.764706 148:-0.658537 149:-0.740741 150:0.0604027 151:-0.721784 152:-0.824117 153:-0.756098 154:-0.74359 155:-0.741935 156:-0.931034 157:-0.928571 158:-0.9 159:-0.882353 160:-0.818182 161:-0.599999 173:-1 174:-0.666666 175:-0.857142 176:-0.923077 177:-0.931034 178:-0.8 179:-0.764706 180:-0.658537 181:-0.740741 182:0.0603967 
7.204453255267086 -7.204453255267086 1:-0.703036 2:-0.326897 3:-0.550064 4:-0.71399 5:-0.673822 6:-0.502151 7:0.195425 8:0.365827 9:-0.450291 10:-0.658537 11:-0.74359 12:-0.806452 13:-0.793103 14:-0.785714 15:-0.8 16:-0.764706 17:-0.818182 18:-1 19:-1 30:-0.235743 31:-0.844545 32:-0.940405 33:-0.793104 34:-0.834128 35:-0.90849 36:-0.95631 37:-0.972127 38:-0.942855 39:-0.923881 40:-0.945258 41:-0.995136 42:-0.940603 43:-0.986312 44:-0.95455 45:-0.95868 46:-0.977118 47:-0.852346 48:-0.932246 49:-0.848876 50:-0.858735 51:-0.810145 52:-0.964997 53:-0.897136 54:-0.962554 55:-0.884002 56:-0.925601 57:-0.903291 58:-0.910526 59:-0.947626 60:-0.971702 61:-0.963783 62:-0.93765 63:-0.879599 64:-0.916573 65:-0.950198 66:-0.881449 67:-0.967277 68:-0.813749 69:-0.824692 70:-0.888092 71:-0.912387 72:-0.903204 73:-0.971654 74:-0.906944 75:-0.891776 76:-0.964738 77:-0.987638 78:-0.98651 79:-0.916767 80:-0.855933 81:-0.943096 82:-0.951896 83:-0.981207 84:-0.931545 85:-0.878923 86:-0.920802 87:-0.961016 88:-0.986804 89:-0.857783 90:-0.89029 91:-0.959514 92:-0.89111 93:-0.819095 94:-0.959368 95:-0.969492 96:-0.845894 97:-0.960163 98:-0.944309 99:-0.869761 100:-0.98595 101:-0.91987 102:-0.926849 103:-0.975931 104:-0.949324 105:-0.965044 106:-0.984636 107:-0.868482 108:-0.950494 109:-0.972525 110:-0.811813 111:-0.959657 112:-0.969926 113:-0.935983 114:-0.918752 115:-0.926219 116:-0.937667 117:-0.959606 118:-0.95171 119:-0.932495 120:-0.889146 121:-0.979069 122:-0.872629 123:-0.939069 124:-0.849047 125:-0.920118 126:-0.918348 127:-0.891814 128:-0.934395 129:-0.313142 130:0.116879 131:-0.075745 132:-0.275502 133:0.249693 134:-0.075745 135:0.594048 136:-0.287092 137:-0.811605 138:0.0889724 139:0.409446 140:-0.157202 141:-1 142:-0.666667 143:-0.714286 144:-0.846154 145:-0.862069 146:-0.733333 147:-0.705882 148:-0.658537 149:-0.62963 150:0.167785 151:-0.739199 152:-0.902833 153:-0.658537 154:-0.74359 155:-0.806452 156:-0.793104 157:-0.785715 158:-0.8 159:-0.764706 160:-0.818182 161:-1 162:-1 173:-1 174:-0.666666 175:-0.714285 176:-0.846154 177:-0.862069 178:-0.733333 179:-0.705882 180:-0.658537 181:-0.629629 182:0.167782 
1.252330596416123 -1.252330596416123 1:-0.603968 2:-0.372244 3:-0.415674 4:-0.615547 5:-0.66474 6:-0.353494 7:0.324375 8:0.371137 9:-0.304868 10:-0.463415 11:-0.487179 12:-0.548387 13:-0.724138 14:-0.857143 15:-1 16:-1 17:-1 18:-1 19:-1 30:0.200235 31:-0.707724 32:-0.83732 33:-0.654655 34:-0.661125 35:-0.772461 36:-0.842254 37:-0.918345 38:-0.901347 39:-0.904438 40:-0.937534 41:-0.928657 42:-0.933219 43:-0.929138 44:-0.751007 45:-0.918358 46:-0.958399 47:-0.97244 48:-0.954739 49:-0.944832 50:-0.926833 51:-0.875965 52:-0.940778 53:-0.861747 54:-0.736389 55:-0.770723 56:-0.841482 57:-0.753559 58:-0.878372 59:-0.979893 60:-0.843818 61:-0.857822 62:-0.808645 63:-0.947621 64:-0.951144 65:-0.788274 66:-0.924462 67:-0.814439 68:-0.847034 69:-0.919499 70:-0.930333 71:-0.601957 72:-0.956403 73:-0.81279 74:-0.918816 75:-0.856291 76:-0.757446 77:-0.846842 78:-0.89105 79:-0.960226 80:-0.96228 81:-0.793201 82:-0.911099 83:-0.735697 84:-0.742214 85:-0.847829 86:-0.964644 87:-0.784137 88:-0.735394 89:-0.702595 90:-0.927029 91:-0.876185 92:-0.634759 93:-0.846131 94:-0.881431 95:-0.762497 96:-0.808829 97:-0.882841 98:-0.910345 99:-0.915322 100:-0.87869 101:-0.688922 102:-0.969939 103:-0.818797 104:-0.842719 105:-0.880683 106:-0.824744 107:-0.945516 108:-0.788241 109:-0.951623 110:-0.950716 111:-0.693423 112:-0.895073 113:-0.837602 114:-0.948545 115:-0.961621 116:-0.894167 117:-0.885279 118:-0.85739 119:-0.690409 120:-0.797085 121:-0.601448 122:-0.798642 123:-0.781348 124:-0.631893 125:-0.897886 126:-0.903876 127:-0.781963 128:-0.964063 129:-0.32247 130:-0.458758 131:-0.54601 132:0.230632 133:-0.27448 134:-0.54601 135:0.46594 136:-0.265065 137:-0.74887 138:0.234986 139:0.488756 140:0.14658 141:-1 142:-1 143:-0.857143 144:-0.923077 145:-0.931034 146:-0.6 147:-0.588235 148:-0.365854 149:-0.481481 150:0.127517 151:-0.804213 152:-0.922456 153:-0.463414 154:-0.487179 155:-0.548388 156:-0.724138 157:-0.857143 158:-1 159:-1 160:-1 161:-1 162:-1 173:-1 174:-1 175:-0.857142 176:-0.923077 177:-0.931034 178:-0.6 179:-0.588236 180:-0.365855 181:-0.481483 182:0.127511 
9.499481010566445 -9.499481010566445 1:-0.735039 2:-0.611913 3:-0.389617 4:-0.740864 5:-0.836712 6:-0.168022 7:0.18541 8:-0.0023177 9:-0.418636 10:-0.512195 11:-0.74359 12:-0.677419 13:-1 14:-1 15:-1 16:-1 17:-1 18:-1 19:-1 30:-0.504541 31:-0.950963 32:-0.930014 33:-0.73688 34:-0.895367 35:-0.911662 36:-0.918673 37:-0.950114 38:-0.976257 39:-0.954571 40:-0.9336 41:-0.975823 42:-0.98462 43:-0.975462 44:-0.93206 45:-0.965068 46:-0.861307 47:-0.947197 48:-0.782633 49:-0.941156 50:-0.886571 51:-0.846002 52:-0.947787 53:-0.9583 54:-0.899511 55:-0.904725 56:-0.92544 57:-0.908096 58:-0.945321 59:-0.879808 60:-0.898196 61:-0.915396 62:-0.913395 63:-0.945829 64:-0.949772 65:-0.872982 66:-0.886081 67:-0.938112 68:-0.899219 69:-0.895695 70:-0.901777 71:-0.881439 72:-0.894698 73:-0.944665 74:-0.990262 75:-0.903057 76:-0.940048 77:-0.931705 78:-0.936761 79:-0.918405 80:-0.768683 81:-0.895621 82:-0.888965 83:-0.957229 84:-0.876794 85:-0.815437 86:-0.883564 87:-0.954106 88:-0.980033 89:-0.88903 90:-0.944646 91:-0.881021 92:-0.871589 93:-0.965964 94:-0.87743 95:-0.744821 96:-0.838145 97:-0.942349 98:-0.910491 99:-0.794345 100:-0.846175 101:-0.958335 102:-0.938363 103:-0.959122 104:-0.951565 105:-0.940675 106:-0.913386 107:-0.957266 108:-0.890668 109:-0.962902 110:-0.877054 111:-0.988744 112:-0.850859 113:-0.940389 114:-0.867352 115:-0.998282 116:-0.975577 117:-0.975895 118:-0.919673 119:-0.948681 120:-0.930862 121:-0.692288 122:-0.958091 123:-0.95743 124:-0.928199 125:-0.93662 126:-0.890002 127:-0.864096 128:-0.989964 129:-0.00534444 130:-0.431519 131:-0.63562 132:0.34873 133:-0.396775 134:-0.63562 135:0.578829 136:-0.431098 137:-0.670598 138:0.0776295 139:-0.0480888 140:-0.17433 141:-1 142:-1 143:-1 144:-1 145:-0.793103 146:-0.733333 147:-0.764706 148:-0.609756 149:-0.592593 150:0.436242 151:-0.589587 152:-0.943703 153:-0.512194 154:-0.74359 155:-0.677419 156:-1 157:-1 158:-1 159:-1 160:-1 161:-1 162:-1 173:-1 174:-1 175:-1 176:-1 177:-0.793104 178:-0.733333 179:-0.764706 180:-0.609756 181:-0.592592 182:0.43624 
4.883952716310787 -4.883952716310787 1:-0.744643 2:-0.614994 3:-0.346488 4:-0.746877 5:-0.866906 6:-0.0898139 7:0.184602 8:-0.0300519 9:-0.415497 10:-0.609756 11:-0.794872 12:-0.806452 13:-0.931034 14:-1 15:-1 16:-1 17:-1 18:-1 19:-1 30:-0.915517 31:-0.761561 32:-0.849352 33:-0.833082 34:-0.958038 35:-0.953095 36:-0.938713 37:-0.978901 38:-0.94534 39:-0.940624 40:-0.917222 41:-0.943506 42:-0.911439 43:-0.984976 44:-0.914066 45:-0.965245 46:-0.929211 47:-0.917379 48:-0.987967 49:-0.818575 50:-0.905067 51:-0.787844 52:-0.852242 53:-0.852603 54:-0.912688 55:-0.968889 56:-0.883205 57:-0.948083 58:-0.863726 59:-0.942402 60:-0.914278 61:-0.928193 62:-0.87139 63:-0.862388 64:-0.890157 65:-0.901805 66:-0.868955 67:-0.998287 68:-0.76562 69:-0.926078 70:-0.942685 71:-0.793856 72:-0.915542 73:-0.894355 74:-0.911151 75:-0.780856 76:-0.862187 77:-0.917749 78:-0.785021 79:-0.940757 80:-0.901715 81:-0.905905 82:-0.846117 83:-0.834677 84:-0.852551 85:-0.821939 86:-0.909065 87:-0.932431 88:-0.976112 89:-0.741744 90:-0.969846 91:-0.94537 92:-0.916177 93:-0.843527 94:-0.982202 95:-0.886846 96:-0.87048 97:-0.917833 98:-0.941965 99:-0.891167 100:-0.874555 101:-0.920691 102:-0.870387 103:-0.938895 104:-0.949036 105:-0.951141 106:-0.925758 107:-0.94338 108:-0.947885 109:-0.934221 110:-0.90157 111:-0.956745 112:-0.888135 113:-0.938721 114:-0.928058 115:-0.9838 116:-0.866194 117:-0.920675 118:-0.858739 119:-0.848093 120:-0.928853 121:-0.919691 122:-0.950149 123:-0.959307 124:-0.873649 125:-0.92042 126:-0.969825 127:-0.914142 128:-0.969464 129:-0.102625 130:-0.0946091 131:-0.375546 132:0.027198 133:-0.0637995 134:-0.375546 135:0.527805 136:-0.348356 137:-0.637591 138:0.0767133 139:-0.0729268 140:-0.167242 141:-1 142:-1 143:-1 144:-0.923077 145:-0.862069 146:-0.733333 147:-0.588235 148:-0.560976 149:-0.592593 150:0.624161 151:-0.545039 152:-0.938734 153:-0.609756 154:-0.794872 155:-0.806452 156:-0.931034 157:-1 158:-1 159:-1 160:-1 161:-1 162:-1 173:-1 174:-1 175:-1 176:-0.923077 177:-0.862069 178:-0.733333 179:-0.588236 180:-0.560975 181:-0.592592 182:0.624157 
3.034326038575298 -3.034326038575298 1:-0.580024 2:-0.360744 3:-0.260771 4:-0.575575 5:-0.732254 6:0.1804 7:0.0150381 8:-0.228826 9:-0.448495 10:-0.609756 11:-0.74359 12:-0.741935 13:-0.862069 14:-0.857143 15:-0.8 16:-0.764706 17:-1 18:-1 19:-1 30:0.0397124 31:-0.795089 32:-0.953553 33:-0.747119 34:-0.969934 35:-0.909441 36:-0.848916 37:-0.951543 38:-0.976617 39:-0.943132 40:-0.948565 41:-0.962226 42:-0.984766 43:-0.818778 44:-0.891711 45:-0.964101 46:-0.958944 47:-0.827567 48:-0.935955 49:-0.639864 50:-0.711697 51:-0.731522 52:-0.833734 53:-0.848249 54:-0.987638 55:-0.795633 56:-0.781637 57:-0.918802 58:-0.843602 59:-0.835345 60:-0.788004 61:-0.907726 62:-0.906092 63:-0.649902 64:-0.846929 65:-0.771463 66:-0.731376 67:-0.878169 68:-0.755472 69:-0.923176 70:-0.809295 71:-0.746283 72:-0.987323 73:-0.823391 74:-0.869365 75:-0.809561 76:-0.981837 77:-0.979256 78:-0.605627 79:-0.948346 80:-0.688782 81:-0.865396 82:-0.898154 83:-0.778906 84:-0.798016 85:-0.815879 86:-0.879604 87:-0.903144 88:-0.8954 89:-0.939289 90:-0.869114 91:-0.934687 92:-0.713304 93:-0.398569 94:-0.794739 95:-0.406611 96:-0.736407 97:-0.898928 98:-0.713216 99:-0.703172 100:-0.775477 101:-0.81108 102:-0.776442 103:-0.950138 104:-0.841027 105:-0.872366 106:-0.935145 107:-0.809288 108:-0.895498 109:-0.89009 110:-0.664184 111:-0.780645 112:-0.714755 113:-0.802238 114:-0.72989 115:-0.954761 116:-0.906164 117:-0.819217 118:-0.65946 119:-0.902039 120:-0.618273 121:-0.509884 122:-0.739911 123:-0.621983 124:-0.753336 125:-0.790241 126:-0.919864 127:-0.963862 128:-0.861139 129:0.197387 130:-0.631843 131:-0.795017 132:0.581164 133:-0.637498 134:-0.795017 135:0.350706 136:-0.227852 137:-0.523558 138:-0.115293 139:-0.647652 140:-0.623263 141:-1 142:-1 143:-1 144:-0.846154 145:-0.862069 146:-0.8 147:-0.470588 148:-0.170732 149:-0.148148 150:0.731544 151:-0.794723 152:-0.949364 153:-0.609756 154:-0.74359 155:-0.741935 156:-0.862069 157:-0.857143 158:-0.8 159:-0.764706 160:-1 161:-1 162:-1 173:-1 174:-1 175:-1 176:-0.846154 177:-0.862069 178:-0.8 179:-0.470588 180:-0.170731 181:-0.148149 182:0.731542 
1.594275355139083 -1.594275355139083 1:-0.636006 2:-0.581227 3:-0.242245 4:-0.630975 5:-0.798107 6:0.193969 7:0.0256924 8:-0.159992 9:-0.430734 10:-0.512195 11:-0.74359 12:-0.741935 13:-1 14:-1 15:-1 16:-1 17:-1 18:-1 19:-1 30:-0.675875 31:-0.651759 32:-0.901311 33:-0.836395 34:-0.863922 35:-0.802779 36:-0.881603 37:-0.930232 38:-0.950376 39:-0.991527 40:-0.858921 41:-0.963638 42:-0.885229 43:-0.931975 44:-0.897657 45:-0.971084 46:-0.749704 47:-0.845079 48:-0.881613 49:-0.673182 50:-0.821492 51:-0.693077 52:-0.775791 53:-0.923104 54:-0.873155 55:-0.83008 56:-0.918719 57:-0.741411 58:-0.957869 59:-0.810226 60:-0.764974 61:-0.90754 62:-0.830012 63:-0.783323 64:-0.806586 65:-0.867853 66:-0.816028 67:-0.694443 68:-0.870397 69:-0.837787 70:-0.790598 71:-0.907852 72:-0.891614 73:-0.833806 74:-0.980024 75:-0.891108 76:-0.771673 77:-0.811971 78:-0.944009 79:-0.916749 80:-0.854955 81:-0.874751 82:-0.952478 83:-0.653023 84:-0.763078 85:-0.761091 86:-0.71889 87:-0.652554 88:-0.822182 89:-0.64488 90:-0.95082 91:-0.839206 92:-0.806213 93:-0.571703 94:-0.741603 95:-0.55028 96:-0.733127 97:-0.734231 98:-0.921489 99:-0.461423 100:-0.729015 101:-0.921011 102:-0.872848 103:-0.806936 104:-0.870283 105:-0.821425 106:-0.783756 107:-0.826506 108:-0.849757 109:-0.696022 110:-0.797102 111:-0.6993 112:-0.902116 113:-0.815931 114:-0.79426 115:-0.814041 116:-0.817849 117:-0.869244 118:-0.967203 119:-0.797045 120:-0.797556 121:-0.753966 122:-0.915999 123:-0.724982 124:-0.828736 125:-0.577185 126:-0.612619 127:-0.701391 128:-0.903955 129:0.0331172 130:-0.336865 131:-0.587007 132:0.283627 133:-0.329361 134:-0.587007 135:0.365456 136:-0.343801 137:-0.517827 138:-0.103228 139:-0.283332 140:-0.27651 141:-1 142:-1 143:-1 144:-1 145:-1 146:-0.8 147:-0.588235 148:-0.317073 149:-0.111111 150:0.651007 151:-0.726909 152:-0.942886 153:-0.512194 154:-0.74359 155:-0.741935 156:-1 157:-1 158:-1 159:-1 160:-1 161:-1 162:-1 173:-1 174:-1 175:-1 176:-1 177:-1 178:-0.8 179:-0.588236 180:-0.317074 181:-0.111112 182:0.651001 
2.167443499102563 -2.167443499102563 1:-0.705051 2:-0.438903 3:-0.287274 4:-0.690667 5:-0.835649 6:0.116579 7:0.0481545 8:-0.167053 9:-0.486303 10:-0.658537 11:-0.897436 12:-0.870968 13:-0.862069 14:-0.857143 15:-0.9 16:-0.882353 17:-0.818182 18:-1 19:-1 30:-0.63803 31:-0.796627 32:-0.800167 33:-0.877435 34:-0.907309 35:-0.908848 36:-0.995754 37:-0.912705 38:-0.948494 39:-0.960254 40:-0.921631 41:-0.922207 42:-0.884725 43:-0.957023 44:-0.914996 45:-0.96609 46:-0.774094 47:-0.724278 48:-0.743753 49:-0.722581 50:-0.562727 51:-0.694922 52:-0.964657 53:-0.994973 54:-0.842133 55:-0.934756 56:-0.825591 57:-0.783969 58:-0.967531 59:-0.902717 60:-0.889949 61:-0.983028 62:-0.808295 63:-0.944439 64:-0.83324 65:-0.946365 66:-0.955811 67:-0.971225 68:-0.772609 69:-0.706988 70:-0.920415 71:-0.857966 72:-0.928907 73:-0.932172 74:-0.898415 75:-0.92777 76:-0.814151 77:-0.937206 78:-0.871882 79:-0.955683 80:-0.930873 81:-0.966467 82:-0.703513 83:-0.882939 84:-0.95479 85:-0.853789 86:-0.897436 87:-0.843322 88:-0.919547 89:-0.676301 90:-0.874134 91:-0.919321 92:-0.841517 93:-0.877826 94:-0.884916 95:-0.915852 96:-0.829067 97:-0.899238 98:-0.907224 99:-0.797254 100:-0.719313 101:-0.745212 102:-0.871308 103:-0.920934 104:-0.944358 105:-0.966015 106:-0.896365 107:-0.953136 108:-0.954554 109:-0.778829 110:-0.806576 111:-0.88493 112:-0.964864 113:-0.925723 114:-0.81738 115:-0.885363 116:-0.845607 117:-0.967936 118:-0.880128 119:-0.841147 120:-0.995675 121:-0.761084 122:-0.805727 123:-0.927516 124:-0.871249 125:-0.947761 126:-0.941699 127:-0.957474 128:-0.93897 129:-0.0675163 130:-0.0398915 131:-0.35594 132:0.00540357 133:-0.0412286 134:-0.35594 135:0.512482 136:-0.311411 137:-0.550486 138:-0.0777941 139:-0.301473 140:-0.36911 141:-1 142:-1 143:-0.857143 144:-0.923077 145:-0.862069 146:-0.733333 147:-0.529412 148:-0.512195 149:-0.481481 150:0.503356 151:-0.6479 152:-0.927313 153:-0.658537 154:-0.897436 155:-0.870967 156:-0.862069 157:-0.857143 158:-0.9 159:-0.882353 160:-0.818182 161:-1 162:-1 173:-1 174:-1 175:-0.857142 176:-0.923077 177:-0.862069 178:-0.733333 179:-0.529412 180:-0.512194 181:-0.481483 182:0.503354 
2.497336671092465 -2.497336671092465 1:-0.660487 2:-0.340441 3:-0.278682 4:-0.644655 5:-0.792388 6:0.107718 7:0.0853077 8:-0.145884 9:-0.495156 10:-0.658537 11:-0.794872 12:-0.741935 13:-0.793103 14:-0.785714 15:-0.9 16:-0.882353 17:-0.818182 18:-1 19:-1 30:-0.549864 31:-0.743413 32:-0.807511 33:-0.759506 34:-0.862727 35:-0.925302 36:-0.92007 37:-0.95737 38:-0.983599 39:-0.941451 40:-0.912297 41:-0.946278 42:-0.899551 43:-0.941635 44:-0.958745 45:-0.977645 46:-0.93922 47:-0.848559 48:-0.685899 49:-0.940507 50:-0.602915 51:-0.933297 52:-0.808379 53:-0.783927 54:-0.792233 55:-0.840099 56:-0.800788 57:-0.909756 58:-0.733521 59:-0.965439 60:-0.822441 61:-0.93583 62:-0.874319 63:-0.957127 64:-0.8291 65:-0.897939 66:-0.903848 67:-0.934329 68:-0.812275 69:-0.838078 70:-0.872004 71:-0.945786 72:-0.927291 73:-0.839397 74:-0.942571 75:-0.754248 76:-0.921028 77:-0.843986 78:-0.812437 79:-0.91998 80:-0.972953 81:-0.837882 82:-0.834421 83:-0.804239 84:-0.953155 85:-0.941621 86:-0.944262 87:-0.977821 88:-0.953302 89:-0.725008 90:-0.774748 91:-0.918514 92:-0.842913 93:-0.857355 94:-0.988885 95:-0.863999 96:-0.799966 97:-0.854361 98:-0.943087 99:-0.921101 100:-0.914485 101:-0.730548 102:-0.811487 103:-0.947621 104:-0.847462 105:-0.970521 106:-0.838425 107:-0.966954 108:-0.883787 109:-0.781318 110:-0.923104 111:-0.825768 112:-0.889509 113:-0.915023 114:-0.866245 115:-0.910084 116:-0.825647 117:-0.839395 118:-0.699771 119:-0.866009 120:-0.871692 121:-0.730421 122:-0.878033 123:-0.886836 124:-0.873124 125:-0.910836 126:-0.682786 127:-0.841276 128:-0.942995 129:-0.192791 130:0.3173 131:-0.0224662 132:-0.323193 133:0.299078 134:-0.0224662 135:0.536718 136:-0.317 137:-0.554231 138:-0.035722 139:-0.264217 140:-0.365074 141:-1 142:-1 143:-0.857143 144:-0.923077 145:-0.793103 146:-0.8 147:-0.529412 148:-0.512195 149:-0.481481 150:0.422819 151:-0.721365 152:-0.921255 153:-0.658537 154:-0.794872 155:-0.741935 156:-0.793104 157:-0.785715 158:-0.9 159:-0.882353 160:-0.818182 161:-1 162:-1 173:-1 174:-1 175:-0.857142 176:-0.923077 177:-0.793104 178:-0.8 179:-0.529412 180:-0.512194 181:-0.481483 182:0.422813 
4.401817319054 -4.401817319054 1:-0.655014 2:-0.31718 3:-0.185429 4:-0.636307 5:-0.830755 6:0.147906 7:0.224357 8:0.00256939 9:-0.287409 10:-0.609756 11:-0.794872 12:-0.741935 13:-0.724138 14:-0.785714 15:-0.8 16:-0.882353 17:-0.818182 18:-1 19:-1 30:-0.498454 31:-0.722704 32:-0.769201 33:-0.787121 34:-0.838863 35:-0.922937 36:-0.945896 37:-0.948513 38:-0.96196 39:-0.932111 40:-0.933954 41:-0.943889 42:-0.889438 43:-0.937103 44:-0.971886 45:-0.994096 46:-0.858686 47:-0.963285 48:-0.672025 49:-0.961552 50:-0.613987 51:-0.936534 52:-0.9073 53:-0.836545 54:-0.787807 55:-0.848847 56:-0.698205 57:-0.971181 58:-0.771783 59:-0.872239 60:-0.832956 61:-0.960007 62:-0.792183 63:-0.8921 64:-0.816653 65:-0.995696 66:-0.86579 67:-0.942388 68:-0.837564 69:-0.943529 70:-0.788203 71:-0.869645 72:-0.920671 73:-0.889966 74:-0.98005 75:-0.771257 76:-0.833093 77:-0.9474 78:-0.893792 79:-0.874119 80:-0.827165 81:-0.901913 82:-0.973584 83:-0.763511 84:-0.835207 85:-0.924584 86:-0.921148 87:-0.915703 88:-0.956077 89:-0.691334 90:-0.94901 91:-0.912723 92:-0.808808 93:-0.732239 94:-0.866842 95:-0.922311 96:-0.88789 97:-0.883781 98:-0.885276 99:-0.869813 100:-0.659743 101:-0.858875 102:-0.925245 103:-0.963413 104:-0.911611 105:-0.938431 106:-0.784331 107:-0.949429 108:-0.889061 109:-0.825176 110:-0.869301 111:-0.649639 112:-0.818716 113:-0.934742 114:-0.905129 115:-0.887211 116:-0.825066 117:-0.909912 118:-0.902816 119:-0.953694 120:-0.578426 121:-0.782615 122:-0.805782 123:-0.8048 124:-0.989101 125:-0.876222 126:-0.945296 127:-0.87671 128:-0.93866 129:-0.1955 130:0.372536 131:0.0207684 132:-0.360698 133:0.337925 134:0.0207684 135:0.536144 136:-0.272944 137:-0.53727 138:0.121728 139:-0.0355745 140:0.0410224 141:-1 142:-1 143:-0.857143 144:-0.923077 145:-0.724138 146:-0.666667 147:-0.588235 148:-0.463415 149:-0.518519 150:0.409396 151:-0.698887 152:-0.90771 153:-0.609756 154:-0.794872 155:-0.741935 156:-0.724138 157:-0.785715 158:-0.8 159:-0.882353 160:-0.818182 161:-1 162:-1 173:-1 174:-1 175:-0.857142 176:-0.923077 177:-0.724138 178:-0.666666 179:-0.588236 180:-0.463414 181:-0.51852 182:0.409396 
0.5964138710809878 -0.5964138710809878 1:-0.454328 2:-0.00743397 3:-0.219273 4:-0.439702 5:-0.625847 6:0.13506 7:0.194225 8:-0.168039 9:-0.0700969 10:-0.463415 11:-0.641026 12:-0.548387 13:-0.586207 14:-0.571429 15:-0.7 16:-0.647059 17:-0.636364 18:-0.2 19:1 30:-0.461024 31:-0.778214 32:-0.452178 33:-0.814579 34:-0.968659 35:-0.863634 36:-0.817377 37:-0.962722 38:-0.95335 39:-0.920166 40:-0.956544 41:-0.873938 42:-0.823659 43:-0.927711 44:-0.935323 45:-0.967411 46:-0.897082 47:-0.852069 48:-0.668255 49:-0.768039 50:-0.786869 51:-0.839462 52:-0.92061 53:-0.801114 54:-0.920122 55:-0.814472 56:-0.761952 57:-0.970342 58:-0.740831 59:-0.868246 60:-0.81314 61:-0.895804 62:-0.909356 63:-0.850614 64:-0.777106 65:-0.862455 66:-0.900537 67:-0.666715 68:-0.803045 69:-0.867717 70:-0.804251 71:-0.655884 72:-0.907256 73:-0.902913 74:-0.845096 75:-0.801195 76:-0.798587 77:-0.907205 78:-0.581972 79:-0.943949 80:-0.754623 81:-0.934937 82:-0.915687 83:-0.769127 84:-0.926763 85:-0.661655 86:-0.928944 87:-0.859986 88:-0.891056 89:-0.799429 90:-0.947208 91:-0.944057 92:-0.834467 93:-0.467227 94:-0.658453 95:-0.932642 96:-0.548414 97:-0.859494 98:-0.902434 99:-0.733918 100:-0.884822 101:-0.59795 102:-0.750985 103:-0.932613 104:-0.946775 105:-0.868779 106:-0.827516 107:-0.739037 108:-0.900959 109:-0.772057 110:-0.696999 111:-0.691814 112:-0.754811 113:-0.769625 114:-0.726792 115:-0.637925 116:-0.855194 117:-0.697217 118:-0.763377 119:-0.753212 120:-0.597319 121:-0.579195 122:-0.750864 123:-0.748878 124:-0.939855 125:-0.833104 126:-0.85909 127:-0.813855 128:-0.848893 129:0.0154034 130:0.595387 131:0.00471892 132:-0.346889 133:0.32363 134:0.00471892 135:0.260541 136:0.0384416 137:-0.542687 138:0.0876137 139:-0.588577 140:-0.205724 141:1 142:-0.333333 143:-0.714286 144:-0.769231 145:-0.517241 146:-0.333333 147:-0.294118 148:-0.365854 149:-0.333333 150:0.530201 151:-0.875388 152:-0.894595 153:-0.463414 154:-0.641026 155:-0.548388 156:-0.586207 157:-0.571429 158:-0.700001 159:-0.647059 160:-0.636364 161:-0.199999 162:1 173:1 174:-0.333333 175:-0.714285 176:-0.769231 177:-0.517243 178:-0.333332 179:-0.294116 180:-0.365855 181:-0.333333 182:0.530198 
0.9801292486707895 -0.9801292486707895 1:-0.405668 2:0.100037 3:-0.341127 4:-0.40072 5:-0.481525 6:0.052565 7:0.0586497 8:-0.249303 9:-0.2261 10:-0.512195 11:-0.538462 12:-0.419355 13:-0.448276 14:-0.428571 15:-0.5 16:-0.529412 17:-0.636364 18:-0.2 19:1 30:-0.388299 31:-0.616617 32:-0.73637 33:-0.808011 34:-0.707633 35:-0.86804 36:-0.802012 37:-0.864094 38:-0.996424 39:-0.927293 40:-0.92314 41:-0.908429 42:-0.854504 43:-0.884753 44:-0.869365 45:-0.988745 46:-0.80456 47:-0.891863 48:-0.948748 49:-0.727893 50:-0.894503 51:-0.615555 52:-0.824341 53:-0.87737 54:-0.880961 55:-0.888836 56:-0.813551 57:-0.884646 58:-0.891945 59:-0.925452 60:-0.845088 61:-0.878257 62:-0.978455 63:-0.85594 64:-0.89664 65:-0.732547 66:-0.829793 67:-0.807466 68:-0.619855 69:-0.960802 70:-0.808439 71:-0.536746 72:-0.873488 73:-0.904576 74:-0.954838 75:-0.943386 76:-0.848244 77:-0.919186 78:-0.843998 79:-0.830154 80:-0.484426 81:-0.971109 82:-0.8078 83:-0.87888 84:-0.821319 85:-0.992982 86:-0.899448 87:-0.717819 88:-0.846442 89:-0.603297 90:-0.95383 91:-0.967811 92:-0.770761 93:-0.848836 94:-0.934302 95:-0.939292 96:-0.430578 97:-0.761684 98:-0.91285 99:-0.79512 100:-0.847826 101:-0.915224 102:-0.899879 103:-0.909877 104:-0.903939 105:-0.900104 106:-0.826367 107:-0.965829 108:-0.869574 109:-0.894005 110:-0.859575 111:-0.690809 112:-0.88209 113:-0.758668 114:-0.846303 115:-0.82327 116:-0.98559 117:-0.887061 118:-0.85147 119:-0.796576 120:-0.851393 121:-0.665486 122:-0.899293 123:-0.801072 124:-0.891791 125:-0.768341 126:-0.890157 127:-0.711792 128:-0.88617 129:0.282543 130:0.0642898 131:-0.438758 132:0.0996458 133:-0.138814 134:-0.438758 135:0.363944 136:0.0136655 137:-0.577503 138:-0.0659077 139:-0.705867 140:-0.460726 141:1 142:-0.333333 143:-0.571429 144:-0.692308 145:-0.586207 146:-0.4 147:-0.352941 148:-0.463415 149:-0.555556 150:0.637584 151:-0.910749 152:-0.886508 153:-0.512194 154:-0.538461 155:-0.419354 156:-0.448277 157:-0.428572 158:-0.500001 159:-0.529412 160:-0.636364 161:-0.199999 162:1 173:1 174:-0.333333 175:-0.571428 176:-0.692308 177:-0.586207 178:-0.399999 179:-0.35294 180:-0.463414 181:-0.555555 182:0.637583 
6.539075569019079 -6.539075569019079 1:-0.610618 2:-0.152479 3:-0.440161 4:-0.603124 5:-0.626773 6:0.029714 7:-0.176232 8:-0.435827 9:-0.48436 10:-0.560976 11:-0.74359 12:-0.741935 13:-0.724138 14:-0.714286 15:-0.8 16:-0.764706 17:-0.636364 18:-0.2 19:-1 30:-0.463878 31:-0.645746 32:-0.70809 33:-0.976029 34:-0.91527 35:-0.950578 36:-0.874066 37:-0.962982 38:-0.900641 39:-0.925915 40:-0.982481 41:-0.979941 42:-0.902897 43:-0.964532 44:-0.92961 45:-0.944446 46:-0.873804 47:-0.902504 48:-0.85272 49:-0.943871 50:-0.948782 51:-0.881404 52:-0.9695 53:-0.950213 54:-0.940738 55:-0.965718 56:-0.987476 57:-0.88259 58:-0.807389 59:-0.896483 60:-0.921003 61:-0.980366 62:-0.845812 63:-0.874789 64:-0.866242 65:-0.911415 66:-0.937816 67:-0.903239 68:-0.846861 69:-0.908887 70:-0.871926 71:-0.854087 72:-0.948853 73:-0.928296 74:-0.946916 75:-0.840442 76:-0.868274 77:-0.871558 78:-0.885578 79:-0.911488 80:-0.853813 81:-0.899818 82:-0.987143 83:-0.956319 84:-0.908987 85:-0.849021 86:-0.925626 87:-0.920985 88:-0.93985 89:-0.810095 90:-0.926987 91:-0.899685 92:-0.792318 93:-0.877324 94:-0.837848 95:-0.678036 96:-0.893177 97:-0.96199 98:-0.902675 99:-0.869227 100:-0.932215 101:-0.821997 102:-0.866101 103:-0.902819 104:-0.972109 105:-0.956274 106:-0.952518 107:-0.87517 108:-0.919484 109:-0.88667 110:-0.87754 111:-0.958657 112:-0.750874 113:-0.890112 114:-0.948458 115:-0.939458 116:-0.972305 117:-0.931297 118:-0.932336 119:-0.894473 120:-0.88899 121:-0.931414 122:-0.912876 123:-0.908801 124:-0.907214 125:-0.842342 126:-0.8374 127:-0.860651 128:-0.961286 129:-0.0205309 130:0.415754 131:-0.0843685 132:-0.267637 133:0.241537 134:-0.0843685 135:0.534112 136:-0.155693 137:-0.587149 138:-0.331872 139:-0.819065 140:-0.710495 141:-1 142:-0.333333 143:-0.714286 144:-0.846154 145:-0.655172 146:-0.666667 147:-0.529412 148:-0.512195 149:-0.62963 150:0.758389 151:-0.823397 152:-0.928904 153:-0.560975 154:-0.74359 155:-0.741935 156:-0.724138 157:-0.714286 158:-0.8 159:-0.764706 160:-0.636364 161:-0.199999 162:-1 173:-1 174:-0.333333 175:-0.714285 176:-0.846154 177:-0.655173 178:-0.666666 179:-0.529412 180:-0.512194 181:-0.629629 182:0.758386 
12.10008229516164 -12.10008229516164 1:-0.760225 2:-0.478867 3:-0.431419 4:-0.74842 5:-0.820698 6:0.0215031 7:-0.162236 8:-0.435509 9:-0.397791 10:-0.707317 11:-0.846154 12:-0.870968 13:-0.862069 14:-0.857143 15:-0.8 16:-1 17:-1 18:-1 19:-1 30:-0.143269 31:-0.797062 32:-0.817885 33:-0.968724 34:-0.872895 35:-0.830499 36:-0.972904 37:-0.983907 38:-0.950421 39:-0.933851 40:-0.974808 41:-0.960553 42:-0.939397 43:-0.972006 44:-0.990777 45:-0.963055 46:-0.887539 47:-0.942409 48:-0.943856 49:-0.835507 50:-0.897071 51:-0.917805 52:-0.839543 53:-0.94348 54:-0.914937 55:-0.892823 56:-0.973538 57:-0.945214 58:-0.951357 59:-0.892022 60:-0.929278 61:-0.948179 62:-0.730963 63:-0.915124 64:-0.993575 65:-0.951444 66:-0.895146 67:-0.968464 68:-0.860067 69:-0.948278 70:-0.928231 71:-0.879284 72:-0.871573 73:-0.926289 74:-0.975258 75:-0.859957 76:-0.922013 77:-0.922942 78:-0.939745 79:-0.898295 80:-0.92058 81:-0.976126 82:-0.934141 83:-0.85442 84:-0.805863 85:-0.773822 86:-0.947505 87:-0.95969 88:-0.928908 89:-0.907109 90:-0.92161 91:-0.979996 92:-0.860129 93:-0.901997 94:-0.917769 95:-0.93599 96:-0.697823 97:-0.883073 98:-0.94348 99:-0.848109 100:-0.932548 101:-0.872693 102:-0.948933 103:-0.958836 104:-0.970752 105:-0.948852 106:-0.931674 107:-0.959 108:-0.909703 109:-0.785969 110:-0.931242 111:-0.988088 112:-0.911393 113:-0.963265 114:-0.88754 115:-0.972591 116:-0.878262 117:-0.952473 118:-0.884105 119:-0.962112 120:-0.897373 121:-0.872388 122:-0.905734 123:-0.974299 124:-0.908588 125:-0.864814 126:-0.883453 127:-0.962863 128:-0.954275 129:-0.175661 130:-0.432926 131:-0.583751 132:0.279364 133:-0.324938 134:-0.583751 135:0.669255 136:-0.428036 137:-0.590615 138:-0.316019 139:-0.645537 140:-0.385529 141:-1 142:-1 143:-1 144:-1 145:-0.793103 146:-0.8 147:-0.647059 148:-0.658537 149:-0.703704 150:0.785235 151:-0.596678 152:-0.884242 153:-0.707317 154:-0.846154 155:-0.870967 156:-0.862069 157:-0.857143 158:-0.8 159:-1 160:-1 161:-1 162:-1 173:-1 174:-1 175:-1 176:-1 177:-0.793104 178:-0.8 179:-0.647059 180:-0.658537 181:-0.703704 182:0.78523 
7.772647597874066 -7.772647597874066 1:-0.659849 2:-0.160114 3:-0.49825 4:-0.646281 5:-0.627389 6:-0.071225 7:-0.169765 8:-0.465703 9:-0.233425 10:-0.658537 11:-0.74359 12:-0.741935 13:-0.724138 14:-0.714286 15:-0.7 16:-0.647059 17:-0.454545 18:-1 19:-1 30:-0.142068 31:-0.884818 32:-0.865638 33:-0.906527 34:-0.891971 35:-0.944138 36:-0.889215 37:-0.907729 38:-0.989923 39:-0.954936 40:-0.948492 41:-0.977543 42:-0.892797 43:-0.962117 44:-0.878725 45:-0.980554 46:-0.895158 47:-0.915188 48:-0.910813 49:-0.948887 50:-0.852383 51:-0.888632 52:-0.986897 53:-0.955724 54:-0.949139 55:-0.942531 56:-0.962546 57:-0.844614 58:-0.90504 59:-0.904633 60:-0.942696 61:-0.826797 62:-0.912296 63:-0.991572 64:-0.913467 65:-0.938781 66:-0.973941 67:-0.942402 68:-0.913364 69:-0.950472 70:-0.873921 71:-0.828457 72:-0.930096 73:-0.965662 74:-0.824794 75:-0.928079 76:-0.930092 77:-0.962726 78:-0.799944 79:-0.969937 80:-0.871533 81:-0.972125 82:-0.980286 83:-0.909924 84:-0.932762 85:-0.869175 86:-0.935834 87:-0.949914 88:-0.940963 89:-0.804427 90:-0.917252 91:-0.867952 92:-0.918449 93:-0.809153 94:-0.964368 95:-0.862762 96:-0.852761 97:-0.996354 98:-0.928056 99:-0.863998 100:-0.910959 101:-0.923648 102:-0.912412 103:-0.947548 104:-0.970631 105:-0.961674 106:-0.913459 107:-0.957182 108:-0.969429 109:-0.916657 110:-0.939661 111:-0.995877 112:-0.879454 113:-0.927643 114:-0.918287 115:-0.917821 116:-0.912878 117:-0.918415 118:-0.932434 119:-0.8313 120:-0.938176 121:-0.852502 122:-0.868205 123:-0.968983 124:-0.973793 125:-0.978054 126:-0.918409 127:-0.961564 128:-0.975286 129:0.382774 130:-0.700674 131:-0.851678 132:0.671623 133:-0.731178 134:-0.851678 135:0.631313 136:-0.182178 137:-0.62975 138:-0.324543 139:-0.722438 140:-0.272199 141:-1 142:-0.666667 143:-0.571429 144:-0.769231 145:-0.724138 146:-0.6 147:-0.588235 148:-0.609756 149:-0.666667 150:0.409396 151:-0.802847 152:-0.824723 153:-0.658537 154:-0.74359 155:-0.741935 156:-0.724138 157:-0.714286 158:-0.700001 159:-0.647059 160:-0.454547 161:-1 162:-1 173:-1 174:-0.666666 175:-0.571428 176:-0.769231 177:-0.724138 178:-0.6 179:-0.588236 180:-0.609756 181:-0.666667 182:0.409396 
4.665006821575965 -4.665006821575965 1:-0.730438 2:-0.279019 3:-0.593532 4:-0.71707 5:-0.628724 6:-0.160389 7:-0.316888 8:-0.414861 9:-0.455408 10:-0.609756 11:-0.794872 12:-0.870968 13:-0.862069 14:-0.857143 15:-0.8 16:-0.764706 17:-0.636364 18:-0.2 19:-1 30:-0.125302 31:-0.735848 32:-0.761028 33:-0.955196 34:-0.917753 35:-0.900325 36:-0.858219 37:-0.953859 38:-0.948828 39:-0.935636 40:-0.913646 41:-0.921869 42:-0.893308 43:-0.913364 44:-0.893338 45:-0.907551 46:-0.951452 47:-0.887442 48:-0.930162 49:-0.80834 50:-0.880674 51:-0.937804 52:-0.961171 53:-0.855198 54:-0.859734 55:-0.913129 56:-0.871522 57:-0.880732 58:-0.927574 59:-0.851397 60:-0.953748 61:-0.895609 62:-0.877944 63:-0.859626 64:-0.885228 65:-0.864019 66:-0.930762 67:-0.804584 68:-0.875592 69:-0.807193 70:-0.936211 71:-0.858103 72:-0.978732 73:-0.874242 74:-0.975419 75:-0.874686 76:-0.864108 77:-0.884697 78:-0.769403 79:-0.953113 80:-0.849638 81:-0.957932 82:-0.923181 83:-0.943676 84:-0.900253 85:-0.894263 86:-0.940327 87:-0.817069 88:-0.902481 89:-0.870377 90:-0.937078 91:-0.875838 92:-0.854021 93:-0.892122 94:-0.926466 95:-0.844174 96:-0.759703 97:-0.804963 98:-0.913518 99:-0.87657 100:-0.915288 101:-0.923186 102:-0.955788 103:-0.954992 104:-0.892122 105:-0.92584 106:-0.938908 107:-0.920422 108:-0.959544 109:-0.943307 110:-0.912409 111:-0.897151 112:-0.858815 113:-0.845455 114:-0.784592 115:-0.951024 116:-0.915779 117:-0.957847 118:-0.967688 119:-0.85962 120:-0.918398 121:-0.747274 122:-0.880722 123:-0.851763 124:-0.874796 125:-0.816682 126:-0.879564 127:-0.856856 128:-0.827173 129:-0.0500723 130:-0.751835 131:-0.834493 132:0.643725 133:-0.702276 134:-0.834493 135:0.629749 136:-0.186702 137:-0.667377 138:-0.491139 139:-0.742662 140:-0.601806 141:-1 142:-0.333333 143:-0.714286 144:-0.846154 145:-0.862069 146:-0.533333 147:-0.529412 148:-0.512195 149:-0.62963 150:0.127517 151:-0.758126 152:-0.912249 153:-0.609756 154:-0.794872 155:-0.870967 156:-0.862069 157:-0.857143 158:-0.8 159:-0.764706 160:-0.636364 161:-0.199999 162:-1 173:-1 174:-0.333333 175:-0.714285 176:-0.846154 177:-0.862069 178:-0.533334 179:-0.529412 180:-0.512194 181:-0.629629 182:0.127511 
0.7044396618141676 -0.7044396618141676 1:-0.883169 2:-0.784697 3:-0.618145 4:-0.868015 5:-0.867922 6:-0.194256 7:-0.370547 8:-0.453144 9:-0.510239 10:-0.707317 11:-0.948718 12:-1 13:-1 14:-1 15:-1 16:-1 17:-1 18:-1 19:-1 30:-0.382805 31:-0.974383 32:-0.806897 33:-0.852102 34:-0.902587 35:-0.825031 36:-0.913959 37:-0.953319 38:-0.98914 39:-0.984341 40:-0.941051 41:-0.991266 42:-0.946624 43:-0.890568 44:-0.956806 45:-0.967733 46:-0.99603 47:-0.964334 48:-0.791293 49:-0.950812 50:-0.869773 51:-0.843206 52:-0.879216 53:-0.912716 54:-0.979292 55:-0.915983 56:-0.961992 57:-0.951617 58:-0.908637 59:-0.969941 60:-0.948751 61:-0.949325 62:-0.883725 63:-0.946177 64:-0.898865 65:-0.936852 66:-0.966682 67:-0.868804 68:-0.729633 69:-0.912138 70:-0.910707 71:-0.822979 72:-0.94925 73:-0.939657 74:-0.911311 75:-0.971234 76:-0.925432 77:-0.966363 78:-0.890004 79:-0.919856 80:-0.979991 81:-0.947586 82:-0.823049 83:-0.917445 84:-0.984419 85:-0.894611 86:-0.924519 87:-0.817396 88:-0.994801 89:-0.821723 90:-0.965708 91:-0.921198 92:-0.90371 93:-0.793093 94:-0.852957 95:-0.989315 96:-0.911507 97:-0.955838 98:-0.912112 99:-0.858175 100:-0.642359 101:-0.753253 102:-0.876377 103:-0.964854 104:-0.984564 105:-0.95283 106:-0.955702 107:-0.96689 108:-0.841079 109:-0.894867 110:-0.871302 111:-0.941988 112:-0.909336 113:-0.847943 114:-0.779289 115:-0.815899 116:-0.936968 117:-0.920007 118:-0.878418 119:-0.956958 120:-0.934349 121:-0.876207 122:-0.848152 123:-0.877398 124:-0.98103 125:-0.95741 126:-0.899198 127:-0.822005 128:-0.925175 129:-0.660305 130:-0.29447 131:-0.125872 132:-0.229091 133:0.201631 134:-0.125872 135:0.722156 136:-0.406641 137:-0.0741366 138:0.343695 139:0.487935 140:0.874788 141:-1 142:-1 143:-1 144:-1 145:-1 146:-0.666667 147:-0.588235 148:-0.609756 149:-0.62963 150:0.194631 151:-0.256848 152:-0.951479 153:-0.707317 154:-0.948718 155:-1 156:-1 157:-1 158:-1 159:-1 160:-1 161:-1 162:-1 173:-1 174:-1 175:-1 176:-1 177:-1 178:-0.666666 179:-0.588236 180:-0.609756 181:-0.629629 182:0.194626 
3.517853487746883 -3.517853487746883 1:-0.879911 2:-0.782535 3:-0.600289 4:-0.862215 5:-0.871566 6:-0.151709 7:-0.388754 8:-0.477253 9:-0.528116 10:-0.707317 11:-0.897436 12:-1 13:-1 14:-1 15:-1 16:-1 17:-1 18:-1 19:-1 30:-0.384841 31:-0.969383 32:-0.776221 33:-0.867688 34:-0.935494 35:-0.818086 36:-0.873453 37:-0.968866 38:-0.977557 39:-0.978105 40:-0.929209 41:-0.9838 42:-0.946014 43:-0.917966 44:-0.941426 45:-0.9642 46:-0.982943 47:-0.965715 48:-0.85426 49:-0.961685 50:-0.750234 51:-0.853789 52:-0.913449 53:-0.9736 54:-0.905313 55:-0.912635 56:-0.91828 57:-0.950343 58:-0.921125 59:-0.975711 60:-0.976746 61:-0.993437 62:-0.857517 63:-0.922746 64:-0.847783 65:-0.977357 66:-0.922488 67:-0.956094 68:-0.95923 69:-0.760044 70:-0.871546 71:-0.917759 72:-0.9816 73:-0.927876 74:-0.962822 75:-0.901675 76:-0.915931 77:-0.962649 78:-0.839733 79:-0.977903 80:-0.935845 81:-0.842901 82:-0.942991 83:-0.865848 84:-0.858856 85:-0.918001 86:-0.913624 87:-0.929491 88:-0.929693 89:-0.687979 90:-0.874054 91:-0.874671 92:-0.915976 93:-0.936492 94:-0.992321 95:-0.68562 96:-0.885566 97:-0.955025 98:-0.981837 99:-0.907541 100:-0.683494 101:-0.932257 102:-0.897627 103:-0.828915 104:-0.875125 105:-0.93719 106:-0.985019 107:-0.934366 108:-0.903648 109:-0.843256 110:-0.834535 111:-0.863202 112:-0.791397 113:-0.917992 114:-0.761288 115:-0.936013 116:-0.948211 117:-0.962669 118:-0.819811 119:-0.907185 120:-0.765856 121:-0.883483 122:-0.825215 123:-0.764467 124:-0.913107 125:-0.95212 126:-0.845893 127:-0.963771 128:-0.881871 129:-0.66661 130:-0.267084 131:-0.0841371 132:-0.267837 133:0.241757 134:-0.0841371 135:0.716944 136:-0.413668 137:-0.0291771 138:0.311561 139:0.444768 140:0.823322 141:-1 142:-1 143:-1 144:-1 145:-1 146:-0.666667 147:-0.588235 148:-0.609756 149:-0.62963 150:-0.100671 151:-0.270662 152:-0.953346 153:-0.707317 154:-0.897436 155:-1 156:-1 157:-1 158:-1 159:-1 160:-1 161:-1 162:-1 173:-1 174:-1 175:-1 176:-1 177:-1 178:-0.666666 179:-0.588236 180:-0.609756 181:-0.629629 182:-0.100676 
1.592411510982048 -1.592411510982048 1:-0.374504 2:0.1142 3:0.234384 4:-0.335584 5:-0.770442 6:0.647941 7:0.321461 8:0.269779 9:0.110608 10:-0.365854 11:-0.487179 12:-0.483871 13:-0.448276 14:-0.5 15:-0.4 16:-0.411765 17:-0.0909091 18:-1 19:-1 30:-0.45656 31:-0.509354 32:-0.615977 33:-0.652517 34:-0.454574 35:-0.854696 36:-0.907762 37:-0.887638 38:-0.91628 39:-0.976646 40:-0.872136 41:-0.892852 42:-0.756383 43:-0.809299 44:-0.824379 45:-0.898847 46:-0.704098 47:-0.893458 48:-0.835014 49:-0.865225 50:-0.80165 51:-0.788356 52:-0.68644 53:-0.923375 54:-0.604318 55:-0.821657 56:-0.769872 57:-0.749904 58:-0.781484 59:-0.827458 60:-0.865801 61:-0.798361 62:-0.805603 63:-0.949766 64:-0.913988 65:-0.720514 66:-0.731485 67:-0.718567 68:-0.633362 69:-0.86797 70:-0.852045 71:-0.900063 72:-0.840616 73:-0.956666 74:-0.96019 75:-0.897706 76:-0.662362 77:-0.795194 78:-0.935059 79:-0.865846 80:-0.553457 81:-0.833158 82:-0.607125 83:-0.825148 84:-0.674664 85:-0.679562 86:-0.889961 87:-0.778345 88:-0.917515 89:-0.805638 90:-0.895582 91:-0.932877 92:-0.918277 93:-0.796345 94:-0.807477 95:-0.771336 96:-0.664195 97:-0.846316 98:-0.859999 99:-0.770049 100:-0.484061 101:-0.876297 102:-0.870224 103:-0.970677 104:-0.949558 105:-0.838859 106:-0.836089 107:-0.950448 108:-0.913188 109:-0.89225 110:-0.476512 111:-0.691215 112:-0.583028 113:-0.744387 114:-0.344792 115:-0.780074 116:-0.860697 117:-0.906227 118:-0.907381 119:-0.747487 120:-0.783604 121:-0.348903 122:-0.684352 123:-0.828805 124:-0.841716 125:-0.65023 126:-0.820912 127:-0.67853 128:-0.940564 129:-0.292907 130:0.78481 131:0.446856 132:-0.68189 133:0.67055 134:0.446856 135:0.350654 136:0.099639 137:-0.326241 138:0.231687 139:0.120749 140:0.534774 141:-1 142:-1 143:-0.285714 144:-0.615385 145:-0.448276 146:-0.266667 147:-0.235294 148:-0.268293 149:-0.407407 150:0.033557 151:-0.856614 152:-0.920159 153:-0.365855 154:-0.487179 155:-0.483871 156:-0.448277 157:-0.500001 158:-0.400001 159:-0.411765 160:-0.0909109 161:-1 162:-1 173:-1 174:-1 175:-0.285713 176:-0.615385 177:-0.448277 178:-0.266665 179:-0.235296 180:-0.268293 181:-0.407408 182:0.0335527 
13.12939265859074 -13.12939265859074 1:-0.793303 2:-0.445045 3:-0.859701 4:-0.767865 5:-0.0783302 6:-0.551815 7:-0.678434 8:-0.78374 9:-0.627538 10:-0.756098 11:-0.846154 12:-0.806452 13:-0.862069 14:-0.857143 15:-0.9 16:-0.882353 17:-0.818182 18:-1 19:-1 30:-0.702216 31:-0.903687 32:-0.874512 33:-0.99709 34:-0.955227 35:-0.94229 36:-0.95499 37:-0.944713 38:-0.959496 39:-0.960573 40:-0.908469 41:-0.957757 42:-0.925232 43:-0.937497 44:-0.900536 45:-0.955216 46:-0.927244 47:-0.965963 48:-0.914371 49:-0.957824 50:-0.945517 51:-0.95029 52:-0.942371 53:-0.947925 54:-0.981354 55:-0.923535 56:-0.902435 57:-0.830668 58:-0.897988 59:-0.947784 60:-0.978157 61:-0.973359 62:-0.966369 63:-0.946229 64:-0.97745 65:-0.917492 66:-0.963518 67:-0.964525 68:-0.936081 69:-0.981669 70:-0.963611 71:-0.914094 72:-0.966996 73:-0.934471 74:-0.937798 75:-0.947036 76:-0.923639 77:-0.978892 78:-0.983023 79:-0.96797 80:-0.99242 81:-0.946762 82:-0.995415 83:-0.932261 84:-0.872023 85:-0.833122 86:-0.957571 87:-0.939854 88:-0.970142 89:-0.914228 90:-0.953768 91:-0.922422 92:-0.894777 93:-0.839328 94:-0.975641 95:-0.957208 96:-0.942056 97:-0.970017 98:-0.920264 99:-0.966998 100:-0.949294 101:-0.940841 102:-0.936997 103:-0.981639 104:-0.978959 105:-0.987047 106:-0.97059 107:-0.99414 108:-0.93267 109:-0.906339 110:-0.873647 111:-0.952187 112:-0.927417 113:-0.872202 114:-0.872558 115:-0.900438 116:-0.980349 117:-0.956152 118:-0.852547 119:-0.897083 120:-0.879679 121:-0.891756 122:-0.952435 123:-0.922488 124:-0.949889 125:-0.976081 126:-0.946216 127:-0.944952 128:-0.916018 129:0.237798 130:-0.763032 131:-0.871467 132:0.704285 133:-0.765004 134:-0.871467 135:0.657059 136:-0.332444 137:-0.832564 138:-0.900523 139:-1 140:-0.808857 141:-1 142:-1 143:-0.857143 144:-0.923077 145:-0.862069 146:-0.666667 147:-0.647059 148:-0.609756 149:-0.592593 150:0.288591 151:-0.861277 152:-0.150566 153:-0.756098 154:-0.846154 155:-0.806452 156:-0.862069 157:-0.857143 158:-0.9 159:-0.882353 160:-0.818182 161:-1 162:-1 173:-1 174:-1 175:-0.857142 176:-0.923077 177:-0.862069 178:-0.666666 179:-0.647059 180:-0.609756 181:-0.592592 182:0.288584 
3.043229521171722 -3.043229521171722 1:-0.44526 2:-0.038861 3:0.352001 4:-0.371408 5:-0.82916 6:0.600903 7:0.581686 8:0.58946 9:0.167825 10:-0.317073 11:-0.384615 12:-0.483871 13:-0.517241 14:-0.642857 15:-0.6 16:-0.647059 17:-0.818182 18:-0.6 19:-1 30:-0.216951 31:-0.690194 32:-0.697979 33:-0.709876 34:-0.563848 35:-0.924338 36:-0.817359 37:-0.785269 38:-0.911317 39:-0.768782 40:-0.921371 41:-0.806157 42:-0.871189 43:-0.952386 44:-0.793794 45:-0.882368 46:-0.873318 47:-0.539914 48:-0.839672 49:-0.868917 50:-0.707615 51:-0.779005 52:-0.794155 53:-0.877341 54:-0.6891 55:-0.802289 56:-0.973259 57:-0.876197 58:-0.579627 59:-0.928571 60:-0.857244 61:-0.871876 62:-0.96509 63:-0.901613 64:-0.841901 65:-0.834057 66:-0.975408 67:-0.847783 68:-0.672683 69:-0.800062 70:-0.738125 71:-0.388269 72:-0.861808 73:-0.787716 74:-0.797371 75:-0.883843 76:-0.588765 77:-0.848995 78:-0.974737 79:-0.872696 80:-0.589274 81:-0.921651 82:-0.755163 83:-0.869646 84:-0.957573 85:-0.714747 86:-0.900143 87:-0.743334 88:-0.932742 89:-0.620184 90:-0.956246 91:-0.85098 92:-0.64379 93:-0.660869 94:-0.880162 95:-0.706382 96:-0.857332 97:-0.721357 98:-0.844416 99:-0.789394 100:-0.733465 101:-0.915382 102:-0.582782 103:-0.74815 104:-0.926616 105:-0.985871 106:-0.892224 107:-0.942173 108:-0.954199 109:-0.82588 110:-0.929368 111:-0.954653 112:-0.752339 113:-0.819767 114:-0.757329 115:-0.778367 116:-0.814566 117:-0.97294 118:-0.728273 119:-0.81507 120:-0.682172 121:-0.737159 122:-0.838051 123:-0.831466 124:-0.719666 125:-0.875927 126:-0.865564 127:-0.909527 128:-0.842836 129:-0.0586456 130:0.255667 131:-0.163966 132:-0.192787 133:0.164021 134:-0.163966 135:0.476104 136:-0.0764172 137:-0.346096 138:0.526338 139:0.381528 140:0.583113 141:-1 142:-0.666667 143:-0.857143 144:-0.769231 145:-0.586207 146:-0.466667 147:-0.411765 148:-0.365854 149:-0.407407 150:0.436242 151:-0.822574 152:-0.942493 153:-0.317074 154:-0.384614 155:-0.483871 156:-0.517243 157:-0.642857 158:-0.600001 159:-0.647059 160:-0.818182 161:-0.599999 162:-1 173:-1 174:-0.666666 175:-0.857142 176:-0.769231 177:-0.586207 178:-0.466666 179:-0.411764 180:-0.365855 181:-0.407408 182:0.43624 
0.3481524494544765 -0.3481524494544765 1:0.662907 2:0.866446 3:0.139149 4:0.669121 5:-0.0532262 6:0.282001 7:0.710586 8:-0.195618 9:0.920023 10:0.512195 11:0.538462 12:0.677419 13:0.724138 14:0.714286 15:0.3 16:0.411765 17:1 18:-0.2 19:-1 30:0.541504 31:0.085319 32:-0.0771592 33:-0.605398 34:-0.677109 35:-0.546405 36:-0.509419 37:-0.590012 38:-0.485841 39:-0.487777 40:0.225861 41:0.175282 42:1 43:0.134514 44:0.495351 45:-0.277973 46:-0.213839 47:-0.85735 48:1 49:0.751862 50:-0.246848 51:1 52:-0.33846 53:-0.67279 54:-0.71925 55:-0.588535 56:-0.773921 57:-0.286235 58:-0.577433 59:-0.324565 60:-0.479698 61:-0.172577 62:0.0454915 63:-0.350916 64:0.108857 65:0.924002 66:0.598245 67:-0.785222 68:-0.160702 69:0.681389 70:0.22185 71:0.227601 72:-0.994803 73:-0.932524 74:-0.599014 75:-0.0286538 76:-0.660815 77:-0.446939 78:-0.527762 79:-0.433339 80:0.516577 81:-0.63393 82:0.207101 83:-0.726187 84:-0.550839 85:0.922757 86:-0.564199 87:0.149048 88:1 89:0.864741 90:1 91:-0.624511 92:1 93:0.516327 94:-0.473502 95:0.34104 96:-0.57214 97:-0.65593 98:-0.357251 99:0.0829595 100:-0.494965 101:-0.629368 102:-0.166914 103:-0.390143 104:-0.451343 105:-0.777499 106:-0.862979 107:-0.613086 108:-0.207453 109:-0.111038 110:0.387314 111:-0.578418 112:0.464853 113:1 114:0.586056 115:0.0793727 116:0.5212 117:-0.481442 118:1 119:0.846754 120:-0.0872395 121:0.605769 122:0.31036 123:0.357036 124:0.0874574 125:-0.397763 126:-0.326901 127:-0.794243 128:-0.772418 129:-0.39887 130:-0.364862 131:-0.425631 132:0.0843156 133:-0.122948 134:-0.425631 135:-0.604732 136:0.844807 137:-0.480678 138:0.672298 139:-0.610977 140:0.818861 141:-1 142:-0.333333 143:0.714286 144:0.692308 145:0.724138 146:0.666667 147:0.529412 148:0.463415 149:0.296296 150:0.234899 151:-0.995635 152:-0.945662 153:0.512194 154:0.538461 155:0.677421 156:0.724136 157:0.714284 158:0.299995 159:0.411768 160:1 161:-0.199999 162:-1 173:-1 174:-0.333333 175:0.714293 176:0.692305 177:0.724136 178:0.666668 179:0.529412 180:0.463414 181:0.296296 182:0.234896 
2.216873066621195 -2.216873066621195 1:-0.59386 2:-0.14239 3:-0.0230357 4:-0.563927 5:-0.836095 6:0.285023 7:0.360016 8:0.0769998 9:-0.294529 10:-0.658537 11:-0.641026 12:-0.548387 13:-0.655172 14:-0.642857 15:-0.6 16:-0.764706 17:-0.818182 18:-0.6 19:-1 30:-0.0490195 31:-0.774023 32:-0.385371 33:-0.9547 34:-0.683283 35:-0.885558 36:-0.84085 37:-0.953208 38:-0.900209 39:-0.9855 40:-0.871748 41:-0.945709 42:-0.965823 43:-0.882999 44:-0.89295 45:-0.940649 46:-0.856324 47:-0.803465 48:-0.876062 49:-0.817547 50:-0.802662 51:-0.972358 52:-0.730713 53:-0.891462 54:-0.808895 55:-0.904864 56:-0.817121 57:-0.791247 58:-0.719093 59:-0.861586 60:-0.727842 61:-0.90501 62:-0.731275 63:-0.810998 64:-0.889086 65:-0.9535 66:-0.898087 67:-0.902282 68:-0.875068 69:-0.735663 70:-0.906522 71:-0.621964 72:-0.917793 73:-0.9517 74:-0.93988 75:-0.832082 76:-0.993331 77:-0.936338 78:-0.727985 79:-0.970361 80:-0.836094 81:-0.898058 82:-0.781459 83:-0.938811 84:-0.787196 85:-0.815928 86:-0.887466 87:-0.873239 88:-0.915954 89:-0.733772 90:-0.854719 91:-0.967757 92:-0.87303 93:-0.970649 94:-0.845165 95:-0.644004 96:-0.858916 97:-0.898429 98:-0.982191 99:-0.929789 100:-0.952585 101:-0.626157 102:-0.984569 103:-0.958468 104:-0.967224 105:-0.926038 106:-0.876984 107:-0.783158 108:-0.859956 109:-0.838276 110:-0.825755 111:-0.776243 112:-0.757948 113:-0.90006 114:-0.72922 115:-0.904796 116:-0.846324 117:-0.929984 118:-0.766522 119:-0.917281 120:-0.813992 121:-0.828996 122:-0.908086 123:-0.917085 124:-0.896404 125:-0.808562 126:-0.913432 127:-0.898683 128:-0.900039 129:-0.29947 130:0.211351 131:-0.0107593 132:-0.33344 133:0.309702 134:-0.0107593 135:0.574921 136:-0.159606 137:-0.479401 138:0.275335 139:-0.104641 140:-0.113658 141:-1 142:-0.666667 143:-0.857143 144:-0.769231 145:-0.586207 146:-0.533333 147:-0.588235 148:-0.658537 149:-0.666667 150:0.691275 151:-0.741481 152:-0.949151 153:-0.658537 154:-0.641026 155:-0.548388 156:-0.655173 157:-0.642857 158:-0.600001 159:-0.764706 160:-0.818182 161:-0.599999 162:-1 173:-1 174:-0.666666 175:-0.857142 176:-0.769231 177:-0.586207 178:-0.533334 179:-0.588236 180:-0.658537 181:-0.666667 182:0.691271 
3.488085275739172 -3.488085275739172 1:-0.710323 2:-0.379582 3:0.0176414 4:-0.677955 5:-0.93672 6:0.341549 7:0.345287 8:0.0569871 9:-0.315444 10:-0.707317 11:-0.74359 12:-0.741935 13:-0.793103 14:-0.785714 15:-0.8 16:-0.882353 17:-1 18:-1 19:-1 30:-0.545537 31:-0.408899 32:-0.714889 33:-0.775044 34:-0.854 35:-0.908665 36:-0.928149 37:-0.956569 38:-0.943497 39:-0.985712 40:-0.922529 41:-0.966597 42:-0.966205 43:-0.96362 44:-0.863075 45:-0.967394 46:-0.856641 47:-0.935775 48:-0.861033 49:-0.883749 50:-0.922423 51:-0.871644 52:-0.918022 53:-0.918943 54:-0.945567 55:-0.970371 56:-0.879809 57:-0.925815 58:-0.851979 59:-0.903044 60:-0.951301 61:-0.856631 62:-0.941028 63:-0.9677 64:-0.901559 65:-0.943107 66:-0.985119 67:-0.89079 68:-0.865386 69:-0.944211 70:-0.825027 71:-0.888268 72:-0.97054 73:-0.971199 74:-0.97635 75:-0.952064 76:-0.891123 77:-0.99187 78:-0.915457 79:-0.97295 80:-0.758756 81:-0.963387 82:-0.914971 83:-0.936679 84:-0.985948 85:-0.853988 86:-0.936111 87:-0.896839 88:-0.918075 89:-0.78102 90:-0.906676 91:-0.886771 92:-0.950509 93:-0.914614 94:-0.896567 95:-1 96:-0.87619 97:-0.889135 98:-0.935644 99:-0.859748 100:-0.935088 101:-0.962508 102:-0.929306 103:-0.871902 104:-0.929519 105:-0.94012 106:-0.881761 107:-0.886257 108:-0.91455 109:-0.942315 110:-0.883341 111:-0.894098 112:-0.889 113:-0.901275 114:-0.833914 115:-0.948064 116:-0.851467 117:-0.944655 118:-0.927669 119:-0.98975 120:-0.91915 121:-0.824303 122:-0.926075 123:-0.957248 124:-0.921273 125:-0.864261 126:-0.788155 127:-0.913727 128:-0.984975 129:-0.149781 130:-0.159287 131:-0.397359 132:0.0518142 133:-0.0892928 134:-0.397359 135:0.628238 136:-0.302918 137:-0.455548 138:0.258658 139:-0.0464373 140:-0.0677125 141:-1 142:-1 143:-1 144:-0.846154 145:-0.724138 146:-0.6 147:-0.647059 148:-0.658537 149:-0.666667 150:0.758389 151:-0.535904 152:-0.955582 153:-0.707317 154:-0.74359 155:-0.741935 156:-0.793104 157:-0.785715 158:-0.8 159:-0.882353 160:-1 161:-1 162:-1 173:-1 174:-1 175:-1 176:-0.846154 177:-0.724138 178:-0.6 179:-0.647059 180:-0.658537 181:-0.666667 182:0.758386 
1.782585030984968 -1.782585030984968 1:-0.607226 2:-0.16709 3:0.241849 4:-0.573324 5:-0.921641 6:0.484265 7:0.54629 8:0.223841 9:-0.338591 10:-0.658537 11:-0.692308 12:-0.612903 13:-0.655172 14:-0.642857 15:-0.7 16:-0.764706 17:-0.818182 18:-0.6 19:-1 30:0.0794195 31:-0.614941 32:-0.506587 33:-0.910576 34:-0.742053 35:-0.902596 36:-0.788607 37:-0.880987 38:-0.944024 39:-0.992396 40:-0.897848 41:-0.935874 42:-0.892473 43:-0.906085 44:-0.916482 45:-0.948767 46:-0.899053 47:-0.91627 48:-0.774104 49:-0.98102 50:-0.745391 51:-0.848732 52:-0.926714 53:-0.8172 54:-0.957817 55:-0.950543 56:-0.909726 57:-0.894788 58:-0.734088 59:-0.852011 60:-0.931164 61:-0.861266 62:-0.867368 63:-0.849167 64:-0.926387 65:-0.926058 66:-0.882926 67:-0.883641 68:-0.798955 69:-0.882674 70:-0.866545 71:-0.660879 72:-0.929496 73:-0.860249 74:-0.926335 75:-0.785381 76:-0.811535 77:-0.957642 78:-0.864868 79:-0.921642 80:-0.802909 81:-0.915797 82:-0.875028 83:-0.925246 84:-0.891412 85:-0.851917 86:-0.933961 87:-0.979757 88:-0.851545 89:-0.805858 90:-0.908097 91:-0.915025 92:-0.818682 93:-0.935964 94:-0.680971 95:-0.79011 96:-0.854886 97:-0.969938 98:-0.968871 99:-0.765992 100:-0.827201 101:-0.735758 102:-0.952103 103:-0.878684 104:-0.958902 105:-0.933736 106:-0.86651 107:-0.834791 108:-0.934084 109:-0.886882 110:-0.850553 111:-0.94354 112:-0.879451 113:-0.906879 114:-0.932237 115:-0.754594 116:-0.835097 117:-0.90771 118:-0.933837 119:-0.940874 120:-0.919229 121:-0.803598 122:-0.935352 123:-0.846589 124:-0.830528 125:-0.7926 126:-0.893507 127:-0.804447 128:-0.902616 129:-0.2558 130:0.160691 131:-0.0893269 132:-0.263074 133:0.236828 134:-0.0893269 135:0.539219 136:-0.181347 137:-0.395318 138:0.486262 139:0.111904 140:-0.100925 141:-1 142:-0.666667 143:-0.857143 144:-0.846154 145:-0.724138 146:-0.533333 147:-0.529412 148:-0.560976 149:-0.592593 150:0.825503 151:-0.657126 152:-0.954881 153:-0.658537 154:-0.692307 155:-0.612903 156:-0.655173 157:-0.642857 158:-0.700001 159:-0.764706 160:-0.818182 161:-0.599999 162:-1 173:-1 174:-0.666666 175:-0.857142 176:-0.846154 177:-0.724138 178:-0.533334 179:-0.529412 180:-0.560975 181:-0.592592 182:0.8255 
9.611686201217648 -9.611686201217648 1:-0.664618 2:-0.33076 3:0.308098 4:-0.627623 5:-0.968829 6:0.523176 7:0.592778 8:0.273306 9:-0.345459 10:-0.658537 11:-0.692308 12:-0.677419 13:-0.655172 14:-0.785714 15:-0.9 16:-0.882353 17:-1 18:-1 19:-1 30:0.247594 31:-0.740801 32:-0.831691 33:-0.895097 34:-0.925955 35:-0.898989 36:-0.822257 37:-0.916168 38:-0.946639 39:-0.96179 40:-0.88043 41:-0.908938 42:-0.945976 43:-0.933699 44:-0.935163 45:-0.960436 46:-0.877631 47:-0.926974 48:-0.937196 49:-0.790652 50:-0.766667 51:-0.961972 52:-0.944395 53:-0.867245 54:-0.888367 55:-0.939945 56:-0.856492 57:-0.901684 58:-0.867547 59:-0.860658 60:-0.901442 61:-0.983909 62:-0.781447 63:-0.905481 64:-0.992762 65:-0.943449 66:-0.905593 67:-0.960822 68:-0.74752 69:-0.770431 70:-0.927041 71:-0.791235 72:-0.907482 73:-0.913679 74:-0.897598 75:-0.860666 76:-0.898436 77:-0.982538 78:-0.893533 79:-0.897216 80:-0.871822 81:-0.955621 82:-0.938936 83:-0.871933 84:-0.922524 85:-0.939998 86:-0.935001 87:-0.952275 88:-0.897804 89:-0.836386 90:-0.980907 91:-0.846206 92:-0.8811 93:-0.743449 94:-0.964513 95:-0.948593 96:-0.679778 97:-0.933785 98:-0.902744 99:-0.875778 100:-0.868107 101:-0.920214 102:-0.91982 103:-0.966634 104:-0.954379 105:-0.919047 106:-0.850737 107:-0.952742 108:-0.92494 109:-0.92334 110:-0.849729 111:-0.782946 112:-0.876716 113:-0.977734 114:-0.745088 115:-0.96402 116:-0.814589 117:-0.956637 118:-0.916717 119:-0.847954 120:-0.686651 121:-0.858341 122:-0.961398 123:-0.936882 124:-0.906292 125:-0.941532 126:-0.868267 127:-0.933056 128:-0.914961 129:-0.23378 130:0.2338 131:-0.0510337 132:-0.297817 133:0.272811 134:-0.0510337 135:0.569292 136:-0.257816 137:-0.378894 138:0.538892 139:0.182094 140:-0.0915192 141:-1 142:-1 143:-0.857143 144:-0.846154 145:-0.793103 146:-0.6 147:-0.647059 148:-0.560976 149:-0.592593 150:0.57047 151:-0.53866 152:-0.957577 153:-0.658537 154:-0.692307 155:-0.677419 156:-0.655173 157:-0.785715 158:-0.9 159:-0.882353 160:-1 161:-1 162:-1 173:-1 174:-1 175:-0.857142 176:-0.846154 177:-0.793104 178:-0.6 179:-0.647059 180:-0.560975 181:-0.592592 182:0.570469 
0.3307220014241008 -0.3307220014241008 1:0.877364 2:0.924831 3:0.407469 4:0.889514 5:-0.144188 6:0.502769 7:0.852673 8:0.21708 9:0.425717 10:0.853659 11:0.74359 12:1 13:0.931034 14:0.857143 15:0.8 16:0.529412 17:0.636364 18:-0.6 19:-1 30:0.30585 31:-0.568732 32:-0.851164 33:-0.490027 34:-0.653913 35:-0.747891 36:-0.446461 37:-0.987018 38:-0.62979 39:-0.965152 40:-0.175926 41:-0.282112 42:0.0719161 43:1 44:0.93042 45:-0.834198 46:0.872212 47:-0.0587516 48:0.641849 49:-0.865456 50:-0.100258 51:-0.373656 52:-0.198241 53:-0.27114 54:-0.479762 55:-0.851766 56:-0.178404 57:0.142804 58:-0.184574 59:-0.175947 60:-0.986175 61:-0.792312 62:0.134308 63:-0.265874 64:-0.188123 65:-0.717486 66:0.431975 67:-0.709297 68:-0.714855 69:-0.876133 70:0.499154 71:1 72:-0.11517 73:-0.537474 74:-0.325219 75:-0.325699 76:-0.0538791 77:-0.76885 78:0.70173 79:-0.543291 80:0.304929 81:-0.335802 82:-0.0122711 83:-0.619756 84:-0.762351 85:0.208347 86:-0.393318 87:-0.0634631 88:-0.316143 89:0.325343 90:-0.269158 91:0.155114 92:0.215287 93:0.0175951 94:-0.0447185 95:0.474486 96:-0.172226 97:-0.238491 98:-0.161692 99:0.792739 100:1 101:0.324296 102:-0.834612 103:-0.333118 104:-0.136339 105:-0.901459 106:-0.76255 107:-0.890889 108:-0.253232 109:-0.582149 110:0.201332 111:-0.0231571 112:-0.592355 113:0.170762 114:0.0869869 115:-0.128376 116:-0.777029 117:-0.0192781 118:-0.504647 119:-0.316453 120:-0.44175 121:0.646596 122:-0.464137 123:0.0369967 124:-0.767359 125:-0.325285 126:-0.203806 127:-0.705204 128:-0.403318 129:0.0509852 130:-0.477656 131:-0.678625 132:0.40845 133:-0.458639 134:-0.678625 135:-1 136:1 137:-0.38751 138:0.833187 139:-0.324501 140:0.337392 141:-1 142:0.333333 143:1 144:0.846154 145:0.655172 146:1 147:1 148:0.902439 149:0.888889 150:-0.302013 151:-0.996689 152:-0.959805 153:0.853661 154:0.743591 155:1 156:0.931034 157:0.857142 158:0.799999 159:0.529408 160:0.636361 161:-0.599999 162:-1 173:-1 174:0.333333 175:1 176:0.846153 177:0.65517 178:1 179:1 180:0.902438 181:0.888888 182:-0.302011 
0.2115959634702305 -0.2115959634702305 1:0.658036 2:0.777674 3:0.348896 4:0.67157 5:-0.225428 6:0.451806 7:0.813457 8:0.224777 9:0.378255 10:0.707317 11:0.538462 12:0.612903 13:0.517241 14:0.428571 15:0.4 16:0.411765 17:0.454545 18:-0.6 19:-1 30:0.139287 31:-0.622373 32:-0.661508 33:-0.61624 34:-0.790611 35:-0.528031 36:-0.646533 37:-0.957602 38:-0.524759 39:-0.564882 40:0.390798 41:-0.680529 42:0.477791 43:-0.848944 44:-0.561309 45:-0.726444 46:0.101721 47:0.145262 48:-0.384109 49:-0.477524 50:-0.227892 51:0.0374309 52:-0.0794122 53:-0.735268 54:-0.851958 55:-0.945835 56:-0.212882 57:-0.491836 58:-0.0766037 59:-0.528346 60:-0.780426 61:-0.899081 62:-0.643856 63:0.199377 64:-0.807929 65:-0.323889 66:0.0035097 67:0.0139154 68:0.235344 69:0.209232 70:-0.453251 71:-0.0190351 72:-0.73224 73:-0.183425 74:-0.885158 75:-0.510785 76:-0.81219 77:-0.693583 78:-0.390397 79:-0.57814 80:-0.854187 81:-0.699246 82:-0.594313 83:-0.16634 84:0.428154 85:0.113686 86:-0.319843 87:-0.877255 88:0.505302 89:-0.384389 90:-0.568178 91:-0.0758325 92:-0.143229 93:0.055333 94:0.09878 95:-0.00155396 96:-0.400006 97:-0.81636 98:-0.0238776 99:-0.806481 100:0.230024 101:-0.205092 102:-0.826995 103:-0.714445 104:-0.745237 105:-0.95842 106:-0.242776 107:-0.776606 108:-0.547374 109:-0.356981 110:-0.916156 111:-0.244239 112:-0.0134752 113:-0.635653 114:0.45736 115:-0.604862 116:0.0830221 117:-0.690096 118:-0.566398 119:-0.0960464 120:0.675148 121:0.477144 122:-0.519871 123:-0.789445 124:-0.47799 125:0.0574762 126:0.100566 127:0.600128 128:-0.516453 129:0.00667587 130:-0.0969649 131:-0.427105 132:0.0860368 133:-0.12472 134:-0.427105 135:-0.793454 136:0.843826 137:-0.409018 138:0.788778 139:-0.353976 140:0.231192 141:-1 142:0.333333 143:0.571429 144:0.461538 145:0.310345 146:0.666667 147:0.823529 148:1 149:0.888889 150:-0.530201 151:-0.990965 152:-0.955997 153:0.707318 154:0.538461 155:0.612904 156:0.517238 157:0.428572 158:0.399996 159:0.411768 160:0.454542 161:-0.599999 162:-1 173:-1 174:0.333333 175:0.571434 176:0.461539 177:0.310345 178:0.666668 179:0.823528 180:1 181:0.888888 182:-0.530198 
0.2305081108459233 -0.2305081108459233 1:0.385526 2:0.69238 3:-0.0543259 4:0.393802 5:-0.051813 6:0.126873 7:0.560994 8:0.336773 9:-0.215159 10:0.317073 11:0.230769 12:0.419355 13:0.37931 14:0.285714 15:0.3 16:0.294118 17:-0.0909091 18:-0.2 30:0.199458 31:-0.22724 32:-0.243523 33:-0.419274 34:-0.363189 35:-0.402489 36:0.122221 37:-0.153937 38:0.652843 39:-0.344556 40:-0.0462518 41:0.0245572 42:0.013104 43:-0.110045 44:-0.289913 45:-0.914233 46:-0.443143 47:-0.228214 48:-0.594767 49:-0.774749 50:-0.536241 51:-0.196885 52:-0.332884 53:-0.0965415 54:-0.135819 55:0.388673 56:0.204418 57:-0.318528 58:0.179782 59:-0.447588 60:0.275625 61:0.325971 62:-0.0339913 63:-0.407319 64:-0.457639 65:-0.352104 66:-0.189428 67:0.117034 68:0.646247 69:-0.216818 70:0.0682754 71:0.186112 72:-0.43429 73:0.214336 74:-0.306964 75:-0.60457 76:0.128739 77:0.178274 78:-0.129973 79:-0.34284 80:-0.169649 81:-0.650889 82:0.0867546 83:0.523499 84:1 85:-0.0220438 86:-0.329593 87:0.162919 88:-0.323534 89:0.765188 90:-0.76298 91:0.336585 92:0.387518 93:0.0593743 94:-0.961968 95:0.325723 96:-0.23873 97:-0.290647 98:-0.609869 99:-0.119254 100:-0.165601 101:-0.282637 102:-0.136439 103:-0.432843 104:-0.0882153 105:-0.0844624 106:0.790796 107:0.643853 108:0.183205 109:0.550357 110:-0.125074 111:-0.135688 112:0.0828048 113:-0.766032 114:-0.111351 115:-0.375462 116:-0.754035 117:-0.906275 118:-0.731633 119:-0.676359 120:0.952801 121:0.430916 122:-0.186676 123:0.300275 124:-0.442252 125:0.323553 126:0.800909 127:1 128:-0.0844063 129:-0.736546 130:-0.30352 131:-0.0326421 132:-0.314207 133:0.289776 134:-0.0326421 135:-0.459478 136:0.753826 137:-0.546144 138:0.502899 139:0.282499 140:0.14593 141:-1 142:0.333333 143:0.428571 144:0.538462 145:0.448276 146:0.4 147:0.411765 148:0.317073 149:0.407407 150:-0.248322 151:-0.99049 152:-0.922541 153:0.317074 154:0.230769 155:0.419354 156:0.379311 157:0.285714 158:0.299995 159:0.29412 160:-0.0909109 161:-0.199999 173:-1 174:0.333333 175:0.428576 176:0.538463 177:0.448277 178:0.400004 179:0.411764 180:0.317074 181:0.407408 182:-0.248323 
0.3445554523947002 -0.3445554523947002 1:0.401843 2:0.640874 3:-0.072506 4:0.412842 5:-0.0147931 6:0.0904051 7:0.564716 8:0.420619 9:-0.349926 10:0.463415 11:0.435897 12:0.548387 13:0.310345 14:0.285714 15:0.1 16:0.0588235 17:0.272727 18:-0.6 30:0.20534 31:0.043443 32:-0.141944 33:0.157665 34:0.0241044 35:-0.485915 36:-0.473033 37:-0.758617 38:1 39:-0.269036 40:1 41:-0.528585 42:-0.0881931 43:0.601923 44:-0.0980206 45:-0.626455 46:-0.0425934 47:-0.275368 48:0.354571 49:-0.0326896 50:-0.55519 51:0.29399 52:-0.394554 53:1 54:-0.183853 55:-0.173522 56:1 57:0.349404 58:0.852094 59:-0.71444 60:1 61:1 62:-0.535452 63:-0.208746 64:-0.356381 65:-0.501969 66:-0.896058 67:-0.359213 68:0.121083 69:0.553291 70:0.366844 71:0.334312 72:-0.528526 73:0.000764049 74:-0.38371 75:0.919794 76:0.794648 77:-0.359835 78:0.57226 79:-0.059618 80:0.221496 81:0.756829 82:0.202298 83:0.773808 84:-0.728171 85:1 86:-0.378047 87:-0.601211 88:-0.702055 89:0.996933 90:-0.360692 91:0.0638485 92:-0.213262 93:0.551703 94:-0.273676 95:0.459988 96:0.131645 97:-0.719469 98:-0.230658 99:-0.249689 100:-0.438463 101:1 102:0.497993 103:-0.362595 104:0.893464 105:-0.205533 106:0.139526 107:0.0668182 108:0.0100007 109:0.638558 110:-0.30331 111:-0.409908 112:-0.0862341 113:0.467884 114:0.604558 115:0.225317 116:-0.276844 117:0.155965 118:-0.151053 119:-0.756222 120:-0.024642 121:-0.254909 122:-0.532152 123:-0.198567 124:0.503736 125:-0.267366 126:0.837998 127:-0.808938 128:-0.221453 129:-0.912853 130:-0.232021 131:0.476819 132:-0.701623 133:0.690984 134:0.476819 135:-0.52718 136:0.778215 137:-0.561535 138:0.507115 139:0.2911 140:-0.122155 141:-1 143:0.714286 144:0.538462 145:0.37931 146:0.4 147:0.352941 148:0.560976 149:0.444444 150:-0.436242 151:-0.991892 152:-0.920254 153:0.463414 154:0.435899 155:0.548388 156:0.310345 157:0.285714 158:0.100001 159:0.058824 160:0.272723 161:-0.599999 173:-1 174:-1.13333e-06 175:0.714293 176:0.538463 177:0.379311 178:0.400004 179:0.35294 180:0.560975 181:0.444443 182:-0.43624 
0.2236847461646245 -0.2236847461646245 1:0.0553116 2:0.425217 3:-0.385254 4:0.0653363 5:0.122323 6:-0.16659 7:0.267503 8:0.230666 9:-0.275027 10:-0.0243902 11:-0.025641 12:0.16129 13:0.0344828 15:-0.1 16:-0.0588235 17:-0.636364 18:-0.6 19:-1 30:0.986586 31:-0.16205 32:-0.0585248 33:-0.714548 34:-0.332161 35:0.0860527 36:1 37:0.119659 38:-0.281314 39:-0.53197 40:-0.706643 41:-0.724276 42:-0.852451 43:-0.444298 44:-0.766249 45:-0.792066 46:0.261571 47:-0.427306 48:0.0702197 49:-0.163216 50:-0.673714 51:0.664772 52:-0.505781 53:-0.540164 54:0.567488 55:-0.0597636 56:-0.260405 57:-0.371143 58:-0.353403 59:-0.68032 60:-0.495859 61:-0.522928 62:1 63:-0.0156681 64:-0.885414 65:-0.36845 66:-0.532832 67:-0.34855 68:-0.115348 69:-0.244341 70:-0.706337 71:-0.882849 72:0.696052 73:-0.134303 74:-0.392648 75:-0.546669 76:-0.32524 77:-0.772472 78:0.0824073 79:-0.839902 80:0.663442 81:-0.766522 82:-0.26945 83:-0.181669 84:-0.316413 85:0.146072 86:-0.764044 87:-0.203702 88:0.524263 89:-0.0827274 90:0.250194 91:-0.221836 92:-0.243785 93:-0.489093 94:-0.82003 95:0.341263 96:-0.408549 97:-0.537854 98:-0.292828 99:0.102794 100:-0.0193608 101:-0.301146 102:-0.397773 103:-0.127093 104:-0.0839265 105:-0.603694 106:1 107:-0.451934 108:-0.58055 109:0.241175 110:-0.57028 111:-0.492755 112:-0.653119 113:0.542347 114:-0.0427432 115:0.311646 116:0.35253 117:0.278821 118:-0.211287 119:-0.444588 120:-0.240984 121:-0.609745 122:1 123:-0.31469 124:0.0830612 125:0.212387 126:-0.0101314 127:0.328898 128:-0.378121 129:-0.74263 130:-0.632089 131:-0.47853 132:0.146977 133:-0.187842 134:-0.47853 135:-0.291864 136:0.586142 137:-0.669991 138:0.170585 139:0.102291 140:-0.0195573 141:-1 144:0.230769 145:0.103448 146:0.133333 147:0.235294 148:0.268293 149:0.222222 150:-0.275168 151:-0.986451 152:-0.846924 153:-0.0243888 154:-0.0256395 155:0.161292 156:0.0344807 157:-2.42857e-06 158:-0.100001 159:-0.058824 160:-0.636364 161:-0.599999 162:-1 173:-1 174:-1.13333e-06 176:0.230768 177:0.103447 178:0.133335 179:0.235296 180:0.268293 181:0.222221 182:-0.275167 
0.2941283113933228 -0.2941283113933228 1:0.143729 2:0.498084 3:-0.242652 4:0.158547 5:-0.017456 6:-0.101119 7:0.463315 8:0.568999 9:-0.376006 10:0.121951 11:0.0769231 12:0.0322581 13:0.0344828 15:0.1 16:-0.176471 17:-0.272727 18:-0.2 30:0.749955 31:0.134822 32:-0.125176 33:0.0175255 34:-0.5845 35:0.497486 36:-0.296163 37:-0.0920495 38:0.191304 39:-0.305827 40:-0.299781 41:-0.66401 42:-0.669056 43:-0.253504 44:-0.405358 45:-0.818595 46:-0.234448 47:-0.193578 48:-0.497231 49:-0.107849 50:0.11512 51:0.852782 52:0.592306 53:-0.717285 54:1 55:-0.536408 56:0.663662 57:-0.00191323 58:0.504342 59:-0.106047 60:0.25715 61:-0.450007 62:-0.0221168 63:0.680294 64:-0.870316 65:-0.445993 66:-0.1446 67:0.543259 68:0.829346 69:-0.0304123 70:1 71:0.701545 72:-0.0858831 73:-0.754792 74:0.0830134 75:0.259413 76:-0.340048 77:-0.483811 78:-0.485869 79:-0.366917 80:-0.387747 81:-0.626044 82:0.224262 83:0.100037 84:-0.00095851 85:0.134263 86:-0.416398 87:0.140649 88:0.212911 89:-0.434116 90:-0.259898 91:-0.440688 92:0.916041 93:0.27551 94:0.63526 95:0.0803743 96:0.980902 97:-0.0406635 98:0.00293189 99:0.159633 100:0.125192 101:-0.447465 102:-0.281417 103:-0.194271 104:0.0260438 105:-0.0833418 106:-0.0584832 107:-0.125493 108:-0.10913 109:-0.389999 110:0.589375 111:0.615538 112:0.0320638 113:-0.312316 114:0.757904 115:-0.403964 116:-0.0507041 117:-0.15052 118:0.276732 119:1 120:0.130018 121:-0.333231 122:-0.652948 123:-0.461444 124:-0.411826 125:1 126:0.0634739 127:0.536812 128:-0.482047 129:-0.889407 130:-0.271892 131:0.33279 132:-0.603638 133:0.589525 134:0.33279 135:-0.286131 136:0.588233 137:-0.64236 138:0.392304 139:0.545064 140:-0.0835892 141:-1 143:0.714286 144:0.153846 145:0.103448 146:0.0666667 147:-0.0588235 148:0.170732 149:0.333333 150:-0.463087 151:-0.98533 152:-0.881097 153:0.121951 154:0.0769255 155:0.0322583 156:0.0344807 157:-2.42857e-06 158:0.100001 159:-0.176472 160:-0.272729 161:-0.199999 173:-1 174:-1.13333e-06 175:0.714293 176:0.153845 177:0.103447 178:0.0666673 179:-0.058824 180:0.170731 181:0.333333 182:-0.463093 
0.2691007287828515 -0.2691007287828515 1:-0.0405656 2:0.35962 3:-0.434878 4:-0.0443984 5:0.0862251 6:-0.257416 7:0.25526 8:0.515021 9:-0.306001 10:-0.121951 11:-0.282051 12:-0.0967742 13:-0.0344828 15:-0.2 16:-0.294118 17:-0.454545 18:-0.6 19:-1 30:0.684738 31:-0.484019 32:0.270434 33:-0.115996 34:-0.739526 35:0.659696 36:0.401131 37:-0.268187 38:-0.853243 39:-0.282673 40:-0.481278 41:-0.505752 42:-0.772927 43:-0.772964 44:-0.768329 45:-0.890228 46:-0.746541 47:-0.830147 48:0.562915 49:-0.743067 50:0.0979412 51:0.662166 52:-0.485613 53:-0.199496 54:-0.0212192 55:-0.693395 56:-0.173326 57:-0.209284 58:-0.28993 59:-0.693549 60:-0.132511 61:-0.20229 62:-0.0878692 63:-0.471977 64:-0.616978 65:-0.577464 66:-0.930505 67:-0.442402 68:-0.0485132 69:0.604495 70:0.211921 71:-0.32248 72:-0.709306 73:-0.165358 74:-0.583783 75:0.568521 76:-0.488185 77:-0.631985 78:0.117345 79:0.186217 80:0.294572 81:-0.072995 82:-0.996692 83:0.172233 84:0.368947 85:0.575854 86:-0.724287 87:-0.383615 88:-0.464342 89:-0.460277 90:-0.730737 91:-0.681785 92:0.328866 93:0.772533 94:0.13823 95:0.499491 96:0.766186 97:0.209822 98:-0.245044 99:0.341494 100:-0.140497 101:-0.318252 102:1 103:-0.277942 104:-0.585262 105:-0.779066 106:-0.486953 107:-0.807481 108:-0.324223 109:0.0753812 110:0.987248 111:1 112:0.586034 113:-0.0141869 114:-0.715832 115:-0.198549 116:-0.523592 117:0.580672 118:-0.701848 119:-0.352018 120:1 121:0.566042 122:0.130351 123:-0.75883 124:0.39531 125:-0.296878 126:0.302584 127:-0.523874 128:-0.535751 129:-0.720296 130:-0.730722 131:-0.62863 132:0.339204 133:-0.386918 134:-0.62863 135:-0.215406 136:0.475718 137:-0.708321 138:0.156712 139:0.509258 140:0.0425317 141:-1 142:-0.666667 143:-0.428571 144:0.0769231 145:0.103448 146:0.0666667 147:0.235294 148:0.219512 149:0.296296 150:-0.261745 151:-0.981406 152:-0.813729 153:-0.121951 154:-0.282052 155:-0.096775 156:-0.0344853 157:-2.42857e-06 158:-0.200001 159:-0.294118 160:-0.454547 161:-0.599999 162:-1 173:-1 174:-0.666666 175:-0.428571 176:0.0769211 177:0.103447 178:0.0666673 179:0.235296 180:0.219512 181:0.296296 182:-0.261749 
0.2887536683096193 -0.2887536683096193 1:0.166598 2:0.529025 3:-0.505085 4:0.154631 5:0.535708 6:-0.26925 7:0.147418 8:0.256446 9:-0.156242 10:0.0243902 11:0.025641 12:0.0322581 13:0.103448 14:0.0714286 15:0.1 16:0.0588235 17:-0.272727 18:-0.2 19:-1 30:0.535727 31:0.075082 32:-0.160756 33:0.126582 34:0.105064 35:-0.372977 36:-0.295617 37:1 38:-0.688155 39:-0.189668 40:-0.0630099 41:-0.637947 42:-0.430014 43:-0.468225 44:-0.281956 45:-0.853752 46:-0.421708 47:-0.289085 48:-0.136917 49:-0.207078 50:0.709703 51:0.994853 52:-0.412323 53:-0.49105 54:-0.698542 55:-0.0407864 56:-0.275858 57:1 58:0.166787 59:-0.129355 60:-0.532045 61:-0.667091 62:0.299635 63:0.32791 64:0.150817 65:-0.396143 66:-0.286112 67:-0.167826 68:-0.43236 69:0.848527 70:-0.516185 71:0.432634 72:-0.331875 73:-0.31233 74:-0.493832 75:-0.0641213 76:0.117429 77:-0.0225426 78:0.961677 79:-0.344207 80:-0.416654 81:-0.48368 82:0.336464 83:0.943552 84:-0.583261 85:-0.232048 86:-0.18357 87:-0.604188 88:-0.349045 89:-0.352787 90:-0.856068 91:-0.0255842 92:-0.702089 93:-0.473392 94:-0.0483519 95:-0.115593 96:1 97:1 98:-0.254387 99:1 100:-0.608655 101:0.116553 102:-0.40069 103:-0.452016 104:-0.443274 105:-0.532319 106:-0.942878 107:-0.124877 108:-0.0823792 109:0.377951 110:-0.0860755 111:-0.0692868 112:0.0329877 113:0.663085 114:-0.00173924 115:1 116:1 117:-0.632427 118:-0.804937 119:-0.630612 120:0.350124 121:0.774083 122:-0.152017 123:-0.346356 124:-0.16343 125:0.56073 126:1 127:0.152739 128:-0.642365 129:-0.773069 130:-0.654704 131:-0.484611 132:0.154342 133:-0.195469 134:-0.484611 135:-0.344608 136:0.592099 137:-0.713315 138:0.0346102 139:0.176259 140:0.210104 141:-1 142:0.333333 143:0.142857 144:0.307692 145:0.172414 146:0.133333 147:0.0588235 148:0.219512 149:0.296296 150:0.248322 151:-0.997097 152:-0.7901 153:0.0243921 154:0.025643 155:0.0322583 156:0.103447 157:0.0714267 158:0.100001 159:0.058824 160:-0.272729 161:-0.199999 162:-1 173:-1 174:0.333333 175:0.142859 176:0.307692 177:0.172413 178:0.133335 179:0.058824 180:0.219512 181:0.296296 182:0.248323 
0.2717583598324911 -0.2717583598324911 1:0.568548 2:0.767474 3:-0.0935902 4:0.566058 5:0.13981 6:0.136841 7:0.498319 8:-0.264168 9:0.635628 10:0.414634 11:0.435897 12:0.548387 13:0.586207 14:0.571429 15:0.2 16:0.176471 17:0.636364 18:-0.2 19:-1 30:0.597293 31:-0.126549 32:-0.19606 33:-0.407124 34:-0.460722 35:-0.500576 36:-0.598925 37:-0.968515 38:-0.695016 39:-0.682713 40:0.0174437 41:0.527681 42:0.451064 43:0.101671 44:-0.118819 45:-0.840596 46:1 47:-0.62932 48:0.521005 49:-0.674838 50:0.665703 51:-0.130338 52:-0.324871 53:-0.974389 54:-0.684566 55:0.0562887 56:-0.343218 57:-0.77783 58:-0.407892 59:-0.641299 60:0.0320311 61:0.281902 62:0.524723 63:-0.289589 64:-0.416625 65:-0.149338 66:-0.684823 67:1 68:-0.952506 69:-0.191315 70:-0.368173 71:-0.377119 72:-0.606219 73:-0.63708 74:-0.724047 75:0.2886 76:-0.207943 77:-0.261776 78:0.0661469 79:-0.278914 80:-0.659145 81:-0.961333 82:1 83:0.2596 84:-0.502519 85:0.456428 86:-0.0940183 87:-0.287068 88:-0.326622 89:0.0144314 90:-0.608104 91:-0.698797 92:-0.57366 93:-0.444505 94:-0.881001 95:0.0585336 96:0.170843 97:-0.728936 98:-0.940447 99:-0.293382 100:0.253264 101:0.0905529 102:-0.700807 103:-0.840711 104:-0.392972 105:-0.741211 106:-0.0580138 107:-0.636298 108:-0.59422 109:1 110:0.497635 111:0.295586 112:0.25511 113:-0.88164 114:-0.377038 115:0.0355025 116:-0.386568 117:-0.410016 118:0.274455 119:0.778728 120:-0.568125 121:0.329892 122:-0.781124 123:-0.534409 124:-0.789375 125:-0.234571 126:0.724028 127:0.123363 128:-0.490772 129:-0.328125 130:-0.431347 131:-0.5206 132:0.198631 133:-0.24133 134:-0.5206 135:-0.545057 136:0.770066 137:-0.541939 138:0.431938 139:-0.691026 140:0.423996 141:-1 142:-0.333333 143:0.285714 144:0.615385 145:0.586207 146:0.533333 147:0.470588 148:0.414634 149:0.148148 150:0.369128 151:-0.998021 152:-0.938516 153:0.414636 154:0.435899 155:0.548388 156:0.586204 157:0.571425 158:0.200001 159:0.176472 160:0.636361 161:-0.199999 162:-1 173:-1 174:-0.333333 175:0.285717 176:0.615387 177:0.586204 178:0.533334 179:0.470588 180:0.414636 181:0.148147 182:0.369125 
12.7399233187081 -12.7399233187081 1:-0.707905 2:-0.301878 3:-0.266638 4:-0.688464 5:-0.843526 6:-0.0524554 7:0.310319 8:0.0769183 9:-0.380992 10:-0.707317 11:-0.692308 12:-0.612903 13:-0.724138 14:-0.785714 15:-0.8 16:-0.764706 17:-0.818182 18:-1 19:-1 30:-0.685205 31:-0.417071 32:-0.783745 33:-0.749194 34:-0.977768 35:-0.842446 36:-0.933642 37:-0.929521 38:-0.977716 39:-0.942957 40:-0.973692 41:-0.957586 42:-0.929799 43:-0.90991 44:-0.918582 45:-0.986945 46:-0.900381 47:-0.971604 48:-0.85302 49:-0.945384 50:-0.769997 51:-0.858127 52:-0.974227 53:-0.985627 54:-0.911509 55:-0.942981 56:-0.920505 57:-0.869525 58:-0.920932 59:-0.908567 60:-0.903997 61:-0.923792 62:-0.844035 63:-0.846069 64:-0.968978 65:-0.962677 66:-0.984727 67:-0.967531 68:-0.826442 69:-0.962116 70:-0.875467 71:-0.809546 72:-0.975707 73:-0.92323 74:-0.93241 75:-0.937334 76:-0.847311 77:-0.919632 78:-0.89863 79:-0.933519 80:-0.978264 81:-0.96559 82:-0.939732 83:-0.868704 84:-0.915972 85:-0.858303 86:-0.978102 87:-0.859976 88:-0.987452 89:-0.872356 90:-0.868053 91:-0.951719 92:-0.903347 93:-0.900115 94:-0.877951 95:-0.856852 96:-0.944006 97:-0.948309 98:-0.964805 99:-0.898647 100:-0.839823 101:-0.854105 102:-0.825513 103:-0.960436 104:-0.867845 105:-0.988948 106:-0.919629 107:-0.950677 108:-0.973103 109:-0.947944 110:-0.928401 111:-0.918418 112:-0.944229 113:-0.949762 114:-0.987452 115:-0.953013 116:-0.794778 117:-0.996634 118:-0.951535 119:-0.970586 120:-0.988305 121:-0.663913 122:-0.933876 123:-0.922211 124:-0.871702 125:-0.953958 126:-0.943291 127:-0.84917 128:-0.921795 129:-0.147903 130:-0.213595 131:-0.437007 132:0.0975844 133:-0.136688 134:-0.437007 135:0.594361 136:-0.195228 137:-0.621825 138:0.219055 139:0.0321599 140:-0.112391 141:-1 142:-1 143:-0.571429 144:-0.615385 145:-0.655172 146:-0.6 147:-0.647059 148:-0.707317 149:-0.777778 150:0.557047 151:-0.642505 152:-0.93473 153:-0.707317 154:-0.692307 155:-0.612903 156:-0.724138 157:-0.785715 158:-0.8 159:-0.764706 160:-0.818182 161:-1 162:-1 173:-1 174:-1 175:-0.571428 176:-0.615385 177:-0.655173 178:-0.6 179:-0.647059 180:-0.707317 181:-0.777778 182:0.557042 
5.853473891839045 -5.853473891839045 1:-0.584592 2:-0.102546 3:-0.29612 4:-0.569311 5:-0.702959 6:-0.117854 7:0.336532 8:0.177902 9:-0.399196 10:-0.609756 11:-0.589744 12:-0.483871 13:-0.724138 14:-0.714286 15:-0.6 16:-0.529412 17:-0.636364 18:-1 19:-1 30:-0.0412775 31:-0.791919 32:-0.455568 33:-0.725257 34:-0.746064 35:-0.977603 36:-0.839036 37:-0.957939 38:-0.950228 39:-0.96928 40:-0.813357 41:-0.895037 42:-0.929766 43:-0.900388 44:-0.996342 45:-0.965731 46:-0.819154 47:-0.846576 48:-0.624561 49:-0.842728 50:-0.788535 51:-0.910858 52:-0.943375 53:-0.877215 54:-0.90895 55:-0.742556 56:-0.874441 57:-0.807097 58:-0.882089 59:-0.92275 60:-0.931246 61:-0.903473 62:-0.927455 63:-0.928044 64:-0.896164 65:-0.843702 66:-0.836488 67:-0.894614 68:-0.806284 69:-0.861485 70:-0.892161 71:-0.944315 72:-0.932436 73:-0.861523 74:-0.826972 75:-0.844674 76:-0.940714 77:-0.988114 78:-0.863046 79:-0.940919 80:-0.815933 81:-0.850983 82:-0.870957 83:-0.88304 84:-0.901317 85:-0.652848 86:-0.989603 87:-0.911901 88:-0.893073 89:-0.671124 90:-0.898803 91:-0.82498 92:-0.955823 93:-0.745924 94:-0.802489 95:-0.971529 96:-0.87317 97:-0.90017 98:-0.855041 99:-0.635191 100:-0.730636 101:-0.899983 102:-0.921739 103:-0.99019 104:-0.952409 105:-0.912104 106:-0.810136 107:-0.907764 108:-0.852658 109:-0.766705 110:-0.835822 111:-0.789156 112:-0.872268 113:-0.90687 114:-0.64248 115:-0.876116 116:-0.892048 117:-0.96541 118:-0.932157 119:-0.910434 120:-0.88484 121:-0.784709 122:-0.864852 123:-0.930575 124:-0.7092 125:-0.893342 126:-0.792563 127:-0.904886 128:-0.904364 129:-0.163046 130:-0.205858 131:-0.424282 132:0.0827546 133:-0.121325 134:-0.424282 135:0.52103 136:-0.0979567 137:-0.649425 138:0.248744 139:0.151835 140:-0.12399 141:-1 142:-1 143:-0.428571 144:-0.538462 145:-0.586207 146:-0.6 147:-0.529412 148:-0.609756 149:-0.62963 150:0.463087 151:-0.810064 152:-0.915159 153:-0.609756 154:-0.589744 155:-0.483871 156:-0.724138 157:-0.714286 158:-0.600001 159:-0.529412 160:-0.636364 161:-1 162:-1 173:-1 174:-1 175:-0.428571 176:-0.538462 177:-0.586207 178:-0.6 179:-0.529412 180:-0.609756 181:-0.629629 182:0.463084 
0.4004204566705146 -0.4004204566705146 1:-0.771845 2:-0.346416 3:-0.522013 4:-0.773424 5:-0.790519 6:-0.345441 7:0.108119 8:0.0587302 9:-0.578114 10:-0.756098 11:-0.794872 12:-0.806452 13:-0.793103 14:-0.785714 15:-0.8 16:-0.764706 17:-0.818182 18:-1 19:-1 30:-0.0245152 31:-0.639899 32:-0.752283 33:-0.808522 34:-0.905719 35:-0.898278 36:-0.968563 37:-0.96003 38:-0.988361 39:-0.964044 40:-0.934908 41:-0.98106 42:-0.958105 43:-0.956955 44:-0.925529 45:-0.952658 46:-0.901235 47:-0.861091 48:-0.903074 49:-0.989848 50:-0.804868 51:-0.964135 52:-0.968545 53:-0.886882 54:-0.990453 55:-0.932203 56:-0.964203 57:-0.939199 58:-0.920579 59:-0.948546 60:-0.929721 61:-0.963536 62:-0.962304 63:-0.886171 64:-0.947127 65:-0.961885 66:-0.835063 67:-0.929218 68:-0.866264 69:-0.896671 70:-0.994464 71:-0.972642 72:-0.92935 73:-0.95496 74:-0.964993 75:-0.923351 76:-0.862499 77:-0.97335 78:-0.956716 79:-0.946178 80:-0.763213 81:-0.92121 82:-0.921869 83:-0.862967 84:-0.894619 85:-0.85111 86:-0.961452 87:-0.992501 88:-0.891062 89:-0.785188 90:-0.965234 91:-0.930818 92:-0.962558 93:-0.843677 94:-0.950449 95:-0.994306 96:-0.756007 97:-0.916961 98:-0.94742 99:-0.772068 100:-0.954073 101:-0.87583 102:-0.967605 103:-0.929863 104:-0.940026 105:-0.988872 106:-0.983546 107:-0.964667 108:-0.98717 109:-0.89133 110:-0.863108 111:-0.906791 112:-0.856779 113:-0.889617 114:-0.896627 115:-0.954301 116:-1 117:-0.960667 118:-0.955421 119:-0.95384 120:-0.903258 121:-0.924866 122:-0.94038 123:-0.922026 124:-0.953149 125:-0.944881 126:-0.921887 127:-0.954552 128:-0.981616 129:-0.348565 130:-0.529974 131:-0.594968 132:0.294114 133:-0.340221 134:-0.594968 135:0.704279 136:-0.325074 137:-0.74547 138:-0.00989186 139:0.0550823 140:-0.395944 141:-1 142:-1 143:-0.857143 144:-0.769231 145:-0.793103 146:-0.733333 147:-0.705882 148:-0.756098 149:-0.777778 150:0.315436 151:-0.592365 152:-0.889478 153:-0.756098 154:-0.794872 155:-0.806452 156:-0.793104 157:-0.785715 158:-0.8 159:-0.764706 160:-0.818182 161:-1 162:-1 173:-1 174:-1 175:-0.857142 176:-0.769231 177:-0.793104 178:-0.733333 179:-0.705882 180:-0.756098 181:-0.777778 182:0.315437 
12.49330678774835 -12.49330678774835 1:-0.702464 2:-0.229922 3:-0.498926 4:-0.703684 5:-0.708637 6:-0.334357 7:0.152536 8:0.113832 9:-0.561058 10:-0.756098 11:-0.74359 12:-0.677419 13:-0.655172 14:-0.785714 15:-0.7 16:-0.764706 17:-0.818182 18:-1 19:-1 30:0.667595 31:-0.654329 32:-0.643293 33:-0.955794 34:-0.833124 35:-0.856146 36:-0.763004 37:-0.907444 38:-0.976901 39:-0.952908 40:-0.925221 41:-0.998605 42:-0.848024 43:-0.87701 44:-0.923851 45:-0.9638 46:-0.930843 47:-0.856186 48:-0.77584 49:-0.872843 50:-0.912974 51:-0.833395 52:-0.844111 53:-0.891856 54:-0.84505 55:-0.897275 56:-0.831476 57:-0.882774 58:-0.871179 59:-0.878168 60:-0.945911 61:-0.882614 62:-0.760107 63:-0.959584 64:-0.917782 65:-0.830781 66:-0.930977 67:-0.898678 68:-0.80118 69:-0.916124 70:-0.864671 71:-0.787248 72:-0.963907 73:-0.960382 74:-0.904045 75:-0.931103 76:-0.889899 77:-0.801648 78:-0.758352 79:-0.958967 80:-0.876524 81:-0.909853 82:-0.797502 83:-0.867834 84:-0.827126 85:-0.747162 86:-0.962811 87:-0.884915 88:-0.914935 89:-0.882685 90:-0.971013 91:-0.87109 92:-0.970337 93:-0.778534 94:-0.98079 95:-0.675565 96:-0.588802 97:-0.938702 98:-0.893634 99:-0.772092 100:-0.83347 101:-0.875355 102:-0.843062 103:-0.890604 104:-0.960991 105:-0.8877 106:-0.987002 107:-0.908975 108:-0.945268 109:-0.903554 110:-0.895528 111:-0.84559 112:-0.937456 113:-0.950692 114:-0.719705 115:-0.922202 116:-0.859161 117:-0.905713 118:-0.972038 119:-0.756259 120:-0.877295 121:-0.901017 122:-0.881739 123:-0.916086 124:-0.947781 125:-0.855105 126:-0.878756 127:-0.894272 128:-0.967523 129:-0.515125 130:-0.532567 131:-0.517504 132:0.194769 133:-0.237336 134:-0.517504 135:0.669099 136:-0.257477 137:-0.740792 138:0.040402 139:0.142803 140:-0.346254 141:-1 142:-1 143:-0.857143 144:-0.692308 145:-0.724138 146:-0.733333 147:-0.647059 148:-0.707317 149:-0.703704 150:0.221477 151:-0.728829 152:-0.885889 153:-0.756098 154:-0.74359 155:-0.677419 156:-0.655173 157:-0.785715 158:-0.700001 159:-0.764706 160:-0.818182 161:-1 162:-1 173:-1 174:-1 175:-0.857142 176:-0.692308 177:-0.724138 178:-0.733333 179:-0.647059 180:-0.707317 181:-0.703704 182:0.22147 
13.14745563218046 -13.14745563218046 1:-0.907784 2:-0.729325 3:-0.598171 4:-0.90777 5:-0.951728 6:-0.401777 7:-0.0214613 8:-0.144508 9:-0.694694 10:-0.902439 11:-0.897436 12:-0.935484 13:-0.931034 14:-1 15:-1 16:-1 17:-1 18:-1 19:-1 30:-0.892504 31:-0.767842 32:-0.980263 33:-0.940024 34:-0.997485 35:-0.995725 36:-0.977762 37:-0.992668 38:-0.985172 39:-0.962178 40:-0.975243 41:-0.973353 42:-0.997843 43:-0.975519 44:-0.964435 45:-0.990146 46:-0.938463 47:-0.951588 48:-0.953714 49:-0.916441 50:-0.965894 51:-0.935581 52:-0.950924 53:-0.96311 54:-0.966901 55:-0.939195 56:-0.918971 57:-0.95744 58:-0.992676 59:-0.952872 60:-0.938477 61:-0.969992 62:-0.978867 63:-0.969257 64:-0.937456 65:-0.97459 66:-0.938599 67:-0.967939 68:-0.903744 69:-0.93088 70:-0.973288 71:-0.968229 72:-0.992032 73:-0.955163 74:-0.970689 75:-0.96911 76:-0.945949 77:-0.985543 78:-0.935319 79:-0.983068 80:-0.980957 81:-0.971614 82:-0.951466 83:-0.984476 84:-0.86725 85:-0.916188 86:-0.972853 87:-0.959728 88:-0.952115 89:-1 90:-0.990478 91:-0.982758 92:-0.94585 93:-0.947021 94:-0.903234 95:-0.972364 96:-0.959377 97:-0.976523 98:-0.992005 99:-0.99134 100:-0.928027 101:-0.967674 102:-0.935749 103:-0.930379 104:-0.970442 105:-0.976245 106:-0.982425 107:-0.957241 108:-0.958362 109:-0.995051 110:-0.945514 111:-0.881407 112:-0.952659 113:-0.964435 114:-0.911546 115:-0.919094 116:-0.947616 117:-0.963701 118:-0.910864 119:-0.880736 120:-0.952188 121:-0.950895 122:-0.956847 123:-0.893014 124:-0.919383 125:-0.964023 126:-0.910639 127:-0.91132 128:-0.992234 129:-0.458317 130:-0.390466 131:-0.412259 132:0.0688655 133:-0.106943 134:-0.412259 135:0.822275 136:-0.565123 137:-0.489215 138:0.564389 139:0.891725 140:0.0902367 141:-1 142:-1 143:-1 144:-0.923077 145:-0.931034 146:-0.866667 147:-0.823529 148:-0.804878 149:-0.814815 150:0.0604027 151:0.215129 152:-0.924578 153:-0.902439 154:-0.897436 155:-0.935484 156:-0.931034 157:-1 158:-1 159:-1 160:-1 161:-1 162:-1 173:-1 174:-1 175:-1 176:-0.923077 177:-0.931034 178:-0.866666 179:-0.82353 180:-0.804878 181:-0.814815 182:0.0603967 
