svm_type one_against_all
kernel_type rbf
trainOnlyClass -1
gamma 0.133352
nr_class 3
nr_hyp 3
total_sv 551
rho -0.205828 0.30468 0.894459
omegaNorm 26.9754 26.905 3.90129
avgDistP 0.0483671 0.0469107 0.256342
avgDistN 0.0466766 0.0484946 0.261159
avgFP 1.30472 1.26213 1.00006
avgFN 1.25912 1.30475 1.01886
label 2 1 0
nr_sv 352 195 4
SV
0.2111179253606346 -0.2195929725364983 -0 1:-0.636306 2:-0.355414 3:0.0143325 4:-0.593078 5:-0.773682 6:0.554606 7:-0.191609 8:-0.155498 9:-0.641909 10:-0.6 11:-0.588235 12:-0.588235 13:-0.565217 14:-0.545455 15:-0.52381 16:-0.444444 17:-0.529412 18:-0.538462 19:-0.666667 20:-0.666667 21:-1 22:-1 23:-1 24:-1 25:-1 26:-1 27:-1 28:-1 29:-1 30:-1 31:-1 32:-0.382341 33:-0.0361124 34:-0.694343 35:-0.904246 36:-0.756808 37:-0.91844 38:-0.914905 39:-0.93474 40:-0.76319 41:-0.83842 42:-0.650543 43:-0.719402 44:-0.691537 45:-0.84364 46:-0.53826 47:-0.810846 48:-0.922427 49:-0.748917 50:-0.80775 51:-0.906053 52:-0.915446 53:-0.831359 54:-0.857175 55:-0.664373 56:-0.814703 57:-0.830826 58:-0.935423 59:-0.859552 60:-0.872908 61:-0.870965 62:-0.619614 63:-0.868547 64:-0.816471 65:-0.630443 66:-0.877537 67:-0.841949 68:-0.846524 69:-0.620096 70:-0.782032 71:-0.730646 72:-0.602808 73:-0.868616 74:-0.624605 75:-0.469376 76:-0.873929 77:-0.835736 78:-0.887806 79:-0.753564 80:-0.866592 81:-0.835157 82:-0.763098 83:-0.891507 84:-0.813915 85:-0.679844 86:-0.761301 87:-0.742616 88:-0.858862 89:-0.770704 90:-0.589379 91:-0.941838 92:-0.580542 93:-0.875446 94:-0.612956 95:-0.943054 96:-0.684386 97:-0.644825 98:-0.629368 99:-0.771672 100:-0.840974 101:-0.910447 102:-0.677913 103:-0.703469 104:-0.820763 105:-0.755431 106:-0.884963 107:-0.632862 108:-0.684658 109:-0.740273 110:-0.771186 111:-0.764534 112:-0.664236 113:-0.866239 114:-0.640885 115:-0.667493 116:-0.818649 117:-0.914214 118:-0.810454 119:-0.547164 120:-0.629999 121:-0.713426 122:-0.465586 123:-0.527219 124:-0.881667 125:-0.577415 126:-0.537205 127:-0.90569 128:-0.532747 129:-0.881802 130:-0.79425 131:-0.669334 132:-0.329125 133:0.204834 134:-0.694187 135:0.49924 136:0.204834 137:0.804579 138:-0.408189 139:0.14342 140:0.495026 141:0.266203 142:-0.404774 143:-0.846154 144:-0.846154 145:-0.846154 146:-0.807692 147:-0.769231 148:-0.769231 149:-0.777778 150:-0.75 151:-0.75 152:-0.545345 153:-0.986898 154:-0.6 155:-0.588236 156:-0.588236 157:-0.565218 158:-0.545454 159:-0.52381 160:-0.444444 161:-0.529412 162:-0.538462 163:-0.666666 164:-0.666666 165:-1 166:-1 167:-1 168:-1 169:-1 170:-1 171:-1 172:-1 173:-1 174:-1 175:-1 176:-0.846154 177:-0.846154 178:-0.846154 179:-0.807692 180:-0.769231 181:-0.769231 182:-0.777778 183:-0.75 184:-0.75 
0.2898855052098617 -0.275327621424412 -0 1:-0.249517 2:0.0374114 3:0.168621 4:-0.204658 5:-0.542364 6:0.713648 7:-0.12859 8:0.0599681 9:0.404068 10:-0.257143 11:-0.235294 12:-0.235294 13:0.0434783 15:-0.142857 16:-0.111111 17:-0.176471 18:-0.230769 19:-0.166667 20:-0.166667 21:-0.818182 22:-0.818182 23:-0.818182 24:-0.818182 25:-0.818182 26:-0.8 27:-0.777778 28:-0.666667 29:-1 30:-1 31:-1 32:-0.494556 33:-0.641559 34:-0.745202 35:-0.563779 36:-0.423399 37:-0.924534 38:-0.972158 39:-0.711331 40:-0.775078 41:-0.737392 42:-0.685326 43:-0.701282 44:-0.765856 45:-0.806616 46:-0.749394 47:-0.9561 48:-0.811797 49:-0.821159 50:-0.532552 51:-0.691235 52:-0.861111 53:-0.849315 54:-0.928655 55:-0.825696 56:-0.807678 57:-0.55179 58:-0.811159 59:-0.748385 60:-0.77209 61:-0.800326 62:-0.853809 63:-0.760558 64:-0.719394 65:-0.707726 66:-0.900943 67:-0.809687 68:-0.895335 69:-0.859095 70:-0.853452 71:-0.706473 72:-0.617579 73:-0.884191 74:-0.83918 75:-0.305429 76:-0.757571 77:-0.912131 78:-0.881309 79:-0.610779 80:-0.925057 81:-0.925626 82:-0.691058 83:-0.939614 84:-0.922332 85:-0.854211 86:-0.77258 87:-0.715002 88:-0.751092 89:-0.435474 90:-0.611727 91:-0.845547 92:-0.620367 93:-0.431933 94:-0.685739 95:-0.875843 96:-0.677413 97:-0.939137 98:-0.782685 99:-0.74205 100:-0.737476 101:-0.787864 102:-0.820917 103:-0.496606 104:-0.80733 105:-0.553582 106:-0.757639 107:-0.801592 108:-0.883075 109:-0.772504 110:-0.525455 111:-0.782579 112:-0.736493 113:-0.870612 114:-0.509515 115:-0.638935 116:-0.754072 117:-0.905887 118:-0.773145 119:-0.541869 120:-0.760697 121:-0.575615 122:-0.694451 123:-0.603247 124:-0.690111 125:-0.3725 126:-0.566765 127:-0.898648 128:-0.866783 129:-0.701734 130:-0.419789 131:0.297852 132:-0.41507 133:-0.56348 134:-0.212871 135:-0.288928 136:-0.56348 137:0.630445 138:-0.214933 139:-0.415014 140:-0.18792 141:-0.446354 142:0.0240315 143:-0.769231 144:-0.769231 145:-0.730769 146:-0.730769 147:-0.576923 148:-0.538462 149:-0.518519 150:-0.535714 151:-0.535714 152:-0.850067 153:-0.703338 154:-0.257142 155:-0.235293 156:-0.235293 157:0.0434744 159:-0.142854 160:-0.111113 161:-0.176471 162:-0.230771 163:-0.166665 164:-0.166665 165:-0.818181 166:-0.818181 167:-0.818181 168:-0.818181 169:-0.818181 170:-0.8 171:-0.777778 172:-0.666666 173:-1 174:-1 175:-1 176:-0.769231 177:-0.769231 178:-0.730769 179:-0.730769 180:-0.576924 181:-0.538463 182:-0.518518 183:-0.535714 184:-0.535714 
0.6982303273178727 -0.6875315520195977 -0 1:-0.363787 2:-0.0696473 3:0.179394 4:-0.311175 5:-0.625318 6:0.68607 7:-0.0563847 8:0.184952 9:0.490804 10:-0.371429 11:-0.352941 12:-0.352941 13:-0.130435 14:-0.181818 15:-0.333333 16:-0.222222 17:-0.294118 18:-0.538462 19:-0.5 20:-0.5 21:-0.636364 22:-0.636364 23:-0.818182 24:-0.818182 25:-0.818182 26:-0.8 27:-0.777778 28:-1 29:-1 30:-1 31:-1 32:-0.21755 33:-0.767335 34:-0.638073 35:-0.84135 36:-0.448179 37:-0.782102 38:-0.802627 39:-0.805428 40:-0.740756 41:-0.749234 42:-0.616002 43:-0.742218 44:-0.833172 45:-0.902432 46:-0.697608 47:-0.849475 48:-0.834531 49:-0.824416 50:-0.962263 51:-0.850313 52:-0.792126 53:-0.866424 54:-0.802456 55:-0.506124 56:-0.815574 57:-0.682402 58:-0.916695 59:-0.820512 60:-0.894063 61:-0.882687 62:-0.868442 63:-0.960497 64:-0.802002 65:-0.604238 66:-0.902651 67:-0.756087 68:-0.578256 69:-0.669905 70:-0.693879 71:-0.860796 72:-0.836018 73:-0.774839 74:-0.714925 75:-0.994748 76:-0.857955 77:-0.933712 78:-0.949438 79:-0.784752 80:-0.811826 81:-0.877192 82:-0.832353 83:-0.881684 84:-0.883226 85:-0.800531 86:-0.185997 87:-0.383981 88:-0.868506 89:-0.686981 90:-0.81162 91:-0.76414 92:-0.782664 93:-0.857434 94:-0.903459 95:-0.714998 96:-0.69035 97:-0.852169 98:-0.790516 99:-0.733238 100:-0.56724 101:-0.832681 102:-0.576126 103:-0.84963 104:-0.909788 105:-0.355443 106:-0.455107 107:-0.355418 108:-0.840327 109:-0.609199 110:-0.825872 111:-0.705631 112:-0.788027 113:-0.906411 114:-0.528464 115:-0.870656 116:-0.776733 117:-0.3368 118:-0.940021 119:-0.545916 120:-0.703374 121:-0.709231 122:-0.649606 123:-0.813099 124:-0.858302 125:-0.63643 126:-0.479847 127:-0.638794 128:-0.569741 129:-0.858472 130:-0.712291 131:-0.0539441 132:-0.194878 133:-0.236539 134:-0.449824 135:0.0990902 136:-0.236539 137:0.663737 138:-0.242544 139:-0.351488 140:-0.00295957 141:-0.0496159 142:0.490937 143:-0.769231 144:-0.769231 145:-0.730769 146:-0.692308 147:-0.653846 148:-0.615385 149:-0.592593 150:-0.607143 151:-0.607143 152:-0.796972 153:-0.745835 154:-0.371429 155:-0.352942 156:-0.352942 157:-0.130435 158:-0.181815 159:-0.333333 160:-0.222222 161:-0.294118 162:-0.538462 163:-0.499998 164:-0.499998 165:-0.636363 166:-0.636363 167:-0.818181 168:-0.818181 169:-0.818181 170:-0.8 171:-0.777778 172:-1 173:-1 174:-1 175:-1 176:-0.769231 177:-0.769231 178:-0.730769 179:-0.692308 180:-0.653845 181:-0.615384 182:-0.592593 183:-0.607143 184:-0.607143 
1.362967481111433 -1.320448413332608 -0 1:-0.713462 2:-0.53883 3:0.0823689 4:-0.650941 5:-0.844291 6:0.433445 7:0.155921 8:0.307589 9:0.304915 10:-0.542857 11:-0.647059 12:-0.647059 13:-0.652174 14:-0.636364 15:-0.714286 16:-0.666667 17:-0.882353 18:-0.846154 19:-1 20:-1 21:-1 22:-1 23:-1 24:-1 25:-1 26:-1 27:-1 28:-1 29:-1 30:-1 31:-1 32:-0.373003 33:-0.950564 34:-0.826119 35:-0.849162 36:-0.780097 37:-0.926484 38:-0.944335 39:-0.975067 40:-0.864689 41:-0.994734 42:-0.94345 43:-0.914144 44:-0.889417 45:-0.862288 46:-0.869524 47:-0.977878 48:-0.925307 49:-0.907923 50:-0.916249 51:-0.872462 52:-0.951203 53:-0.913746 54:-0.894483 55:-0.837747 56:-0.875507 57:-0.940941 58:-0.96023 59:-0.809173 60:-0.896692 61:-0.840735 62:-0.684558 63:-0.919284 64:-0.823215 65:-0.849198 66:-0.918501 67:-0.923752 68:-0.904931 69:-0.906885 70:-0.944281 71:-0.988018 72:-0.856865 73:-0.896848 74:-0.919964 75:-0.849155 76:-0.887329 77:-0.872824 78:-0.91171 79:-0.931076 80:-0.866154 81:-0.934847 82:-0.968641 83:-0.944139 84:-0.869063 85:-0.868686 86:-0.787871 87:-0.922438 88:-0.960367 89:-0.730961 90:-0.836469 91:-0.952359 92:-0.837246 93:-0.941773 94:-0.784562 95:-0.936251 96:-0.917179 97:-0.918475 98:-0.839415 99:-0.854804 100:-0.85318 101:-0.964352 102:-0.743651 103:-0.906581 104:-0.910215 105:-0.717527 106:-0.956079 107:-0.5384 108:-0.851218 109:-0.800953 110:-0.764361 111:-0.941333 112:-0.854472 113:-0.909907 114:-0.933185 115:-0.885324 116:-0.921592 117:-0.810648 118:-0.862525 119:-0.746607 120:-0.927417 121:-0.924493 122:-0.693639 123:-0.865732 124:-0.860384 125:-0.74833 126:-0.878688 127:-0.662546 128:-0.963489 129:-0.95667 130:-0.844024 131:0.307301 132:-0.526858 133:-0.649034 134:-0.140213 135:-0.407916 136:-0.649034 137:0.748444 138:-0.357927 139:-0.399182 140:0.406787 141:0.433701 142:0.671242 143:-0.807692 144:-0.807692 145:-0.807692 146:-0.807692 147:-0.769231 148:-0.769231 149:-0.740741 150:-0.714286 151:-0.5 152:-0.376521 153:-0.816857 154:-0.542858 155:-0.647059 156:-0.647059 157:-0.652174 158:-0.636363 159:-0.714285 160:-0.666666 161:-0.882353 162:-0.846154 163:-1 164:-1 165:-1 166:-1 167:-1 168:-1 169:-1 170:-1 171:-1 172:-1 173:-1 174:-1 175:-1 176:-0.807692 177:-0.807692 178:-0.807692 179:-0.807692 180:-0.769231 181:-0.769231 182:-0.740741 183:-0.714286 184:-0.5 
0 -0 -0.002687444138143107 1:-0.642403 2:-0.4463 3:0.0966999 4:-0.567846 5:-0.784111 6:0.381161 7:0.264211 8:0.211608 9:-0.107634 10:-0.485714 11:-0.647059 12:-0.647059 13:-0.652174 14:-0.636364 15:-0.714286 16:-0.777778 17:-0.764706 18:-0.692308 19:-0.833333 20:-0.833333 21:-0.818182 22:-0.818182 23:-1 24:-1 25:-1 26:-1 27:-1 28:-1 29:-1 30:-1 31:-1 32:-0.79851 33:-0.781249 34:-0.874741 35:-0.992034 36:-0.922724 37:-0.999807 38:-0.99464 39:-0.90248 40:-0.938253 41:-0.894956 42:-0.883921 43:-0.978767 44:-0.884784 45:-0.899058 46:-0.849855 47:-0.951445 48:-0.980672 49:-0.912623 50:-0.971663 51:-0.973909 52:-0.966057 53:-0.994645 54:-0.964166 55:-0.957153 56:-0.995067 57:-0.971294 58:-0.949686 59:-0.954745 60:-0.959372 61:-0.877867 62:-0.875668 63:-0.909041 64:-0.893635 65:-0.938222 66:-0.978578 67:-0.921846 68:-0.861183 69:-0.859113 70:-0.911195 71:-0.7149 72:-0.882916 73:-0.913216 74:-0.879318 75:-0.872638 76:-0.866702 77:-0.954268 78:-0.938401 79:-0.878849 80:-0.925844 81:-0.877355 82:-0.90642 83:-0.903475 84:-0.914487 85:-0.944432 86:-0.791827 87:-0.832627 88:-0.905241 89:-0.746602 90:-0.886721 91:-0.928065 92:-0.956346 93:-0.910689 94:-0.945325 95:-0.980933 96:-0.790108 97:-0.972287 98:-0.94495 99:-0.90057 100:-0.926231 101:-0.931039 102:-0.866185 103:-0.97757 104:-0.94197 105:-0.968529 106:-0.866786 107:-0.949047 108:-0.95967 109:-0.811893 110:-0.923256 111:-0.793739 112:-0.914702 113:-0.877058 114:-0.826978 115:-0.947917 116:-0.944725 117:-0.907604 118:-0.997239 119:-0.896156 120:-0.966773 121:-0.920434 122:-0.752969 123:-0.847858 124:-0.967778 125:-0.737161 126:-0.854235 127:-0.873561 128:-0.780805 129:-0.843108 130:-0.962069 131:0.346435 132:0.938708 133:0.406993 134:-0.785279 135:0.648394 136:0.406993 137:0.798693 138:-0.642068 139:-0.554796 140:0.313556 141:-0.271939 142:-0.390106 143:-1 144:-1 145:-1 146:-0.846154 147:-0.846154 148:-0.846154 149:-0.777778 150:-0.75 151:-0.607143 152:-0.556506 153:-0.90031 154:-0.485713 155:-0.647059 156:-0.647059 157:-0.652174 158:-0.636363 159:-0.714285 160:-0.777777 161:-0.764706 162:-0.692308 163:-0.833333 164:-0.833333 165:-0.818181 166:-0.818181 167:-1 168:-1 169:-1 170:-1 171:-1 172:-1 173:-1 174:-1 175:-1 176:-1 177:-1 178:-1 179:-0.846154 180:-0.846154 181:-0.846154 182:-0.777778 183:-0.75 184:-0.607143 
0.7513603925259058 -0.7311252011208749 -0 1:-0.574274 2:-0.262792 3:0.389526 4:-0.565804 5:-0.866243 6:0.408962 7:0.666184 8:0.448031 9:0.00583495 10:-0.371429 11:-0.529412 12:-0.647059 13:-0.478261 14:-0.636364 15:-0.619048 16:-0.777778 17:-0.764706 18:-0.692308 19:-0.666667 20:-0.833333 21:-0.818182 22:-0.818182 23:-0.818182 24:-0.818182 25:-0.818182 26:-0.8 27:-0.777778 28:-0.666667 29:-1 30:-1 31:-1 32:-0.750077 33:-0.747429 34:-0.892515 35:-0.938474 36:-0.913029 37:-0.972505 38:-0.912281 39:-0.976853 40:-0.90556 41:-0.90374 42:-0.962977 43:-0.921333 44:-0.931272 45:-0.903979 46:-0.951135 47:-0.954885 48:-0.915563 49:-0.91256 50:-0.914553 51:-0.903748 52:-0.964589 53:-0.972743 54:-0.978465 55:-0.944509 56:-0.92491 57:-0.940335 58:-0.973712 59:-0.980701 60:-0.988957 61:-0.880302 62:-0.890119 63:-0.938263 64:-0.889641 65:-0.87157 66:-0.937928 67:-0.901884 68:-0.907261 69:-0.902407 70:-0.979204 71:-0.921299 72:-0.909059 73:-0.946902 74:-0.978917 75:-0.967985 76:-0.939122 77:-0.970576 78:-0.974823 79:-0.899716 80:-0.934905 81:-0.842313 82:-0.897057 83:-0.910966 84:-0.919447 85:-0.96112 86:-0.907696 87:-0.853686 88:-0.971546 89:-0.811439 90:-0.911406 91:-0.941783 92:-0.963515 93:-0.991205 94:-0.851793 95:-0.98158 96:-0.836141 97:-0.898792 98:-0.968684 99:-0.98427 100:-0.883115 101:-0.895525 102:-0.854565 103:-0.909191 104:-0.894705 105:-0.888475 106:-0.90476 107:-0.836592 108:-0.995291 109:-0.836036 110:-0.851809 111:-0.937291 112:-0.8854 113:-0.967262 114:-0.921056 115:-0.885927 116:-0.957468 117:-0.94577 118:-0.925105 119:-0.806098 120:-0.935453 121:-0.832197 122:-0.774985 123:-0.836303 124:-0.94683 125:-0.692826 126:-0.934952 127:-0.95917 128:-0.841543 129:-0.895921 130:-0.894175 131:0.504623 132:0.697597 133:0.12725 134:-0.656157 135:0.436958 136:0.12725 137:0.671593 138:-0.321943 139:-0.567115 140:0.743366 141:0.0997817 142:-0.143635 143:-0.807692 144:-0.807692 145:-0.807692 146:-0.730769 147:-0.730769 148:-0.730769 149:-0.666667 150:-0.678571 151:-0.535714 152:-0.443353 153:-0.931079 154:-0.371429 155:-0.529413 156:-0.647059 157:-0.478262 158:-0.636363 159:-0.619047 160:-0.777777 161:-0.764706 162:-0.692308 163:-0.666666 164:-0.833333 165:-0.818181 166:-0.818181 167:-0.818181 168:-0.818181 169:-0.818181 170:-0.8 171:-0.777778 172:-0.666666 173:-1 174:-1 175:-1 176:-0.807692 177:-0.807692 178:-0.807692 179:-0.730769 180:-0.730769 181:-0.730769 182:-0.666666 183:-0.67857 184:-0.535714 
5.117640187759459 -5.148066106070084 -0 1:-0.655799 2:-0.20459 3:0.271423 4:-0.64883 5:-0.892996 6:0.29158 7:0.632855 8:0.392515 9:-0.132248 10:-0.657143 11:-0.705882 12:-0.764706 13:-0.652174 14:-0.636364 15:-0.714286 16:-0.666667 17:-0.647059 18:-0.538462 19:-0.666667 20:-0.666667 21:-0.636364 22:-0.636364 23:-0.636364 24:-0.818182 25:-0.818182 26:-0.8 27:-0.777778 28:-0.666667 29:-1 30:-1 31:-1 32:-0.460243 33:-0.832418 34:-1 35:-0.918288 36:-0.951974 37:-0.971653 38:-0.947138 39:-0.986408 40:-0.92846 41:-0.935436 42:-0.892704 43:-0.980491 44:-0.968625 45:-0.927411 46:-0.976255 47:-0.98483 48:-0.953898 49:-0.974929 50:-0.976685 51:-0.961092 52:-0.953979 53:-0.984052 54:-0.983046 55:-0.974461 56:-0.954781 57:-0.98973 58:-0.971778 59:-0.942813 60:-0.977899 61:-0.964672 62:-0.972963 63:-0.944261 64:-0.965004 65:-0.971679 66:-0.907218 67:-0.954569 68:-0.957637 69:-0.944408 70:-0.931596 71:-0.930683 72:-0.949786 73:-0.925775 74:-0.933122 75:-0.974548 76:-0.916688 77:-0.960752 78:-0.969902 79:-0.921475 80:-0.967008 81:-0.976032 82:-0.968857 83:-0.919841 84:-0.956991 85:-0.973431 86:-0.958883 87:-0.93815 88:-0.987625 89:-0.941483 90:-0.934257 91:-0.996086 92:-0.919347 93:-0.944208 94:-0.864621 95:-0.990252 96:-0.96558 97:-0.972621 98:-0.929408 99:-0.9395 100:-0.927325 101:-0.928635 102:-0.864904 103:-0.934734 104:-0.930655 105:-0.848529 106:-0.939642 107:-0.957607 108:-0.962549 109:-0.815979 110:-0.850222 111:-0.894834 112:-0.934204 113:-0.89239 114:-0.878959 115:-0.93603 116:-0.932038 117:-0.908681 118:-0.943103 119:-0.877853 120:-0.860296 121:-0.857625 122:-0.878196 123:-0.912759 124:-0.941693 125:-0.893759 126:-0.858299 127:-0.91476 128:-0.853025 129:-0.936696 130:-0.801929 131:0.567134 132:-0.0897294 133:-0.415528 134:-0.327395 135:-0.101402 136:-0.415528 137:0.829055 138:-0.526436 139:-0.630129 140:0.681301 141:-0.00623086 142:-0.328638 143:-0.923077 144:-0.923077 145:-0.884615 146:-0.846154 147:-0.846154 148:-0.807692 149:-0.814815 150:-0.785714 151:-0.75 152:-0.277361 153:-0.926454 154:-0.657143 155:-0.705883 156:-0.764706 157:-0.652174 158:-0.636363 159:-0.714285 160:-0.666666 161:-0.647059 162:-0.538462 163:-0.666666 164:-0.666666 165:-0.636363 166:-0.636363 167:-0.636363 168:-0.818181 169:-0.818181 170:-0.8 171:-0.777778 172:-0.666666 173:-1 174:-1 175:-1 176:-0.923077 177:-0.923077 178:-0.884615 179:-0.846154 180:-0.846154 181:-0.807692 182:-0.814815 183:-0.785714 184:-0.75 
4.577410801492444 -4.598248196464733 -0 1:-0.866141 2:-0.63647 3:-0.00443723 4:-0.840231 5:-0.976231 6:0.176526 7:0.337104 8:0.0983986 9:-0.569187 10:-0.885714 11:-0.882353 12:-0.882353 13:-0.826087 14:-0.818182 15:-0.904762 16:-0.888889 17:-0.882353 18:-0.846154 19:-0.833333 20:-0.833333 21:-1 22:-1 23:-1 24:-1 25:-1 26:-1 27:-1 28:-1 29:-1 30:-1 31:-1 32:-0.9554 33:-0.959235 34:-0.942835 35:-0.966407 36:-0.966927 37:-0.988204 38:-0.977722 39:-0.992812 40:-0.971164 41:-0.997172 42:-0.948621 43:-0.974383 44:-0.967814 45:-0.952423 46:-0.99049 47:-0.974627 48:-0.982323 49:-0.974337 50:-0.976065 51:-0.951701 52:-0.996228 53:-0.974666 54:-0.950633 55:-0.972536 56:-0.965664 57:-0.962651 58:-0.980814 59:-0.951623 60:-0.98624 61:-0.92726 62:-0.91647 63:-0.987091 64:-0.983318 65:-0.885041 66:-0.955203 67:-0.951589 68:-0.977485 69:-0.918846 70:-0.96334 71:-0.942107 72:-0.90957 73:-0.968939 74:-0.921567 75:-0.976945 76:-0.967478 77:-0.959773 78:-0.983152 79:-0.951666 80:-0.928043 81:-0.953504 82:-0.959687 83:-0.964548 84:-0.971474 85:-0.982534 86:-0.940474 87:-0.958845 88:-0.974091 89:-0.898613 90:-0.978838 91:-0.961059 92:-0.948319 93:-0.966108 94:-0.928211 95:-0.979428 96:-0.913676 97:-0.95911 98:-0.955005 99:-0.970149 100:-0.946956 101:-0.97111 102:-0.950742 103:-0.94881 104:-0.963771 105:-0.989086 106:-0.957897 107:-0.860144 108:-0.969761 109:-0.92305 110:-0.906666 111:-0.920318 112:-0.944819 113:-0.954104 114:-0.923619 115:-0.935387 116:-0.981706 117:-0.909686 118:-0.973842 119:-0.93125 120:-0.964069 121:-0.956462 122:-0.930535 123:-0.979684 124:-0.937887 125:-0.962854 126:-0.950791 127:-0.871016 128:-0.938522 129:-0.936548 130:-0.928162 131:0.159366 132:0.330127 133:0.0841873 134:-0.634235 135:0.401058 136:0.0841873 137:0.927297 138:-0.773254 139:-0.472347 140:0.80694 141:0.538581 142:-0.342451 143:-1 144:-1 145:-0.961538 146:-0.961538 147:-0.923077 148:-0.923077 149:-0.925926 150:-0.892857 151:-0.857143 152:0.737803 153:-0.97241 154:-0.885714 155:-0.882353 156:-0.882353 157:-0.826087 158:-0.818181 159:-0.904762 160:-0.888889 161:-0.882353 162:-0.846154 163:-0.833333 164:-0.833333 165:-1 166:-1 167:-1 168:-1 169:-1 170:-1 171:-1 172:-1 173:-1 174:-1 175:-1 176:-1 177:-1 178:-0.961538 179:-0.961538 180:-0.923077 181:-0.923077 182:-0.925926 183:-0.892857 184:-0.857143 
23.42516748736343 -23.43127009690664 -0 1:-0.818945 2:-0.522803 3:0.208954 4:-0.792826 5:-0.980096 6:0.409046 7:0.400095 8:0.123984 9:-0.377932 10:-0.885714 11:-0.882353 12:-0.882353 13:-0.826087 14:-0.818182 15:-0.904762 16:-0.888889 17:-0.882353 18:-0.846154 19:-0.833333 20:-0.833333 21:-0.818182 22:-0.818182 23:-0.818182 24:-0.818182 25:-1 26:-1 27:-1 28:-1 29:-1 30:-1 31:-1 32:-0.97557 33:-0.928091 34:-0.963217 35:-0.974543 36:-0.936766 37:-0.997831 38:-0.985132 39:-0.972781 40:-0.989811 41:-0.972864 42:-0.968846 43:-0.999191 44:-0.972611 45:-0.944648 46:-0.949631 47:-0.906224 48:-0.992872 49:-0.971525 50:-0.93347 51:-0.96311 52:-0.987275 53:-0.934765 54:-0.9986 55:-0.971214 56:-0.921531 57:-0.950492 58:-0.985293 59:-0.959884 60:-0.973896 61:-0.990116 62:-0.929921 63:-0.963225 64:-0.970745 65:-0.964418 66:-0.94637 67:-0.979483 68:-0.990641 69:-0.929005 70:-0.960749 71:-0.931191 72:-0.891713 73:-0.991357 74:-0.982128 75:-0.949993 76:-0.92829 77:-0.957067 78:-0.952895 79:-0.960322 80:-0.984598 81:-0.893838 82:-0.882347 83:-0.955091 84:-0.946558 85:-0.962239 86:-0.968327 87:-0.863602 88:-0.9305 89:-0.967976 90:-0.958758 91:-0.961542 92:-0.959086 93:-0.942781 94:-0.998211 95:-0.983331 96:-0.946143 97:-0.947772 98:-0.975239 99:-0.958013 100:-0.944764 101:-0.966862 102:-0.978322 103:-0.932427 104:-0.975318 105:-0.940827 106:-0.899752 107:-0.932339 108:-0.955383 109:-0.937033 110:-0.895915 111:-0.982798 112:-0.878853 113:-0.936661 114:-0.920504 115:-0.988134 116:-0.885676 117:-0.932159 118:-0.941282 119:-0.960903 120:-0.952438 121:-0.991746 122:-0.88167 123:-0.902765 124:-0.958705 125:-0.883934 126:-0.988856 127:-0.992482 128:-0.984378 129:-0.936725 130:-0.997869 131:0.49065 132:0.330718 133:-0.109832 134:-0.527493 135:0.22626 136:-0.109832 137:0.920867 138:-0.738919 139:-0.537087 140:0.488972 141:0.0454511 142:-0.380886 143:-1 144:-0.961538 145:-0.961538 146:-0.961538 147:-0.923077 148:-0.923077 149:-0.888889 150:-0.892857 151:-0.857143 152:0.496906 153:-0.95751 154:-0.885714 155:-0.882353 156:-0.882353 157:-0.826087 158:-0.818181 159:-0.904762 160:-0.888889 161:-0.882353 162:-0.846154 163:-0.833333 164:-0.833333 165:-0.818181 166:-0.818181 167:-0.818181 168:-0.818181 169:-1 170:-1 171:-1 172:-1 173:-1 174:-1 175:-1 176:-1 177:-0.961538 178:-0.961538 179:-0.961538 180:-0.923077 181:-0.923077 182:-0.888889 183:-0.892857 184:-0.857143 
4.409783592878393 -4.403660014560094 -0 1:-0.781975 2:-0.440397 3:0.106478 4:-0.750698 5:-0.928424 6:0.425512 7:0.213298 8:-0.0290562 9:-0.37242 10:-0.828571 11:-0.823529 12:-0.823529 13:-0.826087 14:-0.909091 15:-0.904762 16:-0.888889 17:-0.882353 18:-0.846154 19:-0.833333 20:-0.833333 21:-0.818182 22:-0.818182 23:-0.818182 24:-0.818182 25:-0.818182 26:-0.8 27:-0.777778 28:-1 29:-1 30:-1 31:-1 32:-0.825804 33:-0.866368 34:-0.952668 35:-0.92301 36:-0.924583 37:-0.960616 38:-0.982675 39:-0.94762 40:-0.954712 41:-0.969711 42:-0.934525 43:-0.98515 44:-0.945502 45:-0.927025 46:-0.903774 47:-0.965736 48:-0.972898 49:-0.948006 50:-0.968909 51:-0.96937 52:-0.954348 53:-0.983285 54:-0.97687 55:-0.941406 56:-0.991132 57:-0.918475 58:-0.950505 59:-0.969728 60:-0.95037 61:-0.965114 62:-0.908632 63:-0.966718 64:-0.955936 65:-0.887207 66:-0.928157 67:-0.843047 68:-0.934475 69:-0.984145 70:-0.969923 71:-0.913416 72:-0.938131 73:-0.956945 74:-0.922981 75:-0.90795 76:-0.955091 77:-0.966764 78:-0.987626 79:-0.920602 80:-0.938946 81:-0.971617 82:-0.973575 83:-0.994054 84:-0.955941 85:-0.949577 86:-0.939661 87:-0.903013 88:-0.971399 89:-0.889523 90:-0.890702 91:-0.982735 92:-0.963376 93:-0.90808 94:-0.898489 95:-0.979944 96:-0.893619 97:-0.936762 98:-0.956411 99:-0.907401 100:-0.943216 101:-0.912193 102:-0.942296 103:-0.968296 104:-0.947187 105:-0.927288 106:-0.961783 107:-0.986321 108:-0.94114 109:-0.942231 110:-0.980741 111:-0.848255 112:-0.975923 113:-0.946371 114:-0.929629 115:-0.893684 116:-0.922327 117:-0.912292 118:-0.930147 119:-0.881545 120:-0.987205 121:-0.90507 122:-0.896075 123:-0.912701 124:-0.942207 125:-0.889339 126:-0.997059 127:-0.941741 128:-0.940772 129:-0.953739 130:-0.935536 131:0.34797 132:0.276125 133:-0.0749246 134:-0.54772 135:0.259391 136:-0.0749246 137:0.897091 138:-0.602788 139:-0.489247 140:0.331744 141:-0.175307 142:-0.413466 143:-0.923077 144:-0.923077 145:-0.923077 146:-0.923077 147:-0.884615 148:-0.884615 149:-0.888889 150:-0.892857 151:-0.892857 152:0.0627202 153:-0.957505 154:-0.828571 155:-0.823529 156:-0.823529 157:-0.826087 158:-0.909091 159:-0.904762 160:-0.888889 161:-0.882353 162:-0.846154 163:-0.833333 164:-0.833333 165:-0.818181 166:-0.818181 167:-0.818181 168:-0.818181 169:-0.818181 170:-0.8 171:-0.777778 172:-1 173:-1 174:-1 175:-1 176:-0.923077 177:-0.923077 178:-0.923077 179:-0.923077 180:-0.884615 181:-0.884615 182:-0.888889 183:-0.892857 184:-0.892857 
0.3019820780105221 -0.2914523482026939 -0 1:-0.620605 2:-0.132706 3:0.0289546 4:-0.595009 5:-0.780931 6:0.407429 7:0.115484 8:-0.104336 9:-0.363963 10:-0.771429 11:-0.764706 12:-0.764706 13:-0.73913 14:-0.727273 15:-0.714286 16:-0.666667 17:-0.647059 18:-0.538462 19:-0.5 20:-0.5 21:-0.454545 22:-0.454545 23:-0.454545 24:-0.454545 25:-0.636364 26:-0.8 27:-0.777778 28:-1 29:-1 30:-1 31:-1 32:0.295563 33:-0.832412 34:-0.882841 35:-0.860013 36:-0.922622 37:-0.86767 38:-0.932258 39:-0.960521 40:-0.799374 41:-0.836967 42:-0.893205 43:-0.85337 44:-0.851613 45:-0.905983 46:-0.84005 47:-0.937836 48:-0.892309 49:-0.907723 50:-0.828619 51:-0.865677 52:-0.960598 53:-0.855528 54:-0.773844 55:-0.9655 56:-0.957326 57:-0.880444 58:-0.988469 59:-0.803399 60:-0.943232 61:-0.908627 62:-0.95362 63:-0.921116 64:-0.728485 65:-0.94394 66:-0.936283 67:-0.894263 68:-0.901144 69:-0.760402 70:-0.964793 71:-0.971368 72:-0.916544 73:-0.898465 74:-0.817778 75:-0.909627 76:-0.850281 77:-0.951262 78:-0.91732 79:-0.853361 80:-0.933114 81:-0.826141 82:-0.996238 83:-0.904605 84:-0.857026 85:-0.882216 86:-0.638179 87:-0.884113 88:-0.925286 89:-0.837301 90:-0.952421 91:-0.791718 92:-0.886491 93:-0.790615 94:-0.818264 95:-0.889281 96:-0.66729 97:-0.962107 98:-0.929542 99:-0.916036 100:-0.854575 101:-0.752838 102:-0.845865 103:-0.852649 104:-0.858008 105:-0.612123 106:-0.865292 107:-0.873539 108:-0.873948 109:-0.877602 110:-0.837057 111:-0.690841 112:-0.694932 113:-0.755953 114:-0.817875 115:-0.841473 116:-0.902413 117:-0.73885 118:-0.792685 119:-0.708924 120:-0.912634 121:-0.856715 122:-0.793627 123:-0.746096 124:-0.794237 125:-0.818568 126:-0.860669 127:-0.714778 128:-0.720865 129:-0.872145 130:-0.826983 131:-0.27574 132:-0.416458 133:-0.333254 134:-0.385677 135:-0.00596117 136:-0.333254 137:0.749896 138:-0.334331 139:-0.530946 140:0.151021 141:-0.446995 142:-0.559666 143:-0.807692 144:-0.769231 145:-0.769231 146:-0.769231 147:-0.730769 148:-0.730769 149:-0.740741 150:-0.714286 151:-0.678571 152:-0.535172 153:-0.954966 154:-0.771428 155:-0.764706 156:-0.764706 157:-0.739131 158:-0.727272 159:-0.714285 160:-0.666666 161:-0.647059 162:-0.538462 163:-0.499998 164:-0.499998 165:-0.454544 166:-0.454544 167:-0.454544 168:-0.454544 169:-0.636363 170:-0.8 171:-0.777778 172:-1 173:-1 174:-1 175:-1 176:-0.807692 177:-0.769231 178:-0.769231 179:-0.769231 180:-0.730769 181:-0.730769 182:-0.740741 183:-0.714286 184:-0.67857 
0.1721648481639798 -0.1949412029191363 -0 1:-0.555357 2:-0.113154 3:-0.244669 4:-0.526744 5:-0.568063 6:0.105726 7:0.0217811 8:0.168804 9:0.36179 10:-0.6 11:-0.588235 12:-0.647059 13:-0.478261 14:-0.454545 15:-0.52381 16:-0.666667 17:-0.647059 18:-0.538462 19:-0.5 20:-0.666667 21:-0.636364 22:-0.636364 23:-0.636364 24:-0.636364 25:-0.636364 26:-0.8 27:-0.777778 28:-0.666667 29:-1 30:-1 31:-1 32:-0.597817 33:-0.649723 34:-0.875833 35:-0.948684 36:-0.895149 37:-0.774364 38:-0.877205 39:-0.910477 40:-0.865909 41:-0.872599 42:-0.858168 43:-0.886847 44:-0.917384 45:-0.847159 46:-0.889705 47:-0.977825 48:-0.920221 49:-0.860759 50:-0.846506 51:-0.94214 52:-0.801593 53:-0.905825 54:-0.951244 55:-0.902318 56:-0.868108 57:-0.89275 58:-0.952772 59:-0.907947 60:-0.972472 61:-0.860345 62:-0.981301 63:-0.910866 64:-0.913583 65:-0.93637 66:-0.932233 67:-0.836281 68:-0.744143 69:-0.940394 70:-0.892363 71:-0.886011 72:-0.834422 73:-0.955418 74:-0.932916 75:-0.951732 76:-0.913966 77:-0.836514 78:-0.979885 79:-0.791882 80:-0.896314 81:-0.764588 82:-0.813297 83:-0.934215 84:-0.861927 85:-0.928852 86:-0.938973 87:-0.863377 88:-0.860087 89:-0.945458 90:-0.857324 91:-0.853448 92:-0.79084 93:-0.918784 94:-0.898398 95:-0.964103 96:-0.868645 97:-0.78839 98:-0.947416 99:-0.947108 100:-0.946031 101:-0.884562 102:-0.913035 103:-0.963649 104:-0.928831 105:-0.878193 106:-0.70622 107:-0.849264 108:-0.81512 109:-0.818074 110:-0.874236 111:-0.871102 112:-0.864379 113:-0.866732 114:-0.768103 115:-0.936335 116:-0.879427 117:-0.910273 118:-0.923439 119:-0.824201 120:-0.716767 121:-0.625405 122:-0.797999 123:-0.790552 124:-0.981267 125:-0.90848 126:-0.97011 127:-0.767019 128:-0.946891 129:-0.822787 130:-0.812618 131:0.52278 132:-0.491544 133:-0.666128 134:-0.12507 135:-0.43271 136:-0.666128 137:0.600809 138:-0.0918415 139:-0.70927 140:-0.0271864 141:-0.176036 142:0.210952 143:-0.615385 144:-0.576923 145:-0.576923 146:-0.576923 147:-0.576923 148:-0.576923 149:-0.592593 150:-0.607143 151:-0.607143 152:-0.739448 153:-0.596789 154:-0.6 155:-0.588236 156:-0.647059 157:-0.478262 158:-0.454545 159:-0.52381 160:-0.666666 161:-0.647059 162:-0.538462 163:-0.499998 164:-0.666666 165:-0.636363 166:-0.636363 167:-0.636363 168:-0.636363 169:-0.636363 170:-0.8 171:-0.777778 172:-0.666666 173:-1 174:-1 175:-1 176:-0.615384 177:-0.576924 178:-0.576924 179:-0.576924 180:-0.576924 181:-0.576924 182:-0.592593 183:-0.607143 184:-0.607143 
1.229322824041518 -1.234035852307968 -0 1:-0.880017 2:-0.706947 3:-0.93393 4:-0.869906 5:0.281208 6:-0.792164 7:-0.782232 8:-0.873464 9:-0.79423 10:-0.771429 11:-0.764706 12:-0.764706 13:-0.652174 14:-0.818182 15:-0.904762 16:-1 17:-1 18:-1 19:-1 20:-1 21:-1 22:-1 23:-1 24:-1 25:-1 26:-1 27:-1 28:-1 29:-1 30:-1 31:-1 32:-0.541492 33:-0.473833 34:-0.715561 35:-0.94561 36:-0.82259 37:-0.983842 38:-0.889168 39:-0.91999 40:-0.847834 41:-0.73309 42:-0.861854 43:-0.880476 44:-0.922717 45:-0.775919 46:-0.835361 47:-0.936811 48:-0.890343 49:-0.998671 50:-0.90685 51:-0.894221 52:-0.870547 53:-0.834986 54:-0.968629 55:-0.963085 56:-0.959828 57:-0.893208 58:-0.918986 59:-0.871895 60:-0.828116 61:-0.891322 62:-0.901705 63:-0.931546 64:-0.925029 65:-0.921683 66:-0.843896 67:-0.719457 68:-0.879058 69:-0.818572 70:-0.94665 71:-0.824028 72:-0.832954 73:-0.95176 74:-0.876614 75:-0.906848 76:-0.87901 77:-0.904811 78:-0.964841 79:-0.765349 80:-0.943062 81:-0.995254 82:-0.878297 83:-0.92657 84:-0.936484 85:-0.804572 86:-0.749374 87:-0.854881 88:-0.89013 89:-0.856625 90:-0.95458 91:-0.931778 92:-0.911544 93:-0.812628 94:-0.846102 95:-0.902058 96:-0.957689 97:-0.860018 98:-0.972203 99:-0.896663 100:-0.894362 101:-0.769375 102:-0.787338 103:-0.942903 104:-0.836561 105:-0.771543 106:-0.834593 107:-0.849571 108:-0.884281 109:-0.924407 110:-0.692611 111:-0.747673 112:-0.777489 113:-0.730114 114:-0.748907 115:-0.870277 116:-0.858114 117:-0.88219 118:-0.934098 119:-0.60665 120:-0.897056 121:-0.830294 122:-0.71705 123:-0.78377 124:-0.883448 125:-0.888221 126:-0.791577 127:-0.783573 128:-0.9214 129:-0.890124 130:-0.934924 131:-0.809425 132:-0.729527 133:-0.389959 134:-0.34589 135:-0.0711111 136:-0.389959 137:0.355865 138:0.149428 139:-0.34092 140:0.0518897 141:-0.574281 142:-0.35048 143:-0.346154 144:-0.346154 145:-0.346154 146:-0.346154 147:-0.346154 148:-0.346154 149:-0.37037 150:-0.357143 151:-0.321429 152:-0.725632 153:-0.920271 154:-0.771428 155:-0.764706 156:-0.764706 157:-0.652174 158:-0.818181 159:-0.904762 160:-1 161:-1 162:-1 163:-1 164:-1 165:-1 166:-1 167:-1 168:-1 169:-1 170:-1 171:-1 172:-1 173:-1 174:-1 175:-1 176:-0.346154 177:-0.346154 178:-0.346154 179:-0.346154 180:-0.346154 181:-0.346154 182:-0.37037 183:-0.357143 184:-0.32143 
3.608941504107436 -3.551696689447 -0 1:-0.959045 2:-0.844871 3:-0.994368 4:-0.997126 5:-0.0303128 6:-0.97613 7:-0.868336 8:-0.986903 9:-0.826252 10:-0.885714 11:-0.882353 12:-0.882353 13:-0.913043 14:-1 15:-1 16:-1 17:-1 18:-1 19:-1 20:-1 21:-1 22:-1 23:-1 24:-1 25:-1 26:-1 27:-1 28:-1 29:-1 30:-1 31:-1 32:-0.892141 33:-0.911078 34:-0.969455 35:-0.995288 36:-0.931772 37:-0.984068 38:-0.972689 39:-0.998375 40:-0.953883 41:-0.965247 42:-0.949009 43:-0.97548 44:-0.946177 45:-0.962953 46:-0.974254 47:-0.933464 48:-0.976812 49:-0.949213 50:-0.976205 51:-0.96556 52:-0.98109 53:-0.971224 54:-0.976197 55:-0.944004 56:-0.974836 57:-0.984162 58:-0.980365 59:-0.985582 60:-0.960918 61:-0.982356 62:-0.973802 63:-0.955951 64:-0.986205 65:-0.96412 66:-0.950561 67:-0.936238 68:-0.965935 69:-0.961797 70:-0.994527 71:-0.89681 72:-0.964233 73:-0.978387 74:-0.956562 75:-0.997684 76:-0.94289 77:-0.951007 78:-0.980307 79:-0.977146 80:-0.986328 81:-0.961209 82:-0.95513 83:-0.994142 84:-0.989127 85:-0.937349 86:-0.97742 87:-0.946636 88:-0.982777 89:-0.916313 90:-0.990932 91:-0.978595 92:-0.945228 93:-0.884112 94:-0.973075 95:-0.980422 96:-0.945375 97:-0.993826 98:-0.955026 99:-0.951515 100:-0.983082 101:-0.9501 102:-0.983114 103:-0.97042 104:-0.967391 105:-0.947354 106:-0.966799 107:-0.972486 108:-0.985018 109:-0.916563 110:-0.965682 111:-0.983853 112:-0.893141 113:-0.938732 114:-0.956135 115:-0.949958 116:-0.992839 117:-0.972694 118:-0.95912 119:-0.924241 120:-0.900287 121:-0.946241 122:-0.925454 123:-0.9965 124:-0.974377 125:-0.94464 126:-0.96899 127:-0.944105 128:-0.869221 129:-0.889562 130:-0.943946 131:-0.669352 132:-0.778527 133:-0.602119 134:-0.180693 135:-0.341635 136:-0.602119 137:0.601405 138:-0.129374 139:-0.396309 140:0.0182075 141:-0.610039 142:-0.118358 143:-0.615385 144:-0.615385 145:-0.615385 146:-0.615385 147:-0.615385 148:-0.615385 149:-0.62963 150:-0.642857 151:-0.607143 152:-0.198734 153:-0.922807 154:-0.885714 155:-0.882353 156:-0.882353 157:-0.913044 158:-1 159:-1 160:-1 161:-1 162:-1 163:-1 164:-1 165:-1 166:-1 167:-1 168:-1 169:-1 170:-1 171:-1 172:-1 173:-1 174:-1 175:-1 176:-0.615384 177:-0.615384 178:-0.615384 179:-0.615384 180:-0.615384 181:-0.615384 182:-0.62963 183:-0.642857 184:-0.607143 
0.6385590512777545 -0.6213937731416616 -0.01119768685121751 1:-0.957173 2:-0.838926 3:-0.998108 4:-0.996181 5:0.0340273 6:-0.992332 7:-0.867948 8:-0.99578 9:-0.799639 10:-0.885714 11:-0.882353 12:-0.882353 13:-0.913043 14:-0.909091 15:-1 16:-1 17:-1 18:-1 19:-1 20:-1 21:-1 22:-1 23:-1 24:-1 25:-1 26:-1 27:-1 28:-1 29:-1 30:-1 31:-1 32:-0.882377 33:-0.907217 34:-0.97633 35:-0.995363 36:-0.936745 37:-0.985405 38:-0.967432 39:-0.996079 40:-0.970288 41:-0.969656 42:-0.954089 43:-0.962833 44:-0.95011 45:-0.967084 46:-0.98607 47:-0.943002 48:-0.978798 49:-0.942148 50:-0.969041 51:-0.949312 52:-0.995743 53:-0.979052 54:-0.968155 55:-0.964399 56:-0.959083 57:-0.958133 58:-0.983485 59:-0.995949 60:-0.966819 61:-0.989162 62:-0.94292 63:-0.986922 64:-0.984413 65:-0.951391 66:-0.978056 67:-0.932581 68:-0.97861 69:-0.958533 70:-0.988333 71:-0.9476 72:-0.951378 73:-0.922008 74:-0.974074 75:-0.989755 76:-0.956536 77:-0.983159 78:-0.966621 79:-0.964121 80:-0.920461 81:-0.975243 82:-0.994943 83:-0.959544 84:-0.927912 85:-0.955413 86:-0.938135 87:-0.979139 88:-0.982376 89:-0.990456 90:-0.962805 91:-0.9395 92:-0.971966 93:-0.947387 94:-0.966467 95:-0.971972 96:-0.921299 97:-0.963689 98:-0.961563 99:-0.982734 100:-0.957614 101:-0.974637 102:-0.90017 103:-0.93795 104:-0.948446 105:-0.940022 106:-0.964989 107:-0.924413 108:-0.962469 109:-0.846043 110:-0.935876 111:-0.937282 112:-0.967519 113:-0.942864 114:-0.948737 115:-0.976654 116:-0.977124 117:-0.921103 118:-0.996677 119:-0.980132 120:-0.963946 121:-0.955116 122:-0.994097 123:-0.969215 124:-0.987086 125:-0.939714 126:-0.905217 127:-0.861294 128:-0.942421 129:-0.941144 130:-0.965214 131:-0.640967 132:-0.801668 133:-0.657808 134:-0.132469 135:-0.420598 136:-0.657808 137:0.819721 138:-0.464473 139:-0.479906 140:-0.0544163 141:-0.673617 142:-0.0901562 143:-0.846154 144:-0.846154 145:-0.846154 146:-0.846154 147:-0.846154 148:-0.846154 149:-0.851852 150:-0.857143 151:-0.821429 152:-0.248664 153:-0.90335 154:-0.885714 155:-0.882353 156:-0.882353 157:-0.913044 158:-0.909091 159:-1 160:-1 161:-1 162:-1 163:-1 164:-1 165:-1 166:-1 167:-1 168:-1 169:-1 170:-1 171:-1 172:-1 173:-1 174:-1 175:-1 176:-0.846154 177:-0.846154 178:-0.846154 179:-0.846154 180:-0.846154 181:-0.846154 182:-0.851852 183:-0.857143 184:-0.821429 
0 -0 -0.03885327091888133 1:-0.96111 2:-0.84929 3:-0.958737 4:-0.994791 5:-0.358069 6:-0.861223 7:-0.823863 8:-0.922678 9:-0.845384 10:-0.885714 11:-0.882353 12:-0.882353 13:-0.913043 14:-1 15:-1 16:-1 17:-1 18:-1 19:-1 20:-1 21:-1 22:-1 23:-1 24:-1 25:-1 26:-1 27:-1 28:-1 29:-1 30:-1 31:-1 32:-0.922703 33:-0.933148 34:-0.944253 35:-0.965314 36:-0.941453 37:-0.97168 38:-0.973299 39:-0.992499 40:-0.937224 41:-0.973222 42:-0.946389 43:-0.986457 44:-0.971668 45:-0.939431 46:-0.979233 47:-0.989377 48:-0.990889 49:-0.929581 50:-0.9669 51:-0.963586 52:-0.989803 53:-0.950635 54:-0.961777 55:-0.96453 56:-0.989637 57:-0.933831 58:-0.972512 59:-0.970103 60:-0.992837 61:-0.967223 62:-0.951701 63:-0.983145 64:-0.960488 65:-0.98435 66:-0.968451 67:-0.962654 68:-0.967833 69:-0.954406 70:-0.982789 71:-0.968862 72:-0.974925 73:-0.947766 74:-0.973494 75:-0.958406 76:-0.962122 77:-0.984475 78:-0.98965 79:-0.951391 80:-0.982199 81:-0.958015 82:-0.939264 83:-0.956364 84:-0.991945 85:-0.962351 86:-0.917011 87:-0.908973 88:-0.995305 89:-0.9683 90:-0.97349 91:-0.943444 92:-0.984056 93:-0.973825 94:-0.959938 95:-0.985048 96:-0.888321 97:-0.982849 98:-0.953099 99:-0.965199 100:-0.94532 101:-0.973644 102:-0.903751 103:-0.975408 104:-0.961405 105:-0.951682 106:-0.907438 107:-0.939236 108:-0.950828 109:-0.937391 110:-0.96577 111:-0.886636 112:-0.966873 113:-0.927924 114:-0.996908 115:-0.919895 116:-0.935399 117:-0.982532 118:-0.972244 119:-0.9673 120:-0.959665 121:-0.945216 122:-0.926723 123:-0.943958 124:-0.895123 125:-0.981703 126:-0.939317 127:-0.930838 128:-0.927706 129:-0.895623 130:-0.917729 131:-0.695229 132:-0.672243 133:-0.388266 134:-0.347103 135:-0.0691237 136:-0.388266 137:0.325633 138:0.179853 139:-0.0784774 140:0.366125 141:-0.323533 142:-0.0685059 143:-0.307692 144:-0.307692 145:-0.307692 146:-0.307692 147:-0.307692 148:-0.307692 149:-0.333333 150:-0.357143 151:-0.357143 152:0.0994014 153:-0.935407 154:-0.885714 155:-0.882353 156:-0.882353 157:-0.913044 158:-1 159:-1 160:-1 161:-1 162:-1 163:-1 164:-1 165:-1 166:-1 167:-1 168:-1 169:-1 170:-1 171:-1 172:-1 173:-1 174:-1 175:-1 176:-0.307693 177:-0.307693 178:-0.307693 179:-0.307693 180:-0.307693 181:-0.307693 182:-0.333334 183:-0.357143 184:-0.357143 
0.1087997288858084 -0.05181658075616186 -0.01992179642062343 1:-0.88669 2:-0.735202 3:-0.911594 4:-0.87721 5:0.0443098 6:-0.731807 7:-0.767034 8:-0.842438 9:-0.811344 10:-0.771429 11:-0.764706 12:-0.764706 13:-0.652174 14:-1 15:-1 16:-1 17:-1 18:-1 19:-1 20:-1 21:-1 22:-1 23:-1 24:-1 25:-1 26:-1 27:-1 28:-1 29:-1 30:-1 31:-1 32:-0.281551 33:-0.597762 34:-0.652057 35:-0.808734 36:-0.91758 37:-0.942544 38:-0.898972 39:-0.915635 40:-0.88219 41:-0.722268 42:-0.740512 43:-0.861959 44:-0.880195 45:-0.968251 46:-0.868502 47:-0.916898 48:-0.970197 49:-0.857082 50:-0.750239 51:-0.918387 52:-0.920824 53:-0.924131 54:-0.876903 55:-0.916303 56:-0.83031 57:-0.925267 58:-0.827487 59:-0.871954 60:-0.950646 61:-0.966988 62:-0.819369 63:-0.953697 64:-0.847456 65:-0.867079 66:-0.869664 67:-0.774583 68:-0.835072 69:-0.895028 70:-0.923983 71:-0.767269 72:-0.736406 73:-0.833501 74:-0.878526 75:-0.916227 76:-0.825681 77:-0.899155 78:-0.976663 79:-0.860527 80:-0.772657 81:-0.918073 82:-0.876832 83:-0.923593 84:-0.839759 85:-0.939646 86:-0.789291 87:-0.679945 88:-0.966853 89:-0.90375 90:-0.875585 91:-0.82224 92:-0.94102 93:-0.946402 94:-0.814744 95:-0.788485 96:-0.976761 97:-0.851308 98:-0.863147 99:-0.764654 100:-0.942927 101:-0.952835 102:-0.926015 103:-0.829106 104:-0.972069 105:-0.729071 106:-0.811402 107:-0.637552 108:-0.982178 109:-0.937981 110:-0.848123 111:-0.880926 112:-0.834969 113:-0.738316 114:-0.755126 115:-0.84773 116:-0.891329 117:-0.887929 118:-0.869972 119:-0.770821 120:-0.750446 121:-0.663694 122:-0.694851 123:-0.952321 124:-0.855116 125:-0.81623 126:-0.912463 127:-0.855889 128:-0.804694 129:-0.784257 130:-0.838251 131:-0.92525 132:-0.636256 133:0.039627 134:-0.610902 135:0.362854 136:0.039627 137:0.208567 138:0.279155 139:0.046651 140:0.488728 141:-0.287993 142:-0.17107 143:-0.192308 144:-0.192308 145:-0.192308 146:-0.192308 147:-0.192308 148:-0.192308 149:-0.222222 150:-0.25 151:-0.214286 152:-0.656517 153:-0.934325 154:-0.771428 155:-0.764706 156:-0.764706 157:-0.652174 158:-1 159:-1 160:-1 161:-1 162:-1 163:-1 164:-1 165:-1 166:-1 167:-1 168:-1 169:-1 170:-1 171:-1 172:-1 173:-1 174:-1 175:-1 176:-0.192308 177:-0.192308 178:-0.192308 179:-0.192308 180:-0.192308 181:-0.192308 182:-0.222223 183:-0.25 184:-0.214286 
0.2744493433809742 -0.274497754539014 -0 1:-0.297434 2:0.0686247 3:0.031551 4:-0.2668 5:-0.512027 6:0.376853 7:0.181091 8:0.327666 9:0.386149 10:-0.371429 11:-0.352941 12:-0.352941 13:-0.217391 14:-0.181818 15:-0.142857 16:-0.555556 17:-0.529412 18:-0.384615 19:-0.333333 20:-0.333333 21:-0.454545 22:-0.454545 23:-0.636364 24:-0.636364 25:-0.636364 26:-0.6 27:-0.555556 28:-0.666667 29:-1 30:-1 31:-1 32:-0.920027 33:-0.804532 34:-0.477871 35:-0.822396 36:-0.862499 37:-0.908432 38:-0.975135 39:-0.607712 40:-0.727406 41:-0.457288 42:-0.863684 43:-0.786521 44:-0.927774 45:-0.758622 46:-0.769262 47:-0.603919 48:-0.945355 49:-0.955876 50:-0.938733 51:-0.916264 52:-0.894675 53:-0.866018 54:-0.881512 55:-0.716751 56:-0.905535 57:-0.766004 58:-0.912679 59:-0.791834 60:-0.82541 61:-0.443397 62:-0.590543 63:-0.838392 64:-0.753456 65:-0.729702 66:-0.942684 67:-0.963284 68:-0.764318 69:-0.835344 70:-0.873262 71:-0.803129 72:-0.641204 73:-0.953197 74:-0.810388 75:-0.896232 76:-0.980234 77:-0.891805 78:-0.879426 79:-0.72051 80:-0.71441 81:-0.761199 82:-0.75549 83:-0.69964 84:-0.692962 85:-0.776578 86:-0.845545 87:-0.722361 88:-0.854318 89:-0.927426 90:-0.737774 91:-0.950151 92:-0.839403 93:-0.741205 94:-0.732699 95:-0.800496 96:-0.922007 97:-0.929737 98:-0.89714 99:-0.627731 100:-0.708681 101:-0.677359 102:-0.589573 103:-0.669137 104:-0.875394 105:-0.709697 106:-0.809603 107:-0.391526 108:-0.790652 109:-0.66859 110:-0.670715 111:-0.893951 112:-0.72037 113:-0.905031 114:-0.864126 115:-0.932703 116:-0.886995 117:-0.754136 118:-0.932451 119:-0.508368 120:-0.71063 121:-0.80062 122:-0.549182 123:-0.647002 124:-0.768418 125:-0.657066 126:-0.65682 127:-0.698688 128:-0.693229 129:-0.810388 130:-0.674629 131:0.370499 132:-0.319901 133:-0.513729 134:-0.252869 135:-0.223428 136:-0.513729 137:0.244685 138:0.228478 139:-0.575 140:0.179079 141:0.066571 142:0.344545 143:-0.269231 144:-0.269231 145:-0.269231 146:-0.269231 147:-0.230769 148:-0.230769 149:-0.259259 150:-0.25 151:-0.25 152:-0.845271 153:-0.766606 154:-0.371429 155:-0.352942 156:-0.352942 157:-0.21739 158:-0.181815 159:-0.142854 160:-0.555555 161:-0.529412 162:-0.384616 163:-0.333331 164:-0.333331 165:-0.454544 166:-0.454544 167:-0.636363 168:-0.636363 169:-0.636363 170:-0.6 171:-0.555557 172:-0.666666 173:-1 174:-1 175:-1 176:-0.269232 177:-0.269232 178:-0.269232 179:-0.269232 180:-0.230769 181:-0.230769 182:-0.259259 183:-0.25 184:-0.25 
0.08028452926375178 -0.05546580226893352 -0 1:-0.236123 2:0.27227 3:0.0654541 4:-0.240499 5:-0.511485 6:0.411221 7:0.208559 8:0.309529 9:0.373353 10:-0.485714 11:-0.470588 12:-0.529412 13:-0.391304 14:-0.363636 15:-0.333333 16:-0.333333 17:-0.294118 18:-0.0769231 21:0.0909091 22:-0.0909091 23:-0.272727 24:-0.272727 25:-0.272727 26:-0.2 27:-0.111111 29:-1 30:-1 31:-1 32:-0.52385 33:-0.891052 34:0.0880483 35:-0.914162 36:-0.761054 37:-0.869666 38:-0.938754 39:-0.767977 40:-0.490612 41:-0.730165 42:-0.43201 43:-0.944475 44:-0.808482 45:-0.870415 46:-0.835377 47:-0.748653 48:-0.523775 49:-0.781686 50:-0.868821 51:-0.950253 52:-0.981136 53:-0.878888 54:-0.788449 55:-0.95513 56:-0.577999 57:-0.638257 58:-0.806446 59:-0.808631 60:-0.914341 61:-0.730106 62:-0.746587 63:-0.733085 64:-0.97824 65:-0.390634 66:-0.672361 67:-0.659049 68:-0.786336 69:-0.971986 70:-0.948854 71:-0.304142 72:-0.369639 73:-0.613649 74:-0.839994 75:-0.852028 76:-0.77604 77:-0.851561 78:-0.971574 79:-0.714698 80:-0.400271 81:-0.91089 82:-0.848196 83:-0.907001 84:-0.857755 85:-0.777582 86:-0.687327 87:-0.146654 88:-0.865075 89:-0.842229 90:-0.597816 91:-0.877634 92:-0.742309 93:-0.954949 94:-0.45023 95:-0.629934 96:-0.914237 97:-0.905775 98:-0.850516 99:-0.918808 100:-0.617191 101:-0.617008 102:-0.611628 103:-0.633756 104:-0.780703 105:-0.534525 106:-0.577484 107:-0.760319 108:-0.924295 109:-0.232932 110:-0.751371 111:-0.284796 112:-0.72735 113:-0.725368 114:-0.539576 115:-0.709057 116:-0.966588 117:-0.372279 118:-0.913158 119:-0.396291 120:-0.84957 121:-0.833915 122:-0.555676 123:-0.562758 124:-0.525798 125:-0.683021 126:-0.5547 127:-0.957527 128:-0.799968 129:-0.887849 130:-0.729605 131:-0.350296 132:-0.287935 133:-0.126096 134:-0.517892 135:0.210554 136:-0.126096 137:0.51369 138:-0.0235699 139:-0.552063 140:0.224619 141:0.0930985 142:0.380136 143:-0.538462 144:-0.538462 145:-0.538462 146:-0.538462 147:-0.5 148:-0.5 149:-0.518519 150:-0.535714 151:-0.535714 152:-0.850988 153:-0.776799 154:-0.485713 155:-0.470587 156:-0.529413 157:-0.391305 158:-0.363636 159:-0.333333 160:-0.333333 161:-0.294118 162:-0.0769246 163:2.27001e-06 164:2.27001e-06 165:0.0909099 166:-0.0909086 167:-0.272726 168:-0.272726 169:-0.272726 170:-0.2 171:-0.111113 172:1.135e-06 173:-1 174:-1 175:-1 176:-0.538463 177:-0.538463 178:-0.538463 179:-0.538463 180:-0.499999 181:-0.499999 182:-0.518518 183:-0.535714 184:-0.535714 
0.580583244963998 -0.5833148202932381 -0 1:-0.404407 2:0.0771015 3:0.0625767 4:-0.355928 5:-0.602083 6:0.447165 7:0.135618 8:0.148831 9:0.248941 10:-0.542857 11:-0.705882 12:-0.705882 13:-0.565217 14:-0.545455 15:-0.52381 16:-0.444444 17:-0.529412 18:-0.384615 19:-0.333333 20:-0.333333 21:-0.272727 22:-0.272727 23:-0.272727 24:-0.454545 25:-0.454545 26:-0.4 27:-0.333333 28:-1 29:-1 30:-1 31:-1 32:-0.25657 33:0.0260848 34:-0.520151 35:-0.95538 36:-0.763218 37:-0.77421 38:-0.889843 39:-0.917312 40:-0.472402 41:-0.755946 42:-0.802432 43:-0.914165 44:-0.61534 45:-0.709217 46:-0.733041 47:-0.468956 48:-0.871486 49:-0.730462 50:-0.80479 51:-0.880239 52:-0.894631 53:-0.644689 54:-0.70017 55:-0.708858 56:-0.642699 57:-0.6346 58:-0.927046 59:-0.855485 60:-0.682703 61:-0.980599 62:-0.652768 63:-0.715903 64:-0.816065 65:-0.930655 66:-0.761798 67:-0.507965 68:-0.720043 69:-0.882524 70:-0.787136 71:-0.647169 72:-0.738216 73:-0.86196 74:-0.657855 75:-0.850569 76:-0.99636 77:-0.837759 78:-0.888575 79:-0.64968 80:-0.726878 81:-0.534495 82:-0.83126 83:-0.908197 84:-0.852868 85:-0.840612 86:-0.717893 87:-0.376078 88:-0.829262 89:-0.741157 90:-0.817562 91:-0.91759 92:-0.846344 93:-0.686637 94:-0.36327 95:-0.855532 96:-0.574012 97:-0.786052 98:-0.94969 99:-0.918641 100:-0.514265 101:-0.734207 102:-0.710902 103:-0.65679 104:-0.734813 105:-0.884292 106:-0.51048 107:-0.479271 108:-0.833855 109:-0.788907 110:-0.600413 111:-0.443486 112:-0.537333 113:-0.568446 114:-0.507611 115:-0.973248 116:-0.857598 117:-0.672328 118:-0.799914 119:-0.401325 120:-0.741353 121:-0.707854 122:-0.825976 123:-0.689248 124:-0.738019 125:-0.630751 126:-0.714138 127:-0.487953 128:-0.863104 129:-0.77133 130:-0.548116 131:-0.462345 132:-0.30836 133:-0.0449344 134:-0.564731 135:0.287241 136:-0.0449344 137:0.647091 138:-0.252552 139:-0.516517 140:0.168106 141:-0.0164996 142:0.298472 143:-0.730769 144:-0.730769 145:-0.730769 146:-0.730769 147:-0.730769 148:-0.730769 149:-0.62963 150:-0.607143 151:-0.607143 152:-0.792654 153:-0.766932 154:-0.542858 155:-0.705883 156:-0.705883 157:-0.565218 158:-0.545454 159:-0.52381 160:-0.444444 161:-0.529412 162:-0.384616 163:-0.333331 164:-0.333331 165:-0.272726 166:-0.272726 167:-0.272726 168:-0.454544 169:-0.454544 170:-0.4 171:-0.333335 172:-1 173:-1 174:-1 175:-1 176:-0.730769 177:-0.730769 178:-0.730769 179:-0.730769 180:-0.730769 181:-0.730769 182:-0.62963 183:-0.607143 184:-0.607143 
0.2052473353475833 -0.2580926456703624 -0 1:-0.392164 2:0.0733579 3:0.0684073 4:-0.366196 5:-0.613305 6:0.439817 7:0.156302 8:0.145102 9:0.168523 10:-0.485714 11:-0.588235 12:-0.647059 13:-0.565217 14:-0.545455 15:-0.52381 16:-0.444444 17:-0.529412 18:-0.384615 19:-0.333333 20:-0.333333 21:-0.272727 22:-0.272727 23:-0.454545 24:-0.454545 25:-0.454545 26:-0.4 27:-0.333333 28:-0.333333 29:-1 30:-1 31:-1 32:-0.284111 33:-0.0367482 34:-0.522194 35:-0.900351 36:-0.812519 37:-0.793379 38:-0.887098 39:-0.826764 40:-0.540348 41:-0.81681 42:-0.711697 43:-0.921185 44:-0.769821 45:-0.738782 46:-0.375322 47:-0.631972 48:-0.844047 49:-0.863138 50:-0.882561 51:-0.930234 52:-0.950019 53:-0.464856 54:-0.797869 55:-0.727634 56:-0.737082 57:-0.688586 58:-0.885814 59:-0.772516 60:-0.793805 61:-0.617958 62:-0.649644 63:-0.844797 64:-0.813215 65:-0.432942 66:-0.891598 67:-0.724272 68:-0.753027 69:-0.799723 70:-0.985872 71:-0.834188 72:-0.741385 73:-0.590404 74:-0.907438 75:-0.880201 76:-0.883601 77:-0.833662 78:-0.890199 79:-0.548371 80:-0.60936 81:-0.83246 82:-0.775017 83:-0.895979 84:-0.775211 85:-0.781821 86:-0.387361 87:-0.790261 88:-0.962847 89:-0.766643 90:-0.709126 91:-0.899615 92:-0.587912 93:-0.782513 94:-0.732374 95:-0.813545 96:-0.841777 97:-0.942193 98:-0.807328 99:-0.672048 100:-0.739107 101:-0.764102 102:-0.769465 103:-0.903821 104:-0.848394 105:-0.633141 106:-0.62993 107:-0.679336 108:-0.732 109:-0.499992 110:-0.514122 111:-0.787519 112:-0.416624 113:-0.881549 114:-0.651193 115:-0.774562 116:-0.707936 117:-0.443379 118:-0.87611 119:-0.712769 120:-0.65888 121:-0.541996 122:-0.696842 123:-0.660134 124:-0.583992 125:-0.747232 126:-0.486102 127:-0.740346 128:-0.69725 129:-0.888808 130:-0.586765 131:-0.424737 132:-0.303699 133:-0.0772573 134:-0.546384 135:0.257203 136:-0.0772573 137:0.539489 138:-0.128532 139:-0.523017 140:0.188437 141:0.023892 142:0.252055 143:-0.653846 144:-0.653846 145:-0.653846 146:-0.653846 147:-0.615385 148:-0.576923 149:-0.481481 150:-0.464286 151:-0.428571 152:-0.784815 153:-0.767704 154:-0.485713 155:-0.588236 156:-0.647059 157:-0.565218 158:-0.545454 159:-0.52381 160:-0.444444 161:-0.529412 162:-0.384616 163:-0.333331 164:-0.333331 165:-0.272726 166:-0.272726 167:-0.454544 168:-0.454544 169:-0.454544 170:-0.4 171:-0.333335 172:-0.333333 173:-1 174:-1 175:-1 176:-0.653845 177:-0.653845 178:-0.653845 179:-0.653845 180:-0.615384 181:-0.576924 182:-0.481482 183:-0.464286 184:-0.42857 
1.200670348477458 -1.212392156819668 -0 1:-0.220278 2:0.211937 3:0.317934 4:-0.187354 5:-0.601583 6:0.605873 7:0.352421 8:0.257109 9:0.187119 10:-0.428571 11:-0.470588 12:-0.529412 13:-0.391304 14:-0.363636 15:-0.333333 16:-0.222222 17:-0.294118 18:-0.0769231 20:-0.166667 21:-0.0909091 22:-0.0909091 23:-0.272727 24:-0.272727 25:-0.272727 26:-0.4 27:-0.333333 28:-0.333333 29:-1 30:-1 31:-1 32:-0.339365 33:-0.693248 34:-0.221458 35:-0.675016 36:-0.784795 37:-0.981129 38:-0.933972 39:-0.800211 40:-0.753333 41:-0.92264 42:-0.470164 43:-0.703695 44:-0.854917 45:-0.85724 46:-0.763264 47:-0.686582 48:-0.887553 49:-0.710073 50:-0.694786 51:-0.657271 52:-0.955648 53:-0.903186 54:-0.844852 55:-0.849936 56:-0.844038 57:-0.352592 58:-0.83022 59:-0.80518 60:-0.84661 61:-0.829209 62:-0.793468 63:-0.898739 64:-0.878713 65:-0.473965 66:-0.720254 67:-0.666318 68:-0.513805 69:-0.919951 70:-0.867541 71:-0.579563 72:-0.755941 73:-0.734043 74:-0.805562 75:-0.665664 76:-0.65804 77:-0.73571 78:-0.864056 79:-0.735614 80:-0.953764 81:-0.820063 82:-0.752738 83:-0.7942 84:-0.556279 85:-0.794514 86:-0.929557 87:-0.891381 88:-0.778268 89:-0.543751 90:-0.745583 91:-0.83073 92:-0.345865 93:-0.74933 94:-0.860976 95:-0.845603 96:-0.703485 97:-0.836489 98:-0.981213 99:-0.673223 100:-0.584231 101:-0.816551 102:-0.506025 103:-0.677222 104:-0.841522 105:-0.894516 106:-0.763704 107:-0.380843 108:-0.670129 109:-0.477047 110:-0.486036 111:-0.792194 112:-0.682021 113:-0.627397 114:-0.881155 115:-0.797549 116:-0.73947 117:-0.752352 118:-0.819034 119:-0.675619 120:-0.546496 121:-0.508918 122:-0.724395 123:-0.73607 124:-0.650953 125:-0.57947 126:-0.736388 127:-0.968596 128:-0.559479 129:-0.834462 130:-0.390193 131:-0.224641 132:0.0576877 133:0.15425 134:-0.669605 135:0.458976 136:0.15425 137:0.60545 138:-0.234359 139:-0.444382 140:0.428441 141:-0.0437885 142:0.0818883 143:-0.769231 144:-0.730769 145:-0.730769 146:-0.692308 147:-0.653846 148:-0.615385 149:-0.555556 150:-0.571429 151:-0.571429 152:-0.836143 153:-0.860665 154:-0.428571 155:-0.470587 156:-0.529413 157:-0.391305 158:-0.363636 159:-0.333333 160:-0.222222 161:-0.294118 162:-0.0769246 163:2.27001e-06 164:-0.166665 165:-0.0909086 166:-0.0909086 167:-0.272726 168:-0.272726 169:-0.272726 170:-0.4 171:-0.333335 172:-0.333333 173:-1 174:-1 175:-1 176:-0.769231 177:-0.730769 178:-0.730769 179:-0.692308 180:-0.653845 181:-0.615384 182:-0.555557 183:-0.57143 184:-0.57143 
0.1609973695295021 -0.1076376368238821 -0.03748671946255622 1:-0.0369189 2:0.415987 3:0.36371 4:-0.00595483 5:-0.505804 6:0.631736 7:0.405372 8:0.301455 9:0.298261 10:-0.371429 11:-0.411765 12:-0.411765 13:-0.217391 14:-0.181818 15:-0.142857 17:-0.0588235 18:0.230769 19:0.333333 20:0.333333 21:0.454545 22:0.454545 23:0.272727 24:0.0909091 25:-0.0909091 26:-0.4 27:-0.333333 28:-1 29:-1 30:-1 31:-1 32:-0.774957 33:-0.68238 34:-0.576621 35:-0.259223 36:-0.463533 37:-0.795862 38:-0.987919 39:-0.971775 40:-0.951999 41:-0.673882 42:-0.842526 43:-0.751084 44:-0.541579 45:-0.641732 46:-0.48983 47:-0.603754 48:-0.910221 49:-0.858612 50:-0.914519 51:-0.607941 52:-0.86779 53:-0.689848 54:-0.726273 55:-0.888194 56:-0.567152 57:-0.722468 58:-0.923895 59:-0.806223 60:-0.907124 61:-0.70278 62:-0.743311 63:-0.525172 64:-0.856643 65:-0.981981 66:-0.583436 67:-0.655147 68:-0.658924 69:-0.911959 70:-0.971912 71:-0.663325 72:-0.798079 73:-0.505007 74:-0.742037 75:-0.562458 76:-0.774847 77:-0.75689 78:-0.857744 79:-0.706822 80:-0.785406 81:-0.856257 82:-0.920341 83:-0.750989 84:-0.619205 85:-0.541018 86:-0.820013 87:-0.886668 88:-0.851255 89:-0.588987 90:-0.590588 91:-0.809231 92:-0.828198 93:-0.891354 94:-0.505602 95:-0.562337 96:-0.860099 97:-0.94123 98:-0.92736 99:-0.885175 100:-0.889257 101:-0.477391 102:-0.557884 103:-0.719269 104:-0.752069 105:-0.261593 106:-0.798566 107:-0.807085 108:-0.933541 109:-0.792197 110:-0.900028 111:-0.27272 112:-0.627873 113:-0.22444 114:-0.950031 115:-0.621251 116:-0.968907 117:-0.652502 118:-0.910068 119:-0.950888 120:-0.831985 121:-0.874712 122:-0.717655 123:0.0835363 124:-0.861742 125:-0.899146 126:-0.85183 127:-0.732644 128:-0.785547 129:-0.905647 130:-0.562408 131:0.0561596 132:-0.0207037 133:-0.143634 134:-0.507438 135:0.193421 136:-0.143634 137:0.629045 138:-0.221207 139:-0.428135 140:0.500772 141:0.0463264 142:0.25311 143:-0.769231 144:-0.692308 145:-0.692308 146:-0.692308 147:-0.653846 148:-0.653846 149:-0.592593 150:-0.607143 151:-0.571429 152:-0.890047 153:-0.876309 154:-0.371429 155:-0.411764 156:-0.411764 157:-0.21739 158:-0.181815 159:-0.142854 160:3.78334e-06 161:-0.0588264 162:0.230764 163:0.333333 164:0.333333 165:0.454543 166:0.454543 167:0.272728 168:0.0909099 169:-0.0909086 170:-0.4 171:-0.333335 172:-1 173:-1 174:-1 175:-1 176:-0.769231 177:-0.692308 178:-0.692308 179:-0.692308 180:-0.653845 181:-0.653845 182:-0.592593 183:-0.607143 184:-0.57143 
0.2220473981343392 -0.2586296391026247 -0 1:-0.326722 2:0.127124 3:0.244431 4:-0.294426 5:-0.642113 6:0.529189 7:0.334382 8:0.229583 9:0.26609 10:-0.542857 11:-0.588235 12:-0.588235 13:-0.478261 14:-0.454545 15:-0.428571 16:-0.333333 17:-0.294118 18:-0.0769231 21:-0.0909091 22:-0.0909091 23:-0.272727 24:-0.454545 25:-0.636364 26:-0.6 27:-0.555556 28:-1 29:-1 30:-1 31:-1 32:-0.456931 33:-0.355928 34:-0.509551 35:-0.671362 36:-0.708345 37:-0.864781 38:-0.87472 39:-0.797542 40:-0.774303 41:-0.745893 42:-0.697061 43:-0.898897 44:-0.869432 45:-0.697636 46:-0.655295 47:-0.602123 48:-0.872329 49:-0.840002 50:-0.731887 51:-0.929284 52:-0.91931 53:-0.801542 54:-0.719254 55:-0.808272 56:-0.832703 57:-0.900828 58:-0.914172 59:-0.771907 60:-0.799238 61:-0.597888 62:-0.729124 63:-0.995796 64:-0.844105 65:-0.954101 66:-0.974766 67:-0.863677 68:-0.842299 69:-0.658502 70:-0.931965 71:-0.340978 72:-0.849533 73:-0.964508 74:-0.819707 75:-0.85229 76:-0.905682 77:-0.943858 78:-0.848291 79:-0.786115 80:-0.801699 81:-0.904326 82:-0.801876 83:-0.865632 84:-0.652722 85:-0.695033 86:-0.726886 87:-0.745492 88:-0.913186 89:-0.813965 90:-0.835589 91:-0.745432 92:-0.870041 93:-0.8412 94:-0.692299 95:-0.914046 96:-0.753817 97:-0.769555 98:-0.66835 99:-0.721982 100:-0.703787 101:-0.746107 102:-0.982755 103:-0.791008 104:-0.781138 105:-0.805237 106:-0.569216 107:-0.708909 108:-0.865503 109:-0.620771 110:-0.467498 111:-0.487352 112:-0.850437 113:-0.890688 114:-0.586135 115:-0.774775 116:-0.528675 117:-0.656706 118:-0.839913 119:-0.99913 120:-0.769853 121:-0.537569 122:-0.884877 123:-0.476604 124:-0.936564 125:-0.284138 126:-0.598311 127:-0.571732 128:-0.779164 129:-0.645072 130:-0.775609 131:-0.174148 132:-0.119143 133:-0.0798011 134:-0.544924 135:0.254809 136:-0.0798011 137:0.491755 138:-0.0457322 139:-0.466766 140:0.432653 141:-0.0273475 142:0.213932 143:-0.615385 144:-0.538462 145:-0.538462 146:-0.538462 147:-0.5 148:-0.461538 149:-0.481481 150:-0.5 151:-0.464286 152:-0.794949 153:-0.855919 154:-0.542858 155:-0.588236 156:-0.588236 157:-0.478262 158:-0.454545 159:-0.428572 160:-0.333333 161:-0.294118 162:-0.0769246 163:2.27001e-06 164:2.27001e-06 165:-0.0909086 166:-0.0909086 167:-0.272726 168:-0.454544 169:-0.636363 170:-0.6 171:-0.555557 172:-1 173:-1 174:-1 175:-1 176:-0.615384 177:-0.538463 178:-0.538463 179:-0.538463 180:-0.499999 181:-0.461539 182:-0.481482 183:-0.5 184:-0.464286 
0.1551669955040114 -0.1730424387790956 -0 1:-0.1352 2:0.273146 3:0.183815 4:-0.0803006 5:-0.460368 6:0.497483 7:0.292318 8:0.176234 9:-0.00115877 10:-0.371429 11:-0.411765 12:-0.470588 13:-0.304348 14:-0.272727 15:-0.238095 16:-0.222222 17:-0.176471 18:0.0769231 19:0.166667 21:0.0909091 22:0.0909091 23:-0.272727 24:-0.272727 25:-0.454545 26:-0.4 27:-0.333333 28:-1 29:-1 30:-1 31:-1 32:-0.592936 33:-0.932808 34:-0.611742 35:-0.273399 36:-0.775061 37:-0.845574 38:-0.803408 39:-0.899172 40:-0.81317 41:-0.79465 42:-0.675101 43:-0.934743 44:-0.396007 45:-0.728603 46:-0.931745 47:-0.761617 48:-0.792242 49:-0.640575 50:-0.861627 51:-0.696418 52:-0.976769 53:-0.698132 54:-0.745901 55:-0.805614 56:-0.65513 57:-0.518372 58:-0.840549 59:-0.959793 60:-0.85062 61:-0.639703 62:-0.509364 63:-0.856816 64:-0.811549 65:-0.78057 66:-0.97693 67:-0.587569 68:-0.641598 69:-0.874129 70:-0.683655 71:-0.522495 72:-0.946508 73:-0.794537 74:-0.832431 75:-0.712457 76:-0.592463 77:-0.834705 78:-0.967868 79:-0.772235 80:-0.758078 81:-0.5897 82:-0.944982 83:-0.873842 84:-0.938542 85:-0.862218 86:-0.567668 87:-0.518097 88:-0.680145 89:-0.895401 90:-0.536218 91:-0.766239 92:-0.757677 93:-0.825129 94:-0.758071 95:-0.800491 96:-0.873662 97:-0.838391 98:-0.967357 99:-0.502093 100:-0.566356 101:-0.876427 102:-0.681083 103:-0.805584 104:-0.859258 105:-0.798068 106:-0.650533 107:-0.538016 108:-0.246915 109:-0.625299 110:-0.87618 111:-0.575178 112:-0.580925 113:-0.676493 114:-0.564177 115:-0.775924 116:-0.681767 117:-0.292167 118:-0.84156 119:-0.82351 120:-0.926245 121:-0.807063 122:-0.644668 123:-0.828824 124:-0.25516 125:-0.398813 126:-0.408911 127:-0.745453 128:-0.681629 129:-0.835214 130:-0.796008 131:0.0463716 132:0.0341936 133:-0.0892878 134:-0.539456 135:0.245852 136:-0.0892878 137:0.538711 138:-0.129523 139:-0.4931 140:0.359964 141:-0.20663 142:-0.201388 143:-0.692308 144:-0.615385 145:-0.615385 146:-0.615385 147:-0.576923 148:-0.576923 149:-0.555556 150:-0.535714 151:-0.535714 152:-0.889104 153:-0.840532 154:-0.371429 155:-0.411764 156:-0.470587 157:-0.30435 158:-0.272728 159:-0.238097 160:-0.222222 161:-0.176471 162:0.0769215 163:0.16667 164:2.27001e-06 165:0.0909099 166:0.0909099 167:-0.272726 168:-0.272726 169:-0.454544 170:-0.4 171:-0.333335 172:-1 173:-1 174:-1 175:-1 176:-0.692308 177:-0.615384 178:-0.615384 179:-0.615384 180:-0.576924 181:-0.576924 182:-0.555557 183:-0.535714 184:-0.535714 
2.096906425371964 -2.095187020527273 -0 1:-0.274676 2:0.111783 3:0.240332 4:-0.215524 5:-0.585752 6:0.499198 7:0.36828 8:0.194645 9:0.135938 10:-0.371429 11:-0.470588 12:-0.529412 13:-0.391304 14:-0.363636 15:-0.333333 16:-0.222222 17:-0.294118 18:-0.0769231 20:-0.166667 21:-0.0909091 22:-0.0909091 23:-0.454545 24:-0.454545 25:-0.454545 26:-0.8 27:-0.777778 28:-1 29:-1 30:-1 31:-1 32:-0.889544 33:-0.676849 34:-0.811467 35:-0.52356 36:-0.700227 37:-0.939831 38:-0.918297 39:-0.873135 40:-0.93516 41:-0.765047 42:-0.897316 43:-0.803212 44:-0.672247 45:-0.716135 46:-0.817079 47:-0.911669 48:-0.837102 49:-0.971147 50:-0.771781 51:-0.86275 52:-0.891988 53:-0.967876 54:-0.92453 55:-0.70268 56:-0.921729 57:-0.815012 58:-0.917877 59:-0.883607 60:-0.843921 61:-0.641757 62:-0.818471 63:-0.939084 64:-0.790722 65:-0.917575 66:-0.829864 67:-0.743899 68:-0.751931 69:-0.821828 70:-0.792213 71:-0.960833 72:-0.872398 73:-0.955421 74:-0.917896 75:-0.690141 76:-0.849137 77:-0.853453 78:-0.865853 79:-0.924729 80:-0.854344 81:-0.749531 82:-0.960739 83:-0.931447 84:-0.759326 85:-0.877173 86:-0.626817 87:-0.674545 88:-0.873499 89:-0.875855 90:-0.765145 91:-0.81027 92:-0.86367 93:-0.891666 94:-0.949355 95:-0.925053 96:-0.946429 97:-0.820429 98:-0.634238 99:-0.930712 100:-0.640788 101:-0.843191 102:-0.843234 103:-0.889747 104:-0.955891 105:-0.746902 106:-0.735781 107:-0.396005 108:-0.830989 109:-0.920167 110:-0.706178 111:-0.681104 112:-0.798103 113:-0.815923 114:-0.907767 115:-0.762437 116:-0.890375 117:-0.857437 118:-0.882697 119:-0.706401 120:-0.947126 121:-0.833688 122:-0.644984 123:-0.570649 124:-0.825877 125:-0.589254 126:-0.859974 127:-0.737002 128:-0.724488 129:-0.895556 130:-0.792039 131:0.276358 132:0.344694 133:0.0175609 134:-0.599099 135:0.343525 136:0.0175609 137:0.603531 138:-0.205074 139:-0.460824 140:0.514383 141:-0.179198 142:-0.0515051 143:-0.769231 144:-0.692308 145:-0.692308 146:-0.653846 147:-0.615385 148:-0.576923 149:-0.592593 150:-0.571429 151:-0.571429 152:-0.835152 153:-0.872595 154:-0.371429 155:-0.470587 156:-0.529413 157:-0.391305 158:-0.363636 159:-0.333333 160:-0.222222 161:-0.294118 162:-0.0769246 163:2.27001e-06 164:-0.166665 165:-0.0909086 166:-0.0909086 167:-0.454544 168:-0.454544 169:-0.454544 170:-0.8 171:-0.777778 172:-1 173:-1 174:-1 175:-1 176:-0.769231 177:-0.692308 178:-0.692308 179:-0.653845 180:-0.615384 181:-0.576924 182:-0.592593 183:-0.57143 184:-0.57143 
0.3734037698861059 -0.409321039754124 -0 1:-0.124638 2:0.225011 3:0.28792 4:-0.0931615 5:-0.525458 6:0.541012 7:0.394763 8:0.206013 9:0.227563 10:-0.257143 11:-0.235294 12:-0.352941 13:-0.217391 14:-0.181818 15:-0.238095 16:-0.222222 17:-0.176471 18:0.0769231 19:0.166667 20:-0.166667 21:-0.0909091 22:-0.0909091 23:-0.272727 24:-0.272727 25:-0.454545 26:-0.4 27:-0.555556 28:-1 29:-1 30:-1 31:-1 32:-0.621793 33:-0.888509 34:-0.738815 35:-0.168193 36:-0.800129 37:-0.874431 38:-0.869726 39:-0.937324 40:-0.811996 41:-0.905706 42:-0.983109 43:-0.679923 44:-0.290551 45:-0.76693 46:-0.726497 47:-0.727272 48:-0.902543 49:-0.938268 50:-0.698523 51:-0.861534 52:-0.776516 53:-0.664041 54:-0.856826 55:-0.507974 56:-0.759825 57:-0.686163 58:-0.878305 59:-0.867534 60:-0.95659 61:-0.635221 62:-0.692786 63:-0.744347 64:-0.777138 65:-0.95092 66:-0.796038 67:-0.723297 68:-0.569953 69:-0.892649 70:-0.866021 71:-0.497412 72:-0.547846 73:-0.858228 74:-0.779944 75:-0.832549 76:-0.879215 77:-0.853394 78:-0.927084 79:-0.859865 80:-0.678469 81:-0.740439 82:-0.78104 83:-0.751168 84:-0.811147 85:-0.87271 86:-0.897383 87:-0.676813 88:-0.761701 89:-0.67993 90:-0.649985 91:-0.871964 92:-0.522103 93:-0.830991 94:-0.696493 95:-0.955871 96:-0.850848 97:-0.825537 98:-0.761647 99:-0.761275 100:-0.604672 101:-0.493041 102:-0.920331 103:-0.961871 104:-0.965886 105:-0.636414 106:-0.650226 107:-0.404844 108:-0.748914 109:-0.731277 110:-0.408679 111:-0.38751 112:-0.765718 113:-0.911349 114:-0.64011 115:-0.882845 116:-0.766589 117:-0.876211 118:-0.910607 119:-0.303607 120:-0.812261 121:-0.622859 122:-0.548217 123:-0.570133 124:-0.76118 125:-0.655719 126:-0.67807 127:-0.875917 128:-0.567847 129:-0.662633 130:-0.696739 131:0.0726305 132:-0.0613738 133:-0.188679 134:-0.479974 135:0.148448 136:-0.188679 137:0.281866 138:0.142187 139:-0.435274 140:0.557586 141:-0.00463654 142:0.221234 143:-0.423077 144:-0.384615 145:-0.384615 146:-0.307692 147:-0.307692 148:-0.269231 149:-0.259259 150:-0.285714 151:-0.25 152:-0.873719 153:-0.897465 154:-0.257142 155:-0.235293 156:-0.352942 157:-0.21739 158:-0.181815 159:-0.238097 160:-0.222222 161:-0.176471 162:0.0769215 163:0.16667 164:-0.166665 165:-0.0909086 166:-0.0909086 167:-0.272726 168:-0.272726 169:-0.454544 170:-0.4 171:-0.555557 172:-1 173:-1 174:-1 175:-1 176:-0.423078 177:-0.384614 178:-0.384614 179:-0.307693 180:-0.307693 181:-0.269232 182:-0.259259 183:-0.285714 184:-0.25 
1.920465795550724 -1.913118661056659 -0 1:-0.15743 2:0.212904 3:0.37547 4:-0.12201 5:-0.584313 6:0.587343 7:0.465614 8:0.239077 9:0.251807 10:-0.257143 11:-0.294118 12:-0.352941 13:-0.130435 14:-0.272727 15:-0.333333 16:-0.222222 17:-0.294118 18:-0.0769231 20:-0.166667 21:-0.0909091 22:-0.0909091 23:-0.0909091 24:-0.0909091 25:-0.272727 26:-0.4 27:-1 28:-1 29:-1 30:-1 31:-1 32:-0.566544 33:-0.883515 34:-0.686509 35:-0.316279 36:-0.803364 37:-0.833984 38:-0.800841 39:-0.935056 40:-0.730852 41:-0.7587 42:-0.896283 43:-0.786077 44:-0.731465 45:-0.355746 46:-0.6756 47:-0.724528 48:-0.789866 49:-0.871513 50:-0.805381 51:-0.945859 52:-0.781389 53:-0.821457 54:-0.674286 55:-0.798936 56:-0.824994 57:-0.641539 58:-0.911353 59:-0.763409 60:-0.826024 61:-0.81196 62:-0.398564 63:-0.99128 64:-0.780448 65:-0.816948 66:-0.924704 67:-0.873729 68:-0.722182 69:-0.880466 70:-0.847831 71:-0.693682 72:-0.819226 73:-0.77001 74:-0.907766 75:-0.802806 76:-0.802882 77:-0.636491 78:-0.863669 79:-0.891047 80:-0.853971 81:-0.582555 82:-0.826797 83:-0.811081 84:-0.834235 85:-0.588457 86:-0.427702 87:-0.890581 88:-0.834171 89:-0.544696 90:-0.815932 91:-0.757927 92:-0.68528 93:-0.733997 94:-0.602745 95:-0.795651 96:-0.793387 97:-0.715973 98:-0.859368 99:-0.893335 100:-0.475031 101:-0.619712 102:-0.792429 103:-0.991247 104:-0.857182 105:-0.649826 106:-0.537963 107:-0.685574 108:-0.845073 109:-0.663811 110:-0.531885 111:-0.59857 112:-0.861682 113:-0.470132 114:-0.48383 115:-0.83501 116:-0.83362 117:-0.585586 118:-0.853421 119:-0.763941 120:-0.699453 121:-0.600276 122:-0.27218 123:-0.565183 124:-0.851752 125:-0.611272 126:-0.631921 127:-0.935324 128:-0.59 129:-0.859321 130:-0.966854 131:0.123899 132:-0.0069709 133:-0.171342 134:-0.490638 135:0.165924 136:-0.171342 137:0.555538 138:-0.164382 139:-0.382401 140:0.707143 141:-0.0458611 142:0.167899 143:-0.730769 144:-0.730769 145:-0.730769 146:-0.615385 147:-0.538462 148:-0.5 149:-0.481481 150:-0.5 151:-0.428571 152:-0.853965 153:-0.920474 154:-0.257142 155:-0.29412 156:-0.352942 157:-0.130435 158:-0.272728 159:-0.333333 160:-0.222222 161:-0.294118 162:-0.0769246 163:2.27001e-06 164:-0.166665 165:-0.0909086 166:-0.0909086 167:-0.0909086 168:-0.0909086 169:-0.272726 170:-0.4 171:-1 172:-1 173:-1 174:-1 175:-1 176:-0.730769 177:-0.730769 178:-0.730769 179:-0.615384 180:-0.538463 181:-0.499999 182:-0.481482 183:-0.5 184:-0.42857 
2.872865263125186 -2.879779681251128 -0 1:-0.218598 2:0.062769 3:0.261908 4:-0.18591 5:-0.575503 6:0.471606 7:0.43266 8:0.194664 9:0.239182 10:-0.2 11:-0.235294 12:-0.235294 13:0.0434783 14:-0.181818 15:-0.333333 16:-0.333333 17:-0.294118 18:-0.230769 19:-0.166667 20:-0.333333 21:-0.272727 22:-0.454545 23:-0.454545 24:-0.454545 25:-0.636364 26:-1 27:-1 28:-1 29:-1 30:-1 31:-1 32:-0.939958 33:-0.832707 34:-0.671872 35:-0.595827 36:-0.830533 37:-0.794678 38:-0.769397 39:-0.78394 40:-0.584638 41:-0.882625 42:-0.864852 43:-0.974515 44:-0.646162 45:-0.393548 46:-0.635685 47:-0.851937 48:-0.843762 49:-0.923625 50:-0.761878 51:-0.797732 52:-0.910783 53:-0.650723 54:-0.888458 55:-0.95194 56:-0.798522 57:-0.702456 58:-0.920163 59:-0.856099 60:-0.920457 61:-0.937623 62:-0.862084 63:-0.760736 64:-0.962796 65:-0.818721 66:-0.701159 67:-0.935299 68:-0.834554 69:-0.904795 70:-0.884662 71:-0.897038 72:-0.980649 73:-0.780897 74:-0.661155 75:-0.595242 76:-0.759805 77:-0.864435 78:-0.861451 79:-0.916825 80:-0.792427 81:-0.800148 82:-0.70306 83:-0.774088 84:-0.787633 85:-0.902539 86:-0.526364 87:-0.803567 88:-0.947743 89:-0.747583 90:-0.677769 91:-0.742873 92:-0.736438 93:-0.659505 94:-0.819889 95:-0.836353 96:-0.836773 97:-0.863095 98:-0.554018 99:-0.937585 100:-0.975847 101:-0.815955 102:-0.602264 103:-0.870585 104:-0.850359 105:-0.908157 106:-0.649542 107:-0.745194 108:-0.728426 109:-0.533623 110:-0.69975 111:-0.55898 112:-0.675383 113:-0.806016 114:-0.71484 115:-0.900799 116:-0.729468 117:-0.589382 118:-0.927881 119:-0.830404 120:-0.85865 121:-0.826194 122:-0.905207 123:-0.839115 124:-0.440259 125:-0.497474 126:-0.807068 127:-0.600303 128:-0.634381 129:-0.76417 130:-0.822755 131:0.198598 132:0.303012 133:0.0352892 134:-0.608601 135:0.359076 136:0.0352892 137:0.237788 138:0.170207 139:-0.404971 140:0.738236 141:-0.0907819 142:0.151705 143:-0.423077 144:-0.423077 145:-0.346154 146:-0.269231 147:-0.230769 148:-0.153846 149:-0.148148 150:-0.178571 151:-0.178571 152:-0.84445 153:-0.915577 154:-0.2 155:-0.235293 156:-0.235293 157:0.0434744 158:-0.181815 159:-0.333333 160:-0.333333 161:-0.294118 162:-0.230771 163:-0.166665 164:-0.333331 165:-0.272726 166:-0.454544 167:-0.454544 168:-0.454544 169:-0.636363 170:-1 171:-1 172:-1 173:-1 174:-1 175:-1 176:-0.423078 177:-0.423078 178:-0.346154 179:-0.269232 180:-0.230769 181:-0.153847 182:-0.148148 183:-0.17857 184:-0.17857 
1.348488547070421 -1.364258375635534 -0 1:0.0203119 2:0.376069 3:0.274472 4:0.0722053 5:-0.407147 6:0.503967 7:0.435757 8:0.176944 9:0.201637 10:-0.257143 11:-0.294118 12:-0.294118 13:-0.0434783 15:0.047619 17:0.0588235 18:0.384615 19:0.5 20:0.5 21:0.454545 22:0.272727 23:-0.0909091 24:-0.0909091 25:-0.272727 26:-0.6 27:-1 28:-1 29:-1 30:-1 31:-1 32:-0.924699 33:-0.683435 34:-0.863389 35:-0.618297 36:-0.176419 37:-0.569131 38:-0.725412 39:-0.854026 40:-0.720371 41:-0.740709 42:-0.68523 43:-0.807077 44:-0.562021 45:-0.924079 46:-0.610554 47:-0.755658 48:-0.55926 49:-0.866136 50:-0.385056 51:-0.674175 52:-0.882943 53:-0.895336 54:-0.966331 55:-0.73198 56:-0.643827 57:-0.688837 58:-0.794241 59:-0.471179 60:-0.875743 61:-0.913683 62:-0.436854 63:-0.799091 64:-0.888195 65:-0.750483 66:-0.782243 67:-0.608708 68:-0.252288 69:-0.840725 70:-0.907753 71:-0.510533 72:-0.64739 73:-0.625819 74:-0.896482 75:-0.681122 76:-0.87249 77:-0.913095 78:-0.855089 79:-0.935821 80:-0.589092 81:-0.84116 82:-0.540329 83:-0.767476 84:-0.795845 85:-0.913314 86:-0.900844 87:-0.478757 88:-0.828934 89:-0.508198 90:-0.826367 91:-0.928176 92:-0.577304 93:-0.860582 94:-0.321045 95:-0.751687 96:-0.620994 97:-0.80171 98:-0.875847 99:-0.883283 100:-0.91558 101:-0.675917 102:-0.64768 103:-0.688381 104:-0.955775 105:-0.277387 106:-0.406014 107:-0.298152 108:-0.646425 109:-0.379966 110:-0.675793 111:-0.673645 112:-0.810635 113:-0.864307 114:-0.622506 115:-0.669541 116:-0.712917 117:-0.675162 118:-0.734365 119:-0.82452 120:-0.833237 121:-0.958148 122:-0.479255 123:-0.34457 124:-0.620011 125:-0.887062 126:-0.490321 127:-0.445602 128:-0.703571 129:-0.773898 130:-0.870013 131:0.304874 132:-0.089722 133:-0.323198 134:-0.392556 135:0.00530874 136:-0.323198 137:0.368025 138:0.0645368 139:-0.396644 140:0.724828 141:-0.199615 142:0.010546 143:-0.5 144:-0.5 145:-0.461538 146:-0.423077 147:-0.384615 148:-0.346154 149:-0.37037 150:-0.357143 151:-0.321429 152:-0.915337 153:-0.927181 154:-0.257142 155:-0.29412 156:-0.29412 157:-0.0434803 159:0.0476181 160:3.78334e-06 161:0.0588264 162:0.384618 163:0.500009 164:0.500009 165:0.454543 166:0.272728 167:-0.0909086 168:-0.0909086 169:-0.272726 170:-0.6 171:-1 172:-1 173:-1 174:-1 175:-1 176:-0.499999 177:-0.499999 178:-0.461539 179:-0.423078 180:-0.384614 181:-0.346154 182:-0.37037 183:-0.357143 184:-0.32143 
2.11933221905622 -2.121925798188045 -0 1:0.00029028 2:0.336708 3:0.0498122 4:0.0498276 5:-0.26704 6:0.325558 7:0.305775 8:0.0892358 9:-0.00813606 10:-0.257143 11:-0.235294 12:-0.235294 13:0.130435 14:0.0909091 15:-0.047619 17:0.0588235 18:0.384615 19:0.5 20:0.5 21:0.454545 22:-0.0909091 23:-0.0909091 24:-0.0909091 25:-0.272727 26:-1 27:-1 28:-1 29:-1 30:-1 31:-1 32:-0.619414 33:-0.955669 34:-0.631578 35:-0.869041 36:-0.401031 37:-0.346342 38:-0.722818 39:-0.753426 40:-0.939562 41:-0.944918 42:-0.904605 43:-0.897978 44:-0.680243 45:-0.660408 46:-0.628442 47:-0.667645 48:-0.414842 49:-0.686878 50:-0.715109 51:-0.726999 52:-0.872995 53:-0.883537 54:-0.775656 55:-0.513784 56:-0.829181 57:-0.728832 58:-0.77144 59:-0.839797 60:-0.740495 61:-0.625709 62:-0.853029 63:-0.893766 64:-0.794968 65:-0.918116 66:-0.894719 67:-0.773808 68:-0.664183 69:-0.551077 70:-0.56052 71:-0.702209 72:-0.610169 73:-0.865827 74:-0.944883 75:-0.780254 76:-0.69874 77:-0.771622 78:-0.854974 79:-0.714099 80:-0.817508 81:-0.715226 82:-0.744395 83:-0.41171 84:-0.789315 85:-0.835127 86:-0.841531 87:-0.343046 88:-0.594247 89:-0.809343 90:-0.645115 91:-0.947794 92:-0.754235 93:-0.850814 94:-0.590029 95:-0.612461 96:-0.604928 97:-0.794791 98:-0.936182 99:-0.666361 100:-0.923949 101:-0.660785 102:-0.585441 103:-0.696451 104:-0.814088 105:-0.801949 106:-0.36223 107:-0.26442 108:-0.671513 109:-0.863618 110:-0.687826 111:-0.41468 112:-0.833904 113:-0.81191 114:-0.81909 115:-0.847282 116:-0.265605 117:-0.692819 118:-0.67744 119:-0.658418 120:-0.542685 121:-0.59612 122:-0.479424 123:-0.626034 124:-0.551395 125:-0.572802 126:-0.825924 127:-0.69896 128:-0.175904 129:-0.727764 130:-0.475612 131:0.155967 132:0.0292274 133:-0.159322 134:-0.497962 135:0.177917 136:-0.159322 137:0.225679 138:0.215357 139:-0.456975 140:0.616477 141:-0.389369 142:-0.312564 143:-0.307692 144:-0.307692 145:-0.269231 146:-0.269231 147:-0.269231 148:-0.192308 149:-0.222222 150:-0.25 151:-0.214286 152:-0.930479 153:-0.903222 154:-0.257142 155:-0.235293 156:-0.235293 157:0.130435 158:0.0909074 159:-0.0476181 160:3.78334e-06 161:0.0588264 162:0.384618 163:0.500009 164:0.500009 165:0.454543 166:-0.0909086 167:-0.0909086 168:-0.0909086 169:-0.272726 170:-1 171:-1 172:-1 173:-1 174:-1 175:-1 176:-0.307693 177:-0.307693 178:-0.269232 179:-0.269232 180:-0.269232 181:-0.192308 182:-0.222223 183:-0.25 184:-0.214286 
2.481075450792045 -2.495899559866749 -0 1:-0.502303 2:-0.0864111 3:-0.00209132 4:-0.438063 5:-0.635696 6:0.31241 7:0.203811 8:0.0550365 9:-0.181761 10:-0.657143 11:-0.647059 12:-0.647059 13:-0.478261 14:-0.545455 15:-0.52381 16:-0.444444 17:-0.529412 18:-0.384615 19:-0.333333 20:-0.333333 21:-0.454545 22:-0.454545 23:-0.454545 24:-0.454545 25:-0.818182 26:-0.8 27:-1 28:-1 29:-1 30:-1 31:-1 32:-0.630206 33:-0.431924 34:-0.781069 35:-0.941482 36:-0.917627 37:-0.92621 38:-0.912777 39:-0.860616 40:-0.850723 41:-0.778303 42:-0.836762 43:-0.96291 44:-0.79651 45:-0.916105 46:-0.863824 47:-0.733702 48:-0.912241 49:-0.988197 50:-0.883667 51:-0.87349 52:-0.904549 53:-0.912544 54:-0.925835 55:-0.913595 56:-0.931503 57:-0.795881 58:-0.949562 59:-0.977892 60:-0.937629 61:-0.853413 62:-0.871808 63:-0.885046 64:-0.887646 65:-0.950506 66:-0.808319 67:-0.86203 68:-0.884828 69:-0.805674 70:-0.89431 71:-0.846449 72:-0.788116 73:-0.894963 74:-0.761554 75:-0.797197 76:-0.85736 77:-0.958661 78:-0.894931 79:-0.913161 80:-0.737342 81:-0.939823 82:-0.875907 83:-0.98542 84:-0.882047 85:-0.927534 86:-0.775146 87:-0.805903 88:-0.933707 89:-0.8793 90:-0.929431 91:-0.938739 92:-0.819493 93:-0.913343 94:-0.721551 95:-0.893051 96:-0.896552 97:-0.873007 98:-0.911685 99:-0.900972 100:-0.586261 101:-0.972443 102:-0.787084 103:-0.866181 104:-0.926681 105:-0.70565 106:-0.727865 107:-0.759894 108:-0.974989 109:-0.649392 110:-0.985256 111:-0.838741 112:-0.961133 113:-0.889778 114:-0.780181 115:-0.841271 116:-0.887639 117:-0.871763 118:-0.966994 119:-0.862969 120:-0.859827 121:-0.821636 122:-0.841293 123:-0.919249 124:-0.856913 125:-0.705573 126:-0.747809 127:-0.749723 128:-0.798164 129:-0.877839 130:-0.766225 131:0.259343 132:-0.153317 133:-0.35278 134:-0.372168 135:-0.0280877 136:-0.35278 137:0.736958 138:-0.354616 139:-0.487968 140:0.428944 141:-0.49981 142:-0.545086 143:-0.807692 144:-0.807692 145:-0.807692 146:-0.769231 147:-0.769231 148:-0.730769 149:-0.740741 150:-0.75 151:-0.678571 152:-0.747893 153:-0.884334 154:-0.657143 155:-0.647059 156:-0.647059 157:-0.478262 158:-0.545454 159:-0.52381 160:-0.444444 161:-0.529412 162:-0.384616 163:-0.333331 164:-0.333331 165:-0.454544 166:-0.454544 167:-0.454544 168:-0.454544 169:-0.818181 170:-0.8 171:-1 172:-1 173:-1 174:-1 175:-1 176:-0.807692 177:-0.807692 178:-0.807692 179:-0.769231 180:-0.769231 181:-0.730769 182:-0.740741 183:-0.75 184:-0.67857 
1.638333271155961 -1.662865370779645 -0 1:-0.587573 2:-0.245247 3:-0.0673237 4:-0.560473 5:-0.709659 6:0.274793 7:0.12127 8:0.0174958 9:-0.26843 10:-0.657143 11:-0.647059 12:-0.647059 13:-0.565217 14:-0.545455 15:-0.52381 16:-0.444444 17:-0.529412 18:-0.538462 19:-0.666667 20:-0.666667 21:-0.636364 22:-0.636364 23:-0.636364 24:-0.818182 25:-1 26:-1 27:-1 28:-1 29:-1 30:-1 31:-1 32:-0.243422 33:-0.122349 34:-0.634662 35:-0.863501 36:-0.910803 37:-0.846582 38:-0.906924 39:-0.746833 40:-0.932401 41:-0.913392 42:-0.783107 43:-0.774249 44:-0.950431 45:-0.81112 46:-0.709011 47:-0.753527 48:-0.92462 49:-0.929237 50:-0.908908 51:-0.894791 52:-0.874703 53:-0.786364 54:-0.985711 55:-0.871248 56:-0.76678 57:-0.857584 58:-0.806821 59:-0.898651 60:-0.982692 61:-0.798589 62:-0.74881 63:-0.97863 64:-0.866186 65:-0.545542 66:-0.667547 67:-0.944297 68:-0.800399 69:-0.974134 70:-0.84468 71:-0.832163 72:-0.767455 73:-0.837948 74:-0.860763 75:-0.708963 76:-0.847124 77:-0.831277 78:-0.876281 79:-0.990222 80:-0.940653 81:-0.765312 82:-0.932869 83:-0.872177 84:-0.706413 85:-0.780309 86:-0.856671 87:-0.783693 88:-0.862262 89:-0.68516 90:-0.811775 91:-0.873477 92:-0.856954 93:-0.815821 94:-0.724579 95:-0.831701 96:-0.922528 97:-0.726846 98:-0.753773 99:-0.840443 100:-0.885485 101:-0.80083 102:-0.686036 103:-0.738376 104:-0.791978 105:-0.849449 106:-0.882181 107:-0.552519 108:-0.759728 109:-0.667999 110:-0.65219 111:-0.892844 112:-0.719897 113:-0.701979 114:-0.57153 115:-0.94286 116:-0.774652 117:-0.593213 118:-0.963765 119:-0.735161 120:-0.766745 121:-0.880694 122:-0.704503 123:-0.711738 124:-0.726556 125:-0.830161 126:-0.826656 127:-0.963403 128:-0.666993 129:-0.76454 130:-0.895832 131:-0.519769 132:-0.413443 133:-0.134551 134:-0.51287 135:0.20232 136:-0.134551 137:0.755704 138:-0.360137 139:-0.410663 140:0.494028 141:0.313931 142:0.0730604 143:-0.807692 144:-0.807692 145:-0.807692 146:-0.807692 147:-0.769231 148:-0.730769 149:-0.740741 150:-0.75 151:-0.75 152:-0.633279 153:-0.880747 154:-0.657143 155:-0.647059 156:-0.647059 157:-0.565218 158:-0.545454 159:-0.52381 160:-0.444444 161:-0.529412 162:-0.538462 163:-0.666666 164:-0.666666 165:-0.636363 166:-0.636363 167:-0.636363 168:-0.818181 169:-1 170:-1 171:-1 172:-1 173:-1 174:-1 175:-1 176:-0.807692 177:-0.807692 178:-0.807692 179:-0.807692 180:-0.769231 181:-0.730769 182:-0.740741 183:-0.75 184:-0.75 
0.8008412106103532 -0.7763950360113896 -0 1:-0.664778 2:-0.370129 3:-0.056037 4:-0.631387 5:-0.778396 6:0.323313 7:0.0657001 8:0.00444269 9:-0.284657 10:-0.657143 11:-0.647059 12:-0.647059 13:-0.565217 14:-0.727273 15:-0.714286 16:-0.666667 17:-0.764706 18:-0.692308 19:-0.666667 20:-0.666667 21:-0.636364 22:-0.636364 23:-1 24:-1 25:-1 26:-1 27:-1 28:-1 29:-1 30:-1 31:-1 32:-0.206235 33:-0.494779 34:-0.769913 35:-0.798773 36:-0.860381 37:-0.944308 38:-0.842081 39:-0.872472 40:-0.900982 41:-0.948926 42:-0.861677 43:-0.871854 44:-0.804316 45:-0.906974 46:-0.808407 47:-0.980508 48:-0.927908 49:-0.933819 50:-0.731068 51:-0.865665 52:-0.944629 53:-0.985573 54:-0.902477 55:-0.886723 56:-0.798369 57:-0.844089 58:-0.936983 59:-0.852726 60:-0.895972 61:-0.965644 62:-0.808683 63:-0.900531 64:-0.889958 65:-0.924089 66:-0.848738 67:-0.817282 68:-0.798038 69:-0.840117 70:-0.911403 71:-0.786437 72:-0.862987 73:-0.796869 74:-0.899758 75:-0.788786 76:-0.847327 77:-0.97415 78:-0.863288 79:-0.912294 80:-0.885983 81:-0.786963 82:-0.950353 83:-0.905777 84:-0.853444 85:-0.832958 86:-0.934037 87:-0.705445 88:-0.938073 89:-0.944873 90:-0.818318 91:-0.941971 92:-0.948803 93:-0.754861 94:-0.725187 95:-0.781732 96:-0.928543 97:-0.951561 98:-0.812593 99:-0.906369 100:-0.904522 101:-0.892987 102:-0.959699 103:-0.816076 104:-0.939911 105:-0.808359 106:-0.892427 107:-0.87965 108:-0.903995 109:-0.589758 110:-0.565976 111:-0.850617 112:-0.826595 113:-0.889595 114:-0.830431 115:-0.942211 116:-0.78043 117:-0.96989 118:-0.920859 119:-0.801163 120:-0.800932 121:-0.872858 122:-0.894981 123:-0.933179 124:-0.942687 125:-0.885676 126:-0.763579 127:-0.836706 128:-0.837775 129:-0.98723 130:-0.661855 131:-0.408319 132:-0.222049 133:0.0131473 134:-0.596724 135:0.339628 136:0.0131473 137:0.801156 138:-0.425191 139:-0.306123 140:0.540753 141:0.268867 142:0.0255335 143:-0.846154 144:-0.846154 145:-0.846154 146:-0.846154 147:-0.769231 148:-0.769231 149:-0.777778 150:-0.785714 151:-0.785714 152:-0.50055 153:-0.910103 154:-0.657143 155:-0.647059 156:-0.647059 157:-0.565218 158:-0.727272 159:-0.714285 160:-0.666666 161:-0.764706 162:-0.692308 163:-0.666666 164:-0.666666 165:-0.636363 166:-0.636363 167:-1 168:-1 169:-1 170:-1 171:-1 172:-1 173:-1 174:-1 175:-1 176:-0.846154 177:-0.846154 178:-0.846154 179:-0.846154 180:-0.769231 181:-0.769231 182:-0.777778 183:-0.785714 184:-0.785714 
0.1245317764170476 -0.1410215403904764 -0 1:-0.37531 2:0.0965908 3:-0.0923416 4:-0.346092 5:-0.498762 6:0.293044 7:0.0723409 8:0.00255903 9:-0.292056 10:-0.485714 11:-0.470588 12:-0.529412 13:-0.478261 14:-0.454545 15:-0.52381 16:-0.444444 17:-0.411765 18:-0.230769 19:-0.166667 20:-0.166667 21:-0.0909091 22:-0.454545 23:-0.636364 24:-0.636364 25:-0.636364 26:-0.6 27:-0.555556 28:-0.333333 29:-1 30:-1 31:-1 32:-0.402507 33:-0.143754 34:-0.676811 35:-0.802578 36:-0.679424 37:-0.816019 38:-0.861947 39:-0.725573 40:-0.931592 41:-0.614351 42:-0.807504 43:-0.690341 44:-0.502796 45:-0.68679 46:-0.53709 47:-0.834119 48:-0.845244 49:-0.869799 50:-0.956293 51:-0.914213 52:-0.818249 53:-0.796348 54:-0.766753 55:-0.873753 56:-0.866031 57:-0.744586 58:-0.965779 59:-0.753828 60:-0.866569 61:-0.915932 62:-0.982589 63:-0.956576 64:-0.805396 65:-0.295455 66:-0.770277 67:-0.9006 68:-0.973101 69:-0.882207 70:-0.893484 71:-0.828483 72:-0.51356 73:-0.885469 74:-0.715538 75:-0.717103 76:-0.984258 77:-0.815544 78:-0.849067 79:-0.563505 80:-0.763479 81:-0.715519 82:-0.718874 83:-0.88288 84:-0.787002 85:-0.837177 86:-0.456373 87:-0.799284 88:-0.963245 89:-0.919789 90:-0.728977 91:-0.878995 92:-0.509852 93:-0.83523 94:-0.817098 95:-0.828393 96:-0.800497 97:-0.756348 98:-0.788178 99:-0.945723 100:-0.931364 101:-0.799806 102:-0.692463 103:-0.71116 104:-0.738361 105:-0.681 106:-0.67139 107:-0.501961 108:-0.840272 109:-0.883674 110:-0.641153 111:-0.398564 112:-0.566139 113:-0.712819 114:-0.799964 115:-0.74938 116:-0.692113 117:-0.800552 118:-0.776637 119:-0.676239 120:-0.693907 121:-0.929898 122:-0.665207 123:-0.910302 124:-0.439381 125:-0.867713 126:-0.743496 127:-0.806428 128:-0.980624 129:-0.862351 130:-0.741569 131:-0.180215 132:-0.457946 133:-0.430974 134:-0.316038 135:-0.119989 136:-0.430974 137:0.637446 138:-0.186041 139:-0.634838 140:0.0124206 141:-0.288836 142:-0.436211 143:-0.692308 144:-0.692308 145:-0.692308 146:-0.653846 147:-0.653846 148:-0.615385 149:-0.62963 150:-0.607143 151:-0.607143 152:-0.829945 153:-0.897804 154:-0.485713 155:-0.470587 156:-0.529413 157:-0.478262 158:-0.454545 159:-0.52381 160:-0.444444 161:-0.411765 162:-0.230771 163:-0.166665 164:-0.166665 165:-0.0909086 166:-0.454544 167:-0.636363 168:-0.636363 169:-0.636363 170:-0.6 171:-0.555557 172:-0.333333 173:-1 174:-1 175:-1 176:-0.692308 177:-0.692308 178:-0.692308 179:-0.653845 180:-0.653845 181:-0.615384 182:-0.62963 183:-0.607143 184:-0.607143 
0.7546619449456131 -0.7276272287355861 -0 1:-0.674332 2:-0.393779 3:-0.177116 4:-0.636799 5:-0.726973 6:0.204969 7:-0.00276976 8:-0.0801138 9:-0.484365 10:-0.714286 11:-0.705882 12:-0.705882 13:-0.565217 14:-0.545455 15:-0.52381 16:-0.555556 17:-0.529412 18:-0.692308 19:-0.666667 20:-0.666667 21:-1 22:-1 23:-1 24:-1 25:-1 26:-1 27:-1 28:-1 29:-1 30:-1 31:-1 32:0.577197 33:-0.348413 34:-0.450744 35:-0.720788 36:-0.731217 37:-0.751467 38:-0.927388 39:-0.883136 40:-0.78868 41:-0.95776 42:-0.86085 43:-0.652898 44:-0.807635 45:-0.588964 46:-0.609132 47:-0.827508 48:-0.799423 49:-0.956824 50:-0.799225 51:-0.786907 52:-0.93995 53:-0.784614 54:-0.766837 55:-0.581064 56:-0.823873 57:-0.962889 58:-0.914505 59:-0.967002 60:-0.835259 61:-0.930609 62:-0.312186 63:-0.937011 64:-0.833324 65:-0.694966 66:-0.718913 67:-0.699648 68:-0.727258 69:-0.856014 70:-0.897404 71:-0.708104 72:-0.889303 73:-0.873448 74:-0.255994 75:-0.921295 76:-0.933731 77:-0.945209 78:-0.922578 79:-0.824162 80:-0.825743 81:-0.625469 82:-0.67168 83:-0.76704 84:-0.753148 85:-0.788222 86:-0.484894 87:-0.946888 88:-0.79248 89:-0.902059 90:-0.707183 91:-0.886083 92:-0.908684 93:-0.570258 94:-0.694157 95:-0.800558 96:-0.880613 97:-0.714879 98:-0.783608 99:-0.901237 100:-0.776943 101:-0.933119 102:-0.487569 103:-0.668852 104:-0.842531 105:-0.481207 106:-0.847396 107:-0.933968 108:-0.797307 109:-0.619692 110:-0.691707 111:-0.487721 112:-0.399406 113:-0.708342 114:-0.754722 115:-0.763672 116:-0.776908 117:-0.912322 118:-0.9203 119:-0.853254 120:-0.96189 121:-0.360804 122:-0.597465 123:-0.655113 124:-0.623597 125:-0.581362 126:-0.944498 127:-0.469879 128:-0.581574 129:-0.895908 130:-0.696735 131:-0.687339 132:-0.745537 133:-0.530604 134:-0.239483 135:-0.245354 136:-0.530604 137:0.783603 138:-0.378824 139:-0.322079 140:0.529869 141:0.430873 142:-0.0937513 143:-0.807692 144:-0.807692 145:-0.807692 146:-0.807692 147:-0.807692 148:-0.769231 149:-0.777778 150:-0.785714 151:-0.75 152:-0.552249 153:-0.926298 154:-0.714286 155:-0.705883 156:-0.705883 157:-0.565218 158:-0.545454 159:-0.52381 160:-0.555555 161:-0.529412 162:-0.692308 163:-0.666666 164:-0.666666 165:-1 166:-1 167:-1 168:-1 169:-1 170:-1 171:-1 172:-1 173:-1 174:-1 175:-1 176:-0.807692 177:-0.807692 178:-0.807692 179:-0.807692 180:-0.807692 181:-0.769231 182:-0.777778 183:-0.785714 184:-0.75 
0.09922341648833886 -0.1012684228854686 -0 1:-0.696322 2:-0.431572 3:-0.187942 4:-0.656719 5:-0.74161 6:0.202208 7:-0.0232184 8:-0.100361 9:-0.51279 10:-0.714286 11:-0.705882 12:-0.705882 13:-0.565217 14:-0.545455 15:-0.52381 16:-0.555556 17:-0.764706 18:-0.692308 19:-0.666667 20:-1 21:-1 22:-1 23:-1 24:-1 25:-1 26:-1 27:-1 28:-1 29:-1 30:-1 31:-1 32:0.415049 33:-0.537703 34:-0.510132 35:-0.770307 36:-0.709064 37:-0.829233 38:-0.905011 39:-0.919702 40:-0.794268 41:-0.867869 42:-0.93386 43:-0.676415 44:-0.875788 45:-0.774486 46:-0.564756 47:-0.779506 48:-0.921775 49:-0.947646 50:-0.796819 51:-0.800774 52:-0.945159 53:-0.888393 54:-0.891877 55:-0.5543 56:-0.818685 57:-0.941055 58:-0.895992 59:-0.881418 60:-0.886237 61:-0.955126 62:-0.614665 63:-0.752795 64:-0.821688 65:-0.700115 66:-0.888292 67:-0.549652 68:-0.727806 69:-0.835251 70:-0.881255 71:-0.815821 72:-0.84154 73:-0.867253 74:-0.832256 75:-0.690034 76:-0.620246 77:-0.791737 78:-0.914848 79:-0.875271 80:-0.862506 81:-0.797322 82:-0.809205 83:-0.848551 84:-0.945623 85:-0.631339 86:-0.853354 87:-0.640011 88:-0.745046 89:-0.89872 90:-0.712579 91:-0.893986 92:-0.840014 93:-0.755965 94:-0.827461 95:-0.655503 96:-0.74974 97:-0.775541 98:-0.789503 99:-0.851452 100:-0.829994 101:-0.675617 102:-0.666161 103:-0.953112 104:-0.885093 105:-0.632772 106:-0.628904 107:-0.69962 108:-0.617562 109:-0.619507 110:-0.958319 111:-0.76689 112:-0.755011 113:-0.770855 114:-0.888832 115:-0.907685 116:-0.720338 117:-0.526017 118:-0.895858 119:-0.809104 120:-0.756792 121:-0.888714 122:-0.817968 123:-0.865218 124:-0.519021 125:-0.250666 126:-0.878778 127:-0.644476 128:-0.73291 129:-0.811223 130:-0.811633 131:-0.614986 132:-0.714243 133:-0.524287 134:-0.244518 135:-0.237113 136:-0.524287 137:0.789229 138:-0.378369 139:-0.315221 140:0.510001 141:0.387986 142:-0.152311 143:-0.807692 144:-0.807692 145:-0.807692 146:-0.807692 147:-0.769231 148:-0.769231 149:-0.777778 150:-0.785714 151:-0.785714 152:-0.515337 153:-0.935419 154:-0.714286 155:-0.705883 156:-0.705883 157:-0.565218 158:-0.545454 159:-0.52381 160:-0.555555 161:-0.764706 162:-0.692308 163:-0.666666 164:-1 165:-1 166:-1 167:-1 168:-1 169:-1 170:-1 171:-1 172:-1 173:-1 174:-1 175:-1 176:-0.807692 177:-0.807692 178:-0.807692 179:-0.807692 180:-0.769231 181:-0.769231 182:-0.777778 183:-0.785714 184:-0.785714 
0.9036578144989018 -0.9131243762017741 -0 1:-0.533368 2:-0.0771629 3:-0.192345 4:-0.49597 5:-0.573786 6:0.202627 7:-0.0101229 8:-0.100616 9:-0.481916 10:-0.657143 11:-0.647059 12:-0.647059 13:-0.478261 14:-0.454545 15:-0.428571 16:-0.444444 17:-0.529412 18:-0.384615 19:-0.5 20:-0.666667 21:-0.636364 22:-0.636364 23:-0.636364 24:-0.818182 25:-0.818182 26:-0.8 27:-0.777778 28:-0.666667 29:-0.6 30:-0.5 31:-1 32:-0.770341 33:-0.20012 34:-0.892689 35:-0.844984 36:-0.777065 37:-0.883145 38:-0.88483 39:-0.886152 40:-0.905684 41:-0.962797 42:-0.840482 43:-0.803166 44:-0.88283 45:-0.883116 46:-0.731883 47:-0.770357 48:-0.879263 49:-0.876477 50:-0.901681 51:-0.969838 52:-0.839832 53:-0.98933 54:-0.931183 55:-0.933541 56:-0.786752 57:-0.766881 58:-0.904494 59:-0.888238 60:-0.968706 61:-0.912949 62:-0.618819 63:-0.914065 64:-0.901882 65:-0.786826 66:-0.752413 67:-0.901887 68:-0.820146 69:-0.881742 70:-0.908627 71:-0.759026 72:-0.769842 73:-0.879911 74:-0.867495 75:-0.754987 76:-0.726052 77:-0.830413 78:-0.924206 79:-0.981655 80:-0.859106 81:-0.822404 82:-0.902078 83:-0.984031 84:-0.937443 85:-0.723412 86:-0.741921 87:-0.608959 88:-0.848586 89:-0.957326 90:-0.849071 91:-0.909362 92:-0.938142 93:-0.868353 94:-0.735335 95:-0.8386 96:-0.853939 97:-0.807069 98:-0.798852 99:-0.895627 100:-0.791429 101:-0.929422 102:-0.933123 103:-0.854162 104:-0.766731 105:-0.821464 106:-0.89718 107:-0.87959 108:-0.848787 109:-0.857383 110:-0.803543 111:-0.797597 112:-0.804149 113:-0.822214 114:-0.604961 115:-0.930555 116:-0.840377 117:-0.933104 118:-0.810103 119:-0.941597 120:-0.799328 121:-0.889242 122:-0.968405 123:-0.728413 124:-0.847429 125:-0.77387 126:-0.844619 127:-0.87584 128:-0.575424 129:-0.81142 130:-0.86768 131:-0.195776 132:-0.253785 133:-0.206006 134:-0.469173 135:0.130773 136:-0.206006 137:0.691376 138:-0.236136 139:-0.732485 140:-0.180721 141:-0.541347 142:-0.748597 143:-0.730769 144:-0.730769 145:-0.730769 146:-0.692308 147:-0.653846 148:-0.653846 149:-0.666667 150:-0.678571 151:-0.678571 152:-0.751536 153:-0.914667 154:-0.657143 155:-0.647059 156:-0.647059 157:-0.478262 158:-0.454545 159:-0.428572 160:-0.444444 161:-0.529412 162:-0.384616 163:-0.499998 164:-0.666666 165:-0.636363 166:-0.636363 167:-0.636363 168:-0.818181 169:-0.818181 170:-0.8 171:-0.777778 172:-0.666666 173:-0.599999 174:-0.5 175:-1 176:-0.730769 177:-0.730769 178:-0.730769 179:-0.692308 180:-0.653845 181:-0.653845 182:-0.666666 183:-0.67857 184:-0.67857 
0.1901439023926903 -0.2009975790532491 -0 1:-0.68163 2:-0.422631 3:-0.191353 4:-0.642156 5:-0.724861 6:0.204356 7:-0.0332809 8:-0.109306 9:-0.519286 10:-0.657143 11:-0.647059 12:-0.705882 13:-0.565217 14:-0.545455 15:-0.52381 16:-0.555556 17:-0.647059 18:-0.538462 19:-0.833333 20:-1 21:-1 22:-1 23:-1 24:-1 25:-1 26:-1 27:-1 28:-1 29:-1 30:-1 31:-1 32:0.131286 33:-0.382707 34:-0.492906 35:-0.878291 36:-0.784101 37:-0.864011 38:-0.958811 39:-0.955033 40:-0.818715 41:-0.872792 42:-0.582647 43:-0.75618 44:-0.795091 45:-0.8114 46:-0.867068 47:-0.817832 48:-0.958484 49:-0.924897 50:-0.728709 51:-0.62894 52:-0.977109 53:-0.889596 54:-0.810636 55:-0.848364 56:-0.855771 57:-0.865589 58:-0.855537 59:-0.754289 60:-0.884368 61:-0.84009 62:-0.637945 63:-0.890937 64:-0.84734 65:-0.726845 66:-0.642336 67:-0.938417 68:-0.735201 69:-0.765922 70:-0.930375 71:-0.783268 72:-0.799266 73:-0.715722 74:-0.652858 75:-0.972861 76:-0.857404 77:-0.887504 78:-0.861559 79:-0.808888 80:-0.887006 81:-0.663609 82:-0.739921 83:-0.920683 84:-0.821653 85:-0.979802 86:-0.350053 87:-0.870382 88:-0.93086 89:-0.876832 90:-0.971474 91:-0.885991 92:-0.762752 93:-0.811239 94:-0.493283 95:-0.810638 96:-0.869756 97:-0.870965 98:-0.886835 99:-0.876832 100:-0.968857 101:-0.768989 102:-0.784494 103:-0.74502 104:-0.902359 105:-0.60931 106:-0.811798 107:-0.690888 108:-0.82283 109:-0.786835 110:-0.628204 111:-0.605109 112:-0.737029 113:-0.700733 114:-0.79909 115:-0.686681 116:-0.844221 117:-0.871188 118:-0.821879 119:-0.496864 120:-0.872066 121:-0.635242 122:-0.972656 123:-0.714451 124:-0.778071 125:-0.709176 126:-0.682618 127:-0.244508 128:-0.731781 129:-0.689731 130:-0.876692 131:-0.607092 132:-0.597534 133:-0.33708 134:-0.383042 135:-0.0102722 136:-0.33708 137:0.745255 138:-0.312101 139:-0.320827 140:0.481147 141:0.336987 142:-0.188701 143:-0.769231 144:-0.769231 145:-0.769231 146:-0.769231 147:-0.730769 148:-0.730769 149:-0.740741 150:-0.714286 151:-0.714286 152:-0.548883 153:-0.940164 154:-0.657143 155:-0.647059 156:-0.705883 157:-0.565218 158:-0.545454 159:-0.52381 160:-0.555555 161:-0.647059 162:-0.538462 163:-0.833333 164:-1 165:-1 166:-1 167:-1 168:-1 169:-1 170:-1 171:-1 172:-1 173:-1 174:-1 175:-1 176:-0.769231 177:-0.769231 178:-0.769231 179:-0.769231 180:-0.730769 181:-0.730769 182:-0.740741 183:-0.714286 184:-0.714286 
0.4755066085394528 -0.4824211797669571 -0 1:-0.662952 2:-0.434908 3:-0.195 4:-0.624968 5:-0.70514 6:0.197092 7:-0.0305591 8:-0.107829 9:-0.517749 10:-0.6 11:-0.588235 12:-0.588235 13:-0.565217 14:-0.545455 15:-0.52381 16:-0.666667 17:-0.764706 18:-0.692308 19:-0.833333 20:-1 21:-1 22:-1 23:-1 24:-1 25:-1 26:-1 27:-1 28:-1 29:-1 30:-1 31:-1 32:0.119604 33:-0.770573 34:-0.670578 35:-0.479385 36:-0.767862 37:-0.768872 38:-0.876728 39:-0.985884 40:-0.730566 41:-0.818282 42:-0.622324 43:-0.944181 44:-0.700815 45:-0.922716 46:-0.789869 47:-0.952847 48:-0.716502 49:-0.818184 50:-0.769608 51:-0.924537 52:-0.87513 53:-0.922491 54:-0.983652 55:-0.876291 56:-0.678462 57:-0.668199 58:-0.798654 59:-0.866232 60:-0.857673 61:-0.763583 62:-0.850553 63:-0.839724 64:-0.818301 65:-0.579834 66:-0.819364 67:-0.773195 68:-0.615265 69:-0.795868 70:-0.951982 71:-0.574664 72:-0.84446 73:-0.673979 74:-0.774442 75:-0.659638 76:-0.782662 77:-0.870521 78:-0.869483 79:-0.759355 80:-0.886915 81:-0.714006 82:-0.890879 83:-0.755016 84:-0.718918 85:-0.982837 86:-0.69529 87:-0.464455 88:-0.912942 89:-0.874362 90:-0.823379 91:-0.886035 92:-0.861548 93:-0.848317 94:-0.663364 95:-0.789035 96:-0.579247 97:-0.81359 98:-0.796618 99:-0.921975 100:-0.821049 101:-0.750288 102:-0.684496 103:-0.850043 104:-0.827044 105:-0.894163 106:-0.792907 107:-0.13418 108:-0.825226 109:-0.714712 110:-0.921325 111:-0.606187 112:-0.831511 113:-0.848987 114:-0.789046 115:-0.833558 116:-0.7496 117:-0.877365 118:-0.770962 119:-0.789876 120:-0.635589 121:-0.772417 122:-0.610188 123:-0.681795 124:-0.465011 125:-0.707635 126:-0.726747 127:-0.558828 128:-0.68313 129:-0.66847 130:-0.559133 131:-0.574746 132:-0.543605 133:-0.27932 134:-0.422 135:0.0535264 136:-0.27932 137:0.752126 138:-0.3145 139:-0.326579 140:0.484077 141:0.339649 142:-0.185737 143:-0.769231 144:-0.769231 145:-0.769231 146:-0.769231 147:-0.730769 148:-0.730769 149:-0.740741 150:-0.75 151:-0.75 152:-0.584367 153:-0.939678 154:-0.6 155:-0.588236 156:-0.588236 157:-0.565218 158:-0.545454 159:-0.52381 160:-0.666666 161:-0.764706 162:-0.692308 163:-0.833333 164:-1 165:-1 166:-1 167:-1 168:-1 169:-1 170:-1 171:-1 172:-1 173:-1 174:-1 175:-1 176:-0.769231 177:-0.769231 178:-0.769231 179:-0.769231 180:-0.730769 181:-0.730769 182:-0.740741 183:-0.75 184:-0.75 
1.957042996106013 -1.967429546539027 -0 1:-0.692337 2:-0.446616 3:-0.205704 4:-0.655251 5:-0.730709 6:0.18347 7:-0.0332976 8:-0.109315 9:-0.511263 10:-0.657143 11:-0.705882 12:-0.705882 13:-0.565217 14:-0.545455 15:-0.52381 16:-0.555556 17:-0.647059 18:-0.692308 19:-1 20:-1 21:-1 22:-1 23:-1 24:-1 25:-1 26:-1 27:-1 28:-1 29:-1 30:-1 31:-1 32:0.105284 33:-0.539487 34:-0.524874 35:-0.870602 36:-0.749561 37:-0.898321 38:-0.95812 39:-0.956101 40:-0.803618 41:-0.90969 42:-0.645595 43:-0.79198 44:-0.74204 45:-0.919444 46:-0.76571 47:-0.892853 48:-0.968252 49:-0.828488 50:-0.896727 51:-0.726216 52:-0.893862 53:-0.98659 54:-0.729174 55:-0.95893 56:-0.935686 57:-0.855357 58:-0.893661 59:-0.838184 60:-0.871553 61:-0.943927 62:-0.606499 63:-0.83312 64:-0.89553 65:-0.715245 66:-0.748021 67:-0.918816 68:-0.777458 69:-0.955025 70:-0.906084 71:-0.667524 72:-0.61385 73:-0.818779 74:-0.810789 75:-0.946594 76:-0.876308 77:-0.903183 78:-0.940537 79:-0.903035 80:-0.584135 81:-0.817216 82:-0.84604 83:-0.896451 84:-0.836816 85:-0.842356 86:-0.849215 87:-0.848488 88:-0.797021 89:-0.660419 90:-0.869322 91:-0.88372 92:-0.862169 93:-0.876551 94:-0.709254 95:-0.833807 96:-0.932511 97:-0.736413 98:-0.810226 99:-0.951677 100:-0.830764 101:-0.803044 102:-0.708859 103:-0.882529 104:-0.931346 105:-0.894408 106:-0.55804 107:-0.748616 108:-0.830424 109:-0.640961 110:-0.82934 111:-0.827441 112:-0.891868 113:-0.800552 114:-0.531998 115:-0.852145 116:-0.778742 117:-0.713467 118:-0.828896 119:-0.804116 120:-0.923051 121:-0.82171 122:-0.806784 123:-0.832325 124:-0.612427 125:-0.857858 126:-0.632744 127:-0.865277 128:-0.891601 129:-0.950185 130:-0.991517 131:-0.537646 132:-0.610728 133:-0.413134 134:-0.329139 135:-0.0985413 136:-0.413134 137:0.743881 138:-0.312237 139:-0.344924 140:0.463503 141:0.305244 142:-0.196051 143:-0.769231 144:-0.769231 145:-0.769231 146:-0.769231 147:-0.730769 148:-0.730769 149:-0.740741 150:-0.714286 151:-0.714286 152:-0.52883 153:-0.93874 154:-0.657143 155:-0.705883 156:-0.705883 157:-0.565218 158:-0.545454 159:-0.52381 160:-0.555555 161:-0.647059 162:-0.692308 163:-1 164:-1 165:-1 166:-1 167:-1 168:-1 169:-1 170:-1 171:-1 172:-1 173:-1 174:-1 175:-1 176:-0.769231 177:-0.769231 178:-0.769231 179:-0.769231 180:-0.730769 181:-0.730769 182:-0.740741 183:-0.714286 184:-0.714286 
0.530938812857789 -0.5272970457842433 -0 1:-0.722441 2:-0.496592 3:-0.204168 4:-0.687916 5:-0.765628 6:0.181504 7:-0.0294384 8:-0.104592 9:-0.473496 10:-0.714286 11:-0.705882 12:-0.705882 13:-0.565217 14:-0.545455 15:-0.714286 16:-0.666667 17:-0.647059 18:-0.692308 19:-1 20:-1 21:-1 22:-1 23:-1 24:-1 25:-1 26:-1 27:-1 28:-1 29:-1 30:-1 31:-1 32:0.0193039 33:-0.903928 34:-0.698584 35:-0.88656 36:-0.676517 37:-0.972516 38:-0.946595 39:-0.841113 40:-0.898113 41:-0.801061 42:-0.976165 43:-0.876346 44:-0.910801 45:-0.821197 46:-0.922088 47:-0.934707 48:-0.799549 49:-0.870587 50:-0.826243 51:-0.878235 52:-0.894799 53:-0.893795 54:-0.986927 55:-0.924004 56:-0.920608 57:-0.893872 58:-0.961259 59:-0.736978 60:-0.965959 61:-0.87917 62:-0.68117 63:-0.890709 64:-0.884827 65:-0.927037 66:-0.830461 67:-0.925002 68:-0.744392 69:-0.878759 70:-0.949526 71:-0.972749 72:-0.778752 73:-0.747841 74:-0.753631 75:-0.902668 76:-0.938142 77:-0.902537 78:-0.979244 79:-0.858684 80:-0.751193 81:-0.963791 82:-0.868333 83:-0.835675 84:-0.985185 85:-0.91998 86:-0.670231 87:-0.580783 88:-0.928598 89:-0.768627 90:-0.844625 91:-0.963727 92:-0.921921 93:-0.912811 94:-0.930943 95:-0.884514 96:-0.646854 97:-0.781139 98:-0.90632 99:-0.947041 100:-0.676976 101:-0.914814 102:-0.931934 103:-0.947643 104:-0.867158 105:-0.913042 106:-0.631895 107:-0.782979 108:-0.818877 109:-0.694563 110:-0.798121 111:-0.527417 112:-0.720601 113:-0.862752 114:-0.863223 115:-0.791686 116:-0.83781 117:-0.858685 118:-0.853239 119:-0.878754 120:-0.719568 121:-0.736831 122:-0.858144 123:-0.781328 124:-0.907839 125:-0.506871 126:-0.788329 127:-0.456574 128:-0.944313 129:-0.891053 130:-0.946827 131:-0.341302 132:-0.625836 133:-0.544985 134:-0.227928 135:-0.264276 136:-0.544985 137:0.821484 138:-0.437598 139:-0.390434 140:0.394791 141:0.204623 142:-0.207212 143:-0.846154 144:-0.846154 145:-0.846154 146:-0.846154 147:-0.807692 148:-0.807692 149:-0.814815 150:-0.821429 151:-0.785714 152:-0.446727 153:-0.935463 154:-0.714286 155:-0.705883 156:-0.705883 157:-0.565218 158:-0.545454 159:-0.714285 160:-0.666666 161:-0.647059 162:-0.692308 163:-1 164:-1 165:-1 166:-1 167:-1 168:-1 169:-1 170:-1 171:-1 172:-1 173:-1 174:-1 175:-1 176:-0.846154 177:-0.846154 178:-0.846154 179:-0.846154 180:-0.807692 181:-0.807692 182:-0.814815 183:-0.821429 184:-0.785714 
