svm_type one_against_all
kernel_type rbf
trainOnlyClass -1
gamma 0.0177828
nr_class 2
nr_hyp 2
total_sv 188
rho -0.849124 0.849124
omegaNorm 24.3784 24.3784
avgDistP 0.0459193 0.0482879
avgDistN 0.0482879 0.0459193
avgFP 1.11944 1.17718
avgFN 1.17718 1.11944
label 1 2
nr_sv 99 89
SV
0.7511849529285486 -0.7511849529285489 1:0.0636294 2:0.166354 3:0.657066 4:0.141092 5:-0.762745 6:0.802755 7:0.691634 8:0.486846 9:0.348769 10:0.285714 14:-0.142857 15:-0.142857 17:-0.333333 19:-0.333333 20:-0.333333 21:-0.333333 22:-1 23:-1 24:-1 25:-1 26:-1 27:-1 28:-1 32:0.411874 33:0.136609 34:-0.363424 35:-0.292581 36:-0.454757 37:-0.21106 38:0.439196 39:-0.943871 40:-0.637042 41:-0.654907 42:-0.0227304 43:-0.193143 44:-0.244824 45:0.76596 46:-0.246834 47:-0.474599 48:-0.391322 49:-0.47119 50:-0.195146 51:0.135902 52:0.286984 53:-0.31377 54:0.829785 55:0.804061 56:0.387001 57:-0.825742 58:-0.440195 59:0.180007 60:0.212165 61:-0.374332 62:-0.63957 63:-0.409142 64:1 65:0.539744 66:-0.697208 67:-0.240769 68:0.0322605 69:0.107359 70:0.399309 71:-0.415241 72:-0.759284 73:0.566983 74:-0.174107 75:-0.476922 76:-0.593365 77:0.128402 78:-0.0933416 79:0.612467 80:-0.404448 81:0.272623 82:-0.518986 83:-0.564144 84:-0.537723 85:-0.575976 86:-0.319729 87:-0.347792 88:-0.393323 89:-0.742318 90:-0.615564 91:-0.669842 92:-0.5131 93:-0.249292 94:-0.728846 95:-0.184555 96:-0.532785 97:-0.869192 98:0.44132 99:-0.320804 100:-0.642018 101:-0.27642 102:-0.501396 103:-0.751749 104:-0.246039 105:-0.208862 106:-0.405384 107:-0.618001 108:-0.207354 109:-0.839686 110:-0.417041 111:-0.450198 112:-0.0816016 113:-0.442486 114:-0.409968 115:-0.467481 116:-0.710847 117:-0.63381 118:-0.776408 119:-0.357497 120:-0.486227 121:-0.756144 122:-0.00284078 123:-0.643226 124:-0.693746 125:-0.575532 126:-0.215711 127:-0.0453519 128:-0.439029 129:-0.547951 130:-0.631478 131:-0.0145031 132:0.511797 133:0.083782 134:-0.345798 135:0.345808 136:0.083782 137:0.235067 138:0.107719 139:-0.149755 140:0.647155 141:0.536435 142:0.344201 144:-1 145:-1 147:-0.2 148:-0.333333 149:-0.142857 150:-0.25 151:-0.4 152:-0.429768 153:-0.895463 154:0.285711 155:3.26501e-06 156:3.26501e-06 157:3.26501e-06 158:-0.142861 159:-0.142861 161:-0.333333 162:1.6325e-06 163:-0.333335 164:-0.333335 165:-0.333335 166:-1 167:-1 168:-1 169:-1 170:-1 171:-1 172:-1 177:-1 178:-1 179:1.6325e-06 180:-0.199999 181:-0.333333 182:-0.142861 183:-0.249997 184:-0.399999 
1.335906616808629 -1.335906616808626 1:0.0945065 2:0.329436 3:0.6315 4:0.171992 5:-0.720889 6:0.808827 7:0.645345 8:0.451996 9:0.410414 10:0.428571 13:-0.25 14:-0.142857 15:-0.142857 17:-0.333333 19:-0.333333 20:-0.333333 21:-0.333333 26:-1 27:-1 28:-1 32:0.393661 33:0.0363466 34:-0.423539 35:-0.373239 36:-0.396527 37:0.139981 38:0.490318 39:-0.878302 40:-0.473749 41:-0.567762 42:-0.151909 43:-0.0324727 44:-0.795495 45:0.495348 46:-0.117751 47:0.268914 48:-0.307592 49:-0.692298 50:0.266482 51:-0.0310076 52:0.646437 53:-0.337454 54:-0.415494 55:-0.047859 56:0.731632 57:0.00370585 58:0.0379372 59:-0.45322 60:-0.613874 61:-0.57253 62:-0.216596 63:0.731586 64:-0.579244 65:0.0697584 66:-0.304517 67:0.492701 68:0.260449 69:0.367398 70:-0.163236 71:-0.484423 72:0.383625 73:-0.622886 74:0.0723596 75:-0.725012 76:-0.505908 77:0.280292 78:-0.269241 79:-0.0220276 80:0.524501 81:0.399176 82:0.311729 83:-0.497537 84:0.313386 85:0.119052 86:-0.0744762 87:0.0554143 88:0.477639 89:-0.523071 90:0.853991 91:-0.156758 92:-0.142846 93:-0.859428 94:0.0739023 95:-0.926502 96:0.595926 97:-0.253829 98:-0.0882829 99:-0.642127 100:-0.227605 101:-0.311865 102:-0.568159 103:-0.208017 104:-0.0493511 105:-0.130937 106:0.0256632 107:-0.855071 108:-0.270868 109:0.388144 110:-0.751618 111:0.17175 112:-0.546452 113:-0.522156 114:-0.212952 115:-0.518089 116:-0.264598 117:-0.338336 118:-0.785781 119:-0.431876 120:-0.652866 121:-0.856379 122:-0.879734 123:-0.312925 124:-0.456166 125:-0.218756 126:-0.177335 127:-0.086256 128:-0.679539 129:-0.33069 130:-0.555199 131:0.126001 132:0.390517 133:-0.0778928 134:-0.19606 135:0.196074 136:-0.0778928 137:0.216763 138:0.148097 139:-0.146345 140:0.594195 141:0.400526 142:0.314295 144:-1 145:-0.5 147:-0.2 148:-0.333333 149:-0.142857 150:-0.25 151:-0.4 152:-0.483676 153:-0.888886 154:0.428569 155:3.26501e-06 156:3.26501e-06 157:-0.249997 158:-0.142861 159:-0.142861 161:-0.333333 162:1.6325e-06 163:-0.333335 164:-0.333335 165:-0.333335 166:-3.265e-06 167:-3.265e-06 168:-3.265e-06 169:-3.265e-06 170:-1 171:-1 172:-1 177:-1 178:-0.500001 179:1.6325e-06 180:-0.199999 181:-0.333333 182:-0.142861 183:-0.249997 184:-0.399999 
0.1082400954955286 -0.1082400954955272 1:0.150865 2:0.317179 3:0.573602 4:0.207176 5:-0.650301 6:0.776152 7:0.590109 8:0.39906 9:0.487808 10:0.428571 11:0.25 12:0.25 13:-0.5 14:-0.428571 15:-0.428571 16:-0.333333 17:-0.333333 19:0.333333 20:-0.333333 21:-0.333333 26:-1 27:-1 28:-1 32:0.362943 33:-0.032791 34:-0.435024 35:-0.439646 36:-0.258569 37:0.30681 38:0.631888 39:-0.753257 40:-0.189633 41:-0.429703 42:-0.211967 43:-0.290496 44:-0.611934 45:0.0853578 46:-0.168731 47:0.541686 48:-0.258403 49:-0.570103 50:-0.0306616 51:-0.00151721 52:0.127287 53:-0.30679 54:-0.821474 55:-0.315405 56:-0.594612 57:0.46942 58:0.119056 59:-0.0550027 60:0.0281995 61:-0.193493 62:0.565553 63:0.163425 64:-0.00452728 65:-0.345743 66:-0.206529 67:-0.595047 68:0.377726 69:0.255806 70:0.810344 71:0.660132 72:-0.309178 73:-0.26706 74:-0.0520458 75:-0.500219 76:-0.502292 77:0.236415 78:-0.180846 79:1 80:-0.225815 81:-0.619751 82:0.0552211 83:-0.0237324 84:-0.291929 85:-0.347056 86:-0.936655 87:-0.842866 88:0.0669968 89:-0.296262 90:-0.0641184 91:-0.561521 92:0.350286 93:-0.730444 94:-0.395116 95:-0.77021 96:0.429844 97:0.258505 98:-0.387794 99:-0.410964 100:-0.00790135 101:-0.305041 102:-0.73307 103:0.317709 104:-0.457376 105:-0.713168 106:-0.362488 107:-0.470343 108:-0.125912 109:0.551628 110:-0.739449 111:-0.409609 112:-0.74723 113:-0.451463 114:0.546445 115:-0.750059 116:-0.564844 117:-0.627647 118:-0.4616 119:-0.00972448 120:-0.415025 121:-0.711457 122:-0.854444 123:-0.680198 124:-0.111796 125:-0.472382 126:-0.628169 127:-0.460417 128:0.129532 129:-0.459153 130:-0.535498 131:0.253078 132:0.255855 133:-0.222866 134:-0.0499793 135:0.0499838 136:-0.222866 137:0.133109 138:0.140686 139:-0.164723 140:0.530991 141:0.275849 142:0.327063 144:-1 145:-0.5 147:-0.2 148:-0.333333 149:-0.428571 150:-0.5 151:-0.2 152:-0.556913 153:-0.881668 154:0.428569 155:0.250005 156:0.250005 157:-0.499998 158:-0.428573 159:-0.428573 160:-0.333333 161:-0.333333 162:1.6325e-06 163:0.333335 164:-0.333335 165:-0.333335 166:-3.265e-06 167:-3.265e-06 168:-3.265e-06 169:-3.265e-06 170:-1 171:-1 172:-1 177:-1 178:-0.500001 179:1.6325e-06 180:-0.199999 181:-0.333333 182:-0.428573 183:-0.499998 184:-0.199998 
0.05279072664218899 -0.0527907266421669 1:-0.797428 2:-0.777126 3:-0.707544 4:-0.861199 5:-0.337742 6:-0.799401 7:-0.164051 8:-0.512004 9:-0.628783 10:-0.857143 11:-0.75 12:-0.75 13:-0.75 14:-1 15:-1 16:-1 17:-1 18:-1 19:-1 20:-1 21:-1 22:-1 23:-1 24:-1 25:-1 26:-1 27:-1 28:-1 32:-0.861564 33:-0.52319 34:-0.829579 35:-0.729879 36:-0.745294 37:-0.96066 38:-0.470509 39:-0.600048 40:-0.630132 41:-0.513167 42:-0.798959 43:-0.627814 44:-0.73603 45:0.254546 46:-0.640159 47:-0.497576 48:-0.448571 49:-0.706688 50:-0.701993 51:-0.605171 52:-0.292362 53:-0.690867 54:-0.141471 55:-0.223976 56:-0.560374 57:-0.858608 58:-0.557948 59:-0.538343 60:-0.750858 61:-0.816972 62:-0.583952 63:-0.654663 64:-0.865354 65:-0.188417 66:-0.82014 67:-0.553626 68:-0.983343 69:-0.990439 70:-0.613947 71:-0.624176 72:-0.615532 73:-0.500216 74:-0.627235 75:-0.917554 76:-0.699409 77:-0.582246 78:-0.659811 79:-0.517276 80:-0.428408 81:-0.828801 82:-0.541613 83:-0.848358 84:-0.419511 85:-0.620182 86:-0.326832 87:-0.265204 88:-0.868093 89:-0.671246 90:-0.608355 91:-0.466967 92:-0.745552 93:-0.720474 94:-0.344021 95:-0.702879 96:-0.711489 97:-0.460941 98:-0.734511 99:-0.697008 100:-0.63152 101:-1 102:-0.848566 103:-0.808901 104:-0.566316 105:-0.603978 106:-0.477162 107:-0.818057 108:-0.746904 109:-0.648053 110:-0.953832 111:-0.936305 112:-0.678604 113:-0.847121 114:-0.609933 115:-0.880496 116:-0.660862 117:-0.825122 118:-0.720893 119:-0.31105 120:-0.926234 121:-0.680014 122:-0.828969 123:-0.732501 124:-0.990975 125:-0.653733 126:-0.668639 127:-0.894545 128:-0.340128 129:-0.51705 130:-0.749675 131:-0.385618 132:-0.476602 133:-0.422335 134:0.172092 135:-0.172105 136:-0.422335 137:0.706647 138:-0.664853 139:-0.566274 140:0.262455 141:0.702857 142:0.0844702 144:-1 145:-1 146:-1 147:-1 148:-1 149:-0.714286 150:-0.5 151:-0.8 152:0.440855 153:-0.709165 154:-0.857143 155:-0.75 156:-0.75 157:-0.75 158:-1 159:-1 160:-1 161:-1 162:-1 163:-1 164:-1 165:-1 166:-1 167:-1 168:-1 169:-1 170:-1 171:-1 172:-1 177:-1 178:-1 179:-1 180:-1 181:-1 182:-0.714288 183:-0.499998 184:-0.799999 
0.3199062730306974 -0.3199062730307065 1:-0.81466 2:-0.787659 3:-0.741939 4:-0.877074 5:-0.281834 6:-0.832712 7:-0.218727 8:-0.588001 9:-0.694242 10:-0.857143 11:-0.75 12:-0.75 13:-0.75 14:-1 15:-1 16:-1 17:-1 18:-1 19:-1 20:-1 21:-1 22:-1 23:-1 24:-1 25:-1 26:-1 27:-1 28:-1 32:-0.908885 33:-0.453994 34:-0.860651 35:-0.697691 36:-0.65524 37:-0.931713 38:-0.483193 39:-0.492728 40:-0.819084 41:-0.571519 42:-0.807405 43:-0.623499 44:-0.526696 45:0.00399674 46:-0.154278 47:-0.915744 48:-0.439839 49:-0.70406 50:-0.486632 51:-0.775403 52:-0.798369 53:-0.329519 54:-0.726183 55:-0.156171 56:-0.689469 57:-0.715595 58:-0.742123 59:-0.340373 60:-0.529388 61:-0.866279 62:-0.662409 63:-0.639269 64:-0.493482 65:-0.706681 66:-0.528525 67:-0.587132 68:-0.718868 69:-0.933214 70:-0.78428 71:-0.435623 72:-0.469414 73:-0.718719 74:-0.826308 75:-0.453897 76:-0.676045 77:-0.482889 78:-0.405265 79:-0.202911 80:-0.996629 81:-0.615466 82:-0.461745 83:-0.805967 84:-0.455811 85:-0.882018 86:0.181164 87:-0.946325 88:-0.226496 89:-0.904035 90:-0.409358 91:-0.634229 92:-0.534787 93:-0.799938 94:-0.319539 95:-0.718368 96:-0.585918 97:-0.51254 98:-0.565621 99:-0.403519 100:-0.694185 101:-0.653063 102:-0.838106 103:-0.745595 104:-0.383289 105:-0.759044 106:-0.322134 107:-0.76714 108:-0.602478 109:-0.721798 110:-0.835858 111:-0.81647 112:-0.429683 113:-0.874024 114:-0.703193 115:-0.906796 116:-0.517403 117:-0.656743 118:-0.910352 119:-0.266699 120:-0.917521 121:-0.816655 122:-0.761011 123:-0.752476 124:-0.941179 125:-0.950965 126:-0.505665 127:-0.452327 128:-0.58098 129:-0.658173 130:-0.840396 131:-0.487731 132:-0.472502 133:-0.364595 134:0.105097 135:-0.105091 136:-0.364595 137:0.703436 138:-0.699298 139:-0.511792 140:0.271018 141:0.749725 142:0.0922661 144:-1 145:-1 146:-1 147:-1 148:-1 149:-0.714286 150:-0.75 151:-1 152:0.420383 153:-0.731393 154:-0.857143 155:-0.75 156:-0.75 157:-0.75 158:-1 159:-1 160:-1 161:-1 162:-1 163:-1 164:-1 165:-1 166:-1 167:-1 168:-1 169:-1 170:-1 171:-1 172:-1 177:-1 178:-1 179:-1 180:-1 181:-1 182:-0.714288 183:-0.75 184:-1 
4.727880883780702 -4.727880883780699 1:-0.684307 2:-0.29798 3:-0.806348 4:-0.760858 5:0.230269 6:-0.858927 7:-0.371239 8:-0.788954 9:-0.84796 10:-0.714286 11:-0.5 12:-0.5 13:-0.5 14:-0.428571 15:-0.714286 16:-0.666667 17:-0.666667 18:-0.5 19:-0.333333 20:-1 21:-1 22:-1 23:-1 24:-1 25:-1 26:-1 27:-1 28:-1 32:-0.350357 33:-0.539601 34:0.0469448 35:-0.826368 36:-0.856199 37:-0.651039 38:-0.220895 39:-0.757608 40:-0.17629 41:-0.813505 42:-0.930397 43:0.149087 44:-0.655695 45:-0.396277 46:-0.598547 47:0.391914 48:-0.832078 49:-0.71351 50:-0.68442 51:-0.635991 52:-0.0245701 53:-0.364312 54:-0.536889 55:-0.6694 56:-0.0218668 57:-0.515186 58:-0.216297 59:-0.332278 60:-0.305054 61:-0.721806 62:-0.497418 63:-0.883375 64:-0.105284 65:-0.83913 66:-0.780875 67:-0.386234 68:-0.320884 69:-0.277789 70:-0.104388 71:-0.0715988 72:-0.585386 73:-0.30657 74:-0.407828 75:-0.710546 76:-0.842119 77:0.224789 78:-0.929164 79:-0.522185 80:-0.461559 81:-0.549547 82:-0.774737 83:-0.157561 84:0.343976 85:-0.462851 86:-0.288544 87:-0.80345 88:-0.518554 89:-0.539443 90:-0.635717 91:-0.640507 92:-0.664738 93:-0.0307738 94:-0.420936 95:-0.704654 96:-0.796418 97:-0.572267 98:-0.224137 99:-0.454341 100:-0.637374 101:-0.795777 102:-0.525021 103:-0.519509 104:-0.0657509 105:-0.68462 106:-0.380011 107:-0.710815 108:-0.836956 109:-0.532314 110:-0.492576 111:-0.807162 112:-0.927634 113:-0.730467 114:-0.43636 115:-0.450865 116:-0.273434 117:-0.690866 118:-0.687052 119:-0.82822 120:-0.750684 121:-0.748233 122:-0.652236 123:-0.338651 124:-0.808615 125:-0.86894 126:-0.793785 127:-0.670811 128:-0.580864 129:-0.283468 130:-0.605422 131:-0.806323 132:-0.308139 133:0.0303929 134:-0.297781 135:0.297795 136:0.0303929 137:0.647881 138:-0.157056 139:-0.493307 140:0.0568776 141:0.0272527 142:-0.600838 144:-1 145:-1 146:-0.5 147:-0.6 148:-0.666667 149:-0.428571 150:-0.5 151:-0.6 152:-0.223395 153:-0.830182 154:-0.714285 155:-0.499998 156:-0.499998 157:-0.499998 158:-0.428573 159:-0.714288 160:-0.666667 161:-0.666667 162:-0.500001 163:-0.333335 164:-1 165:-1 166:-1 167:-1 168:-1 169:-1 170:-1 171:-1 172:-1 177:-1 178:-1 179:-0.500001 180:-0.600001 181:-0.666667 182:-0.428573 183:-0.499998 184:-0.599999 
1.690145122649622 -1.69014512264963 1:-0.648196 2:-0.150673 3:-0.777783 4:-0.72427 5:0.215122 6:-0.799028 7:-0.358479 8:-0.7866 9:-0.665133 10:-0.714286 11:-0.5 12:-0.5 13:-0.5 14:-0.428571 15:-0.714286 16:-0.666667 17:-0.666667 18:-0.5 19:-0.333333 20:-0.333333 21:-0.333333 22:-1 23:-1 24:-1 25:-1 26:-1 27:-1 28:-1 32:-0.296329 33:-0.159328 34:-0.163032 35:-0.632669 36:-0.640498 37:-0.495508 38:-0.454766 39:-0.812576 40:-0.61382 41:0.00992428 42:-0.884489 43:-0.788226 44:-0.17043 45:-0.656072 46:-0.366128 47:-0.400715 48:-0.000423251 49:-0.578092 50:-0.56903 51:-0.162995 52:-0.546165 53:-0.60898 54:-0.898874 55:0.0489491 56:-0.425646 57:-0.737645 58:0.225286 59:-0.604727 60:-0.50591 61:-0.26991 62:-0.0589748 63:-0.733482 64:-0.484847 65:-0.20101 66:-0.84756 67:-0.500757 68:-0.325602 69:-0.541977 70:-0.410893 71:-0.251916 72:0.27623 73:-0.776137 74:-0.638316 75:-0.212304 76:-0.711893 77:-0.364264 78:-0.514606 79:-0.119045 80:-0.843879 81:-0.470849 82:-0.385364 83:-0.499678 84:-0.473325 85:-0.235576 86:-0.517844 87:-0.767646 88:-0.697669 89:-0.252603 90:-0.582915 91:-0.219006 92:-0.640699 93:-0.611294 94:-0.177998 95:-0.812339 96:0.238665 97:-0.734155 98:-0.720022 99:-0.168849 100:-0.510351 101:-0.278085 102:-0.810481 103:-0.274016 104:-0.887709 105:-0.297346 106:-0.259161 107:-0.741544 108:-0.80052 109:-0.622664 110:-0.528632 111:-0.619752 112:-0.672025 113:-0.541392 114:-0.84715 115:-0.535142 116:-0.805536 117:-0.383298 118:-0.75499 119:-0.988668 120:-0.503177 121:-0.905146 122:-0.730403 123:-0.342402 124:-0.996139 125:-0.50275 126:-0.390983 127:-0.423345 128:-0.875639 129:-0.451133 130:-0.83176 131:-0.71485 132:-0.379324 133:-0.124298 134:-0.150605 135:0.150597 136:-0.124298 137:0.679351 138:-0.0453271 139:-0.577454 140:-0.0615448 141:-0.237287 142:-0.503122 144:-1 145:-0.5 146:-0.5 147:-0.6 148:-0.333333 149:-0.428571 150:-0.5 151:-0.8 152:-0.269559 153:-0.805802 154:-0.714285 155:-0.499998 156:-0.499998 157:-0.499998 158:-0.428573 159:-0.714288 160:-0.666667 161:-0.666667 162:-0.500001 163:-0.333335 164:-0.333335 165:-0.333335 166:-1 167:-1 168:-1 169:-1 170:-1 171:-1 172:-1 177:-1 178:-0.500001 179:-0.500001 180:-0.600001 181:-0.333333 182:-0.428573 183:-0.499998 184:-0.799999 
1.776787243894692 -1.776787243894687 1:-0.466161 2:0.192553 3:-0.63604 4:-0.560602 5:0.119314 6:-0.627423 7:-0.165744 8:-0.513681 9:-0.226096 10:-0.714286 11:-0.5 12:-0.5 13:-0.5 14:-0.428571 15:-0.714286 16:-0.666667 17:-0.666667 18:-0.5 19:-0.333333 20:-0.333333 21:-0.333333 27:-1 28:-1 32:-0.391522 33:0.0856126 34:-0.833355 35:-0.631715 36:-0.0107753 37:-0.869384 38:-0.733648 39:-0.674644 40:-0.394794 41:-0.743191 42:-0.786885 43:0.216672 44:-0.397842 45:-0.609174 46:-0.370177 47:-0.532172 48:-0.517026 49:-0.625585 50:0.160575 51:-0.660972 52:-0.0715063 53:-0.207751 54:-0.875121 55:-0.35694 56:-0.681873 57:-0.315371 58:-0.691116 59:-0.583546 60:-0.526963 61:-0.579357 62:-0.0582996 63:-0.610528 64:-0.4716 65:0.406882 66:-0.587048 67:-0.860203 68:-0.854752 69:-0.108932 70:-0.759827 71:-0.112382 72:-0.0478147 73:-0.661967 74:-0.715958 75:-0.266356 76:-0.496614 77:-0.311145 78:0.0383367 79:-0.359094 80:-0.970895 81:0.000452191 82:-0.652371 83:-0.805745 84:-0.506986 85:-0.508088 86:-0.535996 87:-0.701423 88:-0.67999 89:-0.595335 90:-0.436198 91:-0.260915 92:-0.341607 93:-0.182803 94:-0.493091 95:-0.440322 96:-0.64704 97:-0.852687 98:0.049717 99:-0.662084 100:-0.319241 101:-0.430188 102:-0.585438 103:-0.948719 104:-0.359665 105:-0.857305 106:-0.735596 107:-0.0455313 108:-0.809024 109:-0.517407 110:-0.653291 111:-0.617014 112:-0.7627 113:-0.847409 114:-0.457037 115:-0.760714 116:-0.473124 117:-0.738692 118:-0.768128 119:-0.506176 120:-0.760733 121:-0.740346 122:-0.633784 123:-0.698669 124:-0.638251 125:-0.388488 126:-0.5838 127:-0.789615 128:-0.360657 129:-0.6088 130:-0.657365 131:-0.180485 132:-0.536714 133:-0.558015 134:0.339259 135:-0.339255 136:-0.558015 137:0.613841 138:0.0637294 139:-0.860388 140:-0.227374 141:-0.415552 142:-0.379244 145:-0.5 146:-0.5 147:-0.6 148:-0.333333 149:-0.428571 150:-0.5 151:-0.6 152:-0.422614 153:-0.658035 154:-0.714285 155:-0.499998 156:-0.499998 157:-0.499998 158:-0.428573 159:-0.714288 160:-0.666667 161:-0.666667 162:-0.500001 163:-0.333335 164:-0.333335 165:-0.333335 166:-3.265e-06 167:-3.265e-06 168:-3.265e-06 169:-3.265e-06 170:-3.265e-06 171:-1 172:-1 177:-3.265e-06 178:-0.500001 179:-0.500001 180:-0.600001 181:-0.333333 182:-0.428573 183:-0.499998 184:-0.599999 
0.1528072788298588 -0.1528072788298541 1:0.0807502 2:0.608311 3:0.0248107 4:0.0057666 5:-0.297558 6:-0.0505342 7:0.581187 8:0.741547 9:-0.134262 10:-0.285714 11:0.25 14:0.142857 15:0.142857 16:0.333333 17:0.333333 19:0.333333 20:0.333333 21:-0.333333 27:-1 28:-1 32:-0.501482 33:-0.100539 34:0.411914 35:-0.384444 36:-0.215849 37:0.122897 38:-0.629237 39:-0.462216 40:-0.776221 41:-0.353187 42:-0.485162 43:0.715846 44:-0.611758 45:0.401834 46:-0.620683 47:0.37185 48:-0.737684 49:-0.535222 50:-0.539818 51:-0.674886 52:-0.767123 53:0.038005 54:0.308659 55:-0.352944 56:0.233197 57:-0.67661 58:-0.38979 59:-0.857543 60:-0.137797 61:-0.302682 62:-0.187297 63:-0.418694 64:-0.204403 65:-0.867741 66:-0.220851 67:-0.613541 68:0.183624 69:0.0111708 70:-0.0667409 71:-0.0870995 72:-0.607911 73:-0.751322 74:-0.293651 75:-0.244049 76:-0.166396 77:-0.584837 78:-0.379985 79:0.356589 80:-0.396052 81:0.181982 82:-0.120417 83:-0.257692 84:-0.923774 85:-0.134666 86:0.00375357 87:0.100056 88:-0.0288118 89:-0.291531 90:0.0238841 91:-0.356863 92:0.0629788 93:-0.81656 94:-0.622607 95:-0.897096 96:-0.653426 97:-0.465342 98:0.527875 99:-0.689822 100:-0.891584 101:0.481369 102:0.322798 103:0.0608876 104:0.365855 105:1 106:-0.0161027 107:-0.137382 108:0.60013 109:0.660988 110:0.802876 111:0.893992 112:1 113:0.0868254 114:0.475092 115:0.474746 116:1 117:0.687501 118:0.65499 119:0.689305 120:0.714897 121:-0.0961092 122:-0.253137 123:-0.171414 124:-0.274424 125:0.0298811 126:-0.500395 127:-0.367384 128:-0.649 129:-0.384898 130:-0.771393 131:0.220791 132:-0.0905106 133:-0.416739 134:0.165499 135:-0.16551 136:-0.416739 137:0.0658317 138:0.463689 139:-0.629812 140:0.520789 141:0.960476 142:-0.177612 144:-1 145:-0.5 147:-0.2 148:0.333333 149:0.428571 150:0.25 151:-0.2 152:-0.653253 153:-0.728214 154:-0.285714 155:0.250005 156:3.26501e-06 157:3.26501e-06 158:0.142852 159:0.142852 160:0.333333 161:0.333333 162:1.6325e-06 163:0.333335 164:0.333335 165:-0.333335 166:-3.265e-06 167:-3.265e-06 168:-3.265e-06 169:-3.265e-06 170:-3.265e-06 171:-1 172:-1 177:-1 178:-0.500001 179:1.6325e-06 180:-0.199999 181:0.333333 182:0.428566 183:0.250005 184:-0.199998 
0.3045825178795281 -0.3045825178795278 1:0.217407 2:0.637489 3:0.0621562 4:0.13141 5:-0.207589 6:0.0297087 7:0.566539 8:0.667349 9:-0.18773 10:-0.142857 11:0.25 12:0.25 13:0.25 14:0.428571 15:0.142857 16:0.333333 18:0.5 19:0.333333 20:0.333333 21:0.333333 27:-1 28:-1 32:-0.615106 33:-0.565057 34:0.772089 35:-0.631296 36:0.0265806 37:-0.656775 38:0.375069 39:-0.114412 40:-0.838682 41:-0.180743 42:-0.00485698 43:0.0538853 44:-0.0103593 45:0.391136 46:-0.241437 47:-0.403046 48:-0.34166 49:-0.726287 50:-0.660819 51:-0.3793 52:0.249068 53:-0.531752 54:0.0421421 55:-0.458318 56:0.116261 57:-0.642147 58:0.680932 59:-0.332851 60:-0.578263 61:-0.787103 62:-0.201461 63:-0.918871 64:-0.0600799 65:-0.239955 66:-0.0984154 67:-0.357777 68:0.072726 69:-0.197336 70:0.617734 71:0.00514983 72:-0.276611 73:0.0448089 74:-0.272834 75:-0.770444 76:0.00480072 77:0.255583 78:-0.622945 79:0.0726851 80:-0.393682 81:0.122621 82:-0.905974 83:0.118949 84:0.297549 85:-0.295244 86:1 87:-0.39735 88:-0.695347 89:-0.722585 90:0.388486 91:-0.254818 92:-0.213081 93:0.262308 94:1 95:-0.040652 96:0.504665 97:-0.0426089 98:-0.533664 99:-0.294382 100:-0.370265 101:-0.423483 102:0.494324 103:0.0682282 104:0.805549 105:0.194961 106:0.411711 107:0.585292 108:-0.137141 109:0.436034 110:1 111:0.795211 112:0.669242 113:0.131008 114:1 115:0.157214 116:0.384903 117:0.361996 118:0.58239 119:0.692958 120:0.432574 121:-0.277097 122:0.0794772 123:0.0851531 124:-0.283328 125:-0.15119 126:-0.136475 127:0.0194999 128:0.902067 129:0.271501 130:-0.644799 131:0.2039 132:0.0273892 133:-0.338811 134:0.0758965 135:-0.0759065 136:-0.338811 137:-0.113038 138:0.551725 139:-0.584671 140:0.504022 141:0.941056 142:-0.210252 144:-1 145:-0.5 146:0.5 147:0.2 148:0.333333 149:0.428571 150:0.25 151:-0.2 152:-0.76202 153:-0.736389 154:-0.142857 155:0.250005 156:0.250005 157:0.250005 158:0.428566 159:0.142852 160:0.333333 162:0.500001 163:0.333335 164:0.333335 165:0.333335 166:-3.265e-06 167:-3.265e-06 168:-3.265e-06 169:-3.265e-06 170:-3.265e-06 171:-1 172:-1 177:-1 178:-0.500001 179:0.500001 180:0.199999 181:0.333333 182:0.428566 183:0.250005 184:-0.199998 
0.3685247335125355 -0.3685247335125303 1:0.535065 2:0.815716 3:0.142537 4:0.42021 5:-0.0096137 6:0.160626 7:0.57294 8:0.610316 9:-0.211665 10:-0.285714 11:0.25 12:0.25 13:0.25 14:0.428571 15:0.428571 16:0.666667 17:0.666667 18:1 19:1 20:1 21:1 22:1 26:-1 27:-1 28:-1 32:-0.354672 33:-0.434135 34:1 35:-0.30787 36:-0.754462 37:1 38:0.0744812 39:0.0677581 40:-0.696648 41:0.235432 42:-0.556085 43:0.328006 44:-0.143768 45:0.611497 46:0.0839409 47:0.205985 48:-0.275089 49:-0.335657 50:-0.233102 51:-0.0960944 52:-0.0884141 53:-0.740084 54:-0.0722199 55:-0.172778 56:-0.149735 57:-0.925543 58:0.421277 59:0.322608 60:-0.164059 61:-0.460783 62:1 63:-0.0032201 64:-0.39516 65:-0.891885 66:-0.117426 67:-0.724908 68:-0.562138 69:1 70:-0.249417 71:-0.363477 72:-0.68174 73:0.646091 74:0.0203307 75:-0.302858 76:-0.0760656 77:0.148987 78:-0.510903 79:0.481855 80:-0.376648 81:-0.218477 82:-0.475878 83:0.761403 84:-0.638858 85:-0.583822 86:0.460892 87:0.178466 88:0.430155 89:-0.838269 90:-0.476452 91:0.192788 92:-0.0230867 93:-0.832809 94:0.638446 95:-0.248815 96:-0.918419 97:-0.623235 98:0.208473 99:0.186113 100:-0.780123 101:-0.48773 102:0.0998585 103:-0.716557 104:-0.0727269 105:0.00997762 106:0.00743863 107:0.12977 108:-0.155198 109:-0.0104381 110:-0.50552 111:-0.0488792 112:0.321419 113:0.174418 114:0.818147 115:0.710892 116:0.820089 117:-0.124549 118:0.625507 119:0.583572 120:0.251473 121:0.420857 122:1 123:0.0829321 124:1 125:0.276237 126:0.205171 127:0.298901 128:1 129:0.883643 130:-0.0660411 131:0.0494939 132:0.351759 133:-0.0603731 134:-0.212929 135:0.212941 136:-0.0603731 137:-0.327553 138:0.679843 139:-0.511019 140:0.511345 141:0.84721 142:-0.269565 145:0.5 146:0.5 147:0.2 148:0.333333 149:0.428571 150:0.25 151:-0.2 152:-0.948183 153:-0.771911 154:-0.285714 155:0.250005 156:0.250005 157:0.250005 158:0.428566 159:0.428566 160:0.666667 161:0.666667 162:1 163:1 164:1 165:1 166:1 167:-3.265e-06 168:-3.265e-06 169:-3.265e-06 170:-1 171:-1 172:-1 177:-3.265e-06 178:0.500001 179:0.500001 180:0.199999 181:0.333333 182:0.428566 183:0.250005 184:-0.199998 
0.4081414986008979 -0.4081414986008991 1:0.741912 2:0.996879 3:0.338043 4:0.638233 5:-0.0499226 6:0.365014 7:0.683679 8:0.651273 9:0.0616574 10:0.142857 11:0.5 12:0.5 13:0.5 14:0.428571 15:0.428571 16:0.666667 17:0.333333 18:1 19:1 20:1 21:0.333333 22:1 23:1 24:1 25:1 27:1 28:-1 32:0.0444478 33:-0.0455581 34:0.537834 35:0.424319 36:-0.079536 37:0.75241 38:0.3053 39:-0.700857 40:0.74474 41:0.290595 42:-0.585847 43:0.005552 44:-0.515104 45:0.384056 46:-0.269472 47:0.742775 48:0.280851 49:0.0814275 50:-0.312594 51:0.62182 52:-0.366936 53:0.24473 54:-0.941411 55:-0.216069 56:-0.783379 57:-0.873655 58:-0.0214213 59:-0.301295 60:-0.517853 61:-0.573464 62:0.149428 63:0.991657 64:-0.879676 65:-0.536283 66:0.671524 67:0.477369 68:-0.469571 69:-0.176587 70:0.600524 71:0.0633551 72:0.143208 73:-0.0777579 74:0.122496 75:-0.748821 76:0.379638 77:0.107852 78:0.216421 79:0.203374 80:-0.624391 81:0.497141 82:1 83:-0.617044 84:0.679008 85:0.683575 86:-0.141279 87:-0.328802 88:-0.0896472 89:0.748136 90:-0.61485 91:-0.304733 92:0.0903319 93:0.482677 94:-0.445783 95:0.824183 96:-0.244181 97:0.744543 98:0.545795 99:1 100:-0.209871 101:0.0525269 102:-0.14432 103:-0.378131 104:-0.336737 105:0.464857 106:-0.273321 107:-0.582347 108:-0.52984 109:0.639244 110:-0.198815 111:-0.177473 112:-0.400301 113:-0.320183 114:-0.105148 115:-0.496635 116:-0.195862 117:-0.535033 118:-0.468401 119:-0.468738 120:0.0920418 121:0.109834 122:0.383457 123:-0.72426 124:-0.262339 125:-0.163842 126:0.778111 127:0.970889 128:0.742508 129:0.675635 130:1 131:0.0701053 132:0.538397 133:0.048039 134:-0.313822 135:0.313816 136:0.048039 137:-0.412171 138:0.711913 139:-0.396032 140:0.638054 141:0.165142 142:-0.506687 145:0.5 146:0.5 147:0.2 148:0.333333 149:0.428571 150:0.5 152:-1 153:-0.843046 154:0.142853 155:0.500006 156:0.500006 157:0.500006 158:0.428566 159:0.428566 160:0.666667 161:0.333333 162:1 163:1 164:1 165:0.333335 166:1 167:1 168:1 169:1 170:-3.265e-06 171:1 172:-1 177:-3.265e-06 178:0.500001 179:0.500001 180:0.199999 181:0.333333 182:0.428566 183:0.500006 184:1.959e-06 
0.184861423163773 -0.1848614231637692 1:0.700957 2:0.954637 3:0.593772 4:0.64596 5:-0.313405 6:0.610138 7:0.820318 8:0.746587 9:0.276047 10:-0.142857 11:0.5 12:0.5 13:0.25 14:0.428571 15:0.428571 16:0.666667 17:0.666667 18:0.5 19:1 20:1 21:0.333333 22:1 23:1 24:1 27:1 28:-1 32:0.0911367 33:0.0259127 34:0.465025 35:0.415367 36:0.479082 37:0.328881 38:0.573547 39:-0.634555 40:0.984013 41:-0.250561 42:-0.421113 43:-0.0957926 44:-0.459208 45:0.529029 46:0.029598 47:-0.486295 48:0.0583783 49:0.0509132 50:-0.352672 51:0.241581 52:-0.667511 53:0.0532803 54:-0.17551 55:-0.532511 56:-0.427286 57:-0.868559 58:-0.448322 59:-0.904349 60:-0.698873 61:-0.551849 62:-0.485962 63:-0.0969806 64:-0.291672 65:-0.35743 66:-0.837793 67:0.325094 68:0.292654 69:-0.0655495 70:-0.431563 71:-0.233213 72:1 73:-0.307609 74:-0.521319 75:-0.683772 76:-0.256896 77:-0.879819 78:0.468546 79:-0.549695 80:0.0270345 81:-0.212457 82:0.270718 83:-0.832881 84:-0.319212 85:0.737868 86:-0.433984 87:0.396163 88:0.0231406 89:0.734474 90:0.247827 91:0.174721 92:-0.146438 93:0.0599815 94:0.771389 95:-0.321996 96:-0.789784 97:0.0662575 98:-0.398431 99:0.103148 100:-0.932745 101:-0.331887 102:0.248448 103:-0.855968 104:-0.318331 105:-0.0655878 106:-0.185026 107:-0.854729 108:-0.145484 109:-0.730475 110:-0.341215 111:-0.711239 112:0.185105 113:-0.726633 114:0.19469 115:-0.455548 116:-0.970858 117:0.554659 118:-0.421889 119:-0.638399 120:-0.227927 121:-0.0279015 122:-0.6035 123:-0.526673 124:-0.292998 125:-0.163884 126:-0.496475 127:0.253703 128:0.15274 129:0.0116466 130:-0.842887 131:0.17143 132:0.523002 133:-0.0204273 134:-0.250804 135:0.2508 136:-0.0204273 137:-0.406872 138:0.7026 139:-0.258117 140:0.794398 141:0.282651 142:-0.234471 145:0.5 146:0.5 147:0.2 148:0.666667 149:0.428571 150:0.25 152:-0.914696 153:-0.90868 154:-0.142857 155:0.500006 156:0.500006 157:0.250005 158:0.428566 159:0.428566 160:0.666667 161:0.666667 162:0.500001 163:1 164:1 165:0.333335 166:1 167:1 168:1 169:-3.265e-06 170:-3.265e-06 171:1 172:-1 177:-3.265e-06 178:0.500001 179:0.500001 180:0.199999 181:0.666667 182:0.428566 183:0.250005 184:1.959e-06 
0.2155633495053693 -0.2155633495053717 1:0.676941 2:0.909146 3:0.719205 4:0.65784 5:-0.413367 6:0.739579 7:0.867943 8:0.781838 9:0.364252 11:0.5 12:0.5 13:0.5 14:0.428571 15:0.428571 16:0.666667 17:0.666667 18:0.5 19:1 20:1 21:0.333333 22:1 23:1 27:-1 28:-1 32:0.116753 33:0.043746 34:0.425569 35:0.389816 36:0.692519 37:0.0315615 38:0.536503 39:-0.425088 40:1 41:-0.408751 42:-0.536599 43:-0.112226 44:-0.374523 45:0.453241 46:-0.0674 47:-0.669743 48:-0.147011 49:-0.203271 50:0.0512965 51:-0.0960555 52:-0.395473 53:-0.187011 54:0.220634 55:-0.984047 56:-0.0270676 57:-0.530027 58:-0.573898 59:-0.550995 60:-0.259136 61:-0.227985 62:-0.137532 63:-0.36915 64:-0.339158 65:-0.230996 66:-0.643768 67:0.301162 68:0.188415 69:-0.495906 70:0.151452 71:-0.236401 72:0.951666 73:0.365605 74:0.0771042 75:-0.550754 76:-0.0182732 77:-0.576238 78:0.454955 79:-0.493667 80:-0.213134 81:0.528423 82:-0.142183 83:-0.246486 84:0.672026 85:-0.600888 86:-0.440944 87:-0.631217 88:0.325219 89:0.165878 90:-0.201048 91:0.344408 92:1 93:-0.123788 94:-0.0289798 95:1 96:-0.968519 97:-0.134773 98:0.657782 99:0.922216 100:0.110838 101:0.424831 102:-0.0256777 103:-0.713542 104:-0.276162 105:0.319041 106:-0.68544 107:0.138302 108:-0.662616 109:-0.114346 110:-0.917515 111:-0.525947 112:-0.431122 113:-0.732478 114:-0.533393 115:0.83712 116:-0.276589 117:-0.0167158 118:-0.541555 119:0.660868 120:-0.51197 121:-0.231814 122:-0.364497 123:-0.46737 124:-0.541111 125:1 126:-0.367362 127:0.034795 128:-0.092502 129:0.556288 130:-0.877957 131:0.217153 132:0.528204 133:-0.0420973 134:-0.230359 135:0.230365 136:-0.0420973 137:-0.395311 138:0.696942 139:-0.185302 140:0.848899 141:0.316371 142:-0.131859 145:0.5 146:0.5 147:0.2 148:0.666667 149:0.428571 150:0.5 152:-0.878453 153:-0.930632 154:4.66429e-06 155:0.500006 156:0.500006 157:0.500006 158:0.428566 159:0.428566 160:0.666667 161:0.666667 162:0.500001 163:1 164:1 165:0.333335 166:1 167:1 168:-3.265e-06 169:-3.265e-06 170:-3.265e-06 171:-1 172:-1 177:-3.265e-06 178:0.500001 179:0.500001 180:0.199999 181:0.666667 182:0.428566 183:0.500006 184:1.959e-06 
0.2213598114394867 -0.2213598114394845 1:1 2:0.657765 3:1 4:1 5:-0.388869 6:1 7:0.982589 8:0.709794 9:0.366397 10:0.714286 11:1 12:1 13:1 14:1 15:1 16:1 17:1 18:1 19:1 20:-1 21:-1 22:-1 23:-1 24:-1 25:-1 26:-1 27:-1 28:-1 32:-0.46746 33:1 34:0.0942814 35:1 36:0.996423 37:0.917762 38:0.937626 39:1 40:-0.0663783 41:0.882499 42:0.0362914 43:0.882993 44:-0.345669 45:0.46675 46:-0.226906 47:1 48:-0.359764 49:1 50:0.182598 51:-0.433818 52:-0.537318 53:0.295614 54:0.854179 55:0.038665 56:-0.278898 57:0.329998 58:-0.672117 59:0.425378 60:-0.186971 61:-0.0138905 62:-0.161461 63:0.948344 64:-0.290204 65:0.175376 66:0.413997 67:-0.480543 68:1 69:0.530956 70:0.117379 71:0.75515 72:-0.143914 73:-0.574861 74:-0.492541 75:0.0123457 76:0.35605 77:-0.171763 78:-0.395061 79:0.950141 80:-0.389179 81:-0.38088 82:0.967415 83:-0.36015 84:0.321461 85:0.547722 86:0.449073 87:-0.0907021 88:0.160834 89:-0.193868 90:-0.349363 91:-0.0383937 92:0.695521 93:1 94:0.977666 95:-0.16293 96:-0.523541 97:-0.635785 98:0.538663 99:0.405422 100:-0.53771 101:-0.393018 102:0.158578 103:-0.133242 104:-0.376397 105:-0.310109 106:-0.395017 107:0.261527 108:0.668562 109:0.338879 110:0.453352 111:-0.591412 112:0.400129 113:-0.519728 114:-0.901145 115:0.729363 116:0.428177 117:-0.515883 118:-0.291773 119:0.118226 120:-0.681711 121:-0.866639 122:-0.369462 123:-0.141711 124:-0.320401 125:0.531337 126:0.514153 127:0.286589 128:-0.651098 129:-0.406856 130:-0.814874 131:0.171595 132:0.661612 133:0.064719 134:-0.328823 135:0.328822 136:0.064719 137:-1 138:1 139:-0.0387807 140:0.980085 141:0.322281 142:-0.0649422 144:-1 145:1 146:1 147:0.6 148:1 149:1 150:1 151:0.6 152:-0.982157 153:-0.987541 154:0.714284 155:1 156:1 157:1 158:1 159:1 160:1 161:1 162:1 163:1 164:-1 165:-1 166:-1 167:-1 168:-1 169:-1 170:-1 171:-1 172:-1 177:-1 178:1 179:1 180:0.599998 181:1 182:1 183:1 184:0.599998 
7.489337279496992 -7.489337279497012 1:-0.490882 2:-0.439368 3:-0.164907 4:-0.477746 5:-0.638125 6:-0.0915642 7:0.270759 8:0.564674 9:0.730297 10:-0.571429 11:-0.5 12:-0.5 13:-0.5 14:-0.714286 15:-0.714286 16:-0.666667 17:-0.666667 18:-1 19:-1 20:-1 21:-1 22:-1 23:-1 24:-1 25:-1 26:-1 27:-1 28:-1 32:-0.741988 33:-0.348272 34:-0.929788 35:-0.597703 36:-0.90591 37:-0.682897 38:-0.90117 39:-0.998404 40:-0.893285 41:-0.791749 42:-0.844534 43:-0.756747 44:-0.699732 45:-0.591352 46:-0.595632 47:-0.745791 48:-0.447339 49:-0.750699 50:-0.5959 51:-0.627642 52:-0.946291 53:-0.47524 54:-0.754426 55:-0.407002 56:-0.437986 57:-0.778587 58:-0.550948 59:-0.968068 60:-0.622633 61:-0.677908 62:-0.799159 63:-0.495921 64:-0.682099 65:-0.45927 66:-0.732952 67:-0.562124 68:-0.949897 69:-0.637903 70:-0.578972 71:-0.693462 72:-0.890088 73:-0.588933 74:-0.704186 75:-0.824209 76:-0.7601 77:-0.709697 78:-0.518744 79:-0.633325 80:-0.691708 81:-0.45069 82:-0.59678 83:-0.860836 84:-0.593977 85:-0.859815 86:-0.548223 87:-0.642005 88:-0.673161 89:-0.262957 90:-0.653366 91:-0.277957 92:-0.775173 93:-0.578986 94:-0.631935 95:-0.915445 96:-0.28972 97:-0.805129 98:-0.260707 99:-0.669892 100:-0.70867 101:-0.660781 102:-0.88813 103:-0.853901 104:-0.714994 105:-0.566279 106:-0.673818 107:-0.664595 108:-0.738468 109:-0.91672 110:-0.848631 111:-0.870008 112:-0.997219 113:-0.730701 114:-0.827803 115:-0.566155 116:-0.806176 117:-0.811154 118:-0.687201 119:-0.741021 120:-0.752243 121:-0.858904 122:-0.635514 123:-0.690397 124:-0.783591 125:-0.668076 126:-0.723342 127:-0.640058 128:-0.877187 129:-0.482514 130:-0.763228 131:0.73241 132:-0.476189 133:-0.767075 134:0.627017 135:-0.627019 136:-0.767075 137:0.48282 138:-0.527661 139:-0.652897 140:0.165579 141:0.462771 142:0.672854 144:-1 145:-1 146:-1 147:-1 148:-0.666667 149:-0.714286 150:-0.5 151:-0.6 152:0.0449397 153:-0.537401 154:-0.571428 155:-0.499998 156:-0.499998 157:-0.499998 158:-0.714288 159:-0.714288 160:-0.666667 161:-0.666667 162:-1 163:-1 164:-1 165:-1 166:-1 167:-1 168:-1 169:-1 170:-1 171:-1 172:-1 177:-1 178:-1 179:-1 180:-1 181:-0.666667 182:-0.714288 183:-0.499998 184:-0.599999 
1.908856777025874 -1.908856777025861 1:-0.533782 2:-0.259835 3:-0.274446 4:-0.445215 5:-0.444822 6:-0.387641 7:0.366735 8:0.685935 9:0.670271 10:-0.571429 11:-0.5 12:-0.5 13:-0.75 14:-0.714286 15:-0.714286 16:-0.666667 17:-0.666667 18:-0.5 19:-0.333333 20:-0.333333 21:-1 22:-1 23:-1 24:-1 25:-1 26:-1 27:-1 28:-1 32:-0.687537 33:-0.445428 34:-0.896177 35:-0.541709 36:-0.917295 37:-0.664877 38:-1 39:-0.917598 40:-0.832377 41:-0.779872 42:-0.90579 43:-0.429283 44:-0.762044 45:-0.471515 46:-0.592778 47:-0.433217 48:-0.651202 49:-0.729874 50:-0.703733 51:-0.715941 52:-0.790346 53:-1 54:-0.478213 55:-0.738676 56:-0.39103 57:-0.592459 58:-0.320043 59:-0.471044 60:-0.281463 61:-0.496948 62:-0.741718 63:-0.590051 64:-0.693035 65:-0.339701 66:-0.60904 67:-0.682811 68:-0.313231 69:-0.891636 70:-0.300763 71:-0.782341 72:-0.822978 73:-0.491623 74:-0.913466 75:-0.261808 76:-0.93113 77:-0.461913 78:-0.838875 79:-0.981276 80:-0.972254 81:-0.591304 82:-0.914132 83:-0.28413 84:-0.842025 85:-0.31348 86:-0.754671 87:-0.47055 88:-0.591872 89:-0.985022 90:-0.53234 91:-0.836525 92:-0.344221 93:-0.521689 94:-0.612731 95:-0.462459 96:-0.879735 97:-0.40702 98:-0.464084 99:-0.697087 100:-0.500974 101:-0.798134 102:-0.308269 103:-0.766488 104:-0.650188 105:-0.684753 106:-0.726805 107:-0.726791 108:-0.857161 109:-0.866123 110:-0.555318 111:-0.864464 112:-0.498714 113:-0.867266 114:-0.664554 115:-0.77724 116:-0.9257 117:-0.844147 118:-0.904199 119:-0.88873 120:-0.830599 121:-0.843522 122:-0.804775 123:-0.848309 124:-0.965267 125:-0.796351 126:-0.940403 127:-0.437512 128:-0.866191 129:-0.240399 130:-0.798598 131:0.791668 132:-0.598305 133:-0.837541 134:0.733461 135:-0.733464 136:-0.837541 137:0.50289 138:-0.481812 139:-0.819469 140:0.275398 141:0.381526 142:0.373045 144:-1 145:-1 146:-1 147:-0.6 148:-0.666667 149:-0.714286 150:-0.75 151:-0.8 152:-0.181672 153:-0.571524 154:-0.571428 155:-0.499998 156:-0.499998 157:-0.75 158:-0.714288 159:-0.714288 160:-0.666667 161:-0.666667 162:-0.500001 163:-0.333335 164:-0.333335 165:-1 166:-1 167:-1 168:-1 169:-1 170:-1 171:-1 172:-1 177:-1 178:-1 179:-1 180:-0.600001 181:-0.666667 182:-0.714288 183:-0.75 184:-0.799999 
0.6430800343643482 -0.6430800343643625 1:-0.456463 2:-0.244053 3:-0.281212 4:-0.484401 5:-0.490394 6:-0.418266 7:0.381982 8:0.514192 9:0.382646 10:-0.571429 11:-0.25 12:-0.5 13:-0.5 14:-0.714286 15:-0.714286 16:-0.666667 17:-0.666667 18:-0.5 19:-0.333333 20:-0.333333 21:-1 22:-1 23:-1 24:-1 25:-1 26:-1 27:-1 28:-1 32:-0.721757 33:-0.42553 34:-0.840949 35:-0.630699 36:-0.929389 37:-0.51295 38:-0.62441 39:-0.707998 40:-0.580359 41:-0.904801 42:-0.638477 43:-0.451485 44:-0.516213 45:-0.536058 46:-0.527593 47:-0.661528 48:-0.899443 49:-0.747799 50:-0.760623 51:-0.711023 52:-0.808806 53:-0.530096 54:-0.389801 55:-0.690023 56:-0.382272 57:-0.49766 58:-0.733413 59:-0.534908 60:-0.583579 61:-0.77181 62:-0.44169 63:-0.734546 64:-0.283632 65:-1 66:-0.541311 67:-0.975503 68:-0.820832 69:-0.552548 70:-0.705373 71:-0.166989 72:-0.953323 73:-0.334302 74:-0.729937 75:-0.565751 76:-0.615332 77:-0.744731 78:-0.56031 79:-0.677793 80:-0.466618 81:-0.692719 82:-0.652736 83:-0.843826 84:-0.655409 85:-0.513451 86:-0.42968 87:-0.566885 88:-0.170009 89:-0.570398 90:-0.403236 91:-0.812722 92:-0.298958 93:-0.725814 94:-0.620272 95:-0.748431 96:-0.433982 97:-0.462963 98:-0.54767 99:-0.43369 100:-0.984715 101:-0.829946 102:-0.74283 103:-0.569864 104:-0.582325 105:-0.70705 106:-0.675849 107:-0.732702 108:-0.686791 109:-0.720082 110:-0.859254 111:-0.613562 112:-0.924998 113:-0.758995 114:-0.716096 115:-0.688405 116:-0.876044 117:-0.731002 118:-0.783806 119:-0.675946 120:-0.837578 121:-0.688473 122:-0.599863 123:-0.750076 124:-0.693832 125:-0.748632 126:-0.699984 127:-0.72168 128:-0.953757 129:-0.291943 130:-0.831511 131:0.636226 132:-0.50548 133:-0.763204 134:0.621305 135:-0.62132 136:-0.763204 137:0.337026 138:-0.318683 139:-0.836696 140:0.29285 141:0.355052 142:0.165739 144:-1 145:-1 146:-1 147:-0.6 148:-0.666667 149:-0.428571 150:-0.5 151:-0.6 152:-0.0932923 153:-0.566646 154:-0.571428 155:-0.249997 156:-0.499998 157:-0.499998 158:-0.714288 159:-0.714288 160:-0.666667 161:-0.666667 162:-0.500001 163:-0.333335 164:-0.333335 165:-1 166:-1 167:-1 168:-1 169:-1 170:-1 171:-1 172:-1 177:-1 178:-1 179:-1 180:-0.600001 181:-0.666667 182:-0.428573 183:-0.499998 184:-0.599999 
2.199889146403818 -2.199889146403816 1:0.164297 2:0.69252 3:-0.259242 4:0.158722 5:0.377329 6:-0.406122 7:0.427074 8:0.467317 9:0.256786 10:-0.285714 14:-0.142857 15:-0.142857 18:0.5 19:1 20:0.333333 21:0.333333 22:1 23:1 24:1 27:-1 28:-1 32:0.268225 33:0.188195 34:-0.558946 35:-0.324154 36:-0.906872 37:-0.0723135 38:0.156592 39:-0.384442 40:-0.639258 41:-0.385301 42:-0.251991 43:-0.130742 44:-0.593309 45:0.0951457 46:-0.0745601 47:-0.726705 48:-1 49:-0.190578 50:-0.104928 51:-0.444611 52:-0.228714 53:0.23715 54:-0.934536 55:-0.533417 56:0.684086 57:-0.811608 58:-0.781006 59:-0.234112 60:-0.00375833 61:-0.304636 62:-0.186584 63:-0.8149 64:-0.0878245 65:-0.828391 66:-0.339936 67:0.77144 68:-0.422592 69:-0.579505 70:0.142203 71:0.941573 72:-0.0652258 73:0.00654926 74:-0.311554 75:-0.675838 76:-0.863527 77:0.255169 78:0.137417 79:-0.420762 80:-0.48171 81:-0.280781 82:0.100426 83:0.19471 84:-0.411869 85:-0.34537 86:-0.937871 87:-0.439644 88:0.200238 89:-0.331487 90:-0.552897 91:-0.581329 92:-0.12502 93:-0.66815 94:0.0963045 95:-0.499227 96:-0.440444 97:-0.347914 98:-0.177432 99:-0.619737 100:-0.399591 101:-0.628565 102:-0.391192 103:-0.0660544 104:-0.911617 105:-0.0259862 106:-0.123158 107:-0.600921 108:-0.117759 109:-0.774681 110:-0.504253 111:-0.369163 112:-0.843083 113:-0.549537 114:-0.506244 115:-0.938491 116:0.0820343 117:-0.23487 118:-0.738009 119:0.0609806 120:-0.799745 121:-0.568437 122:-0.280843 123:-0.688713 124:-0.631198 125:-0.585518 126:-0.693593 127:-0.493529 128:-0.238322 129:-0.581176 130:-0.619981 131:-0.208043 132:0.697285 133:0.357738 134:-0.572327 135:0.572331 136:0.357738 137:-0.0194284 138:0.320849 139:-0.829866 140:0.344448 141:0.0206301 142:-0.290563 144:-1 147:0.2 149:-0.142857 151:-0.4 152:-0.968384 153:-0.59021 154:-0.285714 155:3.26501e-06 156:3.26501e-06 157:3.26501e-06 158:-0.142861 159:-0.142861 162:0.500001 163:1 164:0.333335 165:0.333335 166:1 167:1 168:1 169:-3.265e-06 170:-3.265e-06 171:-1 172:-1 177:-1 178:1.6325e-06 179:1.6325e-06 180:0.199999 182:-0.142861 183:3.26501e-06 184:-0.399999 
0.7675128971043822 -0.767512897104383 1:0.49337 2:0.959789 3:0.202836 4:0.460729 5:-0.0497547 6:0.0584855 7:0.771395 8:0.549475 9:0.414811 11:0.5 12:0.5 13:0.5 14:0.428571 15:0.428571 16:0.666667 17:0.666667 18:0.5 19:1 20:0.333333 21:0.333333 22:1 23:1 24:1 25:1 26:1 27:-1 28:-1 32:0.374772 33:-0.00584121 34:0.276687 35:-0.581142 36:0.925368 37:0.0329796 38:0.524034 39:-0.31239 40:-0.617549 41:0.526031 42:-0.415307 43:-0.480294 44:-0.0673799 45:-0.703165 46:0.541821 47:-0.0514934 48:0.122276 49:-0.196932 50:0.0411409 51:-0.327869 52:-0.686604 53:-0.0148584 54:0.00337283 55:0.743409 56:-0.363749 57:-0.424154 58:-0.728927 59:0.844193 60:-0.235663 61:0.110907 62:-0.625503 63:0.162463 64:-0.334541 65:-0.294322 66:-0.788521 67:0.578201 68:-0.470991 69:0.11604 70:-0.401533 71:0.265543 72:-0.00778531 73:0.986722 74:-0.395167 75:0.14224 76:-0.743491 77:-0.158412 78:1 79:0.459159 80:-0.227342 81:0.675522 82:-0.663996 83:-0.0268462 84:-0.240198 85:0.597075 86:-0.836863 87:-0.31633 88:-0.426433 89:-0.68424 90:0.632944 91:0.551144 92:-0.89515 93:0.100186 94:-0.162709 95:-0.605857 96:-0.377113 97:-0.512249 98:-0.494532 99:0.481822 100:-0.521224 101:-0.445943 102:-0.472502 103:0.335012 104:-0.671148 105:-0.47353 106:0.171935 107:-0.437005 108:-0.540187 109:0.163318 110:-0.336466 111:-0.245831 112:-0.839943 113:-0.330989 114:-0.267021 115:-0.399184 116:-0.562165 117:0.452563 118:-0.23661 119:-0.216676 120:-0.0841542 121:-0.687476 122:0.114583 123:-0.615393 124:-0.823855 125:-0.391836 126:-0.428569 127:-0.60796 128:-0.61892 129:0.381505 130:-0.258681 131:0.366335 132:-0.114251 133:-0.481909 134:0.243758 135:-0.243764 136:-0.481909 137:-0.10806 138:0.554564 139:-0.56848 140:0.738428 141:0.19354 142:-0.00299694 144:-1 147:-0.2 149:0.428571 150:0.5 152:-0.948511 153:-0.819353 154:4.66429e-06 155:0.500006 156:0.500006 157:0.500006 158:0.428566 159:0.428566 160:0.666667 161:0.666667 162:0.500001 163:1 164:0.333335 165:0.333335 166:1 167:1 168:1 169:1 170:1 171:-1 172:-1 177:-1 178:1.6325e-06 179:1.6325e-06 180:-0.199999 182:0.428566 183:0.500006 184:1.959e-06 
0.0695054257152304 -0.06950542571523094 1:0.235759 2:0.581008 3:0.196027 4:0.125093 5:-0.376956 6:0.0396944 7:0.770771 8:0.299349 9:0.796103 10:-0.285714 14:-0.142857 15:-0.142857 17:-0.333333 19:0.333333 20:0.333333 21:-0.333333 27:1 28:1 32:0.167499 33:-0.201424 34:-0.872795 35:-0.603976 36:-0.45176 37:-0.569057 38:-0.426761 39:-0.666353 40:-0.378278 41:-0.67808 42:-0.219037 43:-0.256762 44:0.335782 45:-0.0361587 46:-0.535027 47:-0.262094 48:-0.26944 49:-0.763286 50:-0.0755817 51:-0.447425 52:-0.150947 53:-0.697773 54:0.311461 55:-0.481774 56:-0.513177 57:-0.901121 58:-0.216418 59:-0.859478 60:-0.929513 61:-0.50154 62:-0.410803 63:-0.737382 64:-0.528251 65:-0.914393 66:-0.448419 67:-0.249341 68:-0.42774 69:-0.450242 70:0.112505 71:-0.448971 72:-0.292971 73:-0.365024 74:-0.560411 75:-0.390642 76:0.022445 77:-0.123421 78:-0.59925 79:-0.489226 80:-0.824959 81:-0.601367 82:-0.275337 83:-0.302416 84:-0.690365 85:-0.243552 86:0.165145 87:-0.0472345 88:-0.0557786 89:-0.203291 90:0.328936 91:-0.684721 92:-0.460648 93:-0.220435 94:-0.807707 95:-0.05766 96:-0.575283 97:-0.435176 98:-0.447339 99:-0.439563 100:-0.490203 101:0.370629 102:0.106045 103:0.68334 104:0.832924 105:0.982691 106:1 107:0.637206 108:0.896511 109:0.927727 110:0.0948571 111:0.533733 112:0.779717 113:0.120335 114:0.212218 115:0.597789 116:0.493444 117:0.00220173 118:-0.662137 119:-0.665171 120:-0.884006 121:-0.754028 122:-0.882564 123:-0.510695 124:-0.869865 125:-0.886928 126:-0.581508 127:-0.533755 128:-0.597325 129:-0.49328 130:-0.804845 131:1 132:-0.439918 133:-0.797173 134:0.671858 135:-0.671852 136:-0.797173 137:0.111111 138:0.466381 139:-0.579054 140:0.737719 141:-0.268761 142:0.0833328 147:-0.2 149:-0.142857 151:-0.4 152:-0.677743 153:-0.852409 154:-0.285714 155:3.26501e-06 156:3.26501e-06 157:3.26501e-06 158:-0.142861 159:-0.142861 161:-0.333333 162:1.6325e-06 163:0.333335 164:0.333335 165:-0.333335 166:-3.265e-06 167:-3.265e-06 168:-3.265e-06 169:-3.265e-06 170:-3.265e-06 171:1 172:1 177:-3.265e-06 178:1.6325e-06 179:1.6325e-06 180:-0.199999 182:-0.142861 183:3.26501e-06 184:-0.399999 
1.209483650671612 -1.20948365067161 1:0.0236118 2:0.466687 3:-0.200825 4:-0.0890947 5:-0.0754497 6:-0.372546 7:0.49337 8:0.219545 9:0.0796462 10:-0.428571 14:-0.142857 15:-0.142857 16:-0.333333 17:-0.333333 19:0.333333 20:0.333333 21:0.333333 22:1 26:-1 27:-1 28:-1 32:-0.0276451 33:-0.278466 34:-0.927195 35:-0.412336 36:-0.690482 37:-0.466287 38:-0.966171 39:-0.370693 40:-0.642871 41:-0.692944 42:-0.945836 43:-0.664027 44:0.0448071 45:-0.734717 46:-0.678797 47:-0.114827 48:-0.0500465 49:-0.661711 50:-0.868266 51:-0.189686 52:-0.91558 53:-0.884181 54:-0.880199 55:-0.175452 56:-0.536999 57:-0.862624 58:-0.840559 59:-0.461939 60:-0.345162 61:-0.671215 62:-0.451035 63:-0.0310314 64:-0.31349 65:-0.217108 66:-0.803314 67:0.284512 68:-0.879997 69:-0.993395 70:-0.191427 71:-0.69688 72:-0.0663296 73:-0.150799 74:-0.745836 75:-0.489153 76:-0.613127 77:-0.607261 78:-0.51516 79:-0.489524 80:-0.3701 81:-0.339902 82:-0.549341 83:0.0577674 84:-0.606572 85:-0.763641 86:-0.24341 87:-0.661343 88:-0.148733 89:-0.305621 90:-0.298737 91:0.0709983 92:-0.172111 93:-0.49699 94:-0.675973 95:-0.455506 96:-0.875931 97:-0.525796 98:-0.350936 99:-0.363757 100:-0.815313 101:-0.428169 102:-0.676798 103:-0.570715 104:-0.669655 105:-0.548203 106:0.172963 107:-0.526815 108:-0.284998 109:0.206883 110:-0.762115 111:-0.34526 112:-0.758284 113:-0.930224 114:-0.521423 115:-0.874512 116:-0.679826 117:-0.294888 118:-0.698636 119:-0.965924 120:-0.829082 121:-0.852326 122:-0.495418 123:-0.65525 124:-0.869711 125:-0.425625 126:-0.511706 127:-0.410339 128:-0.637913 129:-0.583087 130:-0.789626 131:0.802913 132:-0.505715 133:-0.794475 134:0.667801 135:-0.667795 136:-0.794475 137:0.219493 138:0.448111 139:-0.775379 140:0.475218 141:-0.471732 142:-0.787313 144:1 147:-0.2 149:-0.142857 151:-0.4 152:-0.70364 153:-0.736876 154:-0.428572 155:3.26501e-06 156:3.26501e-06 157:3.26501e-06 158:-0.142861 159:-0.142861 160:-0.333333 161:-0.333333 162:1.6325e-06 163:0.333335 164:0.333335 165:0.333335 166:1 167:-3.265e-06 168:-3.265e-06 169:-3.265e-06 170:-1 171:-1 172:-1 177:1 178:1.6325e-06 179:1.6325e-06 180:-0.199999 182:-0.142861 183:3.26501e-06 184:-0.399999 
6.487537917510597 -6.487537917510603 1:-0.614451 2:-0.56385 3:-0.332197 4:-0.665927 5:-0.682383 6:-0.507485 7:0.366124 8:0.238363 9:-0.461828 10:-0.428571 11:-0.5 12:-0.5 13:-0.5 14:-0.714286 15:-0.714286 16:-1 17:-1 18:-1 19:-1 20:-1 21:-1 22:-1 23:-1 24:-1 25:-1 26:-1 27:-1 28:-1 32:-0.887862 33:-0.482536 34:-0.906282 35:-0.687797 36:-0.954637 37:-0.902162 38:-0.897822 39:-0.569536 40:-0.872813 41:-0.116941 42:-0.910249 43:-0.441142 44:-0.891043 45:-0.802301 46:-0.714651 47:-0.914508 48:-0.797846 49:-0.669224 50:-0.504591 51:-0.0309443 52:-0.626844 53:-0.472528 54:-0.653766 55:-0.443963 56:-0.93267 57:-0.40292 58:-0.86406 59:-0.655274 60:-0.698188 61:-0.473583 62:-0.519218 63:-0.534564 64:-0.513149 65:-0.728945 66:-0.536885 67:-0.0304047 68:-0.73885 69:-0.312706 70:-0.840995 71:-0.845763 72:-0.823184 73:-0.35781 74:-0.658725 75:-0.882473 76:-0.547446 77:-0.318302 78:-0.423743 79:-0.311808 80:-0.622155 81:-1 82:-0.73028 83:-0.268757 84:-0.868539 85:-0.433313 86:-0.762461 87:-0.686766 88:-0.579737 89:-0.515078 90:-0.604631 91:-1 92:-0.483665 93:-0.642907 94:-0.720698 95:-0.540718 96:-0.746919 97:-0.830467 98:-0.803516 99:-0.671855 100:-0.665637 101:-0.590584 102:-0.663678 103:-0.791686 104:-0.858831 105:-0.626503 106:-0.706428 107:-0.906469 108:-0.725233 109:-0.610713 110:-0.660594 111:-0.877225 112:-0.827765 113:-0.915528 114:-0.717533 115:-0.839309 116:-0.804863 117:-0.488174 118:-0.795602 119:-0.748103 120:-0.712901 121:-0.95025 122:-0.818401 123:-0.878366 124:-0.680053 125:-0.736348 126:-0.629865 127:-0.854084 128:-0.644193 129:-0.547814 130:-0.905286 131:0.143524 132:-0.295116 133:-0.514024 134:0.283501 135:-0.283505 136:-0.514024 137:0.618497 138:-0.508811 139:-0.803528 140:0.4016 141:1 142:-0.23378 144:-1 145:-1 146:-1 147:-1 148:-0.666667 149:-0.714286 150:-0.5 151:-0.8 152:0.419815 153:-0.689433 154:-0.428572 155:-0.499998 156:-0.499998 157:-0.499998 158:-0.714288 159:-0.714288 160:-1 161:-1 162:-1 163:-1 164:-1 165:-1 166:-1 167:-1 168:-1 169:-1 170:-1 171:-1 172:-1 177:-1 178:-1 179:-1 180:-1 181:-0.666667 182:-0.714288 183:-0.499998 184:-0.799999 
2.390557843352883 -2.390557843352894 1:-0.729239 2:-0.67936 3:-0.446492 4:-0.777237 5:-0.692639 6:-0.497795 7:0.128775 8:-0.212794 9:-0.643291 10:-0.714286 11:-0.5 12:-0.5 13:-0.75 14:-1 15:-1 16:-1 17:-1 18:-1 19:-1 20:-1 21:-1 22:-1 23:-1 24:-1 25:-1 26:-1 27:-1 28:-1 32:-0.853711 33:-0.617063 34:-0.914136 35:-0.682509 36:-0.901939 37:-0.78136 38:-0.634046 39:-0.336836 40:-0.70172 41:-0.398352 42:-0.837675 43:-1 44:-0.689017 45:-0.515623 46:-0.714048 47:-0.791968 48:-0.205204 49:-0.364878 50:-0.481165 51:-0.618069 52:-0.66138 53:-0.542127 54:-0.544254 55:-0.388354 56:-0.4964 57:-0.818074 58:-0.388725 59:-0.333246 60:-0.878602 61:-0.815281 62:-0.26143 63:-0.54575 64:-0.431309 65:-0.913934 66:-0.818825 67:-0.680656 68:-0.755777 69:-0.614385 70:-0.314664 71:-0.661055 72:-0.383685 73:-0.727038 74:-0.613067 75:-0.57444 76:-0.983149 77:-0.584803 78:-0.577575 79:-0.480455 80:-0.54428 81:-0.660887 82:-0.794146 83:-0.881511 84:-0.185126 85:-0.746055 86:-0.816572 87:-0.527262 88:-0.585748 89:-0.512492 90:-0.661425 91:-0.6628 92:-0.66007 93:-0.550197 94:-0.386015 95:-0.929425 96:-0.903575 97:-0.664082 98:-0.132745 99:-0.758272 100:-0.478487 101:-0.808403 102:-0.793129 103:-0.619557 104:-0.84369 105:-0.878102 106:-0.646168 107:-0.412506 108:-0.516716 109:-0.924067 110:-0.669329 111:-0.97061 112:-0.688462 113:-0.907119 114:-0.783959 115:-0.784809 116:-0.6632 117:-0.553965 118:-0.852129 119:-0.78265 120:-0.702711 121:-0.85615 122:-0.85712 123:-0.804875 124:-0.89131 125:-0.59289 126:-0.721172 127:-0.903992 128:-1 129:-0.329288 130:-0.617339 131:-0.226684 132:-0.182551 133:-0.277727 134:0.00852785 135:-0.00852125 136:-0.277727 137:0.679351 138:-0.396032 139:-0.504922 140:0.499528 141:0.81988 142:-0.244861 144:-1 145:-1 146:-1 147:-1 148:-0.666667 149:-0.428571 150:-0.25 151:-0.6 152:0.693818 153:-0.834128 154:-0.714285 155:-0.499998 156:-0.499998 157:-0.75 158:-1 159:-1 160:-1 161:-1 162:-1 163:-1 164:-1 165:-1 166:-1 167:-1 168:-1 169:-1 170:-1 171:-1 172:-1 177:-1 178:-1 179:-1 180:-1 181:-0.666667 182:-0.428573 183:-0.249997 184:-0.599999 
0.3571938217164868 -0.3571938217164656 1:-0.762229 2:-0.705588 3:-0.468882 4:-0.8024 5:-0.700691 6:-0.481877 7:0.0628359 8:-0.305688 9:-0.676787 10:-0.714286 11:-0.5 12:-0.5 13:-0.75 14:-1 15:-1 16:-1 17:-1 18:-1 19:-1 20:-1 21:-1 22:-1 23:-1 24:-1 25:-1 26:-1 27:-1 28:-1 32:-0.845279 33:-0.652378 34:-0.936532 35:-0.715105 36:-0.952786 37:-0.741678 38:-0.666518 39:-0.267277 40:-0.724089 41:-0.443539 42:-0.789398 43:-0.822945 44:-0.78242 45:-0.569764 46:-0.414268 47:-0.773845 48:-0.0865854 49:-0.56658 50:-0.771927 51:-0.713472 52:-0.614535 53:-0.514096 54:-0.576056 55:-0.374892 56:-0.305441 57:-0.554891 58:-0.645674 59:-0.415511 60:-0.538459 61:-0.941947 62:-0.269517 63:-0.818452 64:-0.727494 65:-0.770954 66:-0.655951 67:-0.87871 68:-0.680181 69:-0.558008 70:-0.0142906 71:-0.53695 72:-0.864059 73:-0.570083 74:-0.539259 75:-0.768958 76:-0.844833 77:-0.226689 78:-0.762548 79:-0.627188 80:-0.624239 81:-0.558998 82:-0.427413 83:-0.791097 84:-0.626422 85:-0.438052 86:-0.567862 87:-0.387535 88:-0.464176 89:-0.877097 90:-0.773966 91:-0.396937 92:-0.44082 93:-0.862064 94:-0.68723 95:-0.475536 96:-0.190421 97:-0.565117 98:-0.50416 99:-0.774265 100:-0.773939 101:-0.719325 102:-0.920946 103:-0.503839 104:-0.929367 105:-0.406511 106:-0.524229 107:-0.789583 108:-0.864028 109:-0.738007 110:-0.935264 111:-0.562487 112:-0.919534 113:-0.687468 114:-0.959874 115:-0.909762 116:-0.785569 117:-0.597789 118:-0.89598 119:-0.664445 120:-0.818954 121:-0.728536 122:-0.773057 123:-0.81658 124:-0.800376 125:-0.500433 126:-0.764505 127:-0.468454 128:-0.831729 129:-0.609792 130:-0.785552 131:-0.297664 132:-0.152115 133:-0.214992 134:-0.0582269 135:0.0582288 136:-0.214992 137:0.7158 138:-0.401116 139:-0.422032 140:0.493118 141:0.744961 142:-0.263239 144:-1 145:-1 146:-1 147:-1 148:-0.666667 149:-0.428571 150:-0.25 151:-0.6 152:0.775067 153:-0.857514 154:-0.714285 155:-0.499998 156:-0.499998 157:-0.75 158:-1 159:-1 160:-1 161:-1 162:-1 163:-1 164:-1 165:-1 166:-1 167:-1 168:-1 169:-1 170:-1 171:-1 172:-1 177:-1 178:-1 179:-1 180:-1 181:-0.666667 182:-0.428573 183:-0.249997 184:-0.599999 
2.842738478029274 -2.842738478029277 1:-0.818739 2:-0.740355 3:-0.521509 4:-0.840058 5:-0.682237 6:-0.455212 7:-0.09185 8:-0.49091 9:-0.809563 10:-0.714286 11:-0.5 12:-0.75 13:-0.75 14:-1 15:-1 16:-1 17:-1 18:-1 19:-1 20:-1 21:-1 22:-1 23:-1 24:-1 25:-1 26:-1 27:-1 28:-1 32:-0.859531 33:-0.682609 34:-0.970998 35:-0.730663 36:-0.805218 37:-0.683144 38:-0.718649 39:-0.181152 40:-0.750253 41:-0.53021 42:-0.44442 43:-0.801799 44:-0.694294 45:-0.736628 46:-0.204988 47:-0.0620027 48:-0.649197 49:-0.681038 50:-0.792155 51:-0.378523 52:-0.851287 53:-0.645977 54:-0.501367 55:-0.414737 56:-0.583967 57:-0.476117 58:-0.794921 59:-0.597825 60:-0.685267 61:-0.158576 62:-0.467888 63:-0.823681 64:-0.695354 65:-0.608667 66:-0.700037 67:-0.662855 68:-0.715771 69:-0.763498 70:-0.173896 71:-0.53572 72:-0.612907 73:-0.600688 74:-0.194996 75:-0.719365 76:-0.696848 77:-0.610117 78:-0.737628 79:-0.70732 80:-0.556515 81:-0.583118 82:-0.093146 83:-0.913557 84:-0.152253 85:-0.616547 86:-0.796828 87:-0.678929 88:-0.791376 89:-0.507465 90:-0.518261 91:-0.574242 92:-0.422122 93:-0.534644 94:-0.742135 95:-0.466682 96:-0.47666 97:-0.911348 98:-0.612555 99:-0.822601 100:-0.759095 101:-0.611624 102:-0.590703 103:-0.85246 104:-0.850791 105:-0.614304 106:-0.611349 107:-0.918098 108:-0.840162 109:-0.297975 110:-0.608812 111:-0.933852 112:-0.524416 113:-0.876369 114:-0.56427 115:-0.65988 116:-0.383074 117:-0.800792 118:-0.832869 119:-0.559672 120:-0.739471 121:-0.928748 122:-0.772231 123:-0.839027 124:-0.702434 125:-0.821058 126:-0.921816 127:-0.902505 128:-0.431007 129:-0.660955 130:-0.834725 131:-0.46404 132:-0.094037 133:-0.0587726 134:-0.214477 135:0.214473 136:-0.0587726 137:0.785324 138:-0.433899 139:-0.233697 140:0.446332 141:0.834405 142:-0.256772 144:-1 145:-1 146:-1 147:-1 148:-0.666667 149:-0.428571 150:-0.5 151:-0.8 152:0.854267 153:-0.892955 154:-0.714285 155:-0.499998 156:-0.75 157:-0.75 158:-1 159:-1 160:-1 161:-1 162:-1 163:-1 164:-1 165:-1 166:-1 167:-1 168:-1 169:-1 170:-1 171:-1 172:-1 177:-1 178:-1 179:-1 180:-1 181:-0.666667 182:-0.428573 183:-0.499998 184:-0.799999 
4.650907533320041 -4.650907533320038 1:-0.647694 2:-0.325622 3:-0.542438 4:-0.687006 5:-0.362226 6:-0.346037 7:-0.292487 8:-0.614236 9:-0.876665 10:-0.714286 11:-0.5 12:-0.5 13:-0.5 14:-0.714286 15:-0.714286 16:-0.666667 17:-0.666667 18:-0.5 19:-0.333333 20:-1 21:-1 22:-1 23:-1 24:-1 25:-1 26:-1 27:-1 28:-1 32:-0.432539 33:-0.822217 34:-0.143821 35:-0.656176 36:-0.878176 37:-0.473269 38:-0.691553 39:-0.484426 40:-0.374593 41:-0.448228 42:-0.608754 43:-0.418681 44:-0.236046 45:-0.203885 46:-0.904734 47:-0.720544 48:-0.91037 49:-0.120076 50:-0.581478 51:-0.00294146 52:-0.716225 53:-0.752817 54:-0.503639 55:-0.421063 56:-0.307438 57:-0.80957 58:-0.610428 59:-0.244641 60:-0.81538 61:-0.0839105 62:-0.478206 63:-0.493989 64:-0.360912 65:-0.309671 66:0.0144819 67:-0.44458 68:-0.0280301 69:-0.752278 70:-0.282556 71:-0.72522 72:-0.233886 73:-0.405324 74:-0.399388 75:-0.756713 76:-0.413183 77:-0.446625 78:-0.160549 79:-0.917336 80:-0.373821 81:-0.48109 82:0.0514251 83:0.0311951 84:-0.344934 85:-0.657756 86:-0.660839 87:0.259516 88:-0.610969 89:-0.736619 90:-0.283022 91:-0.639647 92:-0.531985 93:-0.231056 94:-0.847059 95:-0.471821 96:-0.841964 97:-0.90493 98:-0.094539 99:-0.764358 100:-0.582112 101:-0.620049 102:-0.702103 103:-0.88984 104:-0.779519 105:-0.0917992 106:-0.294451 107:-0.723038 108:-0.627765 109:-0.600658 110:-0.643171 111:-0.790089 112:-0.794802 113:-0.801223 114:-0.535432 115:-0.596796 116:-0.203664 117:-0.863998 118:-0.640265 119:-0.518411 120:-0.606577 121:-0.659028 122:-0.639944 123:-0.754537 124:-0.929883 125:-0.885684 126:-0.756373 127:-0.517351 128:-0.465256 129:-0.607457 130:-0.798071 131:-0.59405 132:-0.0185065 133:0.113619 134:-0.372062 135:0.372056 136:0.113619 137:0.623635 138:-0.245187 139:-0.180135 140:0.082167 141:0.0794759 142:-0.824516 144:-1 145:-1 146:-0.5 147:-0.6 148:-0.666667 149:-0.428571 150:-0.5 151:-0.6 152:0.093944 153:-0.915881 154:-0.714285 155:-0.499998 156:-0.499998 157:-0.499998 158:-0.714288 159:-0.714288 160:-0.666667 161:-0.666667 162:-0.500001 163:-0.333335 164:-1 165:-1 166:-1 167:-1 168:-1 169:-1 170:-1 171:-1 172:-1 177:-1 178:-1 179:-0.500001 180:-0.600001 181:-0.666667 182:-0.428573 183:-0.499998 184:-0.599999 
0.2404034680373063 -0.2404034680373094 1:-0.642845 2:-0.294653 3:-0.538331 4:-0.685541 5:-0.368021 6:-0.310225 7:-0.335049 8:-0.622884 9:-0.846057 10:-0.571429 11:-0.5 12:-0.5 13:-0.5 14:-0.714286 15:-0.714286 16:-0.666667 17:-0.666667 18:-0.5 19:-0.333333 20:-1 21:-1 22:-1 23:-1 24:-1 25:-1 26:-1 27:-1 28:-1 32:-0.394387 33:-0.749469 34:-0.101299 35:-0.745392 36:-0.852706 37:-0.539835 38:-0.541072 39:-0.343104 40:-0.449126 41:-0.607542 42:-0.752134 43:-0.45796 44:-0.478854 45:-0.236557 46:-0.89233 47:-0.956502 48:-0.671662 49:-0.299778 50:-0.628638 51:-0.221837 52:-0.272327 53:-0.649227 54:-0.380791 55:-0.685295 56:-0.79939 57:-0.453144 58:-1 59:-0.98432 60:0.0413919 61:0.0376012 62:-0.561181 63:-0.432771 64:-0.915224 65:-0.449277 66:-0.270849 67:0.0992106 68:-0.667386 69:-0.91578 70:0.0240535 71:-0.921261 72:-0.760575 73:-0.822814 74:-0.501107 75:-0.00590037 76:-0.655901 77:-0.445286 78:-0.791408 79:-0.359664 80:-0.951837 81:-0.768108 82:-0.711487 83:-0.697861 84:-0.294449 85:-0.303857 86:-0.537009 87:-0.546394 88:-0.176907 89:-0.588286 90:-0.667829 91:-0.484295 92:-0.928496 93:0.174829 94:-0.418209 95:-0.542913 96:-0.601061 97:-0.307408 98:-0.635978 99:-0.815077 100:-0.661327 101:-0.88984 102:-0.573294 103:-0.342983 104:-0.646578 105:-0.527337 106:-0.803506 107:-0.945109 108:-0.464231 109:-0.578627 110:-0.819584 111:-0.743975 112:-0.785791 113:-0.916125 114:-0.6929 115:-0.577652 116:-0.528295 117:-0.833198 118:-0.79211 119:-0.783494 120:-0.497473 121:-0.794477 122:-0.783792 123:-0.798575 124:-0.7851 125:-0.77271 126:-0.547364 127:-0.630925 128:-0.607222 129:-0.273339 130:-0.654017 131:-0.59789 132:-0.0254324 133:0.110766 134:-0.369553 135:0.369563 136:0.110766 137:0.635517 138:-0.177932 139:-0.170858 140:-0.00385458 141:0.000199698 142:-0.819391 144:-1 145:-1 146:-0.5 147:-0.6 148:-0.666667 149:-0.428571 150:-0.25 151:-0.6 152:0.0968834 153:-0.910594 154:-0.571428 155:-0.499998 156:-0.499998 157:-0.499998 158:-0.714288 159:-0.714288 160:-0.666667 161:-0.666667 162:-0.500001 163:-0.333335 164:-1 165:-1 166:-1 167:-1 168:-1 169:-1 170:-1 171:-1 172:-1 177:-1 178:-1 179:-0.500001 180:-0.600001 181:-0.666667 182:-0.428573 183:-0.249997 184:-0.599999 
10.10926542242427 -10.10926542242428 1:-0.665397 2:-0.241053 3:-0.529455 4:-0.659707 5:-0.338867 6:-0.270468 7:-0.370836 8:-0.624761 9:-0.753791 10:-0.714286 11:-0.5 12:-0.5 13:-0.5 14:-0.428571 15:-0.714286 16:-0.666667 17:-0.666667 18:-0.5 19:-0.333333 20:-0.333333 21:-1 22:-1 23:-1 24:-1 25:-1 26:-1 27:-1 28:-1 32:-0.359617 33:-0.538763 34:-0.119488 35:-0.811124 36:-0.877762 37:-0.632892 38:-0.230224 39:-0.436636 40:-0.351455 41:-0.981523 42:-0.608375 43:-0.578402 44:-0.698584 45:-0.114843 46:-0.724932 47:-0.901737 48:-0.701913 49:-0.916376 50:0.277827 51:-0.511066 52:0.223547 53:-0.841684 54:-0.78132 55:-0.454909 56:-0.175467 57:-0.408085 58:-0.919679 59:-0.272063 60:-0.643874 61:-0.52937 62:-0.451165 63:-0.312718 64:-0.24314 65:-0.738697 66:-0.512823 67:-0.500444 68:-0.104649 69:-0.89965 70:-0.851082 71:-0.122432 72:-0.853435 73:-0.680017 74:-0.624878 75:-0.392043 76:-0.425048 77:-0.214556 78:-0.719955 79:-0.521401 80:-0.749784 81:-0.824086 82:-0.384911 83:-0.65284 84:-0.465163 85:-0.614695 86:-0.676074 87:-0.364017 88:-0.671263 89:-0.562193 90:-0.580611 91:-0.680831 92:-0.729335 93:-0.0505232 94:-0.614862 95:-0.587758 96:-0.586876 97:-0.673329 98:-0.793581 99:-0.884295 100:-0.716518 101:-0.446841 102:-0.593097 103:-0.734302 104:-0.732945 105:0.176454 106:-0.913004 107:-0.829889 108:-0.580385 109:-0.953245 110:-0.623337 111:-0.941169 112:-0.438669 113:-0.744987 114:-0.32946 115:-0.797071 116:-0.640362 117:-0.603542 118:-0.810187 119:-0.310674 120:-0.667115 121:-0.735988 122:-0.63654 123:-0.550854 124:-0.840829 125:-0.827594 126:-0.646311 127:-0.407378 128:-0.561964 129:-0.821427 130:-0.567673 131:-0.55905 132:-0.0576123 133:0.0477384 134:-0.313555 135:0.313543 136:0.0477384 137:0.79255 138:-0.188016 139:-0.198405 140:-0.110305 141:-0.123084 142:-0.754711 144:-1 145:-1 146:-0.5 147:-0.6 148:-0.666667 149:-0.428571 150:-0.5 151:-0.8 152:0.0257749 153:-0.88962 154:-0.714285 155:-0.499998 156:-0.499998 157:-0.499998 158:-0.428573 159:-0.714288 160:-0.666667 161:-0.666667 162:-0.500001 163:-0.333335 164:-0.333335 165:-1 166:-1 167:-1 168:-1 169:-1 170:-1 171:-1 172:-1 177:-1 178:-1 179:-0.500001 180:-0.600001 181:-0.666667 182:-0.428573 183:-0.499998 184:-0.799999 
1.308758045456136 -1.308758045456138 1:-0.606967 2:-0.0947503 3:-0.506565 4:-0.602456 5:-0.283068 6:-0.240216 7:-0.347549 8:-0.606797 9:-0.542426 10:-0.571429 11:-0.5 12:-0.5 13:-0.5 14:-0.428571 15:-0.714286 16:-0.666667 17:-0.666667 18:-0.5 19:-0.333333 20:-0.333333 21:-0.333333 23:-1 24:-1 25:-1 26:-1 27:-1 28:-1 32:-0.378562 33:-0.14354 34:-0.302469 35:-0.768634 36:-0.935376 37:-0.759946 38:0.0153996 39:-0.84945 40:-0.644605 41:0.0139903 42:-0.437365 43:-0.57049 44:-0.540794 45:-0.088013 46:-0.782103 47:-0.288848 48:-0.812087 49:-0.668398 50:-0.666867 51:-0.837173 52:0.729514 53:-0.774607 54:-0.516496 55:-0.753592 56:-0.140345 57:-0.577592 58:0.0753984 59:-0.57782 60:-0.847262 61:-0.979118 62:-0.595841 63:0.0548903 64:-0.947548 65:-0.439743 66:-0.468502 67:-0.486944 68:0.0739633 69:-0.213654 70:-0.114256 71:-0.830202 72:-0.452313 73:-0.196959 74:-0.827968 75:-0.740908 76:-0.487136 77:-0.295291 78:-0.570633 79:0.10157 80:-0.851906 81:-0.448245 82:-0.692802 83:-0.60721 84:-0.369858 85:-0.67221 86:-0.104257 87:-0.549386 88:-0.582283 89:-0.643013 90:0.0209624 91:-0.320077 92:-0.718211 93:-0.662631 94:-0.694727 95:-0.99143 96:-0.333642 97:-0.0788438 98:-0.801778 99:-0.725725 100:-0.537207 101:-0.613706 102:-0.584391 103:-0.884195 104:-0.465214 105:-0.409835 106:-0.704461 107:-0.458542 108:-0.1142 109:0.00710406 110:-0.751171 111:-0.540678 112:-0.604497 113:-0.422151 114:-0.58743 115:-0.885483 116:-0.648216 117:-0.576261 118:-0.632941 119:-0.770589 120:-0.91304 121:-0.878035 122:-0.738339 123:-0.401706 124:-0.698067 125:-0.700151 126:-0.813126 127:-0.678176 128:-0.784991 129:-0.472752 130:-0.83161 131:-0.416155 132:-0.168199 133:-0.153865 134:-0.121005 135:0.121002 136:-0.153865 137:0.780507 138:-0.0701147 139:-0.352833 140:-0.221999 141:-0.317916 142:-0.615267 144:-1 145:-0.5 146:-0.5 147:-0.6 148:-0.666667 149:-0.428571 150:-0.25 151:-0.6 152:-0.10956 153:-0.815791 154:-0.571428 155:-0.499998 156:-0.499998 157:-0.499998 158:-0.428573 159:-0.714288 160:-0.666667 161:-0.666667 162:-0.500001 163:-0.333335 164:-0.333335 165:-0.333335 166:-3.265e-06 167:-1 168:-1 169:-1 170:-1 171:-1 172:-1 177:-1 178:-0.500001 179:-0.500001 180:-0.600001 181:-0.666667 182:-0.428573 183:-0.249997 184:-0.599999 
0.7203233423843435 -0.720323342384345 1:-0.337565 2:0.232559 3:-0.231414 4:-0.330754 5:-0.351269 6:0.0629892 7:-0.0613175 8:0.0197678 9:0.275604 10:-0.142857 11:-0.5 12:-0.5 13:-0.5 14:-0.428571 15:-0.428571 16:-0.333333 17:-0.666667 18:-0.5 19:-0.333333 20:-0.333333 21:-0.333333 27:-1 28:-1 32:-0.475358 33:-0.359473 34:-0.449004 35:-0.363585 36:-0.262451 37:-0.155022 38:-0.244842 39:-0.695648 40:-0.464394 41:0.149879 42:-0.514726 43:-0.334185 44:0.0464743 45:-0.517837 46:-0.480609 47:-0.68482 48:-0.28839 49:-0.502093 50:-0.806474 51:-0.692941 52:-0.759578 53:-0.26175 54:-0.171502 55:-0.514576 56:0.41299 57:-0.673422 58:0.0385066 59:-0.924527 60:-0.711961 61:-0.660566 62:-0.782761 63:0.118915 64:-0.581863 65:-0.318915 66:-0.603779 67:-0.325988 68:-0.393854 69:-0.930337 70:0.714218 71:-0.717358 72:-0.302751 73:-0.353237 74:-0.412898 75:-0.431914 76:-0.132922 77:-0.158829 78:0.0405115 79:-0.258652 80:-0.703881 81:-0.204434 82:-0.392872 83:-0.612848 84:-0.668758 85:-0.604491 86:0.281381 87:-0.430039 88:-0.146605 89:-0.229746 90:-0.10806 91:-0.620306 92:-0.66532 93:-0.24607 94:-0.515263 95:-0.284766 96:-0.903232 97:-0.866606 98:-0.429923 99:-0.637931 100:-0.833245 101:-0.530837 102:-0.190567 103:-0.866117 104:-0.845061 105:-0.65183 106:-0.751285 107:-0.483163 108:-0.448811 109:0.335382 110:-0.690862 111:-0.681698 112:-0.853736 113:-0.687798 114:-0.93225 115:-0.272448 116:-0.726175 117:-0.636772 118:-0.78042 119:-0.620109 120:-0.784039 121:-0.747911 122:-0.572247 123:-0.581898 124:-0.806 125:-0.544346 126:-0.595715 127:-0.301763 128:-0.875251 129:-0.744859 130:-0.71249 131:0.347557 132:-0.38825 133:-0.632447 134:0.437216 135:-0.437218 136:-0.632447 137:0.549294 138:0.110752 139:-0.565946 140:-0.214391 141:-0.0315157 142:0.11504 144:-1 145:-0.5 146:-0.5 147:-0.2 148:-0.333333 149:-0.428571 150:-0.25 151:-0.4 152:-0.373207 153:-0.582144 154:-0.142857 155:-0.499998 156:-0.499998 157:-0.499998 158:-0.428573 159:-0.428573 160:-0.333333 161:-0.666667 162:-0.500001 163:-0.333335 164:-0.333335 165:-0.333335 166:-3.265e-06 167:-3.265e-06 168:-3.265e-06 169:-3.265e-06 170:-3.265e-06 171:-1 172:-1 177:-1 178:-0.500001 179:-0.500001 180:-0.199999 181:-0.333333 182:-0.428573 183:-0.249997 184:-0.399999 
0.5195790621868818 -0.5195790621868839 1:0.120003 2:0.626371 3:0.123947 4:0.11747 5:-0.300996 6:0.127516 7:0.574798 8:0.6597 9:0.275863 10:-0.285714 11:0.25 12:0.25 14:0.142857 15:0.142857 16:0.333333 18:0.5 19:1 20:1 21:-0.333333 27:-1 28:-1 32:0.206696 33:0.45249 34:-0.218358 35:-0.433829 36:-0.422633 37:-0.410208 38:0.517475 39:-0.569803 40:-0.609799 41:-0.920913 42:-0.47459 43:0.527261 44:-0.276002 45:0.860747 46:0.0928363 47:-0.482446 48:-0.183342 49:-0.156258 50:-0.108728 51:-0.897647 52:-0.275972 53:-0.0491682 54:0.577019 55:-0.500175 56:0.0443369 57:-0.494534 58:-0.732218 59:-0.347723 60:-0.373686 61:-0.322925 62:-0.411511 63:-0.939811 64:-0.372983 65:-0.761157 66:-0.105386 67:-0.0122353 68:-0.590976 69:-0.85091 70:-0.293289 71:0.445365 72:-0.648316 73:0.00415359 74:-0.310699 75:-0.687098 76:-0.631188 77:-0.625044 78:-0.724203 79:-0.658852 80:0.0549576 81:0.28871 82:-0.258995 83:-0.385556 84:-0.527096 85:-0.296782 86:-0.653115 87:-0.815019 88:-0.435636 89:-0.564403 90:-0.367811 91:-0.690766 92:-0.147726 93:-0.602587 94:-0.463818 95:-0.71949 96:0.254581 97:-0.851584 98:-0.314929 99:-0.246459 100:-0.266239 101:-0.412344 102:0.282121 103:-0.400095 104:-0.744182 105:-0.819826 106:-0.259327 107:-0.611869 108:0.111702 109:0.455261 110:-0.115945 111:-0.413188 112:-0.668378 113:-0.205373 114:-0.595937 115:-0.70854 116:-0.605829 117:-0.641023 118:-0.00482092 119:-0.434419 120:-0.649517 121:-0.874668 122:-0.376321 123:-0.899286 124:-0.224155 125:-0.466728 126:-0.28804 127:-0.85526 128:0.00091596 129:-0.607033 130:-0.367418 131:-0.447663 132:1 133:0.842781 134:-0.906474 135:0.906473 136:0.842781 137:0.262524 138:0.48086 139:-0.529646 140:0.513474 141:0.584729 142:0.126683 144:-1 146:0.5 147:0.2 149:0.142857 151:-0.2 152:-0.712153 153:-0.766577 154:-0.285714 155:0.250005 156:0.250005 157:3.26501e-06 158:0.142852 159:0.142852 160:0.333333 162:0.500001 163:1 164:1 165:-0.333335 166:-3.265e-06 167:-3.265e-06 168:-3.265e-06 169:-3.265e-06 170:-3.265e-06 171:-1 172:-1 177:-1 178:1.6325e-06 179:0.500001 180:0.199999 182:0.142852 183:3.26501e-06 184:-0.199998 
0.4985334471006216 -0.4985334471006208 1:0.105699 2:0.610703 3:0.369234 4:0.157195 5:-0.521797 6:0.36253 7:0.730693 8:0.75598 9:0.404393 10:-0.285714 11:0.25 12:0.25 14:0.142857 15:0.142857 16:0.333333 18:0.5 19:1 20:1 21:-0.333333 27:-1 28:-1 32:0.194543 33:0.471706 34:-0.238659 35:-0.36969 36:-0.466229 37:-0.687802 38:0.705972 39:-0.728338 40:-0.699943 41:-0.798304 42:-0.424631 43:0.151389 44:-0.625253 45:0.64504 46:-0.102898 47:-0.420889 48:-0.171581 49:-0.31141 50:-0.37555 51:-0.41561 52:-0.657037 53:-0.524072 54:0.139464 55:0.290041 56:-0.845755 57:-0.157785 58:-0.253707 59:-0.661673 60:-0.364144 61:-0.197517 62:-0.034181 63:-0.174694 64:-0.626239 65:0.0166223 66:-0.795519 67:0.175884 68:-0.191902 69:-0.604757 70:-0.706939 71:-0.446519 72:0.473832 73:-0.464228 74:0.211065 75:-0.258178 76:-0.317917 77:-0.676556 78:-0.861315 79:-0.621056 80:-0.437315 81:0.290625 82:0.0680468 83:0.0786096 84:-0.0870726 85:-0.221353 86:-0.254047 87:-0.218816 88:-0.549676 89:-0.703534 90:-0.574071 91:-0.384111 92:-0.523589 93:-0.621839 94:-0.479541 95:-0.526649 96:-0.47828 97:-0.315569 98:-0.548133 99:-0.237828 100:-0.406891 101:-0.490384 102:-0.719111 103:-0.085229 104:-0.379273 105:-0.53907 106:-0.676638 107:-0.784934 108:-0.480361 109:-0.897586 110:0.194576 111:-0.422347 112:-0.452724 113:-0.746266 114:-0.492199 115:-0.337582 116:-0.547011 117:-0.913498 118:-0.733566 119:-0.594701 120:-0.425584 121:-0.775939 122:-0.832881 123:-0.713202 124:-0.728914 125:-0.788508 126:-0.713713 127:-0.514917 128:-0.363053 129:-0.586321 130:-0.857057 131:-0.276384 132:0.961287 133:0.618598 134:-0.761354 135:0.761354 136:0.618598 137:0.288857 138:0.474216 139:-0.397426 140:0.691846 141:0.606989 142:0.223365 144:-1 146:0.5 147:0.2 149:0.142857 151:-0.2 152:-0.612992 153:-0.846759 154:-0.285714 155:0.250005 156:0.250005 157:3.26501e-06 158:0.142852 159:0.142852 160:0.333333 162:0.500001 163:1 164:1 165:-0.333335 166:-3.265e-06 167:-3.265e-06 168:-3.265e-06 169:-3.265e-06 170:-3.265e-06 171:-1 172:-1 177:-1 178:1.6325e-06 179:0.500001 180:0.199999 182:0.142852 183:3.26501e-06 184:-0.199998 
0.1236831114049882 -0.1236831114049807 1:0.0953628 2:0.201477 3:0.558037 4:0.17732 5:-0.662739 6:0.59672 7:0.770148 8:0.679051 9:0.365142 10:0.285714 11:0.25 12:0.25 14:-0.142857 15:-0.142857 17:-0.333333 19:0.333333 20:0.333333 21:-1 22:-1 23:-1 24:-1 25:-1 26:-1 27:-1 28:-1 32:0.242187 33:0.47031 34:-0.306324 35:-0.390461 36:-0.46119 37:-0.738592 38:0.812812 39:-0.847991 40:-0.770065 41:-0.718991 42:-0.420955 43:-0.135166 44:-0.547663 45:0.0265867 46:-0.133708 47:-0.126142 48:-0.0246852 49:-0.387804 50:-0.109251 51:-0.670384 52:-0.0775391 53:0.347929 54:-0.760011 55:0.580532 56:-0.740995 57:-0.4437 58:-0.943201 59:-0.744421 60:-0.0424403 61:0.449391 62:-0.423746 63:-0.523406 64:-0.634539 65:-0.43117 66:-0.225081 67:1 68:-0.574702 69:-0.665848 70:-0.817065 71:0.243936 72:-0.0161081 73:-0.361609 74:-0.28567 75:-0.251221 76:-0.0579448 77:-0.383923 78:-0.245611 79:0.317322 80:0.033289 81:0.733044 82:0.235747 83:-0.433058 84:0.10924 85:0.00570811 86:-0.223513 87:0.145956 88:-0.675036 89:-0.636422 90:-0.455247 91:-0.103373 92:-0.00120247 93:-0.360833 94:-0.409506 95:0.344135 96:-0.598483 97:0.257616 98:-0.794222 99:-0.0499144 100:-0.238842 101:-0.346135 102:-0.71326 103:0.421002 104:-0.433954 105:-0.27218 106:-0.481066 107:-0.755912 108:-0.239244 109:0.745404 110:-0.464146 111:0.141768 112:-0.419361 113:-0.671764 114:-0.477018 115:-0.780166 116:-0.673535 117:-0.438407 118:-0.753074 119:-0.725272 120:0.0415862 121:-0.887983 122:-0.732937 123:-0.840024 124:-0.774007 125:-0.840647 126:-0.0470993 127:-0.4269 128:-0.117702 129:-0.900593 130:-0.6524 131:-0.165125 132:0.838843 133:0.423573 134:-0.622293 135:0.622292 136:0.423573 137:0.205363 138:0.296717 139:-0.265667 140:0.737001 141:0.610111 142:0.248708 144:-1 145:-0.5 147:-0.2 149:0.142857 151:-0.2 152:-0.530754 153:-0.893402 154:0.285711 155:0.250005 156:0.250005 157:3.26501e-06 158:-0.142861 159:-0.142861 161:-0.333333 162:1.6325e-06 163:0.333335 164:0.333335 165:-1 166:-1 167:-1 168:-1 169:-1 170:-1 171:-1 172:-1 177:-1 178:-0.500001 179:1.6325e-06 180:-0.199999 182:0.142852 183:3.26501e-06 184:-0.199998 
0.07809913430506724 -0.07809913430506414 1:0.132888 2:0.173205 3:0.659726 4:0.189891 5:-0.726634 6:0.755699 7:0.750446 8:0.568238 9:0.250378 10:0.142857 11:0.25 12:0.25 13:-0.25 14:-0.142857 15:-0.142857 17:-0.333333 19:0.333333 20:-0.333333 21:-1 22:-1 23:-1 24:-1 25:-1 26:-1 27:-1 28:-1 32:0.260928 33:0.397607 34:-0.270263 35:-0.421285 36:-0.272391 37:-0.674629 38:0.824364 39:-0.673845 40:-0.480229 41:-0.228549 42:-0.0395599 43:-0.124766 44:-0.0473067 45:-0.37569 46:-0.739565 47:-0.326647 48:0.19537 49:-0.229562 50:-0.452557 51:-0.19948 52:0.00587839 53:1 54:-0.0307614 55:-0.495811 56:-0.608796 57:-0.435667 58:-0.529613 59:0.280077 60:0.136921 61:-0.0669643 62:-0.736771 63:-0.291108 64:-0.201344 65:0.716192 66:-0.384826 67:0.370487 68:-0.338169 69:-0.518259 70:-0.248711 71:-0.879418 72:-0.578067 73:0.487358 74:0.774922 75:-0.199189 76:-0.750735 77:-0.421755 78:-0.0893696 79:0.0286273 80:0.358607 81:-0.72728 82:-0.0652337 83:-0.720883 84:0.137345 85:-0.135878 86:-0.383713 87:-0.417243 88:-0.338426 89:-0.209203 90:0.127027 91:-0.730507 92:-0.611158 93:-0.428058 94:-0.362387 95:-0.354343 96:-0.382083 97:-0.127314 98:-0.256379 99:-0.723017 100:-0.164714 101:-0.0412057 102:0.336559 103:-0.583841 104:-0.682281 105:-0.369632 106:-0.433065 107:-0.359109 108:-0.743839 109:0.458105 110:-0.359412 111:-0.48962 112:-0.968999 113:-0.750176 114:-0.706594 115:0.0258625 116:-0.0467385 117:-0.837151 118:-0.595343 119:-0.757259 120:-0.294216 121:-0.373242 122:-0.464072 123:-0.786936 124:-0.60159 125:-0.810042 126:-0.239408 127:-0.351345 128:-0.837994 129:0.0104264 130:-0.926385 131:-0.080608 132:0.716656 133:0.269145 134:-0.502502 135:0.502492 136:0.269145 137:0.125401 138:0.292595 139:-0.176226 140:0.71446 141:0.588426 142:0.183286 144:-1 145:-0.5 147:-0.2 149:0.142857 151:-0.2 152:-0.49016 153:-0.909947 154:0.142853 155:0.250005 156:0.250005 157:-0.249997 158:-0.142861 159:-0.142861 161:-0.333333 162:1.6325e-06 163:0.333335 164:-0.333335 165:-1 166:-1 167:-1 168:-1 169:-1 170:-1 171:-1 172:-1 177:-1 178:-0.500001 179:1.6325e-06 180:-0.199999 182:0.142852 183:3.26501e-06 184:-0.199998 
0.5522033791357535 -0.5522033791357626 1:0.239184 2:0.0941906 3:0.771145 4:0.266977 5:-0.743131 6:0.879364 7:0.779069 8:0.533177 9:0.0217009 11:0.25 14:-0.142857 15:-0.142857 19:-0.333333 20:-1 21:-1 22:-1 23:-1 24:-1 25:-1 26:-1 27:-1 28:-1 32:0.316486 33:0.473659 34:-0.419763 35:-0.600225 36:0.0335814 37:0.111771 38:0.395854 39:-0.421048 40:-0.340496 41:-0.0562769 42:0.451215 43:0.389089 44:0.311011 45:0.108647 46:-0.250604 47:-0.0311204 48:-0.732662 49:-0.215634 50:0.12311 51:0.37982 52:0.639785 53:-0.275473 54:0.191063 55:-0.244594 56:-0.456008 57:-0.232131 58:0.572526 59:0.246822 60:0.231191 61:0.183837 62:-0.376908 63:0.190538 64:0.457247 65:0.0342671 66:-0.409688 67:-0.424411 68:-0.375993 69:-0.419674 70:-0.0499511 71:-0.544075 72:-0.764545 73:0.0915345 74:-0.178874 75:-0.81723 76:-0.137997 77:-0.24222 78:0.370597 79:-0.730915 80:-0.836247 81:-0.396422 82:-0.197131 83:-0.093581 84:-0.0523368 85:-0.539735 86:0.0415236 87:-0.192187 88:-0.0727054 89:0.434501 90:-0.550716 91:-0.823019 92:-0.302812 93:0.416371 94:0.916003 95:0.195423 96:-0.696054 97:-0.699777 98:0.158254 99:-0.283895 100:-0.316595 101:-0.182294 102:-0.657726 103:-0.123948 104:-0.813916 105:-0.678796 106:0.109516 107:-0.0333214 108:-0.624666 109:-0.389007 110:-0.428028 111:-0.815141 112:0.205685 113:-0.158124 114:-0.290768 115:-0.192341 116:-0.334612 117:0.0189045 118:-0.011894 119:0.533251 120:-0.585766 121:-0.862836 122:0.0871934 123:-0.461667 124:-0.698975 125:0.159279 126:-0.488881 127:-0.154603 128:-0.146293 129:-0.461225 130:-0.243713 131:0.0629843 132:0.540347 133:0.0536491 134:-0.318867 135:0.318876 136:0.0536491 137:-0.23282 138:0.292817 139:-0.106654 140:0.747212 141:0.473807 142:-0.192501 144:-1 145:-0.5 147:-0.2 148:-0.333333 149:0.142857 150:0.25 151:-0.2 152:-0.522686 153:-0.94205 154:4.66429e-06 155:0.250005 156:3.26501e-06 157:3.26501e-06 158:-0.142861 159:-0.142861 162:1.6325e-06 163:-0.333335 164:-1 165:-1 166:-1 167:-1 168:-1 169:-1 170:-1 171:-1 172:-1 177:-1 178:-0.500001 179:1.6325e-06 180:-0.199999 181:-0.333333 182:0.142852 183:0.250005 184:-0.199998 
0.555136119320604 -0.5551361193206057 1:0.279536 2:0.0893994 3:0.818767 4:0.30966 5:-0.742649 6:0.959327 7:0.758464 8:0.519465 9:-0.0131375 13:-0.25 14:-0.142857 15:-0.142857 19:-0.333333 20:-1 21:-1 22:-1 23:-1 24:-1 25:-1 26:-1 27:-1 28:-1 32:0.252338 33:0.529 34:-0.468831 35:-0.741732 36:0.229419 37:0.295035 38:0.322395 39:-0.39306 40:-0.492758 41:-0.309326 42:0.621606 43:0.838285 44:0.177869 45:-0.170741 46:-0.079348 47:-0.246246 48:-0.555061 49:0.0120891 50:0.224598 51:0.161945 52:0.0451077 53:-0.079053 54:-0.0114059 55:0.179758 56:-0.45109 57:-0.417933 58:-0.500255 59:1 60:-0.328443 61:1 62:-0.475948 63:0.262994 64:-0.927386 65:0.606948 66:0.353677 67:-0.661065 68:-0.195506 69:0.291135 70:0.0467616 71:0.653124 72:-0.130054 73:-0.735779 74:-0.0915116 75:-0.605895 76:-0.579557 77:1 78:0.19766 79:-0.74888 80:0.00815724 81:0.690891 82:-0.259414 83:-0.148609 84:0.496914 85:0.162139 86:-0.164877 87:0.0358012 88:-0.26736 89:-0.379199 90:0.123318 91:-0.0660253 92:-0.170978 93:-0.910107 94:-0.108296 95:-0.816691 96:-0.166639 97:0.265216 98:-0.231935 99:-0.857821 100:-0.768192 101:-0.262566 102:-0.356847 103:-0.645729 104:0.0434136 105:0.54232 106:-0.695323 107:-0.243466 108:-0.661314 109:0.0243362 110:-0.463005 111:-0.0475748 112:-0.268308 113:-0.228539 114:-0.870541 115:0.0702614 116:-0.668774 117:-0.310389 118:-0.188494 119:0.146952 120:-0.142364 121:-0.221041 122:-0.418424 123:-0.370521 124:-0.405573 125:-0.852043 126:-0.00167561 127:-0.582797 128:0.121377 129:-0.732462 130:-0.374123 131:0.122142 132:0.556619 133:0.0285348 134:-0.296099 135:0.296098 136:0.0285348 137:-0.366249 138:0.303409 139:-0.0616694 140:0.723635 141:0.411155 142:-0.28085 144:-1 147:-0.2 148:-0.333333 149:-0.142857 151:-0.2 152:-0.546763 153:-0.950529 154:4.66429e-06 155:3.26501e-06 156:3.26501e-06 157:-0.249997 158:-0.142861 159:-0.142861 162:1.6325e-06 163:-0.333335 164:-1 165:-1 166:-1 167:-1 168:-1 169:-1 170:-1 171:-1 172:-1 177:-1 178:1.6325e-06 179:1.6325e-06 180:-0.199999 181:-0.333333 182:-0.142861 183:3.26501e-06 184:-0.199998 
0.3597414444094001 -0.359741444409401 1:-0.862222 2:-0.976658 3:-0.596569 4:-0.705362 5:-0.278513 6:-0.192198 7:-0.797437 8:-0.650707 9:-0.555997 10:-0.857143 11:-1 12:-1 13:-1 14:-1 15:-1 16:-1 17:-1 18:-1 19:-1 20:-1 21:-1 22:-1 23:-1 24:-1 25:-1 26:-1 27:-1 28:-1 32:-0.759709 33:-0.638177 34:-0.483031 35:-0.610626 36:-0.810905 37:-0.405582 38:-0.371145 39:-0.603232 40:-0.316903 41:-0.687922 42:-0.741461 43:-0.731632 44:-0.442388 45:-0.801452 46:-0.634505 47:-0.122694 48:-0.381687 49:-0.756523 50:-0.666697 51:-0.887599 52:-0.510274 53:-0.613037 54:-0.765336 55:-0.39416 56:-0.740024 57:-0.714901 58:-0.699189 59:-0.902119 60:-0.231394 61:-0.327114 62:-0.336427 63:-0.557005 64:-0.98166 65:-0.643533 66:-0.589828 67:-0.716006 68:-0.961254 69:0.0441418 70:-0.555056 71:-0.690274 72:-0.393735 73:-0.840813 74:-0.576319 75:-0.440148 76:-0.740199 77:-0.869723 78:-0.527325 79:-0.841796 80:-0.901508 81:-0.707564 82:-0.504285 83:-0.311149 84:-0.613269 85:-0.684243 86:-0.238796 87:-0.801299 88:-0.776356 89:-0.895785 90:-0.603955 91:-0.453396 92:-0.640509 93:-0.706484 94:-0.496436 95:-0.520184 96:-0.922068 97:-0.219824 98:-0.611591 99:-0.546943 100:-0.222208 101:-0.584397 102:-0.747788 103:-0.820544 104:-0.443026 105:-0.51782 106:-0.905739 107:-0.669398 108:-0.740318 109:-0.239417 110:-0.741288 111:-0.777069 112:-0.922798 113:-0.721204 114:-0.885654 115:-0.710691 116:-0.42703 117:-0.949812 118:-0.622247 119:-0.606105 120:-0.71643 121:-0.744301 122:-0.89555 123:-0.728125 124:-0.862438 125:-0.856459 126:-0.857488 127:-0.801038 128:-0.846557 129:-0.38407 130:-0.750528 131:-0.560828 132:0.111922 133:0.200688 134:-0.446344 135:0.44636 136:0.200688 137:0.813744 138:-0.963041 139:0.951003 140:-0.249417 141:0.0911521 142:-0.14947 144:-1 145:-1 146:-1 147:-1 148:-1 149:-1 150:-1 151:-1 152:0.0494824 153:-0.984463 154:-0.857143 155:-1 156:-1 157:-1 158:-1 159:-1 160:-1 161:-1 162:-1 163:-1 164:-1 165:-1 166:-1 167:-1 168:-1 169:-1 170:-1 171:-1 172:-1 177:-1 178:-1 179:-1 180:-1 181:-1 182:-1 183:-1 184:-1 
6.690483947000026 -6.690483947000009 1:-0.882102 2:-0.504909 3:-0.814067 4:-0.833997 5:0.0633176 6:-0.604097 7:-0.848324 8:-0.847164 9:-0.902247 10:-0.714286 11:-0.5 12:-0.5 13:-0.5 14:-0.428571 15:-0.714286 16:-1 17:-1 18:-1 19:-1 20:-1 21:-1 22:-1 23:-1 24:-1 25:-1 26:-1 27:-1 28:-1 32:-0.581487 33:-0.718238 34:-0.461463 35:-0.677167 36:-0.576102 37:-0.338557 38:-0.700095 39:-0.925688 40:-0.35118 41:-0.787358 42:-0.0623208 43:-0.761265 44:-0.683358 45:-0.167193 46:-0.766929 47:-0.977012 48:-0.343035 49:-0.687256 50:-0.55495 51:-0.285612 52:-0.664447 53:-0.833988 54:-0.906489 55:-0.313133 56:-0.248428 57:-0.795486 58:-0.882528 59:-0.707124 60:-0.802345 61:-0.507785 62:-0.444558 63:-0.765476 64:-0.794687 65:-0.601692 66:-0.590685 67:-0.69067 68:-0.288524 69:-0.546369 70:-0.875638 71:-0.375068 72:-0.718942 73:-0.796085 74:-0.711474 75:-0.201448 76:-0.248641 77:-0.616942 78:-0.768417 79:-0.67466 80:-0.541409 81:-0.521407 82:-0.240949 83:-0.455473 84:-0.716974 85:-0.467421 86:-0.596582 87:-0.478158 88:-0.939905 89:-0.561831 90:-0.888276 91:-0.300873 92:-0.744255 93:-0.951682 94:-0.760029 95:-0.581996 96:-0.890519 97:-0.638053 98:-0.939907 99:-0.767165 100:-0.680555 101:-0.62787 102:-0.733806 103:-0.675899 104:-0.647745 105:-0.531792 106:-0.288811 107:-0.89779 108:-0.786598 109:-0.46291 110:-0.773393 111:-0.485713 112:-0.835231 113:-0.94626 114:-0.613901 115:-0.539024 116:-0.663078 117:-0.440297 118:-0.819801 119:-0.719369 120:-0.764258 121:-0.958671 122:-0.920784 123:-0.610182 124:-0.944791 125:-0.327641 126:-0.789681 127:-0.746539 128:-0.730746 129:-0.938967 130:-0.810943 131:-0.695531 132:-0.282805 133:-0.0458207 134:-0.226835 135:0.226828 136:-0.0458207 137:0.908478 138:-0.23207 139:0.292377 140:-0.464072 141:-0.187969 142:-0.822714 144:-1 145:-1 146:-1 147:-0.2 148:-0.333333 149:-0.428571 150:-0.5 151:-0.8 152:0.0142892 153:-0.83995 154:-0.714285 155:-0.499998 156:-0.499998 157:-0.499998 158:-0.428573 159:-0.714288 160:-1 161:-1 162:-1 163:-1 164:-1 165:-1 166:-1 167:-1 168:-1 169:-1 170:-1 171:-1 172:-1 177:-1 178:-1 179:-1 180:-0.199999 181:-0.333333 182:-0.428573 183:-0.499998 184:-0.799999 
15.07327618164626 -15.07327618164626 1:-0.875411 2:-0.441484 3:-0.833527 4:-0.847488 5:0.100999 6:-0.639132 7:-0.866775 8:-0.861497 9:-0.845495 10:-0.714286 11:-0.5 12:-0.5 13:-0.5 14:-0.428571 15:-0.714286 16:-0.666667 17:-1 18:-1 19:-1 20:-1 21:-1 22:-1 23:-1 24:-1 25:-1 26:-1 27:-1 28:-1 32:-0.566264 33:-0.692483 34:-0.470706 35:-0.736302 36:-0.680818 37:-0.273046 38:-0.761536 39:-0.817477 40:-0.494173 41:-0.675879 42:-0.118788 43:-0.684474 44:-0.507305 45:-0.672281 46:-0.846386 47:-0.80893 48:-0.247648 49:-0.801625 50:-0.831852 51:-0.717528 52:-0.612877 53:-0.890428 54:-0.276011 55:-0.468803 56:-0.968522 57:-0.670249 58:-0.895125 59:-0.774592 60:-0.257016 61:-0.447591 62:-0.74049 63:-0.532231 64:-0.757081 65:-0.429453 66:-0.781834 67:-0.36412 68:-0.268442 69:-0.871907 70:-0.535371 71:-0.205061 72:-0.658688 73:-0.538594 74:-0.401028 75:-0.507425 76:-0.735559 77:-0.831616 78:-0.722103 79:-0.669681 80:-0.672427 81:-0.116965 82:-0.792736 83:-0.676669 84:-0.758981 85:-0.698573 86:-0.595072 87:-0.357151 88:-0.795273 89:-0.851035 90:-0.766688 91:-0.434425 92:-0.849393 93:-0.539676 94:-0.747792 95:-0.928049 96:-0.833667 97:-0.259425 98:-0.115008 99:-0.568296 100:-0.877905 101:-0.546817 102:-0.69104 103:-0.639688 104:-0.325168 105:-0.774172 106:-0.698832 107:-0.797795 108:-0.661389 109:-0.229356 110:-0.541288 111:-0.923355 112:-0.743157 113:-0.85904 114:-0.780508 115:-0.482398 116:-0.513573 117:-0.964143 118:-0.825155 119:-0.805547 120:-0.815406 121:-0.748724 122:-0.816854 123:-0.778932 124:-0.810802 125:-0.59745 126:-0.655277 127:-0.353625 128:-0.738363 129:-0.74247 130:-0.655951 131:-0.63585 132:-0.408464 133:-0.212843 134:-0.060469 135:0.0604735 136:-0.212843 137:0.926782 138:-0.168252 139:0.141961 140:-0.563272 141:-0.285968 142:-0.783684 144:-1 145:-1 146:-0.5 147:-0.2 148:-0.333333 149:-0.428571 150:-0.5 151:-0.8 152:0.0139001 153:-0.690519 154:-0.714285 155:-0.499998 156:-0.499998 157:-0.499998 158:-0.428573 159:-0.714288 160:-0.666667 161:-1 162:-1 163:-1 164:-1 165:-1 166:-1 167:-1 168:-1 169:-1 170:-1 171:-1 172:-1 177:-1 178:-1 179:-0.500001 180:-0.199999 181:-0.333333 182:-0.428573 183:-0.499998 184:-0.799999 
7.227803140245127 -7.227803140245097 1:-0.854192 2:-0.366853 3:-0.846094 4:-0.845739 5:0.156666 6:-0.670487 7:-0.856139 8:-0.855591 9:-0.685233 10:-0.714286 11:-0.5 12:-0.5 13:-0.5 14:-0.428571 15:-0.714286 16:-0.666667 17:-0.666667 18:-1 19:-1 20:-1 21:-1 22:-1 23:-1 24:-1 25:-1 26:-1 27:-1 28:-1 32:-0.576857 33:-0.597532 34:-0.486463 35:-0.791325 36:-0.760392 37:-0.321479 38:-0.677825 39:-0.625308 40:-0.676377 41:-0.498415 42:-0.510894 43:-0.512351 44:-0.431697 45:-0.478497 46:-0.926515 47:-0.497417 48:-0.789648 49:-0.685385 50:-0.54422 51:-0.551147 52:-0.816581 53:-0.506128 54:-0.849351 55:-0.787443 56:-0.0364292 57:-0.980508 58:-0.359676 59:-0.710081 60:-0.57253 61:-0.796234 62:-0.231959 63:-0.485592 64:-0.472361 65:-0.888635 66:-0.668169 67:-0.852469 68:-0.565824 69:-0.383445 70:-0.761328 71:-0.689728 72:-0.713422 73:-0.909599 74:-0.550747 75:-0.195732 76:-0.828261 77:-0.577383 78:-0.31492 79:-0.630746 80:-0.885813 81:-0.147098 82:-0.698623 83:-0.382981 84:-0.500931 85:-0.532483 86:-0.612667 87:-0.691373 88:-0.37209 89:-0.710375 90:-0.559435 91:-0.524037 92:-0.743283 93:-0.892151 94:-0.730663 95:-0.733126 96:-0.616356 97:-0.40171 98:-0.532062 99:-0.768241 100:-0.730806 101:-0.796823 102:-0.467105 103:-0.648368 104:-0.462881 105:-0.508456 106:-0.692878 107:-0.826108 108:-0.275288 109:-0.4639 110:-0.548511 111:-0.723164 112:-0.878181 113:-0.867953 114:-0.587526 115:-0.627109 116:-0.595562 117:-0.802508 118:-0.901174 119:-0.923546 120:-0.666373 121:-0.76345 122:-0.592437 123:-0.787324 124:-0.917746 125:-0.857797 126:-0.706604 127:-0.587615 128:-0.578565 129:-0.652882 130:-0.661796 131:-0.542041 132:-0.539764 133:-0.392278 134:0.136939 135:-0.136929 136:-0.392278 137:0.920841 138:-0.112292 139:-0.0416137 140:-0.621615 141:-0.362094 142:-0.574805 144:-1 145:-1 146:-0.5 147:-0.2 148:-0.333333 149:-0.428571 150:-0.5 151:-0.8 152:-0.0286628 153:-0.441945 154:-0.714285 155:-0.499998 156:-0.499998 157:-0.499998 158:-0.428573 159:-0.714288 160:-0.666667 161:-0.666667 162:-1 163:-1 164:-1 165:-1 166:-1 167:-1 168:-1 169:-1 170:-1 171:-1 172:-1 177:-1 178:-1 179:-0.500001 180:-0.199999 181:-0.333333 182:-0.428573 183:-0.499998 184:-0.799999 
0.08964795319297235 -0.08964795319300606 1:-0.756372 2:-0.24607 3:-0.65803 4:-0.755909 5:-0.232473 6:-0.434479 7:-0.51675 8:-0.466862 9:0.210188 10:-0.714286 11:-0.5 12:-0.5 13:-0.5 14:-0.428571 15:-0.428571 16:-0.666667 17:-0.666667 18:-0.5 19:-0.333333 20:-1 21:-1 22:-1 23:-1 24:-1 25:-1 26:-1 27:-1 28:-1 32:-0.670332 33:-0.235478 34:-0.762048 35:-0.850705 36:-0.587019 37:-0.851714 38:-0.800363 39:-0.654864 40:-0.876464 41:-0.456102 42:-0.615268 43:-0.403009 44:-0.622766 45:-0.752684 46:-0.929774 47:-0.939605 48:-0.858402 49:-0.916213 50:-0.680695 51:-0.21744 52:-0.803999 53:-0.49907 54:-0.767605 55:-0.675541 56:-0.473185 57:-0.750527 58:-0.540762 59:-0.401477 60:-0.807853 61:-0.567879 62:-0.605352 63:-0.674063 64:-0.391948 65:-0.486621 66:-0.7033 67:-0.728465 68:-0.613365 69:-0.936416 70:-0.723925 71:-0.719186 72:-0.754982 73:-0.397994 74:-0.911159 75:-0.771384 76:-0.578096 77:-0.977267 78:-0.590743 79:-0.673622 80:-0.888982 81:-0.241537 82:-0.693522 83:-0.602297 84:-0.379347 85:-0.784361 86:-0.39745 87:-0.970071 88:-0.670762 89:-0.812394 90:-0.575983 91:-0.648708 92:-0.834323 93:-0.667365 94:-0.709798 95:-0.665144 96:-0.558309 97:-0.601176 98:-0.333213 99:-0.9528 100:-0.65521 101:-0.874259 102:-0.804586 103:-0.96796 104:-0.654039 105:-0.71762 106:-0.582178 107:-0.804857 108:-0.674743 109:-0.629878 110:-0.812151 111:-0.796995 112:-0.872161 113:-0.881675 114:-0.820215 115:-0.852313 116:-0.743064 117:-0.842901 118:-0.776634 119:-0.817114 120:-0.822929 121:-0.890435 122:-0.941469 123:-0.922518 124:-0.808202 125:-0.965364 126:-0.513227 127:-0.835337 128:-0.357546 129:-0.754579 130:-0.670675 131:-0.126514 132:-0.610302 133:-0.6299 134:0.433772 135:-0.433788 136:-0.6299 137:0.891297 138:-0.0530186 139:-0.305641 140:-0.324405 141:0.0294779 142:0.840261 144:-1 145:-0.5 146:-0.5 147:-0.2 148:-0.333333 149:-0.428571 150:-0.5 151:-0.8 152:0.101056 153:-0.475082 154:-0.714285 155:-0.499998 156:-0.499998 157:-0.499998 158:-0.428573 159:-0.428573 160:-0.666667 161:-0.666667 162:-0.500001 163:-0.333335 164:-1 165:-1 166:-1 167:-1 168:-1 169:-1 170:-1 171:-1 172:-1 177:-1 178:-0.500001 179:-0.500001 180:-0.199999 181:-0.333333 182:-0.428573 183:-0.499998 184:-0.799999 
3.859206191383272 -3.859206191383271 1:-0.434792 2:-0.00381838 3:-0.117307 4:-0.381827 5:-0.574873 6:0.186529 7:0.0290453 8:0.33753 9:0.353241 10:-0.428571 14:0.142857 15:0.142857 17:-0.666667 18:-0.5 19:-0.333333 20:-1 21:-1 22:-1 23:-1 24:-1 25:-1 26:-1 27:-1 28:-1 32:-0.70971 33:-0.782073 34:-0.388487 35:-0.296754 36:-0.45039 37:-0.891055 38:-0.722306 39:-0.655128 40:-0.427378 41:-0.262549 42:-0.417933 43:-0.835511 44:-0.618423 45:-0.587533 46:-0.444618 47:-0.566387 48:-0.677884 49:-0.814599 50:-0.265183 51:-0.697211 52:-0.554128 53:-0.847088 54:-0.26744 55:-0.42225 56:-0.515999 57:-0.515428 58:-0.41391 59:0.0545771 60:-0.477711 61:-0.467696 62:-0.336827 63:-0.390402 64:-0.798149 65:-0.669247 66:-0.354616 67:-0.881444 68:-0.87488 69:0.00446398 70:-0.640115 71:-0.124102 72:-0.614941 73:-0.603502 74:-0.94445 75:-0.470413 76:-0.131643 77:-0.738544 78:-0.383 79:-0.249212 80:-0.559414 81:-0.598378 82:-0.389449 83:-0.145177 84:-0.233177 85:-0.616497 86:-0.48582 87:-0.668771 88:-0.573002 89:-0.588984 90:-0.298165 91:-0.980488 92:-0.570437 93:-0.824267 94:-0.881907 95:-0.574342 96:-0.686529 97:-0.432709 98:-0.514322 99:-0.228699 100:-0.768478 101:-0.330912 102:-0.544583 103:-0.653613 104:-0.727089 105:-0.58196 106:-0.336525 107:-0.726769 108:-0.711708 109:0.0517941 110:-0.663283 111:-0.931447 112:-0.785676 113:-0.642729 114:-0.508523 115:-0.991652 116:-0.566408 117:-0.791622 118:-0.451583 119:-0.701856 120:-0.56248 121:-0.811849 122:-0.823344 123:-0.695357 124:-0.665825 125:-0.405073 126:-0.594124 127:-0.622702 128:-0.360906 129:-0.512302 130:-0.799151 131:0.568197 132:-0.315936 133:-0.649664 134:0.460544 135:-0.46056 136:-0.649664 137:0.696853 138:0.0701447 139:-0.496448 140:-0.11099 141:0.378657 142:0.339306 144:-1 145:-1 146:-0.5 147:-0.2 149:0.142857 151:-0.4 152:-0.141298 153:-0.605581 154:-0.428572 155:3.26501e-06 156:3.26501e-06 157:3.26501e-06 158:0.142852 159:0.142852 161:-0.666667 162:-0.500001 163:-0.333335 164:-1 165:-1 166:-1 167:-1 168:-1 169:-1 170:-1 171:-1 172:-1 177:-1 178:-1 179:-0.500001 180:-0.199999 182:0.142852 183:3.26501e-06 184:-0.399999 
4.48528159843667 -4.485281598436666 1:-0.443887 2:-0.0980836 3:0.0174704 4:-0.340506 5:-0.678266 6:0.409694 7:0.00786729 8:-0.131924 9:-0.0255516 10:-0.571429 11:-0.25 12:-0.25 13:-0.25 14:-0.142857 15:-0.428571 16:-0.333333 17:-0.333333 18:-0.5 19:-0.333333 20:-1 21:-1 22:-1 23:-1 24:-1 25:-1 26:-1 27:-1 28:-1 32:-0.75468 33:-0.66345 34:-0.289761 35:-0.124405 36:-0.569504 37:-0.798208 38:-0.657351 39:-0.360187 40:-0.444954 41:-0.585643 42:0.114974 43:-0.61884 44:-0.575845 45:-0.515149 46:-0.0622742 47:-0.368874 48:-0.768735 49:-0.435492 50:-0.310062 51:-0.662589 52:-0.44071 53:-0.221781 54:-0.725691 55:-0.269393 56:-0.657361 57:-0.75919 58:-0.434755 59:-0.870696 60:-0.541789 61:-0.486298 62:-0.501632 63:-0.82532 64:0.0650086 65:0.0561433 66:-0.75998 67:-0.546727 68:-0.815888 69:-0.0269405 70:-0.119692 71:-0.694892 72:-0.926412 73:-0.7762 74:-0.776932 75:-0.828557 76:-0.632601 77:-0.977151 78:-0.540305 79:-0.52576 80:0.0598165 81:-0.553498 82:-0.410981 83:-0.653533 84:-0.123694 85:0.0322134 86:-0.807688 87:-0.384967 88:-0.462279 89:-0.286599 90:-0.860484 91:-0.384848 92:-0.558818 93:-0.579308 94:-0.505579 95:-0.814802 96:-0.0588938 97:-0.772149 98:-0.690557 99:-0.111203 100:-0.476124 101:-0.965754 102:-0.548554 103:-0.441469 104:-0.323961 105:-0.721215 106:-0.844161 107:-0.417086 108:-0.787513 109:-0.302659 110:-0.436482 111:-0.781127 112:-0.699756 113:-0.623158 114:-0.297699 115:-0.575304 116:-0.74501 117:-0.807931 118:-0.835753 119:-0.656301 120:-0.826005 121:-0.897649 122:-0.665223 123:-0.752859 124:-0.865106 125:-0.790949 126:-0.425234 127:-0.880753 128:0.0113303 129:-0.415463 130:-0.459955 131:0.168919 132:0.180531 133:-0.229891 134:-0.0425858 135:0.0425956 136:-0.229891 137:0.638407 138:-0.0425255 139:-0.311576 140:-0.0825691 141:0.0890573 142:0.0306148 144:-1 145:-1 146:-0.5 147:-0.6 149:-0.142857 150:-0.25 151:-0.4 152:-0.0880417 153:-0.744339 154:-0.571428 155:-0.249997 156:-0.249997 157:-0.249997 158:-0.142861 159:-0.428573 160:-0.333333 161:-0.333333 162:-0.500001 163:-0.333335 164:-1 165:-1 166:-1 167:-1 168:-1 169:-1 170:-1 171:-1 172:-1 177:-1 178:-1 179:-0.500001 180:-0.600001 182:-0.142861 183:-0.249997 184:-0.399999 
2.99364770658375 -2.993647706583745 1:-0.477738 2:-0.10802 3:-0.0273932 4:-0.358765 5:-0.651337 6:0.356007 7:-0.0143416 8:-0.22957 9:-0.18389 10:-0.571429 11:-0.25 12:-0.25 13:-0.25 14:-0.142857 15:-0.428571 16:-0.333333 17:-0.333333 18:-0.5 19:-0.333333 20:-1 21:-1 22:-1 23:-1 24:-1 25:-1 26:-1 27:-1 28:-1 32:-0.805475 33:-0.68496 34:-0.13651 35:-0.274592 36:-0.527762 37:-0.773231 38:-0.618719 39:-0.32478 40:-0.380359 41:-0.728735 42:0.0131746 43:-0.423186 44:-0.676796 45:-0.663394 46:-0.286578 47:-0.365725 48:-0.515253 49:-0.157964 50:-0.553057 51:-0.321388 52:-0.559519 53:-0.401322 54:-0.357592 55:-0.446017 56:-0.905847 57:-0.626638 58:-0.397188 59:-0.685718 60:-0.411808 61:-0.453361 62:-0.536651 63:0.209759 64:-0.0263394 65:-0.597888 66:-0.397123 67:-0.822509 68:-0.402338 69:-0.0785959 70:-0.655623 71:-0.430977 72:-0.754637 73:-0.921183 74:-0.557786 75:-0.571367 76:-0.752402 77:-0.406152 78:0.247366 79:-0.458867 80:-0.421558 81:-0.3337 82:-0.727355 83:-0.571374 84:-0.0429894 85:-0.529256 86:-0.513823 87:-0.431352 88:-0.527871 89:-0.463363 90:-0.758997 91:-0.402257 92:-0.237456 93:-0.591948 94:-0.812976 95:-0.190124 96:-0.972499 97:-0.939503 98:-0.209588 99:-0.415548 100:-0.6429 101:-0.609546 102:-0.830463 103:-0.569926 104:-0.858157 105:-0.543988 106:-0.227842 107:-0.244929 108:-0.498763 109:-0.0701799 110:-0.571638 111:-0.515331 112:-0.876411 113:-0.580054 114:-0.422372 115:-0.547495 116:-0.87551 117:-0.822201 118:-0.809043 119:-0.715236 120:-0.463283 121:-0.807549 122:-0.845866 123:-0.417107 124:-0.809249 125:-0.801066 126:-0.645581 127:-0.428643 128:-0.497199 129:-0.52057 130:-0.808652 131:0.0423271 132:0.237708 133:-0.130526 134:-0.144413 135:0.144405 136:-0.130526 137:0.616891 138:0.0139086 139:-0.260231 140:-0.0354643 141:0.106562 142:-0.0667059 144:-1 145:-1 146:-0.5 147:-0.2 149:-0.142857 150:-0.25 151:-0.6 152:-0.0941737 153:-0.756978 154:-0.571428 155:-0.249997 156:-0.249997 157:-0.249997 158:-0.142861 159:-0.428573 160:-0.333333 161:-0.333333 162:-0.500001 163:-0.333335 164:-1 165:-1 166:-1 167:-1 168:-1 169:-1 170:-1 171:-1 172:-1 177:-1 178:-1 179:-0.500001 180:-0.199999 182:-0.142861 183:-0.249997 184:-0.599999 
1.030108101876759 -1.030108101876753 1:-0.499845 2:-0.157707 3:-0.0857243 4:-0.45742 5:-0.704625 6:0.343071 7:-0.138559 8:-0.333744 9:-0.266807 10:-0.571429 11:-0.25 12:-0.25 13:-0.5 14:-0.428571 15:-0.428571 16:-0.333333 17:-0.333333 18:-0.5 19:-0.333333 20:-1 21:-1 22:-1 23:-1 24:-1 25:-1 26:-1 27:-1 28:-1 32:-0.752962 33:-0.41954 34:-0.0361309 35:-0.820876 36:-0.699958 37:-0.704921 38:-0.848167 39:-0.00635185 40:-0.425671 41:-0.462681 42:-0.637852 43:-0.593565 44:-0.0898026 45:-0.612496 46:-0.375637 47:0.0443618 48:-0.728447 49:-0.447208 50:-0.546515 51:-0.469583 52:-0.234807 53:-0.9149 54:-0.860778 55:-0.561326 56:-0.36544 57:-0.971959 58:-0.792512 59:-0.248807 60:0.422225 61:-0.398286 62:-0.279666 63:-0.287113 64:-0.357246 65:-0.196491 66:-0.778078 67:-0.563675 68:-0.391148 69:-0.415904 70:0.433729 71:-0.337946 72:-0.555656 73:-0.393251 74:-0.125247 75:-0.284382 76:-0.889312 77:-0.389103 78:-0.519389 79:-0.448564 80:-0.811307 81:-0.370222 82:-0.570192 83:-0.407828 84:-0.384052 85:-0.0801119 86:-0.595306 87:-0.531195 88:-0.234945 89:-0.133344 90:-0.716973 91:-0.678099 92:-0.619235 93:-0.587441 94:-0.45219 95:-0.153884 96:-0.452384 97:-0.689374 98:-0.336843 99:-0.659172 100:-0.538781 101:-0.173771 102:-0.591632 103:-0.526351 104:-0.764959 105:-0.845714 106:-0.440713 107:-0.856963 108:-0.614343 109:-0.292357 110:-0.701681 111:-0.541591 112:-0.77776 113:-0.769458 114:-0.858381 115:-0.213234 116:-0.706339 117:-0.763014 118:-0.767077 119:-0.422665 120:-0.606742 121:-0.600661 122:-0.731572 123:-0.860887 124:-0.61043 125:-0.513382 126:-0.596088 127:-0.341646 128:-0.317915 129:-0.6091 130:-0.934888 131:-0.209674 132:0.309901 133:0.074749 134:-0.337791 135:0.337779 136:0.074749 137:0.459698 138:-0.107054 139:-0.134196 140:-0.0792825 141:0.109039 142:-0.062744 144:-1 145:-1 146:-1 147:-0.6 149:-0.142857 150:-0.25 151:-0.6 152:0.091314 153:-0.725881 154:-0.571428 155:-0.249997 156:-0.249997 157:-0.499998 158:-0.428573 159:-0.428573 160:-0.333333 161:-0.333333 162:-0.500001 163:-0.333335 164:-1 165:-1 166:-1 167:-1 168:-1 169:-1 170:-1 171:-1 172:-1 177:-1 178:-1 179:-1 180:-0.600001 182:-0.142861 183:-0.249997 184:-0.599999 
